FANN_FLO_2.1
num_layers=5
learning_rate=0.700000
connection_rate=1.000000
network_type=0
learning_momentum=0.000000
training_algorithm=2
train_error_function=1
train_stop_function=0
cascade_output_change_fraction=0.010000
quickprop_decay=-0.000100
quickprop_mu=1.750000
rprop_increase_factor=1.200000
rprop_decrease_factor=0.500000
rprop_delta_min=0.000000
rprop_delta_max=50.000000
rprop_delta_zero=0.100000
cascade_output_stagnation_epochs=12
cascade_candidate_change_fraction=0.010000
cascade_candidate_stagnation_epochs=12
cascade_max_out_epochs=150
cascade_min_out_epochs=50
cascade_max_cand_epochs=150
cascade_min_cand_epochs=50
cascade_num_candidate_groups=2
bit_fail_limit=3.49999994039535522461e-01
cascade_candidate_limit=1.00000000000000000000e+03
cascade_weight_multiplier=4.00000005960464477539e-01
cascade_activation_functions_count=10
cascade_activation_functions=3 5 7 8 10 11 14 15 16 17 
cascade_activation_steepnesses_count=4
cascade_activation_steepnesses=2.50000000000000000000e-01 5.00000000000000000000e-01 7.50000000000000000000e-01 1.00000000000000000000e+00 
layer_sizes=2 51 51 51 127 
scale_included=0
neurons (num_inputs, activation_function, activation_steepness)=(0, 0, 0.00000000000000000000e+00) (0, 0, 0.00000000000000000000e+00) (2, 5, 5.00000000000000000000e-01) (2, 5, 5.00000000000000000000e-01) (2, 5, 5.00000000000000000000e-01) (2, 5, 5.00000000000000000000e-01) (2, 5, 5.00000000000000000000e-01) (2, 5, 5.00000000000000000000e-01) (2, 5, 5.00000000000000000000e-01) (2, 5, 5.00000000000000000000e-01) (2, 5, 5.00000000000000000000e-01) (2, 5, 5.00000000000000000000e-01) (2, 5, 5.00000000000000000000e-01) (2, 5, 5.00000000000000000000e-01) (2, 5, 5.00000000000000000000e-01) (2, 5, 5.00000000000000000000e-01) (2, 5, 5.00000000000000000000e-01) (2, 5, 5.00000000000000000000e-01) (2, 5, 5.00000000000000000000e-01) (2, 5, 5.00000000000000000000e-01) (2, 5, 5.00000000000000000000e-01) (2, 5, 5.00000000000000000000e-01) (2, 5, 5.00000000000000000000e-01) (2, 5, 5.00000000000000000000e-01) (2, 5, 5.00000000000000000000e-01) (2, 5, 5.00000000000000000000e-01) (2, 5, 5.00000000000000000000e-01) (2, 5, 5.00000000000000000000e-01) (2, 5, 5.00000000000000000000e-01) (2, 5, 5.00000000000000000000e-01) (2, 5, 5.00000000000000000000e-01) (2, 5, 5.00000000000000000000e-01) (2, 5, 5.00000000000000000000e-01) (2, 5, 5.00000000000000000000e-01) (2, 5, 5.00000000000000000000e-01) (2, 5, 5.00000000000000000000e-01) (2, 5, 5.00000000000000000000e-01) (2, 5, 5.00000000000000000000e-01) (2, 5, 5.00000000000000000000e-01) (2, 5, 5.00000000000000000000e-01) (2, 5, 5.00000000000000000000e-01) (2, 5, 5.00000000000000000000e-01) (2, 5, 5.00000000000000000000e-01) (2, 5, 5.00000000000000000000e-01) (2, 5, 5.00000000000000000000e-01) (2, 5, 5.00000000000000000000e-01) (2, 5, 5.00000000000000000000e-01) (2, 5, 5.00000000000000000000e-01) (2, 5, 5.00000000000000000000e-01) (2, 5, 5.00000000000000000000e-01) (2, 5, 5.00000000000000000000e-01) (2, 5, 5.00000000000000000000e-01) (0, 5, 0.00000000000000000000e+00) (51, 5, 5.00000000000000000000e-01) (51, 5, 5.00000000000000000000e-01) (51, 5, 5.00000000000000000000e-01) (51, 5, 5.00000000000000000000e-01) (51, 5, 5.00000000000000000000e-01) (51, 5, 5.00000000000000000000e-01) (51, 5, 5.00000000000000000000e-01) (51, 5, 5.00000000000000000000e-01) (51, 5, 5.00000000000000000000e-01) (51, 5, 5.00000000000000000000e-01) (51, 5, 5.00000000000000000000e-01) (51, 5, 5.00000000000000000000e-01) (51, 5, 5.00000000000000000000e-01) (51, 5, 5.00000000000000000000e-01) (51, 5, 5.00000000000000000000e-01) (51, 5, 5.00000000000000000000e-01) (51, 5, 5.00000000000000000000e-01) (51, 5, 5.00000000000000000000e-01) (51, 5, 5.00000000000000000000e-01) (51, 5, 5.00000000000000000000e-01) (51, 5, 5.00000000000000000000e-01) (51, 5, 5.00000000000000000000e-01) (51, 5, 5.00000000000000000000e-01) (51, 5, 5.00000000000000000000e-01) (51, 5, 5.00000000000000000000e-01) (51, 5, 5.00000000000000000000e-01) (51, 5, 5.00000000000000000000e-01) (51, 5, 5.00000000000000000000e-01) (51, 5, 5.00000000000000000000e-01) (51, 5, 5.00000000000000000000e-01) (51, 5, 5.00000000000000000000e-01) (51, 5, 5.00000000000000000000e-01) (51, 5, 5.00000000000000000000e-01) (51, 5, 5.00000000000000000000e-01) (51, 5, 5.00000000000000000000e-01) (51, 5, 5.00000000000000000000e-01) (51, 5, 5.00000000000000000000e-01) (51, 5, 5.00000000000000000000e-01) (51, 5, 5.00000000000000000000e-01) (51, 5, 5.00000000000000000000e-01) (51, 5, 5.00000000000000000000e-01) (51, 5, 5.00000000000000000000e-01) (51, 5, 5.00000000000000000000e-01) (51, 5, 5.00000000000000000000e-01) (51, 5, 5.00000000000000000000e-01) (51, 5, 5.00000000000000000000e-01) (51, 5, 5.00000000000000000000e-01) (51, 5, 5.00000000000000000000e-01) (51, 5, 5.00000000000000000000e-01) (51, 5, 5.00000000000000000000e-01) (0, 5, 0.00000000000000000000e+00) (51, 5, 5.00000000000000000000e-01) (51, 5, 5.00000000000000000000e-01) (51, 5, 5.00000000000000000000e-01) (51, 5, 5.00000000000000000000e-01) (51, 5, 5.00000000000000000000e-01) (51, 5, 5.00000000000000000000e-01) (51, 5, 5.00000000000000000000e-01) (51, 5, 5.00000000000000000000e-01) (51, 5, 5.00000000000000000000e-01) (51, 5, 5.00000000000000000000e-01) (51, 5, 5.00000000000000000000e-01) (51, 5, 5.00000000000000000000e-01) (51, 5, 5.00000000000000000000e-01) (51, 5, 5.00000000000000000000e-01) (51, 5, 5.00000000000000000000e-01) (51, 5, 5.00000000000000000000e-01) (51, 5, 5.00000000000000000000e-01) (51, 5, 5.00000000000000000000e-01) (51, 5, 5.00000000000000000000e-01) (51, 5, 5.00000000000000000000e-01) (51, 5, 5.00000000000000000000e-01) (51, 5, 5.00000000000000000000e-01) (51, 5, 5.00000000000000000000e-01) (51, 5, 5.00000000000000000000e-01) (51, 5, 5.00000000000000000000e-01) (51, 5, 5.00000000000000000000e-01) (51, 5, 5.00000000000000000000e-01) (51, 5, 5.00000000000000000000e-01) (51, 5, 5.00000000000000000000e-01) (51, 5, 5.00000000000000000000e-01) (51, 5, 5.00000000000000000000e-01) (51, 5, 5.00000000000000000000e-01) (51, 5, 5.00000000000000000000e-01) (51, 5, 5.00000000000000000000e-01) (51, 5, 5.00000000000000000000e-01) (51, 5, 5.00000000000000000000e-01) (51, 5, 5.00000000000000000000e-01) (51, 5, 5.00000000000000000000e-01) (51, 5, 5.00000000000000000000e-01) (51, 5, 5.00000000000000000000e-01) (51, 5, 5.00000000000000000000e-01) (51, 5, 5.00000000000000000000e-01) (51, 5, 5.00000000000000000000e-01) (51, 5, 5.00000000000000000000e-01) (51, 5, 5.00000000000000000000e-01) (51, 5, 5.00000000000000000000e-01) (51, 5, 5.00000000000000000000e-01) (51, 5, 5.00000000000000000000e-01) (51, 5, 5.00000000000000000000e-01) (51, 5, 5.00000000000000000000e-01) (0, 5, 0.00000000000000000000e+00) (51, 0, 5.00000000000000000000e-01) (51, 0, 5.00000000000000000000e-01) (51, 0, 5.00000000000000000000e-01) (51, 0, 5.00000000000000000000e-01) (51, 0, 5.00000000000000000000e-01) (51, 0, 5.00000000000000000000e-01) (51, 0, 5.00000000000000000000e-01) (51, 0, 5.00000000000000000000e-01) (51, 0, 5.00000000000000000000e-01) (51, 0, 5.00000000000000000000e-01) (51, 0, 5.00000000000000000000e-01) (51, 0, 5.00000000000000000000e-01) (51, 0, 5.00000000000000000000e-01) (51, 0, 5.00000000000000000000e-01) (51, 0, 5.00000000000000000000e-01) (51, 0, 5.00000000000000000000e-01) (51, 0, 5.00000000000000000000e-01) (51, 0, 5.00000000000000000000e-01) (51, 0, 5.00000000000000000000e-01) (51, 0, 5.00000000000000000000e-01) (51, 0, 5.00000000000000000000e-01) (51, 0, 5.00000000000000000000e-01) (51, 0, 5.00000000000000000000e-01) (51, 0, 5.00000000000000000000e-01) (51, 0, 5.00000000000000000000e-01) (51, 0, 5.00000000000000000000e-01) (51, 0, 5.00000000000000000000e-01) (51, 0, 5.00000000000000000000e-01) (51, 0, 5.00000000000000000000e-01) (51, 0, 5.00000000000000000000e-01) (51, 0, 5.00000000000000000000e-01) (51, 0, 5.00000000000000000000e-01) (51, 0, 5.00000000000000000000e-01) (51, 0, 5.00000000000000000000e-01) (51, 0, 5.00000000000000000000e-01) (51, 0, 5.00000000000000000000e-01) (51, 0, 5.00000000000000000000e-01) (51, 0, 5.00000000000000000000e-01) (51, 0, 5.00000000000000000000e-01) (51, 0, 5.00000000000000000000e-01) (51, 0, 5.00000000000000000000e-01) (51, 0, 5.00000000000000000000e-01) (51, 0, 5.00000000000000000000e-01) (51, 0, 5.00000000000000000000e-01) (51, 0, 5.00000000000000000000e-01) (51, 0, 5.00000000000000000000e-01) (51, 0, 5.00000000000000000000e-01) (51, 0, 5.00000000000000000000e-01) (51, 0, 5.00000000000000000000e-01) (51, 0, 5.00000000000000000000e-01) (51, 0, 5.00000000000000000000e-01) (51, 0, 5.00000000000000000000e-01) (51, 0, 5.00000000000000000000e-01) (51, 0, 5.00000000000000000000e-01) (51, 0, 5.00000000000000000000e-01) (51, 0, 5.00000000000000000000e-01) (51, 0, 5.00000000000000000000e-01) (51, 0, 5.00000000000000000000e-01) (51, 0, 5.00000000000000000000e-01) (51, 0, 5.00000000000000000000e-01) (51, 0, 5.00000000000000000000e-01) (51, 0, 5.00000000000000000000e-01) (51, 0, 5.00000000000000000000e-01) (51, 0, 5.00000000000000000000e-01) (51, 0, 5.00000000000000000000e-01) (51, 0, 5.00000000000000000000e-01) (51, 0, 5.00000000000000000000e-01) (51, 0, 5.00000000000000000000e-01) (51, 0, 5.00000000000000000000e-01) (51, 0, 5.00000000000000000000e-01) (51, 0, 5.00000000000000000000e-01) (51, 0, 5.00000000000000000000e-01) (51, 0, 5.00000000000000000000e-01) (51, 0, 5.00000000000000000000e-01) (51, 0, 5.00000000000000000000e-01) (51, 0, 5.00000000000000000000e-01) (51, 0, 5.00000000000000000000e-01) (51, 0, 5.00000000000000000000e-01) (51, 0, 5.00000000000000000000e-01) (51, 0, 5.00000000000000000000e-01) (51, 0, 5.00000000000000000000e-01) (51, 0, 5.00000000000000000000e-01) (51, 0, 5.00000000000000000000e-01) (51, 0, 5.00000000000000000000e-01) (51, 0, 5.00000000000000000000e-01) (51, 0, 5.00000000000000000000e-01) (51, 0, 5.00000000000000000000e-01) (51, 0, 5.00000000000000000000e-01) (51, 0, 5.00000000000000000000e-01) (51, 0, 5.00000000000000000000e-01) (51, 0, 5.00000000000000000000e-01) (51, 0, 5.00000000000000000000e-01) (51, 0, 5.00000000000000000000e-01) (51, 0, 5.00000000000000000000e-01) (51, 0, 5.00000000000000000000e-01) (51, 0, 5.00000000000000000000e-01) (51, 0, 5.00000000000000000000e-01) (51, 0, 5.00000000000000000000e-01) (51, 0, 5.00000000000000000000e-01) (51, 0, 5.00000000000000000000e-01) (51, 0, 5.00000000000000000000e-01) (51, 0, 5.00000000000000000000e-01) (51, 0, 5.00000000000000000000e-01) (51, 0, 5.00000000000000000000e-01) (51, 0, 5.00000000000000000000e-01) (51, 0, 5.00000000000000000000e-01) (51, 0, 5.00000000000000000000e-01) (51, 0, 5.00000000000000000000e-01) (51, 0, 5.00000000000000000000e-01) (51, 0, 5.00000000000000000000e-01) (51, 0, 5.00000000000000000000e-01) (51, 0, 5.00000000000000000000e-01) (51, 0, 5.00000000000000000000e-01) (51, 0, 5.00000000000000000000e-01) (51, 0, 5.00000000000000000000e-01) (51, 0, 5.00000000000000000000e-01) (51, 0, 5.00000000000000000000e-01) (51, 0, 5.00000000000000000000e-01) (51, 0, 5.00000000000000000000e-01) (51, 0, 5.00000000000000000000e-01) (51, 0, 5.00000000000000000000e-01) (51, 0, 5.00000000000000000000e-01) (51, 0, 5.00000000000000000000e-01) (51, 0, 5.00000000000000000000e-01) (51, 0, 5.00000000000000000000e-01) (51, 0, 5.00000000000000000000e-01) (0, 0, 0.00000000000000000000e+00) 
connections (connected_to_neuron, weight)=(0, -1.45163655281066894531e-01) (1, 1.62556610107421875000e+01) (0, 7.51636689528822898865e-04) (1, 1.08789336681365966797e+00) (0, 2.40948438644409179688e-01) (1, 3.60209512710571289062e+00) (0, -6.18618249893188476562e-01) (1, 1.05662894248962402344e+00) (0, 3.70811037719249725342e-02) (1, 1.34548294544219970703e+00) (0, -5.34505963325500488281e-01) (1, 1.52839851379394531250e+00) (0, 1.85716971755027770996e-01) (1, 2.88470602035522460938e+00) (0, 5.25951792951673269272e-04) (1, 4.48568153381347656250e+00) (0, -4.92652297019958496094e-01) (1, 7.59248375892639160156e-01) (0, 1.27835914492607116699e-01) (1, -2.67322196960449218750e+01) (0, -1.23738396167755126953e+00) (1, -1.80770862102508544922e+00) (0, 3.99984031915664672852e-01) (1, -5.16393661499023437500e-01) (0, -1.07841086387634277344e+00) (1, -1.85247981548309326172e+00) (0, -4.74729120731353759766e-01) (1, -4.36457723379135131836e-01) (0, 2.33801007270812988281e-01) (1, 6.73382461071014404297e-01) (0, 6.51938989758491516113e-02) (1, 1.49964404296875000000e+03) (0, 1.10980712634045630693e-04) (1, 4.36659812927246093750e+00) (0, -2.76967257261276245117e-01) (1, 6.09967422485351562500e+00) (0, 4.98373359441757202148e-02) (1, 8.26505243778228759766e-01) (0, -2.61614412069320678711e-01) (1, 1.15516700744628906250e+01) (0, 3.82193595170974731445e-01) (1, 3.89444303512573242188e+00) (0, 1.62886863108724355698e-07) (1, 4.60936355590820312500e+00) (0, 2.98164528794586658478e-03) (1, -4.05983895063400268555e-01) (0, 1.38635924085974693298e-02) (1, 4.89151048660278320312e+00) (0, 1.49900170898437500000e+03) (1, 1.49926208496093750000e+03) (0, -2.51946678161621093750e+01) (1, 2.41839170455932617188e+00) (0, -5.13921618461608886719e-01) (1, 5.85953760147094726562e+00) (0, -4.63152828160673379898e-04) (1, 1.34695994853973388672e+00) (0, -3.66244208998978137970e-03) (1, 2.03266716003417968750e+00) (0, -6.62931382656097412109e-01) (1, 9.54385474324226379395e-03) (0, 4.77230362594127655029e-02) (1, 1.48093530273437500000e+03) (0, 8.56647174805402755737e-03) (1, 3.37052893638610839844e+00) (0, -2.69391983747482299805e-01) (1, 2.66794371604919433594e+00) (0, 3.85022014379501342773e-02) (1, 9.74020576477050781250e+00) (0, -1.91860124468803405762e-01) (1, 3.16807985305786132812e+00) (0, 4.65998500585556030273e-02) (1, 8.38503003120422363281e-01) (0, 4.38577349996194243431e-04) (1, 3.00414872169494628906e+00) (0, 3.96900082705542445183e-04) (1, 4.70904684066772460938e+00) (0, 1.23944040387868881226e-02) (1, 4.86310720443725585938e+00) (0, 1.19431503117084503174e-03) (1, 4.36734676361083984375e+00) (0, 6.77124410867691040039e-02) (1, -1.54585823416709899902e-01) (0, 5.20288012921810150146e-04) (1, 4.89911937713623046875e+00) (0, -6.70121192932128906250e-01) (1, 1.82535930071026086807e-03) (0, -4.67737346887588500977e-01) (1, 2.32060208916664123535e-01) (0, -1.09653544425964355469e+00) (1, -1.90332424640655517578e+00) (0, -1.24517345428466796875e+00) (1, -3.95891261100769042969e+00) (0, 2.46785841882228851318e-02) (1, 1.65483129024505615234e+00) (0, -7.43618607521057128906e-01) (1, -1.70501291751861572266e+00) (0, 1.34331043809652328491e-02) (1, 4.76281642913818359375e+00) (0, -1.10681903362274169922e+00) (1, -2.54287809133529663086e-01) (2, -1.19125634431838989258e-01) (3, 5.30248761177062988281e-01) (4, 4.14423435926437377930e-01) (5, 6.67616486549377441406e-01) (6, 6.15788111463189125061e-03) (7, 1.24440205097198486328e+00) (8, 1.01186603307723999023e-01) (9, -1.45407319068908691406e+00) (10, 6.37772560119628906250e-01) (11, 5.37193238735198974609e-01) (12, 9.85724210739135742188e-01) (13, 4.50710594654083251953e-01) (14, 9.86260235309600830078e-01) (15, 1.30767691135406494141e+00) (16, 5.50848364830017089844e-01) (17, 1.49375110864639282227e-01) (18, 2.95645445585250854492e-02) (19, 4.82024729251861572266e-01) (20, 5.58534502983093261719e-01) (21, 1.44471049308776855469e-01) (22, 4.40606117248535156250e-01) (23, -1.24653077125549316406e+00) (24, 5.01587808132171630859e-01) (25, 8.73112976551055908203e-02) (26, 2.76754647493362426758e-01) (27, 2.05543205142021179199e-01) (28, 1.08110558986663818359e+00) (29, -2.65217542648315429688e+00) (30, -5.85916489362716674805e-02) (31, 3.89932304620742797852e-01) (32, -8.96947085857391357422e-02) (33, -6.34279549121856689453e-02) (34, 3.84617179632186889648e-01) (35, 4.77938205003738403320e-01) (36, 6.80304050445556640625e-01) (37, 5.42875111103057861328e-01) (38, 9.82800647616386413574e-02) (39, -3.90859767794609069824e-02) (40, 7.32929557561874389648e-02) (41, 4.94760386645793914795e-02) (42, 4.13329631090164184570e-01) (43, -2.30128690600395202637e-02) (44, 4.12972301244735717773e-01) (45, 6.59941375255584716797e-01) (46, 8.82661700248718261719e-01) (47, 9.29323971271514892578e-01) (48, 2.55542118102312088013e-02) (49, 8.64929676055908203125e-01) (50, -1.72936469316482543945e-02) (51, 2.66762703657150268555e-01) (52, 8.68654549121856689453e-02) (2, -2.32534736394882202148e-01) (3, 9.24252495169639587402e-02) (4, 1.89939171075820922852e-01) (5, 3.15093845129013061523e-01) (6, -2.75881052017211914062e-01) (7, 7.58082032203674316406e-01) (8, -5.48191726207733154297e-01) (9, -3.17236989736557006836e-01) (10, 2.89424210786819458008e-01) (11, 2.04953327775001525879e-01) (12, 1.11583650112152099609e+00) (13, 3.44296872615814208984e-01) (14, 1.14218652248382568359e+00) (15, 8.25738430023193359375e-01) (16, 1.73596531152725219727e-01) (17, -4.12234395742416381836e-01) (18, -2.02845960855484008789e-01) (19, -4.36762394383549690247e-03) (20, 2.51316219568252563477e-01) (21, 2.53700643777847290039e-01) (22, 1.11300170421600341797e-01) (23, -2.47036814689636230469e-01) (24, 3.85997056961059570312e-01) (25, -2.21441850066184997559e-01) (26, -3.11705786734819412231e-02) (27, 6.20159685611724853516e-01) (28, 6.55914306640625000000e-01) (29, 1.74218386411666870117e-01) (30, -1.00129880011081695557e-01) (31, 5.67459881305694580078e-01) (32, -3.49996417760848999023e-01) (33, -2.17705249786376953125e-01) (34, 1.26191526651382446289e-01) (35, 2.00121402740478515625e-01) (36, 2.28206738829612731934e-01) (37, 2.63855665922164916992e-01) (38, -1.44959360361099243164e-01) (39, -5.70285022258758544922e-02) (40, -8.67261514067649841309e-02) (41, -2.38462164998054504395e-01) (42, 4.21095341444015502930e-01) (43, -2.24060311913490295410e-01) (44, 5.44415831565856933594e-01) (45, 3.64132523536682128906e-01) (46, 1.24270391464233398438e+00) (47, 1.27695620059967041016e+00) (48, -1.78977906703948974609e-01) (49, 5.74395477771759033203e-01) (50, -2.40823984146118164062e-01) (51, 4.87961709499359130859e-01) (52, -7.45688915252685546875e-01) (2, -1.86558321118354797363e-01) (3, 2.36724078655242919922e-01) (4, 3.37505936622619628906e-01) (5, 3.47741276025772094727e-01) (6, -2.34907492995262145996e-01) (7, 6.84433579444885253906e-01) (8, -5.71697771549224853516e-01) (9, -1.66941657662391662598e-01) (10, 2.91421949863433837891e-01) (11, 3.68455618619918823242e-01) (12, 1.23145735263824462891e+00) (13, 4.04407769441604614258e-01) (14, 1.18640279769897460938e+00) (15, 7.17877805233001708984e-01) (16, 1.92544132471084594727e-01) (17, -2.41018772125244140625e-01) (18, -1.18722461163997650146e-01) (19, 2.10155859589576721191e-01) (20, 2.82265961170196533203e-01) (21, -2.18740344047546386719e-01) (22, 9.35862362384796142578e-02) (23, -1.84134081006050109863e-01) (24, 6.60682141780853271484e-01) (25, -1.53230711817741394043e-01) (26, -3.80072519183158874512e-02) (27, 1.85499370098114013672e-01) (28, 4.94459092617034912109e-01) (29, 2.56557166576385498047e-01) (30, -1.37369289994239807129e-01) (31, 5.14486312866210937500e-01) (32, -5.21494925022125244141e-01) (33, -2.71617412567138671875e-01) (34, 7.40619972348213195801e-02) (35, 2.66321748495101928711e-01) (36, 2.74967610836029052734e-01) (37, 2.75671273469924926758e-01) (38, -2.79411047697067260742e-01) (39, -1.10324665904045104980e-01) (40, -2.26670086383819580078e-01) (41, -1.40498831868171691895e-01) (42, 4.06618595123291015625e-01) (43, -2.50340849161148071289e-01) (44, 5.45985758304595947266e-01) (45, 3.89129459857940673828e-01) (46, 1.10105180740356445312e+00) (47, 1.07825601100921630859e+00) (48, -2.77282893657684326172e-01) (49, 5.00905513763427734375e-01) (50, -2.23295554518699645996e-01) (51, 5.18141746520996093750e-01) (52, -5.48638045787811279297e-01) (2, -1.39976724982261657715e-01) (3, 4.52813893556594848633e-01) (4, 5.60034632682800292969e-01) (5, 3.95078241825103759766e-01) (6, 1.19130924344062805176e-01) (7, 1.27057409286499023438e+00) (8, -2.93989684432744979858e-02) (9, -5.84357269108295440674e-02) (10, 4.54904735088348388672e-01) (11, 5.59767246246337890625e-01) (12, 8.71184408664703369141e-01) (13, 4.68964934349060058594e-01) (14, 9.24669563770294189453e-01) (15, 1.30836296081542968750e+00) (16, 5.99604547023773193359e-01) (17, -2.07852616906166076660e-01) (18, 1.27735808491706848145e-01) (19, 5.35794973373413085938e-01) (20, 4.73773986101150512695e-01) (21, 1.84424325823783874512e-01) (22, 5.20134449005126953125e-01) (23, -4.81495298445224761963e-02) (24, 4.50472772121429443359e-01) (25, -2.54497583955526351929e-02) (26, 2.69998848438262939453e-01) (27, -3.85532170534133911133e-01) (28, 1.08423018455505371094e+00) (29, -1.01863265037536621094e+00) (30, -6.21749758720397949219e-01) (31, 3.40172260999679565430e-01) (32, 1.38158991932868957520e-01) (33, 1.29116803407669067383e-01) (34, 4.98750030994415283203e-01) (35, 5.03818571567535400391e-01) (36, 6.79644107818603515625e-01) (37, 5.29591143131256103516e-01) (38, 1.06894969940185546875e-01) (39, -1.67723059654235839844e-01) (40, 4.01046406477689743042e-03) (41, -7.89051130414009094238e-03) (42, 4.68208104372024536133e-01) (43, 6.47124201059341430664e-02) (44, 2.17276751995086669922e-01) (45, 6.45386815071105957031e-01) (46, 8.87581527233123779297e-01) (47, 9.72398102283477783203e-01) (48, -2.31544543057680130005e-02) (49, 7.48285949230194091797e-01) (50, 8.15568864345550537109e-02) (51, 2.69058197736740112305e-01) (52, -1.35846640914678573608e-02) (2, -3.77882599830627441406e-01) (3, 8.44224393367767333984e-02) (4, 6.73882514238357543945e-02) (5, 7.89735794067382812500e-01) (6, -5.78066170215606689453e-01) (7, 1.23178958892822265625e+00) (8, -5.82398653030395507812e-01) (9, -4.07638996839523315430e-01) (10, 8.16103696823120117188e-01) (11, 6.79811179637908935547e-01) (12, 1.30275523662567138672e+00) (13, 2.05800548195838928223e-01) (14, 1.36501967906951904297e+00) (15, 1.34218764305114746094e+00) (16, 1.11566580832004547119e-01) (17, -4.45035934448242187500e-01) (18, -4.99015510082244873047e-01) (19, 9.09770205616950988770e-02) (20, 7.65371024608612060547e-02) (21, 7.13669538497924804688e-01) (22, 1.32526919245719909668e-01) (23, -5.62023520469665527344e-01) (24, 2.92303711175918579102e-01) (25, -4.27644848823547363281e-01) (26, -1.56382247805595397949e-01) (27, 7.57365322113037109375e+00) (28, 1.16592466831207275391e+00) (29, 4.28461194038391113281e-01) (30, -4.05123442411422729492e-01) (31, 8.05656313896179199219e-01) (32, -9.94337177276611328125e+00) (33, -5.53368747234344482422e-01) (34, 1.48748487234115600586e-01) (35, 1.11045762896537780762e-01) (36, 3.52947115898132324219e-01) (37, -1.76590848714113235474e-02) (38, -5.81768870353698730469e-01) (39, -5.99601268768310546875e-01) (40, -3.22318524122238159180e-01) (41, -5.61656355857849121094e-01) (42, 9.09544155001640319824e-02) (43, -5.20022034645080566406e-01) (44, 8.09091687202453613281e-01) (45, 9.86600220203399658203e-01) (46, 1.34087073802947998047e+00) (47, 1.26034748554229736328e+00) (48, -4.50869351625442504883e-01) (49, 7.00479865074157714844e-01) (50, -3.89998406171798706055e-01) (51, 9.12244558334350585938e-01) (52, -1.52402293682098388672e+00) (2, 5.77253818511962890625e-01) (3, 1.94456472992897033691e-01) (4, 3.62056821584701538086e-01) (5, 7.67226338386535644531e-01) (6, 7.92947232723236083984e-01) (7, 7.61474668979644775391e-01) (8, 9.00006234645843505859e-01) (9, 8.78683447837829589844e-01) (10, 9.15634334087371826172e-01) (11, 2.49156177043914794922e-01) (12, 2.24567338824272155762e-01) (13, 3.47172826528549194336e-01) (14, 3.43629449605941772461e-01) (15, 9.03479993343353271484e-01) (16, 1.90671995282173156738e-01) (17, 3.69062840938568115234e-01) (18, 7.77008950710296630859e-01) (19, 8.27491700649261474609e-01) (20, 3.39897602796554565430e-01) (21, 6.55925929546356201172e-01) (22, 2.20814198255538940430e-01) (23, 6.21704339981079101562e-01) (24, 3.46715360879898071289e-01) (25, 6.49409055709838867188e-01) (26, 1.74527660012245178223e-01) (27, 4.13118958473205566406e-01) (28, 8.35768997669219970703e-01) (29, 7.84993290901184082031e-01) (30, 3.74889105558395385742e-01) (31, 5.77759087085723876953e-01) (32, 5.93722283840179443359e-01) (33, 7.89524674415588378906e-01) (34, 8.51032912731170654297e-01) (35, 3.72002810239791870117e-01) (36, 2.42799744009971618652e-01) (37, 2.45843723416328430176e-01) (38, 7.18748509883880615234e-01) (39, 9.08080101013183593750e-01) (40, 6.77516877651214599609e-01) (41, 7.19534218311309814453e-01) (42, 2.68155246973037719727e-01) (43, 6.97133004665374755859e-01) (44, 5.43759226799011230469e-01) (45, 9.98577356338500976562e-01) (46, 2.39229127764701843262e-01) (47, 2.65561223030090332031e-01) (48, 9.08685564994812011719e-01) (49, 3.50219160318374633789e-01) (50, 7.19705045223236083984e-01) (51, 4.54670488834381103516e-01) (52, 8.87591898441314697266e-01) (2, 9.56594288349151611328e-01) (3, 4.15555775165557861328e-01) (4, 3.14472824335098266602e-01) (5, 5.76163351535797119141e-01) (6, 9.77213680744171142578e-01) (7, 4.63074058294296264648e-01) (8, 8.62257361412048339844e-01) (9, 9.17327105998992919922e-01) (10, 6.41373455524444580078e-01) (11, 3.62562209367752075195e-01) (12, 8.30183476209640502930e-02) (13, 2.77184009552001953125e-01) (14, 2.57451161742210388184e-02) (15, 3.69252055883407592773e-01) (16, 3.70422691106796264648e-01) (17, 3.43492001295089721680e-01) (18, 1.01783525943756103516e+00) (19, 7.06759512424468994141e-01) (20, 3.21941822767257690430e-01) (21, 9.99872326850891113281e-01) (22, 3.40116351842880249023e-01) (23, 9.36167776584625244141e-01) (24, 2.23649621009826660156e-01) (25, 1.03189587593078613281e+00) (26, 3.47649395465850830078e-01) (27, 2.81020188331604003906e+00) (28, 3.57622683048248291016e-01) (29, 4.07086998224258422852e-01) (30, 1.08602535724639892578e+00) (31, 5.04024267196655273438e-01) (32, 9.89229738712310791016e-01) (33, 1.00999045372009277344e+00) (34, 6.57419919967651367188e-01) (35, 4.68352049589157104492e-01) (36, 4.09029841423034667969e-01) (37, 2.80858039855957031250e-01) (38, 9.97663319110870361328e-01) (39, 8.60023498535156250000e-01) (40, 1.01594889163970947266e+00) (41, 1.00317263603210449219e+00) (42, 2.73879677057266235352e-01) (43, 9.63567078113555908203e-01) (44, 5.51652014255523681641e-01) (45, 7.52134203910827636719e-01) (46, -8.00959095358848571777e-02) (47, -7.25169153884053230286e-03) (48, 9.75923180580139160156e-01) (49, 5.07301867008209228516e-01) (50, 1.03407835960388183594e+00) (51, 5.32207012176513671875e-01) (52, 1.15920329093933105469e+00) (2, 8.45193922519683837891e-01) (3, 4.03257042169570922852e-01) (4, 4.56972837448120117188e-01) (5, 9.12552118301391601562e-01) (6, 9.87404167652130126953e-01) (7, 4.21692252159118652344e-01) (8, 6.89754784107208251953e-01) (9, 8.99174392223358154297e-01) (10, 6.85663580894470214844e-01) (11, 2.14275419712066650391e-01) (12, 2.54167113453149795532e-02) (13, 2.87145882844924926758e-01) (14, 3.00066489726305007935e-02) (15, 3.81136655807495117188e-01) (16, 4.42537605762481689453e-01) (17, 2.99086004495620727539e-01) (18, 8.91303241252899169922e-01) (19, 5.99647462368011474609e-01) (20, 3.68673920631408691406e-01) (21, 6.59605085849761962891e-01) (22, 3.34937959909439086914e-01) (23, 8.19741189479827880859e-01) (24, 1.75359353423118591309e-01) (25, 1.04889655113220214844e+00) (26, 1.74647703766822814941e-01) (27, 5.44841814041137695312e+00) (28, 3.85452330112457275391e-01) (29, 5.96029579639434814453e-01) (30, 9.37151134014129638672e-01) (31, 4.31286007165908813477e-01) (32, 9.85617160797119140625e-01) (33, 1.00298750400543212891e+00) (34, 7.61713504791259765625e-01) (35, 4.20067220926284790039e-01) (36, 4.01478886604309082031e-01) (37, 3.91826987266540527344e-01) (38, 1.03036236763000488281e+00) (39, 8.37233304977416992188e-01) (40, 9.32464003562927246094e-01) (41, 8.41212213039398193359e-01) (42, 3.13941985368728637695e-01) (43, 1.02992391586303710938e+00) (44, 3.82785856723785400391e-01) (45, 7.96790480613708496094e-01) (46, -1.35613996535539627075e-02) (47, 2.71664440631866455078e-01) (48, 9.75634336471557617188e-01) (49, 4.25789892673492431641e-01) (50, 1.05005657672882080078e+00) (51, 5.41651070117950439453e-01) (52, 1.19129693508148193359e+00) (2, -3.79693722724914550781e+00) (3, 6.13976657390594482422e-01) (4, 6.05522036552429199219e-01) (5, 8.83436203002929687500e-01) (6, 6.66093826293945312500e-01) (7, 4.24991846084594726562e-01) (8, 6.90970003604888916016e-01) (9, 6.22868299484252929688e-01) (10, 5.30816853046417236328e-01) (11, 6.59546554088592529297e-01) (12, 3.08923929929733276367e-01) (13, 5.64084351062774658203e-01) (14, 3.05468529462814331055e-01) (15, 3.96861344575881958008e-01) (16, 4.84661638736724853516e-01) (17, 5.17859816551208496094e-01) (18, 6.93452060222625732422e-01) (19, 1.08887302875518798828e+00) (20, 5.84674656391143798828e-01) (21, -2.54680030047893524170e-02) (22, 5.79028904438018798828e-01) (23, 7.05752849578857421875e-01) (24, 6.79284870624542236328e-01) (25, 7.53093481063842773438e-01) (26, 5.63729882240295410156e-01) (27, -3.64966392517089843750e-01) (28, 1.23297631740570068359e+00) (29, 1.01088367402553558350e-01) (30, 1.62387266755104064941e-01) (31, 5.66949903964996337891e-01) (32, -5.70337533950805664062e-01) (33, 7.14372038841247558594e-01) (34, 3.00862997770309448242e-01) (35, 4.98059093952178955078e-01) (36, 3.91627669334411621094e-01) (37, 4.94434267282485961914e-01) (38, 8.22331130504608154297e-01) (39, 5.98892927169799804688e-01) (40, 6.73943698406219482422e-01) (41, 8.19299995899200439453e-01) (42, 5.21675407886505126953e-01) (43, 6.51575207710266113281e-01) (44, 6.29787027835845947266e-01) (45, 4.47674244642257690430e-01) (46, 2.83948510885238647461e-01) (47, 3.39397966861724853516e-01) (48, 7.12966203689575195312e-01) (49, 2.76685386896133422852e-01) (50, 6.89137637615203857422e-01) (51, 4.93764102458953857422e-01) (52, 7.41115570068359375000e-01) (2, 4.24627870321273803711e-01) (3, 3.31551462411880493164e-01) (4, 2.93873220682144165039e-01) (5, 4.15229618549346923828e-01) (6, 5.90869903564453125000e-01) (7, 4.41888898611068725586e-01) (8, 4.28036898374557495117e-01) (9, 4.97002422809600830078e-01) (10, 3.06982934474945068359e-01) (11, 4.55437302589416503906e-01) (12, 3.46013784408569335938e-01) (13, 4.34725284576416015625e-01) (14, 3.81071537733078002930e-01) (15, 3.46525698900222778320e-01) (16, 3.20188105106353759766e-01) (17, 3.03273141384124755859e-01) (18, 4.98096883296966552734e-01) (19, 3.28249365091323852539e-01) (20, 3.61575007438659667969e-01) (21, 5.80400049686431884766e-01) (22, 2.92996466159820556641e-01) (23, 6.00722491741180419922e-01) (24, 8.61295640468597412109e-01) (25, 5.49953818321228027344e-01) (26, -2.06169113516807556152e-01) (27, 1.51533579826354980469e+00) (28, 3.44173908233642578125e-01) (29, 3.64292532205581665039e-01) (30, 6.43930956721305847168e-02) (31, 6.57549023628234863281e-01) (32, 2.34428215026855468750e+00) (33, 5.49492180347442626953e-01) (34, 2.13695079088211059570e-01) (35, 3.30845564603805541992e-01) (36, 3.27845513820648193359e-01) (37, 4.22392129898071289062e-01) (38, 5.10287702083587646484e-01) (39, 4.89408403635025024414e-01) (40, 5.03461480140686035156e-01) (41, 5.69308638572692871094e-01) (42, 5.03837704658508300781e-01) (43, 6.54305040836334228516e-01) (44, 5.69394111633300781250e-01) (45, 4.00560349225997924805e-01) (46, 2.15224117040634155273e-01) (47, 3.09194892644882202148e-01) (48, 6.26941442489624023438e-01) (49, 4.12497609853744506836e-01) (50, 6.70077443122863769531e-01) (51, 5.96642374992370605469e-01) (52, 5.38344264030456542969e-01) (2, -1.26505680084228515625e+01) (3, 2.85519421100616455078e-01) (4, 1.24423883855342864990e-01) (5, -2.45494866371154785156e+00) (6, 5.96351742744445800781e-01) (7, -8.15718546509742736816e-02) (8, 4.34946835041046142578e-01) (9, 3.04217517375946044922e-01) (10, 6.89539536833763122559e-02) (11, 1.61553287506103515625e+00) (12, 2.02406108379364013672e-01) (13, 9.35244441032409667969e-01) (14, 1.77573665976524353027e-01) (15, 3.74869108200073242188e-01) (16, 2.87922412157058715820e-01) (17, 3.42668294906616210938e-01) (18, 4.39857929944992065430e-01) (19, -4.24177467823028564453e-01) (20, 2.84531980752944946289e-01) (21, -1.07567036151885986328e+00) (22, 2.81489223241806030273e-01) (23, 5.75900077819824218750e-01) (24, 6.28935933113098144531e-01) (25, 4.96717572212219238281e-01) (26, 1.85245260596275329590e-01) (27, -4.83377075195312500000e+00) (28, -8.37542489171028137207e-02) (29, -4.31843668222427368164e-01) (30, 3.95354533195495605469e+00) (31, 2.74417996406555175781e-01) (32, 8.29186588525772094727e-02) (33, 4.99158710241317749023e-01) (34, -2.66512334346771240234e-01) (35, 3.08143198490142822266e-01) (36, -7.29206740856170654297e-01) (37, 3.21831941604614257812e-01) (38, 5.87121903896331787109e-01) (39, 4.57811832427978515625e-01) (40, 4.94079172611236572266e-01) (41, 5.94642817974090576172e-01) (42, 4.89734381437301635742e-01) (43, 5.68358123302459716797e-01) (44, 1.90643712878227233887e-01) (45, 2.67795592546463012695e-01) (46, 4.36910748481750488281e-01) (47, 3.99693787097930908203e-01) (48, 5.70473551750183105469e-01) (49, 2.71753221750259399414e-03) (50, 4.76695060729980468750e-01) (51, -5.28303921222686767578e-01) (52, 3.67409139871597290039e-01) (2, 9.26902949810028076172e-01) (3, 3.42783123254776000977e-01) (4, 4.30389612913131713867e-01) (5, 6.81496024131774902344e-01) (6, 9.20447587966918945312e-01) (7, 4.61294412612915039062e-01) (8, 8.80769014358520507812e-01) (9, 8.67085278034210205078e-01) (10, 7.87724375724792480469e-01) (11, 2.01284989714622497559e-01) (12, -2.35208310186862945557e-02) (13, 3.32665175199508666992e-01) (14, 7.21908286213874816895e-02) (15, 3.09861510992050170898e-01) (16, 3.56707632541656494141e-01) (17, 2.81904563307762145996e-02) (18, 9.99691784381866455078e-01) (19, 8.16274940967559814453e-01) (20, 3.59978884458541870117e-01) (21, 9.59023118019104003906e-01) (22, 3.01728159189224243164e-01) (23, 8.24807107448577880859e-01) (24, 3.18797618150711059570e-01) (25, 9.60758149623870849609e-01) (26, 3.06168645620346069336e-01) (27, 2.21325850486755371094e+00) (28, 4.64692711830139160156e-01) (29, 6.70746326446533203125e-01) (30, 9.47239995002746582031e-01) (31, 4.37110483646392822266e-01) (32, 9.45042669773101806641e-01) (33, 8.83415460586547851562e-01) (34, 7.71410584449768066406e-01) (35, 3.49841713905334472656e-01) (36, 3.65831673145294189453e-01) (37, 2.86472469568252563477e-01) (38, 8.83049011230468750000e-01) (39, 8.18102657794952392578e-01) (40, 9.82868432998657226562e-01) (41, 8.39988350868225097656e-01) (42, 2.51224339008331298828e-01) (43, 1.02690863609313964844e+00) (44, 4.40330326557159423828e-01) (45, 7.90232598781585693359e-01) (46, -6.18809871375560760498e-02) (47, 6.97710886597633361816e-02) (48, 1.03885102272033691406e+00) (49, 3.08023720979690551758e-01) (50, 9.72434759140014648438e-01) (51, 4.32534247636795043945e-01) (52, 1.15467035770416259766e+00) (2, 1.21221601963043212891e+00) (3, 4.42995756864547729492e-01) (4, 3.85296791791915893555e-01) (5, 8.13054859638214111328e-01) (6, 1.09883010387420654297e+00) (7, 4.60681021213531494141e-01) (8, 9.66810882091522216797e-01) (9, 1.10566699504852294922e+00) (10, 8.74196410179138183594e-01) (11, 2.80573725700378417969e-01) (12, 1.88182577490806579590e-01) (13, 4.11050826311111450195e-01) (14, 1.46126329898834228516e-01) (15, 9.26725745201110839844e-01) (16, 3.68472665548324584961e-01) (17, 2.39778995513916015625e-01) (18, 9.79361474514007568359e-01) (19, 7.14047372341156005859e-01) (20, 5.18604636192321777344e-01) (21, -2.98047631978988647461e-01) (22, 2.65021622180938720703e-01) (23, 1.11983692646026611328e+00) (24, 3.20921391248703002930e-01) (25, 1.08064520359039306641e+00) (26, 3.58742699027061462402e-02) (27, 2.85698437690734863281e+00) (28, 4.01249915361404418945e-01) (29, 4.57895755767822265625e-01) (30, 1.26199984550476074219e+00) (31, 5.77041745185852050781e-01) (32, 9.75322246551513671875e-01) (33, 1.13059878349304199219e+00) (34, 6.71684443950653076172e-01) (35, 3.24783653020858764648e-01) (36, 5.02937078475952148438e-01) (37, 4.44611936807632446289e-01) (38, 1.11518669128417968750e+00) (39, 1.00247442722320556641e+00) (40, 1.09482598304748535156e+00) (41, 9.92544889450073242188e-01) (42, 3.14652562141418457031e-01) (43, 1.17188644409179687500e+00) (44, 6.17708146572113037109e-01) (45, 8.99068653583526611328e-01) (46, 2.37758114933967590332e-01) (47, -8.40037763118743896484e-02) (48, 1.01962292194366455078e+00) (49, 5.12128174304962158203e-01) (50, 1.05411148071289062500e+00) (51, 5.64665496349334716797e-01) (52, 9.38930630683898925781e-01) (2, 5.20085513591766357422e-01) (3, 1.00462269783020019531e+00) (4, 7.92513072490692138672e-01) (5, 6.38850688934326171875e-01) (6, 3.91785740852355957031e-01) (7, 6.26157462596893310547e-01) (8, 3.83529365062713623047e-02) (9, 2.94843077659606933594e-01) (10, 2.41569072008132934570e-01) (11, -8.11075687408447265625e-01) (12, 5.39284110069274902344e-01) (13, 7.34336078166961669922e-01) (14, 4.27761018276214599609e-01) (15, 7.11533486843109130859e-01) (16, 8.95087182521820068359e-01) (17, -6.66179239749908447266e-01) (18, 2.20219016075134277344e-01) (19, 3.85414719581604003906e-01) (20, 8.49514305591583251953e-01) (21, 7.36726373434066772461e-02) (22, 8.91437113285064697266e-01) (23, 3.64398777484893798828e-01) (24, -2.41217821836471557617e-01) (25, 3.90071243047714233398e-01) (26, 3.49143706262111663818e-02) (27, -1.83606266975402832031e-01) (28, 7.60590732097625732422e-01) (29, 3.31387192010879516602e-01) (30, 4.82326030731201171875e-01) (31, 2.39199787378311157227e-01) (32, 4.10657912492752075195e-01) (33, 2.40204766392707824707e-01) (34, 3.52499008178710937500e-01) (35, 8.62162649631500244141e-01) (36, 9.40132021903991699219e-01) (37, 9.69216167926788330078e-01) (38, 2.71186619997024536133e-01) (39, 1.81453093886375427246e-01) (40, 3.04474145174026489258e-01) (41, 3.25582236051559448242e-01) (42, 6.93148255348205566406e-01) (43, 2.05390214920043945312e-01) (44, 2.26404160261154174805e-01) (45, 1.76201999187469482422e-01) (46, 5.87692916393280029297e-01) (47, 5.04865109920501708984e-01) (48, 3.76154333353042602539e-01) (49, 9.40099775791168212891e-01) (50, 2.85684347152709960938e-01) (51, 2.17708066105842590332e-01) (52, 3.30003052949905395508e-01) (2, -9.15615111589431762695e-02) (3, 5.86999714374542236328e-01) (4, 6.15437448024749755859e-01) (5, 4.69355642795562744141e-01) (6, 7.06516578793525695801e-02) (7, 1.10528910160064697266e+00) (8, 7.29379281401634216309e-02) (9, -1.11691400408744812012e-01) (10, -1.18100479245185852051e-01) (11, 2.12469786405563354492e-01) (12, 7.74254083633422851562e-01) (13, 5.63133239746093750000e-01) (14, 8.52868199348449707031e-01) (15, 9.55662071704864501953e-01) (16, 4.98520880937576293945e-01) (17, 4.36205923557281494141e-01) (18, 3.26179293915629386902e-03) (19, -2.93218165636062622070e-01) (20, 5.71376919746398925781e-01) (21, -2.80109226703643798828e-01) (22, 6.18092179298400878906e-01) (23, 1.08922146260738372803e-01) (24, 5.95810830593109130859e-01) (25, -5.19008487462997436523e-02) (26, 1.08215123414993286133e-01) (27, -4.85411658883094787598e-02) (28, 1.09194016456604003906e+00) (29, -3.35828483104705810547e-01) (30, -9.95480716228485107422e-02) (31, 4.37144845724105834961e-01) (32, -3.79639744758605957031e-01) (33, 2.27978136390447616577e-02) (34, -3.05378399789333343506e-02) (35, 5.95120429992675781250e-01) (36, -2.41095814853906631470e-02) (37, 4.54708725214004516602e-01) (38, 9.98831689357757568359e-02) (39, 8.31034779548645019531e-02) (40, -1.36149339377880096436e-02) (41, -8.85672122240066528320e-02) (42, 6.62073075771331787109e-01) (43, 7.36643150448799133301e-02) (44, 3.61542135477066040039e-01) (45, -1.17502979934215545654e-01) (46, 1.02658951282501220703e+00) (47, 9.24555897712707519531e-01) (48, 4.25775907933712005615e-02) (49, 4.48750317096710205078e-01) (50, 4.64912578463554382324e-02) (51, 3.30214679241180419922e-01) (52, 9.60440188646316528320e-02) (2, -6.27295494079589843750e-01) (3, 3.33452761173248291016e-01) (4, 3.96427363157272338867e-01) (5, 7.78969287872314453125e-01) (6, 1.00673425197601318359e+00) (7, 4.56888288259506225586e-01) (8, 8.26708257198333740234e-01) (9, 8.91915917396545410156e-01) (10, 6.86879336833953857422e-01) (11, 2.00668647885322570801e-01) (12, -2.02239528298377990723e-02) (13, 3.38438600301742553711e-01) (14, 1.32645994424819946289e-01) (15, 3.17655116319656372070e-01) (16, 3.70290458202362060547e-01) (17, 1.09232008457183837891e-01) (18, 9.37281489372253417969e-01) (19, 7.45735704898834228516e-01) (20, 3.07102441787719726562e-01) (21, 9.79345679283142089844e-01) (22, 3.59350889921188354492e-01) (23, 7.68284261226654052734e-01) (24, 2.34358623623847961426e-01) (25, 9.32025015354156494141e-01) (26, 3.45317959785461425781e-01) (27, 1.64636731147766113281e+00) (28, 3.01495313644409179688e-01) (29, 5.96433579921722412109e-01) (30, 1.10563480854034423828e+00) (31, 4.85493093729019165039e-01) (32, 9.89573359489440917969e-01) (33, 8.34078073501586914062e-01) (34, 6.78887605667114257812e-01) (35, 3.74002605676651000977e-01) (36, 4.10897880792617797852e-01) (37, 3.51923972368240356445e-01) (38, 8.78931641578674316406e-01) (39, 8.12731504440307617188e-01) (40, 8.91586422920227050781e-01) (41, 9.04617547988891601562e-01) (42, 2.90736407041549682617e-01) (43, 8.98727655410766601562e-01) (44, 4.28467184305191040039e-01) (45, 6.35584592819213867188e-01) (46, 6.21223784983158111572e-02) (47, 1.10472626984119415283e-01) (48, 9.00044620037078857422e-01) (49, 4.01408761739730834961e-01) (50, 8.95189225673675537109e-01) (51, 5.60141563415527343750e-01) (52, 9.71394181251525878906e-01) (2, 9.26511764526367187500e-01) (3, 3.83396118879318237305e-01) (4, 3.20641875267028808594e-01) (5, 9.31163430213928222656e-01) (6, 8.58390867710113525391e-01) (7, 7.83551216125488281250e-01) (8, 6.93321287631988525391e-01) (9, 5.97370028495788574219e-01) (10, 1.03081941604614257812e+00) (11, 3.08750003576278686523e-01) (12, 1.79849132895469665527e-01) (13, 4.57028627395629882812e-01) (14, 2.68767833709716796875e-01) (15, 8.71016502380371093750e-01) (16, 3.41875046491622924805e-01) (17, -9.97906923294067382812e-02) (18, 6.04485511779785156250e-01) (19, 9.32328164577484130859e-01) (20, 2.94482797384262084961e-01) (21, 7.26399064064025878906e-01) (22, 2.93808579444885253906e-01) (23, 7.93203890323638916016e-01) (24, 2.97616392374038696289e-01) (25, 7.90703773498535156250e-01) (26, -1.27440376672893762589e-03) (27, -2.83311694860458374023e-01) (28, 7.76907265186309814453e-01) (29, 8.66428017616271972656e-01) (30, 4.14745569229125976562e-01) (31, 4.77884620428085327148e-01) (32, 8.30415427684783935547e-01) (33, 8.22865605354309082031e-01) (34, 8.83829474449157714844e-01) (35, 2.99826353788375854492e-01) (36, 1.59280717372894287109e-01) (37, 3.68058085441589355469e-01) (38, 7.48988986015319824219e-01) (39, 6.73734307289123535156e-01) (40, 8.16709458827972412109e-01) (41, 6.40714108943939208984e-01) (42, 2.09456548094749450684e-01) (43, 8.08808207511901855469e-01) (44, 5.03458201885223388672e-01) (45, 1.02200317382812500000e+00) (46, 3.06159734725952148438e-01) (47, 3.48274201154708862305e-01) (48, 8.47488641738891601562e-01) (49, 3.43891322612762451172e-01) (50, 7.85662055015563964844e-01) (51, 4.14512962102890014648e-01) (52, 8.61577093601226806641e-01) (2, -2.79320120811462402344e-01) (3, 1.25857338309288024902e-01) (4, 2.00140729546546936035e-01) (5, 2.94339478015899658203e-01) (6, -1.60582602024078369141e-01) (7, 7.56710588932037353516e-01) (8, -6.42240703105926513672e-01) (9, -2.36882597208023071289e-01) (10, 3.01727652549743652344e-01) (11, 3.44995051622390747070e-01) (12, 1.13446223735809326172e+00) (13, 3.43953013420104980469e-01) (14, 1.11352956295013427734e+00) (15, 8.02807509899139404297e-01) (16, 2.80416548252105712891e-01) (17, -3.53272229433059692383e-01) (18, -1.25405311584472656250e-01) (19, 1.91252127289772033691e-01) (20, 2.04559341073036193848e-01) (21, 3.16030979156494140625e-02) (22, 8.20531323552131652832e-02) (23, -3.17660450935363769531e-01) (24, 4.64590966701507568359e-01) (25, -2.84002870321273803711e-01) (26, 8.17505791783332824707e-02) (27, 2.01895594596862792969e+00) (28, 6.11210465431213378906e-01) (29, 1.33949488401412963867e-01) (30, -3.90389442443847656250e-01) (31, 4.38935726881027221680e-01) (32, -4.74324196577072143555e-01) (33, -2.44055107235908508301e-01) (34, 1.28758147358894348145e-01) (35, 3.14777940511703491211e-01) (36, 1.80063545703887939453e-01) (37, 2.10823714733123779297e-01) (38, -1.88036441802978515625e-01) (39, -1.00648246705532073975e-01) (40, -1.72706037759780883789e-01) (41, -2.43589520454406738281e-01) (42, 4.53385770320892333984e-01) (43, -2.80746191740036010742e-01) (44, 5.58626294136047363281e-01) (45, 3.03846955299377441406e-01) (46, 1.18495607376098632812e+00) (47, 1.14652192592620849609e+00) (48, -2.04996064305305480957e-01) (49, 5.97079336643218994141e-01) (50, -2.56387025117874145508e-01) (51, 5.19728779792785644531e-01) (52, -4.86538797616958618164e-01) (2, 4.53428953886032104492e-01) (3, 3.56217920780181884766e-01) (4, 2.61817008256912231445e-01) (5, 4.73751485347747802734e-01) (6, 5.13684809207916259766e-01) (7, 3.68831157684326171875e-01) (8, 2.96601802110671997070e-01) (9, 5.83456575870513916016e-01) (10, 3.48146617412567138672e-01) (11, 8.30497860908508300781e-01) (12, 2.67580062150955200195e-01) (13, 4.93877828121185302734e-01) (14, 3.39187890291213989258e-01) (15, 3.68553757667541503906e-01) (16, 4.52632278203964233398e-01) (17, 4.20942723751068115234e-01) (18, 6.45466923713684082031e-01) (19, 2.83866912126541137695e-01) (20, 3.72402250766754150391e-01) (21, 5.20871639251708984375e-01) (22, 3.54919463396072387695e-01) (23, 5.83305716514587402344e-01) (24, 1.07593226432800292969e+00) (25, 6.58159494400024414062e-01) (26, 3.85607257485389709473e-02) (27, 2.05651259422302246094e+00) (28, 2.69157469272613525391e-01) (29, 4.14182871580123901367e-01) (30, -6.38636171817779541016e-01) (31, 7.06353366374969482422e-01) (32, 4.12619447708129882812e+00) (33, 5.89734673500061035156e-01) (34, 2.35594227910041809082e-01) (35, 3.41015219688415527344e-01) (36, 3.39141577482223510742e-01) (37, 3.81470531225204467773e-01) (38, 6.44910693168640136719e-01) (39, 5.40322482585906982422e-01) (40, 5.37078619003295898438e-01) (41, 5.40499806404113769531e-01) (42, 5.00695407390594482422e-01) (43, 6.20580911636352539062e-01) (44, 7.27870702743530273438e-01) (45, 4.03657138347625732422e-01) (46, 1.92396551370620727539e-01) (47, 3.95811080932617187500e-01) (48, 6.12737655639648437500e-01) (49, 3.52399975061416625977e-01) (50, 5.89801132678985595703e-01) (51, 5.73401033878326416016e-01) (52, 4.94355469942092895508e-01) (2, 3.63247305154800415039e-01) (3, 1.67407959699630737305e-01) (4, 4.93309721350669860840e-02) (5, 7.46579468250274658203e-01) (6, 4.87373799085617065430e-01) (7, 3.79174143075942993164e-01) (8, 4.79314327239990234375e-01) (9, 5.36752820014953613281e-01) (10, 1.22321355342864990234e+00) (11, -5.97310304641723632812e-01) (12, 1.83097764849662780762e-01) (13, 2.74988524615764617920e-02) (14, 2.80027091503143310547e-01) (15, 4.56729441881179809570e-01) (16, 2.53577716648578643799e-02) (17, -5.32424673438072204590e-02) (18, 5.58626234531402587891e-01) (19, 1.05008590221405029297e+00) (20, 1.26995727419853210449e-01) (21, 8.86923432350158691406e-01) (22, 4.13675867021083831787e-02) (23, 4.89513158798217773438e-01) (24, 1.26259222626686096191e-01) (25, 6.49765014648437500000e-01) (26, -4.73597198724746704102e-02) (27, -4.05487477779388427734e-01) (28, 4.19176876544952392578e-01) (29, 1.25796958804130554199e-01) (30, 7.77584850788116455078e-01) (31, 8.81077647209167480469e-01) (32, 3.43668460845947265625e-01) (33, 5.77254772186279296875e-01) (34, 1.05017650127410888672e+00) (35, 1.80585891008377075195e-01) (36, 1.32366165518760681152e-01) (37, 1.30657896399497985840e-01) (38, 5.11553406715393066406e-01) (39, 6.18212699890136718750e-01) (40, 5.54097592830657958984e-01) (41, 5.77137410640716552734e-01) (42, -5.26541113853454589844e-01) (43, 5.72526395320892333984e-01) (44, 8.96386563777923583984e-01) (45, 1.28574478626251220703e+00) (46, 1.91538020968437194824e-01) (47, 3.26682448387145996094e-01) (48, 4.99583214521408081055e-01) (49, 2.27114826440811157227e-01) (50, 5.37253081798553466797e-01) (51, 8.80935311317443847656e-01) (52, 6.51494860649108886719e-01) (2, 4.19838875532150268555e-01) (3, 9.40840244293212890625e-01) (4, 1.33095753192901611328e+00) (5, 6.66728079319000244141e-01) (6, 1.46638500690460205078e+00) (7, 2.44537383317947387695e-01) (8, 7.02794671058654785156e-01) (9, 8.49212169647216796875e-01) (10, 1.10041701793670654297e+00) (11, -1.52531731128692626953e+00) (12, -5.01056075096130371094e-01) (13, 3.42324018478393554688e-01) (14, -4.22523677349090576172e-01) (15, 1.88290327787399291992e-01) (16, 1.07713651657104492188e+00) (17, 1.86156642436981201172e+00) (18, 8.23137938976287841797e-01) (19, 9.38911736011505126953e-01) (20, 5.36667525768280029297e-01) (21, 4.97776687145233154297e-01) (22, 1.37698924541473388672e+00) (23, 9.49578225612640380859e-01) (24, 1.94360494613647460938e-01) (25, 8.91240358352661132812e-01) (26, 2.19641780853271484375e+00) (27, -8.91858100891113281250e-01) (28, 3.55306506156921386719e-01) (29, 1.25789368152618408203e+00) (30, 4.80368703603744506836e-01) (31, 6.14218711853027343750e-01) (32, 3.62661629915237426758e-01) (33, 1.13268756866455078125e+00) (34, 8.96227002143859863281e-01) (35, 1.99882519245147705078e+00) (36, 1.03857271373271942139e-01) (37, 5.11852264404296875000e-01) (38, 1.17928791046142578125e+00) (39, 9.56774950027465820312e-01) (40, 9.28944289684295654297e-01) (41, 7.64578044414520263672e-01) (42, 2.81825244426727294922e-01) (43, 1.04460930824279785156e+00) (44, 6.24196648597717285156e-01) (45, 9.74419295787811279297e-01) (46, -4.99114274978637695312e-01) (47, -1.06150233745574951172e+00) (48, 9.24862086772918701172e-01) (49, -1.08195185661315917969e-01) (50, 8.31756412982940673828e-01) (51, 6.32872104644775390625e-01) (52, 2.50393986701965332031e+00) (2, 1.65953084826469421387e-01) (3, 2.95330762863159179688e-01) (4, 3.01822423934936523438e-01) (5, 9.27347481250762939453e-01) (6, 6.53295934200286865234e-01) (7, 3.21373045444488525391e-01) (8, 5.05993664264678955078e-01) (9, 5.57019650936126708984e-01) (10, 3.32474291324615478516e-01) (11, 9.48318183422088623047e-01) (12, 2.70560413599014282227e-01) (13, 3.14969003200531005859e-01) (14, 2.06013858318328857422e-01) (15, 3.21253061294555664062e-01) (16, 4.50934857130050659180e-01) (17, 2.51718997955322265625e-01) (18, 4.92731481790542602539e-01) (19, 2.37268134951591491699e-01) (20, 4.37050998210906982422e-01) (21, 5.78982770442962646484e-01) (22, 3.39587450027465820312e-01) (23, 5.23295700550079345703e-01) (24, 1.46186995506286621094e+00) (25, 6.20566606521606445312e-01) (26, 1.83759540319442749023e-01) (27, 1.13083159923553466797e+00) (28, 2.75206446647644042969e-01) (29, 5.36234378814697265625e-01) (30, -1.96759030222892761230e-02) (31, 5.43904244899749755859e-01) (32, 5.80023825168609619141e-01) (33, 6.24087572097778320312e-01) (34, 2.15496852993965148926e-01) (35, 3.42025011777877807617e-01) (36, 1.13830193877220153809e-01) (37, 3.24946492910385131836e-01) (38, 6.56164646148681640625e-01) (39, 6.94310963153839111328e-01) (40, 6.45001292228698730469e-01) (41, 5.66897332668304443359e-01) (42, 5.38492798805236816406e-01) (43, 5.65494179725646972656e-01) (44, 5.88691532611846923828e-01) (45, 2.66817510128021240234e-01) (46, 2.98216313123703002930e-01) (47, 2.67206996679306030273e-01) (48, 5.40009200572967529297e-01) (49, 3.96611064672470092773e-01) (50, 6.53681337833404541016e-01) (51, 5.39249181747436523438e-01) (52, 4.77818369865417480469e-01) (2, 4.72819209098815917969e-01) (3, 3.18435847759246826172e-01) (4, 2.90440589189529418945e-01) (5, 6.97259306907653808594e-01) (6, 5.65986156463623046875e-01) (7, 2.88584291934967041016e-01) (8, 5.86855709552764892578e-01) (9, 6.39904141426086425781e-01) (10, 1.18575894832611083984e+00) (11, 1.45963013172149658203e-01) (12, 1.19133800268173217773e-01) (13, 1.31469324231147766113e-01) (14, 1.01885803043842315674e-01) (15, 4.02495354413986206055e-01) (16, 4.84798401594161987305e-01) (17, 3.65489609539508819580e-02) (18, 6.28713488578796386719e-01) (19, 1.02335691452026367188e+00) (20, 2.92639046907424926758e-01) (21, 6.63847804069519042969e-01) (22, 3.70892375707626342773e-01) (23, 5.97860693931579589844e-01) (24, 6.27458244562149047852e-02) (25, 6.74490094184875488281e-01) (26, 9.24518555402755737305e-02) (27, 2.43663325905799865723e-01) (28, 4.47686731815338134766e-01) (29, 1.04836833477020263672e+00) (30, 4.29514914751052856445e-01) (31, 7.01180100440979003906e-01) (32, 5.50921499729156494141e-01) (33, 6.92341208457946777344e-01) (34, 9.34301316738128662109e-01) (35, 3.26848357915878295898e-01) (36, 3.32516193389892578125e-01) (37, 3.55838328599929809570e-01) (38, 6.25962615013122558594e-01) (39, 5.52728295326232910156e-01) (40, 6.25997543334960937500e-01) (41, 5.14547049999237060547e-01) (42, 2.77207922190427780151e-02) (43, 6.38982236385345458984e-01) (44, 7.69706606864929199219e-01) (45, 1.07207429409027099609e+00) (46, 1.44935637712478637695e-01) (47, 1.51727527379989624023e-01) (48, 6.29029273986816406250e-01) (49, 1.75099447369575500488e-01) (50, 5.56699573993682861328e-01) (51, 8.04157018661499023438e-01) (52, 8.96167218685150146484e-01) (2, -2.26538687944412231445e-01) (3, 1.29918128252029418945e-01) (4, 3.67360532283782958984e-01) (5, 3.29583317041397094727e-01) (6, -2.05948650836944580078e-01) (7, 6.89333260059356689453e-01) (8, -6.48442208766937255859e-01) (9, -2.55235493183135986328e-01) (10, 3.01013350486755371094e-01) (11, 3.42355817556381225586e-01) (12, 1.16835784912109375000e+00) (13, 3.62487345933914184570e-01) (14, 1.21006071567535400391e+00) (15, 8.76737952232360839844e-01) (16, 1.65404781699180603027e-01) (17, -3.08986961841583251953e-01) (18, -2.29887485504150390625e-01) (19, 1.62630796432495117188e-01) (20, 3.37696194648742675781e-01) (21, 1.09645999968051910400e-01) (22, 1.92275539040565490723e-01) (23, -2.67379373311996459961e-01) (24, 5.65348923206329345703e-01) (25, -1.39560773968696594238e-01) (26, -1.69809702783823013306e-02) (27, 1.96001040935516357422e+00) (28, 4.76451188325881958008e-01) (29, 1.19426444172859191895e-01) (30, -2.68596351146697998047e-01) (31, 5.43211340904235839844e-01) (32, -5.99485933780670166016e-01) (33, -2.90205299854278564453e-01) (34, 3.88206839561462402344e-02) (35, 3.33421081304550170898e-01) (36, 1.96682319045066833496e-01) (37, 2.88829654455184936523e-01) (38, -2.38305106759071350098e-01) (39, -9.45919603109359741211e-02) (40, -9.32091027498245239258e-02) (41, -2.89958119392395019531e-01) (42, 2.64272958040237426758e-01) (43, -1.82317674160003662109e-01) (44, 5.27877449989318847656e-01) (45, 4.40189898014068603516e-01) (46, 1.15398836135864257812e+00) (47, 1.27112078666687011719e+00) (48, -2.63121515512466430664e-01) (49, 6.59420013427734375000e-01) (50, -1.53355956077575683594e-01) (51, 5.93611955642700195312e-01) (52, -5.05118846893310546875e-01) (2, 5.05024373531341552734e-01) (3, 3.45353007316589355469e-01) (4, 1.51200249791145324707e-01) (5, 7.20677673816680908203e-01) (6, 6.84901595115661621094e-01) (7, 4.21353161334991455078e-01) (8, 5.51149725914001464844e-01) (9, 5.54946899414062500000e-01) (10, 1.09425544738769531250e+00) (11, 1.13308303058147430420e-01) (12, 1.35850876569747924805e-01) (13, 8.52947086095809936523e-02) (14, 1.52594715356826782227e-01) (15, 3.01398903131484985352e-01) (16, 3.91814947128295898438e-01) (17, 2.22678184509277343750e-01) (18, 6.13675475120544433594e-01) (19, 8.94447028636932373047e-01) (20, 1.90331235527992248535e-01) (21, 5.92778861522674560547e-01) (22, 3.15969735383987426758e-01) (23, 5.25907814502716064453e-01) (24, 3.88071425259113311768e-02) (25, 7.05073058605194091797e-01) (26, 1.18673026561737060547e-01) (27, 9.00443017482757568359e-01) (28, 2.88310170173645019531e-01) (29, 1.03641057014465332031e+00) (30, 4.41000401973724365234e-01) (31, 8.83106648921966552734e-01) (32, 7.11631119251251220703e-01) (33, 6.95037901401519775391e-01) (34, 8.89605879783630371094e-01) (35, 1.06863856315612792969e-01) (36, 4.39226746559143066406e-01) (37, 2.40024030208587646484e-01) (38, 6.99021577835083007812e-01) (39, 5.44993519783020019531e-01) (40, 7.22209215164184570312e-01) (41, 6.94013833999633789062e-01) (42, 6.89723715186119079590e-02) (43, 5.56130647659301757812e-01) (44, 8.90869677066802978516e-01) (45, 1.18323481082916259766e+00) (46, 1.55092209577560424805e-01) (47, 1.76385685801506042480e-01) (48, 5.67182898521423339844e-01) (49, 1.52544230222702026367e-01) (50, 6.11364722251892089844e-01) (51, 8.22056233882904052734e-01) (52, 6.66173815727233886719e-01) (2, 3.91712516546249389648e-01) (3, 9.94519650936126708984e-01) (4, 7.26313829421997070312e-01) (5, 2.74868249893188476562e-01) (6, 2.81455785036087036133e-01) (7, 7.88064658641815185547e-01) (8, 1.25778049230575561523e-01) (9, 2.38153889775276184082e-01) (10, 2.40654945373535156250e-01) (11, -3.00548642873764038086e-01) (12, 5.28296947479248046875e-01) (13, 7.61644899845123291016e-01) (14, 4.92865234613418579102e-01) (15, 7.07144856452941894531e-01) (16, 8.59021842479705810547e-01) (17, 5.56169509887695312500e-01) (18, 2.83676594495773315430e-01) (19, 4.05922472476959228516e-01) (20, 8.45013439655303955078e-01) (21, 7.29358866810798645020e-02) (22, 9.63884532451629638672e-01) (23, 2.04272031784057617188e-01) (24, -2.20781460404396057129e-01) (25, 2.43345007300376892090e-01) (26, 7.13863670825958251953e-01) (27, 3.41257572174072265625e-01) (28, 6.32263004779815673828e-01) (29, 4.31316077709197998047e-01) (30, 3.08974415063858032227e-01) (31, 2.16705724596977233887e-02) (32, 4.76739913225173950195e-01) (33, 3.16395759582519531250e-01) (34, 3.96471351385116577148e-01) (35, 7.25903511047363281250e-01) (36, 1.09657049179077148438e+00) (37, 8.73696088790893554688e-01) (38, 3.97055685520172119141e-01) (39, 1.28400221467018127441e-01) (40, 3.80242794752120971680e-01) (41, 2.62216657400131225586e-01) (42, 7.26594686508178710938e-01) (43, 2.65679091215133666992e-01) (44, 1.46582737565040588379e-01) (45, 2.84742653369903564453e-01) (46, 4.51081693172454833984e-01) (47, 5.93167960643768310547e-01) (48, 3.75301390886306762695e-01) (49, 1.05236828327178955078e+00) (50, 2.31273293495178222656e-01) (51, 2.40396454930305480957e-01) (52, 4.26438152790069580078e-01) (2, -1.67862161993980407715e-01) (3, 5.00743031501770019531e-01) (4, 5.37430346012115478516e-01) (5, 1.66177496314048767090e-01) (6, 1.19505695998668670654e-01) (7, 1.29249942302703857422e+00) (8, -1.85203611850738525391e-01) (9, 2.83226165920495986938e-02) (10, 4.09049123525619506836e-01) (11, 5.34272968769073486328e-01) (12, 8.23156118392944335938e-01) (13, 5.84413588047027587891e-01) (14, 7.92004823684692382812e-01) (15, 1.18862926959991455078e+00) (16, 5.50076961517333984375e-01) (17, 4.15270119905471801758e-01) (18, 8.29727649688720703125e-02) (19, 4.90255504846572875977e-01) (20, 5.78169405460357666016e-01) (21, 2.72112905979156494141e-01) (22, 6.55620217323303222656e-01) (23, 1.47530913352966308594e-01) (24, 5.48749268054962158203e-01) (25, 1.33138775825500488281e-01) (26, 3.65358710289001464844e-01) (27, -1.73861771821975708008e-01) (28, 1.13203132152557373047e+00) (29, 4.90399777889251708984e-01) (30, 4.32473830878734588623e-02) (31, 2.26512283086776733398e-01) (32, 1.07414156198501586914e-01) (33, 1.27008602023124694824e-01) (34, 3.93130809068679809570e-01) (35, 4.81035470962524414062e-01) (36, 6.37181460857391357422e-01) (37, 6.69569611549377441406e-01) (38, 1.99895486235618591309e-01) (39, 1.52465492486953735352e-01) (40, 1.07981763780117034912e-01) (41, -1.88162270933389663696e-02) (42, 5.22334337234497070312e-01) (43, 1.90054908394813537598e-01) (44, 2.69960969686508178711e-01) (45, 5.45214116573333740234e-01) (46, 8.13861429691314697266e-01) (47, 9.08328771591186523438e-01) (48, 6.54716119170188903809e-02) (49, 7.67736136913299560547e-01) (50, 1.05173431336879730225e-01) (51, 3.14394056797027587891e-01) (52, 1.81450456380844116211e-01) (2, 4.14175510406494140625e-01) (3, 9.42835628986358642578e-01) (4, 8.32084536552429199219e-01) (5, 8.27607035636901855469e-01) (6, 4.08150970935821533203e-01) (7, 7.44871139526367187500e-01) (8, 1.21520653367042541504e-01) (9, 2.30050206184387207031e-01) (10, 2.29395866394042968750e-01) (11, 4.14379477500915527344e-01) (12, 4.55599933862686157227e-01) (13, 7.55555689334869384766e-01) (14, 4.37472254037857055664e-01) (15, 6.25932157039642333984e-01) (16, 9.31077957153320312500e-01) (17, 5.67141413688659667969e-01) (18, 2.43958815932273864746e-01) (19, 4.38407361507415771484e-01) (20, 8.96938502788543701172e-01) (21, 2.72671312093734741211e-01) (22, 8.12141418457031250000e-01) (23, 2.84671843051910400391e-01) (24, -1.30522444844245910645e-01) (25, 3.60634714365005493164e-01) (26, 8.08115422725677490234e-01) (27, 5.48405349254608154297e-01) (28, 7.49415099620819091797e-01) (29, 4.34152930974960327148e-01) (30, 4.63040262460708618164e-01) (31, 1.24213151633739471436e-01) (32, 4.82319504022598266602e-01) (33, 3.22496622800827026367e-01) (34, 2.57465571165084838867e-01) (35, 8.07513117790222167969e-01) (36, 9.59887802600860595703e-01) (37, 8.57581019401550292969e-01) (38, 4.11196529865264892578e-01) (39, 3.07736843824386596680e-01) (40, 3.90269666910171508789e-01) (41, 2.57394313812255859375e-01) (42, 8.05805623531341552734e-01) (43, 2.31111750006675720215e-01) (44, 7.53829777240753173828e-02) (45, 2.16806530952453613281e-01) (46, 4.99503374099731445312e-01) (47, 4.25063461065292358398e-01) (48, 3.17989975214004516602e-01) (49, 1.04473793506622314453e+00) (50, 3.76794874668121337891e-01) (51, -1.78010612726211547852e-02) (52, 2.93754816055297851562e-01) (2, 4.50017787516117095947e-02) (3, 1.15170173346996307373e-01) (4, -5.65586924552917480469e-01) (5, 9.89229440689086914062e-01) (6, 3.06170046329498291016e-01) (7, 1.04412806034088134766e+00) (8, -6.20001077651977539062e-01) (9, -6.98296070098876953125e-01) (10, 9.77059483528137207031e-01) (11, -2.09681987762451171875e-01) (12, 6.38069868087768554688e-01) (13, 1.85847759246826171875e-01) (14, 6.13812923431396484375e-01) (15, 2.56908345222473144531e+00) (16, -4.37316060066223144531e-01) (17, -4.32666778564453125000e-01) (18, 3.49543243646621704102e-01) (19, 6.82591974735260009766e-01) (20, -4.07259285449981689453e-01) (21, -2.25247010588645935059e-01) (22, -5.67833721637725830078e-01) (23, -7.20001339912414550781e-01) (24, 4.58619773387908935547e-01) (25, 3.31939995288848876953e-01) (26, -9.64958608150482177734e-01) (27, 2.37935140728950500488e-01) (28, 5.36040186882019042969e-01) (29, 8.22444975376129150391e-01) (30, -3.53630453348159790039e-01) (31, 1.71455943584442138672e+00) (32, -2.44405698776245117188e+00) (33, 3.29556852579116821289e-01) (34, 6.71027779579162597656e-01) (35, -7.34485864639282226562e-01) (36, 2.83236831426620483398e-01) (37, -4.40325200557708740234e-01) (38, 3.49954158067703247070e-01) (39, -5.32334111630916595459e-03) (40, 4.41592276096343994141e-01) (41, 1.95816576480865478516e-01) (42, -2.56075114011764526367e-01) (43, 3.84214937686920166016e-01) (44, 1.68136298656463623047e+00) (45, 1.02633988857269287109e+00) (46, 6.19694769382476806641e-01) (47, 7.26719737052917480469e-01) (48, -5.07638931274414062500e-01) (49, -2.91765302419662475586e-01) (50, 4.66941922903060913086e-01) (51, 7.04184770584106445312e-01) (52, 7.51043632626533508301e-02) (2, 5.47000646591186523438e-01) (3, 6.07506275177001953125e-01) (4, 5.71541905403137207031e-01) (5, 7.67488777637481689453e-01) (6, 9.36836004257202148438e-01) (7, 2.55304485559463500977e-01) (8, 4.15754616260528564453e-01) (9, 5.66018223762512207031e-01) (10, 1.57090246677398681641e-01) (11, -5.41332423686981201172e-01) (12, 4.78251911699771881104e-02) (13, 6.86265587806701660156e-01) (14, 6.57425001263618469238e-02) (15, 2.22285225987434387207e-01) (16, 6.38887584209442138672e-01) (17, 4.43803966045379638672e-01) (18, 4.73281949758529663086e-01) (19, 5.62823295593261718750e-01) (20, 5.35124003887176513672e-01) (21, -1.38623058795928955078e-01) (22, 5.51926612854003906250e-01) (23, 7.41332232952117919922e-01) (24, 6.28638803958892822266e-01) (25, 7.74205386638641357422e-01) (26, 8.16020607948303222656e-01) (27, 3.63520026206970214844e+00) (28, 5.55267512798309326172e-01) (29, 4.36923593282699584961e-01) (30, 1.09205400943756103516e+00) (31, 3.81368845701217651367e-01) (32, -1.72804653644561767578e+00) (33, 8.53488564491271972656e-01) (34, 3.48949342966079711914e-01) (35, 4.90667521953582763672e-01) (36, 3.66421431303024291992e-01) (37, 6.30191385746002197266e-01) (38, 7.58545100688934326172e-01) (39, 7.65265941619873046875e-01) (40, 8.69914591312408447266e-01) (41, 6.42480254173278808594e-01) (42, 9.25966858863830566406e-01) (43, 6.99176371097564697266e-01) (44, 5.39206564426422119141e-01) (45, 1.92926123738288879395e-01) (46, 7.74003788828849792480e-02) (47, 1.83101385831832885742e-01) (48, 8.56182694435119628906e-01) (49, 1.91739410161972045898e-01) (50, 8.31278622150421142578e-01) (51, 4.67136144638061523438e-01) (52, 8.04066061973571777344e-01) (2, -2.68334478139877319336e-01) (3, 2.51361399888992309570e-01) (4, 2.21968993544578552246e-01) (5, 3.86585623025894165039e-01) (6, -1.85067713260650634766e-01) (7, 8.03676187992095947266e-01) (8, -5.85293114185333251953e-01) (9, -1.43306612968444824219e-01) (10, 3.13822180032730102539e-01) (11, 3.17281603813171386719e-01) (12, 1.14938199520111083984e+00) (13, 3.09514462947845458984e-01) (14, 1.21706449985504150391e+00) (15, 8.81868302822113037109e-01) (16, 2.00337454676628112793e-01) (17, -1.93056285381317138672e-01) (18, -2.84473478794097900391e-01) (19, 2.09513977169990539551e-01) (20, 2.20257222652435302734e-01) (21, -8.10422897338867187500e-02) (22, 3.16028594970703125000e-01) (23, -2.79395103454589843750e-01) (24, 4.67639684677124023438e-01) (25, -2.25359052419662475586e-01) (26, 4.84822988510131835938e-02) (27, 5.28089165687561035156e-01) (28, 6.85971021652221679688e-01) (29, 6.37387260794639587402e-02) (30, -3.28860700130462646484e-01) (31, 4.61273014545440673828e-01) (32, -6.07489049434661865234e-01) (33, -1.86127856373786926270e-01) (34, 2.15344458818435668945e-01) (35, 1.94849461317062377930e-01) (36, 4.08802092075347900391e-01) (37, 2.70494043827056884766e-01) (38, -2.65757441520690917969e-01) (39, -1.84888407588005065918e-01) (40, -2.25313678383827209473e-01) (41, -1.39749363064765930176e-01) (42, 3.54884326457977294922e-01) (43, -1.08594387769699096680e-01) (44, 5.96172213554382324219e-01) (45, 3.32533568143844604492e-01) (46, 1.22246932983398437500e+00) (47, 1.29012811183929443359e+00) (48, -1.37445896863937377930e-01) (49, 6.51382505893707275391e-01) (50, -8.34815129637718200684e-02) (51, 5.77722072601318359375e-01) (52, -5.69359958171844482422e-01) (2, -5.61149835586547851562e-01) (3, 4.70807433128356933594e-01) (4, 3.58217060565948486328e-01) (5, 3.50858598947525024414e-01) (6, 6.12460613250732421875e-01) (7, 3.00668239593505859375e-01) (8, 6.41448259353637695312e-01) (9, 6.17400228977203369141e-01) (10, 3.32785606384277343750e-01) (11, 1.93412944674491882324e-01) (12, 2.79895842075347900391e-01) (13, 3.28194290399551391602e-01) (14, 1.56404718756675720215e-01) (15, 2.76168167591094970703e-01) (16, 4.93384808301925659180e-01) (17, 3.52583765983581542969e-01) (18, 5.14363765716552734375e-01) (19, 1.46041885018348693848e-01) (20, 4.39194113016128540039e-01) (21, 5.45320332050323486328e-01) (22, 3.53331983089447021484e-01) (23, 6.19974732398986816406e-01) (24, 1.44399201869964599609e+00) (25, 6.62644207477569580078e-01) (26, 2.23771512508392333984e-01) (27, 2.74335813522338867188e+00) (28, 1.33609399199485778809e-01) (29, 5.60469627380371093750e-01) (30, -1.98928654193878173828e+00) (31, 5.86275041103363037109e-01) (32, 7.13583052158355712891e-01) (33, 5.79162955284118652344e-01) (34, 1.48981213569641113281e-01) (35, 4.48160320520401000977e-01) (36, 1.92722231149673461914e-01) (37, 4.78961348533630371094e-01) (38, 5.54740071296691894531e-01) (39, 5.47869265079498291016e-01) (40, 6.35037541389465332031e-01) (41, 6.82209193706512451172e-01) (42, 5.33813059329986572266e-01) (43, 5.87626278400421142578e-01) (44, 6.81647241115570068359e-01) (45, 3.97693097591400146484e-01) (46, 2.42712870240211486816e-01) (47, 3.68823140859603881836e-01) (48, 5.61370491981506347656e-01) (49, 3.86783123016357421875e-01) (50, 6.94266617298126220703e-01) (51, 5.12148678302764892578e-01) (52, 5.55763304233551025391e-01) (2, 4.65944856405258178711e-01) (3, 9.10266518592834472656e-01) (4, 7.92724251747131347656e-01) (5, 7.19865381717681884766e-01) (6, 4.21219229698181152344e-01) (7, 5.97881853580474853516e-01) (8, 2.05670148134231567383e-01) (9, 1.32532358169555664062e-01) (10, 2.76138931512832641602e-01) (11, 3.10702353715896606445e-01) (12, 5.41190385818481445312e-01) (13, 7.45848059654235839844e-01) (14, 5.61235129833221435547e-01) (15, 6.99904203414916992188e-01) (16, 8.84369432926177978516e-01) (17, 6.62214338779449462891e-01) (18, 3.41321200132369995117e-01) (19, 4.83009248971939086914e-01) (20, 8.41564297676086425781e-01) (21, 4.43764001131057739258e-01) (22, 8.78095746040344238281e-01) (23, 3.37266474962234497070e-01) (24, -1.93884491920471191406e-01) (25, 2.42030724883079528809e-01) (26, 6.62187039852142333984e-01) (27, 3.61489474773406982422e-01) (28, 6.58867418766021728516e-01) (29, 4.21616137027740478516e-01) (30, 4.48117256164550781250e-01) (31, 9.70369651913642883301e-02) (32, 4.04733270406723022461e-01) (33, 3.76784831285476684570e-01) (34, 2.93931782245635986328e-01) (35, 8.61460089683532714844e-01) (36, 9.15614962577819824219e-01) (37, 8.07505011558532714844e-01) (38, 3.61875742673873901367e-01) (39, 1.33470192551612854004e-01) (40, 2.65608578920364379883e-01) (41, 2.43774205446243286133e-01) (42, 7.84418225288391113281e-01) (43, 3.75757724046707153320e-01) (44, 9.49606224894523620605e-02) (45, 3.26642274856567382812e-01) (46, 5.35930454730987548828e-01) (47, 4.20092374086380004883e-01) (48, 3.16617697477340698242e-01) (49, 9.93890047073364257812e-01) (50, 3.76679390668869018555e-01) (51, 2.16504916548728942871e-01) (52, 2.86963045597076416016e-01) (2, 9.44516837596893310547e-01) (3, 2.08182096481323242188e-01) (4, 7.73685500025749206543e-02) (5, -1.32705259323120117188e+00) (6, 7.48122870922088623047e-01) (7, -9.62482810020446777344e-01) (8, 1.71807959675788879395e-01) (9, 7.47660219669342041016e-01) (10, -9.90971699357032775879e-02) (11, 3.27064156532287597656e+00) (12, -3.35447229444980621338e-02) (13, 5.82149028778076171875e-01) (14, 9.67137049883604049683e-03) (15, -3.22221159934997558594e-01) (16, 2.83225029706954956055e-01) (17, 8.09206292033195495605e-02) (18, 7.11473107337951660156e-01) (19, -8.92991364002227783203e-01) (20, 1.76985904574394226074e-01) (21, 6.72605574131011962891e-01) (22, 8.34261849522590637207e-02) (23, 5.76080501079559326172e-01) (24, 4.32249993085861206055e-01) (25, 7.43214190006256103516e-01) (26, -5.49855679273605346680e-02) (27, -2.27202224731445312500e+00) (28, -1.22990465164184570312e+00) (29, 4.13136810064315795898e-01) (30, 1.87940686941146850586e-01) (31, 9.08794328570365905762e-02) (32, 9.41019058227539062500e-01) (33, 7.35064327716827392578e-01) (34, -1.25211846828460693359e+00) (35, 3.85114364326000213623e-02) (36, -3.08908015489578247070e-01) (37, 3.00343751907348632812e-01) (38, 6.99579477310180664062e-01) (39, 6.54305696487426757812e-01) (40, 7.01683223247528076172e-01) (41, 8.29513847827911376953e-01) (42, 9.79993164539337158203e-01) (43, 7.26846039295196533203e-01) (44, 9.19765830039978027344e-02) (45, 2.23608970642089843750e-01) (46, 1.50517448782920837402e-01) (47, 4.86603736877441406250e-01) (48, 7.11282968521118164062e-01) (49, 8.15141424536705017090e-02) (50, 6.14684820175170898438e-01) (51, -1.06864534318447113037e-01) (52, 5.55379271507263183594e-01) (2, 6.52046561241149902344e-01) (3, 3.06922733783721923828e-01) (4, 2.63853609561920166016e-01) (5, 1.10657906532287597656e+00) (6, 4.90636140108108520508e-01) (7, 5.23672163486480712891e-01) (8, 4.77281004190444946289e-01) (9, 4.47582423686981201172e-01) (10, 4.13722187280654907227e-01) (11, 7.48312026262283325195e-02) (12, 2.54829615354537963867e-01) (13, 3.96600008010864257812e-01) (14, 3.85084480047225952148e-01) (15, 5.37851750850677490234e-01) (16, 2.38626211881637573242e-01) (17, 3.32888007164001464844e-01) (18, 5.75212299823760986328e-01) (19, 3.33086520433425903320e-01) (20, 2.35912680625915527344e-01) (21, 9.80305731296539306641e-01) (22, 2.46479928493499755859e-01) (23, 5.67907452583312988281e-01) (24, 4.49165552854537963867e-01) (25, 5.92632293701171875000e-01) (26, -1.99112832546234130859e-01) (27, -5.98556697368621826172e-01) (28, 3.45403492450714111328e-01) (29, 4.03429210186004638672e-01) (30, 1.49320232868194580078e+00) (31, 7.26019561290740966797e-01) (32, 4.06671434640884399414e-01) (33, 4.87381458282470703125e-01) (34, 2.58005410432815551758e-01) (35, 2.93658524751663208008e-01) (36, 3.70344340801239013672e-01) (37, 2.40411877632141113281e-01) (38, 5.30136525630950927734e-01) (39, 5.44552743434906005859e-01) (40, 5.35824596881866455078e-01) (41, 5.57404816150665283203e-01) (42, 3.68530869483947753906e-01) (43, 5.80722868442535400391e-01) (44, 7.55311787128448486328e-01) (45, 4.70830082893371582031e-01) (46, 3.27213048934936523438e-01) (47, 3.76247763633728027344e-01) (48, 4.91550743579864501953e-01) (49, 2.77366876602172851562e-01) (50, 5.13481080532073974609e-01) (51, 6.98131620883941650391e-01) (52, 6.09459042549133300781e-01) (2, 4.11460250616073608398e-01) (3, 1.43705368041992187500e-01) (4, 2.04952269792556762695e-01) (5, 6.94823086261749267578e-01) (6, 6.74592792987823486328e-01) (7, 4.04947906732559204102e-01) (8, 5.89661061763763427734e-01) (9, 4.13613229990005493164e-01) (10, 1.05240678787231445312e+00) (11, 1.65295943617820739746e-01) (12, 2.73702591657638549805e-01) (13, 1.83775156736373901367e-01) (14, 2.32510313391685485840e-01) (15, 3.24832588434219360352e-01) (16, 1.28476589918136596680e-01) (17, 1.44775807857513427734e-01) (18, 7.06154823303222656250e-01) (19, 1.00494587421417236328e+00) (20, 1.81883111596107482910e-01) (21, 5.29477894306182861328e-01) (22, 1.68690636754035949707e-01) (23, 5.53690254688262939453e-01) (24, 9.01038572192192077637e-02) (25, 7.39864826202392578125e-01) (26, 1.65948465466499328613e-01) (27, 4.36952084302902221680e-01) (28, 2.54575043916702270508e-01) (29, 1.23182535171508789062e+00) (30, 1.80119760334491729736e-02) (31, 7.49659478664398193359e-01) (32, 8.17125499248504638672e-01) (33, 7.31995642185211181641e-01) (34, 1.01892435550689697266e+00) (35, 1.49671986699104309082e-01) (36, 7.61938169598579406738e-02) (37, 1.69105812907218933105e-01) (38, 5.82718968391418457031e-01) (39, 5.56738257408142089844e-01) (40, 5.95059394836425781250e-01) (41, 5.64917981624603271484e-01) (42, 5.42408898472785949707e-02) (43, 5.67760288715362548828e-01) (44, 8.25286686420440673828e-01) (45, 1.17772626876831054688e+00) (46, 2.19901978969573974609e-01) (47, 8.75943005084991455078e-02) (48, 7.43208885192871093750e-01) (49, 1.53366342186927795410e-01) (50, 7.22603797912597656250e-01) (51, 7.19273149967193603516e-01) (52, 5.91768145561218261719e-01) (2, -6.74962997436523437500e-02) (3, -1.03923179209232330322e-01) (4, -1.85382843017578125000e-01) (5, 8.91059279441833496094e-01) (6, -1.68947562575340270996e-01) (7, 2.52616822719573974609e-01) (8, -1.29114961624145507812e+00) (9, 1.75174608826637268066e-01) (10, 7.36418306827545166016e-01) (11, 7.12418079376220703125e-01) (12, 1.13495695590972900391e+00) (13, -2.77148634195327758789e-02) (14, 5.04426956176757812500e-01) (15, 2.69042938947677612305e-01) (16, -5.28039149940013885498e-02) (17, -5.68855345249176025391e-01) (18, 2.18556508421897888184e-01) (19, -2.18616630882024765015e-02) (20, -1.62198036909103393555e-01) (21, 5.57457387447357177734e-01) (22, -2.37022638320922851562e-01) (23, 1.60253986716270446777e-01) (24, 3.91966819763183593750e-01) (25, 2.02883452177047729492e-01) (26, -5.34433424472808837891e-01) (27, -4.01820659637451171875e-01) (28, 2.56908118724822998047e-01) (29, 4.27581280469894409180e-01) (30, -1.16804435849189758301e-01) (31, 9.67471599578857421875e-01) (32, -1.81760764122009277344e+00) (33, 3.51077497005462646484e-01) (34, 1.56865328550338745117e-01) (35, -2.12804302573204040527e-01) (36, -6.30658194422721862793e-02) (37, -1.82845070958137512207e-01) (38, 2.94183522462844848633e-01) (39, 1.85497358441352844238e-01) (40, 2.37944707274436950684e-01) (41, 2.31482550501823425293e-01) (42, 3.73850055038928985596e-02) (43, 2.09150746464729309082e-01) (44, 1.05892646312713623047e+00) (45, 7.12474405765533447266e-01) (46, 4.83205676078796386719e-01) (47, 5.61875164508819580078e-01) (48, 2.60783433914184570312e-01) (49, 1.79699465632438659668e-01) (50, 2.82506525516510009766e-01) (51, 9.82446014881134033203e-01) (52, -2.20219001173973083496e-01) (2, 8.50644707679748535156e-01) (3, 4.06267523765563964844e-01) (4, 2.66868442296981811523e-01) (5, 4.89635884761810302734e-01) (6, 1.00318515300750732422e+00) (7, 5.47095537185668945312e-01) (8, 8.40977907180786132812e-01) (9, 8.36506009101867675781e-01) (10, 7.16463029384613037109e-01) (11, 3.05599123239517211914e-01) (12, 4.92895487695932388306e-03) (13, 2.84654825925827026367e-01) (14, 4.34750989079475402832e-02) (15, 5.01489102840423583984e-01) (16, 2.73221254348754882812e-01) (17, 2.63212770223617553711e-01) (18, 8.30184876918792724609e-01) (19, 6.35703563690185546875e-01) (20, 4.19294685125350952148e-01) (21, 8.68152439594268798828e-01) (22, 4.57082211971282958984e-01) (23, 9.49797511100769042969e-01) (24, 2.32444480061531066895e-01) (25, 9.00820553302764892578e-01) (26, 1.57895117998123168945e-01) (27, 2.76148128509521484375e+00) (28, 4.81451302766799926758e-01) (29, 6.32336676120758056641e-01) (30, 1.05013155937194824219e+00) (31, 5.70846974849700927734e-01) (32, 8.31743538379669189453e-01) (33, 9.23190474510192871094e-01) (34, 6.67360067367553710938e-01) (35, 2.86982089281082153320e-01) (36, 4.39081519842147827148e-01) (37, 3.60623210668563842773e-01) (38, 1.00946962833404541016e+00) (39, 8.55446219444274902344e-01) (40, 1.03824388980865478516e+00) (41, 8.72363686561584472656e-01) (42, 2.40719541907310485840e-01) (43, 9.01623010635375976562e-01) (44, 4.78664517402648925781e-01) (45, 7.92738854885101318359e-01) (46, 1.20117239654064178467e-01) (47, 3.13454717397689819336e-02) (48, 9.10060048103332519531e-01) (49, 3.17402809858322143555e-01) (50, 9.70452785491943359375e-01) (51, 3.97372364997863769531e-01) (52, 8.64233195781707763672e-01) (2, 9.67535018920898437500e-01) (3, 3.11186671257019042969e-01) (4, 2.65965878963470458984e-01) (5, 6.74784541130065917969e-01) (6, 6.39327228069305419922e-01) (7, -1.80542767047882080078e-01) (8, 3.77365565299987792969e+00) (9, 9.36061441898345947266e-01) (10, 6.01955950260162353516e-01) (11, -4.13002109527587890625e+00) (12, 2.11176365613937377930e-01) (13, 2.36468464136123657227e-01) (14, 8.88210833072662353516e-02) (15, -2.38039605319499969482e-02) (16, 1.87796771526336669922e-01) (17, 2.70766973495483398438e-01) (18, 8.37035775184631347656e-01) (19, 4.40823376178741455078e-01) (20, 2.33265474438667297363e-01) (21, 1.85900104045867919922e+00) (22, 3.09693753719329833984e-01) (23, 8.63963663578033447266e-01) (24, 3.00654083490371704102e-01) (25, 8.16163241863250732422e-01) (26, 3.94627958536148071289e-01) (27, 3.38504385948181152344e+00) (28, -1.45538806915283203125e-01) (29, 9.87104654312133789062e-01) (30, 1.25000581145286560059e-01) (31, 5.57088851928710937500e-01) (32, 2.05748677253723144531e+00) (33, 7.50029206275939941406e-01) (34, 3.57240796089172363281e-01) (35, 1.17362096905708312988e-01) (36, 1.15385837852954864502e-01) (37, 1.83959573507308959961e-01) (38, 6.82132899761199951172e-01) (39, 8.66369485855102539062e-01) (40, 6.80958390235900878906e-01) (41, 7.02414214611053466797e-01) (42, 2.13894024491310119629e-01) (43, 8.56739878654479980469e-01) (44, 5.88998258113861083984e-01) (45, 4.93621766567230224609e-01) (46, 2.33286261558532714844e-01) (47, 2.32769072055816650391e-01) (48, 8.51016283035278320312e-01) (49, 2.26625367999076843262e-01) (50, 7.69355893135070800781e-01) (51, 5.98538339138031005859e-01) (52, 7.04318404197692871094e-01) (2, -5.66341280937194824219e-01) (3, 4.43706959486007690430e-01) (4, 3.63958805799484252930e-01) (5, -1.65793806314468383789e-01) (6, -6.97795078158378601074e-02) (7, 5.78015267848968505859e-01) (8, 3.34902293980121612549e-02) (9, 1.23861320316791534424e-02) (10, -6.96303322911262512207e-02) (11, 8.99192452430725097656e-01) (12, 8.67674171924591064453e-01) (13, 7.47525751590728759766e-01) (14, 8.33608329296112060547e-01) (15, 7.62877166271209716797e-01) (16, 3.44678938388824462891e-01) (17, 4.45522844791412353516e-01) (18, 8.29482600092887878418e-02) (19, -7.02529370784759521484e-01) (20, 4.01860803365707397461e-01) (21, -3.86863201856613159180e-01) (22, 3.32714974880218505859e-01) (23, 5.86263202130794525146e-02) (24, 1.78635597229003906250e+00) (25, -8.39895146782509982586e-05) (26, 4.02276098728179931641e-01) (27, -1.85496366024017333984e+00) (28, 6.17095120251178741455e-02) (29, 1.58487737178802490234e+00) (30, -3.00748288631439208984e-01) (31, 4.29463595151901245117e-01) (32, -1.69826731085777282715e-01) (33, -1.27020329236984252930e-01) (34, -5.63735485076904296875e-01) (35, 4.20262426137924194336e-01) (36, 5.20908415317535400391e-01) (37, 5.10063827037811279297e-01) (38, -7.88201838731765747070e-02) (39, 1.50022640824317932129e-01) (40, -8.32698345184326171875e-02) (41, 8.80123376846313476562e-02) (42, 9.44143056869506835938e-01) (43, 7.62124806642532348633e-02) (44, 3.25778990983963012695e-01) (45, 5.68448245525360107422e-01) (46, 8.83386492729187011719e-01) (47, 9.24133181571960449219e-01) (48, -2.14605163782835006714e-02) (49, 9.53805685043334960938e-01) (50, 1.13027952611446380615e-02) (51, 5.65852046012878417969e-01) (52, -3.11061888933181762695e-01) (2, -1.13855250179767608643e-01) (3, 2.56265610456466674805e-01) (4, 2.88245737552642822266e-01) (5, -1.32840871810913085938e-01) (6, -2.41686388850212097168e-01) (7, 6.99794113636016845703e-01) (8, -8.16361784934997558594e-01) (9, -8.01715105772018432617e-02) (10, 3.29431176185607910156e-01) (11, 6.40920758247375488281e-01) (12, 9.70962166786193847656e-01) (13, 3.54396373033523559570e-01) (14, 9.63484168052673339844e-01) (15, 1.02083313465118408203e+00) (16, 3.13433021306991577148e-01) (17, 2.08483245223760604858e-02) (18, -2.54691094160079956055e-01) (19, 2.53972947597503662109e-01) (20, 1.89099222421646118164e-01) (21, 3.83947044610977172852e-01) (22, 1.91931724548339843750e-01) (23, -1.16321340203285217285e-01) (24, 1.03197646141052246094e+00) (25, -2.22821995615959167480e-01) (26, 6.34045805782079696655e-03) (27, 3.54810029268264770508e-01) (28, 5.52622318267822265625e-01) (29, 5.66708147525787353516e-01) (30, -2.61720538139343261719e-01) (31, 5.23764908313751220703e-01) (32, -1.11940133571624755859e+00) (33, -2.30420872569084167480e-01) (34, 1.78173720836639404297e-01) (35, 2.22100660204887390137e-01) (36, 3.23157131671905517578e-01) (37, 2.49540418386459350586e-01) (38, -2.36145332455635070801e-01) (39, -1.02180615067481994629e-01) (40, -2.31756374239921569824e-01) (41, -1.68368399143218994141e-01) (42, 2.81719386577606201172e-01) (43, -1.98630526661872863770e-01) (44, 6.22585177421569824219e-01) (45, 3.59714299440383911133e-01) (46, 9.89330232143402099609e-01) (47, 1.07976734638214111328e+00) (48, -1.63043931126594543457e-01) (49, 6.24708116054534912109e-01) (50, -1.13330915570259094238e-01) (51, 4.59820836782455444336e-01) (52, -8.10184776782989501953e-01) (2, 1.75085932016372680664e-01) (3, 2.34422966837882995605e-01) (4, 3.65293204784393310547e-01) (5, 7.39336729049682617188e-01) (6, 9.28517758846282958984e-01) (7, 5.51530003547668457031e-01) (8, 8.00245463848114013672e-01) (9, 8.92936646938323974609e-01) (10, 7.00069427490234375000e-01) (11, 1.59627065062522888184e-01) (12, 1.20802670717239379883e-01) (13, 2.75655269622802734375e-01) (14, 2.90248524397611618042e-02) (15, 4.14522230625152587891e-01) (16, 3.89713585376739501953e-01) (17, 1.00111879408359527588e-01) (18, 8.11333179473876953125e-01) (19, 6.87146008014678955078e-01) (20, 3.46350133419036865234e-01) (21, 9.64169025421142578125e-01) (22, 2.92076319456100463867e-01) (23, 9.13909435272216796875e-01) (24, 3.52639675140380859375e-01) (25, 8.99357616901397705078e-01) (26, 1.23432390391826629639e-01) (27, 1.54185688495635986328e+00) (28, 5.04436910152435302734e-01) (29, 5.92450737953186035156e-01) (30, 8.27141761779785156250e-01) (31, 6.10401034355163574219e-01) (32, 8.09119105339050292969e-01) (33, 9.76788461208343505859e-01) (34, 5.76261401176452636719e-01) (35, 3.86103928089141845703e-01) (36, 3.21958094835281372070e-01) (37, 3.67317646741867065430e-01) (38, 8.56096863746643066406e-01) (39, 8.75686824321746826172e-01) (40, 9.23981964588165283203e-01) (41, 8.62060904502868652344e-01) (42, 3.60244333744049072266e-01) (43, 8.40973556041717529297e-01) (44, 5.98120152950286865234e-01) (45, 7.06026196479797363281e-01) (46, 8.40518549084663391113e-02) (47, 1.30390822887420654297e-01) (48, 9.03579592704772949219e-01) (49, 5.03536522388458251953e-01) (50, 9.76172029972076416016e-01) (51, 4.76425319910049438477e-01) (52, 1.25673770904541015625e+00) (2, 5.57204437255859375000e+00) (3, 2.99427121877670288086e-01) (4, 3.35062325000762939453e-01) (5, 8.76314938068389892578e-01) (6, 9.35469031333923339844e-01) (7, 4.74933534860610961914e-01) (8, 9.25262093544006347656e-01) (9, 7.09385752677917480469e-01) (10, 7.13112056255340576172e-01) (11, 2.04636469483375549316e-01) (12, 2.01500896364450454712e-02) (13, 3.88672709465026855469e-01) (14, 7.26856514811515808105e-02) (15, 3.39825987815856933594e-01) (16, 2.61043608188629150391e-01) (17, -2.92734444141387939453e-01) (18, 9.20732021331787109375e-01) (19, 8.92545700073242187500e-01) (20, 2.67048656940460205078e-01) (21, 6.48899495601654052734e-01) (22, 4.14579540491104125977e-01) (23, 8.30012321472167968750e-01) (24, 1.94815009832382202148e-01) (25, 1.01951241493225097656e+00) (26, 1.74603000283241271973e-01) (27, 4.59186553955078125000e-01) (28, 3.90727967023849487305e-01) (29, 8.68644773960113525391e-01) (30, 1.23851609230041503906e+00) (31, 5.69999575614929199219e-01) (32, 9.29059326648712158203e-01) (33, 8.45467984676361083984e-01) (34, 7.09990143775939941406e-01) (35, 2.38933697342872619629e-01) (36, 3.13395828008651733398e-01) (37, 3.77501428127288818359e-01) (38, 9.96165633201599121094e-01) (39, 8.15316736698150634766e-01) (40, 1.01412022113800048828e+00) (41, 8.98511111736297607422e-01) (42, 2.47448235750198364258e-01) (43, 8.74024629592895507812e-01) (44, 5.17331182956695556641e-01) (45, 7.26317107677459716797e-01) (46, 3.87549288570880889893e-02) (47, 7.39243477582931518555e-02) (48, 8.90996038913726806641e-01) (49, 3.39021384716033935547e-01) (50, 9.35313463211059570312e-01) (51, 4.80026930570602416992e-01) (52, 8.82775902748107910156e-01) (2, 6.44065558910369873047e-01) (3, 4.41548854112625122070e-01) (4, 3.03801834583282470703e-01) (5, 5.53477466106414794922e-01) (6, 1.01616585254669189453e+00) (7, 6.84421539306640625000e-01) (8, 7.85633087158203125000e-01) (9, 6.98719024658203125000e-01) (10, 1.03859245777130126953e+00) (11, 2.40950688719749450684e-01) (12, 1.66395142674446105957e-01) (13, 4.09953892230987548828e-01) (14, 3.03092479705810546875e-01) (15, 7.31632292270660400391e-01) (16, 4.26243752241134643555e-01) (17, 7.28123113512992858887e-02) (18, 6.55913233757019042969e-01) (19, 8.98197591304779052734e-01) (20, 2.78456240892410278320e-01) (21, 7.70875930786132812500e-01) (22, 4.30736750364303588867e-01) (23, 7.55172312259674072266e-01) (24, 2.36997738480567932129e-01) (25, 8.10196578502655029297e-01) (26, 1.46214038133621215820e-01) (27, 1.32028207182884216309e-01) (28, 6.71531140804290771484e-01) (29, 7.75848209857940673828e-01) (30, 7.85426616668701171875e-01) (31, 5.88863551616668701172e-01) (32, 7.50314116477966308594e-01) (33, 8.51526796817779541016e-01) (34, 8.02272319793701171875e-01) (35, 4.25107896327972412109e-01) (36, 3.28808039426803588867e-01) (37, 2.42662414908409118652e-01) (38, 8.08753907680511474609e-01) (39, 6.09076082706451416016e-01) (40, 8.57077598571777343750e-01) (41, 7.31209754943847656250e-01) (42, 1.06778331100940704346e-01) (43, 8.62809538841247558594e-01) (44, 5.69400727748870849609e-01) (45, 1.06398761272430419922e+00) (46, 2.11206197738647460938e-01) (47, 1.63430228829383850098e-01) (48, 7.47645974159240722656e-01) (49, 4.28262293338775634766e-01) (50, 9.86493289470672607422e-01) (51, 5.62434315681457519531e-01) (52, 8.70133340358734130859e-01) (2, 5.14633476734161376953e-01) (3, 9.36796844005584716797e-01) (4, 7.58068263530731201172e-01) (5, 3.29751610755920410156e-01) (6, 4.29102391004562377930e-01) (7, 6.03654623031616210938e-01) (8, 1.65313079953193664551e-01) (9, 1.70727789402008056641e-01) (10, 2.99216330051422119141e-01) (11, 5.51853656768798828125e-01) (12, 5.49020349979400634766e-01) (13, 9.42929208278656005859e-01) (14, 4.66753542423248291016e-01) (15, 6.74555718898773193359e-01) (16, 8.75613212585449218750e-01) (17, 6.72570526599884033203e-01) (18, 2.68198728561401367188e-01) (19, 4.40563082695007324219e-01) (20, 9.14465844631195068359e-01) (21, 5.20107269287109375000e-01) (22, 9.41116869449615478516e-01) (23, 3.52290958166122436523e-01) (24, -2.32685416936874389648e-01) (25, 3.28267246484756469727e-01) (26, 6.86839580535888671875e-01) (27, 6.33383214473724365234e-01) (28, 7.53139257431030273438e-01) (29, 4.00364190340042114258e-01) (30, 4.74046736955642700195e-01) (31, 1.44839465618133544922e-01) (32, 4.28248435258865356445e-01) (33, 4.23401832580566406250e-01) (34, 3.68068903684616088867e-01) (35, 8.20587575435638427734e-01) (36, 9.40494120121002197266e-01) (37, 8.97691786289215087891e-01) (38, 3.42412620782852172852e-01) (39, 2.82039433717727661133e-01) (40, 3.62455159425735473633e-01) (41, 2.60963618755340576172e-01) (42, 8.38349878787994384766e-01) (43, 3.05594623088836669922e-01) (44, 5.02669401466846466064e-02) (45, 2.67278611660003662109e-01) (46, 4.16445285081863403320e-01) (47, 5.37869513034820556641e-01) (48, 2.86448597908020019531e-01) (49, 9.82259213924407958984e-01) (50, 2.98614382743835449219e-01) (51, 1.44060045480728149414e-01) (52, 3.71998369693756103516e-01) (2, 5.81875979900360107422e-01) (3, 6.84825837612152099609e-01) (4, 3.57593409717082977295e-02) (5, 1.02294075489044189453e+00) (6, 5.36352515220642089844e-01) (7, 4.78245735168457031250e-01) (8, 4.17148590087890625000e-01) (9, 4.27946627140045166016e-01) (10, 5.75934588909149169922e-01) (11, -3.43104116618633270264e-02) (12, 5.06593823432922363281e-01) (13, -2.04760655760765075684e-02) (14, 5.07487893104553222656e-01) (15, 3.31632852554321289062e-01) (16, 9.50301587581634521484e-02) (17, 5.38675844669342041016e-01) (18, 7.38216042518615722656e-01) (19, 2.14386910200119018555e-01) (20, 5.84638416767120361328e-01) (21, 3.84916067123413085938e-01) (22, 6.93384110927581787109e-01) (23, 6.89172744750976562500e-01) (24, 1.08635956421494483948e-02) (25, 7.04530417919158935547e-01) (26, 5.11729478836059570312e-01) (27, -4.63441051542758941650e-02) (28, 5.82688927650451660156e-01) (29, 7.55405783653259277344e-01) (30, 3.57863783836364746094e-01) (31, 1.04990923404693603516e+00) (32, 9.06283259391784667969e-01) (33, 5.32051146030426025391e-01) (34, 2.35788941383361816406e-01) (35, 6.57875044271349906921e-03) (36, 5.89092671871185302734e-01) (37, 5.94683468341827392578e-01) (38, 6.79841756820678710938e-01) (39, 4.83930915594100952148e-01) (40, 5.05304992198944091797e-01) (41, 7.01097369194030761719e-01) (42, 4.36834216117858886719e-01) (43, 5.16857802867889404297e-01) (44, 9.73578631877899169922e-01) (45, 5.29505789279937744141e-01) (46, 3.35983186960220336914e-01) (47, 4.68733102083206176758e-01) (48, 5.10200440883636474609e-01) (49, 1.17136120796203613281e-01) (50, 3.66935074329376220703e-01) (51, 1.00258779525756835938e+00) (52, 6.45945668220520019531e-01) (2, -6.01277314126491546631e-02) (3, 3.09050947427749633789e-01) (4, 3.57667833566665649414e-01) (5, 4.54849749803543090820e-01) (6, -1.54654756188392639160e-01) (7, 7.21743345260620117188e-01) (8, -6.78087949752807617188e-01) (9, -1.91691502928733825684e-01) (10, 2.42206066846847534180e-01) (11, 3.52380514144897460938e-01) (12, 1.16111338138580322266e+00) (13, 4.15173321962356567383e-01) (14, 1.03345787525177001953e+00) (15, 7.40195333957672119141e-01) (16, 2.65631139278411865234e-01) (17, -1.82134151458740234375e-01) (18, -1.55644491314888000488e-01) (19, 1.26069441437721252441e-01) (20, 2.65249580144882202148e-01) (21, 1.46843902766704559326e-02) (22, 2.69014656543731689453e-01) (23, -2.19396203756332397461e-01) (24, 3.70653688907623291016e-01) (25, -6.39085918664932250977e-02) (26, -1.07630133628845214844e-01) (27, 8.54525148868560791016e-01) (28, 7.28439450263977050781e-01) (29, 7.66621977090835571289e-02) (30, -1.05799853801727294922e+00) (31, 4.71574783325195312500e-01) (32, -1.97412109375000000000e+00) (33, -5.13011962175369262695e-02) (34, 2.88848668336868286133e-01) (35, 2.12339743971824645996e-01) (36, 4.55442368984222412109e-01) (37, 2.20800876617431640625e-01) (38, -1.25956028699874877930e-01) (39, -2.35470488667488098145e-01) (40, -1.37786030769348144531e-01) (41, -1.63399145007133483887e-01) (42, 3.73146981000900268555e-01) (43, -1.75484016537666320801e-01) (44, 4.35909867286682128906e-01) (45, 2.83621400594711303711e-01) (46, 1.04562520980834960938e+00) (47, 1.07089030742645263672e+00) (48, -5.44085837900638580322e-02) (49, 6.94519996643066406250e-01) (50, -9.79379788041114807129e-02) (51, 5.65810143947601318359e-01) (52, 3.61219495534896850586e-01) (2, 1.67367115616798400879e-01) (3, 3.84275496006011962891e-01) (4, 3.27210694551467895508e-01) (5, 7.31313526630401611328e-01) (6, 6.83476448059082031250e-01) (7, 2.11343973875045776367e-01) (8, 1.03014230728149414062e+00) (9, 6.75359487533569335938e-01) (10, 9.62940812110900878906e-01) (11, 1.89363539218902587891e+00) (12, 9.11111682653427124023e-02) (13, 3.24809819459915161133e-01) (14, 7.05685168504714965820e-02) (15, 2.74734914302825927734e-01) (16, 3.19099009037017822266e-01) (17, 1.12570911645889282227e-01) (18, 8.26013565063476562500e-01) (19, 9.08085763454437255859e-01) (20, 3.53232562541961669922e-01) (21, 4.25241589546203613281e-01) (22, 3.42406600713729858398e-01) (23, 8.34615826606750488281e-01) (24, 3.01469981670379638672e-01) (25, 8.46657276153564453125e-01) (26, 3.41837853193283081055e-02) (27, 2.53093272447586059570e-01) (28, 2.57196694612503051758e-01) (29, 4.03282046318054199219e-02) (30, 2.93527811765670776367e-01) (31, 6.56117022037506103516e-01) (32, 1.02516973018646240234e+00) (33, 7.49357104301452636719e-01) (34, 8.23161780834197998047e-01) (35, 2.99076169729232788086e-01) (36, -8.92360955476760864258e-02) (37, 2.81128615140914916992e-01) (38, 8.17092955112457275391e-01) (39, 6.75424218177795410156e-01) (40, 7.87198841571807861328e-01) (41, 7.89279043674468994141e-01) (42, 3.32037180662155151367e-01) (43, 6.71150684356689453125e-01) (44, 6.59241020679473876953e-01) (45, 1.03411138057708740234e+00) (46, 1.21784247457981109619e-01) (47, -1.36250127106904983521e-02) (48, 8.17070066928863525391e-01) (49, 2.67597232013940811157e-02) (50, 8.10937523841857910156e-01) (51, 6.68414831161499023438e-01) (52, 9.55644607543945312500e-01) (2, 7.44727313518524169922e-01) (3, 3.43926787376403808594e-01) (4, 2.79393374919891357422e-01) (5, 5.91059327125549316406e-01) (6, 9.49019372463226318359e-01) (7, 3.95124480128288269043e-02) (8, 1.45068681240081787109e+00) (9, 1.39658224582672119141e+00) (10, 5.93702912330627441406e-01) (11, 4.29073631763458251953e-01) (12, -3.69164764881134033203e-01) (13, 6.43095970153808593750e-01) (14, -3.38537842035293579102e-01) (15, 4.08123165369033813477e-01) (16, 2.57671684026718139648e-01) (17, 1.00290939211845397949e-01) (18, 9.11189258098602294922e-01) (19, 5.79369246959686279297e-01) (20, 3.71825188398361206055e-01) (21, 1.43184733390808105469e+00) (22, 3.45055967569351196289e-01) (23, 8.78903508186340332031e-01) (24, 6.26235246658325195312e-01) (25, 9.73570227622985839844e-01) (26, 1.88276737928390502930e-01) (27, 3.42413854598999023438e+00) (28, 1.39015123248100280762e-01) (29, 4.61982131004333496094e-01) (30, 1.53244757652282714844e+00) (31, 2.69096106290817260742e-01) (32, 1.51110589504241943359e+00) (33, 1.38911592960357666016e+00) (34, 5.51347136497497558594e-01) (35, 4.83729958534240722656e-01) (36, 3.78426671028137207031e-01) (37, 3.42734634876251220703e-01) (38, 8.04743051528930664062e-01) (39, 1.38126409053802490234e+00) (40, 8.31232130527496337891e-01) (41, 8.84718477725982666016e-01) (42, 3.52726846933364868164e-01) (43, 9.17360961437225341797e-01) (44, 3.24356287717819213867e-01) (45, 5.93892037868499755859e-01) (46, -3.32336306571960449219e-01) (47, -3.48262071609497070312e-01) (48, 1.46505522727966308594e+00) (49, 6.48999452590942382812e-01) (50, 1.38792932033538818359e+00) (51, 2.67627060413360595703e-01) (52, 9.78692948818206787109e-01) (2, 6.65421485900878906250e-01) (3, 8.09987485408782958984e-02) (4, 2.65029221773147583008e-01) (5, 4.33884978294372558594e-01) (6, 7.40211188793182373047e-01) (7, -8.60763043165206909180e-02) (8, 3.86662423610687255859e-01) (9, 7.25282430648803710938e-01) (10, 4.92837250232696533203e-01) (11, -4.40765559673309326172e-01) (12, 1.90317660570144653320e-01) (13, 2.71133005619049072266e-01) (14, 1.58580899238586425781e-01) (15, -1.48757651448249816895e-01) (16, 1.45960003137588500977e-01) (17, 1.73290818929672241211e-01) (18, 7.43314445018768310547e-01) (19, 4.12504076957702636719e-01) (20, 8.26742053031921386719e-02) (21, 6.24527871608734130859e-01) (22, 2.01955392956733703613e-01) (23, 7.64555931091308593750e-01) (24, 2.79912531375885009766e-01) (25, 6.80015325546264648438e-01) (26, -1.35302022099494934082e-02) (27, 3.27452540397644042969e-01) (28, -2.57882654666900634766e-01) (29, 4.43602025508880615234e-01) (30, 6.19662165641784667969e-01) (31, 5.48494756221771240234e-01) (32, 4.15888357162475585938e+00) (33, 6.78044974803924560547e-01) (34, 2.59985953569412231445e-01) (35, 2.23755568265914916992e-01) (36, -7.33578395843505859375e+00) (37, 2.04339414834976196289e-01) (38, 7.80755639076232910156e-01) (39, 6.75080239772796630859e-01) (40, 6.84554100036621093750e-01) (41, 7.11903393268585205078e-01) (42, 3.20017814636230468750e-01) (43, 7.72191464900970458984e-01) (44, 5.62469661235809326172e-01) (45, 3.85163098573684692383e-01) (46, 1.55331462621688842773e-01) (47, 2.67435461282730102539e-01) (48, 8.06097447872161865234e-01) (49, 3.23905140161514282227e-01) (50, 7.07778096199035644531e-01) (51, 7.15181410312652587891e-01) (52, 5.56422352790832519531e-01) (53, 9.45190936326980590820e-02) (54, 1.34553372859954833984e+00) (55, 1.37900960445404052734e+00) (56, 9.82117503881454467773e-02) (57, 1.49752771854400634766e+00) (58, 1.98726393282413482666e-02) (59, 2.98101045191287994385e-02) (60, -4.66091670095920562744e-02) (61, 6.86610341072082519531e-01) (62, 5.40091395378112792969e-01) (63, 7.67475843429565429688e-01) (64, 1.26619858201593160629e-03) (65, 6.32234364748001098633e-02) (66, 2.90382921695709228516e-01) (67, 1.05606102943420410156e+00) (68, -5.34721277654170989990e-03) (69, 4.98611591756343841553e-02) (70, 1.23382818698883056641e+00) (71, 4.69457000494003295898e-01) (72, 1.46630734205245971680e-01) (73, -4.21592772006988525391e-01) (74, 6.36499285697937011719e-01) (75, -1.53375828266143798828e+00) (76, 1.38155734539031982422e+00) (77, -5.59478640556335449219e-01) (78, 2.49982178211212158203e-01) (79, -1.11155107617378234863e-01) (80, 1.72260180115699768066e-01) (81, 1.59906196594238281250e+00) (82, 6.78151249885559082031e-01) (83, 1.25183737277984619141e+00) (84, 4.41748768091201782227e-01) (85, 2.16649383306503295898e-01) (86, 4.71178799867630004883e-01) (87, -7.00614643096923828125e+00) (88, 2.50391840934753417969e-01) (89, 5.27885556221008300781e-01) (90, 1.06220953166484832764e-01) (91, 1.78277537226676940918e-01) (92, 1.29729163646697998047e+00) (93, 