FANN_FLO_2.1
num_layers=5
learning_rate=0.700000
connection_rate=1.000000
network_type=0
learning_momentum=0.000000
training_algorithm=2
train_error_function=0
train_stop_function=0
cascade_output_change_fraction=0.010000
quickprop_decay=-0.000100
quickprop_mu=1.750000
rprop_increase_factor=1.200000
rprop_decrease_factor=0.500000
rprop_delta_min=0.000000
rprop_delta_max=50.000000
rprop_delta_zero=0.100000
cascade_output_stagnation_epochs=12
cascade_candidate_change_fraction=0.010000
cascade_candidate_stagnation_epochs=12
cascade_max_out_epochs=150
cascade_min_out_epochs=50
cascade_max_cand_epochs=150
cascade_min_cand_epochs=50
cascade_num_candidate_groups=2
bit_fail_limit=3.49999994039535522461e-01
cascade_candidate_limit=1.00000000000000000000e+03
cascade_weight_multiplier=4.00000005960464477539e-01
cascade_activation_functions_count=10
cascade_activation_functions=3 5 7 8 10 11 14 15 16 17 
cascade_activation_steepnesses_count=4
cascade_activation_steepnesses=2.50000000000000000000e-01 5.00000000000000000000e-01 7.50000000000000000000e-01 1.00000000000000000000e+00 
layer_sizes=2 11 11 11 127 
scale_included=0
neurons (num_inputs, activation_function, activation_steepness)=(0, 0, 0.00000000000000000000e+00) (0, 0, 0.00000000000000000000e+00) (2, 5, 5.00000000000000000000e-01) (2, 5, 5.00000000000000000000e-01) (2, 5, 5.00000000000000000000e-01) (2, 5, 5.00000000000000000000e-01) (2, 5, 5.00000000000000000000e-01) (2, 5, 5.00000000000000000000e-01) (2, 5, 5.00000000000000000000e-01) (2, 5, 5.00000000000000000000e-01) (2, 5, 5.00000000000000000000e-01) (2, 5, 5.00000000000000000000e-01) (0, 5, 0.00000000000000000000e+00) (11, 5, 5.00000000000000000000e-01) (11, 5, 5.00000000000000000000e-01) (11, 5, 5.00000000000000000000e-01) (11, 5, 5.00000000000000000000e-01) (11, 5, 5.00000000000000000000e-01) (11, 5, 5.00000000000000000000e-01) (11, 5, 5.00000000000000000000e-01) (11, 5, 5.00000000000000000000e-01) (11, 5, 5.00000000000000000000e-01) (11, 5, 5.00000000000000000000e-01) (0, 5, 0.00000000000000000000e+00) (11, 5, 5.00000000000000000000e-01) (11, 5, 5.00000000000000000000e-01) (11, 5, 5.00000000000000000000e-01) (11, 5, 5.00000000000000000000e-01) (11, 5, 5.00000000000000000000e-01) (11, 5, 5.00000000000000000000e-01) (11, 5, 5.00000000000000000000e-01) (11, 5, 5.00000000000000000000e-01) (11, 5, 5.00000000000000000000e-01) (11, 5, 5.00000000000000000000e-01) (0, 5, 0.00000000000000000000e+00) (11, 0, 5.00000000000000000000e-01) (11, 0, 5.00000000000000000000e-01) (11, 0, 5.00000000000000000000e-01) (11, 0, 5.00000000000000000000e-01) (11, 0, 5.00000000000000000000e-01) (11, 0, 5.00000000000000000000e-01) (11, 0, 5.00000000000000000000e-01) (11, 0, 5.00000000000000000000e-01) (11, 0, 5.00000000000000000000e-01) (11, 0, 5.00000000000000000000e-01) (11, 0, 5.00000000000000000000e-01) (11, 0, 5.00000000000000000000e-01) (11, 0, 5.00000000000000000000e-01) (11, 0, 5.00000000000000000000e-01) (11, 0, 5.00000000000000000000e-01) (11, 0, 5.00000000000000000000e-01) (11, 0, 5.00000000000000000000e-01) (11, 0, 5.00000000000000000000e-01) (11, 0, 5.00000000000000000000e-01) (11, 0, 5.00000000000000000000e-01) (11, 0, 5.00000000000000000000e-01) (11, 0, 5.00000000000000000000e-01) (11, 0, 5.00000000000000000000e-01) (11, 0, 5.00000000000000000000e-01) (11, 0, 5.00000000000000000000e-01) (11, 0, 5.00000000000000000000e-01) (11, 0, 5.00000000000000000000e-01) (11, 0, 5.00000000000000000000e-01) (11, 0, 5.00000000000000000000e-01) (11, 0, 5.00000000000000000000e-01) (11, 0, 5.00000000000000000000e-01) (11, 0, 5.00000000000000000000e-01) (11, 0, 5.00000000000000000000e-01) (11, 0, 5.00000000000000000000e-01) (11, 0, 5.00000000000000000000e-01) (11, 0, 5.00000000000000000000e-01) (11, 0, 5.00000000000000000000e-01) (11, 0, 5.00000000000000000000e-01) (11, 0, 5.00000000000000000000e-01) (11, 0, 5.00000000000000000000e-01) (11, 0, 5.00000000000000000000e-01) (11, 0, 5.00000000000000000000e-01) (11, 0, 5.00000000000000000000e-01) (11, 0, 5.00000000000000000000e-01) (11, 0, 5.00000000000000000000e-01) (11, 0, 5.00000000000000000000e-01) (11, 0, 5.00000000000000000000e-01) (11, 0, 5.00000000000000000000e-01) (11, 0, 5.00000000000000000000e-01) (11, 0, 5.00000000000000000000e-01) (11, 0, 5.00000000000000000000e-01) (11, 0, 5.00000000000000000000e-01) (11, 0, 5.00000000000000000000e-01) (11, 0, 5.00000000000000000000e-01) (11, 0, 5.00000000000000000000e-01) (11, 0, 5.00000000000000000000e-01) (11, 0, 5.00000000000000000000e-01) (11, 0, 5.00000000000000000000e-01) (11, 0, 5.00000000000000000000e-01) (11, 0, 5.00000000000000000000e-01) (11, 0, 5.00000000000000000000e-01) (11, 0, 5.00000000000000000000e-01) (11, 0, 5.00000000000000000000e-01) (11, 0, 5.00000000000000000000e-01) (11, 0, 5.00000000000000000000e-01) (11, 0, 5.00000000000000000000e-01) (11, 0, 5.00000000000000000000e-01) (11, 0, 5.00000000000000000000e-01) (11, 0, 5.00000000000000000000e-01) (11, 0, 5.00000000000000000000e-01) (11, 0, 5.00000000000000000000e-01) (11, 0, 5.00000000000000000000e-01) (11, 0, 5.00000000000000000000e-01) (11, 0, 5.00000000000000000000e-01) (11, 0, 5.00000000000000000000e-01) (11, 0, 5.00000000000000000000e-01) (11, 0, 5.00000000000000000000e-01) (11, 0, 5.00000000000000000000e-01) (11, 0, 5.00000000000000000000e-01) (11, 0, 5.00000000000000000000e-01) (11, 0, 5.00000000000000000000e-01) (11, 0, 5.00000000000000000000e-01) (11, 0, 5.00000000000000000000e-01) (11, 0, 5.00000000000000000000e-01) (11, 0, 5.00000000000000000000e-01) (11, 0, 5.00000000000000000000e-01) (11, 0, 5.00000000000000000000e-01) (11, 0, 5.00000000000000000000e-01) (11, 0, 5.00000000000000000000e-01) (11, 0, 5.00000000000000000000e-01) (11, 0, 5.00000000000000000000e-01) (11, 0, 5.00000000000000000000e-01) (11, 0, 5.00000000000000000000e-01) (11, 0, 5.00000000000000000000e-01) (11, 0, 5.00000000000000000000e-01) (11, 0, 5.00000000000000000000e-01) (11, 0, 5.00000000000000000000e-01) (11, 0, 5.00000000000000000000e-01) (11, 0, 5.00000000000000000000e-01) (11, 0, 5.00000000000000000000e-01) (11, 0, 5.00000000000000000000e-01) (11, 0, 5.00000000000000000000e-01) (11, 0, 5.00000000000000000000e-01) (11, 0, 5.00000000000000000000e-01) (11, 0, 5.00000000000000000000e-01) (11, 0, 5.00000000000000000000e-01) (11, 0, 5.00000000000000000000e-01) (11, 0, 5.00000000000000000000e-01) (11, 0, 5.00000000000000000000e-01) (11, 0, 5.00000000000000000000e-01) (11, 0, 5.00000000000000000000e-01) (11, 0, 5.00000000000000000000e-01) (11, 0, 5.00000000000000000000e-01) (11, 0, 5.00000000000000000000e-01) (11, 0, 5.00000000000000000000e-01) (11, 0, 5.00000000000000000000e-01) (11, 0, 5.00000000000000000000e-01) (11, 0, 5.00000000000000000000e-01) (11, 0, 5.00000000000000000000e-01) (11, 0, 5.00000000000000000000e-01) (11, 0, 5.00000000000000000000e-01) (11, 0, 5.00000000000000000000e-01) (11, 0, 5.00000000000000000000e-01) (11, 0, 5.00000000000000000000e-01) (11, 0, 5.00000000000000000000e-01) (11, 0, 5.00000000000000000000e-01) (0, 0, 0.00000000000000000000e+00) 
connections (connected_to_neuron, weight)=(0, -1.23870998620986938477e-01) (1, 1.49996630859375000000e+03) (0, 1.49409716796875000000e+03) (1, 1.49480200195312500000e+03) (0, -3.35346674919128417969e+00) (1, 2.91044864654541015625e+01) (0, 1.49234423828125000000e+03) (1, -3.13160400390625000000e+01) (0, -3.33912324905395507812e+00) (1, 1.01809295654296875000e+02) (0, -1.03319149017333984375e+01) (1, 1.06251392364501953125e+01) (0, -9.31838989257812500000e+02) (1, 6.67534685134887695312e+00) (0, -2.94808626174926757812e+00) (1, 7.01189470291137695312e+00) (0, -4.09759979248046875000e+02) (1, 1.03934478759765625000e+01) (0, 1.76911726593971252441e-01) (1, 1.49996057128906250000e+03) (2, 8.71275722980499267578e-01) (3, -1.39982581138610839844e-01) (4, -1.72212672233581542969e+00) (5, -1.24647593498229980469e+00) (6, -1.56235694885253906250e-01) (7, -9.49230134487152099609e-01) (8, 4.10243302583694458008e-01) (9, 1.27330034971237182617e-01) (10, 2.26376995444297790527e-01) (11, 9.03064608573913574219e-01) (12, -1.49711930751800537109e+00) (2, -2.25067234039306640625e+00) (3, -2.58654308319091796875e+00) (4, 3.31764131784439086914e-01) (5, -3.44139397144317626953e-01) (6, 4.70620363950729370117e-01) (7, 2.94127893447875976562e+00) (8, 3.85181403160095214844e+00) (9, 4.56883096694946289062e+00) (10, 9.76148223876953125000e+00) (11, -1.63732898235321044922e+00) (12, 1.08399457931518554688e+01) (2, 7.90773451328277587891e-01) (3, 8.36965680122375488281e-01) (4, 8.38772431015968322754e-02) (5, 2.85742338746786117554e-02) (6, 1.89855766296386718750e+00) (7, 3.76706987619400024414e-01) (8, 1.76071643829345703125e-01) (9, 2.74013614654541015625e+00) (10, 5.71776688098907470703e-01) (11, 7.18328654766082763672e-01) (12, 1.64439702033996582031e+00) (2, 1.69825816154479980469e+00) (3, 1.37012922763824462891e+00) (4, 4.31696891784667968750e-01) (5, 4.98236864805221557617e-01) (6, 1.71688541769981384277e-01) (7, -1.28365188837051391602e-01) (8, 1.51355400681495666504e-01) (9, -1.53086021542549133301e-01) (10, -1.07824659347534179688e+00) (11, 1.87873315811157226562e+00) (12, -1.38877165317535400391e+00) (2, -2.37161326408386230469e+00) (3, 2.03004813194274902344e+00) (4, 1.95501852035522460938e+00) (5, 4.14864158630371093750e+00) (6, 2.70984697341918945312e+00) (7, 3.30343055725097656250e+00) (8, 1.22785019874572753906e+00) (9, 5.00725936889648437500e+00) (10, 6.12438488006591796875e+00) (11, -1.44138348102569580078e+00) (12, 1.54897880554199218750e+01) (2, 1.96580719947814941406e+00) (3, 1.52129757404327392578e+00) (4, 3.28003644943237304688e-01) (5, 5.10774254798889160156e-01) (6, -4.50420230627059936523e-02) (7, 6.74508586525917053223e-02) (8, 1.01377815008163452148e-01) (9, -5.18601611256599426270e-02) (10, -9.99694645404815673828e-01) (11, 1.86328756809234619141e+00) (12, -1.28879320621490478516e+00) (2, 2.40009331703186035156e+00) (3, 3.85582160949707031250e+00) (4, -1.25877070426940917969e+00) (5, 1.39472234249114990234e+00) (6, 3.77580833435058593750e+00) (7, -9.56185996532440185547e-01) (8, -1.76426780223846435547e+00) (9, -5.59149920940399169922e-01) (10, -1.88321006298065185547e+00) (11, 1.28649921417236328125e+01) (12, 1.24456179141998291016e+00) (2, 4.62404072284698486328e-01) (3, 1.08064806461334228516e+00) (4, 7.14237809181213378906e-01) (5, 2.73779416084289550781e+00) (6, 1.12431550025939941406e+00) (7, 6.98571145534515380859e-01) (8, 3.89180159568786621094e+00) (9, -1.59249424934387207031e-01) (10, -9.72995877265930175781e-01) (11, 6.42078816890716552734e-01) (12, 1.19626283645629882812e+00) (2, 1.44121122360229492188e+00) (3, 1.33050715923309326172e+00) (4, 3.46602678298950195312e-01) (5, 5.42334556579589843750e-01) (6, -1.26436698436737060547e+00) (7, 3.48202776908874511719e+00) (8, 9.94964037090539932251e-03) (9, 4.61048036813735961914e-02) (10, -1.18266499042510986328e+00) (11, 1.29117739200592041016e+00) (12, -1.29736042022705078125e+00) (2, 8.63173484802246093750e-01) (3, 1.00499761104583740234e+00) (4, 4.21270340681076049805e-01) (5, 4.56864237785339355469e-01) (6, 8.20643484592437744141e-01) (7, 9.48804840445518493652e-02) (8, -5.28498470783233642578e-01) (9, 1.44687330722808837891e+00) (10, 3.83725345134735107422e-01) (11, -1.75980675220489501953e+00) (12, 1.31594574451446533203e+00) (13, 3.14168238639831542969e+00) (14, -4.97056841850280761719e-02) (15, 5.07703590393066406250e+00) (16, 5.85599899291992187500e-01) (17, 4.68201965093612670898e-01) (18, 5.11130869388580322266e-01) (19, 1.47634326171875000000e+03) (20, 1.90825283527374267578e+00) (21, 2.29611701965332031250e+01) (22, -3.89904403686523437500e+00) (23, 1.34091114997863769531e+00) (13, 9.07794296741485595703e-01) (14, -3.16341543197631835938e+00) (15, 3.08651041984558105469e+00) (16, 5.65239489078521728516e-01) (17, 4.93288815021514892578e-01) (18, 6.42889797687530517578e-01) (19, 1.75423711538314819336e-01) (20, 1.16802587509155273438e+01) (21, -2.24270984530448913574e-01) (22, 1.52902162075042724609e+00) (23, 8.32890777587890625000e+01) (13, 3.49705553054809570312e+00) (14, 1.50479145050048828125e+01) (15, -3.82686710357666015625e+00) (16, 7.43813991546630859375e+00) (17, -5.89769220352172851562e+00) (18, 7.36981344223022460938e+00) (19, -4.97976112365722656250e+00) (20, -6.62751019001007080078e-01) (21, 7.44489526748657226562e+00) (22, -3.03211301565170288086e-01) (23, -6.42507743835449218750e+00) (13, -6.42391777038574218750e+00) (14, 9.06025505065917968750e+00) (15, 2.07243537902832031250e+01) (16, -5.09415006637573242188e+00) (17, 1.09478626251220703125e+01) (18, -5.04854011535644531250e+00) (19, -1.65597236156463623047e+00) (20, 1.50000000000000000000e+03) (21, -5.20407342910766601562e+00) (22, 1.49999987792968750000e+03) (23, 1.22775306701660156250e+01) (13, -2.16139197349548339844e+00) (14, -2.78278675079345703125e+01) (15, 1.64045619964599609375e+01) (16, 1.65763032436370849609e+00) (17, 2.33242511749267578125e-01) (18, 1.73487913608551025391e+00) (19, 1.07437455654144287109e+00) (20, 4.14732456207275390625e+00) (21, 7.10201203823089599609e-01) (22, 3.05381751060485839844e+00) (23, 3.33721580505371093750e+01) (13, 9.77556228637695312500e-01) (14, -1.84775543212890625000e+01) (15, 1.19981718063354492188e+00) (16, 5.86327135562896728516e-01) (17, 2.62352555990219116211e-01) (18, 5.65759181976318359375e-01) (19, 2.19901762902736663818e-02) (20, 4.88676977157592773438e+00) (21, 4.67172592878341674805e-01) (22, 1.86020676046609878540e-02) (23, 9.31126556396484375000e+01) (13, -1.96844921112060546875e+01) (14, -2.55395050048828125000e+01) (15, -2.77384901046752929688e+00) (16, 7.93402004241943359375e+00) (17, -6.43056201934814453125e+00) (18, 8.06507873535156250000e+00) (19, 3.76989698410034179688e+00) (20, 1.04402935504913330078e+00) (21, 7.47139406204223632812e+00) (22, -2.13851347565650939941e-01) (23, 6.49207611083984375000e+01) (13, -6.70823335647583007812e-01) (14, 3.74909706115722656250e+01) (15, 9.05420362949371337891e-01) (16, 7.81664371490478515625e-01) (17, 8.66971683502197265625e+00) (18, 7.74625301361083984375e-01) (19, 1.18922710418701171875e+00) (20, 1.98675215244293212891e+00) (21, 1.17051875591278076172e+00) (22, 9.35380995273590087891e-01) (23, 2.09760665893554687500e+00) (13, 6.44911623001098632812e+00) (14, -5.09475660324096679688e+00) (15, -2.46995615959167480469e+00) (16, 8.13592433929443359375e+00) (17, -5.27327585220336914062e+00) (18, 8.13675880432128906250e+00) (19, -2.37070456147193908691e-01) (20, -1.58784294128417968750e+00) (21, 3.38496756553649902344e+00) (22, 1.23120689392089843750e+00) (23, -6.40085458755493164062e+00) (13, -1.17877745628356933594e+00) (14, -2.36173915863037109375e+01) (15, 6.09749495983123779297e-01) (16, 9.34382021427154541016e-01) (17, 5.28756022453308105469e-01) (18, 1.04715716838836669922e+00) (19, 1.16525638103485107422e+00) (20, 1.08846416473388671875e+01) (21, 6.02925181388854980469e-01) (22, 8.40786218643188476562e-01) (23, 6.58342313766479492188e+00) (24, 1.43122684955596923828e+00) (25, 1.29378008842468261719e+00) (26, -1.07849073410034179688e+00) (27, 1.45491683483123779297e+00) (28, 2.81070500612258911133e-01) (29, 9.48591113090515136719e-01) (30, 8.05916845798492431641e-01) (31, 8.84669363498687744141e-01) (32, -1.17845201492309570312e+00) (33, 6.14276945590972900391e-01) (34, 3.40213179588317871094e+00) (24, -5.19760251045227050781e-01) (25, 1.73883393406867980957e-01) (26, 8.13977658748626708984e-01) (27, -9.60941731929779052734e-01) (28, 5.92458732426166534424e-02) (29, 4.06840413808822631836e-01) (30, 2.48582914471626281738e-01) (31, -1.27530920505523681641e+00) (32, 4.52981561422348022461e-01) (33, -3.07430744171142578125e-01) (34, 1.47673428058624267578e+00) (24, 2.34606117010116577148e-01) (25, -1.95981100201606750488e-01) (26, 4.84916627407073974609e-01) (27, -7.55961477756500244141e-01) (28, 9.66671258211135864258e-02) (29, 5.83246946334838867188e-02) (30, -2.24390640854835510254e-01) (31, 9.07728374004364013672e-02) (32, 8.92105042934417724609e-01) (33, 1.72199472784996032715e-01) (34, 8.97591233253479003906e-01) (24, 2.15757042169570922852e-01) (25, -3.49353075027465820312e-01) (26, 2.45385438203811645508e-01) (27, -4.75226670503616333008e-01) (28, 3.59486937522888183594e-01) (29, -3.48081737756729125977e-01) (30, -8.58982354402542114258e-02) (31, 2.52600282430648803711e-01) (32, 7.56397366523742675781e-01) (33, 2.92320400476455688477e-01) (34, 4.73130613565444946289e-01) (24, 1.01308941841125488281e-01) (25, -3.31603318452835083008e-01) (26, 1.36516958475112915039e-01) (27, -2.75019735097885131836e-01) (28, 4.28560316562652587891e-01) (29, -3.43954443931579589844e-01) (30, -8.85029435157775878906e-02) (31, 2.28165760636329650879e-01) (32, 4.64622080326080322266e-01) (33, 3.51624906063079833984e-01) (34, 2.45326355099678039551e-01) (24, 1.68920438736677169800e-02) (25, -2.88890063762664794922e-01) (26, 6.84208273887634277344e-02) (27, -1.69876992702484130859e-01) (28, 4.27763581275939941406e-01) (29, -3.17519277334213256836e-01) (30, 4.39479760825634002686e-02) (31, 2.14116886258125305176e-01) (32, 3.19298714399337768555e-01) (33, 2.72537291049957275391e-01) (34, 9.32996049523353576660e-02) (24, 3.59530076384544372559e-02) (25, -3.12797307968139648438e-01) (26, 7.10365697741508483887e-02) (27, -6.92204162478446960449e-02) (28, 5.14177620410919189453e-01) (29, -3.59630048274993896484e-01) (30, -8.76561030745506286621e-02) (31, 1.05356417596340179443e-01) (32, 1.66238732635974884033e-02) (33, 4.41491395235061645508e-01) (34, 9.23470500856637954712e-03) (24, -5.06922453641891479492e-02) (25, -5.03584183752536773682e-02) (26, 3.30171808600425720215e-02) (27, -5.22052422165870666504e-02) (28, 2.17336520552635192871e-01) (29, 3.72905015945434570312e-01) (30, -1.19551688432693481445e-01) (31, -1.45071715116500854492e-01) (32, 2.08444036543369293213e-02) (33, -3.45846861600875854492e-01) (34, -9.18256342411041259766e-02) (24, 2.27638110518455505371e-02) (25, -2.54206329584121704102e-01) (26, 2.40147579461336135864e-02) (27, -2.61258017271757125854e-02) (28, 5.24385273456573486328e-01) (29, -3.67969691753387451172e-01) (30, -4.79450076818466186523e-03) (31, 1.34417697787284851074e-01) (32, 1.15453954786062240601e-02) (33, 2.59480297565460205078e-01) (34, -3.90801206231117248535e-03) (24, 4.04498688876628875732e-02) (25, -1.91516503691673278809e-01) (26, 1.63482427597045898438e-02) (27, -1.37015338987112045288e-02) (28, 3.42315256595611572266e-01) (29, -1.40893682837486267090e-01) (30, -7.61216580867767333984e-02) (31, 1.12827524542808532715e-01) (32, -4.57267602905631065369e-03) (33, 2.05448433756828308105e-01) (34, -3.42542566359043121338e-02) (24, 3.86093966662883758545e-02) (25, -2.41485357284545898438e-01) (26, 1.21105834841728210449e-02) (27, -6.29165489226579666138e-03) (28, 4.35741156339645385742e-01) (29, -3.26518386602401733398e-01) (30, 4.48308177292346954346e-02) (31, 1.95626914501190185547e-01) (32, -1.56634729355573654175e-02) (33, 3.31027060747146606445e-01) (34, -5.94679675996303558350e-02) (24, 5.14780962839722633362e-03) (25, -2.87711203098297119141e-01) (26, 3.62622700631618499756e-02) (27, 2.71755624562501907349e-02) (28, 5.66161692142486572266e-01) (29, -2.40661099553108215332e-01) (30, -1.49684384465217590332e-01) (31, -3.61921228468418121338e-02) (32, -1.55428707599639892578e-01) (33, 2.35648110508918762207e-01) (34, -4.20852899551391601562e-02) (24, -1.02309547364711761475e-01) (25, 3.25337290763854980469e-01) (26, -5.32206473872065544128e-03) (27, -5.90300699695944786072e-03) (28, -4.14222568273544311523e-01) (29, 4.82405781745910644531e-01) (30, -1.47340118885040283203e-01) (31, -2.78110057115554809570e-01) (32, 2.56501939147710800171e-02) (33, -4.90732371807098388672e-01) (34, 5.67524693906307220459e-02) (24, -8.21548700332641601562e-02) (25, 1.90335497260093688965e-01) (26, 3.25215212069451808929e-03) (27, 2.94332066550850868225e-03) (28, -4.05542075634002685547e-01) (29, 4.24930661916732788086e-01) (30, -8.28680545091629028320e-02) (31, -2.88679957389831542969e-01) (32, -1.49899460375308990479e-02) (33, -4.23765420913696289062e-01) (34, 1.05046786367893218994e-01) (24, 1.02493157610297203064e-02) (25, -2.38246247172355651855e-01) (26, 1.43507877364754676819e-02) (27, 9.32550895959138870239e-03) (28, 5.44217288494110107422e-01) (29, -3.26985329389572143555e-01) (30, -4.25013229250907897949e-02) (31, 8.76235067844390869141e-02) (32, -6.19306042790412902832e-02) (33, 2.16284930706024169922e-01) (34, -2.71836631000041961670e-02) (24, 5.38909062743186950684e-02) (25, -2.73239016532897949219e-01) (26, 2.08568703383207321167e-02) (27, 1.62647813558578491211e-02) (28, 4.64733511209487915039e-01) (29, -2.84017652273178100586e-01) (30, -5.87023496627807617188e-02) (31, 9.60390865802764892578e-02) (32, -9.05985012650489807129e-02) (33, 3.16468566656112670898e-01) (34, -5.54092675447463989258e-02) (24, -1.92438125610351562500e-01) (25, 2.82979100942611694336e-01) (26, 1.50642702355980873108e-02) (27, 1.66577771306037902832e-02) (28, -4.24531102180480957031e-01) (29, 5.87887346744537353516e-01) (30, -2.98354595899581909180e-01) (31, -2.11415201425552368164e-01) (32, -8.60500037670135498047e-02) (33, -2.01487585902214050293e-01) (34, 1.00684083998203277588e-01) (24, -3.21461111307144165039e-01) (25, 2.28589296340942382812e-01) (26, 1.42687116749584674835e-03) (27, 5.86065975949168205261e-03) (28, -2.52623677253723144531e-01) (29, 4.67255413532257080078e-01) (30, -1.02526158094406127930e-01) (31, -2.50678509473800659180e-01) (32, -1.93269327282905578613e-02) (33, -3.64533692598342895508e-01) (34, 1.10619574785232543945e-01) (24, -6.98589812964200973511e-03) (25, -2.02757731080055236816e-01) (26, 9.47916693985462188721e-03) (27, 6.72623841091990470886e-03) (28, 5.55258452892303466797e-01) (29, -3.61478418111801147461e-01) (30, -9.84223559498786926270e-03) (31, 1.25437721610069274902e-01) (32, -3.91185358166694641113e-02) (33, 2.67556220293045043945e-01) (34, -8.71123373508453369141e-02) (24, -2.56494045257568359375e-01) (25, 4.86878640949726104736e-02) (26, 3.20439711213111877441e-02) (27, 3.76991629600524902344e-02) (28, -1.96097448468208312988e-01) (29, 5.09931266307830810547e-01) (30, -1.12599529325962066650e-01) (31, -4.35190737247467041016e-01) (32, -1.85597255825996398926e-01) (33, -4.01119291782379150391e-01) (34, 1.09088987112045288086e-01) (24, -7.63447880744934082031e-02) (25, 1.66605293750762939453e-01) (26, 6.68464647606015205383e-03) (27, 1.12024256959557533264e-02) (28, -3.86421412229537963867e-01) (29, 4.49804425239562988281e-01) (30, -9.92990732192993164062e-02) (31, -2.54730105400085449219e-01) (32, -5.04938922822475433350e-02) (33, -3.42925429344177246094e-01) (34, 7.27954730391502380371e-02) (24, -9.09880548715591430664e-02) (25, 2.82089799642562866211e-01) (26, -1.87609693966805934906e-05) (27, 3.04643763229250907898e-03) (28, -3.87924432754516601562e-01) (29, 3.23180586099624633789e-01) (30, -1.35440111160278320312e-01) (31, -1.86013236641883850098e-01) (32, -5.85314026102423667908e-03) (33, -2.81374901533126831055e-01) (34, 1.09797880053520202637e-01) (24, 6.71463981270790100098e-02) (25, -2.82314598560333251953e-01) (26, 7.27878743782639503479e-03) (27, 4.75689861923456192017e-03) (28, 5.44807255268096923828e-01) (29, -3.77524912357330322266e-01) (30, 2.38449387252330780029e-02) (31, 1.67219132184982299805e-01) (32, -2.58774738758802413940e-02) (33, 3.18711280822753906250e-01) (34, -1.08885273337364196777e-01) (24, 1.00738313049077987671e-02) (25, -2.79856532812118530273e-01) (26, 1.14987315610051155090e-02) (27, 8.69385991245508193970e-03) (28, 5.02331614494323730469e-01) (29, -2.61197566986083984375e-01) (30, -7.69983381032943725586e-02) (31, 1.42745032906532287598e-01) (32, -4.35579232871532440186e-02) (33, 3.26399087905883789062e-01) (34, -4.66358214616775512695e-02) (24, -5.31268380582332611084e-02) (25, 2.59018838405609130859e-01) (26, -2.04467389266937971115e-04) (27, 3.12473927624523639679e-03) (28, -3.56124639511108398438e-01) (29, 3.94056171178817749023e-01) (30, -1.12173400819301605225e-01) (31, -2.97135144472122192383e-01) (32, -6.28478778526186943054e-03) (33, -4.61779803037643432617e-01) (34, 3.72182093560695648193e-02) (24, 1.84150505810976028442e-02) (25, -2.19037085771560668945e-01) (26, 7.24558904767036437988e-03) (27, 5.36769954487681388855e-03) (28, 5.48297464847564697266e-01) (29, -3.94960910081863403320e-01) (30, 1.56454462558031082153e-02) (31, 1.22458025813102722168e-01) (32, -2.78642177581787109375e-02) (33, 2.47304379940032958984e-01) (34, -7.25455656647682189941e-02) (24, -4.02956493198871612549e-02) (25, 4.03417870402336120605e-02) (26, 4.51976992189884185791e-03) (27, 9.86147765070199966431e-03) (28, -3.55933815240859985352e-01) (29, 5.51487684249877929688e-01) (30, -6.26601576805114746094e-02) (31, -2.67079889774322509766e-01) (32, -3.58377434313297271729e-02) (33, -3.73299270868301391602e-01) (34, -5.19136723596602678299e-04) (24, 7.35198482871055603027e-02) (25, -3.68590801954269409180e-01) (26, 9.28786862641572952271e-03) (27, 6.40401756390929222107e-03) (28, 4.87662762403488159180e-01) (29, -2.96824246644973754883e-01) (30, 1.70188788324594497681e-02) (31, 1.78832620382308959961e-01) (32, -3.44255827367305755615e-02) (33, 3.63131403923034667969e-01) (34, -7.34885409474372863770e-02) (24, -9.72012206912040710449e-02) (25, 2.16297850012779235840e-01) (26, 9.07993316650390625000e-03) (27, 1.57308597117662429810e-02) (28, -3.77024143934249877930e-01) (29, 4.57015603780746459961e-01) (30, -1.80996581912040710449e-01) (31, -2.97417610883712768555e-01) (32, -6.74033835530281066895e-02) (33, -3.73410880565643310547e-01) (34, 1.07591621577739715576e-01) (24, -2.08080530166625976562e-01) (25, 2.32258573174476623535e-01) (26, 1.63423898629844188690e-03) (27, 5.86812384426593780518e-03) (28, -1.95662006735801696777e-01) (29, 3.79406869411468505859e-01) (30, -1.12380675971508026123e-01) (31, -2.08616584539413452148e-01) (32, -1.79612059146165847778e-02) (33, -3.03150027990341186523e-01) (34, 1.25276856124401092529e-02) (24, -2.04902812838554382324e-01) (25, 2.75417059659957885742e-01) (26, 3.12725314870476722717e-04) (27, 3.19609721191227436066e-03) (28, -3.43076258897781372070e-01) (29, 4.58572000265121459961e-01) (30, -1.10620044171810150146e-01) (31, -1.82564944028854370117e-01) (32, -1.15309245884418487549e-02) (33, -2.78926104307174682617e-01) (34, 2.90229078382253646851e-02) (24, -1.49514064192771911621e-01) (25, 1.46389335393905639648e-01) (26, 2.43034469895064830780e-03) (27, 6.19743810966610908508e-03) (28, -3.37584197521209716797e-01) (29, 4.93054896593093872070e-01) (30, -1.09843492507934570312e-01) (31, -2.06378161907196044922e-01) (32, -2.46125794947147369385e-02) (33, -2.96478629112243652344e-01) (34, 6.47078156471252441406e-02) (24, -2.03199744224548339844e-01) (25, 1.67599946260452270508e-01) (26, 8.21161316707730293274e-04) (27, 5.08990697562694549561e-03) (28, -2.79897987842559814453e-01) (29, 4.78279262781143188477e-01) (30, -7.68156424164772033691e-02) (31, -3.02591651678085327148e-01) (32, -1.63444951176643371582e-02) (33, -4.53627139329910278320e-01) (34, 7.62913078069686889648e-02) (24, 2.09601707756519317627e-02) (25, -2.61365473270416259766e-01) (26, 2.03800071030855178833e-02) (27, 1.92763153463602066040e-02) (28, 5.14777600765228271484e-01) (29, -2.93619662523269653320e-01) (30, -4.45573218166828155518e-02) (31, 3.78024205565452575684e-02) (32, -9.32471901178359985352e-02) (33, 2.51181960105895996094e-01) (34, -8.09832289814949035645e-02) (24, -1.51966899633407592773e-01) (25, 1.26325175166130065918e-01) (26, -1.15716306027024984360e-03) (27, 1.11114117316901683807e-03) (28, -3.60854834318161010742e-01) (29, 5.30927777290344238281e-01) (30, -1.18267856538295745850e-01) (31, -2.19194889068603515625e-01) (32, -1.10897014383226633072e-03) (33, -3.44462513923645019531e-01) (34, 9.97688621282577514648e-02) (24, -9.28373262286186218262e-02) (25, 1.37690126895904541016e-01) (26, -4.52652282547205686569e-04) (27, 2.55955522879958152771e-03) (28, -4.10023212432861328125e-01) (29, 5.37460744380950927734e-01) (30, -1.35696664452552795410e-01) (31, -1.83464884757995605469e-01) (32, -4.97989030554890632629e-03) (33, -2.83629536628723144531e-01) (34, 6.84883669018745422363e-02) (24, 1.59124415367841720581e-02) (25, -1.77370935678482055664e-01) (26, 1.32041713222861289978e-02) (27, 8.88994708657264709473e-03) (28, 4.53083723783493041992e-01) (29, -2.13770553469657897949e-01) (30, -1.03717446327209472656e-01) (31, 1.05560667812824249268e-01) (32, -5.99995404481887817383e-02) (33, 2.42396265268325805664e-01) (34, -6.56822249293327331543e-02) (24, 2.77498029172420501709e-02) (25, -2.76559591293334960938e-01) (26, 1.21268127113580703735e-02) (27, 1.02102477103471755981e-02) (28, 4.85789179801940917969e-01) (29, -3.15120011568069458008e-01) (30, 1.82171519845724105835e-02) (31, 1.31368398666381835938e-01) (32, -4.85823452472686767578e-02) (33, 3.16278785467147827148e-01) (34, -9.01099443435668945312e-02) (24, -1.30631402134895324707e-01) (25, 2.19044134020805358887e-01) (26, 2.00663078576326370239e-02) (27, 2.04491242766380310059e-02) (28, -3.69435459375381469727e-01) (29, 4.62374210357666015625e-01) (30, -1.01799711585044860840e-01) (31, -2.21637919545173645020e-01) (32, -1.14433825016021728516e-01) (33, -2.31209665536880493164e-01) (34, 1.55119318515062332153e-02) (24, -2.64351814985275268555e-01) (25, 1.93579062819480895996e-01) (26, 7.38838734105229377747e-03) (27, 1.30163282155990600586e-02) (28, -1.67242005467414855957e-01) (29, 4.37845587730407714844e-01) (30, -1.16576276719570159912e-01) (31, -2.79614955186843872070e-01) (32, -5.73274344205856323242e-02) (33, -3.58617603778839111328e-01) (34, 3.82375158369541168213e-02) (24, 2.61513274163007736206e-02) (25, -2.51739770174026489258e-01) (26, 1.67898982763290405273e-02) (27, 1.47407082840800285339e-02) (28, 4.58867549896240234375e-01) (29, -2.34232112765312194824e-01) (30, -1.01672187447547912598e-01) (31, 9.16324779391288757324e-02) (32, -6.78251385688781738281e-02) (33, 3.18601369857788085938e-01) (34, -7.54650086164474487305e-02) (24, 1.21002815663814544678e-01) (25, -5.70715442299842834473e-02) (26, -7.86704197525978088379e-03) (27, -1.24248843640089035034e-02) (28, 3.81190478801727294922e-01) (29, -3.54262620210647583008e-01) (30, 3.92049401998519897461e-02) (31, 8.58450680971145629883e-02) (32, 5.13050965964794158936e-02) (33, 3.35535928606986999512e-02) (34, -1.12779214978218078613e-01) (24, 2.38633342087268829346e-02) (25, -1.17984682321548461914e-01) (26, 4.12663025781512260437e-03) (27, 3.69516061618924140930e-03) (28, 2.28929594159126281738e-01) (29, -1.71116098761558532715e-01) (30, 1.98728535324335098267e-02) (31, 4.73450385034084320068e-02) (32, -1.72810293734073638916e-02) (33, 1.10906310379505157471e-01) (34, -3.39121446013450622559e-02) (24, -1.83253839612007141113e-01) (25, 8.12738761305809020996e-02) (26, 7.44516728445887565613e-03) (27, 1.12411724403500556946e-02) (28, -1.45515754818916320801e-01) (29, 3.69846701622009277344e-01) (30, -1.30230858922004699707e-01) (31, -1.79977640509605407715e-01) (32, -4.86300699412822723389e-02) (33, -2.07849338650703430176e-01) (34, 7.06642046570777893066e-02) (24, 2.51186303794384002686e-02) (25, -3.53421151638031005859e-01) (26, 1.46214859560132026672e-02) (27, 1.26180434599518775940e-02) (28, 5.16930520534515380859e-01) (29, -3.51143807172775268555e-01) (30, -2.11849398910999298096e-02) (31, 9.42750722169876098633e-02) (32, -5.77430352568626403809e-02) (33, 2.96996146440505981445e-01) (34, 2.23318152129650115967e-02) (24, -1.77725464105606079102e-01) (25, 2.12901785969734191895e-01) (26, 1.75902945920825004578e-03) (27, 6.75467960536479949951e-03) (28, -2.94525772333145141602e-01) (29, 3.91261637210845947266e-01) (30, -6.55612051486968994141e-02) (31, -2.56487399339675903320e-01) (32, -2.28592492640018463135e-02) (33, -3.77297878265380859375e-01) (34, 7.25277438759803771973e-02) (24, 6.46568238735198974609e-02) (25, -2.92552828788757324219e-01) (26, 9.47389192879199981689e-03) (27, 5.68403862416744232178e-03) (28, 4.60259765386581420898e-01) (29, -3.02584558725357055664e-01) (30, 5.66641101613640785217e-04) (31, 1.24862469732761383057e-01) (32, -3.98336201906204223633e-02) (33, 2.49916493892669677734e-01) (34, -2.53331344574689865112e-02) (24, -1.88298095017671585083e-02) (25, 1.62154319696128368378e-03) (26, -6.86379745602607727051e-02) (27, 1.45082890987396240234e-01) (28, 2.51865446567535400391e-01) (29, -3.95047068595886230469e-01) (30, 7.40348771214485168457e-02) (31, 2.75845676660537719727e-01) (32, -7.49229937791824340820e-02) (33, 3.50669801235198974609e-01) (34, 1.59570768475532531738e-01) (24, 4.19354289770126342773e-02) (25, -2.50812351703643798828e-01) (26, 2.06605382263660430908e-02) (27, 8.56267288327217102051e-02) (28, 4.75310474634170532227e-01) (29, -3.48918706178665161133e-01) (30, -3.15226688981056213379e-02) (31, -1.51262357831001281738e-01) (32, -1.80065408349037170410e-01) (33, 2.38986462354660034180e-01) (34, -9.02582257986068725586e-02) (24, -1.07747651636600494385e-01) (25, 3.52742344141006469727e-01) (26, 1.44292823970317840576e-02) (27, 3.91701795160770416260e-02) (28, -3.54281038045883178711e-01) (29, 4.42391663789749145508e-01) (30, -3.13086181879043579102e-01) (31, -3.23442608118057250977e-01) (32, -8.66279006004333496094e-02) (33, -3.27737689018249511719e-01) (34, 8.51400345563888549805e-02) (24, -1.44098624587059020996e-01) (25, 3.68863314390182495117e-01) (26, 1.18393171578645706177e-02) (27, 2.65833213925361633301e-02) (28, -3.83969724178314208984e-01) (29, 5.82207560539245605469e-01) (30, -4.11162585020065307617e-01) (31, -3.21463584899902343750e-01) (32, -5.45668154954910278320e-02) (33, -3.72259706258773803711e-01) (34, 1.02235548198223114014e-01) (24, 3.11343986541032791138e-02) (25, -3.68921421468257904053e-02) (26, -8.60184547491371631622e-04) (27, 1.24556338414549827576e-03) (28, 9.65678598731756210327e-03) (29, -3.55483451858162879944e-03) (30, 4.85379025340080261230e-02) (31, 6.45877718925476074219e-02) (32, 3.31187583506107330322e-02) (33, 7.04618766903877258301e-02) (34, -6.36752992868423461914e-02) (24, -7.06676915287971496582e-02) (25, 2.59975403547286987305e-01) (26, 6.28278404474258422852e-03) (27, 1.21306115761399269104e-02) (28, -2.76116043329238891602e-01) (29, 4.05672848224639892578e-01) (30, -2.34759271144866943359e-01) (31, -2.64946460723876953125e-01) (32, -2.74393614381551742554e-02) (33, -3.67963075637817382812e-01) (34, 5.06725944578647613525e-02) (24, 2.00922433286905288696e-02) (25, -2.53767192363739013672e-01) (26, 1.67476534843444824219e-02) (27, 1.36842243373394012451e-02) (28, 4.74086493253707885742e-01) (29, -2.57583618164062500000e-01) (30, -9.25006866455078125000e-02) (31, 1.10828250646591186523e-01) (32, -5.38003630936145782471e-02) (33, 3.01599323749542236328e-01) (34, -3.46215069293975830078e-02) (24, 2.05975063145160675049e-02) (25, -2.18790248036384582520e-01) (26, 1.36032309383153915405e-02) (27, 1.08852731063961982727e-02) (28, 3.80645185708999633789e-01) (29, -1.31333991885185241699e-01) (30, -5.69411925971508026123e-02) (31, 7.40890055894851684570e-02) (32, -4.59698997437953948975e-02) (33, 2.18189850449562072754e-01) (34, -9.92526262998580932617e-02) (24, 2.15597972273826599121e-02) (25, -4.01349782943725585938e-01) (26, 1.57956723123788833618e-02) (27, 1.01215066388249397278e-02) (28, 5.99834620952606201172e-01) (29, -2.77481645345687866211e-01) (30, -2.89103947579860687256e-02) (31, 1.73722013831138610840e-01) (32, -5.57886064052581787109e-02) (33, 3.74244004487991333008e-01) (34, -6.96758106350898742676e-02) (24, -1.59229725599288940430e-01) (25, 1.73769623041152954102e-01) (26, 4.62401658296585083008e-03) (27, 9.21816751360893249512e-03) (28, -2.62471139430999755859e-01) (29, 4.21283602714538574219e-01) (30, -1.07241444289684295654e-01) (31, -2.43046984076499938965e-01) (32, -3.11217661947011947632e-02) (33, -3.41361552476882934570e-01) (34, 5.84191419184207916260e-02) (24, -1.28972187638282775879e-01) (25, 1.80662915110588073730e-01) (26, 6.90948276314884424210e-04) (27, 3.69034381583333015442e-03) (28, -1.14909552037715911865e-01) (29, 2.63816177845001220703e-01) (30, -1.13774202764034271240e-01) (31, -1.96892991662025451660e-01) (32, -6.89121894538402557373e-03) (33, -3.02278935909271240234e-01) (34, 2.64266785234212875366e-02) (24, 1.99730079621076583862e-02) (25, -2.96641647815704345703e-01) (26, 1.29267722368240356445e-02) (27, 1.16937020793557167053e-02) (28, 5.50098061561584472656e-01) (29, -3.15538942813873291016e-01) (30, -1.00104371085762977600e-02) (31, 8.64503234624862670898e-02) (32, -4.78293932974338531494e-02) (33, 2.71281272172927856445e-01) (34, -9.74509641528129577637e-02) (24, -2.07142427563667297363e-01) (25, 2.96304404735565185547e-01) (26, 6.35824259370565414429e-03) (27, 1.03300670161843299866e-02) (28, -3.02582889795303344727e-01) (29, 3.98326635360717773438e-01) (30, -1.43011629581451416016e-01) (31, -2.42613598704338073730e-01) (32, -4.40194606781005859375e-02) (33, -3.24324220418930053711e-01) (34, 7.44992271065711975098e-02) (24, -2.27279439568519592285e-01) (25, 1.59672558307647705078e-01) (26, 4.42150601884350180626e-04) (27, 4.94063645601272583008e-03) (28, -1.91111907362937927246e-01) (29, 4.14509892463684082031e-01) (30, -9.25002619624137878418e-02) (31, -2.69725978374481201172e-01) (32, -1.23696727678179740906e-02) (33, -4.04204785823822021484e-01) (34, 8.24110656976699829102e-02) (24, -9.47629138827323913574e-02) (25, 2.26197898387908935547e-01) (26, 5.66040584817528724670e-03) (27, 1.22168194502592086792e-02) (28, -3.58469039201736450195e-01) (29, 4.30826693773269653320e-01) (30, -1.40638709068298339844e-01) (31, -3.22713971138000488281e-01) (32, -5.11807389557361602783e-02) (33, -4.57580983638763427734e-01) (34, 1.09093390405178070068e-01) (24, 5.04948496818542480469e-02) (25, -2.90445268154144287109e-01) (26, 1.23302759602665901184e-02) (27, 9.18784830719232559204e-03) (28, 5.11409938335418701172e-01) (29, -4.15595412254333496094e-01) (30, 7.66149982810020446777e-02) (31, 1.65924593806266784668e-01) (32, -4.67672459781169891357e-02) (33, 3.81593644618988037109e-01) (34, -1.14436984062194824219e-01) (24, -2.37210970371961593628e-02) (25, 1.72876060009002685547e-01) (26, -1.64505105931311845779e-03) (27, 6.09628332313150167465e-04) (28, -3.03108304738998413086e-01) (29, 2.71729499101638793945e-01) (30, -5.04644699394702911377e-02) (31, -1.64015084505081176758e-01) (32, 2.62737111188471317291e-03) (33, -2.62209683656692504883e-01) (34, 2.97937542200088500977e-02) (24, 5.79512678086757659912e-02) (25, -2.25292056798934936523e-01) (26, 5.43098663911223411560e-03) (27, 3.32038593478500843048e-03) (28, 4.39152359962463378906e-01) (29, -3.49965363740921020508e-01) (30, 4.15987782180309295654e-02) (31, 1.51658743619918823242e-01) (32, -1.95663645863533020020e-02) (33, 2.71610140800476074219e-01) (34, -6.84322863817214965820e-02) (24, 3.87695096433162689209e-02) (25, -2.87585288286209106445e-01) (26, 2.04533822834491729736e-02) (27, 1.91627386957406997681e-02) (28, 3.76908719539642333984e-01) (29, -3.60185652971267700195e-01) (30, 5.94238080084323883057e-02) (31, 1.37728109955787658691e-01) (32, -8.33323895931243896484e-02) (33, 4.50108200311660766602e-01) (34, -8.09304416179656982422e-02) (24, 6.91081676632165908813e-03) (25, -3.39193075895309448242e-01) (26, 1.78579892963171005249e-02) (27, 1.46263875067234039307e-02) (28, 4.75427597761154174805e-01) (29, -2.77822434902191162109e-01) (30, -1.20354304090142250061e-02) (31, 1.30999922752380371094e-01) (32, -7.83936455845832824707e-02) (33, 3.51223766803741455078e-01) (34, -1.62489712238311767578e-02) (24, -1.30156040191650390625e-01) (25, 1.68017297983169555664e-01) (26, 3.44815576681867241859e-04) (27, 3.60781140625476837158e-03) (28, -2.87145704030990600586e-01) (29, 3.51669162511825561523e-01) (30, -6.05509094893932342529e-02) (31, -1.87488496303558349609e-01) (32, -1.15868812426924705505e-02) (33, -2.83025503158569335938e-01) (34, 6.14558719098567962646e-02) (24, -1.83981820940971374512e-01) (25, 2.07291498780250549316e-01) (26, 4.49137249961495399475e-03) (27, 1.06873149052262306213e-02) (28, -2.61947512626647949219e-01) (29, 4.02393549680709838867e-01) (30, -7.40241482853889465332e-02) (31, -2.95151442289352416992e-01) (32, -3.99894714355468750000e-02) (33, -4.05647069215774536133e-01) (34, 5.00591024756431579590e-02) (24, -1.04691967368125915527e-01) (25, 1.74765706062316894531e-01) (26, 8.73280037194490432739e-03) (27, 1.29233039915561676025e-02) (28, -3.47099423408508300781e-01) (29, 4.77113366127014160156e-01) (30, -1.65924966335296630859e-01) (31, -2.83966511487960815430e-01) (32, -5.90025931596755981445e-02) (33, -3.73712122440338134766e-01) (34, 9.99947488307952880859e-02) (24, -1.62028953433036804199e-01) (25, 2.86692023277282714844e-01) (26, 1.61313067656010389328e-03) (27, 5.66093996167182922363e-03) (28, -4.26472783088684082031e-01) (29, 5.19237041473388671875e-01) (30, -1.08935452997684478760e-01) (31, -2.10817724466323852539e-01) (32, -1.90668832510709762573e-02) (33, -3.08823019266128540039e-01) (34, 4.35197213664650917053e-03) (24, 1.96345169097185134888e-02) (25, -2.01463103294372558594e-01) (26, 1.22747281566262245178e-02) (27, 7.99320172518491744995e-03) (28, 4.47269111871719360352e-01) (29, -3.02201718091964721680e-01) (30, -3.35032939910888671875e-02) (31, 1.58401429653167724609e-01) (32, -5.16042970120906829834e-02) (33, 3.33901017904281616211e-01) (34, -6.70685246586799621582e-02) (24, -1.36913433670997619629e-01) (25, 1.79495468735694885254e-01) (26, 8.28070566058158874512e-03) (27, 1.56475007534027099609e-02) (28, -3.44344258308410644531e-01) (29, 4.71425801515579223633e-01) (30, -4.77245748043060302734e-02) (31, -3.84522885084152221680e-01) (32, -6.77981153130531311035e-02) (33, -5.13198852539062500000e-01) (34, 5.71080632507801055908e-02) (24, -8.55416357517242431641e-02) (25, 1.62100106477737426758e-01) (26, 1.56988948583602905273e-03) (27, 7.42377620190382003784e-03) (28, -4.07729953527450561523e-01) (29, 4.89109069108963012695e-01) (30, -7.64838829636573791504e-02) (31, -3.02379369735717773438e-01) (32, -2.52270214259624481201e-02) (33, -4.45712864398956298828e-01) (34, 7.99275636672973632812e-02) (24, -3.83571147918701171875e-01) (25, 1.96883976459503173828e-01) (26, 7.79609894379973411560e-03) (27, 1.34329376742243766785e-02) (28, -2.78648346662521362305e-01) (29, 6.74832761287689208984e-01) (30, -1.33239865303039550781e-01) (31, -2.85747915506362915039e-01) (32, -5.78701086342334747314e-02) (33, -3.73697310686111450195e-01) (34, 5.51134943962097167969e-02) (24, 2.32418272644281387329e-02) (25, -2.48938620090484619141e-01) (26, 1.86213571578264236450e-02) (27, 1.78553052246570587158e-02) (28, 4.51073080301284790039e-01) (29, -2.59453982114791870117e-01) (30, -1.56765043735504150391e-01) (31, 9.58727598190307617188e-02) (32, -7.55994021892547607422e-02) (33, 3.58925253152847290039e-01) (34, -1.86693686991930007935e-02) (24, -1.19874682277441024780e-02) (25, -2.67864108085632324219e-01) (26, 3.41664627194404602051e-03) (27, 1.72108889091759920120e-03) (28, 5.03779590129852294922e-01) (29, -2.38850921392440795898e-01) (30, -2.55199410021305084229e-02) (31, 9.79535579681396484375e-02) (32, -1.42654078081250190735e-02) (33, 1.65440306067466735840e-01) (34, -1.73796266317367553711e-02) (24, -3.19937497377395629883e-01) (25, 3.24579030275344848633e-01) (26, 7.85304699093103408813e-03) (27, 1.28852808848023414612e-02) (28, -2.23374858498573303223e-01) (29, 5.00396907329559326172e-01) (30, -2.03699260950088500977e-01) (31, -2.73993879556655883789e-01) (32, -5.85275888442993164062e-02) (33, -3.58269661664962768555e-01) (34, 5.04513122141361236572e-02) (24, 3.26838195323944091797e-02) (25, -2.13019952178001403809e-01) (26, 1.37442136183381080627e-02) (27, 1.00415265187621116638e-02) (28, 4.93776649236679077148e-01) (29, -2.63741403818130493164e-01) (30, -9.40055698156356811523e-02) (31, 1.38578265905380249023e-01) (32, -5.71603626012802124023e-02) (33, 3.28542172908782958984e-01) (34, -1.03763349354267120361e-01) (24, -1.36765688657760620117e-01) (25, 2.17500515282154083252e-02) (26, 2.34560314565896987915e-02) (27, 2.42506898939609527588e-02) (28, 1.58659875392913818359e-01) (29, 3.19151043891906738281e-01) (30, -2.95704156160354614258e-01) (31, -1.94908767938613891602e-01) (32, -1.29256159067153930664e-01) (33, -1.07443161308765411377e-01) (34, -5.79574964940547943115e-02) (24, 7.77482241392135620117e-03) (25, -1.95252835750579833984e-01) (26, 1.64490137249231338501e-02) (27, 1.24801592901349067688e-02) (28, 4.42756623029708862305e-01) (29, -2.93372124433517456055e-01) (30, -7.95051082968711853027e-03) (31, 1.14188693463802337646e-01) (32, -7.09871351718902587891e-02) (33, 2.98964291810989379883e-01) (34, -8.63227695226669311523e-02) (24, -7.29695931077003479004e-02) (25, 1.65556639432907104492e-01) (26, 2.80336127616465091705e-04) (27, 4.98186470940709114075e-03) (28, -3.66619825363159179688e-01) (29, 4.78045731782913208008e-01) (30, -1.11953906714916229248e-01) (31, -2.63169825077056884766e-01) (32, -1.69417969882488250732e-02) (33, -3.98360848426818847656e-01) (34, 5.54295107722282409668e-02) (24, -1.03781230747699737549e-01) (25, 1.64135247468948364258e-01) (26, 4.54229739261791110039e-04) (27, 5.58504834771156311035e-03) (28, -3.65314245223999023438e-01) (29, 5.19124805927276611328e-01) (30, -1.08576647937297821045e-01) (31, -2.85063594579696655273e-01) (32, -1.68745052069425582886e-02) (33, -4.26995486021041870117e-01) (34, 5.03547005355358123779e-02) (24, 6.50199577212333679199e-02) (25, -2.88313806056976318359e-01) (26, 5.79072795808315277100e-02) (27, -2.21593547612428665161e-02) (28, 5.18839299678802490234e-01) (29, -4.04964059591293334961e-01) (30, -3.72362993657588958740e-02) (31, 1.68610975146293640137e-01) (32, -2.12063379585742950439e-02) (33, 3.42089653015136718750e-01) (34, 6.78692162036895751953e-02) (24, 3.51204834878444671631e-02) (25, -3.27621132135391235352e-01) (26, 3.24048548936843872070e-02) (27, -2.00629755854606628418e-02) (28, 5.53715884685516357422e-01) (29, -2.87902861833572387695e-01) (30, -3.02254538983106613159e-02) (31, 2.19136238098144531250e-01) (32, 1.53793459758162498474e-02) (33, 3.40569555759429931641e-01) (34, -2.53765359520912170410e-02) (24, -3.99607606232166290283e-02) (25, 4.36899252235889434814e-02) (26, 1.46442968398332595825e-02) (27, -1.28797469660639762878e-02) (28, -3.72420042753219604492e-01) (29, 5.55161714553833007812e-01) (30, -3.63470092415809631348e-02) (31, -1.09962619841098785400e-01) (32, 2.27602031081914901733e-02) (33, -2.32588738203048706055e-01) (34, -1.28721985965967178345e-02) (24, -2.00013592839241027832e-01) (25, 1.40804812312126159668e-01) (26, 1.53304496780037879944e-02) (27, 1.31570373196154832840e-03) (28, -2.94446766376495361328e-01) (29, 5.48731744289398193359e-01) (30, -1.40607893466949462891e-01) (31, -2.87046253681182861328e-01) (32, -2.13722065091133117676e-02) (33, -3.79667520523071289062e-01) (34, 7.32377916574478149414e-02) (24, -8.29156935214996337891e-02) (25, 1.11719490960240364075e-02) (26, 1.11263832077383995056e-02) (27, 9.81855671852827072144e-04) (28, -3.14379036426544189453e-01) (29, 4.84853714704513549805e-01) (30, -1.26331701874732971191e-01) (31, -1.05766624212265014648e-01) (32, -1.56485717743635177612e-02) (33, -1.28418996930122375488e-01) (34, 7.44352787733078002930e-02) (24, -1.68063372373580932617e-01) (25, 1.47825613617897033691e-01) (26, 6.10402179881930351257e-03) (27, 1.97496311739087104797e-03) (28, -3.40254008769989013672e-01) (29, 5.78858375549316406250e-01) (30, -1.33615031838417053223e-01) (31, -2.74065822362899780273e-01) (32, -1.20700858533382415771e-02) (33, -4.01559233665466308594e-01) (34, 6.05329424142837524414e-02) (24, 2.59010531008243560791e-02) (25, -2.78946459293365478516e-01) (26, 1.55777866020798683167e-02) (27, 6.86003174632787704468e-03) (28, 4.98373895883560180664e-01) (29, -2.81888395547866821289e-01) (30, -7.70739242434501647949e-02) (31, 1.63833722472190856934e-01) (32, -5.07170185446739196777e-02) (33, 3.37317317724227905273e-01) (34, -1.73101350665092468262e-02) (24, -1.17463171482086181641e-01) (25, 2.46334239840507507324e-01) (26, -1.87394372187554836273e-03) (27, -2.56977882236242294312e-03) (28, -3.47472220659255981445e-01) (29, 4.46157097816467285156e-01) (30, -1.64384111762046813965e-01) (31, -2.10088148713111877441e-01) (32, 1.41085637733340263367e-02) (33, -3.49143773317337036133e-01) (34, 7.02089890837669372559e-02) (24, 1.54238073155283927917e-02) (25, -2.68058389425277709961e-01) (26, 1.00995870307087898254e-02) (27, 5.40378969162702560425e-03) (28, 4.39720094203948974609e-01) (29, -2.59202688932418823242e-01) (30, -6.97113107889890670776e-03) (31, 1.42385721206665039062e-01) (32, -3.24199832975864410400e-02) (33, 2.83972650766372680664e-01) (34, -3.62475924193859100342e-02) (24, 2.16493308544158935547e-02) (25, -2.48307719826698303223e-01) (26, 9.52269788831472396851e-03) (27, 5.04811201244592666626e-03) (28, 4.54477161169052124023e-01) (29, -2.26291358470916748047e-01) (30, -3.09362877160310745239e-02) (31, 1.17400854825973510742e-01) (32, -3.43266017735004425049e-02) (33, 2.39964306354522705078e-01) (34, -6.59807249903678894043e-02) (24, -2.59325116872787475586e-01) (25, 2.55662471055984497070e-01) (26, 4.51779086142778396606e-03) (27, 9.55007877200841903687e-03) (28, -3.03933978080749511719e-01) (29, 4.57188934087753295898e-01) (30, -7.17894956469535827637e-02) (31, -3.07097375392913818359e-01) (32, -3.75857613980770111084e-02) (33, -4.52075183391571044922e-01) (34, 9.69981029629707336426e-02) (24, 2.80198566615581512451e-02) (25, -2.05009028315544128418e-01) (26, 9.14287008345127105713e-03) (27, 7.65460915863513946533e-03) (28, 2.67178446054458618164e-01) (29, -1.92974463105201721191e-01) (30, 2.40246523171663284302e-02) (31, 8.90761315822601318359e-02) (32, -3.39003503322601318359e-02) (33, 2.38764330744743347168e-01) (34, -4.54637184739112854004e-02) (24, -2.09721222519874572754e-01) (25, 1.11529149115085601807e-01) (26, 3.97405354306101799011e-03) (27, 8.04292969405651092529e-03) (28, -2.72140562534332275391e-01) (29, 4.90250468254089355469e-01) (30, -1.11165955662727355957e-01) (31, -2.32354447245597839355e-01) (32, -3.16717773675918579102e-02) (33, -3.28060448169708251953e-01) (34, 1.10819891095161437988e-01) (24, -6.15742914378643035889e-02) (25, 1.33548185229301452637e-01) (26, 2.67270416952669620514e-03) (27, 6.57421303912997245789e-03) (28, -3.25403720140457153320e-01) (29, 3.50401997566223144531e-01) (30, -3.89077849686145782471e-02) (31, -2.39013016223907470703e-01) (32, -2.42155492305755615234e-02) (33, -3.47412258386611938477e-01) (34, 6.95924907922744750977e-02) (24, -3.47605168819427490234e-01) (25, 2.70382404327392578125e-01) (26, 1.24668134376406669617e-02) (27, 1.86840631067752838135e-02) (28, -1.93790495395660400391e-01) (29, 4.02378201484680175781e-01) (30, -8.94887521862983703613e-02) (31, -3.49156916141510009766e-01) (32, -8.42269733548164367676e-02) (33, -4.22722369432449340820e-01) (34, 9.52451452612876892090e-02) (24, 1.63956526666879653931e-02) (25, -3.73499840497970581055e-02) (26, 1.31802633404731750488e-03) (27, 2.50930141191929578781e-04) (28, 4.67522680759429931641e-01) (29, -3.77126365900039672852e-01) (30, -1.85826625674962997437e-02) (31, 1.05739153921604156494e-01) (32, -1.56533555127680301666e-03) (33, 1.66915386915206909180e-01) (34, -1.11204527318477630615e-01) (24, 2.40146666765213012695e-02) (25, -4.34789434075355529785e-02) (26, -2.44182185269892215729e-03) (27, -4.34626871719956398010e-03) (28, 7.31903389096260070801e-02) (29, -6.39114677906036376953e-02) (30, 3.46891991794109344482e-02) (31, 8.44029635190963745117e-02) (32, 1.65592227131128311157e-02) (33, 9.99497696757316589355e-02) (34, -5.10085299611091613770e-02) (24, 1.51374191045761108398e-03) (25, -1.10917426645755767822e-01) (26, 3.24128719512373209000e-04) (27, -3.22740525007247924805e-04) (28, 2.42221698164939880371e-01) (29, -1.13588929176330566406e-01) (30, -6.41295090317726135254e-02) (31, 6.40271753072738647461e-02) (32, -1.85576791409403085709e-04) (33, 9.92923527956008911133e-02) (34, 9.73346084356307983398e-03) (24, -1.79070398211479187012e-01) (25, 2.96598106622695922852e-01) (26, 3.06768831796944141388e-03) (27, 8.15157871693372726440e-03) (28, -3.29241305589675903320e-01) (29, 4.02881175279617309570e-01) (30, -9.43012088537216186523e-02) (31, -2.56543278694152832031e-01) (32, -2.90420223027467727661e-02) (33, -3.66609364748001098633e-01) (34, 3.50375957787036895752e-02) (24, 2.25897356867790222168e-02) (25, -7.49977156519889831543e-02) (26, -1.62259864737279713154e-04) (27, -1.60703156143426895142e-03) (28, 4.74462270736694335938e-01) (29, -3.67052078247070312500e-01) (30, -3.46125736832618713379e-02) (31, 1.09254427254199981689e-01) (32, 4.30253939703106880188e-03) (33, 1.61811396479606628418e-01) (34, -7.56278634071350097656e-02) (24, -1.89153954386711120605e-01) (25, 2.68850207328796386719e-01) (26, -1.95735273882746696472e-03) (27, -9.21807950362563133240e-05) (28, -3.01451683044433593750e-01) (29, 3.90845060348510742188e-01) (30, -1.29850596189498901367e-01) (31, -2.28672370314598083496e-01) (32, 3.16043407656252384186e-03) (33, -3.60048800706863403320e-01) (34, 9.11246016621589660645e-02) (24, 2.97275483608245849609e-02) (25, -3.10911297798156738281e-01) (26, 1.35270589962601661682e-02) (27, 1.02944104000926017761e-02) (28, 4.23655271530151367188e-01) (29, -2.74124711751937866211e-01) (30, -2.41512432694435119629e-02) (31, 1.39725133776664733887e-01) (32, -5.58067597448825836182e-02) (33, 3.34399521350860595703e-01) (34, 1.74765998963266611099e-03) (24, -1.61256387829780578613e-01) (25, 2.50606119632720947266e-01) (26, 3.80920968018472194672e-03) (27, 9.98379848897457122803e-03) (28, -2.58223474025726318359e-01) (29, 3.47563058137893676758e-01) (30, -9.62684601545333862305e-02) (31, -3.14348459243774414062e-01) (32, -3.66510376334190368652e-02) (33, -4.40042614936828613281e-01) (34, 7.02177211642265319824e-02) (24, 4.33058850467205047607e-02) (25, -2.38860443234443664551e-01) (26, 6.46233558654785156250e-03) (27, 5.83959976211190223694e-03) (28, 2.70368844270706176758e-01) (29, 2.81824567355215549469e-03) (30, -5.63401877880096435547e-02) (31, 3.15516144037246704102e-02) (32, -2.95426771044731140137e-02) (33, 8.98359268903732299805e-02) (34, -5.79084828495979309082e-02) (24, -1.70494064688682556152e-01) (25, 3.38454097509384155273e-01) (26, 7.37672206014394760132e-03) (27, 1.32517954334616661072e-02) (28, -3.23905676603317260742e-01) (29, 3.59983325004577636719e-01) (30, -1.54473125934600830078e-01) (31, -3.08700740337371826172e-01) (32, -5.77872656285762786865e-02) (33, -4.20444250106811523438e-01) (34, 1.05872511863708496094e-01) (24, -1.65067791938781738281e-01) (25, 2.85167217254638671875e-01) (26, 8.00194963812828063965e-03) (27, 1.52712762355804443359e-02) (28, -1.43029958009719848633e-01) (29, 4.57224488258361816406e-01) (30, -2.92081415653228759766e-01) (31, -3.54180842638015747070e-01) (32, -6.55213296413421630859e-02) (33, -4.73157733678817749023e-01) (34, 2.60980203747749328613e-02) (24, -2.39356890320777893066e-01) (25, 2.81933277845382690430e-01) (26, 6.23777229338884353638e-03) (27, 1.17484107613563537598e-02) (28, -3.47904175519943237305e-01) (29, 4.55090075731277465820e-01) (30, -1.28289580345153808594e-01) (31, -2.99013763666152954102e-01) (32, -5.15497252345085144043e-02) (33, -4.01799201965332031250e-01) (34, 1.20485216379165649414e-01) (24, 3.11996266245841979980e-02) (25, -2.76973336935043334961e-01) (26, 1.45129524171352386475e-02) (27, 1.16490609943866729736e-02) (28, 4.35479581356048583984e-01) (29, -2.76819676160812377930e-01) (30, 1.10148908570408821106e-02) (31, 1.32650688290596008301e-01) (32, -5.48883974552154541016e-02) (33, 3.57979565858840942383e-01) (34, -1.10412530601024627686e-01) (24, 2.78956592082977294922e-02) (25, -2.48426407575607299805e-01) (26, 1.34910400956869125366e-02) (27, 1.23497694730758666992e-02) (28, 4.58632260560989379883e-01) (29, -3.29915672540664672852e-01) (30, 8.61423369497060775757e-03) (31, 1.02381616830825805664e-01) (32, -5.14977984130382537842e-02) (33, 3.22833120822906494141e-01) (34, -1.01891987025737762451e-01) (24, 3.04819382727146148682e-02) (25, 5.86509928107261657715e-02) (26, -3.37914330884814262390e-03) (27, -5.39423618465662002563e-03) (28, -3.32272425293922424316e-02) (29, -1.94035153836011886597e-02) (30, 5.40479086339473724365e-02) (31, 3.66829968988895416260e-02) (32, 2.28088255971670150757e-02) (33, 1.49649670347571372986e-02) (34, -8.57255011796951293945e-02) (24, -1.29464343190193176270e-01) (25, 8.88479575514793395996e-02) (26, 1.23332478106021881104e-02) (27, 1.83901023119688034058e-02) (28, -3.76579970121383666992e-01) (29, 5.92123985290527343750e-01) (30, -1.50045379996299743652e-01) (31, -3.24254781007766723633e-01) (32, -8.11531692743301391602e-02) (33, -3.89130085706710815430e-01) (34, 9.91648212075233459473e-02) (24, -1.36906474828720092773e-01) (25, 2.18569323420524597168e-01) (26, 5.98263042047619819641e-03) (27, 1.26119786873459815979e-02) (28, -3.53770792484283447266e-01) (29, 4.33889627456665039062e-01) (30, -6.18703141808509826660e-02) (31, -3.18591415882110595703e-01) (32, -5.25758638978004455566e-02) (33, -4.40781235694885253906e-01) (34, 6.24341443181037902832e-02) (24, -1.92927002906799316406e-01) (25, 2.08874583244323730469e-01) (26, 4.34523867443203926086e-03) (27, 1.11862607300281524658e-02) (28, -2.54646569490432739258e-01) (29, 4.04659777879714965820e-01) (30, -6.94577023386955261230e-02) (31, -3.05871188640594482422e-01) (32, -4.36469838023185729980e-02) (33, -4.28930610418319702148e-01) (34, 5.98576143383979797363e-02) (24, 5.33470232039690017700e-03) (25, -2.35304936766624450684e-01) (26, 1.74077823758125305176e-02) (27, 1.37589741498231887817e-02) (28, 4.21147644519805908203e-01) (29, -1.72927767038345336914e-01) (30, -6.10386207699775695801e-02) (31, 9.38794314861297607422e-02) (32, -7.66273289918899536133e-02) (33, 2.83598065376281738281e-01) (34, -9.00411605834960937500e-02) (24, 7.80806783586740493774e-03) (25, -4.46279998868703842163e-03) (26, 1.36659806594252586365e-03) (27, 1.16938690189272165298e-03) (28, 1.08943998813629150391e-01) (29, -7.42158517241477966309e-02) (30, 1.89216248691082000732e-02) (31, 1.52484579011797904968e-02) (32, -5.89707354083657264709e-03) (33, 3.25267687439918518066e-02) (34, -7.04676434397697448730e-02) (24, 3.31506654620170593262e-02) (25, -2.49274924397468566895e-01) (26, 9.32982191443443298340e-03) (27, 6.92955870181322097778e-03) (28, 4.29246723651885986328e-01) (29, -3.09076637029647827148e-01) (30, 1.78692881017923355103e-02) (31, 1.72421172261238098145e-01) (32, -3.35710570216178894043e-02) (33, 3.57569485902786254883e-01) (34, -8.33551883697509765625e-02) (24, -4.25349511206150054932e-02) (25, 1.69827058911323547363e-01) (26, 4.29375935345888137817e-03) (27, 9.15590859949588775635e-03) (28, -4.49894934892654418945e-01) (29, 4.85653907060623168945e-01) (30, -1.33569478988647460938e-01) (31, -2.54216998815536499023e-01) (32, -3.80557216703891754150e-02) (33, -3.55513662099838256836e-01) (34, 1.00335434079170227051e-01) (24, -1.38968735933303833008e-01) (25, 2.30786323547363281250e-01) (26, -3.61034733941778540611e-04) (27, 4.22807410359382629395e-03) (28, -4.13823366165161132812e-01) (29, 5.10442078113555908203e-01) (30, -8.20277780294418334961e-02) (31, -3.58750224113464355469e-01) (32, -1.39890881255269050598e-02) (33, -5.45191109180450439453e-01) (34, 9.02116671204566955566e-02) (24, -2.39419952034950256348e-01) (25, 3.27504932880401611328e-01) (26, -1.61334464792162179947e-03) (27, 1.28760980442166328430e-03) (28, -2.74700671434402465820e-01) (29, 4.47983235120773315430e-01) (30, -2.11954295635223388672e-01) (31, -2.39069342613220214844e-01) (32, 1.05117401108145713806e-03) (33, -3.63736271858215332031e-01) (34, 7.14500173926353454590e-02) (24, 2.51841153949499130249e-02) (25, -4.30871427059173583984e-01) (26, 2.28310786187648773193e-02) (27, -1.28823369741439819336e-01) (28, 4.99677658081054687500e-01) (29, -3.16561073064804077148e-01) (30, 1.95216033607721328735e-02) (31, 6.10131174325942993164e-02) (32, -3.50353643298149108887e-02) (33, 3.61979782581329345703e-01) (34, 8.69371891021728515625e-02) (24, 3.42905938625335693359e-01) (25, -4.95963603258132934570e-01) (26, 7.20566511154174804688e-02) (27, -5.96918702125549316406e-01) (28, 4.48957830667495727539e-01) (29, -2.54588663578033447266e-01) (30, -9.26726907491683959961e-02) (31, 2.86688178777694702148e-01) (32, 4.69925910234451293945e-01) (33, 4.49972420930862426758e-01) (34, 2.76741474866867065430e-01) (24, 1.90923623740673065186e-02) (25, -2.58609861135482788086e-01) (26, 2.99661536701023578644e-03) (27, 5.87694235146045684814e-02) (28, 3.44604730606079101562e-01) (29, -2.34525710344314575195e-01) (30, 8.51513594388961791992e-02) (31, 9.89637374877929687500e-02) (32, -1.19498342275619506836e-01) (33, 3.97031962871551513672e-01) (34, 1.02879889309406280518e-01) (24, 8.11952471733093261719e-01) (25, 7.90434408187866210938e+00) (26, -2.58662199974060058594e+00) (27, 7.54971694946289062500e+00) (28, 7.60182666778564453125e+00) (29, 7.39062356948852539062e+00) (30, 2.25009655952453613281e+00) (31, 2.52545332908630371094e+00) (32, -4.26051902770996093750e+00) (33, 4.36466693878173828125e+00) (34, 1.27907123565673828125e+01) 
