FANN_FLO_2.1
num_layers=5
learning_rate=0.700000
connection_rate=1.000000
network_type=0
learning_momentum=0.000000
training_algorithm=0
train_error_function=0
train_stop_function=0
cascade_output_change_fraction=0.010000
quickprop_decay=-0.000100
quickprop_mu=1.750000
rprop_increase_factor=1.200000
rprop_decrease_factor=0.500000
rprop_delta_min=0.000000
rprop_delta_max=50.000000
rprop_delta_zero=0.100000
cascade_output_stagnation_epochs=12
cascade_candidate_change_fraction=0.010000
cascade_candidate_stagnation_epochs=12
cascade_max_out_epochs=150
cascade_min_out_epochs=50
cascade_max_cand_epochs=150
cascade_min_cand_epochs=50
cascade_num_candidate_groups=2
bit_fail_limit=3.49999994039535522461e-01
cascade_candidate_limit=1.00000000000000000000e+03
cascade_weight_multiplier=4.00000005960464477539e-01
cascade_activation_functions_count=10
cascade_activation_functions=3 5 7 8 10 11 14 15 16 17 
cascade_activation_steepnesses_count=4
cascade_activation_steepnesses=2.50000000000000000000e-01 5.00000000000000000000e-01 7.50000000000000000000e-01 1.00000000000000000000e+00 
layer_sizes=2 11 11 11 127 
scale_included=0
neurons (num_inputs, activation_function, activation_steepness)=(0, 0, 0.00000000000000000000e+00) (0, 0, 0.00000000000000000000e+00) (2, 5, 5.00000000000000000000e-01) (2, 5, 5.00000000000000000000e-01) (2, 5, 5.00000000000000000000e-01) (2, 5, 5.00000000000000000000e-01) (2, 5, 5.00000000000000000000e-01) (2, 5, 5.00000000000000000000e-01) (2, 5, 5.00000000000000000000e-01) (2, 5, 5.00000000000000000000e-01) (2, 5, 5.00000000000000000000e-01) (2, 5, 5.00000000000000000000e-01) (0, 5, 0.00000000000000000000e+00) (11, 5, 5.00000000000000000000e-01) (11, 5, 5.00000000000000000000e-01) (11, 5, 5.00000000000000000000e-01) (11, 5, 5.00000000000000000000e-01) (11, 5, 5.00000000000000000000e-01) (11, 5, 5.00000000000000000000e-01) (11, 5, 5.00000000000000000000e-01) (11, 5, 5.00000000000000000000e-01) (11, 5, 5.00000000000000000000e-01) (11, 5, 5.00000000000000000000e-01) (0, 5, 0.00000000000000000000e+00) (11, 5, 5.00000000000000000000e-01) (11, 5, 5.00000000000000000000e-01) (11, 5, 5.00000000000000000000e-01) (11, 5, 5.00000000000000000000e-01) (11, 5, 5.00000000000000000000e-01) (11, 5, 5.00000000000000000000e-01) (11, 5, 5.00000000000000000000e-01) (11, 5, 5.00000000000000000000e-01) (11, 5, 5.00000000000000000000e-01) (11, 5, 5.00000000000000000000e-01) (0, 5, 0.00000000000000000000e+00) (11, 0, 5.00000000000000000000e-01) (11, 0, 5.00000000000000000000e-01) (11, 0, 5.00000000000000000000e-01) (11, 0, 5.00000000000000000000e-01) (11, 0, 5.00000000000000000000e-01) (11, 0, 5.00000000000000000000e-01) (11, 0, 5.00000000000000000000e-01) (11, 0, 5.00000000000000000000e-01) (11, 0, 5.00000000000000000000e-01) (11, 0, 5.00000000000000000000e-01) (11, 0, 5.00000000000000000000e-01) (11, 0, 5.00000000000000000000e-01) (11, 0, 5.00000000000000000000e-01) (11, 0, 5.00000000000000000000e-01) (11, 0, 5.00000000000000000000e-01) (11, 0, 5.00000000000000000000e-01) (11, 0, 5.00000000000000000000e-01) (11, 0, 5.00000000000000000000e-01) (11, 0, 5.00000000000000000000e-01) (11, 0, 5.00000000000000000000e-01) (11, 0, 5.00000000000000000000e-01) (11, 0, 5.00000000000000000000e-01) (11, 0, 5.00000000000000000000e-01) (11, 0, 5.00000000000000000000e-01) (11, 0, 5.00000000000000000000e-01) (11, 0, 5.00000000000000000000e-01) (11, 0, 5.00000000000000000000e-01) (11, 0, 5.00000000000000000000e-01) (11, 0, 5.00000000000000000000e-01) (11, 0, 5.00000000000000000000e-01) (11, 0, 5.00000000000000000000e-01) (11, 0, 5.00000000000000000000e-01) (11, 0, 5.00000000000000000000e-01) (11, 0, 5.00000000000000000000e-01) (11, 0, 5.00000000000000000000e-01) (11, 0, 5.00000000000000000000e-01) (11, 0, 5.00000000000000000000e-01) (11, 0, 5.00000000000000000000e-01) (11, 0, 5.00000000000000000000e-01) (11, 0, 5.00000000000000000000e-01) (11, 0, 5.00000000000000000000e-01) (11, 0, 5.00000000000000000000e-01) (11, 0, 5.00000000000000000000e-01) (11, 0, 5.00000000000000000000e-01) (11, 0, 5.00000000000000000000e-01) (11, 0, 5.00000000000000000000e-01) (11, 0, 5.00000000000000000000e-01) (11, 0, 5.00000000000000000000e-01) (11, 0, 5.00000000000000000000e-01) (11, 0, 5.00000000000000000000e-01) (11, 0, 5.00000000000000000000e-01) (11, 0, 5.00000000000000000000e-01) (11, 0, 5.00000000000000000000e-01) (11, 0, 5.00000000000000000000e-01) (11, 0, 5.00000000000000000000e-01) (11, 0, 5.00000000000000000000e-01) (11, 0, 5.00000000000000000000e-01) (11, 0, 5.00000000000000000000e-01) (11, 0, 5.00000000000000000000e-01) (11, 0, 5.00000000000000000000e-01) (11, 0, 5.00000000000000000000e-01) (11, 0, 5.00000000000000000000e-01) (11, 0, 5.00000000000000000000e-01) (11, 0, 5.00000000000000000000e-01) (11, 0, 5.00000000000000000000e-01) (11, 0, 5.00000000000000000000e-01) (11, 0, 5.00000000000000000000e-01) (11, 0, 5.00000000000000000000e-01) (11, 0, 5.00000000000000000000e-01) (11, 0, 5.00000000000000000000e-01) (11, 0, 5.00000000000000000000e-01) (11, 0, 5.00000000000000000000e-01) (11, 0, 5.00000000000000000000e-01) (11, 0, 5.00000000000000000000e-01) (11, 0, 5.00000000000000000000e-01) (11, 0, 5.00000000000000000000e-01) (11, 0, 5.00000000000000000000e-01) (11, 0, 5.00000000000000000000e-01) (11, 0, 5.00000000000000000000e-01) (11, 0, 5.00000000000000000000e-01) (11, 0, 5.00000000000000000000e-01) (11, 0, 5.00000000000000000000e-01) (11, 0, 5.00000000000000000000e-01) (11, 0, 5.00000000000000000000e-01) (11, 0, 5.00000000000000000000e-01) (11, 0, 5.00000000000000000000e-01) (11, 0, 5.00000000000000000000e-01) (11, 0, 5.00000000000000000000e-01) (11, 0, 5.00000000000000000000e-01) (11, 0, 5.00000000000000000000e-01) (11, 0, 5.00000000000000000000e-01) (11, 0, 5.00000000000000000000e-01) (11, 0, 5.00000000000000000000e-01) (11, 0, 5.00000000000000000000e-01) (11, 0, 5.00000000000000000000e-01) (11, 0, 5.00000000000000000000e-01) (11, 0, 5.00000000000000000000e-01) (11, 0, 5.00000000000000000000e-01) (11, 0, 5.00000000000000000000e-01) (11, 0, 5.00000000000000000000e-01) (11, 0, 5.00000000000000000000e-01) (11, 0, 5.00000000000000000000e-01) (11, 0, 5.00000000000000000000e-01) (11, 0, 5.00000000000000000000e-01) (11, 0, 5.00000000000000000000e-01) (11, 0, 5.00000000000000000000e-01) (11, 0, 5.00000000000000000000e-01) (11, 0, 5.00000000000000000000e-01) (11, 0, 5.00000000000000000000e-01) (11, 0, 5.00000000000000000000e-01) (11, 0, 5.00000000000000000000e-01) (11, 0, 5.00000000000000000000e-01) (11, 0, 5.00000000000000000000e-01) (11, 0, 5.00000000000000000000e-01) (11, 0, 5.00000000000000000000e-01) (11, 0, 5.00000000000000000000e-01) (11, 0, 5.00000000000000000000e-01) (11, 0, 5.00000000000000000000e-01) (11, 0, 5.00000000000000000000e-01) (11, 0, 5.00000000000000000000e-01) (11, 0, 5.00000000000000000000e-01) (11, 0, 5.00000000000000000000e-01) (11, 0, 5.00000000000000000000e-01) (11, 0, 5.00000000000000000000e-01) (11, 0, 5.00000000000000000000e-01) (11, 0, 5.00000000000000000000e-01) (0, 0, 0.00000000000000000000e+00) 
connections (connected_to_neuron, weight)=(0, 1.62815800781250000000e+04) (1, -2.30286361694335937500e+02) (0, 2.22419082031250000000e+04) (1, -2.34909378051757812500e+02) (0, 2.65113598632812500000e+03) (1, -5.67385711669921875000e+01) (0, 1.59805263671875000000e+04) (1, -1.86442687988281250000e+02) (0, -4.37756875000000000000e+04) (1, 4.76944305419921875000e+02) (0, 1.87290703125000000000e+04) (1, -3.12626617431640625000e+02) (0, -2.71826855468750000000e+04) (1, 8.78606201171875000000e+02) (0, 1.71020976562500000000e+04) (1, -2.28493835449218750000e+02) (0, -3.33342187500000000000e+04) (1, 5.37494812011718750000e+02) (0, 1.45248574218750000000e+04) (1, -4.98225982666015625000e+02) (2, -1.52095890045166015625e+01) (3, -1.84599220752716064453e+00) (4, 1.97022800445556640625e+01) (5, 1.39327964782714843750e+01) (6, -1.56775207519531250000e+01) (7, -1.60067977905273437500e+01) (8, 1.77234897613525390625e+01) (9, 2.19396133422851562500e+01) (10, 6.22361660003662109375e+00) (11, -1.15899887084960937500e+01) (12, 1.98153533935546875000e+01) (2, 1.45369606018066406250e+01) (3, -8.89343261718750000000e-01) (4, -6.77935791015625000000e+00) (5, 9.02364492416381835938e-01) (6, 8.16217327117919921875e+00) (7, -8.69529533386230468750e+00) (8, 7.55612516403198242188e+00) (9, 2.78072404861450195312e+00) (10, 8.78599452972412109375e+00) (11, 7.23493814468383789062e+00) (12, 1.10953855514526367188e+01) (2, -9.60319900512695312500e+00) (3, -8.29249000549316406250e+00) (4, -1.35413370132446289062e+01) (5, -1.21823825836181640625e+01) (6, -1.27160663604736328125e+01) (7, -9.29966163635253906250e+00) (8, 3.48083710670471191406e+00) (9, 5.82588768005371093750e+00) (10, -2.10889320373535156250e+01) (11, 2.84425659179687500000e+01) (12, -3.98534119129180908203e-01) (2, -1.17981214523315429688e+01) (3, 2.62915325164794921875e+00) (4, -2.80595612525939941406e+00) (5, -1.77577667236328125000e+01) (6, -1.60113296508789062500e+01) (7, 1.64015598297119140625e+01) (8, 1.22685565948486328125e+01) (9, 4.76364421844482421875e+00) (10, 9.34221267700195312500e+00) (11, 1.25013027191162109375e+01) (12, 7.14587116241455078125e+00) (2, -2.10728621482849121094e+00) (3, 2.75972423553466796875e+01) (4, -1.95531463623046875000e+01) (5, 9.49958038330078125000e+00) (6, -3.49939465522766113281e-01) (7, 7.59577512741088867188e+00) (8, -1.99805772304534912109e+00) (9, -1.23999872207641601562e+01) (10, 1.25897474288940429688e+01) (11, -2.68353867530822753906e+00) (12, -1.66343522071838378906e+00) (2, -3.08417820930480957031e+00) (3, -8.69824504852294921875e+00) (4, -4.38557803630828857422e-01) (5, 4.40705490112304687500e+00) (6, -1.68394641876220703125e+01) (7, -1.38409881591796875000e+01) (8, 5.95525979995727539062e+00) (9, 1.71251602172851562500e+01) (10, 1.49618682861328125000e+01) (11, 5.16125392913818359375e+00) (12, -1.16432881355285644531e+00) (2, 3.46614569425582885742e-02) (3, 2.03253021240234375000e+01) (4, 9.00091171264648437500e+00) (5, 1.08415803909301757812e+01) (6, 6.50047683715820312500e+00) (7, 7.71904945373535156250e+00) (8, 2.07926177978515625000e+01) (9, -3.51045913696289062500e+01) (10, -1.56747770309448242188e+01) (11, 9.48206520080566406250e+00) (12, -2.87741255760192871094e+00) (2, -1.35633811950683593750e+01) (3, -3.29114770889282226562e+00) (4, -2.56938667297363281250e+01) (5, 6.32002544403076171875e+00) (6, 4.30926847457885742188e+00) (7, -8.30270195007324218750e+00) (8, -1.00705823898315429688e+01) (9, 3.66167688369750976562e+00) (10, 1.10206356048583984375e+01) (11, 1.31305513381958007812e+01) (12, -1.11368429660797119141e+00) (2, 3.67696118354797363281e+00) (3, 7.48097777366638183594e-01) (4, 2.43473863601684570312e+00) (5, 1.30773067474365234375e+01) (6, 4.34529066085815429688e+00) (7, -1.14099111557006835938e+01) (8, 1.48506927490234375000e+01) (9, -1.04040307998657226562e+01) (10, 6.46219968795776367188e+00) (11, 1.18663759231567382812e+01) (12, -5.55428552627563476562e+00) (2, -6.88545846939086914062e+00) (3, 8.67737102508544921875e+00) (4, -7.60193824768066406250e+00) (5, -6.02072763442993164062e+00) (6, -3.73368650674819946289e-01) (7, 4.58371305465698242188e+00) (8, 1.82680439949035644531e+00) (9, -7.29617404937744140625e+00) (10, 9.59848690032958984375e+00) (11, 1.33824701309204101562e+01) (12, 6.12137794494628906250e+00) (13, -3.38081926107406616211e-01) (14, 1.88249421119689941406e+00) (15, -1.31189823150634765625e+00) (16, -3.75378519296646118164e-01) (17, 3.56502509117126464844e+00) (18, 6.97575330734252929688e-01) (19, -7.70222616195678710938e+00) (20, -8.72104263305664062500e+00) (21, 2.06576824188232421875e+00) (22, -6.88800871372222900391e-01) (23, 1.46598684787750244141e+00) (13, 3.33728718757629394531e+00) (14, 2.10466647148132324219e+00) (15, 2.32906624674797058105e-01) (16, -8.05902004241943359375e-01) (17, -7.32695698738098144531e-01) (18, -2.86876416206359863281e+00) (19, -5.48278617858886718750e+00) (20, -1.91306865215301513672e+00) (21, -4.46744585037231445312e+00) (22, -2.19833159446716308594e+00) (23, 1.12291610240936279297e+00) (13, -3.93237262964248657227e-01) (14, -3.48011517524719238281e+00) (15, -4.16561174392700195312e+00) (16, 6.90438461303710937500e+00) (17, -6.00475549697875976562e-01) (18, 2.32533097267150878906e+00) (19, -1.32507634162902832031e+00) (20, 2.13686418533325195312e+00) (21, 2.15169382095336914062e+00) (22, 1.77657198905944824219e+00) (23, -1.70014858245849609375e+00) (13, 6.46021318435668945312e+00) (14, -1.80885016918182373047e+00) (15, -6.29434251785278320312e+00) (16, -1.42155909538269042969e+00) (17, 1.31223642826080322266e+00) (18, 2.28165793418884277344e+00) (19, -9.25629794597625732422e-01) (20, -4.73090028762817382812e+00) (21, -3.36166191101074218750e+00) (22, -4.29302453994750976562e+00) (23, 2.16595101356506347656e+00) (13, -1.64680385589599609375e+01) (14, -5.86979150772094726562e-01) (15, -2.81587696075439453125e+00) (16, -1.95445632934570312500e+00) (17, 6.34274601936340332031e-01) (18, 2.42850756645202636719e+00) (19, -3.08489036560058593750e+00) (20, 5.99234437942504882812e+00) (21, 7.75344192981719970703e-01) (22, 6.40971326828002929688e+00) (23, 3.28232026100158691406e+00) (13, -3.96088099479675292969e+00) (14, 5.70606899261474609375e+00) (15, 3.33827114105224609375e+00) (16, -1.29304265975952148438e+00) (17, 1.96787655353546142578e+00) (18, 1.10914814472198486328e+00) (19, -2.16933488845825195312e+00) (20, 2.04002022743225097656e+00) (21, -6.42641448974609375000e+00) (22, 1.80604803562164306641e+00) (23, -1.38481529429554939270e-02) (13, -4.18111419677734375000e+00) (14, 9.07988548278808593750e-01) (15, 6.95828914642333984375e-01) (16, 2.20635199546813964844e+00) (17, 3.25288057327270507812e+00) (18, 4.21600627899169921875e+00) (19, -3.28304862976074218750e+00) (20, -1.23371505737304687500e+00) (21, -9.08442318439483642578e-01) (22, -1.55604183673858642578e+00) (23, -2.99226999282836914062e+00) (13, -4.25168991088867187500e-01) (14, 1.29879283905029296875e+00) (15, 3.76051425933837890625e+00) (16, -2.23932027816772460938e+00) (17, 1.14028394222259521484e+00) (18, -8.81260216236114501953e-01) (19, -5.69621849060058593750e+00) (20, -1.73205053806304931641e+00) (21, 1.50375831127166748047e+00) (22, -4.64947432279586791992e-01) (23, 9.68183696269989013672e-01) (13, -2.83103656768798828125e+00) (14, 8.41315627098083496094e-01) (15, -1.60396814346313476562e+00) (16, -9.93395423889160156250e+00) (17, -1.20872426033020019531e+00) (18, 2.29585289955139160156e+00) (19, 4.92113065719604492188e+00) (20, -6.67465209960937500000e+00) (21, 2.54306840896606445312e+00) (22, -2.20104837417602539062e+00) (23, 6.06400203704833984375e+00) (13, -2.88766622543334960938e+00) (14, -2.90685796737670898438e+00) (15, 2.15001964569091796875e+00) (16, -8.73135149478912353516e-01) (17, 3.60584825277328491211e-01) (18, -9.74373295903205871582e-02) (19, 3.00632548332214355469e+00) (20, 9.78197678923606872559e-02) (21, 3.22100257873535156250e+00) (22, -1.18182957172393798828e+00) (23, -3.34759521484375000000e+00) (24, 8.42860460281372070312e-01) (25, -1.61438986659049987793e-01) (26, 5.40801703929901123047e-01) (27, 9.21301960945129394531e-01) (28, 2.48620226979255676270e-01) (29, 3.38739335536956787109e-01) (30, 4.46810990571975708008e-01) (31, 5.39860427379608154297e-01) (32, 1.47707298398017883301e-01) (33, -2.31894508004188537598e-01) (34, 9.12739372253417968750e+00) (24, -8.60409557819366455078e-01) (25, 1.38032242655754089355e-01) (26, -5.27950942516326904297e-01) (27, -9.21490788459777832031e-01) (28, -2.41421118378639221191e-01) (29, -3.49397271871566772461e-01) (30, -4.62866455316543579102e-01) (31, -5.48247575759887695312e-01) (32, -1.41887605190277099609e-01) (33, 2.43977785110473632812e-01) (34, 1.81659412384033203125e+00) (24, -4.61139053106307983398e-01) (25, 6.97603598237037658691e-02) (26, -2.78228253126144409180e-01) (27, -4.84806269407272338867e-01) (28, -1.26770421862602233887e-01) (29, -1.95802941918373107910e-01) (30, -2.41962626576423645020e-01) (31, -2.89641797542572021484e-01) (32, -7.62200579047203063965e-02) (33, 1.35200783610343933105e-01) (34, 9.59629535675048828125e-01) (24, -2.46888235211372375488e-01) (25, 3.69136221706867218018e-02) (26, -1.48216918110847473145e-01) (27, -2.57779240608215332031e-01) (28, -6.75845369696617126465e-02) (29, -1.07295393943786621094e-01) (30, -1.28183677792549133301e-01) (31, -1.54221683740615844727e-01) (32, -4.09038886427879333496e-02) (33, 7.39012509584426879883e-02) (34, 5.12594819068908691406e-01) (24, -1.33032158017158508301e-01) (25, 1.99527237564325332642e-02) (26, -7.96949267387390136719e-02) (27, -1.38378441333770751953e-01) (28, -3.64179611206054687500e-02) (29, -5.86114227771759033203e-02) (30, -6.85693770647048950195e-02) (31, -8.28288421034812927246e-02) (32, -2.20841392874717712402e-02) (33, 4.03882935643196105957e-02) (34, 2.76129513978958129883e-01) (24, -7.21941441297531127930e-02) (25, 1.09457606449723243713e-02) (26, -4.32306230068206787109e-02) (27, -7.49345347285270690918e-02) (28, -1.98063720017671585083e-02) (29, -3.21045480668544769287e-02) (30, -3.69969345629215240479e-02) (31, -4.48524169623851776123e-02) (32, -1.20153091847896575928e-02) (33, 2.21525989472866058350e-02) (34, 1.49963155388832092285e-01) (24, -3.94700542092323303223e-02) (25, 6.07654126361012458801e-03) (26, -2.36515738070011138916e-02) (27, -4.09195423126220703125e-02) (28, -1.08655961230397224426e-02) (29, -1.76747906953096389771e-02) (30, -2.01258715242147445679e-02) (31, -2.44838111102581024170e-02) (32, -6.59087486565113067627e-03) (33, 1.22153405100107192993e-02) (34, 8.20990949869155883789e-02) (24, -2.17433497309684753418e-02) (25, 3.40860569849610328674e-03) (26, -1.30481859669089317322e-02) (27, -2.25285105407238006592e-02) (28, -6.01098034530878067017e-03) (29, -9.79129131883382797241e-03) (30, -1.10359322279691696167e-02) (31, -1.34716797620058059692e-02) (32, -3.64508456550538539886e-03) (33, 6.77832495421171188354e-03) (34, 4.53055389225482940674e-02) (24, -1.20701426640152931213e-02) (25, 1.93039781879633665085e-03) (26, -7.25788203999400138855e-03) (27, -1.25037757679820060730e-02) (28, -3.35281388834118843079e-03) (29, -5.46117499470710754395e-03) (30, -6.09943829476833343506e-03) (31, -7.47131882235407829285e-03) (32, -2.03259731642901897430e-03) (33, 3.78695852123200893402e-03) (34, 2.52005681395530700684e-02) (24, -6.75238436087965965271e-03) (25, 1.10306672286242246628e-03) (26, -4.07010456547141075134e-03) (27, -6.99571985751390457153e-03) (28, -1.88539922237396240234e-03) (29, -3.06790275499224662781e-03) (30, -3.39763285592198371887e-03) (31, -4.17635543271899223328e-03) (32, -1.14276644308120012283e-03) (33, 2.13090912438929080963e-03) (34, 1.41289690509438514709e-02) (24, -3.80690535530447959900e-03) (25, 6.35778356809169054031e-04) (26, -2.30098422616720199585e-03) (27, -3.94536042585968971252e-03) (28, -1.06881547253578901291e-03) (29, -1.73620763234794139862e-03) (30, -1.90745305735617876053e-03) (31, -2.35295016318559646606e-03) (32, -6.47752254735678434372e-04) (33, 1.20793038513511419296e-03) (34, 7.98449385911226272583e-03) (24, -2.16304510831832885742e-03) (25, 3.69550689356401562691e-04) (26, -1.31135305855423212051e-03) (27, -2.24281405098736286163e-03) (28, -6.10791554208844900131e-04) (29, -9.89963766187429428101e-04) (30, -1.07922055758535861969e-03) (31, -1.33610190823674201965e-03) (32, -3.70143505278974771500e-04) (33, 6.89835229422897100449e-04) (34, 4.54797921702265739441e-03) (24, -1.23861071188002824783e-03) (25, 2.16604283195920288563e-04) (26, -7.53422849811613559723e-04) (27, -1.28514505922794342041e-03) (28, -3.51860042428597807884e-04) (29, -5.68736111745238304138e-04) (30, -6.15352590102702379227e-04) (31, -7.64662050642073154449e-04) (32, -2.13235427509061992168e-04) (33, 3.96883900975808501244e-04) (34, 2.61110067367553710938e-03) (24, -7.14794092345982789993e-04) (25, 1.28013474750332534313e-04) (26, -4.36381087638437747955e-04) (27, -7.42263335268944501877e-04) (28, -2.04326584935188293457e-04) (29, -3.29231901559978723526e-04) (30, -3.53579118382185697556e-04) (31, -4.41057840362191200256e-04) (32, -1.23834804981015622616e-04) (33, 2.30035817367024719715e-04) (34, 1.51098868809640407562e-03) (24, -4.15717251598834991455e-04) (25, 7.62817508075386285782e-05) (26, -2.54807877354323863983e-04) (27, -4.32127853855490684509e-04) (28, -1.19608193926978856325e-04) (29, -1.92039922694675624371e-04) (30, -2.04730051336809992790e-04) (31, -2.56397499470040202141e-04) (32, -7.24980927770957350731e-05) (33, 1.34304704261012375355e-04) (34, 8.81311832927167415619e-04) (24, -2.43661328568123281002e-04) (25, 4.58299218735191971064e-05) (26, -1.49996601976454257965e-04) (27, -2.53579841228201985359e-04) (28, -7.05792335793375968933e-05) (29, -1.12873414764180779457e-04) (30, -1.19454649393446743488e-04) (31, -1.50216365000233054161e-04) (32, -4.27853083238005638123e-05) (33, 7.89857294876128435135e-05) (34, 5.18116925377398729324e-04) (24, -1.43926954478956758976e-04) (25, 2.77594335784669965506e-05) (26, -8.90189621713943779469e-05) (27, -1.49991043144837021828e-04) (28, -4.19823190895840525627e-05) (29, -6.68495049467310309410e-05) (30, -7.02323886798694729805e-05) (31, -8.86966008692979812622e-05) (32, -2.54538408626103773713e-05) (33, 4.67886093247216194868e-05) (34, 3.07013164274394512177e-04) (24, -8.56776532600633800030e-05) (25, 1.69499526236904785037e-05) (26, -5.32611920789349824190e-05) (27, -8.94266049726866185665e-05) (28, -2.51725377893308177590e-05) (29, -3.98947122448589652777e-05) (30, -4.16094881074968725443e-05) (31, -5.27812044310849159956e-05) (32, -1.52642569446470588446e-05) (33, 2.79160449281334877014e-05) (34, 1.83365191332995891571e-04) (24, -5.13999002578202635050e-05) (25, 1.04324235508101992309e-05) (26, -3.21271254506427794695e-05) (27, -5.37433043064083904028e-05) (28, -1.52143511513713747263e-05) (29, -2.39907931245397776365e-05) (30, -2.48411997745279222727e-05) (31, -3.16548976115882396698e-05) (32, -9.22704657568829134107e-06) (33, 1.67747657542349770665e-05) (34, 1.10383225546684116125e-04) (24, -3.10767863993532955647e-05) (25, 6.47126489639049395919e-06) (26, -1.95369102584663778543e-05) (27, -3.25567343679722398520e-05) (28, -9.26905704545788466930e-06) (29, -1.45374769999762065709e-05) (30, -1.49448433148791082203e-05) (31, -1.91337039723293855786e-05) (32, -5.62198420084314420819e-06) (33, 1.01520854514092206955e-05) (34, 6.69758519507013261318e-05) (24, -1.89366764971055090427e-05) (25, 4.04454431190970353782e-06) (26, -1.19772466860013082623e-05) (27, -1.98801390070002526045e-05) (28, -5.69168969377642497420e-06) (29, -8.87681562744546681643e-06) (30, -9.06119385035708546638e-06) (31, -1.16564760901383124292e-05) (32, -3.45265721080068033189e-06) (33, 6.18811463937163352966e-06) (34, 4.09598360420204699039e-05) (24, -1.16300625450094230473e-05) (25, 2.54612132266629487276e-06) (26, -7.40199766369187273085e-06) (27, -1.22368464872124604881e-05) (28, -3.52251095137035008520e-06) (29, -5.46210549146053381264e-06) (30, -5.53745030629215762019e-06) (31, -7.15759642844204790890e-06) (32, -2.13698740481049753726e-06) (33, 3.79923608306853566319e-06) (34, 2.52478657785104587674e-05) (24, -7.19962599760037846863e-06) (25, 1.61372906859469367191e-06) (26, -4.61110084870597347617e-06) (27, -7.59274053052649833262e-06) (28, -2.19695220948779024184e-06) (29, -3.38705649483017623425e-06) (30, -3.41149257110373582691e-06) (31, -4.43035060015972703695e-06) (32, -1.33297078264149604365e-06) (33, 2.34966910284128971398e-06) (34, 1.56859059643466025591e-05) (24, -4.49300432592281140387e-06) (25, 1.02910473742667818442e-06) (26, -2.89510944639914669096e-06) (27, -4.74914122605696320534e-06) (28, -1.38066070576314814389e-06) (29, -2.11678798223147168756e-06) (30, -2.11939641303615644574e-06) (31, -2.76454875347553752363e-06) (32, -8.37770699035900179297e-07) (33, 1.46412071444501634687e-06) (34, 9.82220444711856544018e-06) (24, -2.82701398646167945117e-06) (25, 6.59795603041857248172e-07) (26, -1.83177530743705574423e-06) (27, -2.99459202324214857072e-06) (28, -8.74119280069862725213e-07) (29, -1.33342280150827718899e-06) (30, -1.32824754928151378408e-06) (31, -1.73939451997284777462e-06) (32, -5.30463523773505585268e-07) (33, 9.19437809443479636684e-07) (34, 6.19896945863729342818e-06) (24, -1.79384255716286133975e-06) (25, 4.24820086664112750441e-07) (26, -1.16771400371362688020e-06) (27, -1.90363664387405151501e-06) (28, -5.57389398636587429792e-07) (29, -8.46759576234035193920e-07) (30, -8.40175516714225523174e-07) (31, -1.10370012862404109910e-06) (32, -3.38294597668209462427e-07) (33, 5.82114012104284483939e-07) (34, 3.94300786865642294288e-06) (24, -1.14820420549222035334e-06) (25, 2.74328868954398785718e-07) (26, -7.49794423882121918723e-07) (27, -1.22004405511688673869e-06) (28, -3.57853139121289132163e-07) (29, -5.42162183592154178768e-07) (30, -5.36754157565155765042e-07) (31, -7.06476384948473423719e-07) (32, -2.17227480447945708875e-07) (33, 3.71742089555482380092e-07) (34, 2.52769541475572623312e-06) (24, -7.41615394872496835887e-07) (25, 1.77357094344188226387e-07) (26, -4.84783697629609378055e-07) (27, -7.88398949680413352326e-07) (28, -2.31225925517719588242e-07) (29, -3.50079716326945344917e-07) (30, -3.46612608836949220859e-07) (31, -4.56334504406186169945e-07) (32, -1.40383988878056698013e-07) (33, 2.39583698657952481881e-07) (34, 1.63304378020256990567e-06) (24, -4.83536553019803250208e-07) (25, 1.14554921992748859338e-07) (26, -3.15502774128617602400e-07) (27, -5.13730867623962694779e-07) (28, -1.50298873791143705603e-07) (29, -2.28020667236705776304e-07) (30, -2.26447767204263072927e-07) (31, -2.97555345696309814230e-07) (32, -9.12637574401742313057e-08) (33, 1.55922080580239708070e-07) (34, 1.06323273030284326524e-06) (24, -3.18381665920242085122e-07) (25, 7.37344194590150436852e-08) (26, -2.06611474595774780028e-07) (27, -3.37591444576901267283e-07) (28, -9.82257759574167721439e-08) (29, -1.49845973851370217744e-07) (30, -1.49812024119455600157e-07) (31, -1.95937872149443137459e-07) (32, -5.96529403651402390096e-08) (33, 1.02519933875555580016e-07) (34, 6.97586870046507101506e-07) (24, -2.11775514458167890552e-07) (25, 4.71566323767547146417e-08) (26, -1.36104247872026462574e-07) (27, -2.23745189487090101466e-07) (28, -6.45081925654267251957e-08) (29, -9.93692097495113557670e-08) (30, -1.00438903416488756193e-07) (31, -1.30341732074157334864e-07) (32, -3.91817813749639753951e-08) (33, 6.81259493262587056961e-08) (34, 4.61200869494859944098e-07) (24, -1.42333348662759817671e-07) (25, 2.98725169045610527974e-08) (26, -9.01725911717221606523e-08) (27, -1.49580785091529833153e-07) (28, -4.25543476012535393238e-08) (29, -6.64979467046578065492e-08) (30, -6.82645833194328588434e-08) (31, -8.76100827440495777410e-08) (32, -2.58497419025616181898e-08) (33, 4.57493811722997634206e-08) (34, 3.07249308661994291469e-07) (24, -9.66539914770692121238e-08) (25, 1.86864728135560653755e-08) (26, -6.00878209411348507274e-08) (27, -1.00872398434148635715e-07) (28, -2.81919909639327670448e-08) (29, -4.49023396242864691885e-08) (30, -4.70228300741837301757e-08) (31, -5.94988414093222672818e-08) (32, -1.71255507552814378869e-08) (33, 3.10313694740216305945e-08) (34, 2.06248358836091938429e-07) (24, -6.62904682258158572949e-08) (25, 1.15154197288802606636e-08) (26, -4.02869169136010896182e-08) (27, -6.86189025600469904020e-08) (28, -1.87608506507785932627e-08) (29, -3.05837168923517310759e-08) (30, -3.27927942578298825538e-08) (31, -4.08120577333193068625e-08) (32, -1.13951799107780971099e-08) (33, 2.12381969788566493662e-08) (34, 1.39508912866403989028e-07) (24, -4.58854039209199981997e-08) (25, 6.98572932833485538140e-09) (26, -2.71965987508338002954e-08) (27, -4.70785721518041100353e-08) (28, -1.25500916325904654514e-08) (29, -2.10016786184041848173e-08) (30, -2.31090364621877597529e-08) (31, -2.82531100737060114625e-08) (32, -7.62105312190897166147e-09) (33, 1.46475533924217415915e-08) (34, 9.50934335719466616865e-08) (24, -3.20206865467298484873e-08) (25, 4.18133749846560931474e-09) (26, -1.85038757649635954294e-08) (27, -3.25678186641198408324e-08) (28, -8.45053627074321411783e-09) (29, -1.45313938659796804131e-08) (30, -1.64156457316266823909e-08) (31, -1.97192875361906772014e-08) (32, -5.12986719769514820655e-09) (33, 1.01660804219250167080e-08) (34, 6.53258567240300180856e-08) (24, -2.25020073685300303623e-08) (25, 2.48577181061193641654e-09) (26, -1.27018457973804288486e-08) (27, -2.27075496184170333436e-08) (28, -5.73768366152194175811e-09) (29, -1.01257775497742841253e-08) (30, -1.17246337083543039626e-08) (31, -1.38598927890143386321e-08) (32, -3.48159012730775430100e-09) (33, 7.09361058781610154256e-09) (34, 4.52340138679119263543e-08) (24, -1.59083395345760436612e-08) (25, 1.48479351036456819202e-09) (26, -8.80416095583314017858e-09) (27, -1.59508868335933584603e-08) (28, -3.93527255226899796980e-09) (29, -7.10354930433254594391e-09) (30, -8.40280200975485058734e-09) (31, -9.80029568609097623266e-09) (32, -2.38692621223890455440e-09) (33, 4.97489383022298170545e-09) (34, 3.15757127111737645464e-08) (24, -1.13083897801402599725e-08) (25, 9.04063435225310740861e-10) (26, -6.16442230594316242787e-09) (27, -1.12846487709816756251e-08) (28, -2.73001332651290340436e-09) (29, -5.01692953847054923244e-09) (30, -6.03636030049869987124e-09) (31, -6.96768109875733898662e-09) (32, -1.65520597228407950752e-09) (33, 3.50821127703682122956e-09) (34, 2.22223253132369791274e-08) (24, -8.08240940841642441228e-09) (25, 5.68296909531085248091e-10) (26, -4.35943725562992767664e-09) (27, -8.03932653781203043764e-09) (28, -1.91649274228211652371e-09) (29, -3.56786822308663431613e-09) (30, -4.34688329775667625654e-09) (31, -4.98064700593658926664e-09) (32, -1.16157505836156360601e-09) (33, 2.48968445859532039321e-09) (34, 1.57684958423942589434e-08) (24, -5.81039749647516146069e-09) (25, 3.70956487749651842023e-10) (26, -3.11243808504002572590e-09) (27, -5.76754244363542056817e-09) (28, -1.36095101854749600534e-09) (29, -2.55576737551166388585e-09) (30, -3.14064330098062782781e-09) (31, -3.58092377972241138195e-09) (32, -8.24627699458346796746e-10) (33, 1.77980541415934112592e-09) (34, 1.12809193097973547992e-08) (24, -4.20380885657323233318e-09) (25, 2.50916704080950125899e-10) (26, -2.24215468414001861674e-09) (27, -4.16755918664080127201e-09) (28, -9.76810743402722891915e-10) (29, -1.84465287489388174436e-09) (30, -2.27954721765399881406e-09) (31, -2.59095966903544194793e-09) (32, -5.91718340992031244241e-10) (33, 1.28247301667272495251e-09) (34, 8.13620815165450039785e-09) (24, -3.06248759684990545793e-09) (25, 1.74763162275048955507e-10) (26, -1.62903357470156606723e-09) (27, -3.03374236843012567988e-09) (28, -7.08003156102421371543e-10) (29, -1.34173472332577148336e-09) (30, -1.66399494183622209675e-09) (31, -1.88759941011085174978e-09) (32, -4.28792223949869821809e-10) (33, 9.31728805220188860403e-10) (34, 5.91556537088422373927e-09) (24, -2.24732521481030289578e-09) (25, 1.24503393705843734551e-10) (26, -1.19337284498755025197e-09) (27, -2.22513096836962631642e-09) (28, -5.17865250682092437273e-10) (29, -9.83614856231440626289e-10) (30, -1.22262511226267633901e-09) (31, -1.38519051784413704809e-09) (32, -3.13572362520275760289e-10) (33, 6.82529643913909467301e-10) (34, 4.33551727851977375394e-09) (24, -1.66156233216696591626e-09) (25, 9.02795893598096199639e-11) (26, -8.81326844837104772523e-10) (27, -1.64460955964784716343e-09) (28, -3.82081061234273988703e-10) (29, -7.26777305004588924930e-10) (30, -9.04683161717656503242e-10) (31, -1.02415487202023314239e-09) (32, -2.31305377629276165408e-10) (33, 5.04089214814484876115e-10) (34, 3.20287107946626292687e-09) (24, -1.23790977468729579414e-09) (25, 6.64132845940024196807e-11) (26, -6.56112997265978492578e-10) (27, -1.22499810295551014860e-09) (28, -2.84275269990530432551e-10) (29, -5.41258093900154335643e-10) (30, -6.74358346941517083906e-10) (31, -7.63023422223341185600e-10) (32, -1.72063099879160574801e-10) (33, 3.75321662637873032509e-10) (34, 2.38497310789398397901e-09) (24, -9.29420984618900547503e-10) (25, 4.94758053970478783867e-11) (26, -4.92367369098190010845e-10) (27, -9.19589182579727548728e-10) (28, -2.13257342340789080026e-10) (29, -4.06285255438731951472e-10) (30, -5.06464703509124092307e-10) (31, -5.72875968885000474984e-10) (32, -1.29055016673262912263e-10) (33, 2.81703521620713104312e-10) (34, 1.79006831579897607298e-09) (24, 1.28638356924057006836e-01) (25, -2.09137964993715286255e-02) (26, 7.91326537728309631348e-02) (27, 1.38737663626670837402e-01) (28, 3.64455841481685638428e-02) (29, 5.24158477783203125000e-02) (30, 7.05926567316055297852e-02) (31, 8.27108398079872131348e-02) (32, 2.09994092583656311035e-02) (33, -3.73075827956199645996e-02) (34, 3.00171732902526855469e-01) (24, 3.49777587689459323883e-03) (25, 2.83170607872307300568e-03) (26, -2.04874924384057521820e-03) (27, -1.56106532085686922073e-03) (28, -1.02235621307045221329e-03) (29, 3.34596447646617889404e-03) (30, -4.43549855845049023628e-04) (31, 1.54663095599971711636e-04) (32, -2.23773313337005674839e-04) (33, -2.63875909149646759033e-03) (34, 4.35481546446681022644e-03) (24, 6.29027490504086017609e-04) (25, 1.54478114563971757889e-03) (26, -1.28220010083168745041e-03) (27, -1.43154419492930173874e-03) (28, -6.62585545796900987625e-04) (29, 2.01009726151823997498e-03) (30, -2.02440583962015807629e-04) (31, -2.74894497124478220940e-04) (32, -1.90520033356733620167e-04) (33, -1.47071445826441049576e-03) (34, 1.70702231116592884064e-03) (24, 4.16793307522311806679e-04) (25, 1.01709854789078235626e-03) (26, -8.88093491084873676300e-04) (27, -9.43951949011534452438e-04) (28, -4.30947751738131046295e-04) (29, 1.28212210256606340408e-03) (30, -9.84136422630399465561e-05) (31, -1.71824794961139559746e-04) (32, -1.63485034136101603508e-04) (33, -1.00017851218581199646e-03) (34, 1.09493243508040904999e-03) (24, 2.89589399471879005432e-04) (25, 6.82246638461947441101e-04) (26, -6.17597543168812990189e-04) (27, -6.29357295110821723938e-04) (28, -2.85629328573122620583e-04) (29, 8.37484549265354871750e-04) (30, -4.64667355117853730917e-05) (31, -1.06278814200777560472e-04) (32, -1.28834115457721054554e-04) (33, -6.88605126924812793732e-04) (34, 7.16219015885144472122e-04) (24, 2.02750685275532305241e-04) (25, 4.62660012999549508095e-04) (26, -4.30352491093799471855e-04) (27, -4.23879595473408699036e-04) (28, -1.91630766494199633598e-04) (29, 5.56147133465856313705e-04) (30, -1.99576697923475876451e-05) (31, -6.61315352772362530231e-05) (32, -9.74377398961223661900e-05) (33, -4.77488472824916243553e-04) (34, 4.73703083116561174393e-04) (24, 1.42599295941181480885e-04) (25, 3.16321209538727998734e-04) (26, -3.00647778203710913658e-04) (27, -2.87802628008648753166e-04) (28, -1.29776133690029382706e-04) (29, 3.73753951862454414368e-04) (30, -6.67039785184897482395e-06) (31, -4.13815578212961554527e-05) (32, -7.21783289918676018715e-05) (33, -3.32803057972341775894e-04) (34, 3.16211313474923372269e-04) (24, 1.00517725513782352209e-04) (25, 2.17607841477729380131e-04) (26, -2.10544734727591276169e-04) (27, -1.96725144633091986179e-04) (28, -8.85368499439209699631e-05) (29, 2.53388367127627134323e-04) (30, -3.47759993246654630639e-07) (31, -2.60495035036001354456e-05) (32, -5.28253258380573242903e-05) (33, -2.32808975852094590664e-04) (34, 2.12803162867203354836e-04) (24, 7.08698062226176261902e-05) (25, 1.50370891788043081760e-04) (26, -1.47730534081347286701e-04) (27, -1.35201262310147285461e-04) (28, -6.07531146670226007700e-05) (29, 1.72850472154095768929e-04) (30, 2.33716923503379803151e-06) (31, -1.65141245815902948380e-05) (32, -3.83614387828856706619e-05) (33, -1.63206888828426599503e-04) (34, 1.44265213748440146446e-04) (24, 4.98647132189944386482e-05) (25, 1.04202394140884280205e-04) (26, -1.03769991255830973387e-04) (27, -9.33188348426483571529e-05) (28, -4.18654381064698100090e-05) (29, 1.18357689643744379282e-04) (30, 3.16483578899351414293e-06) (31, -1.05689550764509476721e-05) (32, -2.77010767604224383831e-05) (33, -1.14478141767904162407e-04) (34, 9.84553480520844459534e-05) (24, 3.49234287568833678961e-05) (25, 7.22804397810250520706e-05) (26, -7.28880986571311950684e-05) (27, -6.46054832031950354576e-05) (28, -2.89254094241186976433e-05) (29, 8.11524805612862110138e-05) (30, 3.09508595819352194667e-06) (31, -6.85327631799736991525e-06) (32, -1.98983016161946579814e-05) (33, -8.01995920483022928238e-05) (34, 6.75976043567061424255e-05) (24, 2.42645201069535687566e-05) (25, 5.00882015330716967583e-05) (26, -5.11185571667738258839e-05) (27, -4.47993006673641502857e-05) (28, -2.00036611204268410802e-05) (29, 5.55696424271445721388e-05) (30, 2.64307141151221003383e-06) (31, -4.52170434073195792735e-06) (32, -1.42155677167465910316e-05) (33, -5.59930304007139056921e-05) (34, 4.66660421807318925858e-05) (24, 1.66580975928809493780e-05) (25, 3.45921725966036319733e-05) (26, -3.57320459443144500256e-05) (27, -3.10688992612995207310e-05) (28, -1.38191708174417726696e-05) (29, 3.78838194592390209436e-05) (30, 2.07150901587738189846e-06) (31, -3.05669982481049373746e-06) (32, -1.00894440038246102631e-05) (33, -3.88590196962468326092e-05) (34, 3.23729800584260374308e-05) (24, 1.12378202175023034215e-05) (25, 2.37432159337913617492e-05) (26, -2.48401265707798302174e-05) (27, -2.15127602132270112634e-05) (28, -9.51562469708733260632e-06) (29, 2.56186413025716319680e-05) (30, 1.51118217672774335369e-06) (31, -2.13047519537212792784e-06) (32, -7.10315180185716599226e-06) (33, -2.67224040726432576776e-05) (34, 2.25529693125281482935e-05) (24, 7.39172173780389130116e-06) (25, 1.61429361469345167279e-05) (26, -1.71307474374771118164e-05) (27, -1.48453136716852895916e-05) (28, -6.51435902909724973142e-06) (29, 1.71084338944638147950e-05) (30, 1.02212868569040438160e-06) (31, -1.53885696363431634381e-06) (32, -4.94991718369419686496e-06) (33, -1.81370924110524356365e-05) (34, 1.57699832925572991371e-05) (24, 4.68743337478372268379e-06) (25, 1.08294962046784348786e-05) (26, -1.16860455818823538721e-05) (27, -1.01907789940014481544e-05) (28, -4.42177179138525389135e-06) (29, 1.12200768853654153645e-05) (30, 6.24712470198574010283e-07) (31, -1.15510192699730396271e-06) (32, -3.40487622452201321721e-06) (33, -1.20911690828506834805e-05) (34, 1.10626288005732931197e-05) (24, 2.81259713119652587920e-06) (25, 7.13528334017610177398e-06) (26, -7.86073178460355848074e-06) (27, -6.94776781529071740806e-06) (28, -2.96709185931831598282e-06) (29, 7.17522016202565282583e-06) (30, 3.19556875183479860425e-07) (31, -8.98474922905734274536e-07) (32, -2.30481055041309446096e-06) (33, -7.86931195762008428574e-06) (34, 7.78337471274426206946e-06) (24, 1.54225278947706101462e-06) (25, 4.59288003185065463185e-06) (26, -5.19741206517210230231e-06) (27, -4.69890846943599171937e-06) (28, -1.96279029296420048922e-06) (29, 4.43256976723205298185e-06) (30, 9.90720323557070514653e-08) (31, -7.19750801181362476200e-07) (32, -1.53053497342625632882e-06) (33, -4.96120082971174269915e-06) (34, 5.49279911865596659482e-06) (24, 7.10935012193658621982e-07) (25, 2.87054672298836521804e-06) (26, -3.36859375238418579102e-06) (27, -3.15204397338675335050e-06) (28, -1.27715884445933625102e-06) (29, 2.61036711890483275056e-06) (30, -4.93506178145253215916e-08) (31, -5.88068019169440958649e-07) (32, -9.94074298432678915560e-07) (33, -2.99844987239339388907e-06) (34, 3.89010165235958993435e-06) (24, 1.94994996149944199715e-07) (25, 1.73044134044175734743e-06) (26, -2.13647581404075026512e-06) (27, -2.10036455428053159267e-06) (28, -8.16565659533807775006e-07) (29, 1.43566649057902395725e-06) (30, -1.39051508085685782135e-07) (31, -4.85348493839410366490e-07) (32, -6.30059332706878194585e-07) (33, -1.71196097653592005372e-06) (34, 2.76773198493174277246e-06) (24, -9.90497994735051179305e-08) (25, 9.99098006104759406298e-07) (26, -1.32716866119153564796e-06) (27, -1.39578946800611447543e-06) (28, -5.13887812303437385708e-07) (29, 7.10286940375226549804e-07) (30, -1.83495671990385744721e-07) (31, -4.00793567223445279524e-07) (32, -3.89797492061916273087e-07) (33, -9.02088856946647865698e-07) (34, 1.98163616005331277847e-06) (24, -2.42655602278318838216e-07) (25, 5.49038986719097010791e-07) (26, -8.11705717751465272158e-07) (27, -9.31308761664695339277e-07) (28, -3.20222966365690808743e-07) (29, 2.88806489834314561449e-07) (30, -1.95269151959109876771e-07) (31, -3.28840656038664747030e-07) (32, -2.36396601849264698103e-07) (33, -4.19610927337998873554e-07) (34, 1.43071736147248884663e-06) (24, -2.90440340222630766220e-07) (25, 2.86201668586727464572e-07) (26, -4.94613686896627768874e-07) (27, -6.29651424333133036271e-07) (28, -1.99924102162185590714e-07) (29, 6.45660236386902397498e-08) (30, -1.85616016779022174887e-07) (31, -2.66834831563755869865e-07) (32, -1.42132179803411418106e-07) (33, -1.53220796050845819991e-07) (34, 1.04375067166984081268e-06) (24, -2.82936497342234360985e-07) (25, 1.42115681001087068580e-07) (26, -3.06111104464434902184e-07) (27, -4.35392422559743863530e-07) (28, -1.27217163026216439903e-07) (29, -3.92446999342155322665e-08) (30, -1.64010756975585536566e-07) (31, -2.13719985708848980721e-07) (32, -8.63937117401292198338e-08) (33, -2.12951150047047121916e-08) (34, 7.70563701735227368772e-07) (24, -2.48667674895841628313e-07) (25, 6.86264058913366170600e-08) (26, -1.96800684193476627115e-07) (27, -3.09862457470444496721e-07) (28, -8.40211953345715301111e-08) (29, -7.57483249458346108440e-08) (30, -1.37722054205369204283e-07) (31, -1.69085410561820026487e-07) (32, -5.44348637276925728656e-08) (33, 3.35096750347929628333e-08) (34, 5.76003287733328761533e-07) (24, -2.05948765596986049786e-07) (25, 3.38156134205291891703e-08) (26, -1.33552020997740328312e-07) (27, -2.27142237463340279646e-07) (28, -5.82317838393464626279e-08) (29, -7.91964822610680130310e-08) (30, -1.11687420201178611023e-07) (31, -1.32511516426347952802e-07) (32, -3.62754200011750072008e-08) (33, 4.88155507127885357477e-08) (34, 4.35723563896317500621e-07) (24, -1.64922752787788340356e-07) (25, 1.82460517805793642765e-08) (26, -9.57387342737092694733e-08) (27, -1.70748293726319388952e-07) (28, -4.22819503853588685161e-08) (29, -6.95229829261734266765e-08) (30, -8.86525839405294391327e-08) (31, -1.03301275089506816585e-07) (32, -2.56693279965247711516e-08) (33, 4.69818601800398027990e-08) (34, 3.33122017082132515498e-07) (24, -1.29941838622471550480e-07) (25, 1.13106590760025937925e-08) (26, -7.16026917757517367136e-08) (27, -1.30762515482274466194e-07) (28, -3.18081205818998569157e-08) (29, -5.67844224974578537513e-08) (30, -6.96380055842382716946e-08) (31, -8.04529136644305253867e-08) (32, -1.90540809796857502079e-08) (33, 3.96368342592268163571e-08) (34, 2.57014704629909829237e-07) (24, -1.01890883286159805721e-07) (25, 7.92476040345491128392e-09) (26, -5.50017773548461263999e-08) (27, -1.01426891774281102698e-07) (28, -2.44799309712107060477e-08) (29, -4.50873081092595384689e-08) (30, -5.45707798949024436297e-08) (31, -6.28156655579914513510e-08) (32, -1.45814480490003006707e-08) (33, 3.18193684734069393016e-08) (34, 1.99871948325380799361e-07) (24, -8.00362371933260874357e-08) (25, 5.96386717788277564978e-09) (26, -4.29066879803485790035e-08) (27, -7.93934660237027856056e-08) (28, -1.91030000706859937054e-08) (29, -3.55438167787269776454e-08) (30, -4.28716866451850364683e-08) (31, -4.92775136251566436840e-08) (32, -1.13548166424948249187e-08) (33, 2.51632119585565305897e-08) (34, 1.56553298324979550671e-07) (24, -6.31761238878425501753e-08) (25, 4.63926186355934078165e-09) (26, -3.37967236418990069069e-08) (27, -6.26069507347892795224e-08) (28, -1.50461865189299714984e-08) (29, -2.80782170847260204027e-08) (30, -3.38481633832543593599e-08) (31, -3.88840746268215298187e-08) (32, -8.93601104223762376932e-09) (33, 1.98920702132454607636e-08) (34, 1.23461390444390417542e-07) (24, -5.01701151733868755400e-08) (25, 3.66636387916230432893e-09) (26, -2.68210005316404931364e-08) (27, -4.97042407232584082521e-08) (28, -1.19402141507407577592e-08) (29, -2.23006679789250483736e-08) (30, -2.68835531613831335562e-08) (31, -3.08767518220065539936e-08) (32, -7.08836944696145110356e-09) (33, 1.58013655493505211780e-08) (34, 9.80161729557949001901e-08) (24, -4.00980759707181277918e-08) (25, 2.92649815492040943354e-09) (26, -2.14309778812094009481e-08) (27, -3.97218471448468335439e-08) (28, -9.54127621355382871116e-09) (29, -1.78247123727715006680e-08) (30, -2.14872546422384402831e-08) (31, -2.46775098133866777061e-08) (32, -5.66248070654751245456e-09) (33, 1.26312027504127399880e-08) (34, 7.83330165177176240832e-08) (24, -3.22577413669478119118e-08) (25, 2.35530905889902442141e-09) (26, -1.72386851460260004387e-08) (27, -3.19535935489057010273e-08) (28, -7.67605978779783981736e-09) (29, -1.43408760422403247503e-08) (30, -1.72851066793100471841e-08) (31, -1.98520435645832549199e-08) (32, -4.55434312485181180818e-09) (33, 1.01637906979590297851e-08) (34, 6.30179215477255638689e-08) (24, -2.61210733043526488473e-08) (25, 1.91000149030173815845e-09) (26, -1.39588687275704614876e-08) (27, -2.58741845726717656362e-08) (28, -6.21697227032314003736e-09) (29, -1.16142535588892314991e-08) (30, -1.39954492439642308454e-08) (31, -1.60751394417957271799e-08) (32, -3.68781161164122295304e-09) (33, 8.23283219375525732175e-09) (34, 5.10333393322071060538e-08) (24, -2.12912869557158046518e-08) (25, 1.56018542529778869721e-09) (26, -1.13781659649703215109e-08) (27, -2.10899795405339318677e-08) (28, -5.06889819007483310997e-09) (29, -9.46833722537121502683e-09) (30, -1.14060982880914707494e-08) (31, -1.31026771654774165654e-08) (32, -3.00616842530132544198e-09) (33, 6.71290045772821031278e-09) (34, 4.16019005911039130297e-08) (24, -1.08662489801645278931e-02) (25, 3.29413055442273616791e-03) (26, -7.24877510219812393188e-03) (27, -1.15222036838531494141e-02) (28, -3.67671810090541839600e-03) (29, -5.40954805910587310791e-03) (30, -4.76647587493062019348e-03) (31, -6.64102891460061073303e-03) (32, -2.27712932974100112915e-03) (33, 4.10487921908497810364e-03) (34, 2.47671287506818771362e-02) (24, -6.42691925168037414551e-03) (25, 2.03517591580748558044e-03) (26, -4.35790792107582092285e-03) (27, -6.86045037582516670227e-03) (28, -2.21314583905041217804e-03) (29, -3.20807145908474922180e-03) (30, -2.78476532548666000366e-03) (31, -3.92895936965942382812e-03) (32, -1.37264747172594070435e-03) (33, 2.41952878423035144806e-03) (34, 1.47805931046605110168e-02) (24, -3.82765778340399265289e-03) (25, 1.26843829639256000519e-03) (26, -2.64332932420074939728e-03) (27, -4.11749957129359245300e-03) (28, -1.34326133411377668381e-03) (29, -1.91502494271844625473e-03) (30, -1.63661362603306770325e-03) (31, -2.34112422913312911987e-03) (32, -8.34339356515556573868e-04) (33, 1.43254140857607126236e-03) (34, 8.88979248702526092529e-03) (24, -2.29508825577795505524e-03) (25, 7.97708460595458745956e-04) (26, -1.61792302969843149185e-03) (27, -2.49122176319360733032e-03) (28, -8.22178961243480443954e-04) (29, -1.15034892223775386810e-03) (30, -9.67249798122793436050e-04) (31, -1.40485237352550029755e-03) (32, -5.11434569489210844040e-04) (33, 8.51269869599491357803e-04) (34, 5.38860773667693138123e-03) (24, -1.38524756766855716705e-03) (25, 5.06269861944019794464e-04) (26, -9.99518902972340583801e-04) (27, -1.51959748473018407822e-03) (28, -5.07541350089013576508e-04) (29, -6.95123279001563787460e-04) (30, -5.74670557398349046707e-04) (31, -8.48899071570485830307e-04) (32, -3.16207064315676689148e-04) (33, 5.07232907693833112717e-04) (34, 3.29194846563041210175e-03) (24, -8.41474975459277629852e-04) (25, 3.24276450555771589279e-04) (26, -6.23332336544990539551e-04) (27, -9.34550247620791196823e-04) (28, -3.16004996420815587044e-04) (29, -4.22402954427525401115e-04) (30, -3.43112158589065074921e-04) (31, -5.16507017891854047775e-04) (32, -1.97210611077025532722e-04) (33, 3.02754197036847472191e-04) (34, 2.02683708630502223969e-03) (24, -5.14386920258402824402e-04) (25, 2.09599078516475856304e-04) (26, -3.92438581911846995354e-04) (27, -5.79526240471750497818e-04) (28, -1.98453795746900141239e-04) (29, -2.58049316471442580223e-04) (30, -2.05814663786441087723e-04) (31, -3.16421734169125556946e-04) (32, -1.24081183457747101784e-04) (33, 1.80834787897765636444e-04) (34, 1.25770666636526584625e-03) (24, -3.16401507006958127022e-04) (25, 1.36683855089358985424e-04) (26, -2.49422504566609859467e-04) (27, -3.62370454240590333939e-04) (28, -1.25704464153386652470e-04) (29, -1.58449489390477538109e-04) (30, -1.24007172416895627975e-04) (31, -1.95179731235839426517e-04) (32, -7.87637181929312646389e-05) (33, 1.07991974800825119019e-04) (34, 7.86564953159540891647e-04) (24, -1.95818807696923613548e-04) (25, 8.99050792213529348373e-05) (26, -1.60028284881263971329e-04) (27, -2.28494158363901078701e-04) (28, -8.03099392214789986610e-05) (29, -9.77620584308169782162e-05) (30, -7.50367835280485451221e-05) (31, -1.21221019071526825428e-04) (32, -5.04433955939020961523e-05) (33, 6.43905514152720570564e-05) (34, 4.95773798320442438126e-04) (24, -1.21939752716571092606e-04) (25, 5.96183090237900614738e-05) (26, -1.03627862699795514345e-04) (27, -1.45292055094614624977e-04) (28, -5.17420448886696249247e-05) (29, -6.05992245255038142204e-05) (30, -4.56009147455915808678e-05) (31, -7.58139212848618626595e-05) (32, -3.25897708535194396973e-05) (33, 3.82892139896284788847e-05) (34, 3.14936827635392546654e-04) (24, -7.64225333114154636860e-05) (25, 3.98237134504597634077e-05) (26, -6.77021816954948008060e-05) (27, -9.31658869376406073570e-05) (28, -3.36097036779392510653e-05) (29, -3.77425058104563504457e-05) (30, -2.78452644124627113342e-05) (31, -4.77590147056616842747e-05) (32, -2.12362683669198304415e-05) (33, 2.26894262596033513546e-05) (34, 2.01627466594800353050e-04) (24, -4.82311224914155900478e-05) (25, 2.67620180238736793399e-05) (26, -4.45917285105679184198e-05) (27, -6.02389591222163289785e-05) (28, -2.20000001718290150166e-05) (29, -2.36337764363270252943e-05) (30, -1.71056199178565293550e-05) (31, -3.03176930174231529236e-05) (32, -1.39487401611404493451e-05) (33, 1.34037845782586373389e-05) (34, 1.30090222228318452835e-04) (24, -3.06784713757224380970e-05) (25, 1.80661882041022181511e-05) (26, -2.95824829663615673780e-05) (27, -3.92681686207652091980e-05) (28, -1.45025132951559498906e-05) (29, -1.48948292917339131236e-05) (30, -1.05928802440757863224e-05) (31, -1.94066869880771264434e-05) (32, -9.22844719752902165055e-06) (33, 7.90790090832160785794e-06) (34, 8.45839385874569416046e-05) (24, -1.96837117982795462012e-05) (25, 1.22352976177353411913e-05) (26, -1.97539593500550836325e-05) (27, -2.58070340350968763232e-05) (28, -9.62245576374698430300e-06) (29, -9.45590909395832568407e-06) (30, -6.62909451421000994742e-06) (31, -1.25353535622707568109e-05) (32, -6.14587452218984253705e-06) (33, 4.66555547973257489502e-06) (34, 5.54187972738873213530e-05) (24, -1.27544617498642764986e-05) (25, 8.30006501928437501192e-06) (26, -1.32666045828955247998e-05) (27, -1.70980438269907608628e-05) (28, -6.42109534965129569173e-06) (29, -6.05434888711897656322e-06) (30, -4.20754213337204419076e-06) (31, -8.17784075479721650481e-06) (32, -4.11628343499614857137e-06) (33, 2.76172386293183080852e-06) (34, 3.65865089406725019217e-05) (24, -8.35877290228381752968e-06) (25, 5.62897503186832182109e-06) (26, -8.95195807970594614744e-06) (27, -1.14193317131139338017e-05) (28, -4.30573254561750218272e-06) (29, -3.91642606700770556927e-06) (30, -2.72122747446701396257e-06) (31, -5.39458960702177137136e-06) (32, -2.76992045655788388103e-06) (33, 1.65073424795991741121e-06) (34, 2.43357771978480741382e-05) (24, -5.55073529540095478296e-06) (25, 3.80711571779102087021e-06) (26, -6.06231924393796361983e-06) (27, -7.68783957028063014150e-06) (28, -2.89816875920223537832e-06) (29, -2.56538601206557359546e-06) (30, -1.80346273737086448818e-06) (31, -3.60309923053137026727e-06) (32, -1.87011664820602163672e-06) (33, 1.00665113222930813208e-06) (34, 1.63073782459832727909e-05) (24, -3.74253340851282700896e-06) (25, 2.56048906521755270660e-06) (26, -4.11511155107291415334e-06) (27, -5.21674610354239121079e-06) (28, -1.95559186977334320545e-06) (29, -1.70586747572087915614e-06) (30, -1.23177915156702511013e-06) (31, -2.44014358941058162600e-06) (32, -1.26495115182478912175e-06) (33, 6.35535343462834134698e-07) (34, 1.10073142423061653972e-05) (24, -2.56689122579700779170e-06) (25, 1.70640396390808746219e-06) (26, -2.79620826404425315559e-06) (27, -3.56789632860454730690e-06) (28, -1.32106879391358233988e-06) (29, -1.15465741146181244403e-06) (30, -8.70613575898460112512e-07) (31, -1.67788368798937881365e-06) (32, -8.55779148878355044872e-07) (33, 4.22068239913642173633e-07) (34, 7.48317688703536987305e-06) (24, -1.79336029759724624455e-06) (25, 1.12237933080905349925e-06) (26, -1.89969591701810713857e-06) (27, -2.45924002229003235698e-06) (28, -8.92253240181162254885e-07) (29, -7.97272775798774091527e-07) (30, -6.37327957520028576255e-07) (31, -1.17237846097850706428e-06) (32, -5.78110928017849801108e-07) (33, 2.98127901032785302959e-07) (34, 5.12321184942265972495e-06) (24, -1.27664191040821606293e-06) (25, 7.25351981145649915561e-07) (26, -1.28927558762370608747e-06) (27, -1.70821806477761128917e-06) (28, -6.01840213221294106916e-07) (29, -5.62131106107699451968e-07) (30, -4.81581082567572593689e-07) (31, -8.32456066746090073138e-07) (32, -3.89412605272809742019e-07) (33, 2.23807745669546420686e-07) (34, 3.53200175595702603459e-06) (24, -9.24864650642120977864e-07) (25, 4.58492053212466998957e-07) (26, -8.73831481840170454234e-07) (27, -1.19561877909291069955e-06) (28, -4.05224710675611277111e-07) (29, -4.04382319629803532735e-07) (30, -3.72889246591512346640e-07) (31, -6.00056750954536255449e-07) (32, -2.61342989915647194721e-07) (33, 1.76242352267763635609e-07) (34, 2.45200158133229706436e-06) (24, -6.79949891946307616308e-07) (25, 2.82296781506374827586e-07) (26, -5.91887385326117509976e-07) (27, -8.43124041693954495713e-07) (28, -2.72500500386740895920e-07) (29, -2.96011734235435142182e-07) (30, -2.93028875830714241602e-07) (31, -4.38100215660597314127e-07) (32, -1.74799822616478195414e-07) (33, 1.42738244335305353161e-07) (34, 1.71430667705863015726e-06) (24, -5.05275409068417502567e-07) (25, 1.68870613492799748201e-07) (26, -4.01466877519851550460e-07) (27, -5.98913061367056798190e-07) (28, -1.83367674821965920273e-07) (29, -2.19537596990448946599e-07) (30, -2.31420017371419817209e-07) (31, -3.22940195474075153470e-07) (32, -1.16745340505985950585e-07) (33, 1.16625010093684977619e-07) (34, 1.20733307085174601525e-06) (24, -3.77815212004861677997e-07) (25, 9.82399939175593317486e-08) (26, -2.73592064559124992229e-07) (27, -4.28471082614123588428e-07) (28, -1.23913466154590423685e-07) (29, -1.64147621717347647063e-07) (30, -1.82149562988342950121e-07) (31, -2.39488059605719172396e-07) (32, -7.81669768912252038717e-08) (33, 9.47648501892217609566e-08) (34, 8.56815233873930992559e-07) (24, -2.83134966139186872169e-07) (25, 5.59619515172471437836e-08) (26, -1.88132958101050462574e-07) (27, -3.08672383653174620122e-07) (28, -8.44945446942801936530e-08) (29, -1.23164781484774721321e-07) (30, -1.42085895049604005180e-07) (31, -1.78105963755115226377e-07) (32, -5.27597698862791730789e-08) (33, 7.59219389578902337234e-08) (34, 6.12971803093387279660e-07) (24, -2.12090171203271893319e-07) (25, 3.17039763331194990315e-08) (26, -1.31084306076445500366e-07) (27, -2.23911584384950401727e-07) (28, -5.84234172151809616480e-08) (29, -9.24362311138793302234e-08) (30, -1.09568610184851422673e-07) (31, -1.32557119059129036032e-07) (32, -3.61151428762696014019e-08) (33, 5.97663216694854781963e-08) (34, 4.42214712847999180667e-07) (24, -1.58659759108559228480e-07) (25, 1.82959070116339717060e-08) (26, -9.28122219079341448378e-08) (27, -1.63565928801290283445e-07) (28, -4.11064071670352859655e-08) (29, -6.92923407541456981562e-08) (30, -8.35771700735676859040e-08) (31, -9.86712009876100637484e-08) (32, -2.51876812740192690399e-08) (33, 4.62662903544241999043e-08) (34, 3.21771466360587510280e-07) (24, -1.18627184519937145524e-07) (25, 1.10309175127554226492e-08) (26, -6.68243913537480693776e-08) (27, -1.20350264865010103676e-07) (28, -2.94582935822518265923e-08) (29, -5.19017540057120640995e-08) (30, -6.32495797958654293325e-08) (31, -7.35169649601630226243e-08) (32, -1.79277446221703939955e-08) (33, 3.53513058826138149016e-08) (34, 2.36148750332176859956e-07) (24, -8.88133371290678041987e-08) (25, 7.05262070965773091302e-09) (26, -4.88632423412127536722e-08) (27, -8.92122429263508820441e-08) (28, -2.14713473667416110402e-08) (29, -3.89091034946886793477e-08) (30, -4.76876849120344559196e-08) (31, -5.49159331342252698960e-08) (32, -1.30054012004165997496e-08) (33, 2.68043685025531885913e-08) (34, 1.74777355255173461046e-07) (24, -6.67222934680467005819e-08) (25, 4.77300421408699548920e-09) (26, -3.62053818037111341255e-08) (27, -6.66350601363774330821e-08) (28, -1.58759618784642952960e-08) (29, -2.92560500270155898761e-08) (30, -3.59674672267829009797e-08) (31, -4.12000282778990367660e-08) (32, -9.58694634789480915060e-09) (33, 2.02766727852576877922e-08) (34, 1.30423657651590474416e-07) (24, -5.03870225543323613238e-08) (25, 3.37692140917056349281e-09) (26, -2.71253153272255076445e-08) (27, -5.01544192843539349269e-08) (28, -1.18788117120516290015e-08) (29, -2.21049276660778559744e-08) (30, -2.72214677465854038019e-08) (31, -3.10881169696131109959e-08) (32, -7.15963066610925125133e-09) (33, 1.53692063520338706439e-08) (34, 9.81126930810205521993e-08) (24, -3.82926863551347196335e-08) (25, 2.46472620091253702412e-09) (26, -2.05181791557151882444e-08) (27, -3.80413993639194814023e-08) (28, -8.97837448832206064253e-09) (29, -1.68050267035368960933e-08) (30, -2.07137134111690102145e-08) (31, -2.36146107113199832384e-08) (32, -5.40468292342666245531e-09) (33, 1.17051364156850468135e-08) (34, 7.43935331115608278196e-08) (24, -2.93048021404729297501e-08) (25, 1.83901593953095243705e-09) (26, -1.56566386522172251716e-08) (27, -2.90769524013967384235e-08) (28, -6.84809231543681562471e-09) (29, -1.28642652086341513495e-08) (30, -1.58635895530778725515e-08) (31, -1.80663324300667227362e-08) (32, -4.11884482076629865333e-09) (33, 8.97053187287610853673e-09) (34, 5.68535689637883479008e-08) (24, -2.25909655426903555053e-08) (25, 1.39502587259698884736e-09) (26, -1.20465593056451325538e-08) (27, -2.23971152735202849726e-08) (28, -5.26809262879623929621e-09) (29, -9.91954340889833474648e-09) (30, -1.22343957187354135385e-08) (31, -1.39243168106872872158e-08) (32, -3.16646353581973016844e-09) (33, 6.92281565406460686063e-09) (34, 4.37898783900436683325e-08) (24, -1.75459717866033315659e-08) (25, 1.07248998570952380760e-09) (26, -9.34425870013910753187e-09) (27, -1.73857035434821227682e-08) (28, -4.08618427982787579822e-09) (29, -7.70616903622567406273e-09) (30, -9.50444167813202511752e-09) (31, -1.08130482345814016298e-08) (32, -2.45483966487825000513e-09) (33, 5.38159472540655769990e-09) (34, 3.39918599934208032209e-08) (24, -1.37311930714645313856e-08) (25, 8.34116387071759390892e-10) (26, -7.30622273792391752067e-09) (27, -1.36004141282342061459e-08) (28, -3.19514481539329153748e-09) (29, -6.03210015270860822056e-09) (30, -7.43883354914487426868e-09) (31, -8.46114911468021091423e-09) (32, -1.91878757327401672228e-09) (33, 4.21470858213979227003e-09) (34, 2.65922466269330470823e-08) (24, -1.08281597022141795605e-08) (25, 6.55428711304750777344e-10) (26, -5.75809178116060138564e-09) (27, -1.07220987644041088060e-08) (28, -2.51842302567695242033e-09) (29, -4.75784345255192420154e-09) (30, -5.86630077847871689301e-09) (31, -6.67171562440671550576e-09) (32, -1.51188439545535402431e-09) (33, 3.32582028583772171260e-09) (34, 2.09658033156756573590e-08) (24, -8.60463789109644494602e-09) (25, 5.19961851352945814142e-10) (26, -4.57382576257714390522e-09) (27, -8.51868264817312592641e-09) (28, -2.00076977208141215669e-09) (29, -3.78159192848670500098e-09) (30, -4.66155070100171542435e-09) (31, -5.30135180198954003572e-09) (32, -1.20078824661362659754e-09) (33, 2.64438715369408328115e-09) (34, 1.66587046379618186620e-08) (24, -7.84486457705497741699e-02) (25, 5.35531761124730110168e-03) (26, -4.19441983103752136230e-02) (27, -7.77722373604774475098e-02) (28, -1.85152217745780944824e-02) (29, -3.46832871437072753906e-02) (30, -4.22321893274784088135e-02) (31, -4.83163483440876007080e-02) (32, -1.10924476757645606995e-02) (33, 2.44073122739791870117e-02) (34, 1.52756229043006896973e-01) (24, -3.54169279336929321289e-01) (25, 3.21229472756385803223e-02) (26, -1.92425280809402465820e-01) (27, -3.52589040994644165039e-01) (28, -8.71293768286705017090e-02) (29, -1.59073427319526672363e-01) (30, -1.87328338623046875000e-01) (31, -2.17991486191749572754e-01) (32, -5.17889223992824554443e-02) (33, 1.13891862332820892334e-01) (34, 7.01077044010162353516e-01) (24, 2.38495934754610061646e-02) (25, -3.18591645918786525726e-03) (26, 1.39624867588281631470e-02) (27, 2.46734898537397384644e-02) (28, 6.35728845372796058655e-03) (29, 1.03314081206917762756e-02) (30, 1.25461192801594734192e-02) (31, 1.48902134969830513000e-02) (32, 3.80332395434379577637e-03) (33, -7.22819427028298377991e-03) (34, 2.98137784004211425781e-01) (24, 3.32823419570922851562e+00) (25, -4.21112656593322753906e-01) (26, 1.92543649673461914062e+00) (27, 3.42128896713256835938e+00) (28, 8.75852286815643310547e-01) (29, 1.45143949985504150391e+00) (30, 1.75161826610565185547e+00) (31, 2.07269525527954101562e+00) (32, 5.23735582828521728516e-01) (33, -1.01916122436523437500e+00) (34, 4.21256294250488281250e+01) 
