FANN_FLO_2.1
num_layers=5
learning_rate=0.700000
connection_rate=1.000000
network_type=0
learning_momentum=0.000000
training_algorithm=2
train_error_function=1
train_stop_function=0
cascade_output_change_fraction=0.010000
quickprop_decay=-0.000100
quickprop_mu=1.750000
rprop_increase_factor=1.200000
rprop_decrease_factor=0.500000
rprop_delta_min=0.000000
rprop_delta_max=50.000000
rprop_delta_zero=0.100000
cascade_output_stagnation_epochs=12
cascade_candidate_change_fraction=0.010000
cascade_candidate_stagnation_epochs=12
cascade_max_out_epochs=150
cascade_min_out_epochs=50
cascade_max_cand_epochs=150
cascade_min_cand_epochs=50
cascade_num_candidate_groups=2
bit_fail_limit=3.49999994039535522461e-01
cascade_candidate_limit=1.00000000000000000000e+03
cascade_weight_multiplier=4.00000005960464477539e-01
cascade_activation_functions_count=10
cascade_activation_functions=3 5 7 8 10 11 14 15 16 17 
cascade_activation_steepnesses_count=4
cascade_activation_steepnesses=2.50000000000000000000e-01 5.00000000000000000000e-01 7.50000000000000000000e-01 1.00000000000000000000e+00 
layer_sizes=2 51 51 51 127 
scale_included=0
neurons (num_inputs, activation_function, activation_steepness)=(0, 0, 0.00000000000000000000e+00) (0, 0, 0.00000000000000000000e+00) (2, 5, 5.00000000000000000000e-01) (2, 5, 5.00000000000000000000e-01) (2, 5, 5.00000000000000000000e-01) (2, 5, 5.00000000000000000000e-01) (2, 5, 5.00000000000000000000e-01) (2, 5, 5.00000000000000000000e-01) (2, 5, 5.00000000000000000000e-01) (2, 5, 5.00000000000000000000e-01) (2, 5, 5.00000000000000000000e-01) (2, 5, 5.00000000000000000000e-01) (2, 5, 5.00000000000000000000e-01) (2, 5, 5.00000000000000000000e-01) (2, 5, 5.00000000000000000000e-01) (2, 5, 5.00000000000000000000e-01) (2, 5, 5.00000000000000000000e-01) (2, 5, 5.00000000000000000000e-01) (2, 5, 5.00000000000000000000e-01) (2, 5, 5.00000000000000000000e-01) (2, 5, 5.00000000000000000000e-01) (2, 5, 5.00000000000000000000e-01) (2, 5, 5.00000000000000000000e-01) (2, 5, 5.00000000000000000000e-01) (2, 5, 5.00000000000000000000e-01) (2, 5, 5.00000000000000000000e-01) (2, 5, 5.00000000000000000000e-01) (2, 5, 5.00000000000000000000e-01) (2, 5, 5.00000000000000000000e-01) (2, 5, 5.00000000000000000000e-01) (2, 5, 5.00000000000000000000e-01) (2, 5, 5.00000000000000000000e-01) (2, 5, 5.00000000000000000000e-01) (2, 5, 5.00000000000000000000e-01) (2, 5, 5.00000000000000000000e-01) (2, 5, 5.00000000000000000000e-01) (2, 5, 5.00000000000000000000e-01) (2, 5, 5.00000000000000000000e-01) (2, 5, 5.00000000000000000000e-01) (2, 5, 5.00000000000000000000e-01) (2, 5, 5.00000000000000000000e-01) (2, 5, 5.00000000000000000000e-01) (2, 5, 5.00000000000000000000e-01) (2, 5, 5.00000000000000000000e-01) (2, 5, 5.00000000000000000000e-01) (2, 5, 5.00000000000000000000e-01) (2, 5, 5.00000000000000000000e-01) (2, 5, 5.00000000000000000000e-01) (2, 5, 5.00000000000000000000e-01) (2, 5, 5.00000000000000000000e-01) (2, 5, 5.00000000000000000000e-01) (2, 5, 5.00000000000000000000e-01) (0, 5, 0.00000000000000000000e+00) (51, 5, 5.00000000000000000000e-01) (51, 5, 5.00000000000000000000e-01) (51, 5, 5.00000000000000000000e-01) (51, 5, 5.00000000000000000000e-01) (51, 5, 5.00000000000000000000e-01) (51, 5, 5.00000000000000000000e-01) (51, 5, 5.00000000000000000000e-01) (51, 5, 5.00000000000000000000e-01) (51, 5, 5.00000000000000000000e-01) (51, 5, 5.00000000000000000000e-01) (51, 5, 5.00000000000000000000e-01) (51, 5, 5.00000000000000000000e-01) (51, 5, 5.00000000000000000000e-01) (51, 5, 5.00000000000000000000e-01) (51, 5, 5.00000000000000000000e-01) (51, 5, 5.00000000000000000000e-01) (51, 5, 5.00000000000000000000e-01) (51, 5, 5.00000000000000000000e-01) (51, 5, 5.00000000000000000000e-01) (51, 5, 5.00000000000000000000e-01) (51, 5, 5.00000000000000000000e-01) (51, 5, 5.00000000000000000000e-01) (51, 5, 5.00000000000000000000e-01) (51, 5, 5.00000000000000000000e-01) (51, 5, 5.00000000000000000000e-01) (51, 5, 5.00000000000000000000e-01) (51, 5, 5.00000000000000000000e-01) (51, 5, 5.00000000000000000000e-01) (51, 5, 5.00000000000000000000e-01) (51, 5, 5.00000000000000000000e-01) (51, 5, 5.00000000000000000000e-01) (51, 5, 5.00000000000000000000e-01) (51, 5, 5.00000000000000000000e-01) (51, 5, 5.00000000000000000000e-01) (51, 5, 5.00000000000000000000e-01) (51, 5, 5.00000000000000000000e-01) (51, 5, 5.00000000000000000000e-01) (51, 5, 5.00000000000000000000e-01) (51, 5, 5.00000000000000000000e-01) (51, 5, 5.00000000000000000000e-01) (51, 5, 5.00000000000000000000e-01) (51, 5, 5.00000000000000000000e-01) (51, 5, 5.00000000000000000000e-01) (51, 5, 5.00000000000000000000e-01) (51, 5, 5.00000000000000000000e-01) (51, 5, 5.00000000000000000000e-01) (51, 5, 5.00000000000000000000e-01) (51, 5, 5.00000000000000000000e-01) (51, 5, 5.00000000000000000000e-01) (51, 5, 5.00000000000000000000e-01) (0, 5, 0.00000000000000000000e+00) (51, 5, 5.00000000000000000000e-01) (51, 5, 5.00000000000000000000e-01) (51, 5, 5.00000000000000000000e-01) (51, 5, 5.00000000000000000000e-01) (51, 5, 5.00000000000000000000e-01) (51, 5, 5.00000000000000000000e-01) (51, 5, 5.00000000000000000000e-01) (51, 5, 5.00000000000000000000e-01) (51, 5, 5.00000000000000000000e-01) (51, 5, 5.00000000000000000000e-01) (51, 5, 5.00000000000000000000e-01) (51, 5, 5.00000000000000000000e-01) (51, 5, 5.00000000000000000000e-01) (51, 5, 5.00000000000000000000e-01) (51, 5, 5.00000000000000000000e-01) (51, 5, 5.00000000000000000000e-01) (51, 5, 5.00000000000000000000e-01) (51, 5, 5.00000000000000000000e-01) (51, 5, 5.00000000000000000000e-01) (51, 5, 5.00000000000000000000e-01) (51, 5, 5.00000000000000000000e-01) (51, 5, 5.00000000000000000000e-01) (51, 5, 5.00000000000000000000e-01) (51, 5, 5.00000000000000000000e-01) (51, 5, 5.00000000000000000000e-01) (51, 5, 5.00000000000000000000e-01) (51, 5, 5.00000000000000000000e-01) (51, 5, 5.00000000000000000000e-01) (51, 5, 5.00000000000000000000e-01) (51, 5, 5.00000000000000000000e-01) (51, 5, 5.00000000000000000000e-01) (51, 5, 5.00000000000000000000e-01) (51, 5, 5.00000000000000000000e-01) (51, 5, 5.00000000000000000000e-01) (51, 5, 5.00000000000000000000e-01) (51, 5, 5.00000000000000000000e-01) (51, 5, 5.00000000000000000000e-01) (51, 5, 5.00000000000000000000e-01) (51, 5, 5.00000000000000000000e-01) (51, 5, 5.00000000000000000000e-01) (51, 5, 5.00000000000000000000e-01) (51, 5, 5.00000000000000000000e-01) (51, 5, 5.00000000000000000000e-01) (51, 5, 5.00000000000000000000e-01) (51, 5, 5.00000000000000000000e-01) (51, 5, 5.00000000000000000000e-01) (51, 5, 5.00000000000000000000e-01) (51, 5, 5.00000000000000000000e-01) (51, 5, 5.00000000000000000000e-01) (51, 5, 5.00000000000000000000e-01) (0, 5, 0.00000000000000000000e+00) (51, 0, 5.00000000000000000000e-01) (51, 0, 5.00000000000000000000e-01) (51, 0, 5.00000000000000000000e-01) (51, 0, 5.00000000000000000000e-01) (51, 0, 5.00000000000000000000e-01) (51, 0, 5.00000000000000000000e-01) (51, 0, 5.00000000000000000000e-01) (51, 0, 5.00000000000000000000e-01) (51, 0, 5.00000000000000000000e-01) (51, 0, 5.00000000000000000000e-01) (51, 0, 5.00000000000000000000e-01) (51, 0, 5.00000000000000000000e-01) (51, 0, 5.00000000000000000000e-01) (51, 0, 5.00000000000000000000e-01) (51, 0, 5.00000000000000000000e-01) (51, 0, 5.00000000000000000000e-01) (51, 0, 5.00000000000000000000e-01) (51, 0, 5.00000000000000000000e-01) (51, 0, 5.00000000000000000000e-01) (51, 0, 5.00000000000000000000e-01) (51, 0, 5.00000000000000000000e-01) (51, 0, 5.00000000000000000000e-01) (51, 0, 5.00000000000000000000e-01) (51, 0, 5.00000000000000000000e-01) (51, 0, 5.00000000000000000000e-01) (51, 0, 5.00000000000000000000e-01) (51, 0, 5.00000000000000000000e-01) (51, 0, 5.00000000000000000000e-01) (51, 0, 5.00000000000000000000e-01) (51, 0, 5.00000000000000000000e-01) (51, 0, 5.00000000000000000000e-01) (51, 0, 5.00000000000000000000e-01) (51, 0, 5.00000000000000000000e-01) (51, 0, 5.00000000000000000000e-01) (51, 0, 5.00000000000000000000e-01) (51, 0, 5.00000000000000000000e-01) (51, 0, 5.00000000000000000000e-01) (51, 0, 5.00000000000000000000e-01) (51, 0, 5.00000000000000000000e-01) (51, 0, 5.00000000000000000000e-01) (51, 0, 5.00000000000000000000e-01) (51, 0, 5.00000000000000000000e-01) (51, 0, 5.00000000000000000000e-01) (51, 0, 5.00000000000000000000e-01) (51, 0, 5.00000000000000000000e-01) (51, 0, 5.00000000000000000000e-01) (51, 0, 5.00000000000000000000e-01) (51, 0, 5.00000000000000000000e-01) (51, 0, 5.00000000000000000000e-01) (51, 0, 5.00000000000000000000e-01) (51, 0, 5.00000000000000000000e-01) (51, 0, 5.00000000000000000000e-01) (51, 0, 5.00000000000000000000e-01) (51, 0, 5.00000000000000000000e-01) (51, 0, 5.00000000000000000000e-01) (51, 0, 5.00000000000000000000e-01) (51, 0, 5.00000000000000000000e-01) (51, 0, 5.00000000000000000000e-01) (51, 0, 5.00000000000000000000e-01) (51, 0, 5.00000000000000000000e-01) (51, 0, 5.00000000000000000000e-01) (51, 0, 5.00000000000000000000e-01) (51, 0, 5.00000000000000000000e-01) (51, 0, 5.00000000000000000000e-01) (51, 0, 5.00000000000000000000e-01) (51, 0, 5.00000000000000000000e-01) (51, 0, 5.00000000000000000000e-01) (51, 0, 5.00000000000000000000e-01) (51, 0, 5.00000000000000000000e-01) (51, 0, 5.00000000000000000000e-01) (51, 0, 5.00000000000000000000e-01) (51, 0, 5.00000000000000000000e-01) (51, 0, 5.00000000000000000000e-01) (51, 0, 5.00000000000000000000e-01) (51, 0, 5.00000000000000000000e-01) (51, 0, 5.00000000000000000000e-01) (51, 0, 5.00000000000000000000e-01) (51, 0, 5.00000000000000000000e-01) (51, 0, 5.00000000000000000000e-01) (51, 0, 5.00000000000000000000e-01) (51, 0, 5.00000000000000000000e-01) (51, 0, 5.00000000000000000000e-01) (51, 0, 5.00000000000000000000e-01) (51, 0, 5.00000000000000000000e-01) (51, 0, 5.00000000000000000000e-01) (51, 0, 5.00000000000000000000e-01) (51, 0, 5.00000000000000000000e-01) (51, 0, 5.00000000000000000000e-01) (51, 0, 5.00000000000000000000e-01) (51, 0, 5.00000000000000000000e-01) (51, 0, 5.00000000000000000000e-01) (51, 0, 5.00000000000000000000e-01) (51, 0, 5.00000000000000000000e-01) (51, 0, 5.00000000000000000000e-01) (51, 0, 5.00000000000000000000e-01) (51, 0, 5.00000000000000000000e-01) (51, 0, 5.00000000000000000000e-01) (51, 0, 5.00000000000000000000e-01) (51, 0, 5.00000000000000000000e-01) (51, 0, 5.00000000000000000000e-01) (51, 0, 5.00000000000000000000e-01) (51, 0, 5.00000000000000000000e-01) (51, 0, 5.00000000000000000000e-01) (51, 0, 5.00000000000000000000e-01) (51, 0, 5.00000000000000000000e-01) (51, 0, 5.00000000000000000000e-01) (51, 0, 5.00000000000000000000e-01) (51, 0, 5.00000000000000000000e-01) (51, 0, 5.00000000000000000000e-01) (51, 0, 5.00000000000000000000e-01) (51, 0, 5.00000000000000000000e-01) (51, 0, 5.00000000000000000000e-01) (51, 0, 5.00000000000000000000e-01) (51, 0, 5.00000000000000000000e-01) (51, 0, 5.00000000000000000000e-01) (51, 0, 5.00000000000000000000e-01) (51, 0, 5.00000000000000000000e-01) (51, 0, 5.00000000000000000000e-01) (51, 0, 5.00000000000000000000e-01) (51, 0, 5.00000000000000000000e-01) (51, 0, 5.00000000000000000000e-01) (51, 0, 5.00000000000000000000e-01) (51, 0, 5.00000000000000000000e-01) (51, 0, 5.00000000000000000000e-01) (51, 0, 5.00000000000000000000e-01) (51, 0, 5.00000000000000000000e-01) (0, 0, 0.00000000000000000000e+00) 
connections (connected_to_neuron, weight)=(0, -2.79650068283081054688e+00) (1, -1.50000000000000000000e+03) (0, -1.28874607086181640625e+01) (1, -1.47500000000000000000e+03) (0, 6.76439380645751953125e+00) (1, 1.50000000000000000000e+03) (0, -1.32768798828125000000e+03) (1, -1.48502441406250000000e+03) (0, 4.87875223159790039062e-01) (1, 1.50000000000000000000e+03) (0, -4.70907032489776611328e-01) (1, 5.96357643604278564453e-01) (0, -7.19510498046875000000e+01) (1, -1.47500000000000000000e+03) (0, 3.98709774017333984375e+00) (1, 1.50000000000000000000e+03) (0, -1.46901330566406250000e+03) (1, -1.50000000000000000000e+03) (0, -1.48595910644531250000e+03) (1, -1.48502441406250000000e+03) (0, -1.24475486576557159424e-01) (1, 6.40036821365356445312e+00) (0, -3.97636818885803222656e+00) (1, -1.50000000000000000000e+03) (0, 1.50000000000000000000e+03) (1, 1.50000000000000000000e+03) (0, -1.00661114501953125000e+03) (1, -1.47500000000000000000e+03) (0, -1.85368469238281250000e+02) (1, -3.08021664619445800781e+00) (0, -7.71334916353225708008e-02) (1, 5.51431579589843750000e+01) (0, 1.49842675781250000000e+03) (1, 1.50000000000000000000e+03) (0, -4.38084268569946289062e+00) (1, -1.50000000000000000000e+03) (0, -1.48827612304687500000e+03) (1, -1.48502441406250000000e+03) (0, -2.17580318450927734375e+01) (1, -1.50000000000000000000e+03) (0, -7.78762130737304687500e+01) (1, -1.50000000000000000000e+03) (0, 9.35952439904212951660e-02) (1, -1.66295635700225830078e+00) (0, -1.49196374511718750000e+03) (1, -1.48502441406250000000e+03) (0, 1.47383797168731689453e+00) (1, 1.50000000000000000000e+03) (0, -7.76255004882812500000e+02) (1, -1.47500000000000000000e+03) (0, -2.95667209625244140625e+01) (1, -1.47500000000000000000e+03) (0, 2.12097406387329101562e-01) (1, 1.50000000000000000000e+03) (0, -1.05243501663208007812e+01) (1, 1.63200798034667968750e+01) (0, -1.46061630249023437500e+01) (1, -1.50000000000000000000e+03) (0, -8.13864886760711669922e-01) (1, 1.24580454826354980469e+00) (0, 4.07172546386718750000e+02) (1, 1.50000000000000000000e+03) (0, -1.85759029388427734375e+01) (1, -1.47500000000000000000e+03) (0, -1.48861108398437500000e+03) (1, -1.50000000000000000000e+03) (0, -1.00487831115722656250e+02) (1, -1.50000000000000000000e+03) (0, 1.36319780722260475159e-04) (1, 2.47951269149780273438e+00) (0, -7.72651062011718750000e+01) (1, -1.47500000000000000000e+03) (0, -6.73337697982788085938e-01) (1, 1.94942831993103027344e+00) (0, 3.13976335525512695312e+00) (1, 1.50000000000000000000e+03) (0, -8.05535004474222660065e-04) (1, 4.20039892196655273438e+00) (0, 1.02327270507812500000e+01) (1, 1.50000000000000000000e+03) (0, 1.18534334003925323486e-01) (1, 8.57625663280487060547e-01) (0, 3.07506799697875976562e+00) (1, 5.45893310546875000000e+02) (0, 1.49787207031250000000e+03) (1, 1.50000000000000000000e+03) (0, -1.50000000000000000000e+03) (1, -1.50000000000000000000e+03) (0, 4.93721099853515625000e+02) (1, 1.50000000000000000000e+03) (0, -3.42261085510253906250e+01) (1, -1.48502441406250000000e+03) (0, 5.77015392482280731201e-02) (1, 2.23369288444519042969e+00) (0, -8.82154256105422973633e-02) (1, 4.17263269424438476562e+00) (0, -3.30365777015686035156e-01) (1, 4.87373208999633789062e+00) (0, -1.91565975546836853027e-01) (1, 1.10093658447265625000e+02) (2, 7.29600787162780761719e-01) (3, -1.48847386240959167480e-01) (4, 7.53730833530426025391e-01) (5, 1.32149741053581237793e-01) (6, 9.63793694972991943359e-01) (7, 7.84262835979461669922e-01) (8, -1.81150630116462707520e-01) (9, 8.85858774185180664062e-01) (10, 3.05452328175306320190e-02) (11, -9.29186269640922546387e-02) (12, 6.59708380699157714844e-01) (13, -7.56821557879447937012e-02) (14, 1.81069582700729370117e-01) (15, -1.50775805115699768066e-01) (16, 2.10278764367103576660e-01) (17, 2.10664138197898864746e-01) (18, 2.51202732324600219727e-01) (19, 6.39389872550964355469e-01) (20, 8.45225527882575988770e-02) (21, 4.48914527893066406250e-01) (22, 3.44176380895078182220e-03) (23, 1.30658924579620361328e-01) (24, 6.45008385181427001953e-02) (25, 9.74332928657531738281e-01) (26, -6.01926967501640319824e-02) (27, 8.43250826001167297363e-02) (28, 2.09527626633644104004e-01) (29, 9.33308154344558715820e-02) (30, 1.83520942926406860352e-01) (31, 5.92958271503448486328e-01) (32, 2.69052147865295410156e-01) (33, -1.51320472359657287598e-01) (34, 6.27245903015136718750e-01) (35, 9.89295765757560729980e-02) (36, 9.05492603778839111328e-01) (37, -5.28798885643482208252e-02) (38, 2.31539949774742126465e-01) (39, 4.38543170690536499023e-01) (40, -5.69732785224914550781e-01) (41, 3.53699415922164916992e-01) (42, 1.21399509906768798828e+00) (43, 9.78620052337646484375e-01) (44, 5.79139471054077148438e-01) (45, 3.09665501117706298828e-01) (46, 9.55879509449005126953e-01) (47, 1.08166523277759552002e-01) (48, 4.26537334918975830078e-01) (49, -9.66164320707321166992e-02) (50, 6.10359013080596923828e-01) (51, 3.50821316242218017578e-01) (52, 5.71827411651611328125e-01) (2, 7.84304738044738769531e-01) (3, 1.05499947071075439453e+00) (4, 1.10959005355834960938e+00) (5, 4.76118236780166625977e-01) (6, 4.22283411026000976562e-01) (7, 3.18648755550384521484e-01) (8, 1.28467047214508056641e+00) (9, 8.33264231681823730469e-01) (10, 3.46804440021514892578e-01) (11, 1.46931624412536621094e+00) (12, 2.73405164480209350586e-01) (13, 8.27350080013275146484e-01) (14, 6.47479712963104248047e-01) (15, 9.92834687232971191406e-01) (16, 5.08307628333568572998e-02) (17, -2.35116291046142578125e+01) (18, 6.74797356128692626953e-01) (19, 8.48088920116424560547e-01) (20, 5.85702180862426757812e-01) (21, 1.09347379207611083984e+00) (22, 7.07493901252746582031e-01) (23, 8.12841606140136718750e+00) (24, 1.11893963813781738281e+00) (25, 9.28707897663116455078e-01) (26, 9.90855932235717773438e-01) (27, 1.02878105640411376953e+00) (28, 1.04067349433898925781e+00) (29, -1.58712089061737060547e+00) (30, 7.13401706889271736145e-03) (31, 2.44240570068359375000e+00) (32, 6.24918818473815917969e-01) (33, 1.06386840343475341797e+00) (34, 9.56220746040344238281e-01) (35, 8.55460882186889648438e-01) (36, 3.30950945615768432617e-01) (37, 8.37917327880859375000e-01) (38, 1.67981541156768798828e+00) (39, 2.00302958488464355469e+00) (40, 7.55525946617126464844e-01) (41, 2.93624520301818847656e-01) (42, 4.08657044172286987305e-01) (43, 1.05001187324523925781e+00) (44, 1.92674145102500915527e-01) (45, 1.99533700942993164062e+00) (46, 7.46521472930908203125e-01) (47, 1.07963383197784423828e+00) (48, 8.84743213653564453125e-01) (49, 1.95606455206871032715e-01) (50, 8.53256434202194213867e-02) (51, 7.34799861907958984375e-01) (52, 1.12265002727508544922e+00) (2, 6.96157336235046386719e-01) (3, -3.66823971271514892578e-02) (4, 7.16429591178894042969e-01) (5, 3.34013223648071289062e-01) (6, 9.15947079658508300781e-01) (7, 7.09638953208923339844e-01) (8, 9.06761083751916885376e-03) (9, 6.92949295043945312500e-01) (10, 1.39260381460189819336e-01) (11, -1.00360222160816192627e-01) (12, 7.64559268951416015625e-01) (13, 7.18821212649345397949e-02) (14, 1.65404856204986572266e-01) (15, -6.47735223174095153809e-02) (16, 1.79327324032783508301e-01) (17, -6.96749150753021240234e-01) (18, 1.41552492976188659668e-01) (19, 5.28241693973541259766e-01) (20, 1.44887700676918029785e-01) (21, 4.51226681470870971680e-01) (22, 2.36287206411361694336e-01) (23, 2.84009426832199096680e-01) (24, 9.52718257904052734375e-02) (25, 6.78162574768066406250e-01) (26, -9.45278480648994445801e-02) (27, 6.52406439185142517090e-02) (28, -5.01928851008415222168e-02) (29, 5.05992710590362548828e-01) (30, 1.33989036083221435547e-01) (31, 5.55359184741973876953e-01) (32, 2.92417913675308227539e-01) (33, -9.16049778461456298828e-02) (34, 7.39240407943725585938e-01) (35, 2.64364451169967651367e-01) (36, 9.27668452262878417969e-01) (37, 1.59941285848617553711e-01) (38, 2.26417422294616699219e-01) (39, 3.46403270959854125977e-01) (40, 6.54321014881134033203e-01) (41, 3.20766329765319824219e-01) (42, 1.04425621032714843750e+00) (43, 8.83023023605346679688e-01) (44, 3.21635365486145019531e-01) (45, 2.46542468667030334473e-01) (46, 8.99933338165283203125e-01) (47, -7.96618089079856872559e-02) (48, 2.32205078005790710449e-01) (49, 8.64114984869956970215e-02) (50, 7.81831920146942138672e-01) (51, 3.04002821445465087891e-01) (52, 4.10834431648254394531e-01) (2, 1.00030338764190673828e+00) (3, 2.11811408400535583496e-01) (4, 7.51809716224670410156e-01) (5, 2.66919493675231933594e-01) (6, 6.80455327033996582031e-01) (7, 5.41396915912628173828e-01) (8, 2.30650678277015686035e-01) (9, 8.55758905410766601562e-01) (10, 1.46443042904138565063e-02) (11, 1.52121126651763916016e-01) (12, 4.85372215509414672852e-01) (13, 3.62372606992721557617e-01) (14, 3.14356833696365356445e-01) (15, 2.94939011335372924805e-01) (16, 1.02698497474193572998e-01) (17, -3.09550881385803222656e-01) (18, 8.24636757373809814453e-01) (19, 8.16531717777252197266e-01) (20, 2.72253509610891342163e-02) (21, 8.19604635238647460938e-01) (22, 4.44132179021835327148e-01) (23, 3.74057680368423461914e-01) (24, -1.74795538187026977539e-02) (25, 7.14953660964965820312e-01) (26, 2.83842921257019042969e-01) (27, 3.71407449245452880859e-01) (28, 1.39272823929786682129e-01) (29, 2.25635021924972534180e-01) (30, 3.47485929727554321289e-01) (31, 5.48320472240447998047e-01) (32, 5.80488204956054687500e-01) (33, 2.55281209945678710938e-01) (34, 8.27842533588409423828e-01) (35, 3.06792110204696655273e-01) (36, 6.18242740631103515625e-01) (37, 2.63273596763610839844e-01) (38, 9.64145287871360778809e-02) (39, 2.76047319173812866211e-01) (40, 6.98530733585357666016e-01) (41, 3.18920195102691650391e-01) (42, 6.67969763278961181641e-01) (43, 7.88126945495605468750e-01) (44, 1.55101060867309570312e+00) (45, 1.74286812543869018555e-01) (46, 5.93478083610534667969e-01) (47, 3.43398958444595336914e-01) (48, 3.58925729990005493164e-01) (49, -1.33605629205703735352e-01) (50, 6.24387502670288085938e-01) (51, 5.45439541339874267578e-01) (52, 3.36504191160202026367e-01) (2, 4.14020508527755737305e-01) (3, 1.18834149837493896484e+00) (4, -8.29432532191276550293e-02) (5, 6.47444546222686767578e-01) (6, -2.23304405808448791504e-01) (7, -1.67058169841766357422e-01) (8, 7.54487574100494384766e-01) (9, 2.96796172857284545898e-01) (10, 4.44465726613998413086e-01) (11, 1.22542083263397216797e+00) (12, 8.46596717834472656250e-01) (13, 6.10392510890960693359e-01) (14, 8.93486618995666503906e-01) (15, 1.16879105567932128906e+00) (16, -2.22795292735099792480e-01) (17, -1.29455015063285827637e-01) (18, 9.38438534736633300781e-01) (19, 1.93683765828609466553e-02) (20, 7.19670951366424560547e-01) (21, 2.96687841415405273438e-01) (22, 7.86691606044769287109e-01) (23, 6.89883053302764892578e-01) (24, 6.98892831802368164062e-01) (25, 1.92257955670356750488e-01) (26, 1.17077112197875976562e+00) (27, 8.30918729305267333984e-01) (28, 3.90984535217285156250e-01) (29, 2.49463632702827453613e-01) (30, 7.32030928134918212891e-01) (31, 7.22121357917785644531e-01) (32, 7.69686520099639892578e-01) (33, 8.79281818866729736328e-01) (34, -4.56565432250499725342e-02) (35, 7.16923236846923828125e-01) (36, -2.71023005247116088867e-01) (37, 6.85651838779449462891e-01) (38, 4.34362530708312988281e-01) (39, 4.14178520441055297852e-01) (40, -6.14820837974548339844e-01) (41, 7.28134036064147949219e-01) (42, 5.53352870047092437744e-02) (43, 1.78125405311584472656e+00) (44, -1.31660491228103637695e-01) (45, 4.19092565774917602539e-01) (46, -3.63302290439605712891e-01) (47, 4.57748234272003173828e-01) (48, 3.82509022951126098633e-01) (49, 2.37338733673095703125e+00) (50, -2.77441412210464477539e-01) (51, -6.99920728802680969238e-02) (52, 8.95989060401916503906e-01) (2, 1.87357559800148010254e-01) (3, 1.78158640861511230469e-01) (4, 8.18807959556579589844e-01) (5, -9.51761379837989807129e-02) (6, 8.60658824443817138672e-01) (7, 3.72957199811935424805e-01) (8, 3.54387789964675903320e-01) (9, 5.24534702301025390625e-01) (10, 5.23080945014953613281e-01) (11, 3.69027107954025268555e-01) (12, 6.05361580848693847656e-01) (13, -3.00130337476730346680e-01) (14, 2.25294992327690124512e-01) (15, 1.77125066518783569336e-01) (16, 6.63158178329467773438e-01) (17, 6.31601214408874511719e-01) (18, 3.77407938241958618164e-01) (19, 6.23220801353454589844e-01) (20, 1.73910486698150634766e+00) (21, 2.15177118778228759766e-01) (22, 2.28329539299011230469e-01) (23, 6.59603416919708251953e-01) (24, 4.87748908996582031250e+00) (25, 6.86778068542480468750e-01) (26, 4.47995632886886596680e-01) (27, 2.02654600143432617188e-01) (28, 6.77367389202117919922e-01) (29, 6.35821700096130371094e-01) (30, 4.48914438486099243164e-01) (31, 9.71562743186950683594e-01) (32, 5.88117480278015136719e-01) (33, 2.18787044286727905273e-01) (34, 5.12902259826660156250e-01) (35, -2.81271517276763916016e-01) (36, 5.17042815685272216797e-01) (37, -2.02134102582931518555e-01) (38, 7.47952342033386230469e-01) (39, 7.61028647422790527344e-01) (40, 5.51342487335205078125e-01) (41, 7.01199054718017578125e-01) (42, 8.18627834320068359375e-01) (43, 8.86711895465850830078e-01) (44, -1.52247712016105651855e-01) (45, 2.54213953018188476562e+00) (46, 2.68525809049606323242e-01) (47, 1.75944542884826660156e+00) (48, 8.14067661762237548828e-01) (49, -1.88771277666091918945e-01) (50, 4.32674288749694824219e-01) (51, -5.72126817703247070312e+00) (52, 1.21316063404083251953e+00) (2, -1.48502441406250000000e+03) (3, -1.48502441406250000000e+03) (4, 1.50000000000000000000e+03) (5, -1.48502441406250000000e+03) (6, 1.50000000000000000000e+03) (7, -1.50000000000000000000e+03) (8, -1.48502441406250000000e+03) (9, 1.50000000000000000000e+03) (10, -1.48502441406250000000e+03) (11, -1.48502441406250000000e+03) (12, 4.58430945873260498047e-01) (13, -1.48502441406250000000e+03) (14, 1.50000000000000000000e+03) (15, -1.48502441406250000000e+03) (16, -1.48502441406250000000e+03) (17, -1.50000000000000000000e+03) (18, 1.50000000000000000000e+03) (19, -1.48502441406250000000e+03) (20, -1.48502441406250000000e+03) (21, -1.48502441406250000000e+03) (22, -1.48502441406250000000e+03) (23, 5.31357645988464355469e-01) (24, -1.48502441406250000000e+03) (25, 1.50000000000000000000e+03) (26, -1.48502441406250000000e+03) (27, -1.48502441406250000000e+03) (28, 1.50000000000000000000e+03) (29, -2.87882995605468750000e+00) (30, -1.48502441406250000000e+03) (31, -1.50000000000000000000e+03) (32, 1.50000000000000000000e+03) (33, -1.48502441406250000000e+03) (34, -1.48502441406250000000e+03) (35, -1.48502441406250000000e+03) (36, 1.42271649837493896484e+00) (37, -1.48502441406250000000e+03) (38, -1.50000000000000000000e+03) (39, 1.50000000000000000000e+03) (40, -6.80317461490631103516e-01) (41, 1.50000000000000000000e+03) (42, 1.50000000000000000000e+03) (43, 1.50000000000000000000e+03) (44, 1.50000000000000000000e+03) (45, -1.48502441406250000000e+03) (46, 1.50000000000000000000e+03) (47, -1.48502441406250000000e+03) (48, 1.50000000000000000000e+03) (49, 3.03523331880569458008e-01) (50, 3.67961913347244262695e-01) (51, -1.50000000000000000000e+03) (52, 1.50000000000000000000e+03) (2, 8.47893536090850830078e-01) (3, -1.95255558937788009644e-02) (4, 8.37886333465576171875e-01) (5, 2.72609591484069824219e-01) (6, 9.50076103210449218750e-01) (7, 7.22899079322814941406e-01) (8, -5.40812611579895019531e-02) (9, 8.66354107856750488281e-01) (10, 1.28585934638977050781e-01) (11, -1.68381091207265853882e-02) (12, 7.74335861206054687500e-01) (13, 1.04595616459846496582e-01) (14, 1.12529568374156951904e-01) (15, 2.42875539697706699371e-03) (16, 1.77844166755676269531e-01) (17, 2.28825047612190246582e-01) (18, 2.10609346628189086914e-01) (19, 5.34117877483367919922e-01) (20, 1.85792982578277587891e-01) (21, 5.22161006927490234375e-01) (22, 2.44232669472694396973e-01) (23, 1.19782112538814544678e-01) (24, 1.60273209214210510254e-01) (25, 8.71203422546386718750e-01) (26, -2.25221253931522369385e-02) (27, -1.13418355584144592285e-01) (28, 9.49969068169593811035e-02) (29, 5.12701094150543212891e-01) (30, 1.73338100314140319824e-01) (31, 5.07320046424865722656e-01) (32, 3.31447690725326538086e-01) (33, -1.10479533672332763672e-01) (34, 4.72529292106628417969e-01) (35, 2.45368912816047668457e-01) (36, 8.68825376033782958984e-01) (37, 1.60999014973640441895e-01) (38, 2.53994435071945190430e-01) (39, 4.09912496805191040039e-01) (40, 5.18658123910427093506e-02) (41, 3.23539704084396362305e-01) (42, 1.01553404331207275391e+00) (43, 8.63175094127655029297e-01) (44, 3.78490149974822998047e-01) (45, 3.77664834260940551758e-01) (46, 9.44095849990844726562e-01) (47, -2.07359284162521362305e-01) (48, 2.69405126571655273438e-01) (49, 7.25435675121843814850e-04) (50, 6.76346957683563232422e-01) (51, 3.72122168540954589844e-01) (52, 4.49082195758819580078e-01) (2, -5.67704364657402038574e-02) (3, 5.20296514034271240234e-01) (4, 9.67929244041442871094e-01) (5, 5.51714956760406494141e-01) (6, 3.70762646198272705078e-01) (7, 8.59949663281440734863e-02) (8, 5.58003604412078857422e-01) (9, 3.85358124971389770508e-01) (10, 9.19312477111816406250e-01) (11, 4.97916728258132934570e-01) (12, 2.70583748817443847656e-01) (13, 5.03298103809356689453e-01) (14, 5.54230332374572753906e-01) (15, 5.34719169139862060547e-01) (16, 6.23724997043609619141e-01) (17, 7.26875782012939453125e-01) (18, 5.54178476333618164062e-01) (19, 2.98102468252182006836e-01) (20, 1.56242609024047851562e+00) (21, -1.32972858846187591553e-02) (22, 6.98388338088989257812e-01) (23, 8.23061645030975341797e-01) (24, 3.63982617855072021484e-02) (25, 3.49909335374832153320e-01) (26, 5.44338881969451904297e-01) (27, 5.75759947299957275391e-01) (28, 2.61102467775344848633e-01) (29, 1.51895999908447265625e+00) (30, 7.66555905342102050781e-01) (31, 5.21106660366058349609e-01) (32, 5.04155755043029785156e-01) (33, 4.98113095760345458984e-01) (34, 1.12931013107299804688e-01) (35, 5.49352347850799560547e-01) (36, 2.82777130603790283203e-01) (37, 4.53973710536956787109e-01) (38, 7.98897445201873779297e-01) (39, 9.42500710487365722656e-01) (40, -2.32044592499732971191e-01) (41, 1.00745582580566406250e+00) (42, 4.07426774501800537109e-01) (43, 8.61759781837463378906e-01) (44, -1.70737862586975097656e-01) (45, 1.02085721492767333984e+00) (46, -1.14721441268920898438e+00) (47, 9.07023549079895019531e-01) (48, 7.29960381984710693359e-01) (49, 6.41799569129943847656e-01) (50, 2.19081357121467590332e-01) (51, 1.02621400356292724609e+00) (52, 1.17934525012969970703e+00) (2, 5.01955866813659667969e-01) (3, 1.35666048526763916016e+00) (4, 2.80100014060735702515e-02) (5, 7.00244233012199401855e-02) (6, -1.73959612846374511719e-01) (7, -5.98689168691635131836e-02) (8, 1.10433876514434814453e+00) (9, 2.58425807952880859375e+00) (10, 6.72779202461242675781e-01) (11, 1.33015108108520507812e+00) (12, -6.49705827236175537109e-02) (13, 5.01897573471069335938e-01) (14, 7.73252189159393310547e-01) (15, 1.10728836059570312500e+00) (16, 6.70799732208251953125e-01) (17, 4.23237740993499755859e-01) (18, 4.86988991498947143555e-01) (19, 6.41057416796684265137e-02) (20, -1.72764825820922851562e+00) (21, 1.40660679340362548828e+00) (22, 5.86010217666625976562e-01) (23, 9.59338068962097167969e-01) (24, 2.71686649322509765625e+00) (25, 8.61476175487041473389e-03) (26, 6.17083013057708740234e-01) (27, 4.92152094841003417969e-01) (28, 9.99806940555572509766e-01) (29, -7.09970891475677490234e-01) (30, 9.72146093845367431641e-01) (31, 4.19283248484134674072e-02) (32, 7.95908331871032714844e-01) (33, 1.29300451278686523438e+00) (34, 5.39247512817382812500e-01) (35, 8.82708370685577392578e-01) (36, -1.26677572727203369141e-01) (37, 4.20084625482559204102e-01) (38, 3.65400314331054687500e-01) (39, 1.90723824501037597656e+00) (40, -2.18912184238433837891e-01) (41, 5.88034868240356445312e-01) (42, -8.38885009288787841797e-02) (43, -2.04750806093215942383e-01) (44, 2.20041319727897644043e-01) (45, -6.44637525081634521484e-01) (46, 3.13287854194641113281e-01) (47, 1.36708366870880126953e+00) (48, 5.99241018295288085938e-01) (49, 6.53231573104858398438e+00) (50, 2.03107133507728576660e-01) (51, 4.33711744844913482666e-02) (52, 5.71981549263000488281e-01) (2, 7.47417569160461425781e-01) (3, 6.89725810661911964417e-03) (4, 7.56531596183776855469e-01) (5, 3.27397167682647705078e-01) (6, 9.27539706230163574219e-01) (7, 7.21880674362182617188e-01) (8, 3.17707583308219909668e-02) (9, 8.45858037471771240234e-01) (10, 2.01329678297042846680e-01) (11, 1.37110188603401184082e-01) (12, 8.19692671298980712891e-01) (13, 1.08632624149322509766e-01) (14, 1.39406040310859680176e-01) (15, 1.00126564502716064453e-02) (16, 1.64783924818038940430e-01) (17, 1.96217671036720275879e-01) (18, 1.96851596236228942871e-01) (19, 6.66382849216461181641e-01) (20, 1.95437431335449218750e-01) (21, 5.78914642333984375000e-01) (22, 3.16109031438827514648e-01) (23, 2.75301724672317504883e-01) (24, 2.36826449632644653320e-01) (25, 6.81643545627593994141e-01) (26, 3.19368541240692138672e-02) (27, 1.32495597004890441895e-01) (28, 1.98521852493286132812e-01) (29, 6.38894617557525634766e-01) (30, 2.31685474514961242676e-01) (31, 5.83695352077484130859e-01) (32, 2.73077160120010375977e-01) (33, 3.51050682365894317627e-02) (34, 5.81348240375518798828e-01) (35, 1.66183933615684509277e-01) (36, 9.86307859420776367188e-01) (37, 1.13259017467498779297e-01) (38, 3.38947027921676635742e-01) (39, 3.78678143024444580078e-01) (40, 9.25416350364685058594e-01) (41, 2.01607093214988708496e-01) (42, 1.11580884456634521484e+00) (43, 7.30298757553100585938e-01) (44, 2.30046451091766357422e-01) (45, 3.80322128534317016602e-01) (46, 7.90655553340911865234e-01) (47, -1.50859370827674865723e-01) (48, 3.18257600069046020508e-01) (49, 1.09201237559318542480e-01) (50, 6.45438790321350097656e-01) (51, 4.36037391424179077148e-01) (52, 5.22413372993469238281e-01) (2, 1.38538524508476257324e-01) (3, 7.26872324943542480469e-01) (4, 5.72918951511383056641e-01) (5, -4.07414484024047851562e+00) (6, 2.84454911947250366211e-01) (7, 5.25857329368591308594e-01) (8, 9.04982328414916992188e-01) (9, 2.07682251930236816406e-01) (10, 1.02740905761718750000e+03) (11, 8.57754111289978027344e-01) (12, 5.74658632278442382812e+00) (13, 6.38772010803222656250e-01) (14, 3.34762573242187500000e-01) (15, 7.05440521240234375000e-01) (16, 8.85226190090179443359e-01) (17, 3.41085624694824218750e+01) (18, -1.11793395996093750000e+03) (19, 1.02254711914062500000e+03) (20, 1.54678602218627929688e+01) (21, 2.41769254207611083984e-01) (22, 9.58339512348175048828e-01) (23, 5.60857057571411132812e-01) (24, 7.88727645874023437500e+01) (25, 2.10105448961257934570e-01) (26, 6.99719727039337158203e-01) (27, 8.49925339221954345703e-01) (28, 2.42504787445068359375e+01) (29, 1.10790228843688964844e+00) (30, 1.44322001934051513672e+00) (31, 6.70311689376831054688e-01) (32, 3.97598832845687866211e-01) (33, 8.41853320598602294922e-01) (34, 4.17549490928649902344e-01) (35, 7.88777649402618408203e-01) (36, 7.22083091735839843750e-01) (37, 6.52460932731628417969e-01) (38, 3.94781088829040527344e+00) (39, 1.09612238407135009766e+00) (40, 5.55640995502471923828e-01) (41, 4.84862655401229858398e-01) (42, 4.91783827543258666992e-01) (43, 3.77751886844635009766e-01) (44, -9.67556953430175781250e-01) (45, 1.50000000000000000000e+03) (46, -9.34294581413269042969e-01) (47, 6.98171257972717285156e-01) (48, 1.41373419761657714844e+00) (49, 8.03465805053710937500e+01) (50, 2.78227639198303222656e+00) (51, 2.39680862426757812500e+00) (52, 1.84368848800659179688e+00) (2, -3.21735471487045288086e-01) (3, 2.50507593154907226562e-01) (4, 2.91847944259643554688e-01) (5, 3.19541454315185546875e-01) (6, 4.80673372745513916016e-01) (7, 2.03037321567535400391e-01) (8, 1.69772863388061523438e-01) (9, 3.48495304584503173828e-01) (10, 1.15435922145843505859e+00) (11, 3.92059296369552612305e-01) (12, 1.99461653828620910645e-01) (13, 3.64219874143600463867e-01) (14, 4.81659114360809326172e-01) (15, 2.97592759132385253906e-01) (16, 1.03868544101715087891e+00) (17, 1.05226850509643554688e+00) (18, 6.70551717281341552734e-01) (19, 8.30083012580871582031e-01) (20, 1.31858146190643310547e+00) (21, -1.31932497024536132812e-01) (22, 1.06632220745086669922e+00) (23, 5.39374113082885742188e-01) (24, 2.17553949356079101562e+00) (25, 4.11358833312988281250e-01) (26, 3.30736100673675537109e-01) (27, 1.57435625791549682617e-01) (28, 9.68840539455413818359e-01) (29, 3.19695919752120971680e-01) (30, 1.00031626224517822266e+00) (31, -4.01935845613479614258e-01) (32, 8.92913758754730224609e-01) (33, 1.91132247447967529297e-01) (34, -4.01062607765197753906e-01) (35, 2.41404622793197631836e-01) (36, 3.53216111660003662109e-01) (37, 2.59820610284805297852e-01) (38, 1.13040637969970703125e+00) (39, -3.70383933186531066895e-02) (40, 2.36781492829322814941e-01) (41, 1.27596282958984375000e+00) (42, 5.09818196296691894531e-01) (43, 3.28810572624206542969e-01) (44, -3.92458647489547729492e-01) (45, 1.22770714759826660156e+00) (46, 3.99376004934310913086e-01) (47, 2.66160041093826293945e-01) (48, 1.36225438117980957031e+00) (49, 1.80262684822082519531e-01) (50, -4.51079726219177246094e-01) (51, 2.63729810714721679688e-01) (52, 1.52557086944580078125e+00) (2, 8.13701212406158447266e-01) (3, 2.65418052673339843750e-01) (4, 7.24436342716217041016e-01) (5, 3.26482117176055908203e-01) (6, 5.17137706279754638672e-01) (7, 4.69236999750137329102e-01) (8, 2.53118157386779785156e-01) (9, 8.04710507392883300781e-01) (10, -1.83745950460433959961e-01) (11, 3.32437872886657714844e-01) (12, -8.90905439853668212891e-01) (13, 6.92861497402191162109e-01) (14, 2.45826497673988342285e-01) (15, 3.96935284137725830078e-01) (16, 1.85120299458503723145e-01) (17, 2.65478938817977905273e-01) (18, 7.46155321598052978516e-01) (19, 5.42420707643032073975e-02) (20, 1.83099180459976196289e-01) (21, 5.54589927196502685547e-01) (22, 2.84978926181793212891e-01) (23, 2.66631990671157836914e-01) (24, 3.33743095397949218750e-01) (25, 8.60394954681396484375e-01) (26, 3.07000100612640380859e-01) (27, 2.29417294263839721680e-01) (28, -8.24189409613609313965e-02) (29, 1.61769986152648925781e-01) (30, 3.45492869615554809570e-01) (31, 6.53417289257049560547e-01) (32, 4.04905229806900024414e-01) (33, 1.28522306680679321289e-01) (34, 7.72174537181854248047e-01) (35, 7.42834091186523437500e-01) (36, 3.53894829750061035156e-01) (37, 7.26868331432342529297e-01) (38, 2.86144725978374481201e-02) (39, 2.10910156369209289551e-01) (40, 1.45459353923797607422e-01) (41, 4.92362797260284423828e-01) (42, 5.64685463905334472656e-01) (43, 8.24508190155029296875e-01) (44, 2.83231526613235473633e-01) (45, -2.75949090719223022461e-01) (46, 2.99254506826400756836e-01) (47, 3.07612549513578414917e-02) (48, 2.15451300144195556641e-01) (49, 8.53545904159545898438e-01) (50, 3.48808884620666503906e-01) (51, 2.65988260507583618164e-01) (52, 3.92384260892868041992e-01) (2, 1.03717994689941406250e+00) (3, 3.34248870611190795898e-01) (4, 6.97595179080963134766e-01) (5, 3.58685016632080078125e-01) (6, 5.71273386478424072266e-01) (7, 7.84935951232910156250e-01) (8, 2.48815819621086120605e-01) (9, 7.71512091159820556641e-01) (10, 2.11985632777214050293e-01) (11, 4.31530117988586425781e-01) (12, 8.27636539936065673828e-01) (13, 3.16816776990890502930e-01) (14, 2.08361759781837463379e-01) (15, 3.67067456245422363281e-01) (16, 2.54880547523498535156e-01) (17, 2.04503804445266723633e-01) (18, 3.74751091003417968750e-01) (19, 9.13043260574340820312e-01) (20, 2.59825319051742553711e-01) (21, 7.45448946952819824219e-01) (22, 3.96654695272445678711e-01) (23, 2.45648801326751708984e-01) (24, 3.30407381057739257812e-01) (25, 7.33601152896881103516e-01) (26, 2.95349478721618652344e-01) (27, 2.83495098352432250977e-01) (28, 1.94591015577316284180e-01) (29, 7.60170817375183105469e-01) (30, 3.41780275106430053711e-01) (31, 7.01221168041229248047e-01) (32, 3.19612771272659301758e-01) (33, 3.30152183771133422852e-01) (34, 8.35968971252441406250e-01) (35, 3.22464197874069213867e-01) (36, 6.80990695953369140625e-01) (37, 3.82534563541412353516e-01) (38, 1.81229099631309509277e-01) (39, 2.27758571505546569824e-01) (40, 8.89983773231506347656e-01) (41, 2.31689259409904479980e-01) (42, 5.41757285594940185547e-01) (43, 6.22167825698852539062e-01) (44, 1.27737522125244140625e+00) (45, 3.69370311498641967773e-01) (46, 7.12341010570526123047e-01) (47, 5.07374227046966552734e-01) (48, 8.34266319870948791504e-02) (49, 1.53879880905151367188e-01) (50, 6.15246117115020751953e-01) (51, 6.86920404434204101562e-01) (52, 1.51804387569427490234e-01) (2, 2.80692130327224731445e-01) (3, 1.40955293178558349609e+00) (4, -3.49966347217559814453e-01) (5, 7.16726899147033691406e-01) (6, -3.38719427585601806641e-01) (7, -5.81694424152374267578e-01) (8, 9.54628169536590576172e-01) (9, 1.82074457406997680664e-01) (10, 3.89903366565704345703e-01) (11, 1.62703084945678710938e+00) (12, -6.05098247528076171875e-01) (13, 8.47975194454193115234e-01) (14, 1.64305782318115234375e+00) (15, 1.38540351390838623047e+00) (16, 3.93797636032104492188e-01) (17, 4.01783496141433715820e-01) (18, 1.18869042396545410156e+00) (19, -7.59069994091987609863e-02) (20, 4.84090685844421386719e-01) (21, 2.61784326285123825073e-02) (22, 3.21665406227111816406e-01) (23, 8.83931279182434082031e-01) (24, 9.07552599906921386719e-01) (25, 2.16496750712394714355e-01) (26, 1.59812116622924804688e+00) (27, 8.76074790954589843750e-01) (28, 2.58264005184173583984e-01) (29, 3.83926294744014739990e-02) (30, 3.81377011537551879883e-01) (31, -4.38765287399291992188e-02) (32, 1.22736346721649169922e+00) (33, 1.41509521007537841797e+00) (34, 1.97104901075363159180e-01) (35, 9.07923042774200439453e-01) (36, -3.41948747634887695312e-01) (37, 8.14699649810791015625e-01) (38, 3.25327396392822265625e-01) (39, 4.01418775320053100586e-01) (40, -4.96305286884307861328e-01) (41, 5.13758063316345214844e-01) (42, -2.43563413619995117188e-01) (43, -3.64735215902328491211e-01) (44, 4.12339121103286743164e-01) (45, 3.26027333736419677734e-01) (46, -4.18065011501312255859e-01) (47, 5.77978491783142089844e-01) (48, 4.45438414812088012695e-01) (49, 1.51693809032440185547e+00) (50, -5.28680145740509033203e-01) (51, -2.30827685445547103882e-02) (52, 6.87164187431335449219e-01) (2, -5.40573894977569580078e-02) (3, 4.52278196811676025391e-01) (4, 1.00267767906188964844e+00) (5, 1.19870305061340332031e+00) (6, 8.94660413265228271484e-01) (7, -4.78560617193579673767e-03) (8, 5.53546428680419921875e-01) (9, 7.62640833854675292969e-01) (10, 1.35714149475097656250e+00) (11, 8.96319031715393066406e-01) (12, 2.90162181854248046875e+00) (13, 2.67232686281204223633e-01) (14, 2.01730474829673767090e-01) (15, 4.24844920635223388672e-01) (16, 1.23691594600677490234e+00) (17, 1.37648212909698486328e+00) (18, -5.94624355435371398926e-02) (19, 2.41897563934326171875e+01) (20, 3.84611225128173828125e+00) (21, -2.03602716326713562012e-01) (22, 6.16867005825042724609e-01) (23, 3.86846721172332763672e-01) (24, 1.18332452774047851562e+01) (25, 7.33083903789520263672e-01) (26, 3.41275751590728759766e-01) (27, 3.32816481590270996094e-01) (28, 5.03664350509643554688e+00) (29, 6.14037513732910156250e-01) (30, 6.61016643047332763672e-01) (31, 1.44266799092292785645e-01) (32, 1.09932257328182458878e-03) (33, 3.45382750034332275391e-01) (34, -9.37971472740173339844e-02) (35, 3.70210707187652587891e-01) (36, 7.94537127017974853516e-01) (37, 3.18143278360366821289e-01) (38, 8.87181162834167480469e-01) (39, 1.50348925590515136719e+00) (40, -6.65814924240112304688e+00) (41, 1.08467638492584228516e+00) (42, 9.94662165641784667969e-01) (43, 8.90644669532775878906e-01) (44, 6.15665614604949951172e-01) (45, 2.95456957817077636719e+00) (46, 3.46313178539276123047e-01) (47, 3.22557896375656127930e-01) (48, 1.43575811386108398438e+00) (49, 3.99432015419006347656e+00) (50, 1.36491179466247558594e-01) (51, -3.36191825866699218750e+01) (52, 1.72554087638854980469e+00) (2, 6.86288237571716308594e-01) (3, -1.61739904433488845825e-02) (4, 6.04003190994262695312e-01) (5, 7.22446292638778686523e-02) (6, 9.55618083477020263672e-01) (7, 5.62263250350952148438e-01) (8, -1.09309747815132141113e-01) (9, 8.60039472579956054688e-01) (10, 8.72331857681274414062e-02) (11, 7.82507136464118957520e-02) (12, 6.20852708816528320312e-01) (13, 7.93915688991546630859e-02) (14, 2.51522570848464965820e-01) (15, -4.17965799570083618164e-02) (16, 8.01066756248474121094e-02) (17, -5.60397505760192871094e-01) (18, 2.36253738403320312500e-01) (19, 6.72380328178405761719e-01) (20, 8.68290811777114868164e-02) (21, 5.90163230895996093750e-01) (22, 1.75874024629592895508e-01) (23, 1.47529393434524536133e-01) (24, 2.37069334834814071655e-02) (25, 8.42942059040069580078e-01) (26, -1.61581024527549743652e-01) (27, -1.40612900257110595703e-01) (28, 6.83083951473236083984e-01) (29, 4.31594857946038246155e-03) (30, 1.06867514550685882568e-01) (31, 5.11111140251159667969e-01) (32, 4.93542045354843139648e-01) (33, -2.02324882149696350098e-01) (34, 5.62538206577301025391e-01) (35, 5.85831888020038604736e-02) (36, 8.28564465045928955078e-01) (37, -6.03505857288837432861e-02) (38, 1.91157430410385131836e-01) (39, 3.69195342063903808594e-01) (40, -1.23878955841064453125e+00) (41, 2.36541181802749633789e-01) (42, 9.79620873928070068359e-01) (43, 7.80062854290008544922e-01) (44, 3.09884667396545410156e-01) (45, 2.90269893594086170197e-03) (46, 8.88761460781097412109e-01) (47, -1.37639284133911132812e-01) (48, 2.58312672376632690430e-01) (49, -9.16917324066162109375e-02) (50, 6.72910809516906738281e-01) (51, -1.50855612754821777344e+00) (52, 5.47126829624176025391e-01) (2, 1.24658155441284179688e+00) (3, 8.01051735877990722656e-01) (4, 5.46281874179840087891e-01) (5, 5.06093323230743408203e-01) (6, 4.49948012828826904297e-01) (7, 6.89480721950531005859e-01) (8, 5.76856613159179687500e-01) (9, 6.98730230331420898438e-01) (10, 4.65268008410930633545e-02) (11, 5.48874914646148681641e-01) (12, 5.39325475692749023438e-01) (13, 4.92359399795532226562e-01) (14, 6.01565241813659667969e-01) (15, 7.29723095893859863281e-01) (16, 4.09802615642547607422e-01) (17, -1.02465994656085968018e-01) (18, 5.73762618005275726318e-02) (19, 5.45211255550384521484e-01) (20, 2.10825741291046142578e-01) (21, 1.19603681564331054688e+00) (22, 4.12171751260757446289e-01) (23, 5.10228991508483886719e-01) (24, 1.83444350957870483398e-01) (25, 5.19348680973052978516e-01) (26, 7.48407721519470214844e-01) (27, 6.90319061279296875000e-01) (28, 1.03902863338589668274e-02) (29, 5.45937001705169677734e-01) (30, 5.24586625397205352783e-02) (31, 9.64838385581970214844e-01) (32, 4.81297254562377929688e-01) (33, 8.40493798255920410156e-01) (34, 8.72652769088745117188e-01) (35, 7.28135287761688232422e-01) (36, 5.96339941024780273438e-01) (37, 6.70622229576110839844e-01) (38, 2.50541083514690399170e-02) (39, -1.27664834260940551758e-01) (40, 1.48798370361328125000e+00) (41, 9.91448983550071716309e-02) (42, 3.45932096242904663086e-01) (43, 5.92054247856140136719e-01) (44, 1.33547031879425048828e+00) (45, 2.95075029134750366211e-01) (46, 4.45550262928009033203e-01) (47, 3.51996421813964843750e-01) (48, 9.71733927726745605469e-02) (49, 1.16085626184940338135e-01) (50, 5.97805857658386230469e-01) (51, 3.30524265766143798828e-01) (52, -4.45832312107086181641e-01) (2, -2.04108864068984985352e-01) (3, 4.27559435367584228516e-01) (4, 7.86756515502929687500e-01) (5, 3.24254631996154785156e-01) (6, 3.46270352602005004883e-01) (7, 2.09056586027145385742e-01) (8, 4.98498976230621337891e-01) (9, 2.88388818502426147461e-01) (10, 1.15727710723876953125e+00) (11, 3.95082712173461914062e-01) (12, -2.13052487373352050781e+00) (13, 4.76482927799224853516e-01) (14, 5.20460605621337890625e-01) (15, 4.21108216047286987305e-01) (16, 1.06498312950134277344e+00) (17, 9.36881661415100097656e-01) (18, 3.62293958663940429688e-01) (19, 3.15899491310119628906e-01) (20, 2.87381321191787719727e-01) (21, 1.55061511322855949402e-02) (22, 9.21859025955200195312e-01) (23, 6.19732379913330078125e-01) (24, 1.39316618442535400391e+00) (25, 2.54957526922225952148e-01) (26, 4.04204100370407104492e-01) (27, 5.60641586780548095703e-01) (28, 1.19655025005340576172e+00) (29, 4.14424419403076171875e-01) (30, 9.89286959171295166016e-01) (31, -5.70281818509101867676e-02) (32, -1.07373796403408050537e-01) (33, 4.98414516448974609375e-01) (34, 1.18963710963726043701e-01) (35, 5.64112901687622070312e-01) (36, 2.03746572136878967285e-01) (37, 5.20160853862762451172e-01) (38, 1.01902627944946289062e+00) (39, 1.16612792015075683594e+00) (40, -6.17571353912353515625e-01) (41, 1.03090679645538330078e+00) (42, 5.23393154144287109375e-01) (43, 5.42959034442901611328e-01) (44, -3.89810800552368164062e-01) (45, 1.12382173538208007812e+00) (46, 1.20384119451045989990e-01) (47, 4.69729095697402954102e-01) (48, 1.07964217662811279297e+00) (49, 3.70669841766357421875e-01) (50, 3.97682636976242065430e-01) (51, -5.46214282512664794922e-01) (52, 1.29553115367889404297e+00) (2, 4.18036133050918579102e-01) (3, -7.91519284248352050781e-02) (4, 6.32191956043243408203e-01) (5, 1.34616762399673461914e-01) (6, 9.07104313373565673828e-01) (7, 5.70467293262481689453e-01) (8, -9.12581160664558410645e-02) (9, 7.09148645401000976562e-01) (10, 2.76090979576110839844e-01) (11, 8.31700637936592102051e-02) (12, 8.04188013076782226562e-01) (13, 1.75563499331474304199e-01) (14, 2.73791521787643432617e-01) (15, 4.92167659103870391846e-03) (16, -8.57392512261867523193e-03) (17, 2.23173499107360839844e-01) (18, 3.06748151779174804688e-01) (19, 5.07221817970275878906e-01) (20, 1.33073091506958007812e-01) (21, 3.80257457494735717773e-01) (22, 2.56235510110855102539e-01) (23, 6.04383312165737152100e-02) (24, 1.76974505186080932617e-01) (25, 7.72702932357788085938e-01) (26, 4.10593189299106597900e-02) (27, -5.39143709465861320496e-03) (28, -3.31261366605758666992e-01) (29, 5.23543357849121093750e-01) (30, 2.88030683994293212891e-01) (31, 6.35872781276702880859e-01) (32, 4.80702936649322509766e-01) (33, 7.38381594419479370117e-02) (34, 5.47616422176361083984e-01) (35, -5.61072602868080139160e-02) (36, 8.82706940174102783203e-01) (37, 2.15839728713035583496e-01) (38, 1.50190621614456176758e-01) (39, 3.45269620418548583984e-01) (40, 4.88491624593734741211e-01) (41, 1.60402014851570129395e-01) (42, 9.06855523586273193359e-01) (43, 6.68984889984130859375e-01) (44, 3.67534726858139038086e-01) (45, 2.68786489963531494141e-01) (46, 7.77132034301757812500e-01) (47, -9.54443439841270446777e-02) (48, 1.38486936688423156738e-01) (49, 1.52236312627792358398e-01) (50, 6.78944468498229980469e-01) (51, 4.65037554502487182617e-01) (52, 3.27658027410507202148e-01) (2, 1.17218315601348876953e+00) (3, 6.39108180999755859375e-01) (4, 5.61519563198089599609e-01) (5, 3.16798061132431030273e-01) (6, 5.12584865093231201172e-01) (7, 6.44939839839935302734e-01) (8, 4.54348683357238769531e-01) (9, 7.80506610870361328125e-01) (10, -1.81190282106399536133e-01) (11, 4.03531074523925781250e-01) (12, 5.60524523258209228516e-01) (13, 4.76095288991928100586e-01) (14, 4.24564778804779052734e-01) (15, 5.13632714748382568359e-01) (16, 3.54493349790573120117e-01) (17, 2.43773937225341796875e-01) (18, 6.12010061740875244141e-01) (19, 7.32176423072814941406e-01) (20, 3.08800041675567626953e-01) (21, 1.14914286136627197266e+00) (22, 4.55715924501419067383e-01) (23, 4.97649818658828735352e-01) (24, 1.45711973309516906738e-01) (25, 4.94100034236907958984e-01) (26, 6.55851244926452636719e-01) (27, 5.67762553691864013672e-01) (28, -2.20737442374229431152e-01) (29, 5.13026297092437744141e-01) (30, 1.35603040456771850586e-01) (31, 8.78057301044464111328e-01) (32, 4.71628248691558837891e-01) (33, 6.53015851974487304688e-01) (34, 6.86666309833526611328e-01) (35, 6.41449272632598876953e-01) (36, 5.44294238090515136719e-01) (37, 5.77731072902679443359e-01) (38, 1.60401701927185058594e-01) (39, 1.15738950669765472412e-01) (40, 5.26366114616394042969e-01) (41, 3.05569022893905639648e-02) (42, 5.80719172954559326172e-01) (43, 6.17722332477569580078e-01) (44, 1.16387736797332763672e+00) (45, -8.46889853477478027344e-01) (46, 4.06490147113800048828e-01) (47, 3.19916099309921264648e-01) (48, 9.85976234078407287598e-02) (49, -2.02266294509172439575e-02) (50, 6.08628630638122558594e-01) (51, 3.72512996196746826172e-01) (52, -9.31371077895164489746e-02) (2, 7.54845857620239257812e-01) (3, 2.61732995510101318359e-01) (4, 7.89045453071594238281e-01) (5, 2.47228845953941345215e-01) (6, 1.08952677249908447266e+00) (7, 9.72243309020996093750e-01) (8, 8.45262780785560607910e-02) (9, 7.79590547084808349609e-01) (10, -9.46320891380310058594e-01) (11, 1.70132488012313842773e-01) (12, -3.69104951620101928711e-01) (13, 1.77796617150306701660e-01) (14, 1.01985558867454528809e-01) (15, 1.62631526589393615723e-01) (16, -3.81943643093109130859e-01) (17, 5.99149644374847412109e-01) (18, -4.15029793977737426758e-01) (19, 3.76686662435531616211e-01) (20, 4.51839685440063476562e-01) (21, 7.73100018501281738281e-01) (22, 2.55213677883148193359e-01) (23, 1.31771758198738098145e-01) (24, 7.40470349788665771484e-01) (25, 7.70614802837371826172e-01) (26, 5.63160032033920288086e-02) (27, 1.21379137039184570312e-01) (28, -2.00454187393188476562e+00) (29, 3.76142054796218872070e-01) (30, 2.30098187923431396484e-01) (31, 7.23812460899353027344e-01) (32, 2.40834698081016540527e-01) (33, 1.56035318970680236816e-01) (34, 7.14182913303375244141e-01) (35, 1.73421561717987060547e-01) (36, 6.47813975811004638672e-01) (37, 1.25889450311660766602e-01) (38, 1.26999270915985107422e+00) (39, 4.82366867363452911377e-02) (40, 5.39082705974578857422e-01) (41, 4.28837239742279052734e-01) (42, 8.70768666267395019531e-01) (43, 3.12645244598388671875e+00) (44, 9.61346328258514404297e-01) (45, 7.96996280550956726074e-02) (46, -7.09517121315002441406e-01) (47, -7.48755112290382385254e-02) (48, 1.32001772522926330566e-01) (49, 1.19267511367797851562e+00) (50, 1.00927948951721191406e+00) (51, 9.46258008480072021484e-01) (52, 5.17320156097412109375e-01) (2, 1.18356175720691680908e-01) (3, 6.24301314353942871094e-01) (4, 7.16507315635681152344e-01) (5, -1.02315843105316162109e-01) (6, 5.00180184841156005859e-01) (7, 1.55861526727676391602e-02) (8, 3.93060773611068725586e-01) (9, 7.05953836441040039062e-01) (10, 3.09985071420669555664e-01) (11, 6.37506067752838134766e-01) (12, 1.75253033638000488281e-01) (13, 5.00112175941467285156e-01) (14, 6.64630234241485595703e-01) (15, 5.46826124191284179688e-01) (16, 4.39447551965713500977e-01) (17, 2.79297590255737304688e-01) (18, 6.42695188522338867188e-01) (19, 5.52892267704010009766e-01) (20, 4.90386128425598144531e-01) (21, -9.65281799435615539551e-02) (22, 1.52362927794456481934e-01) (23, 4.20238405466079711914e-01) (24, 3.86616468429565429688e-01) (25, 6.81899011135101318359e-01) (26, 4.15649592876434326172e-01) (27, 5.86296319961547851562e-01) (28, 5.09434700012207031250e-01) (29, 9.87973332405090332031e-01) (30, 4.15619879961013793945e-01) (31, 2.64951050281524658203e-01) (32, 4.52832400798797607422e-01) (33, 6.75444602966308593750e-01) (34, 3.35907131433486938477e-01) (35, 1.51100650429725646973e-01) (36, 2.59076029062271118164e-01) (37, 5.11598944664001464844e-01) (38, 4.65374976396560668945e-01) (39, 7.08193838596343994141e-01) (40, 1.05325333774089813232e-01) (41, 5.09723901748657226562e-01) (42, 5.55777192115783691406e-01) (43, 1.07034587860107421875e+00) (44, -5.11199176311492919922e-01) (45, 1.33965075016021728516e+00) (46, 3.09470623731613159180e-01) (47, 6.20544254779815673828e-01) (48, 5.27783036231994628906e-01) (49, 1.36500453948974609375e+00) (50, 1.08814942836761474609e+00) (51, 1.57912731170654296875e+00) (52, 1.14740836620330810547e+00) (2, 5.10253190994262695312e-01) (3, 3.17529708147048950195e-01) (4, 3.56846839189529418945e-01) (5, 1.88522830605506896973e-01) (6, 4.41536217927932739258e-01) (7, -1.04483708739280700684e-01) (8, 3.74792218208312988281e-01) (9, -1.07593655586242675781e-01) (10, 8.27304422855377197266e-01) (11, 5.99480032920837402344e-01) (12, 2.07490265369415283203e-01) (13, 1.07404693961143493652e-01) (14, 1.12274713814258575439e-01) (15, 2.95132249593734741211e-01) (16, 2.05145573616027832031e+00) (17, -1.95977139472961425781e+00) (18, -1.78493648767471313477e-01) (19, 1.23866545036435127258e-02) (20, 1.11293002963066101074e-01) (21, -1.54468923807144165039e-01) (22, 1.46312132477760314941e-01) (23, 5.15848755836486816406e-01) (24, 4.32326555252075195312e-01) (25, -4.78962734341621398926e-02) (26, 3.43249648809432983398e-01) (27, 2.60942280292510986328e-01) (28, 3.16625499725341796875e+00) (29, 5.54009139537811279297e-01) (30, 3.27671587467193603516e-01) (31, 1.21830284595489501953e+00) (32, 8.74946594238281250000e-01) (33, 2.09582254290580749512e-01) (34, 2.02534645795822143555e-02) (35, 2.46719524264335632324e-01) (36, 3.91995996236801147461e-01) (37, 2.30719372630119323730e-01) (38, 8.57459843158721923828e-01) (39, 8.76886606216430664062e-01) (40, 2.59882718324661254883e-01) (41, 3.31183344125747680664e-01) (42, 5.92021703720092773438e-01) (43, -3.48302626609802246094e+00) (44, 4.73236024379730224609e-01) (45, 9.72746074199676513672e-01) (46, -1.11714911460876464844e+00) (47, 2.80615657567977905273e-01) (48, 8.63747894763946533203e-01) (49, -2.29185655713081359863e-01) (50, -3.13073754310607910156e-01) (51, -8.39005231857299804688e-01) (52, 9.45162236690521240234e-01) (2, 7.45515823364257812500e-01) (3, -8.83301869034767150879e-02) (4, 8.86362254619598388672e-01) (5, 1.18960998952388763428e-02) (6, 9.78989124298095703125e-01) (7, 6.60092830657958984375e-01) (8, -8.36714804172515869141e-02) (9, 9.15408849716186523438e-01) (10, 9.20637547969818115234e-02) (11, 2.26328335702419281006e-02) (12, 7.98388659954071044922e-01) (13, 4.95781823992729187012e-02) (14, 1.31496220827102661133e-01) (15, -9.31531265377998352051e-02) (16, 5.91402649879455566406e-02) (17, 2.25488767027854919434e-01) (18, 2.13021740317344665527e-01) (19, 7.88536190986633300781e-01) (20, 1.95435449481010437012e-01) (21, 5.24038314819335937500e-01) (22, 2.24500671029090881348e-01) (23, 1.37314647436141967773e-01) (24, 1.90060228109359741211e-01) (25, 8.63275527954101562500e-01) (26, -8.56224149465560913086e-02) (27, -3.75084728002548217773e-02) (28, 3.91182035207748413086e-01) (29, 4.86786156892776489258e-01) (30, 1.16818577051162719727e-01) (31, 5.22111594676971435547e-01) (32, 2.66869664192199707031e-01) (33, -3.38041819632053375244e-02) (34, 7.93805241584777832031e-01) (35, -3.61608937382698059082e-02) (36, 9.83250200748443603516e-01) (37, 5.72815388441085815430e-02) (38, 1.52040436863899230957e-01) (39, 2.97951787710189819336e-01) (40, -1.94474667310714721680e-01) (41, 2.85049766302108764648e-01) (42, 1.02902364730834960938e+00) (43, 9.19185340404510498047e-01) (44, 2.75623381137847900391e-01) (45, 1.62506669759750366211e-01) (46, 8.59949588775634765625e-01) (47, -2.13100835680961608887e-01) (48, 3.82583171129226684570e-01) (49, 3.49587053060531616211e-02) (50, 6.77159011363983154297e-01) (51, 4.09887969493865966797e-01) (52, 5.44605910778045654297e-01) (2, 1.19451153278350830078e+00) (3, 5.53748846054077148438e-01) (4, 6.19106590747833251953e-01) (5, 6.32924437522888183594e-01) (6, 4.88273650407791137695e-01) (7, 8.49255919456481933594e-01) (8, 5.34186840057373046875e-01) (9, 7.05488383769989013672e-01) (10, 1.07099342346191406250e+00) (11, 4.40057069063186645508e-01) (12, 9.02085781097412109375e-01) (13, 5.44949471950531005859e-01) (14, 1.95810288190841674805e-01) (15, 4.58729773759841918945e-01) (16, 3.79875570535659790039e-01) (17, 5.97588181495666503906e-01) (18, 3.91849964857101440430e-01) (19, 1.09371614456176757812e+00) (20, 4.79777187108993530273e-01) (21, 1.08909726142883300781e+00) (22, 4.96025741100311279297e-01) (23, 3.92557352781295776367e-01) (24, 3.59691321849822998047e-01) (25, 5.12268960475921630859e-01) (26, 4.93703216314315795898e-01) (27, 4.37392592430114746094e-01) (28, 2.05910515785217285156e+00) (29, 8.53459417819976806641e-01) (30, 4.77582544088363647461e-01) (31, 8.98353457450866699219e-01) (32, 3.77459883689880371094e-01) (33, 5.03179609775543212891e-01) (34, 9.93982791900634765625e-01) (35, 5.98698914051055908203e-01) (36, 6.22427880764007568359e-01) (37, 4.25771445035934448242e-01) (38, 2.19081714749336242676e-01) (39, 3.78042720258235931396e-02) (40, 3.65103912353515625000e+00) (41, 2.69598816521465778351e-03) (42, 4.97444897890090942383e-01) (43, 7.27844595909118652344e-01) (44, 1.14481353759765625000e+00) (45, 1.93104779720306396484e+00) (46, 5.29766798019409179688e-01) (47, 6.16897046566009521484e-01) (48, 6.16379022598266601562e-01) (49, 1.71614730358123779297e+00) (50, 7.42974400520324707031e-01) (51, 1.81549513339996337891e+00) (52, -6.25547766685485839844e-02) (2, 6.61153197288513183594e-01) (3, 1.13023257255554199219e+00) (4, -3.98628622293472290039e-01) (5, 6.02900683879852294922e-01) (6, 2.16270923614501953125e-01) (7, 2.66071259975433349609e-01) (8, 8.86227607727050781250e-01) (9, 2.84030325710773468018e-02) (10, 2.43357777595520019531e-01) (11, 6.70527219772338867188e-01) (12, 1.14521970972418785095e-02) (13, 1.35527837276458740234e+00) (14, 1.52701377868652343750e+00) (15, 1.10581386089324951172e+00) (16, 8.00037443637847900391e-01) (17, -8.47935140132904052734e-01) (18, -1.05259346961975097656e+00) (19, -5.61589241027832031250e-01) (20, -6.41829818487167358398e-02) (21, 5.87185263633728027344e-01) (22, 9.29113090038299560547e-01) (23, 6.34460389614105224609e-01) (24, 4.65434581041336059570e-01) (25, -1.87973126769065856934e-01) (26, 1.23496568202972412109e+00) (27, 1.20249211788177490234e+00) (28, 6.30905270576477050781e-01) (29, 1.31368982791900634766e+00) (30, 8.91539692878723144531e-01) (31, -2.17894673347473144531e-01) (32, 3.29939335584640502930e-01) (33, 1.15406286716461181641e+00) (34, 1.14354260265827178955e-01) (35, 1.19469726085662841797e+00) (36, 1.00085139274597167969e-01) (37, 1.46509337425231933594e+00) (38, 7.12821543216705322266e-01) (39, 1.96517586708068847656e+00) (40, 2.79497504234313964844e-01) (41, 3.32655757665634155273e-01) (42, 3.11479449272155761719e-01) (43, -2.32833474874496459961e-01) (44, 6.38618409633636474609e-01) (45, 1.75730645656585693359e+00) (46, -1.40887722373008728027e-01) (47, 6.82472586631774902344e-01) (48, 2.42118269205093383789e-01) (49, 6.60632610321044921875e-01) (50, 3.23576807975769042969e-01) (51, 1.75092875957489013672e-01) (52, 2.37020567059516906738e-01) (2, 3.84247750043869018555e-01) (3, 6.33451402187347412109e-01) (4, 6.87490284442901611328e-01) (5, 6.78785562515258789062e-01) (6, 5.53168535232543945312e-01) (7, 4.98192548751831054688e-01) (8, 7.44988799095153808594e-01) (9, 2.19625651836395263672e-01) (10, 2.31301259994506835938e+00) (11, 4.64675486087799072266e-01) (12, 2.55610179901123046875e+00) (13, 6.37004137039184570312e-01) (14, 7.39638149738311767578e-01) (15, 7.01524972915649414062e-01) (16, 5.90473055839538574219e-01) (17, -7.61805343627929687500e+00) (18, -1.19393911361694335938e+01) (19, 8.88607501983642578125e+00) (20, 1.10789358615875244141e+00) (21, 1.25256806612014770508e-01) (22, 8.79133164882659912109e-01) (23, 8.90181124210357666016e-01) (24, 1.91623938083648681641e+00) (25, 2.35105559229850769043e-01) (26, 6.01461291313171386719e-01) (27, 7.76320993900299072266e-01) (28, -4.25144653320312500000e+02) (29, 2.91039794683456420898e-01) (30, 9.40908730030059814453e-01) (31, 5.25655984878540039062e-01) (32, 1.26888751983642578125e+00) (33, 5.82165658473968505859e-01) (34, 3.31542491912841796875e-01) (35, 6.03575944900512695312e-01) (36, 2.18771904706954956055e-01) (37, 6.33517324924468994141e-01) (38, 1.25832319259643554688e+00) (39, 1.11235725879669189453e+00) (40, 1.98357835412025451660e-01) (41, 8.27149033546447753906e-01) (42, 3.43573451042175292969e-01) (43, 5.80399751663208007812e-01) (44, 3.04230093955993652344e-01) (45, 5.69561340332031250000e+02) (46, 7.53263413906097412109e-01) (47, 5.46545505523681640625e-01) (48, 8.68830919265747070312e-01) (49, 2.97006931304931640625e+01) (50, 3.80336910486221313477e-01) (51, 1.77932693481445312500e+02) (52, 1.24647688865661621094e+00) (2, 1.23981857299804687500e+00) (3, 5.40682613849639892578e-01) (4, 6.03187561035156250000e-01) (5, 3.86959493160247802734e-01) (6, 4.54818457365036010742e-01) (7, 8.24227571487426757812e-01) (8, 4.59859997034072875977e-01) (9, 7.64925241470336914062e-01) (10, -7.06372261047363281250e-02) (11, 2.50981360673904418945e-01) (12, 6.99201464653015136719e-01) (13, 4.88616973161697387695e-01) (14, 4.63195472955703735352e-01) (15, 5.52856266498565673828e-01) (16, 3.22593510150909423828e-01) (17, -5.95030561089515686035e-02) (18, 6.05793356895446777344e-01) (19, 9.77434694766998291016e-01) (20, 5.69699645042419433594e-01) (21, 1.12970566749572753906e+00) (22, 4.71112936735153198242e-01) (23, 3.06586146354675292969e-01) (24, 4.71590280532836914062e-01) (25, 7.00500249862670898438e-01) (26, 4.41473513841629028320e-01) (27, 5.68194687366485595703e-01) (28, 7.74256512522697448730e-02) (29, 5.37475943565368652344e-01) (30, 3.09429943561553955078e-01) (31, 1.25418603420257568359e+00) (32, 4.09458696842193603516e-01) (33, 5.69285392761230468750e-01) (34, 7.98552811145782470703e-01) (35, 4.42734748125076293945e-01) (36, 3.79204869270324707031e-01) (37, 5.57021796703338623047e-01) (38, 2.44954258203506469727e-01) (39, 5.06686270236968994141e-02) (40, 5.76160848140716552734e-01) (41, 9.86297577619552612305e-02) (42, 5.73940694332122802734e-01) (43, 7.37193703651428222656e-01) (44, 8.43904852867126464844e-01) (45, -1.47493230178952217102e-02) (46, 4.89989966154098510742e-01) (47, 4.26611155271530151367e-01) (48, 1.18261747062206268311e-01) (49, 2.34017252922058105469e-01) (50, 7.00158298015594482422e-01) (51, 5.98137199878692626953e-01) (52, -1.61396175622940063477e-01) (2, 7.27599740028381347656e-01) (3, -1.36278271675109863281e-02) (4, 8.05380463600158691406e-01) (5, 2.95817792415618896484e-01) (6, 1.00441002845764160156e+00) (7, 7.18528807163238525391e-01) (8, 2.71229892969131469727e-02) (9, 7.43067800998687744141e-01) (10, 2.48051568865776062012e-01) (11, 1.45259127020835876465e-01) (12, 8.75082075595855712891e-01) (13, -1.18669616058468818665e-02) (14, 9.09219756722450256348e-02) (15, 2.22460087388753890991e-02) (16, 1.31455197930335998535e-01) (17, 2.41579189896583557129e-01) (18, 1.42906114459037780762e-01) (19, 7.24060654640197753906e-01) (20, 9.18149575591087341309e-02) (21, 5.22738218307495117188e-01) (22, 1.33164018392562866211e-01) (23, 3.23177993297576904297e-01) (24, 1.43929794430732727051e-01) (25, 6.91449403762817382812e-01) (26, -7.97246918082237243652e-02) (27, 1.56381949782371520996e-01) (28, 1.85136586427688598633e-01) (29, 5.95260322093963623047e-01) (30, 1.52591571211814880371e-01) (31, 5.75851023197174072266e-01) (32, 2.17089161276817321777e-01) (33, -9.50534418225288391113e-02) (34, 6.77848994731903076172e-01) (35, 1.59093186259269714355e-01) (36, 8.40550780296325683594e-01) (37, 2.93753892183303833008e-01) (38, 3.22125852108001708984e-01) (39, 4.36620026826858520508e-01) (40, 8.05610299110412597656e-01) (41, 1.68791681528091430664e-01) (42, 1.15389013290405273438e+00) (43, 7.39016711711883544922e-01) (44, 2.82152950763702392578e-01) (45, 3.02674084901809692383e-01) (46, 8.20542752742767333984e-01) (47, 1.01735554635524749756e-01) (48, 3.55702072381973266602e-01) (49, 8.05260017514228820801e-02) (50, 6.90294742584228515625e-01) (51, 4.98373657464981079102e-01) (52, 4.58185791969299316406e-01) (2, 7.09933638572692871094e-01) (3, 2.55198240280151367188e-01) (4, 8.46234619617462158203e-01) (5, 6.93897664546966552734e-01) (6, 8.30404639244079589844e-01) (7, 8.51386070251464843750e-01) (8, 4.22485083341598510742e-01) (9, 8.83957147598266601562e-01) (10, 1.82708740234375000000e-01) (11, 9.32392403483390808105e-02) (12, 7.84487426280975341797e-01) (13, 4.25931155681610107422e-01) (14, 4.25405412912368774414e-01) (15, 2.40809991955757141113e-01) (16, 3.44685018062591552734e-01) (17, 2.23368450999259948730e-01) (18, 3.41319739818572998047e-01) (19, 6.06783688068389892578e-01) (20, 2.41230130195617675781e-01) (21, 6.43518209457397460938e-01) (22, 1.29957184195518493652e-01) (23, 8.43094348907470703125e-01) (24, 8.01590271294116973877e-04) (25, 8.88908803462982177734e-01) (26, 2.56975650787353515625e-01) (27, 4.64012116193771362305e-01) (28, 3.10725271701812744141e-01) (29, 7.93356716632843017578e-01) (30, 2.91644632816314697266e-01) (31, 7.30733990669250488281e-01) (32, 4.03108179569244384766e-01) (33, 7.87463560700416564941e-02) (34, 8.73497366905212402344e-01) (35, 8.07654023170471191406e-01) (36, 7.33432054519653320312e-01) (37, 3.87798309326171875000e-01) (38, 4.01842147111892700195e-01) (39, 5.65599083900451660156e-01) (40, 1.22483305633068084717e-01) (41, 3.84456962347030639648e-01) (42, 8.56469392776489257812e-01) (43, 7.81572341918945312500e-01) (44, 5.49571454524993896484e-01) (45, 3.17148724570870399475e-03) (46, 9.31473851203918457031e-01) (47, 6.78931295871734619141e-01) (48, 4.01527583599090576172e-01) (49, 3.63026142120361328125e-01) (50, 1.36195731163024902344e+00) (51, -6.22616946697235107422e-01) (52, 4.19233441352844238281e-01) (2, -1.57030820846557617188e-01) (3, 3.56417715549468994141e-01) (4, 4.84418213367462158203e-01) (5, 5.49107372760772705078e-01) (6, 3.38418543338775634766e-01) (7, 2.68157273530960083008e-02) (8, 5.69176137447357177734e-01) (9, 4.34373795986175537109e-01) (10, 8.24531674385070800781e-01) (11, 6.88992440700531005859e-01) (12, -4.02885070070624351501e-03) (13, 3.63770902156829833984e-01) (14, 5.88607311248779296875e-01) (15, 3.15976977348327636719e-01) (16, 8.29514503479003906250e-01) (17, 7.08122551441192626953e-01) (18, 1.05258214473724365234e+00) (19, 6.80409789085388183594e-01) (20, 9.91933166980743408203e-01) (21, -3.60646098852157592773e-01) (22, 6.32623791694641113281e-01) (23, 6.60315930843353271484e-01) (24, 7.68184304237365722656e-01) (25, 3.43306869268417358398e-01) (26, 4.35015469789505004883e-01) (27, 4.61183279752731323242e-01) (28, 8.49637746810913085938e-01) (29, 7.54909992218017578125e-01) (30, 7.81221389770507812500e-01) (31, 4.17940557003021240234e-01) (32, 5.99201440811157226562e-01) (33, 4.49992686510086059570e-01) (34, 1.38940826058387756348e-01) (35, 3.85398268699645996094e-01) (36, 3.15337836742401123047e-01) (37, 3.70154887437820434570e-01) (38, 9.69795465469360351562e-01) (39, 1.12812638282775878906e+00) (40, 5.48574179410934448242e-02) (41, 1.07836997509002685547e+00) (42, 4.61098790168762207031e-01) (43, 4.10636603832244873047e-01) (44, -1.46683558821678161621e-01) (45, 2.62249040603637695312e+00) (46, 2.50329881906509399414e-01) (47, 8.61009061336517333984e-01) (48, 1.06833052635192871094e+00) (49, 7.84566044807434082031e-01) (50, 7.02036321163177490234e-02) (51, 2.36310392618179321289e-01) (52, 7.00438201427459716797e-01) (2, 2.66620427370071411133e-01) (3, -1.87964349985122680664e-01) (4, 9.20207798480987548828e-01) (5, -9.24568176269531250000e-02) (6, 9.97246444225311279297e-01) (7, 7.56794512271881103516e-01) (8, -2.41431280970573425293e-01) (9, 9.18995976448059082031e-01) (10, 5.27228355407714843750e-01) (11, 7.32256323099136352539e-02) (12, 8.69621753692626953125e-01) (13, -7.08565488457679748535e-02) (14, 9.19110253453254699707e-02) (15, -2.01305493712425231934e-01) (16, 2.01926514506340026855e-01) (17, 3.16574901342391967773e-01) (18, -6.11900463700294494629e-02) (19, 8.63962709903717041016e-01) (20, -1.21440272778272628784e-02) (21, 7.35486626625061035156e-01) (22, 3.58022898435592651367e-01) (23, -1.56967610120773315430e-01) (24, 1.19368046522140502930e-01) (25, 1.04756426811218261719e+00) (26, 2.25135590881109237671e-04) (27, -2.70163893699645996094e-01) (28, -5.04386782646179199219e-01) (29, 5.86517453193664550781e-01) (30, 4.51276183128356933594e-01) (31, 5.51563203334808349609e-01) (32, 4.58377510309219360352e-01) (33, -2.05470681190490722656e-01) (34, 5.67714691162109375000e-01) (35, -8.86527076363563537598e-02) (36, 6.06652200222015380859e-01) (37, -2.39561907947063446045e-02) (38, 2.02962279319763183594e-01) (39, 5.05167841911315917969e-01) (40, 7.57252752780914306641e-01) (41, 1.80888727307319641113e-01) (42, 9.55336809158325195312e-01) (43, 9.72502648830413818359e-01) (44, 3.19498151540756225586e-01) (45, 4.61765855550765991211e-01) (46, 7.35385954380035400391e-01) (47, -1.74642354249954223633e-01) (48, 2.07835614681243896484e-01) (49, -2.73442566394805908203e-01) (50, 7.18689978122711181641e-01) (51, 5.56853175163269042969e-01) (52, 7.00063586235046386719e-01) (2, 4.31445270776748657227e-01) (3, 7.56266415119171142578e-01) (4, -4.23357784748077392578e-02) (5, 3.40433895587921142578e-01) (6, 2.86374688148498535156e-01) (7, 2.68455052375793457031e+00) (8, 7.68319606781005859375e-01) (9, -1.63822062313556671143e-02) (10, 1.09257459640502929688e+00) (11, 7.49439477920532226562e-01) (12, 8.79170596599578857422e-01) (13, 5.38553774356842041016e-01) (14, 4.51555281877517700195e-01) (15, 6.78776025772094726562e-01) (16, 4.10027474164962768555e-01) (17, 5.74395060539245605469e-01) (18, 3.80187898874282836914e-01) (19, 2.62416863441467285156e+00) (20, 2.09283947944641113281e-01) (21, 2.22144290804862976074e-01) (22, 7.76487529277801513672e-01) (23, 5.81500828266143798828e-01) (24, 9.69196438789367675781e-01) (25, -1.37330025434494018555e-01) (26, 8.91643881797790527344e-01) (27, 6.51021301746368408203e-01) (28, 1.33469617366790771484e+00) (29, 1.07046067714691162109e+00) (30, 8.39737057685852050781e-01) (31, 2.59053778648376464844e+00) (32, 2.22313985228538513184e-01) (33, 7.28099882602691650391e-01) (34, 3.85630458593368530273e-01) (35, 6.36756658554077148438e-01) (36, 4.26644980907440185547e-01) (37, 5.19886910915374755859e-01) (38, 1.39542436599731445312e+00) (39, 8.04101824760437011719e-01) (40, 8.37420165538787841797e-01) (41, 4.61533099412918090820e-01) (42, 4.84664916992187500000e-01) (43, 9.55697745084762573242e-02) (44, 2.85914570093154907227e-01) (45, 1.55985534191131591797e+00) (46, 3.45103478431701660156e+00) (47, 1.15111470222473144531e+00) (48, 1.61757373809814453125e+00) (49, 6.71370208263397216797e-01) (50, 7.67777562141418457031e-01) (51, 7.91611015796661376953e-01) (52, 1.48366439342498779297e+00) (2, 1.86902090907096862793e-01) (3, 7.83724784851074218750e-01) (4, 5.18545448780059814453e-01) (5, 3.03159534931182861328e-01) (6, 3.59207540750503540039e-01) (7, 3.70892256498336791992e-01) (8, 7.48570024967193603516e-01) (9, 6.67824968695640563965e-02) (10, 1.58099615573883056641e+00) (11, 1.14140763878822326660e-01) (12, 6.10844671726226806641e-01) (13, 6.45038485527038574219e-01) (14, 5.71931838989257812500e-01) (15, 6.06847226619720458984e-01) (16, 1.68449127674102783203e+00) (17, 1.13849782943725585938e+00) (18, -3.04381430149078369141e-01) (19, -9.94667232036590576172e-01) (20, 1.08457255363464355469e+00) (21, 2.32099264860153198242e-01) (22, 1.03815412521362304688e+00) (23, 8.00348520278930664062e-01) (24, 6.52992010116577148438e-01) (25, 5.49730658531188964844e-01) (26, 6.55147790908813476562e-01) (27, 7.65534996986389160156e-01) (28, 1.52160942554473876953e+00) (29, 1.33607912063598632812e+00) (30, 1.47743666172027587891e+00) (31, 3.67485135793685913086e-01) (32, -1.72806948423385620117e-01) (33, 7.26056575775146484375e-01) (34, 3.75159710645675659180e-01) (35, 7.71794736385345458984e-01) (36, 1.95161998271942138672e-01) (37, 6.15873038768768310547e-01) (38, 1.48013496398925781250e+00) (39, 1.58568596839904785156e+00) (40, 3.39447975158691406250e-01) (41, 9.14362967014312744141e-01) (42, 3.68283420801162719727e-01) (43, 6.95999860763549804688e-01) (44, -3.73085379600524902344e-01) (45, 3.41992926597595214844e+00) (46, 3.65547269582748413086e-01) (47, 7.30904638767242431641e-01) (48, 1.18614423274993896484e+00) (49, -2.61011886596679687500e+00) (50, 9.96372282505035400391e-01) (51, 3.44167256355285644531e+00) (52, 1.40180873870849609375e+00) (2, 8.02634179592132568359e-01) (3, -1.05661690235137939453e-01) (4, 7.99158990383148193359e-01) (5, 2.93568640947341918945e-01) (6, 9.18493092060089111328e-01) (7, 6.15908920764923095703e-01) (8, -5.69374337792396545410e-02) (9, 8.46937954425811767578e-01) (10, 2.17963337898254394531e-01) (11, -3.09982132166624069214e-02) (12, 7.14155554771423339844e-01) (13, -1.26691651530563831329e-03) (14, 1.74003481864929199219e-01) (15, -1.89773216843605041504e-01) (16, 1.42112225294113159180e-01) (17, 2.13250562548637390137e-01) (18, 1.19009278714656829834e-01) (19, 5.41444659233093261719e-01) (20, 6.65722340345382690430e-02) (21, 3.47443342208862304688e-01) (22, 1.53685867786407470703e-01) (23, 7.81476497650146484375e-02) (24, 3.12158055603504180908e-02) (25, 8.58956038951873779297e-01) (26, -9.06294584274291992188e-02) (27, 1.72073044814169406891e-03) (28, 2.61951923370361328125e-01) (29, 5.65540492534637451172e-01) (30, 3.81279885768890380859e-02) (31, 4.79498624801635742188e-01) (32, 3.32111269235610961914e-01) (33, -5.55308647453784942627e-02) (34, 5.71319103240966796875e-01) (35, 1.04998201131820678711e-01) (36, 9.64284956455230712891e-01) (37, 7.61033892631530761719e-02) (38, 2.14934065937995910645e-01) (39, 3.99866104125976562500e-01) (40, -7.39422515034675598145e-02) (41, 2.45408162474632263184e-01) (42, 1.15054655075073242188e+00) (43, 8.62811565399169921875e-01) (44, 6.04527711868286132812e-01) (45, 1.94271609187126159668e-01) (46, 9.71746802330017089844e-01) (47, -2.44838431477546691895e-01) (48, 2.25557848811149597168e-01) (49, 6.18453882634639739990e-02) (50, 6.46746337413787841797e-01) (51, 3.33049952983856201172e-01) (52, 5.94037711620330810547e-01) (2, 2.61432766914367675781e-01) (3, -2.52718687057495117188e-01) (4, 8.80311965942382812500e-01) (5, -1.28807559609413146973e-01) (6, 1.18770122528076171875e+00) (7, 8.16720366477966308594e-01) (8, -2.13500455021858215332e-01) (9, 7.77837395668029785156e-01) (10, 1.56244978308677673340e-01) (11, -1.42522349953651428223e-01) (12, 8.28093290328979492188e-01) (13, -1.32074564695358276367e-01) (14, 7.90925249457359313965e-02) (15, -1.59646302461624145508e-01) (16, 1.91019818186759948730e-01) (17, 1.97187274694442749023e-01) (18, 5.89327253401279449463e-02) (19, 4.85693454742431640625e-01) (20, 8.43501538038253784180e-02) (21, 4.57988440990447998047e-01) (22, 3.40576112270355224609e-01) (23, 3.91379669308662414551e-02) (24, 1.94423377513885498047e-01) (25, 7.53194272518157958984e-01) (26, -1.29337370395660400391e-01) (27, -2.46763288974761962891e-01) (28, 1.24924890697002410889e-01) (29, 4.65137779712677001953e-01) (30, 1.67608231306076049805e-01) (31, 4.10421341657638549805e-01) (32, 4.09248620271682739258e-01) (33, -2.29155331850051879883e-01) (34, 4.40774381160736083984e-01) (35, -1.79020792245864868164e-01) (36, 1.03779423236846923828e+00) (37, -1.90179109573364257812e-01) (38, 2.27477282285690307617e-01) (39, 4.59050238132476806641e-01) (40, -1.14710593223571777344e+00) (41, 3.53356122970581054688e-01) (42, 1.10118031501770019531e+00) (43, 1.06666696071624755859e+00) (44, 5.03545880317687988281e-01) (45, 1.20985314249992370605e-01) (46, 9.04792428016662597656e-01) (47, -1.35987341403961181641e-01) (48, 4.03504848480224609375e-01) (49, -1.34976059198379516602e-01) (50, 7.73236095905303955078e-01) (51, 8.42235028743743896484e-01) (52, 6.00228965282440185547e-01) (2, 1.17907384410500526428e-02) (3, 4.24768626689910888672e-01) (4, 1.30970343947410583496e-01) (5, 4.10658210515975952148e-01) (6, 2.90605157613754272461e-01) (7, 1.24344579875469207764e-01) (8, 4.84199136495590209961e-01) (9, 1.32018908858299255371e-01) (10, 5.20414113998413085938e-01) (11, 6.81858420372009277344e-01) (12, 3.41594852507114410400e-02) (13, 4.16790395975112915039e-01) (14, 8.27593386173248291016e-01) (15, 4.16706293821334838867e-01) (16, 4.65219736099243164062e-01) (17, -3.25206965208053588867e-02) (18, 7.17977643013000488281e-01) (19, -6.25376775860786437988e-02) (20, -2.61143833398818969727e-01) (21, 7.49806016683578491211e-02) (22, 4.83973622322082519531e-01) (23, 1.04875493049621582031e+00) (24, -1.27008783817291259766e+00) (25, 1.91154152154922485352e-01) (26, 6.13938570022583007812e-01) (27, 4.55440342426300048828e-01) (28, 4.21184122562408447266e-01) (29, 1.12542010843753814697e-01) (30, 3.54381740093231201172e-01) (31, -5.51999211311340332031e-02) (32, 7.08116292953491210938e-01) (33, 4.18542236089706420898e-01) (34, 5.12532666325569152832e-02) (35, 5.01981735229492187500e-01) (36, 2.18278333544731140137e-01) (37, 5.86607038974761962891e-01) (38, 4.75761324167251586914e-01) (39, 5.12173295021057128906e-01) (40, -8.34249332547187805176e-02) (41, 6.17410719394683837891e-01) (42, 2.24891155958175659180e-01) (43, 1.24519057571887969971e-01) (44, 8.03479433059692382812e-01) (45, 5.20689487457275390625e-01) (46, 8.77046436071395874023e-02) (47, 6.46535396575927734375e-01) (48, 1.99153780937194824219e-01) (49, 4.47071701288223266602e-01) (50, 1.63803413510322570801e-01) (51, 5.49269057810306549072e-02) (52, 7.68515050411224365234e-01) (2, 6.21559083461761474609e-01) (3, 4.05823290348052978516e-01) (4, 7.91822910308837890625e-01) (5, 1.65598109364509582520e-01) (6, 6.57287895679473876953e-01) (7, 6.15651905536651611328e-01) (8, 3.09196203947067260742e-01) (9, 8.67831170558929443359e-01) (10, -2.33235165476799011230e-01) (11, 4.07062858343124389648e-01) (12, 9.67751219868659973145e-02) (13, 2.20965251326560974121e-01) (14, 4.51472789049148559570e-01) (15, 4.06168222427368164062e-01) (16, 2.87213087081909179688e-01) (17, -3.24419647455215454102e-01) (18, 6.63353860378265380859e-01) (19, 7.41577327251434326172e-01) (20, -3.02019566297531127930e-01) (21, 8.54085624217987060547e-01) (22, 1.73648744821548461914e-01) (23, 3.59789431095123291016e-01) (24, -4.29655564948916435242e-03) (25, 8.34233641624450683594e-01) (26, 2.80738949775695800781e-01) (27, 3.10645043849945068359e-01) (28, -1.03008620440959930420e-01) (29, 3.51515591144561767578e-01) (30, 5.60747832059860229492e-02) (31, 8.44246089458465576172e-01) (32, 9.09429669380187988281e-01) (33, 4.65733736753463745117e-01) (34, 7.55121111869812011719e-01) (35, 2.77452647686004638672e-01) (36, 3.81814330816268920898e-01) (37, 2.92475968599319458008e-01) (38, -5.23324944078922271729e-02) (39, 2.32329554855823516846e-02) (40, 3.97685706615447998047e-01) (41, 3.11975896358489990234e-01) (42, 5.30594229698181152344e-01) (43, 8.32049131393432617188e-01) (44, -3.68391275405883789062e-02) (45, -2.34681576490402221680e-01) (46, -3.68767213821411132812e+00) (47, 1.42301041632890701294e-02) (48, -1.61730512976646423340e-01) (49, 2.02728718519210815430e-01) (50, 3.74768227338790893555e-01) (51, 1.79633036255836486816e-01) (52, 1.33614152669906616211e-01) (2, 6.58720016479492187500e+01) (3, 4.04908180236816406250e+01) (4, -3.80837707519531250000e+01) (5, -8.76139602661132812500e+01) (6, -2.36209354400634765625e+01) (7, 3.18953952789306640625e+01) (8, 3.19336547851562500000e+01) (9, -3.81659088134765625000e+01) (10, -1.04642868041992187500e+02) (11, -7.21971969604492187500e+01) (12, 3.63588571548461914062e+00) (13, 6.57996902465820312500e+01) (14, 6.60472946166992187500e+01) (15, 4.05569839477539062500e+01) (16, 4.08096237182617187500e+01) (17, -1.33217668533325195312e+01) (18, 4.05970420837402343750e+01) (19, -2.19875097274780273438e+00) (20, 1.08111438751220703125e+01) (21, 4.00610923767089843750e+01) (22, 6.21551513671875000000e+01) (23, 4.63721122741699218750e+01) (24, 1.34421787261962890625e+01) (25, -2.37070331573486328125e+01) (26, 4.04296951293945312500e+01) (27, 4.03473548889160156250e+01) (28, 2.82248458862304687500e+01) (29, 3.22003097534179687500e+01) (30, 4.27686691284179687500e+01) (31, 4.54048080444335937500e+01) (32, -2.38816604614257812500e+01) (33, 4.05668792724609375000e+01) (34, 8.10032348632812500000e+01) (35, 6.60116958618164062500e+01) (36, -2.49508132934570312500e+01) (37, 4.04298324584960937500e+01) (38, 4.58930969238281250000e+00) (39, -3.74833984375000000000e+01) (40, -3.52551689147949218750e+01) (41, -6.45665161132812500000e+02) (42, -2.72370948791503906250e+01) (43, -3.80418395996093750000e+01) (44, -8.20894813537597656250e+00) (45, -1.66854629516601562500e+01) (46, -2.53482456207275390625e+01) (47, 4.29952163696289062500e+01) (48, -9.82192134857177734375e+00) (49, 4.07110595703125000000e+01) (50, 2.88256282806396484375e+01) (51, 6.25472736358642578125e+00) (52, -2.30086193084716796875e+01) (2, 6.35925307869911193848e-02) (3, 5.57643771171569824219e-01) (4, 3.74045334756374359131e-02) (5, 1.66376858949661254883e-01) (6, 4.20641303062438964844e-01) (7, 1.80876821279525756836e-01) (8, 5.30508995056152343750e-01) (9, -2.17747688293457031250e-02) (10, 6.81802034378051757812e-01) (11, 7.20925450325012207031e-01) (12, 1.98188409209251403809e-01) (13, 3.54522943496704101562e-01) (14, 6.90836310386657714844e-01) (15, 5.12171208858489990234e-01) (16, 8.41069996356964111328e-01) (17, 2.14007765054702758789e-01) (18, 5.59511370956897735596e-02) (19, -1.27973318099975585938e-01) (20, -2.98504561185836791992e-01) (21, -1.13437466323375701904e-01) (22, 4.32891368865966796875e-01) (23, 8.77686321735382080078e-01) (24, 7.46894061565399169922e-01) (25, 8.80039706826210021973e-02) (26, 5.25918304920196533203e-01) (27, 4.72694575786590576172e-01) (28, 2.95099675655364990234e-01) (29, 2.37526267766952514648e-01) (30, 5.47010600566864013672e-01) (31, 2.87188752554357051849e-03) (32, 3.86841744184494018555e-01) (33, 5.02442300319671630859e-01) (34, 1.61867048591375350952e-02) (35, 3.86287808418273925781e-01) (36, 4.13654416799545288086e-01) (37, 4.02543723583221435547e-01) (38, 6.21839821338653564453e-01) (39, 8.28682959079742431641e-01) (40, 3.84897232055664062500e-01) (41, 7.11812198162078857422e-01) (42, 4.64287996292114257812e-01) (43, 2.20708344131708145142e-02) (44, 2.53372550010681152344e-01) (45, -1.14722943305969238281e+00) (46, -4.19784545898437500000e+00) (47, 7.19908952713012695312e-01) (48, 4.26118701696395874023e-01) (49, 4.50995355844497680664e-01) (50, 2.62988299131393432617e-01) (51, 5.92260397970676422119e-02) (52, 9.21720266342163085938e-01) (2, 1.09851777553558349609e-01) (3, 1.08403134346008300781e+00) (4, 6.51809424161911010742e-02) (5, 8.19904506206512451172e-01) (6, 1.11274160444736480713e-01) (7, -2.15925171971321105957e-01) (8, 8.83245527744293212891e-01) (9, 1.56491026282310485840e-01) (10, 6.02613449096679687500e-01) (11, 1.12110590934753417969e+00) (12, 1.39609267935156822205e-02) (13, 6.42626166343688964844e-01) (14, 6.59181356430053710938e-01) (15, 1.05165934562683105469e+00) (16, 4.60567355155944824219e-01) (17, 7.75227904319763183594e-01) (18, 9.01138424873352050781e-01) (19, 2.67056077718734741211e-01) (20, 4.17171776294708251953e-01) (21, -2.43824303150177001953e-01) (22, 3.67479234933853149414e-01) (23, 1.01777410507202148438e+00) (24, 3.56262087821960449219e-01) (25, -1.28024267032742500305e-02) (26, 9.89808022975921630859e-01) (27, 8.36136400699615478516e-01) (28, -1.64112067222595214844e+00) (29, 3.38318079710006713867e-01) (30, 4.90025460720062255859e-01) (31, -1.31263747811317443848e-01) (32, 6.77696645259857177734e-01) (33, 1.07707595825195312500e+00) (34, 7.25520402193069458008e-02) (35, 8.15928697586059570312e-01) (36, 5.74371442198753356934e-02) (37, 7.28086411952972412109e-01) (38, 6.31823599338531494141e-01) (39, 7.75675117969512939453e-01) (40, -2.04974710941314697266e-01) (41, 6.76563918590545654297e-01) (42, 1.84541210532188415527e-01) (43, -2.51302551478147506714e-02) (44, 3.03579181432723999023e-01) (45, 7.51651406288146972656e-01) (46, 6.40617087483406066895e-02) (47, 9.82815504074096679688e-01) (48, 6.43772959709167480469e-01) (49, 1.49466764926910400391e+00) (50, -9.01713669300079345703e-02) (51, 1.92222401499748229980e-01) (52, 1.05392229557037353516e+00) (2, -2.81197428703308105469e-01) (3, -2.74899983406066894531e+00) (4, 9.52653288841247558594e-01) (5, -1.76575601100921630859e+00) (6, 1.24158453941345214844e+00) (7, -8.95152688026428222656e-02) (8, -1.63824486732482910156e+00) (9, 3.94665479660034179688e-01) (10, 8.83802032470703125000e+00) (11, 1.05519272387027740479e-01) (12, 5.50130546092987060547e-01) (13, -1.77913486957550048828e+00) (14, -7.35761785507202148438e+00) (15, -1.78491973876953125000e+00) (16, -3.50798156738281250000e+02) (17, 7.20209884643554687500e+00) (18, -2.23770427703857421875e+01) (19, 5.78483223915100097656e-01) (20, -6.42508468627929687500e+01) (21, -2.07084983587265014648e-01) (22, -4.63220030069351196289e-02) (23, 4.95245188474655151367e-01) (24, -1.08575538635253906250e+02) (25, 9.41679954528808593750e-01) (26, -4.76484727859497070312e+00) (27, -4.66206598281860351562e+00) (28, -1.64903507232666015625e+01) (29, 4.41297352313995361328e-01) (30, 4.07418060302734375000e+00) (31, -3.07991176843643188477e-01) (32, -1.62537157535552978516e+00) (33, -2.90124845504760742188e+00) (34, -3.65509130060672760010e-02) (35, -1.86988890171051025391e+00) (36, 4.98078918457031250000e+00) (37, -1.84747648239135742188e+00) (38, 2.00185203552246093750e+01) (39, 4.47154760360717773438e+00) (40, 2.03072166442871093750e+00) (41, 6.35569095611572265625e-01) (42, 8.44923591613769531250e+00) (43, 2.14674544334411621094e+00) (44, -2.85081887245178222656e+00) (45, 8.90316963195800781250e+00) (46, 2.48592555522918701172e-01) (47, 2.89329499006271362305e-01) (48, 8.92847251892089843750e+00) (49, -1.50439369678497314453e+00) (50, -3.36114317178726196289e-02) (51, 1.56635987758636474609e+00) (52, 2.01556167602539062500e+02) (2, 9.35199439525604248047e-01) (3, 2.78072416782379150391e-01) (4, 5.74836671352386474609e-01) (5, 5.29795527458190917969e-01) (6, 6.00465834140777587891e-01) (7, 4.80363368988037109375e-01) (8, 2.47024536132812500000e-01) (9, 9.28197979927062988281e-01) (10, 2.76158124208450317383e-01) (11, 2.79793471097946166992e-01) (12, 5.47752082347869873047e-01) (13, 1.89785137772560119629e-01) (14, 3.32238554954528808594e-01) (15, 2.41079390048980712891e-01) (16, 1.41099900007247924805e-01) (17, 1.93966343998908996582e-01) (18, -2.00476735830307006836e-01) (19, 5.16379177570343017578e-01) (20, 1.51371195912361145020e-01) (21, 9.00855481624603271484e-01) (22, 2.87261813879013061523e-01) (23, 1.00977325439453125000e+00) (24, 2.58214712142944335938e-01) (25, 8.20883572101593017578e-01) (26, 2.79244452714920043945e-01) (27, 1.82168960571289062500e-01) (28, 2.26675406098365783691e-01) (29, 2.99256712198257446289e-01) (30, 4.68665689229965209961e-01) (31, 1.11698782444000244141e+00) (32, 4.62844640016555786133e-01) (33, 1.72927647829055786133e-01) (34, 6.96152269840240478516e-01) (35, 4.17405694723129272461e-01) (36, 8.54530751705169677734e-01) (37, 2.47002467513084411621e-01) (38, 8.45123231410980224609e-02) (39, 1.15270748734474182129e-01) (40, 8.04771482944488525391e-01) (41, 3.55307668447494506836e-01) (42, 7.35580146312713623047e-01) (43, 6.34491086006164550781e-01) (44, 9.49086427688598632812e-01) (45, 7.14680194854736328125e-01) (46, 7.98376798629760742188e-01) (47, 3.13497424125671386719e-01) (48, 1.76598712801933288574e-01) (49, 7.68463432788848876953e-01) (50, 4.65310156345367431641e-01) (51, 7.87736251950263977051e-02) (52, 2.47594445943832397461e-01) (2, 5.71765065193176269531e-01) (3, 2.81148403882980346680e-01) (4, 3.09834718704223632812e-01) (5, 3.84691655635833740234e-01) (6, 5.02723693847656250000e-01) (7, 1.09565627574920654297e+00) (8, 6.66483223438262939453e-01) (9, 3.69652539491653442383e-01) (10, 1.08699214458465576172e+00) (11, 9.42887663841247558594e-01) (12, 8.77668783068656921387e-02) (13, 2.80711352825164794922e-01) (14, 2.46294423937797546387e-01) (15, 3.47451359033584594727e-01) (16, 5.97126066684722900391e-01) (17, 1.48462966084480285645e-01) (18, 1.97284966707229614258e-01) (19, 7.09627866744995117188e-01) (20, 4.12431418895721435547e-01) (21, 3.94940316677093505859e-01) (22, 3.76180946826934814453e-01) (23, 1.87124788761138916016e+00) (24, 7.26041018962860107422e-01) (25, 4.04319584369659423828e-01) (26, 5.20227849483489990234e-01) (27, 5.48534393310546875000e-01) (28, 1.52800226211547851562e+00) (29, 1.55785337090492248535e-01) (30, 6.93403720855712890625e-01) (31, 1.00175666809082031250e+00) (32, 2.05918461084365844727e-01) (33, 3.75441700220108032227e-01) (34, 8.82381379604339599609e-01) (35, 4.58507895469665527344e-01) (36, 8.55594158172607421875e-01) (37, 4.05247271060943603516e-01) (38, 1.15865182876586914062e+00) (39, 1.04263293743133544922e+00) (40, 9.03863251209259033203e-01) (41, 1.63630902767181396484e-01) (42, 6.71101272106170654297e-01) (43, 7.88589537143707275391e-01) (44, 1.42736756801605224609e+00) (45, 5.01986145973205566406e-01) (46, 7.68155097961425781250e-01) (47, 1.83441770076751708984e+00) (48, 1.13775515556335449219e+00) (49, 5.44876381754875183105e-02) (50, -2.90301050990819931030e-02) (51, 3.82122904062271118164e-01) (52, 9.94028866291046142578e-01) (2, 4.93259489536285400391e-01) (3, 9.13813591003417968750e-01) (4, 1.15044102072715759277e-01) (5, 1.19170200824737548828e+00) (6, 2.51235723495483398438e-01) (7, 3.06519418954849243164e-01) (8, 1.44982039928436279297e+00) (9, 5.43496152386069297791e-03) (10, 5.09725093841552734375e-01) (11, 8.90674710273742675781e-01) (12, 1.73333004117012023926e-01) (13, 8.28900694847106933594e-01) (14, 7.89775073528289794922e-01) (15, 8.86770844459533691406e-01) (16, 1.62463867664337158203e+00) (17, -2.62163352966308593750e+00) (18, -2.75572586059570312500e+00) (19, 2.97921206802129745483e-02) (20, 1.77286338806152343750e+00) (21, 4.86826747655868530273e-01) (22, 6.62510991096496582031e-01) (23, 1.19405794143676757812e+00) (24, -6.79290175437927246094e-01) (25, 1.84679287485778331757e-03) (26, 8.21593761444091796875e-01) (27, 9.72006559371948242188e-01) (28, -2.37306327819824218750e+01) (29, 5.24661588668823242188e+00) (30, 3.27763020992279052734e-01) (31, 1.91535532474517822266e-01) (32, 7.49547362327575683594e-01) (33, 8.87794256210327148438e-01) (34, 3.37631255388259887695e-01) (35, 1.18691027164459228516e+00) (36, 2.86280456930398941040e-03) (37, 7.74663627147674560547e-01) (38, 6.48684501647949218750e-01) (39, 4.72426366806030273438e+00) (40, -1.69794487953186035156e+00) (41, 5.59103906154632568359e-01) (42, 1.54232144355773925781e-01) (43, 8.63806903362274169922e-02) (44, 2.85862386226654052734e-01) (45, 9.29526329040527343750e-01) (46, -5.96085011959075927734e-01) (47, 2.72260069847106933594e+00) (48, 7.99457311630249023438e-01) (49, 1.35237300395965576172e+00) (50, 1.09480924904346466064e-01) (51, 3.05681228637695312500e-01) (52, 6.35190069675445556641e-01) (2, 2.64877200126647949219e-01) (3, 1.00256371498107910156e+00) (4, 3.03486704826354980469e-01) (5, 8.12590062618255615234e-01) (6, 4.07715439796447753906e-01) (7, 1.80826932191848754883e-01) (8, 8.00369262695312500000e-01) (9, 2.73150891065597534180e-01) (10, 1.36888039112091064453e+00) (11, 7.81888544559478759766e-01) (12, 1.27058282494544982910e-01) (13, 6.87710464000701904297e-01) (14, 4.19949561357498168945e-01) (15, 9.46850895881652832031e-01) (16, 1.44450521469116210938e+00) (17, -6.58149194717407226562e+00) (18, 1.48570284247398376465e-01) (19, 1.77299296855926513672e+00) (20, 1.04948484897613525391e+00) (21, 4.97665315866470336914e-01) (22, 9.92165327072143554688e-01) (23, 5.62693476676940917969e-01) (24, 1.94146347045898437500e+00) (25, 1.34356692433357238770e-01) (26, 9.07080292701721191406e-01) (27, 7.98230350017547607422e-01) (28, 9.06105339527130126953e-01) (29, 7.19168066978454589844e-01) (30, 1.01953387260437011719e+00) (31, 7.26788818836212158203e-01) (32, 2.51045584678649902344e-01) (33, 9.11685705184936523438e-01) (34, 2.66748815774917602539e-01) (35, 7.15275704860687255859e-01) (36, 4.68606263399124145508e-01) (37, 8.07123780250549316406e-01) (38, 1.05491089820861816406e+00) (39, 9.97699141502380371094e-01) (40, 1.68389356136322021484e+00) (41, 6.97512328624725341797e-01) (42, 3.81929963827133178711e-01) (43, 3.94383907318115234375e-01) (44, 4.17516618967056274414e-01) (45, 1.70875811576843261719e+00) (46, 9.03289318084716796875e-01) (47, 7.75874257087707519531e-01) (48, 1.46141064167022705078e+00) (49, 7.23772883415222167969e-01) (50, 1.86796009540557861328e-01) (51, 5.75224065780639648438e+00) (52, 1.32887101173400878906e+00) (2, 8.46103310585021972656e-01) (3, 4.05364692211151123047e-01) (4, 3.50873112678527832031e-01) (5, 6.94518148899078369141e-01) (6, 8.94859910011291503906e-01) (7, 6.00524544715881347656e-01) (8, 3.09236496686935424805e-01) (9, 7.38441526889801025391e-01) (10, 2.76493459939956665039e-01) (11, 1.68959632515907287598e-01) (12, 3.63717764616012573242e-01) (13, 6.30856096744537353516e-01) (14, 6.52617573738098144531e-01) (15, 2.75683403015136718750e-01) (16, 2.67206788063049316406e-01) (17, 2.13161446154117584229e-02) (18, 7.92223870754241943359e-01) (19, 1.19432091712951660156e+00) (20, 3.78657013177871704102e-01) (21, 6.02818489074707031250e-01) (22, 4.12063181400299072266e-01) (23, 9.65510234236717224121e-02) (24, 1.14163827896118164062e+00) (25, 8.22833240032196044922e-01) (26, 2.46414631605148315430e-01) (27, 3.97735685110092163086e-01) (28, 7.10034668445587158203e-02) (29, -5.52913453429937362671e-03) (30, 3.85829895734786987305e-01) (31, 3.33132475614547729492e-01) (32, 6.86273276805877685547e-01) (33, 4.05408143997192382812e-01) (34, 3.54540318250656127930e-01) (35, 7.58079349994659423828e-01) (36, 6.76260471343994140625e-01) (37, 6.00533604621887207031e-01) (38, 1.41023501753807067871e-01) (39, 4.24335658550262451172e-01) (40, 4.02786582708358764648e-01) (41, 6.41245007514953613281e-01) (42, 8.02713096141815185547e-01) (43, 3.88554960489273071289e-01) (44, 2.28295803070068359375e-01) (45, 1.09722368419170379639e-01) (46, 8.15255463123321533203e-01) (47, 2.15518787503242492676e-01) (48, 2.05511480569839477539e-01) (49, 6.53333008289337158203e-01) (50, 6.58673822879791259766e-01) (51, -3.66982489824295043945e-01) (52, 3.11746180057525634766e-01) (2, 7.35983788967132568359e-01) (3, -1.50409832596778869629e-01) (4, 7.06571757793426513672e-01) (5, 1.19148984551429748535e-01) (6, 1.07676494121551513672e+00) (7, 6.36172533035278320312e-01) (8, -7.67716392874717712402e-02) (9, 9.65611517429351806641e-01) (10, 1.74240708351135253906e-01) (11, 2.37487982958555221558e-02) (12, 8.15903663635253906250e-01) (13, 1.61673903465270996094e-01) (14, 1.59377828240394592285e-01) (15, -5.64535632729530334473e-02) (16, 2.14731290936470031738e-01) (17, 2.31049999594688415527e-01) (18, 2.60445207357406616211e-01) (19, 6.36198461055755615234e-01) (20, 4.26888540387153625488e-02) (21, 5.43500721454620361328e-01) (22, 1.03206947445869445801e-01) (23, 2.20023259520530700684e-01) (24, 1.52029737830162048340e-01) (25, 8.93822848796844482422e-01) (26, -1.29453435540199279785e-01) (27, -8.67275968194007873535e-02) (28, 1.65769591927528381348e-01) (29, 7.34788775444030761719e-01) (30, 3.59841316938400268555e-01) (31, 6.35846793651580810547e-01) (32, 2.73419648408889770508e-01) (33, -5.42939156293869018555e-02) (34, 6.60841643810272216797e-01) (35, 6.68528899550437927246e-02) (36, 8.10571014881134033203e-01) (37, 1.38133447617292404175e-02) (38, 3.10701221227645874023e-01) (39, 4.43049013614654541016e-01) (40, -5.12607470154762268066e-02) (41, 3.30560863018035888672e-01) (42, 1.03602552413940429688e+00) (43, 9.05913531780242919922e-01) (44, 4.42749023437500000000e-01) (45, 2.22282826900482177734e-01) (46, 9.48253273963928222656e-01) (47, 1.43787279725074768066e-01) (48, 2.81056374311447143555e-01) (49, -5.12797757983207702637e-02) (50, 6.34080290794372558594e-01) (51, 4.50149506330490112305e-01) (52, 5.15974998474121093750e-01) (53, -1.81099861860275268555e-01) (54, 1.07922114431858062744e-01) (55, -5.68756580352783203125e-01) (56, 9.73026692867279052734e-01) (57, 7.53278553485870361328e-01) (58, -1.18028961122035980225e-01) (59, -1.61095395684242248535e-01) (60, -2.87236273288726806641e-01) (61, 5.46041578054428100586e-02) (62, 5.89606225490570068359e-01) (63, 1.31236106157302856445e-01) (64, -1.30001818761229515076e-02) (65, 2.15716719627380371094e-01) (66, 1.66617915034294128418e-01) (67, 5.32832503318786621094e-01) (68, 5.31483530998229980469e-01) (69, 9.93203222751617431641e-02) (70, 4.31795865297317504883e-02) (71, 5.37641108036041259766e-01) (72, 2.51411586999893188477e-01) (73, -2.55263686180114746094e-01) (74, 5.38006305694580078125e-01) (75, -4.07640647888183593750e+00) (76, -5.56756973266601562500e-01) (77, 6.16464316844940185547e-01) (78, -1.84082269668579101562e-01) (79, 5.26576757431030273438e-01) (80, 1.27214014530181884766e+00) (81, 1.26013025641441345215e-01) (82, 1.09294801950454711914e-01) (83, -2.91441261768341064453e-01) (84, -1.30815356969833374023e-01) (85, -8.12420308589935302734e-01) (86, -1.20373308658599853516e-01) (87, 6.73960506916046142578e-01) (88, 6.26479506492614746094e-01) (89, -1.44626066088676452637e-01) (90, 3.56611132621765136719e-01) (91, 