FANN_FLO_2.1
num_layers=5
learning_rate=0.700000
connection_rate=1.000000
network_type=0
learning_momentum=0.000000
training_algorithm=2
train_error_function=1
train_stop_function=0
cascade_output_change_fraction=0.010000
quickprop_decay=-0.000100
quickprop_mu=1.750000
rprop_increase_factor=1.200000
rprop_decrease_factor=0.500000
rprop_delta_min=0.000000
rprop_delta_max=50.000000
rprop_delta_zero=0.100000
cascade_output_stagnation_epochs=12
cascade_candidate_change_fraction=0.010000
cascade_candidate_stagnation_epochs=12
cascade_max_out_epochs=150
cascade_min_out_epochs=50
cascade_max_cand_epochs=150
cascade_min_cand_epochs=50
cascade_num_candidate_groups=2
bit_fail_limit=3.49999994039535522461e-01
cascade_candidate_limit=1.00000000000000000000e+03
cascade_weight_multiplier=4.00000005960464477539e-01
cascade_activation_functions_count=10
cascade_activation_functions=3 5 7 8 10 11 14 15 16 17 
cascade_activation_steepnesses_count=4
cascade_activation_steepnesses=2.50000000000000000000e-01 5.00000000000000000000e-01 7.50000000000000000000e-01 1.00000000000000000000e+00 
layer_sizes=2 51 51 51 127 
scale_included=1
scale_mean_in=5791.692383 
scale_deviation_in=12047.558594 
scale_new_min_in=-1.000000 
scale_factor_in=1.000000 
scale_mean_out=3.768881 1.406696 0.695830 0.365616 0.197375 0.108403 0.060329 0.033953 0.019302 0.011076 0.006412 0.003745 0.002206 0.001311 0.000786 0.000475 0.000289 0.000178 0.000110 0.000069 0.000043 0.000028 0.000018 0.000011 0.000007 0.000005 0.000003 0.000002 0.000001 0.000001 0.000001 0.000000 0.000000 0.000000 0.000000 0.000000 0.000000 0.000000 0.000000 0.000000 0.000000 0.000000 0.000000 0.000000 0.000000 0.000000 0.000000 0.077138 0.036951 0.022391 0.014379 0.009509 0.006401 0.004361 0.002996 0.002071 0.001436 0.000997 0.000692 0.000478 0.000329 0.000224 0.000150 0.000099 0.000064 0.000040 0.000024 0.000014 0.000007 0.000004 0.000002 0.000001 0.000000 0.000000 0.000000 0.000000 0.000000 0.000000 0.000000 0.000000 0.000000 0.000000 0.000000 0.034814 0.021791 0.013767 0.008781 0.005655 0.003677 0.002413 0.001597 0.001066 0.000717 0.000486 0.000330 0.000226 0.000154 0.000105 0.000072 0.000049 0.000033 0.000022 0.000014 0.000009 0.000006 0.000003 0.000002 0.000001 0.000001 0.000000 0.000000 0.000000 0.000000 0.000000 0.000000 0.000000 0.000000 0.000000 0.000000 0.000000 0.000000 0.000000 0.041834 0.253428 0.142925 20.493347 
scale_deviation_out=0.784883 0.583414 0.383972 0.225927 0.130175 0.074789 0.043093 0.024961 0.014551 0.008542 0.005051 0.003009 0.001807 0.001093 0.000667 0.000410 0.000254 0.000159 0.000100 0.000063 0.000040 0.000026 0.000017 0.000011 0.000007 0.000005 0.000003 0.000002 0.000001 0.000001 0.000001 0.000000 0.000000 0.000000 0.000000 0.000000 0.000000 0.000000 0.000000 0.000000 0.000000 0.000000 0.000000 0.000000 0.000000 0.000000 0.000000 0.072896 0.027676 0.017828 0.012284 0.008616 0.006087 0.004317 0.003068 0.002182 0.001552 0.001101 0.000779 0.000547 0.000381 0.000262 0.000177 0.000118 0.000076 0.000047 0.000028 0.000016 0.000008 0.000004 0.000002 0.000001 0.000000 0.000000 0.000000 0.000000 0.000000 0.000000 0.000000 0.000000 0.000000 0.000000 0.000000 0.037781 0.023727 0.015025 0.009595 0.006181 0.004017 0.002634 0.001742 0.001162 0.000782 0.000529 0.000361 0.000246 0.000169 0.000115 0.000079 0.000053 0.000036 0.000024 0.000015 0.000010 0.000006 0.000003 0.000002 0.000001 0.000001 0.000000 0.000000 0.000000 0.000000 0.000000 0.000000 0.000000 0.000000 0.000000 0.000000 0.000000 0.000000 0.000000 0.057951 0.288618 0.018315 2.524230 
scale_new_min_out=-1.000000 -1.000000 -1.000000 -1.000000 -1.000000 -1.000000 -1.000000 -1.000000 -1.000000 -1.000000 -1.000000 -1.000000 -1.000000 -1.000000 -1.000000 -1.000000 -1.000000 -1.000000 -1.000000 -1.000000 -1.000000 -1.000000 -1.000000 -1.000000 -1.000000 -1.000000 -1.000000 -1.000000 -1.000000 -1.000000 -1.000000 -1.000000 -1.000000 -1.000000 -1.000000 -1.000000 -1.000000 -1.000000 -1.000000 -1.000000 -1.000000 -1.000000 -1.000000 -1.000000 -1.000000 -1.000000 -1.000000 -1.000000 -1.000000 -1.000000 -1.000000 -1.000000 -1.000000 -1.000000 -1.000000 -1.000000 -1.000000 -1.000000 -1.000000 -1.000000 -1.000000 -1.000000 -1.000000 -1.000000 -1.000000 -1.000000 -1.000000 -1.000000 -1.000000 -1.000000 -1.000000 -1.000000 -1.000000 -1.000000 -1.000000 -1.000000 -1.000000 -1.000000 -1.000000 -1.000000 -1.000000 -1.000000 -1.000000 -1.000000 -1.000000 -1.000000 -1.000000 -1.000000 -1.000000 -1.000000 -1.000000 -1.000000 -1.000000 -1.000000 -1.000000 -1.000000 -1.000000 -1.000000 -1.000000 -1.000000 -1.000000 -1.000000 -1.000000 -1.000000 -1.000000 -1.000000 -1.000000 -1.000000 -1.000000 -1.000000 -1.000000 -1.000000 -1.000000 -1.000000 -1.000000 -1.000000 -1.000000 -1.000000 -1.000000 -1.000000 -1.000000 -1.000000 -1.000000 -1.000000 -1.000000 -1.000000 
scale_factor_out=1.000000 1.000000 1.000000 1.000000 1.000000 1.000000 1.000000 1.000000 1.000000 1.000000 1.000000 1.000000 1.000000 1.000000 1.000000 1.000000 1.000000 1.000000 1.000000 1.000000 1.000000 1.000000 1.000000 1.000000 1.000000 1.000000 1.000000 1.000000 1.000000 1.000000 1.000000 1.000000 1.000000 1.000000 1.000000 1.000000 1.000000 1.000000 1.000000 1.000000 1.000000 1.000000 1.000000 1.000000 1.000000 1.000000 1.000000 1.000000 1.000000 1.000000 1.000000 1.000000 1.000000 1.000000 1.000000 1.000000 1.000000 1.000000 1.000000 1.000000 1.000000 1.000000 1.000000 1.000000 1.000000 1.000000 1.000000 1.000000 1.000000 1.000000 1.000000 1.000000 1.000000 1.000000 1.000000 1.000000 1.000000 1.000000 1.000000 1.000000 1.000000 1.000000 1.000000 1.000000 1.000000 1.000000 1.000000 1.000000 1.000000 1.000000 1.000000 1.000000 1.000000 1.000000 1.000000 1.000000 1.000000 1.000000 1.000000 1.000000 1.000000 1.000000 1.000000 1.000000 1.000000 1.000000 1.000000 1.000000 1.000000 1.000000 1.000000 1.000000 1.000000 1.000000 1.000000 1.000000 1.000000 1.000000 1.000000 1.000000 1.000000 1.000000 1.000000 1.000000 1.000000 1.000000 
neurons (num_inputs, activation_function, activation_steepness)=(0, 0, 0.00000000000000000000e+00) (0, 0, 0.00000000000000000000e+00) (2, 5, 5.00000000000000000000e-01) (2, 5, 5.00000000000000000000e-01) (2, 5, 5.00000000000000000000e-01) (2, 5, 5.00000000000000000000e-01) (2, 5, 5.00000000000000000000e-01) (2, 5, 5.00000000000000000000e-01) (2, 5, 5.00000000000000000000e-01) (2, 5, 5.00000000000000000000e-01) (2, 5, 5.00000000000000000000e-01) (2, 5, 5.00000000000000000000e-01) (2, 5, 5.00000000000000000000e-01) (2, 5, 5.00000000000000000000e-01) (2, 5, 5.00000000000000000000e-01) (2, 5, 5.00000000000000000000e-01) (2, 5, 5.00000000000000000000e-01) (2, 5, 5.00000000000000000000e-01) (2, 5, 5.00000000000000000000e-01) (2, 5, 5.00000000000000000000e-01) (2, 5, 5.00000000000000000000e-01) (2, 5, 5.00000000000000000000e-01) (2, 5, 5.00000000000000000000e-01) (2, 5, 5.00000000000000000000e-01) (2, 5, 5.00000000000000000000e-01) (2, 5, 5.00000000000000000000e-01) (2, 5, 5.00000000000000000000e-01) (2, 5, 5.00000000000000000000e-01) (2, 5, 5.00000000000000000000e-01) (2, 5, 5.00000000000000000000e-01) (2, 5, 5.00000000000000000000e-01) (2, 5, 5.00000000000000000000e-01) (2, 5, 5.00000000000000000000e-01) (2, 5, 5.00000000000000000000e-01) (2, 5, 5.00000000000000000000e-01) (2, 5, 5.00000000000000000000e-01) (2, 5, 5.00000000000000000000e-01) (2, 5, 5.00000000000000000000e-01) (2, 5, 5.00000000000000000000e-01) (2, 5, 5.00000000000000000000e-01) (2, 5, 5.00000000000000000000e-01) (2, 5, 5.00000000000000000000e-01) (2, 5, 5.00000000000000000000e-01) (2, 5, 5.00000000000000000000e-01) (2, 5, 5.00000000000000000000e-01) (2, 5, 5.00000000000000000000e-01) (2, 5, 5.00000000000000000000e-01) (2, 5, 5.00000000000000000000e-01) (2, 5, 5.00000000000000000000e-01) (2, 5, 5.00000000000000000000e-01) (2, 5, 5.00000000000000000000e-01) (2, 5, 5.00000000000000000000e-01) (0, 5, 0.00000000000000000000e+00) (51, 5, 5.00000000000000000000e-01) (51, 5, 5.00000000000000000000e-01) (51, 5, 5.00000000000000000000e-01) (51, 5, 5.00000000000000000000e-01) (51, 5, 5.00000000000000000000e-01) (51, 5, 5.00000000000000000000e-01) (51, 5, 5.00000000000000000000e-01) (51, 5, 5.00000000000000000000e-01) (51, 5, 5.00000000000000000000e-01) (51, 5, 5.00000000000000000000e-01) (51, 5, 5.00000000000000000000e-01) (51, 5, 5.00000000000000000000e-01) (51, 5, 5.00000000000000000000e-01) (51, 5, 5.00000000000000000000e-01) (51, 5, 5.00000000000000000000e-01) (51, 5, 5.00000000000000000000e-01) (51, 5, 5.00000000000000000000e-01) (51, 5, 5.00000000000000000000e-01) (51, 5, 5.00000000000000000000e-01) (51, 5, 5.00000000000000000000e-01) (51, 5, 5.00000000000000000000e-01) (51, 5, 5.00000000000000000000e-01) (51, 5, 5.00000000000000000000e-01) (51, 5, 5.00000000000000000000e-01) (51, 5, 5.00000000000000000000e-01) (51, 5, 5.00000000000000000000e-01) (51, 5, 5.00000000000000000000e-01) (51, 5, 5.00000000000000000000e-01) (51, 5, 5.00000000000000000000e-01) (51, 5, 5.00000000000000000000e-01) (51, 5, 5.00000000000000000000e-01) (51, 5, 5.00000000000000000000e-01) (51, 5, 5.00000000000000000000e-01) (51, 5, 5.00000000000000000000e-01) (51, 5, 5.00000000000000000000e-01) (51, 5, 5.00000000000000000000e-01) (51, 5, 5.00000000000000000000e-01) (51, 5, 5.00000000000000000000e-01) (51, 5, 5.00000000000000000000e-01) (51, 5, 5.00000000000000000000e-01) (51, 5, 5.00000000000000000000e-01) (51, 5, 5.00000000000000000000e-01) (51, 5, 5.00000000000000000000e-01) (51, 5, 5.00000000000000000000e-01) (51, 5, 5.00000000000000000000e-01) (51, 5, 5.00000000000000000000e-01) (51, 5, 5.00000000000000000000e-01) (51, 5, 5.00000000000000000000e-01) (51, 5, 5.00000000000000000000e-01) (51, 5, 5.00000000000000000000e-01) (0, 5, 0.00000000000000000000e+00) (51, 5, 5.00000000000000000000e-01) (51, 5, 5.00000000000000000000e-01) (51, 5, 5.00000000000000000000e-01) (51, 5, 5.00000000000000000000e-01) (51, 5, 5.00000000000000000000e-01) (51, 5, 5.00000000000000000000e-01) (51, 5, 5.00000000000000000000e-01) (51, 5, 5.00000000000000000000e-01) (51, 5, 5.00000000000000000000e-01) (51, 5, 5.00000000000000000000e-01) (51, 5, 5.00000000000000000000e-01) (51, 5, 5.00000000000000000000e-01) (51, 5, 5.00000000000000000000e-01) (51, 5, 5.00000000000000000000e-01) (51, 5, 5.00000000000000000000e-01) (51, 5, 5.00000000000000000000e-01) (51, 5, 5.00000000000000000000e-01) (51, 5, 5.00000000000000000000e-01) (51, 5, 5.00000000000000000000e-01) (51, 5, 5.00000000000000000000e-01) (51, 5, 5.00000000000000000000e-01) (51, 5, 5.00000000000000000000e-01) (51, 5, 5.00000000000000000000e-01) (51, 5, 5.00000000000000000000e-01) (51, 5, 5.00000000000000000000e-01) (51, 5, 5.00000000000000000000e-01) (51, 5, 5.00000000000000000000e-01) (51, 5, 5.00000000000000000000e-01) (51, 5, 5.00000000000000000000e-01) (51, 5, 5.00000000000000000000e-01) (51, 5, 5.00000000000000000000e-01) (51, 5, 5.00000000000000000000e-01) (51, 5, 5.00000000000000000000e-01) (51, 5, 5.00000000000000000000e-01) (51, 5, 5.00000000000000000000e-01) (51, 5, 5.00000000000000000000e-01) (51, 5, 5.00000000000000000000e-01) (51, 5, 5.00000000000000000000e-01) (51, 5, 5.00000000000000000000e-01) (51, 5, 5.00000000000000000000e-01) (51, 5, 5.00000000000000000000e-01) (51, 5, 5.00000000000000000000e-01) (51, 5, 5.00000000000000000000e-01) (51, 5, 5.00000000000000000000e-01) (51, 5, 5.00000000000000000000e-01) (51, 5, 5.00000000000000000000e-01) (51, 5, 5.00000000000000000000e-01) (51, 5, 5.00000000000000000000e-01) (51, 5, 5.00000000000000000000e-01) (51, 5, 5.00000000000000000000e-01) (0, 5, 0.00000000000000000000e+00) (51, 0, 5.00000000000000000000e-01) (51, 0, 5.00000000000000000000e-01) (51, 0, 5.00000000000000000000e-01) (51, 0, 5.00000000000000000000e-01) (51, 0, 5.00000000000000000000e-01) (51, 0, 5.00000000000000000000e-01) (51, 0, 5.00000000000000000000e-01) (51, 0, 5.00000000000000000000e-01) (51, 0, 5.00000000000000000000e-01) (51, 0, 5.00000000000000000000e-01) (51, 0, 5.00000000000000000000e-01) (51, 0, 5.00000000000000000000e-01) (51, 0, 5.00000000000000000000e-01) (51, 0, 5.00000000000000000000e-01) (51, 0, 5.00000000000000000000e-01) (51, 0, 5.00000000000000000000e-01) (51, 0, 5.00000000000000000000e-01) (51, 0, 5.00000000000000000000e-01) (51, 0, 5.00000000000000000000e-01) (51, 0, 5.00000000000000000000e-01) (51, 0, 5.00000000000000000000e-01) (51, 0, 5.00000000000000000000e-01) (51, 0, 5.00000000000000000000e-01) (51, 0, 5.00000000000000000000e-01) (51, 0, 5.00000000000000000000e-01) (51, 0, 5.00000000000000000000e-01) (51, 0, 5.00000000000000000000e-01) (51, 0, 5.00000000000000000000e-01) (51, 0, 5.00000000000000000000e-01) (51, 0, 5.00000000000000000000e-01) (51, 0, 5.00000000000000000000e-01) (51, 0, 5.00000000000000000000e-01) (51, 0, 5.00000000000000000000e-01) (51, 0, 5.00000000000000000000e-01) (51, 0, 5.00000000000000000000e-01) (51, 0, 5.00000000000000000000e-01) (51, 0, 5.00000000000000000000e-01) (51, 0, 5.00000000000000000000e-01) (51, 0, 5.00000000000000000000e-01) (51, 0, 5.00000000000000000000e-01) (51, 0, 5.00000000000000000000e-01) (51, 0, 5.00000000000000000000e-01) (51, 0, 5.00000000000000000000e-01) (51, 0, 5.00000000000000000000e-01) (51, 0, 5.00000000000000000000e-01) (51, 0, 5.00000000000000000000e-01) (51, 0, 5.00000000000000000000e-01) (51, 0, 5.00000000000000000000e-01) (51, 0, 5.00000000000000000000e-01) (51, 0, 5.00000000000000000000e-01) (51, 0, 5.00000000000000000000e-01) (51, 0, 5.00000000000000000000e-01) (51, 0, 5.00000000000000000000e-01) (51, 0, 5.00000000000000000000e-01) (51, 0, 5.00000000000000000000e-01) (51, 0, 5.00000000000000000000e-01) (51, 0, 5.00000000000000000000e-01) (51, 0, 5.00000000000000000000e-01) (51, 0, 5.00000000000000000000e-01) (51, 0, 5.00000000000000000000e-01) (51, 0, 5.00000000000000000000e-01) (51, 0, 5.00000000000000000000e-01) (51, 0, 5.00000000000000000000e-01) (51, 0, 5.00000000000000000000e-01) (51, 0, 5.00000000000000000000e-01) (51, 0, 5.00000000000000000000e-01) (51, 0, 5.00000000000000000000e-01) (51, 0, 5.00000000000000000000e-01) (51, 0, 5.00000000000000000000e-01) (51, 0, 5.00000000000000000000e-01) (51, 0, 5.00000000000000000000e-01) (51, 0, 5.00000000000000000000e-01) (51, 0, 5.00000000000000000000e-01) (51, 0, 5.00000000000000000000e-01) (51, 0, 5.00000000000000000000e-01) (51, 0, 5.00000000000000000000e-01) (51, 0, 5.00000000000000000000e-01) (51, 0, 5.00000000000000000000e-01) (51, 0, 5.00000000000000000000e-01) (51, 0, 5.00000000000000000000e-01) (51, 0, 5.00000000000000000000e-01) (51, 0, 5.00000000000000000000e-01) (51, 0, 5.00000000000000000000e-01) (51, 0, 5.00000000000000000000e-01) (51, 0, 5.00000000000000000000e-01) (51, 0, 5.00000000000000000000e-01) (51, 0, 5.00000000000000000000e-01) (51, 0, 5.00000000000000000000e-01) (51, 0, 5.00000000000000000000e-01) (51, 0, 5.00000000000000000000e-01) (51, 0, 5.00000000000000000000e-01) (51, 0, 5.00000000000000000000e-01) (51, 0, 5.00000000000000000000e-01) (51, 0, 5.00000000000000000000e-01) (51, 0, 5.00000000000000000000e-01) (51, 0, 5.00000000000000000000e-01) (51, 0, 5.00000000000000000000e-01) (51, 0, 5.00000000000000000000e-01) (51, 0, 5.00000000000000000000e-01) (51, 0, 5.00000000000000000000e-01) (51, 0, 5.00000000000000000000e-01) (51, 0, 5.00000000000000000000e-01) (51, 0, 5.00000000000000000000e-01) (51, 0, 5.00000000000000000000e-01) (51, 0, 5.00000000000000000000e-01) (51, 0, 5.00000000000000000000e-01) (51, 0, 5.00000000000000000000e-01) (51, 0, 5.00000000000000000000e-01) (51, 0, 5.00000000000000000000e-01) (51, 0, 5.00000000000000000000e-01) (51, 0, 5.00000000000000000000e-01) (51, 0, 5.00000000000000000000e-01) (51, 0, 5.00000000000000000000e-01) (51, 0, 5.00000000000000000000e-01) (51, 0, 5.00000000000000000000e-01) (51, 0, 5.00000000000000000000e-01) (51, 0, 5.00000000000000000000e-01) (51, 0, 5.00000000000000000000e-01) (51, 0, 5.00000000000000000000e-01) (51, 0, 5.00000000000000000000e-01) (51, 0, 5.00000000000000000000e-01) (51, 0, 5.00000000000000000000e-01) (51, 0, 5.00000000000000000000e-01) (51, 0, 5.00000000000000000000e-01) (51, 0, 5.00000000000000000000e-01) (51, 0, 5.00000000000000000000e-01) (0, 0, 0.00000000000000000000e+00) 
connections (connected_to_neuron, weight)=(0, -9.80816483497619628906e-02) (1, 5.07336735725402832031e-01) (0, 1.12732541561126708984e+00) (1, -6.78180111572146415710e-03) (0, 8.50261390209197998047e-01) (1, 6.11285030841827392578e-01) (0, 2.56031394004821777344e-01) (1, 2.41489067673683166504e-01) (0, 1.06287717819213867188e+00) (1, 5.33259332180023193359e-01) (0, 1.90767586231231689453e-01) (1, 6.88241600990295410156e-01) (0, 3.01457524299621582031e-01) (1, 4.84779536724090576172e-01) (0, 6.33861482143402099609e-01) (1, 4.50588107109069824219e-01) (0, 1.43261909484863281250e+00) (1, 1.43896043300628662109e-01) (0, 6.63805246353149414062e-01) (1, -5.60702383518218994141e-02) (0, 6.90296590328216552734e-01) (1, 1.77147835493087768555e-02) (0, -4.50956523418426513672e-02) (1, 1.02493569254875183105e-01) (0, 1.45405843853950500488e-01) (1, 1.98975112289190292358e-02) (0, 1.60370528697967529297e+00) (1, 3.43758076429367065430e-01) (0, 7.52183437347412109375e-01) (1, 5.64290225505828857422e-01) (0, 2.13248685002326965332e-01) (1, 4.12754505872726440430e-01) (0, 5.80175876617431640625e-01) (1, -2.12002173066139221191e-01) (0, 1.04669578373432159424e-01) (1, 3.41256894171237945557e-02) (0, -1.52019590139389038086e-01) (1, 7.11555123329162597656e-01) (0, 6.78189933300018310547e-01) (1, 2.00340703129768371582e-01) (0, 8.09277057647705078125e-01) (1, 5.00132322311401367188e-01) (0, 1.19671058654785156250e+00) (1, 4.51163262128829956055e-01) (0, 2.97292172908782958984e-01) (1, 5.88552236557006835938e-01) (0, 7.94892907142639160156e-01) (1, 9.62662100791931152344e-01) (0, -8.22669714689254760742e-02) (1, 4.71497744321823120117e-01) (0, 1.92149747163057327271e-02) (1, 7.07896649837493896484e-01) (0, 4.32927042245864868164e-01) (1, 6.02187395095825195312e-01) (0, 6.21476292610168457031e-01) (1, 5.53657770156860351562e-01) (0, 2.27122753858566284180e-03) (1, 6.04142807424068450928e-02) (0, 8.67963969707489013672e-01) (1, 2.63521671295166015625e-01) (0, 6.76764011383056640625e-01) (1, -2.51674741506576538086e-01) (0, 8.53265047073364257812e-01) (1, 1.06996870040893554688e+00) (0, 1.34535387158393859863e-01) (1, 3.86946916580200195312e-01) (0, -8.82244184613227844238e-02) (1, 4.71992105245590209961e-01) (0, 1.07121992111206054688e+00) (1, 2.68541961908340454102e-01) (0, 1.92040890455245971680e-01) (1, 8.41396450996398925781e-02) (0, 1.32981848716735839844e+00) (1, -2.70710498094558715820e-01) (0, 7.26384699344635009766e-01) (1, 4.86398905515670776367e-01) (0, 1.03770112991333007812e+00) (1, 2.77438998222351074219e-01) (0, -3.78505051136016845703e-01) (1, 4.07528400421142578125e-01) (0, 1.12892961502075195312e+00) (1, 5.31365513801574707031e-01) (0, 1.10489428043365478516e+00) (1, 7.14565142989158630371e-02) (0, 8.48587930202484130859e-01) (1, 7.23552882671356201172e-01) (0, -1.81185916066169738770e-01) (1, 1.09148591756820678711e-01) (0, 3.37358377873897552490e-02) (1, 4.78984296321868896484e-01) (0, 8.59609007835388183594e-01) (1, 2.65820026397705078125e-01) (0, 4.11641210317611694336e-01) (1, 6.96406960487365722656e-02) (0, 5.35287559032440185547e-01) (1, 5.07638752460479736328e-01) (0, 7.88808047771453857422e-01) (1, 4.79576438665390014648e-01) (0, -2.06581071019172668457e-01) (1, 1.55913144350051879883e-01) (2, 1.52529287338256835938e+00) (3, 2.41235285997390747070e-01) (4, 5.94683825969696044922e-01) (5, 1.56657814979553222656e-01) (6, -2.56035614013671875000e+00) (7, 1.48369586467742919922e+00) (8, 7.19253659248352050781e-01) (9, -2.54687061533331871033e-03) (10, 5.61430811882019042969e-01) (11, 5.79286992549896240234e-01) (12, 3.58706533908843994141e-01) (13, 6.30493760108947753906e-01) (14, 9.39225912094116210938e-01) (15, -3.10519129037857055664e-01) (16, 6.34188473224639892578e-01) (17, 1.01029169559478759766e+00) (18, 9.37420070171356201172e-01) (19, 5.73253892362117767334e-02) (20, 2.71976053714752197266e-01) (21, 4.18516486883163452148e-01) (22, -3.90372610092163085938e+00) (23, -1.23328208923339843750e+00) (24, 4.14135664701461791992e-01) (25, -6.74449980258941650391e-01) (26, 1.56965339183807373047e+00) (27, 1.06588244438171386719e+00) (28, -3.78837692551314830780e-03) (29, -9.99608337879180908203e-01) (30, 5.92082738876342773438e-01) (31, -1.02198493480682373047e+00) (32, 1.09556305408477783203e+00) (33, -9.43565294146537780762e-02) (34, 1.06313264369964599609e+00) (35, 3.09576541185379028320e-01) (36, 3.43738645315170288086e-01) (37, -1.68653476238250732422e+00) (38, 5.58707058429718017578e-01) (39, -3.17181992530822753906e+00) (40, 4.13672357797622680664e-01) (41, 2.68727153539657592773e-01) (42, -2.00273180007934570312e+00) (43, -2.65416324138641357422e-01) (44, 7.31608927249908447266e-01) (45, 5.35043358802795410156e-01) (46, 9.70500946044921875000e-01) (47, -4.00384783744812011719e-01) (48, -1.09069645404815673828e-01) (49, 1.06908357143402099609e+00) (50, 6.01110279560089111328e-01) (51, 3.38600456714630126953e-01) (52, 5.21713554859161376953e-01) (2, 6.73588037490844726562e-01) (3, 7.24962294101715087891e-01) (4, -2.89056934416294097900e-02) (5, 6.66884541511535644531e-01) (6, -4.49192345142364501953e-01) (7, 1.81274309754371643066e-01) (8, 4.69732165336608886719e-01) (9, -1.09590291976928710938e+00) (10, 2.31123417615890502930e-02) (11, 6.69497728347778320312e-01) (12, 7.25354433059692382812e-01) (13, 6.39731168746948242188e-01) (14, 1.21449422836303710938e+00) (15, 4.99181926250457763672e-01) (16, 7.01340809464454650879e-02) (17, 5.86577713489532470703e-01) (18, 1.74239695072174072266e-01) (19, 1.37192606925964355469e+00) (20, 5.03111541271209716797e-01) (21, 8.26216578483581542969e-01) (22, -1.54986929893493652344e+00) (23, 4.36650007963180541992e-01) (24, 1.77756533026695251465e-01) (25, 5.44765412807464599609e-01) (26, 6.03382945060729980469e-01) (27, 6.34998083114624023438e-01) (28, 8.78778845071792602539e-02) (29, -5.02929687500000000000e-01) (30, 6.16712689399719238281e-01) (31, 4.08786803483963012695e-01) (32, 6.76373839378356933594e-01) (33, -9.09557119011878967285e-02) (34, 5.16607105731964111328e-01) (35, 6.13049924373626708984e-01) (36, 3.07459205389022827148e-01) (37, 2.82962942123413085938e+00) (38, 4.03906166553497314453e-01) (39, -4.91919845342636108398e-01) (40, 3.18924158811569213867e-01) (41, 7.40070164203643798828e-01) (42, -1.16132104396820068359e+00) (43, 1.36539980769157409668e-01) (44, 1.33118823170661926270e-01) (45, 6.17947697639465332031e-01) (46, 6.40753626823425292969e-01) (47, 4.95520621538162231445e-01) (48, 6.73959672451019287109e-01) (49, 8.06270167231559753418e-02) (50, -3.64339858293533325195e-01) (51, 6.14682734012603759766e-01) (52, 5.04343844950199127197e-02) (2, 4.60216671228408813477e-01) (3, -4.12066727876663208008e-01) (4, 1.50223076343536376953e+00) (5, 5.05435526371002197266e-01) (6, 1.79700577259063720703e+00) (7, 4.20607209205627441406e-01) (8, 1.08671033382415771484e+00) (9, 2.11851739883422851562e+00) (10, 1.37215650081634521484e+00) (11, 3.39226722717285156250e-01) (12, -3.71035426855087280273e-01) (13, 3.46801728010177612305e-02) (14, 1.33450627326965332031e-01) (15, 5.88333070278167724609e-01) (16, 3.63133460283279418945e-01) (17, 6.16848111152648925781e-01) (18, -2.02033326029777526855e-01) (19, -9.88554775714874267578e-01) (20, 2.02440142631530761719e-01) (21, 3.57907444238662719727e-01) (22, 7.27706193923950195312e+00) (23, 1.60499167442321777344e+00) (24, 1.34716832637786865234e+00) (25, 4.89337652921676635742e-01) (26, 4.65670228004455566406e-01) (27, 6.40297889709472656250e-01) (28, 1.44146597385406494141e+00) (29, 1.78411269187927246094e+00) (30, -2.21131786704063415527e-01) (31, 6.20383441448211669922e-01) (32, -3.50947737693786621094e-01) (33, 1.32076132297515869141e+00) (34, 5.30002355575561523438e-01) (35, 5.38421511650085449219e-01) (36, 3.10609161853790283203e-01) (37, 1.02192550897598266602e-01) (38, 2.61226594448089599609e-01) (39, 4.89733725786209106445e-01) (40, 3.54803651571273803711e-01) (41, -4.15298081934452056885e-02) (42, 5.96559143066406250000e+00) (43, 6.53783202171325683594e-01) (44, 1.43577766418457031250e+00) (45, 1.42889142036437988281e-01) (46, 6.11546635627746582031e-01) (47, 4.32691782712936401367e-01) (48, 5.51691353321075439453e-01) (49, 1.42803919315338134766e+00) (50, 7.31960475444793701172e-01) (51, 4.62905377149581909180e-01) (52, 1.33564138412475585938e+00) (2, 1.28383368253707885742e-01) (3, 1.22538693249225616455e-01) (4, 5.19576549530029296875e-01) (5, -1.80986091494560241699e-01) (6, 1.02699661254882812500e+00) (7, 1.40414834022521972656e-01) (8, 2.33316957950592041016e-01) (9, 5.06873548030853271484e-01) (10, 6.43843829631805419922e-01) (11, 2.36789345741271972656e-01) (12, 2.55338221788406372070e-01) (13, 3.37153106927871704102e-01) (14, 3.64972531795501708984e-01) (15, 4.26032781600952148438e-01) (16, 3.83738875389099121094e-01) (17, -1.05517998337745666504e-01) (18, 2.28016883134841918945e-01) (19, 5.02974927425384521484e-01) (20, -2.08501771092414855957e-01) (21, 4.08403515815734863281e-01) (22, 7.74064481258392333984e-01) (23, 4.79280263185501098633e-01) (24, 5.71832537651062011719e-01) (25, 4.31382775306701660156e-01) (26, 2.38162577152252197266e-01) (27, -8.20245146751403808594e-02) (28, 5.50293862819671630859e-01) (29, 3.70664268732070922852e-01) (30, 6.77469432353973388672e-01) (31, 5.55075466632843017578e-01) (32, 2.83055543899536132812e-01) (33, 1.06881403923034667969e+00) (34, -6.16153925657272338867e-02) (35, -1.08634687960147857666e-01) (36, 8.09218049049377441406e-01) (37, 3.73662114143371582031e-01) (38, 1.14573585987091064453e+00) (39, 9.04227137565612792969e-01) (40, 9.02734637260437011719e-01) (41, 4.61370080709457397461e-01) (42, 2.10342025756835937500e+00) (43, 1.07260394096374511719e+00) (44, 9.79518115520477294922e-01) (45, 3.97791981697082519531e-01) (46, -8.29647928476333618164e-02) (47, 6.32905840873718261719e-01) (48, 3.17623317241668701172e-01) (49, 5.04216969013214111328e-01) (50, 7.55532681941986083984e-01) (51, -2.10843175649642944336e-01) (52, 2.37079173326492309570e-01) (2, 4.42121118307113647461e-01) (3, 4.05966103076934814453e-01) (4, -5.48374414443969726562e-01) (5, 9.39152002334594726562e-01) (6, -3.79172831773757934570e-01) (7, 2.68716275691986083984e-01) (8, 4.15493220090866088867e-01) (9, -1.58951652050018310547e+00) (10, -2.85258386284112930298e-02) (11, 1.50588795542716979980e-01) (12, 4.49624031782150268555e-01) (13, 1.52002370357513427734e+00) (14, 7.94885516166687011719e-01) (15, 3.57261925935745239258e-01) (16, -2.36408695578575134277e-01) (17, 4.07360374927520751953e-01) (18, 1.78984665870666503906e+00) (19, 1.75625991821289062500e+00) (20, 9.06647562980651855469e-01) (21, 9.93746891617774963379e-02) (22, -4.88119983673095703125e+00) (23, -4.03308719396591186523e-01) (24, 2.58617281913757324219e-01) (25, 1.83209121227264404297e-01) (26, 6.25218868255615234375e-01) (27, 7.70698368549346923828e-01) (28, -3.51194217801094055176e-02) (29, -6.41205787658691406250e-01) (30, 1.41561388969421386719e+00) (31, 2.49870210886001586914e-01) (32, 1.95926666259765625000e-01) (33, -5.76408982276916503906e-01) (34, 4.14177924394607543945e-01) (35, 9.45977270603179931641e-01) (36, 5.18629662692546844482e-02) (37, 2.07807993888854980469e+00) (38, -3.79173457622528076172e-02) (39, 2.05984324216842651367e-01) (40, 7.82165601849555969238e-02) (41, 1.36512577533721923828e+00) (42, -9.97981643676757812500e+00) (43, 4.03835594654083251953e-01) (44, -6.57896637916564941406e-01) (45, 1.72084033489227294922e+00) (46, 9.36316609382629394531e-01) (47, 2.17605948448181152344e-01) (48, 6.21095061302185058594e-01) (49, 3.49826991558074951172e-01) (50, -1.07077591121196746826e-01) (51, 1.02269005775451660156e+00) (52, -8.51761698722839355469e-02) (2, 1.24158225953578948975e-01) (3, 6.62194073200225830078e-01) (4, -9.08330380916595458984e-01) (5, 7.77092754840850830078e-01) (6, -2.42393895983695983887e-01) (7, 1.93611517548561096191e-01) (8, 3.69896739721298217773e-01) (9, -2.33665153384208679199e-01) (10, 4.51698094606399536133e-01) (11, 2.42197275161743164062e-01) (12, 6.53153836727142333984e-01) (13, 1.65092086791992187500e+00) (14, 6.46229624748229980469e-01) (15, 8.68269979953765869141e-01) (16, 1.03295877575874328613e-01) (17, 3.08642327785491943359e-01) (18, 7.06455707550048828125e-01) (19, 1.07103514671325683594e+00) (20, 6.75552189350128173828e-01) (21, 1.20961144566535949707e-01) (22, -3.24427157640457153320e-01) (23, -5.21526694297790527344e-01) (24, 3.51321727037429809570e-01) (25, 6.83321237564086914062e-01) (26, 2.86983132362365722656e-01) (27, 3.92203509807586669922e-01) (28, 6.75484895706176757812e-01) (29, 2.09063589572906494141e-01) (30, 1.57390570640563964844e+00) (31, 7.14448213577270507812e-01) (32, 2.23477751016616821289e-01) (33, -1.14447446539998054504e-02) (34, 3.55830222368240356445e-01) (35, 7.07219958305358886719e-01) (36, 2.13628992438316345215e-01) (37, 2.05563807487487792969e+00) (38, 2.04548239707946777344e-01) (39, 1.62251427769660949707e-01) (40, 1.93869456648826599121e-01) (41, 1.40453052520751953125e+00) (42, -1.10649776458740234375e+00) (43, 6.16589069366455078125e-01) (44, -9.33850467205047607422e-01) (45, 1.73227143287658691406e+00) (46, 3.49635630846023559570e-01) (47, 6.26326441764831542969e-01) (48, 6.77642166614532470703e-01) (49, 3.98821979761123657227e-01) (50, -1.93389430642127990723e-01) (51, 7.66832709312438964844e-01) (52, 3.03537398576736450195e-01) (2, 1.92426100373268127441e-01) (3, 1.18981152772903442383e-01) (4, 8.46129775047302246094e-01) (5, 3.48777741193771362305e-01) (6, 1.03602063655853271484e+00) (7, 2.01123520731925964355e-01) (8, 4.94831591844558715820e-01) (9, 6.36306881904602050781e-01) (10, 1.11144280433654785156e+00) (11, 1.37682110071182250977e-01) (12, -1.69138843193650245667e-03) (13, 2.61865735054016113281e-01) (14, 4.01491820812225341797e-01) (15, 4.98339921236038208008e-01) (16, 1.26680463552474975586e-01) (17, 3.14767122268676757812e-01) (18, 8.55666995048522949219e-02) (19, 5.71032047271728515625e-01) (20, 2.78613239526748657227e-01) (21, 1.57972201704978942871e-01) (22, 1.59978044033050537109e+00) (23, 1.89009320735931396484e+00) (24, 8.25252354145050048828e-01) (25, 3.20214360952377319336e-01) (26, 2.65279471874237060547e-01) (27, 3.01132291555404663086e-01) (28, 9.84317898750305175781e-01) (29, 3.84580224752426147461e-01) (30, 3.61925847828388214111e-02) (31, 4.83251988887786865234e-01) (32, 1.60545274615287780762e-01) (33, 9.33078289031982421875e-01) (34, 2.44727835059165954590e-01) (35, 2.37401589751243591309e-01) (36, 4.82151627540588378906e-01) (37, 5.02028226852416992188e-01) (38, 4.61012363433837890625e-01) (39, 5.13186037540435791016e-01) (40, 6.11696064472198486328e-01) (41, -9.20095667243003845215e-02) (42, 3.64603829383850097656e+00) (43, 6.17450177669525146484e-01) (44, 9.65098083019256591797e-01) (45, 2.90396153926849365234e-01) (46, 2.78788894414901733398e-01) (47, 4.52127546072006225586e-01) (48, 3.05173456668853759766e-01) (49, 8.80878984928131103516e-01) (50, 4.08908277750015258789e-01) (51, 3.61991465091705322266e-01) (52, 8.49185228347778320312e-01) (2, 4.89974886178970336914e-01) (3, 1.33044570684432983398e-01) (4, 5.34735739231109619141e-01) (5, 5.27883648872375488281e-01) (6, 3.94966751337051391602e-01) (7, 5.17476022243499755859e-01) (8, 2.83815830945968627930e-01) (9, -6.18145525455474853516e-01) (10, 7.72683620452880859375e-01) (11, -2.34601467847824096680e-01) (12, -5.53225278854370117188e-02) (13, 7.04670608043670654297e-01) (14, 3.19730430841445922852e-01) (15, 3.26777756214141845703e-01) (16, 3.56577873229980468750e-01) (17, 5.32006978988647460938e-01) (18, 7.01138854026794433594e-01) (19, 2.14980173110961914062e+00) (20, 5.05650341510772705078e-01) (21, -2.80994564294815063477e-01) (22, 6.06621392071247100830e-02) (23, -5.64183369278907775879e-02) (24, 7.28108584880828857422e-01) (25, 2.86605089902877807617e-01) (26, 5.80638110637664794922e-01) (27, 5.17301797866821289062e-01) (28, 6.85689151287078857422e-01) (29, 2.60051995515823364258e-01) (30, 5.75791835784912109375e-01) (31, 7.56734967231750488281e-01) (32, 4.41203750669956207275e-02) (33, 4.42475527524948120117e-01) (34, 5.09682536125183105469e-01) (35, 4.87947583198547363281e-01) (36, 3.84717673063278198242e-01) (37, 5.74100434780120849609e-01) (38, -2.08786353468894958496e-01) (39, 1.91286697983741760254e-01) (40, 3.75516057014465332031e-01) (41, 9.16416466236114501953e-01) (42, -3.66117405891418457031e+00) (43, 5.64481258392333984375e-01) (44, 6.64886534214019775391e-01) (45, 5.09391784667968750000e-01) (46, 6.01319491863250732422e-01) (47, 4.16828304529190063477e-01) (48, 6.21538221836090087891e-01) (49, 6.76916658878326416016e-01) (50, 2.51628607511520385742e-01) (51, 6.10525190830230712891e-01) (52, 3.62595796585083007812e-01) (2, 1.70333385467529296875e-01) (3, 5.70231199264526367188e-01) (4, 5.20914256572723388672e-01) (5, 1.51254403591156005859e+00) (6, 2.31607049703598022461e-01) (7, 7.12606906890869140625e-01) (8, -1.33145108819007873535e-01) (9, -6.38193726539611816406e-01) (10, 2.42476791143417358398e-01) (11, 1.64076417684555053711e-01) (12, -1.04431677609682083130e-02) (13, 1.10903775691986083984e+00) (14, 2.07859069108963012695e-01) (15, 3.90968233346939086914e-01) (16, 6.52666464447975158691e-02) (17, 3.51603806018829345703e-01) (18, 7.40831375122070312500e-01) (19, 1.00269830226898193359e+00) (20, 1.40373539924621582031e+00) (21, -2.05216389149427413940e-02) (22, -1.09947896003723144531e+00) (23, -4.09036159515380859375e-01) (24, 3.11145097017288208008e-01) (25, 7.19889879226684570312e-01) (26, 2.78830587863922119141e-01) (27, 2.71932214498519897461e-01) (28, 8.48533570766448974609e-01) (29, -9.84432920813560485840e-02) (30, 1.13758885860443115234e+00) (31, 7.47028827667236328125e-01) (32, 1.10435910522937774658e-01) (33, 7.65542924404144287109e-01) (34, 3.07153224945068359375e-01) (35, 4.70096111297607421875e-01) (36, 4.70336645841598510742e-01) (37, 1.43349182605743408203e+00) (38, -2.49477028846740722656e-02) (39, 2.20487758517265319824e-01) (40, 6.57809674739837646484e-02) (41, 1.74462413787841796875e+00) (42, -1.29326648712158203125e+01) (43, 7.07114875316619873047e-01) (44, 2.60147869586944580078e-01) (45, 1.16225516796112060547e+00) (46, 4.37880903482437133789e-01) (47, 8.00924062728881835938e-01) (48, 5.96006095409393310547e-01) (49, 3.17129611968994140625e-01) (50, -1.13904750347137451172e+00) (51, 4.15353596210479736328e-01) (52, 4.46872293949127197266e-01) (2, -2.49159723520278930664e-01) (3, 3.78661751747131347656e-01) (4, -4.31161731481552124023e-01) (5, 7.57584869861602783203e-01) (6, -1.97888696193695068359e+00) (7, -3.35498183965682983398e-01) (8, 3.26141178607940673828e-01) (9, -4.30846691131591796875e+00) (10, 3.95531117916107177734e-01) (11, 2.89333105087280273438e-01) (12, 5.32622456550598144531e-01) (13, 4.46837157011032104492e-01) (14, 8.47686350345611572266e-01) (15, 6.50961518287658691406e-01) (16, -6.16793990135192871094e-01) (17, 3.08662235736846923828e-01) (18, 6.50212764739990234375e-01) (19, 1.26923501491546630859e+00) (20, 8.00885438919067382812e-01) (21, -5.19642159342765808105e-02) (22, -2.80894804000854492188e+00) (23, 1.79421573877334594727e-01) (24, 2.03614935278892517090e-01) (25, 5.53573928773403167725e-02) (26, -2.36042365431785583496e-01) (27, 3.35527628660202026367e-01) (28, 7.56791830062866210938e-01) (29, -7.24071800708770751953e-01) (30, 5.99299788475036621094e-01) (31, -3.11209976673126220703e-01) (32, 2.15934664011001586914e-01) (33, 1.11883044242858886719e-01) (34, 3.46182793378829956055e-01) (35, 7.99494624137878417969e-01) (36, -3.12510281801223754883e-01) (37, 1.18154788017272949219e+00) (38, 1.70409694314002990723e-01) (39, 2.00290858745574951172e-01) (40, -2.68483340740203857422e-01) (41, 6.22278988361358642578e-01) (42, -3.29061007499694824219e+00) (43, 4.09195512533187866211e-01) (44, -4.18540209531784057617e-01) (45, 9.02939856052398681641e-01) (46, 7.37521827220916748047e-01) (47, 6.79636597633361816406e-01) (48, 5.93338966369628906250e-01) (49, 2.45210736989974975586e-01) (50, -8.71420085430145263672e-01) (51, 1.63561856746673583984e+00) (52, 2.07757949829101562500e-01) (2, 3.66321861743927001953e-01) (3, 3.85184615850448608398e-01) (4, 2.29206666350364685059e-01) (5, 4.32955265045166015625e-01) (6, -2.81670033931732177734e-01) (7, 2.66252309083938598633e-01) (8, 7.25627839565277099609e-02) (9, -9.82155740261077880859e-01) (10, -8.07698592543601989746e-02) (11, 3.07445883750915527344e-01) (12, 3.20042103528976440430e-01) (13, 1.95963472127914428711e-01) (14, 4.89216119050979614258e-01) (15, -6.71542063355445861816e-02) (16, -6.83362483978271484375e-01) (17, -2.26675152778625488281e-01) (18, 2.22320139408111572266e-01) (19, 2.19978547096252441406e+00) (20, -1.40585035085678100586e-01) (21, 3.31434816122055053711e-01) (22, -3.77047866582870483398e-01) (23, 1.91044166684150695801e-01) (24, 4.29177165031433105469e-01) (25, 7.84836351871490478516e-01) (26, 2.92765289545059204102e-01) (27, -2.36190035939216613770e-01) (28, 4.31711971759796142578e-01) (29, -1.95944190025329589844e-01) (30, 8.92451927065849304199e-02) (31, 9.12486255168914794922e-01) (32, 2.57702708244323730469e-01) (33, 1.57102361321449279785e-01) (34, -1.19031406939029693604e-01) (35, -1.15556463599205017090e-01) (36, 8.07668387889862060547e-01) (37, 5.37946641445159912109e-01) (38, 4.24226075410842895508e-01) (39, 2.48910069465637207031e-01) (40, 1.85516968369483947754e-01) (41, 1.13996529579162597656e+00) (42, -7.39225101470947265625e+00) (43, 7.90597259998321533203e-01) (44, 3.09899628162384033203e-01) (45, 4.73140656948089599609e-01) (46, -2.01833948493003845215e-01) (47, 4.56643849611282348633e-01) (48, 1.15915703773498535156e+00) (49, -1.39643386006355285645e-01) (50, -2.22670078277587890625e-01) (51, -4.44701910018920898438e-02) (52, -1.91088229417800903320e-01) (2, 8.66250574588775634766e-01) (3, 7.12305188179016113281e-01) (4, -5.46293973922729492188e-01) (5, -3.47131630405783653259e-03) (6, -8.18532288074493408203e-01) (7, 3.58869671821594238281e-01) (8, 6.64498805999755859375e-01) (9, 3.47577691078186035156e-01) (10, 4.46149498224258422852e-01) (11, 9.87967133522033691406e-01) (12, 8.05863082408905029297e-01) (13, 7.64400422573089599609e-01) (14, 1.54473078250885009766e+00) (15, 1.53900116682052612305e-01) (16, 1.49728283286094665527e-01) (17, 4.53552782535552978516e-01) (18, 9.65707480907440185547e-01) (19, 2.79013067483901977539e-01) (20, 3.61361384391784667969e-01) (21, 7.17668354511260986328e-01) (22, -3.15746515989303588867e-02) (23, 3.99990439414978027344e-01) (24, 3.28985244035720825195e-01) (25, -5.52349805831909179688e-01) (26, 3.87682318687438964844e-01) (27, 4.91671234369277954102e-01) (28, -1.91021300852298736572e-02) (29, 2.87332952022552490234e-01) (30, 7.55558311939239501953e-01) (31, -1.85506716370582580566e-01) (32, 8.87887299060821533203e-01) (33, -3.90725255012512207031e-01) (34, 5.07926821708679199219e-01) (35, 4.20093774795532226562e-01) (36, 3.84497404098510742188e-01) (37, 1.19531571865081787109e+00) (38, 8.50057423114776611328e-01) (39, -6.62573948502540588379e-02) (40, 6.81349813938140869141e-01) (41, 4.10781621932983398438e-01) (42, -9.57446479797363281250e+00) (43, 1.26092478632926940918e-01) (44, -4.00731384754180908203e-01) (45, 1.63436055183410644531e+00) (46, 5.03363609313964843750e-01) (47, 2.24013268947601318359e-01) (48, 5.59761285781860351562e-01) (49, 3.17570120096206665039e-01) (50, 2.72915422916412353516e-01) (51, 6.19419395923614501953e-01) (52, 3.91921430826187133789e-01) (2, 7.40895211696624755859e-01) (3, 5.96106946468353271484e-01) (4, 7.81604707241058349609e-01) (5, 4.60386276245117187500e-02) (6, 8.93446281552314758301e-02) (7, 5.01912236213684082031e-01) (8, 6.47501945495605468750e-01) (9, 8.13198685646057128906e-01) (10, 4.33206886053085327148e-01) (11, 9.48709785938262939453e-01) (12, 5.20554959774017333984e-01) (13, 5.19966781139373779297e-01) (14, 9.86745715141296386719e-01) (15, 5.18850445747375488281e-01) (16, 5.44521987438201904297e-01) (17, 3.47570449113845825195e-01) (18, 5.73248445987701416016e-01) (19, 3.57919245958328247070e-01) (20, -1.04840837419033050537e-01) (21, 9.08577620983123779297e-01) (22, 1.17310345172882080078e+00) (23, 6.85123264789581298828e-01) (24, 3.86535644531250000000e-01) (25, -9.61224138736724853516e-02) (26, 5.80116868019104003906e-01) (27, 5.24268448352813720703e-01) (28, 1.36296730488538742065e-02) (29, 4.68174785375595092773e-01) (30, -3.19203644990921020508e-01) (31, 2.08994701504707336426e-01) (32, 9.16305601596832275391e-01) (33, 4.79058288037776947021e-02) (34, 4.33626741170883178711e-01) (35, 3.99538688361644744873e-02) (36, 1.01566827297210693359e+00) (37, 1.26629352569580078125e-01) (38, 9.07338798046112060547e-01) (39, -4.80279140174388885498e-02) (40, 9.02797877788543701172e-01) (41, -3.79434198141098022461e-01) (42, 2.56969022750854492188e+00) (43, 5.81237375736236572266e-01) (44, 7.16841459274291992188e-01) (45, -6.15129590034484863281e-01) (46, 3.36596697568893432617e-01) (47, 1.23080156743526458740e-01) (48, 5.95318019390106201172e-01) (49, 3.28925311565399169922e-01) (50, 6.09312832355499267578e-01) (51, 5.00895082950592041016e-01) (52, 3.96042674779891967773e-01) (2, -2.65597671270370483398e-01) (3, 3.01204651594161987305e-01) (4, 1.35342419147491455078e+00) (5, 6.68886840343475341797e-01) (6, 1.74617826938629150391e+00) (7, 3.77505183219909667969e-01) (8, 2.88410454988479614258e-01) (9, 1.74693620204925537109e+00) (10, 2.31851175427436828613e-01) (11, 2.25763946771621704102e-01) (12, 3.24337452650070190430e-01) (13, 6.72474503517150878906e-02) (14, -2.92961537837982177734e-01) (15, 6.37055695056915283203e-01) (16, 1.69623839855194091797e+00) (17, 2.92399734258651733398e-01) (18, 1.04026369750499725342e-01) (19, 2.47676476836204528809e-01) (20, 1.53405621647834777832e-01) (21, 3.45222711563110351562e-01) (22, 2.03565359115600585938e+00) (23, 7.56356775760650634766e-01) (24, 1.55536025762557983398e-01) (25, 1.37947332859039306641e+00) (26, 2.70424664020538330078e-01) (27, 2.55521923303604125977e-01) (28, 6.60818576812744140625e-01) (29, 2.76624709367752075195e-01) (30, -5.43998777866363525391e-02) (31, 1.56250369548797607422e+00) (32, 2.34607458114624023438e-01) (33, 1.41457784175872802734e+00) (34, 1.32687970995903015137e-01) (35, 1.35459959506988525391e-01) (36, 8.37169647216796875000e-01) (37, 4.62871715426445007324e-02) (38, 2.84206092357635498047e-01) (39, 6.73426985740661621094e-01) (40, 1.79028540849685668945e-01) (41, 3.69170993566513061523e-01) (42, 6.20102691650390625000e+01) (43, 8.16741883754730224609e-01) (44, 1.24079239368438720703e+00) (45, 2.84025728702545166016e-01) (46, 2.54073172807693481445e-01) (47, 6.08755171298980712891e-01) (48, 3.03645581007003784180e-01) (49, 2.64872610569000244141e-01) (50, 3.58371376991271972656e-01) (51, -1.79190263152122497559e-01) (52, 4.44505780935287475586e-01) (2, 3.69117379188537597656e-01) (3, 4.69118952751159667969e-01) (4, 6.99559986591339111328e-01) (5, 2.42477118968963623047e-01) (6, 7.69853770732879638672e-01) (7, 2.57221460342407226562e-01) (8, 1.23128078877925872803e-01) (9, 1.00241005420684814453e+00) (10, 1.09976100921630859375e+00) (11, 5.33728003501892089844e-01) (12, 5.78662097454071044922e-01) (13, 3.94683659076690673828e-01) (14, -3.19198518991470336914e-01) (15, 6.99922025203704833984e-01) (16, 7.36861705780029296875e-01) (17, 2.42046620696783065796e-02) (18, 8.90873610973358154297e-01) (19, 7.75211155414581298828e-01) (20, 3.18666286766529083252e-02) (21, 5.91818630695343017578e-01) (22, 6.91583442687988281250e+00) (23, 8.52691054344177246094e-01) (24, 4.23366725444793701172e-01) (25, 1.91526427865028381348e-01) (26, 2.88653224706649780273e-01) (27, -9.86523404717445373535e-02) (28, 6.13429367542266845703e-01) (29, 3.12831699848175048828e-01) (30, 1.92280054092407226562e-01) (31, 3.94540667533874511719e-01) (32, 6.04009985923767089844e-01) (33, 7.37052142620086669922e-01) (34, -1.01632714271545410156e-01) (35, 1.94554999470710754395e-01) (36, 1.03520631790161132812e+00) (37, 5.14400660991668701172e-01) (38, 1.07187008857727050781e+00) (39, 7.43051111698150634766e-01) (40, 1.04432046413421630859e+00) (41, -2.18610495328903198242e-01) (42, 1.59625844955444335938e+01) (43, 9.57935571670532226562e-01) (44, 6.44628286361694335938e-01) (45, -1.89719289541244506836e-01) (46, -1.23810190707445144653e-02) (47, 7.22386956214904785156e-01) (48, 3.59854131937026977539e-01) (49, 4.81177270412445068359e-01) (50, 9.41489815711975097656e-01) (51, -1.25867903232574462891e-01) (52, 6.86453580856323242188e-01) (2, -5.83027601242065429688e-02) (3, -2.38745920360088348389e-02) (4, 8.39986443519592285156e-01) (5, 3.66248041391372680664e-01) (6, -7.46741256713867187500e+01) (7, 5.60864269733428955078e-01) (8, 8.18138539791107177734e-01) (9, 2.75309848785400390625e+00) (10, 1.83528530597686767578e+00) (11, 4.40882205963134765625e-01) (12, 3.67873832583427429199e-02) (13, 2.49354336410760879517e-02) (14, 4.57139045000076293945e-01) (15, 5.19653618335723876953e-01) (16, 3.28912138938903808594e-01) (17, 1.04562950134277343750e+00) (18, 1.86719879508018493652e-01) (19, -2.46092408895492553711e-01) (20, 3.18496614694595336914e-01) (21, 1.08961224555969238281e+00) (22, 8.99923400878906250000e+01) (23, 1.69454586505889892578e+00) (24, 1.08628928661346435547e+00) (25, 4.87918019294738769531e-01) (26, 4.59110409021377563477e-01) (27, 3.98266136646270751953e-01) (28, 9.06663894653320312500e-01) (29, 3.49665164947509765625e+00) (30, 2.29964964091777801514e-02) (31, 1.67555406689643859863e-01) (32, 5.86552083492279052734e-01) (33, 8.99477839469909667969e-01) (34, 9.43273723125457763672e-01) (35, 2.82520174980163574219e-01) (36, 5.47794282436370849609e-01) (37, -2.67682194709777832031e-01) (38, 5.79254508018493652344e-01) (39, 3.61490869522094726562e+00) (40, 5.84013164043426513672e-01) (41, -4.74143415689468383789e-01) (42, 1.11435192871093750000e+03) (43, 1.21829247474670410156e+00) (44, 9.53837156295776367188e-01) (45, -1.95749580860137939453e-01) (46, 3.57598870992660522461e-01) (47, 1.28211009502410888672e+00) (48, 8.52198898792266845703e-01) (49, 1.12568366527557373047e+00) (50, 6.26025259494781494141e-01) (51, 7.45741128921508789062e-02) (52, 9.80829596519470214844e-01) (2, 4.91140723228454589844e-01) (3, 1.07666440308094024658e-01) (4, 8.64868760108947753906e-01) (5, 6.09821438789367675781e-01) (6, 2.49154657125473022461e-01) (7, 4.09880399703979492188e-01) (8, 3.71267855167388916016e-01) (9, 5.80196797847747802734e-01) (10, 4.93749886751174926758e-01) (11, 2.13084816932678222656e-01) (12, 1.63988888263702392578e-01) (13, -2.75395940989255905151e-02) (14, 5.97377538681030273438e-01) (15, 4.14136767387390136719e-01) (16, 3.71708273887634277344e-01) (17, 2.26190343499183654785e-01) (18, 4.12449419498443603516e-01) (19, 7.70295321941375732422e-01) (20, -1.80076479911804199219e-01) (21, 6.60944555420428514481e-04) (22, -1.30532644689083099365e-02) (23, 3.14207911491394042969e-01) (24, 7.10134267807006835938e-01) (25, 3.93260329961776733398e-01) (26, 6.26468300819396972656e-01) (27, 2.28137478232383728027e-01) (28, 6.63022756576538085938e-01) (29, -1.96311533451080322266e-01) (30, 1.11526891589164733887e-01) (31, 8.64006876945495605469e-01) (32, 1.91803708672523498535e-01) (33, 2.25174576044082641602e-01) (34, 2.53372162580490112305e-01) (35, 2.83189088106155395508e-01) (36, 7.57252812385559082031e-01) (37, 9.98214334249496459961e-02) (38, 2.75278598070144653320e-01) (39, 1.53617456555366516113e-01) (40, 5.25448843836784362793e-02) (41, 6.30955874919891357422e-01) (42, -1.12657475471496582031e+00) (43, 5.18695533275604248047e-01) (44, 8.59344184398651123047e-01) (45, 1.10635712742805480957e-01) (46, 3.45947355031967163086e-01) (47, 5.37750244140625000000e-01) (48, 3.94069612026214599609e-01) (49, 3.24552178382873535156e-01) (50, -2.26167187094688415527e-01) (51, 4.49416846036911010742e-01) (52, 1.91306784749031066895e-01) (2, 1.98364764451980590820e-01) (3, 1.14626896381378173828e+00) (4, 5.05544900894165039062e-01) (5, -2.22664490342140197754e-01) (6, 6.44070446491241455078e-01) (7, 5.13804137706756591797e-01) (8, 3.63536834716796875000e-01) (9, 4.89994734525680541992e-01) (10, 5.64246833324432373047e-01) (11, 1.13246476650238037109e+00) (12, 1.29243850708007812500e+00) (13, 5.68346142768859863281e-01) (14, 3.93087059259414672852e-01) (15, 5.46280086040496826172e-01) (16, 5.32111465930938720703e-01) (17, 3.88295024633407592773e-01) (18, 7.49051749706268310547e-01) (19, 1.89866960048675537109e-01) (20, 3.26654672622680664062e-01) (21, 1.13959920406341552734e+00) (22, 3.27639013528823852539e-01) (23, 6.60889208316802978516e-01) (24, -2.32881799340248107910e-01) (25, 6.10619425773620605469e-01) (26, 4.24878805875778198242e-01) (27, 2.53795027732849121094e-01) (28, -1.33176341652870178223e-01) (29, 2.90501415729522705078e-01) (30, 5.48233389854431152344e-01) (31, 2.95739918947219848633e-01) (32, 1.31668913364410400391e+00) (33, 4.59795087575912475586e-01) (34, 3.82958173751831054688e-01) (35, 2.75955200195312500000e-01) (36, 5.79841434955596923828e-01) (37, 1.16894519329071044922e+00) (38, 1.30997598171234130859e+00) (39, 3.09601306915283203125e-01) (40, 1.23327767848968505859e+00) (41, 6.09338246285915374756e-02) (42, 9.64083671569824218750e-02) (43, 6.76019728183746337891e-01) (44, 4.32773470878601074219e-01) (45, 4.87133830785751342773e-01) (46, 3.80715847015380859375e-01) (47, 5.75208902359008789062e-01) (48, 5.02598583698272705078e-01) (49, 3.75250756740570068359e-01) (50, 1.17544651031494140625e+00) (51, 2.63623297214508056641e-01) (52, 4.02856916189193725586e-01) (2, 4.82243120670318603516e-01) (3, 6.71562850475311279297e-01) (4, -6.86121225357055664062e-01) (5, 3.03103089332580566406e-01) (6, -1.47513961791992187500e+00) (7, 5.87758481502532958984e-01) (8, 6.94174766540527343750e-02) (9, -5.31177461147308349609e-01) (10, 2.85829920321702957153e-02) (11, 2.65781491994857788086e-01) (12, 6.86470568180084228516e-01) (13, 9.34188306331634521484e-01) (14, 1.85633540153503417969e+00) (15, 2.39092111587524414062e-01) (16, -4.57584708929061889648e-01) (17, 7.02840566635131835938e-01) (18, 8.34192812442779541016e-01) (19, 9.23117280006408691406e-01) (20, 6.19814574718475341797e-01) (21, 1.96100518107414245605e-01) (22, -2.29532642364501953125e+01) (23, 3.18619221448898315430e-01) (24, 2.12025552988052368164e-01) (25, 9.48615744709968566895e-02) (26, 5.37242412567138671875e-01) (27, 7.92661428451538085938e-01) (28, 2.90739953517913818359e-01) (29, -7.69814014434814453125e-01) (30, 7.35991358757019042969e-01) (31, 3.07710226625204086304e-02) (32, 6.22849166393280029297e-01) (33, -6.95086061954498291016e-01) (34, 7.32435703277587890625e-01) (35, 7.56692051887512207031e-01) (36, 1.96353450417518615723e-01) (37, 1.27491366863250732422e+00) (38, 2.17271834611892700195e-01) (39, 9.16817113757133483887e-02) (40, 1.28309056162834167480e-01) (41, 1.25419330596923828125e+00) (42, -1.06838169097900390625e+01) (43, 7.05418109893798828125e-01) (44, -5.90611934661865234375e-01) (45, 1.91896057128906250000e+00) (46, 7.48089790344238281250e-01) (47, 4.00404483079910278320e-01) (48, 1.04443132877349853516e+00) (49, 2.74792253971099853516e-01) (50, 2.11239874362945556641e-01) (51, 7.78964638710021972656e-01) (52, 1.61050692200660705566e-01) (2, -3.05710911750793457031e-01) (3, 1.52808949351310729980e-01) (4, 9.76573586463928222656e-01) (5, 1.53534650802612304688e-01) (6, 1.14148163795471191406e+00) (7, -2.47889503836631774902e-01) (8, 1.22484818100929260254e-01) (9, 6.33147001266479492188e-01) (10, 1.17558014392852783203e+00) (11, 3.09175491333007812500e-01) (12, 1.82710394263267517090e-01) (13, -5.18026709556579589844e-01) (14, -2.62273877859115600586e-01) (15, 1.28928923606872558594e+00) (16, 5.70272266864776611328e-01) (17, -1.73718109726905822754e-01) (18, 3.23359459638595581055e-01) (19, 6.59883022308349609375e-01) (20, -1.55386373400688171387e-01) (21, 2.96337306499481201172e-01) (22, 4.83599996566772460938e+00) (23, 1.33128678798675537109e+00) (24, 7.45282828807830810547e-01) (25, 3.09595346450805664062e-01) (26, -3.43585908412933349609e-01) (27, -2.56714046001434326172e-01) (28, 9.88562703132629394531e-01) (29, 1.17390501499176025391e+00) (30, -1.90566122531890869141e-01) (31, 1.17919409275054931641e+00) (32, 2.40373611450195312500e-01) (33, 9.19789195060729980469e-01) (34, -1.97706431150436401367e-01) (35, -1.47295042872428894043e-01) (36, 1.19265055656433105469e+00) (37, 1.27152025699615478516e-01) (38, 2.79137015342712402344e-01) (39, 2.10731768608093261719e+00) (40, 1.23317718505859375000e+00) (41, 4.41086500883102416992e-01) (42, 2.47083835601806640625e+01) (43, 1.09525811672210693359e+00) (44, 8.95045042037963867188e-01) (45, -1.04437895119190216064e-01) (46, -1.96734189987182617188e-01) (47, 1.42307901382446289062e+00) (48, 5.15832006931304931641e-01) (49, 4.43275660276412963867e-01) (50, 1.00208795070648193359e+00) (51, -1.57841682434082031250e-01) (52, 3.38182836771011352539e-01) (2, 6.95763587951660156250e-01) (3, -7.25858192890882492065e-03) (4, 1.57965213060379028320e-01) (5, 1.87115252017974853516e-01) (6, -5.41910529136657714844e-01) (7, 7.89937078952789306641e-01) (8, 2.14913114905357360840e-01) (9, 3.39551538228988647461e-01) (10, 1.03502261638641357422e+00) (11, -1.54167786240577697754e-01) (12, -1.88983473926782608032e-02) (13, 2.31461763381958007812e-01) (14, 7.62022912502288818359e-01) (15, 5.14775872230529785156e-01) (16, 1.26058813184499740601e-02) (17, 2.66786098480224609375e-01) (18, 6.25299930572509765625e-01) (19, 9.85154390335083007812e-01) (20, 4.07423317432403564453e-01) (21, -4.04682755470275878906e-01) (22, -2.61065316200256347656e+00) (23, 6.03065669536590576172e-01) (24, 7.22502231597900390625e-01) (25, -3.46479237079620361328e-01) (26, 7.12157905101776123047e-01) (27, 3.09238761663436889648e-01) (28, 8.58584642410278320312e-01) (29, -3.20368796586990356445e-01) (30, 3.65541309118270874023e-01) (31, 3.70556488633155822754e-02) (32, 3.22771400213241577148e-01) (33, 2.67392486333847045898e-01) (34, 1.85241103172302246094e-01) (35, 3.34525287151336669922e-01) (36, 2.98653751611709594727e-01) (37, -3.94288969039916992188e+00) (38, 5.92864453792572021484e-01) (39, -1.66191601753234863281e+00) (40, 2.83240199089050292969e-01) (41, 2.45419830083847045898e-01) (42, -3.08720731735229492188e+00) (43, 3.28714102506637573242e-01) (44, 6.30033165216445922852e-02) (45, 3.21010559797286987305e-01) (46, 4.16961103677749633789e-01) (47, -2.79138889163732528687e-02) (48, 6.99491381645202636719e-01) (49, 7.61462688446044921875e-01) (50, -3.46913218498229980469e-01) (51, 5.73283255100250244141e-01) (52, 7.88714528083801269531e-01) (2, 3.51122826337814331055e-01) (3, 1.67915984988212585449e-01) (4, 1.14321231842041015625e+00) (5, 1.63291275501251220703e-01) (6, 1.43752384185791015625e+00) (7, 2.81722724437713623047e-01) (8, 7.37132489681243896484e-01) (9, 1.05285871028900146484e+00) (10, 1.15459072589874267578e+00) (11, 1.43509045243263244629e-01) (12, 1.98295876383781433105e-01) (13, -1.73213973641395568848e-01) (14, -3.30566734075546264648e-01) (15, 8.90786528587341308594e-01) (16, 1.49675798416137695312e+00) (17, 2.51780629158020019531e-01) (18, 1.71215504407882690430e-01) (19, 7.72764205932617187500e-01) (20, 2.84700781106948852539e-01) (21, 1.57773122191429138184e-01) (22, 3.78552284240722656250e+01) (23, 8.74759376049041748047e-01) (24, 7.42878675460815429688e-01) (25, 4.73308801651000976562e-01) (26, 3.66808891296386718750e-01) (27, 1.78616732358932495117e-01) (28, 6.65383160114288330078e-01) (29, 9.16969060897827148438e-01) (30, -2.61032342910766601562e-01) (31, 7.03385651111602783203e-01) (32, 1.74864709377288818359e-01) (33, 1.25250804424285888672e+00) (34, 1.40078872442245483398e-01) (35, 2.49756813049316406250e-01) (36, 7.86102533340454101562e-01) (37, -2.18779847025871276855e-01) (38, 7.18165516853332519531e-01) (39, 8.63536119461059570312e-01) (40, 6.41806960105895996094e-01) (41, -3.52040976285934448242e-01) (42, 2.10658508300781250000e+02) (43, 7.17913448810577392578e-01) (44, 1.27745699882507324219e+00) (45, -9.55492913722991943359e-01) (46, 1.91401600837707519531e-01) (47, 9.18454289436340332031e-01) (48, 4.64168846607208251953e-01) (49, 7.43510842323303222656e-01) (50, 5.99664330482482910156e-01) (51, 2.24912181496620178223e-01) (52, 7.80953168869018554688e-01) (2, 7.90472686290740966797e-01) (3, 4.28940355777740478516e-01) (4, 1.65561807155609130859e+00) (5, 5.01629523932933807373e-02) (6, 8.88763189315795898438e-01) (7, 1.37076771259307861328e+00) (8, 2.95074254274368286133e-01) (9, 9.37160909175872802734e-01) (10, 4.49005991220474243164e-01) (11, 9.83108758926391601562e-01) (12, 3.79756480455398559570e-01) (13, -5.06865441799163818359e-01) (14, 1.41475662589073181152e-01) (15, 8.65794811397790908813e-03) (16, 6.29834830760955810547e-01) (17, 4.52295213937759399414e-01) (18, 2.47336447238922119141e-01) (19, -3.47909480333328247070e-02) (20, 4.22492213547229766846e-02) (21, 1.09335982799530029297e+00) (22, 3.11585068702697753906e+00) (23, 3.66564095020294189453e-01) (24, 4.51011866331100463867e-01) (25, 5.77925801277160644531e-01) (26, 8.96577119827270507812e-01) (27, 4.02422308921813964844e-01) (28, -1.43490895628929138184e-01) (29, 5.04995167255401611328e-01) (30, -7.22086608409881591797e-01) (31, 2.78628677129745483398e-01) (32, 1.07799804210662841797e+00) (33, 6.48163437843322753906e-01) (34, 5.02224802970886230469e-01) (35, -5.41620030999183654785e-02) (36, 1.06005740165710449219e+00) (37, -5.26207149028778076172e-01) (38, 1.04089045524597167969e+00) (39, 2.58514285087585449219e-01) (40, 1.08943200111389160156e+00) (41, 2.50580340623855590820e-01) (42, 1.66221790313720703125e+01) (43, 5.17415225505828857422e-01) (44, 1.51916158199310302734e+00) (45, -7.04457581043243408203e-01) (46, 4.15389835834503173828e-01) (47, 1.98214203119277954102e-01) (48, 2.71450370550155639648e-01) (49, 4.83400791883468627930e-01) (50, 1.25221669673919677734e+00) (51, 4.03018370270729064941e-02) (52, 4.26213592290878295898e-01) (2, -4.75540338084101676941e-03) (3, 1.11708796024322509766e+00) (4, 4.67830330133438110352e-01) (5, 4.04367774724960327148e-01) (6, 6.63767874240875244141e-01) (7, 1.76511451601982116699e-01) (8, 3.07765871286392211914e-01) (9, 1.02397191524505615234e+00) (10, 5.97098410129547119141e-01) (11, 1.03391408920288085938e+00) (12, 7.91007697582244873047e-01) (13, 5.57144165039062500000e-01) (14, 2.32316985726356506348e-01) (15, 8.88392984867095947266e-01) (16, 9.07850861549377441406e-01) (17, 4.73453730344772338867e-01) (18, 4.39119637012481689453e-01) (19, -1.02970108389854431152e-01) (20, 4.10086274147033691406e-01) (21, 1.12158417701721191406e+00) (22, 9.43193626403808593750e+00) (23, 9.32228863239288330078e-01) (24, -6.94980751723051071167e-03) (25, 1.33328819274902343750e+00) (26, 2.21218839287757873535e-01) (27, 3.03232997655868530273e-01) (28, -6.22785426676273345947e-02) (29, 1.03520381450653076172e+00) (30, 5.49235582351684570312e-01) (31, 3.08323353528976440430e-01) (32, 1.06853139400482177734e+00) (33, 5.75711190700531005859e-01) (34, 4.81286287307739257812e-01) (35, 4.04460608959197998047e-01) (36, 4.77061837911605834961e-01) (37, 2.65552192926406860352e-01) (38, 1.05578684806823730469e+00) (39, 1.26600193977355957031e+00) (40, 1.09401774406433105469e+00) (41, -1.13309726119041442871e-01) (42, 5.13588600158691406250e+01) (43, 5.04148781299591064453e-01) (44, 5.46952605247497558594e-01) (45, 2.08192199468612670898e-01) (46, 3.67827981710433959961e-01) (47, 9.81398463249206542969e-01) (48, 3.28184247016906738281e-01) (49, -1.35373920202255249023e-01) (50, 1.01283788681030273438e+00) (51, 4.20624732971191406250e-01) (52, 8.64041149616241455078e-01) (2, 5.21360278129577636719e-01) (3, 9.72427308559417724609e-01) (4, -7.78253257274627685547e-01) (5, 2.45952636003494262695e-01) (6, -7.99968063831329345703e-01) (7, 4.53348249197006225586e-01) (8, 5.71418046951293945312e-01) (9, 6.99224099516868591309e-02) (10, 2.34493151307106018066e-01) (11, 1.14798939228057861328e+00) (12, 9.66117918491363525391e-01) (13, 9.60259675979614257812e-01) (14, 1.93790912628173828125e+00) (15, 4.21971410512924194336e-01) (16, -4.63905364274978637695e-01) (17, 2.75534123182296752930e-01) (18, 1.21916389465332031250e+00) (19, 5.84577202796936035156e-01) (20, 3.63746285438537597656e-01) (21, 9.46221947669982910156e-01) (22, -3.41551899909973144531e-02) (23, 4.55006062984466552734e-01) (24, -1.04022003710269927979e-01) (25, 3.02612110972404479980e-02) (26, 4.17500853538513183594e-01) (27, 3.02026629447937011719e-01) (28, -1.97309851646423339844e-01) (29, 3.74432951211929321289e-01) (30, 1.03608548641204833984e+00) (31, 3.24188888072967529297e-01) (32, 1.14084684848785400391e+00) (33, -6.91601097583770751953e-01) (34, 4.15520280599594116211e-01) (35, 2.74439036846160888672e-01) (36, 3.29909265041351318359e-01) (37, 9.83301997184753417969e-01) (38, 6.34785711765289306641e-01) (39, 1.91785380244255065918e-01) (40, 2.90659040212631225586e-01) (41, 1.14356195926666259766e+00) (42, -1.15057888031005859375e+01) (43, 3.08832377195358276367e-01) (44, -8.25574338436126708984e-01) (45, 1.23393619060516357422e+00) (46, 2.80346602201461791992e-01) (47, 2.95329540967941284180e-01) (48, 1.08682215213775634766e+00) (49, -2.30476737022399902344e-01) (50, 1.28208085894584655762e-01) (51, 2.45475679636001586914e-01) (52, -2.14996859431266784668e-01) (2, 1.64928019046783447266e-01) (3, 3.65876168012619018555e-01) (4, -3.52860182523727416992e-01) (5, 7.89103567600250244141e-01) (6, -1.48902380466461181641e+00) (7, -8.41263681650161743164e-03) (8, 4.53421741724014282227e-01) (9, -1.98286914825439453125e+01) (10, 2.24815264344215393066e-01) (11, 1.54448151588439941406e-01) (12, 4.31211709976196289062e-01) (13, 1.22458970546722412109e+00) (14, 5.62968850135803222656e-01) (15, 5.17169535160064697266e-01) (16, -1.51567935943603515625e-01) (17, 4.70228791236877441406e-01) (18, 1.51502966880798339844e+00) (19, 1.68115258216857910156e+00) (20, 8.83960664272308349609e-01) (21, -2.94226735830307006836e-01) (22, -1.18193864822387695312e+01) (23, 4.17220182716846466064e-02) (24, 3.56264084577560424805e-01) (25, 3.10078680515289306641e-01) (26, 6.08173757791519165039e-02) (27, 3.62307161092758178711e-01) (28, 8.83659303188323974609e-01) (29, 9.36420559883117675781e-02) (30, 1.29095709323883056641e+00) (31, 2.71437585353851318359e-01) (32, 2.45336368680000305176e-01) (33, 2.71205246448516845703e-01) (34, 3.82853925228118896484e-01) (35, 8.46988379955291748047e-01) (36, -4.49923127889633178711e-01) (37, 1.55131185054779052734e+00) (38, 2.19015002250671386719e-01) (39, 6.73265874385833740234e-01) (40, -3.67428392171859741211e-01) (41, 1.29481041431427001953e+00) (42, -1.38680047988891601562e+01) (43, 3.25380355119705200195e-01) (44, -4.45126533508300781250e-01) (45, 1.67758274078369140625e+00) (46, 3.42459201812744140625e-01) (47, 7.29566156864166259766e-01) (48, 7.31003224849700927734e-01) (49, 3.17935824394226074219e-01) (50, -7.67235577106475830078e-01) (51, 1.91238760948181152344e+00) (52, 3.88894230127334594727e-01) (2, 6.05655610561370849609e-01) (3, 6.65252208709716796875e-01) (4, -3.74973803758621215820e-01) (5, 3.53821992874145507812e-01) (6, -5.78660070896148681641e-01) (7, 4.91941928863525390625e-01) (8, 6.68993592262268066406e-01) (9, 1.89763143658638000488e-01) (10, 1.22770495712757110596e-01) (11, 9.06796693801879882812e-01) (12, 5.66978812217712402344e-01) (13, 8.77712070941925048828e-01) (14, 1.61345481872558593750e+00) (15, 2.98682659864425659180e-01) (16, 1.49021521210670471191e-01) (17, 4.07821655273437500000e-01) (18, 7.66822338104248046875e-01) (19, 6.30411505699157714844e-01) (20, 3.65681976079940795898e-01) (21, 6.07085824012756347656e-01) (22, -2.51848320476710796356e-03) (23, 4.44073617458343505859e-01) (24, 1.37347925920039415359e-03) (25, 2.06031709909439086914e-01) (26, 4.93824422359466552734e-01) (27, 4.37767058610916137695e-01) (28, -7.16740190982818603516e-02) (29, 2.44461148977279663086e-01) (30, 8.10554563999176025391e-01) (31, -2.15081080794334411621e-01) (32, 8.35342764854431152344e-01) (33, -5.22561132907867431641e-01) (34, 3.71095359325408935547e-01) (35, 5.25559663772583007812e-01) (36, 1.15478068590164184570e-01) (37, 7.96084344387054443359e-01) (38, 6.08991980552673339844e-01) (39, 1.63445383310317993164e-01) (40, 1.85519456863403320312e-01) (41, 2.94287651777267456055e-01) (42, -7.38721847534179687500e-01) (43, 2.17646494507789611816e-01) (44, -3.96621733903884887695e-01) (45, 8.65758955478668212891e-01) (46, 5.20667612552642822266e-01) (47, 3.93274933099746704102e-01) (48, 5.36741793155670166016e-01) (49, 4.05358476564288139343e-03) (50, 5.04493676126003265381e-02) (51, 7.21659123897552490234e-01) (52, 3.62684190273284912109e-01) (2, 2.54222989082336425781e-01) (3, 3.21275711059570312500e-01) (4, 2.37857922911643981934e-01) (5, -2.16403320431709289551e-01) (6, 2.64624983072280883789e-01) (7, 2.55047708749771118164e-01) (8, 2.55930610001087188721e-02) (9, -4.95587825775146484375e-01) (10, 6.33892059326171875000e-01) (11, 4.03226345777511596680e-01) (12, 2.80347466468811035156e-01) (13, 2.59645760059356689453e-01) (14, 5.72003901004791259766e-01) (15, 4.83029901981353759766e-01) (16, -3.81059199571609497070e-01) (17, -1.60867616534233093262e-01) (18, 2.01195299625396728516e-01) (19, 7.98821926116943359375e-01) (20, -4.46499288082122802734e-02) (21, 2.17064425349235534668e-01) (22, -1.23998653888702392578e+00) (23, 3.16881179809570312500e-01) (24, 4.39552992582321166992e-01) (25, 3.75642299652099609375e-01) (26, 2.37060040235519409180e-01) (27, 9.44684073328971862793e-03) (28, 5.10367155075073242188e-01) (29, -3.00715017318725585938e+00) (30, 1.00584137439727783203e+00) (31, 4.82611477375030517578e-01) (32, 4.06503349542617797852e-01) (33, 8.39877009391784667969e-01) (34, -7.14468657970428466797e-02) (35, -4.05670478940010070801e-02) (36, 9.63938713073730468750e-01) (37, -8.77899408340454101562e-01) (38, 4.12862211465835571289e-01) (39, 1.90456554293632507324e-01) (40, 1.06804895401000976562e+00) (41, 7.22336828708648681641e-01) (42, -6.26727294921875000000e+00) (43, 7.09245681762695312500e-01) (44, 9.02634084224700927734e-01) (45, 8.64472985267639160156e-01) (46, -8.26101750135421752930e-02) (47, 4.82726961374282836914e-01) (48, 4.54384893178939819336e-01) (49, 4.30701494216918945312e-01) (50, 5.18765628337860107422e-01) (51, 2.38527525216341018677e-02) (52, -1.23172774910926818848e-01) (2, 1.79572805762290954590e-01) (3, 3.10517460107803344727e-01) (4, 2.29899454116821289062e+00) (5, 6.20789885520935058594e-01) (6, 3.40417146682739257812e+00) (7, 1.08959414064884185791e-01) (8, -1.23003654181957244873e-01) (9, 1.11660122871398925781e+00) (10, 8.78385603427886962891e-01) (11, 1.46291524171829223633e-01) (12, 7.26238042116165161133e-02) (13, -3.72598171234130859375e-02) (14, -1.23487615585327148438e+00) (15, 9.42865729331970214844e-01) (16, 5.01393973827362060547e-01) (17, -7.13404566049575805664e-02) (18, -1.01196311414241790771e-01) (19, 4.05093550682067871094e-01) (20, -9.14371982216835021973e-02) (21, 2.94592976570129394531e-01) (22, 3.04547858238220214844e+00) (23, 9.10232067108154296875e-01) (24, 6.43209874629974365234e-01) (25, 8.95881772041320800781e-01) (26, 2.05583676695823669434e-01) (27, -8.02254527807235717773e-02) (28, 1.12378191947937011719e+00) (29, 6.83704495429992675781e-01) (30, -1.36468276381492614746e-01) (31, 1.12889826297760009766e+00) (32, 1.84518933296203613281e-01) (33, 2.09292602539062500000e+00) (34, -2.93911192566156387329e-02) (35, 1.71852149069309234619e-02) (36, 9.34419214725494384766e-01) (37, -3.23469460010528564453e-01) (38, 1.04385411739349365234e+00) (39, 9.70908820629119873047e-01) (40, 8.70255589485168457031e-01) (41, 2.34235703945159912109e-01) (42, 3.42659950256347656250e+00) (43, 1.00789248943328857422e+00) (44, 2.36713814735412597656e+00) (45, -2.02901795506477355957e-01) (46, -6.20628148317337036133e-02) (47, 9.78644430637359619141e-01) (48, 1.91971376538276672363e-01) (49, 6.23060226440429687500e-01) (50, 7.03412234783172607422e-01) (51, -5.41033297777175903320e-02) (52, 7.76837825775146484375e-01) (2, -2.78503596782684326172e-02) (3, 8.98859560489654541016e-01) (4, 5.23144304752349853516e-01) (5, 4.35071736574172973633e-01) (6, 8.42978000640869140625e-01) (7, -9.10505875945091247559e-02) (8, 4.53967243432998657227e-01) (9, 2.44527316093444824219e+00) (10, 2.73242712020874023438e-01) (11, 1.56955432891845703125e+00) (12, 8.82843613624572753906e-01) (13, 3.29677045345306396484e-01) (14, 3.00199579214677214622e-04) (15, 1.20169842243194580078e+00) (16, 8.69899749755859375000e-01) (17, 5.05465507507324218750e-01) (18, 3.27783882617950439453e-01) (19, -2.01582312583923339844e-01) (20, 2.91103750467300415039e-01) (21, 8.22550952434539794922e-01) (22, 2.56730747222900390625e+00) (23, 9.28117930889129638672e-01) (24, 1.28598079085350036621e-01) (25, 7.89830803871154785156e-01) (26, -1.52778001502156257629e-02) (27, 5.20205080509185791016e-01) (28, 1.98818057775497436523e-01) (29, 9.60060715675354003906e-01) (30, 5.59559822082519531250e-01) (31, 9.95433509349822998047e-01) (32, 6.21974408626556396484e-01) (33, 4.54060375690460205078e-01) (34, 4.53951179981231689453e-01) (35, 4.94526922702789306641e-01) (36, 6.41418814659118652344e-01) (37, 1.58804252743721008301e-01) (38, 6.42184793949127197266e-01) (39, 4.09396743774414062500e+00) (40, 5.09751021862030029297e-01) (41, 3.13360393047332763672e-01) (42, 1.48267307281494140625e+01) (43, 4.05739068984985351562e-01) (44, 4.26314413547515869141e-01) (45, 3.30464303493499755859e-01) (46, 4.90856170654296875000e-01) (47, 1.35095810890197753906e+00) (48, 6.00854575634002685547e-01) (49, 2.48861126601696014404e-02) (50, 6.09006285667419433594e-01) (51, 3.07653278112411499023e-01) (52, 2.32400357723236083984e-01) (2, 4.17954802513122558594e-01) (3, 2.56468862295150756836e-01) (4, 1.21112215518951416016e+00) (5, 3.22984725236892700195e-01) (6, 1.40523052215576171875e+00) (7, 4.86679792404174804688e-01) (8, 1.91034361720085144043e-01) (9, 7.38072276115417480469e-01) (10, 6.51331603527069091797e-01) (11, 2.39354804158210754395e-01) (12, 2.36338689923286437988e-01) (13, 3.28876644372940063477e-01) (14, -2.41270661354064941406e-01) (15, 7.53190159797668457031e-01) (16, 7.73450851440429687500e-01) (17, 2.74163067340850830078e-01) (18, 7.01499581336975097656e-01) (19, 9.11963343620300292969e-01) (20, 2.41637974977493286133e-01) (21, 1.28160923719406127930e-01) (22, 4.85813903808593750000e+00) (23, 5.16195058822631835938e-01) (24, 7.57252275943756103516e-01) (25, 3.96582841873168945312e-01) (26, 3.02487432956695556641e-01) (27, 2.71791607141494750977e-01) (28, 6.50865137577056884766e-01) (29, 2.93758094310760498047e-01) (30, -6.15626573562622070312e-02) (31, 1.42471885681152343750e+00) (32, 2.71762132644653320312e-01) (33, 1.23816001415252685547e+00) (34, 2.91841298341751098633e-01) (35, 2.45031252503395080566e-01) (36, 6.23825848102569580078e-01) (37, 1.29110381007194519043e-01) (38, 1.47968292236328125000e-01) (39, 8.46970856189727783203e-01) (40, 6.13637864589691162109e-01) (41, 3.94785761833190917969e-01) (42, 2.63451786041259765625e+01) (43, 8.86780679225921630859e-01) (44, 1.26510751247406005859e+00) (45, -8.69417130947113037109e-01) (46, 2.06793174147605895996e-01) (47, 9.16291236877441406250e-01) (48, 8.71253728866577148438e-01) (49, 7.71312236785888671875e-01) (50, 6.55878126621246337891e-01) (51, 1.80286213755607604980e-01) (52, 3.66519689559936523438e-01) (2, 5.70063441991806030273e-02) (3, 3.08989912271499633789e-01) (4, 7.55636274814605712891e-01) (5, -2.58159458637237548828e-01) (6, 1.11235380172729492188e+00) (7, 1.96930896490812301636e-02) (8, 1.20861184597015380859e+00) (9, 6.99284613132476806641e-01) (10, 1.28263187408447265625e+00) (11, 3.55928063392639160156e-01) (12, 1.75901114940643310547e-01) (13, -1.25521034002304077148e-01) (14, 1.58581078052520751953e-01) (15, 5.92039942741394042969e-01) (16, 8.23268145322799682617e-02) (17, 3.04718375205993652344e-01) (18, 3.81649494171142578125e-01) (19, 6.31642878055572509766e-01) (20, -3.09717297554016113281e-01) (21, 1.22139227390289306641e+00) (22, 6.93074464797973632812e+00) (23, 3.34551072120666503906e+00) (24, 6.89051210880279541016e-01) (25, 3.21331113576889038086e-01) (26, 7.07142576575279235840e-02) (27, -2.88976728916168212891e-01) (28, 7.53475069999694824219e-01) (29, 4.72339481115341186523e-01) (30, -2.30500116944313049316e-01) (31, 5.22195994853973388672e-01) (32, 2.02327981591224670410e-01) (33, 7.33334779739379882812e-01) (34, 2.09047764539718627930e-01) (35, -1.79897069931030273438e-01) (36, 1.10074174404144287109e+00) (37, 4.64190155267715454102e-01) (38, 1.09561979770660400391e+00) (39, 2.02113819122314453125e+00) (40, 1.14664447307586669922e+00) (41, -3.12195211648941040039e-01) (42, 3.98834571838378906250e+01) (43, 5.81432878971099853516e-01) (44, 8.06240320205688476562e-01) (45, -1.38866631314158439636e-02) (46, -2.07859247922897338867e-01) (47, 7.23086655139923095703e-01) (48, 5.74778914451599121094e-01) (49, 7.03753054141998291016e-01) (50, 8.66481959819793701172e-01) (51, -3.87449920177459716797e-01) (52, 6.35924875736236572266e-01) (2, 6.33627176284790039062e-01) (3, 7.56885588169097900391e-01) (4, 2.12278515100479125977e-01) (5, 4.58189904689788818359e-01) (6, 1.27948373556137084961e-01) (7, 3.29384237527847290039e-01) (8, 5.83364725112915039062e-01) (9, 7.51366734504699707031e-01) (10, 3.22464734315872192383e-01) (11, 8.27937543392181396484e-01) (12, 7.20151126384735107422e-01) (13, 3.54608058929443359375e-01) (14, 1.00539875030517578125e+00) (15, 3.48917305469512939453e-01) (16, 8.03755760192871093750e-01) (17, 6.11630856990814208984e-01) (18, 3.94010335206985473633e-01) (19, 1.14754691720008850098e-01) (20, 4.35183018445968627930e-01) (21, 7.39899754524230957031e-01) (22, 3.17235612869262695312e+00) (23, 4.95884418487548828125e-01) (24, 1.23182162642478942871e-01) (25, 4.83483552932739257812e-01) (26, 3.15773487091064453125e-01) (27, 5.96780717372894287109e-01) (28, 1.47021245211362838745e-02) (29, -2.78727829456329345703e-01) (30, 4.24348592758178710938e-01) (31, 1.86608090996742248535e-01) (32, 7.22505927085876464844e-01) (33, -1.38653628528118133545e-02) (34, 5.55603981018066406250e-01) (35, 6.76798999309539794922e-01) (36, 3.68297576904296875000e-01) (37, 3.55857372283935546875e-01) (38, 7.79613137245178222656e-01) (39, 2.19575971364974975586e-01) (40, 2.55553424358367919922e-01) (41, -4.22884710133075714111e-02) (42, 4.55354154109954833984e-01) (43, 5.47394640743732452393e-02) (44, 1.56532078981399536133e-01) (45, 4.86532151699066162109e-01) (46, 6.42026901245117187500e-01) (47, 4.90564256906509399414e-01) (48, 5.04834473133087158203e-01) (49, 7.16362297534942626953e-02) (50, 3.72191548347473144531e-01) (51, 5.33948361873626708984e-01) (52, 4.17899370193481445312e-01) (2, 1.00148066878318786621e-01) (3, 3.17012935876846313477e-01) (4, -1.52258265018463134766e+00) (5, 6.25488042831420898438e-01) (6, -1.63555014133453369141e+00) (7, 8.47162827849388122559e-02) (8, 4.24720913171768188477e-01) (9, -5.59055709838867187500e+01) (10, 4.77536261081695556641e-01) (11, 1.87848523259162902832e-01) (12, 3.63302886486053466797e-01) (13, 1.81347203254699707031e+00) (14, 1.26357328891754150391e+00) (15, 3.29064220190048217773e-01) (16, -1.94569155573844909668e-01) (17, 3.37476730346679687500e-01) (18, 1.06214296817779541016e+00) (19, 1.49941587448120117188e+00) (20, 9.52773809432983398438e-01) (21, -2.65892118215560913086e-01) (22, -1.27973890304565429688e+01) (23, 1.96813553571701049805e-01) (24, 3.22770774364471435547e-01) (25, -1.62975564599037170410e-01) (26, 1.36608719825744628906e-01) (27, 2.94586390256881713867e-01) (28, 7.23666250705718994141e-01) (29, 1.13550446927547454834e-01) (30, 1.88867855072021484375e+00) (31, -3.60926717519760131836e-01) (32, 2.76547849178314208984e-01) (33, -1.91147565841674804688e-01) (34, 3.98042142391204833984e-01) (35, 1.22921681404113769531e+00) (36, -2.56822496652603149414e-01) (37, 2.82386517524719238281e+00) (38, -2.88070380687713623047e-01) (39, 5.63996315002441406250e-01) (40, -1.77300423383712768555e-01) (41, 8.21246027946472167969e-01) (42, -3.14907760620117187500e+01) (43, 1.94649010896682739258e-01) (44, -1.59422862529754638672e+00) (45, 2.24276328086853027344e+00) (46, 2.61154264211654663086e-01) (47, 6.88779175281524658203e-01) (48, 7.19097435474395751953e-01) (49, 3.91152739524841308594e-01) (50, -8.05279731750488281250e-01) (51, 4.11587774753570556641e-01) (52, 1.69852510094642639160e-01) (2, -3.00793826580047607422e-01) (3, 1.16255664825439453125e+00) (4, 4.69981171190738677979e-02) (5, 2.49808356165885925293e-01) (6, -2.95230001211166381836e-01) (7, 1.71288326382637023926e-01) (8, -1.09041422605514526367e-01) (9, 6.73567503690719604492e-02) (10, -2.25199505686759948730e-01) (11, 1.21582102775573730469e+00) (12, 1.20011496543884277344e+00) (13, 6.30751550197601318359e-01) (14, 5.22850930690765380859e-01) (15, 5.92821061611175537109e-01) (16, 2.01350376009941101074e-01) (17, 2.56583601236343383789e-01) (18, 7.80473649501800537109e-01) (19, 6.38980627059936523438e-01) (20, 2.14388802647590637207e-01) (21, 1.24004352092742919922e+00) (22, -2.48485803604125976562e+00) (23, -2.36946240067481994629e-01) (24, -4.18422877788543701172e-01) (25, 5.05103349685668945312e-01) (26, -5.81274032592773437500e-01) (27, 1.94597005844116210938e-01) (28, -3.69047701358795166016e-01) (29, 2.86004006862640380859e-01) (30, 5.10118305683135986328e-01) (31, 6.93436682224273681641e-01) (32, 1.30963528156280517578e+00) (33, 2.37376913428306579590e-01) (34, 3.06607663631439208984e-01) (35, 2.19531551003456115723e-01) (36, 5.89290440082550048828e-01) (37, 7.31582164764404296875e-01) (38, 4.64907139539718627930e-01) (39, 6.58566474914550781250e-01) (40, 3.80860328674316406250e-01) (41, 8.99020612239837646484e-01) (42, -1.25650739669799804688e+01) (43, 3.94189238548278808594e-01) (44, 2.34486296772956848145e-01) (45, 2.96656876802444458008e-01) (46, 3.37402075529098510742e-01) (47, 9.71909105777740478516e-01) (48, 1.11022591590881347656e+00) (49, -2.86914199590682983398e-01) (50, 1.48896485567092895508e-01) (51, 3.97603422403335571289e-01) (52, -2.74749606847763061523e-01) (2, 8.26370060443878173828e-01) (3, -2.39281803369522094727e-02) (4, 4.92215752601623535156e-01) (5, 8.23905706405639648438e-01) (6, 5.84364771842956542969e-01) (7, 6.27196013927459716797e-01) (8, -2.98356235027313232422e-01) (9, -3.95273447036743164062e-01) (10, 1.84069156646728515625e-01) (11, 1.06118217110633850098e-01) (12, 2.43626702576875686646e-02) (13, 1.06372177600860595703e+00) (14, -2.71831363439559936523e-01) (15, 4.05638635158538818359e-01) (16, 1.12717539072036743164e-01) (17, 2.91230380535125732422e-01) (18, 7.65085697174072265625e-01) (19, 8.02225112915039062500e-01) (20, 4.18579995632171630859e-01) (21, -3.91234830021858215332e-02) (22, -9.24232101440429687500e+00) (23, -2.93193399906158447266e-01) (24, 8.11642110347747802734e-01) (25, 7.54541456699371337891e-01) (26, 8.64972889423370361328e-01) (27, 2.53646522760391235352e-01) (28, 6.73191905021667480469e-01) (29, -2.40753382444381713867e-01) (30, 1.05880999565124511719e+00) (31, 7.68470048904418945312e-01) (32, 1.09591573476791381836e-01) (33, 6.20815277099609375000e-01) (34, 3.28785419464111328125e-01) (35, 4.20425623655319213867e-01) (36, 5.47093808650970458984e-01) (37, 5.23897230625152587891e-01) (38, 4.68643642961978912354e-02) (39, -1.93032240867614746094e+00) (40, -7.55952522158622741699e-02) (41, 1.72123277187347412109e+00) (42, -4.55889797210693359375e+00) (43, 5.98636627197265625000e-01) (44, 5.62526941299438476562e-01) (45, 6.05565726757049560547e-01) (46, 4.42832112312316894531e-01) (47, 3.84429305791854858398e-01) (48, 9.05412971973419189453e-01) (49, 2.65501648187637329102e-01) (50, -5.73508679866790771484e-01) (51, 4.86738115549087524414e-01) (52, 3.19531828165054321289e-01) (2, -1.53935298323631286621e-01) (3, 1.82634019851684570312e+00) (4, 2.49375343322753906250e-01) (5, 2.77035772800445556641e-01) (6, -2.95087784528732299805e-01) (7, -2.40380033850669860840e-01) (8, 8.58397632837295532227e-02) (9, -5.14767289161682128906e-01) (10, 2.62294232845306396484e-01) (11, 6.80268228054046630859e-01) (12, 1.84581339359283447266e+00) (13, 4.45395529270172119141e-01) (14, 1.17589578032493591309e-01) (15, 1.02936911582946777344e+00) (16, 1.96086585521697998047e+00) (17, -6.90175890922546386719e-01) (18, 5.72295963764190673828e-01) (19, 6.86791062355041503906e-01) (20, 1.32642090320587158203e-01) (21, 6.74612343311309814453e-01) (22, -2.05135270953178405762e-01) (23, 3.42650383710861206055e-01) (24, -6.89928770065307617188e-01) (25, 9.29595708847045898438e-01) (26, -1.20863817632198333740e-01) (27, 3.97447049617767333984e-01) (28, -2.90567100048065185547e-01) (29, 4.31000590324401855469e-02) (30, 3.48052293062210083008e-01) (31, 6.32095217704772949219e-01) (32, 1.75522077083587646484e+00) (33, 3.68413805961608886719e-01) (34, -6.18363142013549804688e-01) (35, 1.53681933879852294922e-01) (36, 6.56203687191009521484e-01) (37, 5.01034259796142578125e-01) (38, 8.65413725376129150391e-01) (39, 5.45943260192871093750e-01) (40, 7.16618359088897705078e-01) (41, 1.94473728537559509277e-01) (42, -3.92668676376342773438e+00) (43, 1.74877583980560302734e+00) (44, 3.23035806417465209961e-01) (45, 5.08350431919097900391e-01) (46, 1.20073780417442321777e-01) (47, 1.01902914047241210938e+00) (48, 6.83057904243469238281e-01) (49, -3.58484506607055664062e-01) (50, 4.64966714382171630859e-01) (51, 3.41701775789260864258e-01) (52, -2.62605547904968261719e-01) (2, 6.86981618404388427734e-01) (3, 1.19669115543365478516e+00) (4, -3.80141675472259521484e-01) (5, -5.19074127078056335449e-03) (6, -1.59339353442192077637e-01) (7, 5.97789406776428222656e-01) (8, 2.06319078803062438965e-01) (9, 6.99994899332523345947e-03) (10, 4.93263661861419677734e-01) (11, 1.24749743938446044922e+00) (12, 1.11125946044921875000e+00) (13, 1.21904134750366210938e+00) (14, 6.35211408138275146484e-01) (15, 5.66147565841674804688e-01) (16, 5.31739354133605957031e-01) (17, 3.83071541786193847656e-01) (18, 1.12652313709259033203e+00) (19, 4.05309498310089111328e-01) (20, 8.61802399158477783203e-01) (21, 1.15386080741882324219e+00) (22, -1.82730928063392639160e-01) (23, 4.23827171325683593750e-01) (24, 4.09788519144058227539e-01) (25, -2.74487465620040893555e-01) (26, 1.63242921233177185059e-01) (27, 2.67908185720443725586e-01) (28, -1.71150833368301391602e-01) (29, 1.92348003387451171875e-01) (30, 1.07857215404510498047e+00) (31, -4.41936731338500976562e-01) (32, 1.27364778518676757812e+00) (33, 1.24832272529602050781e-01) (34, 3.75193297863006591797e-01) (35, 3.88536870479583740234e-01) (36, 5.79380035400390625000e-01) (37, 1.17696356773376464844e+00) (38, 1.26625680923461914062e+00) (39, 3.15444052219390869141e-01) (40, 1.08526778221130371094e+00) (41, 1.45191147923469543457e-01) (42, -6.91138267517089843750e+00) (43, 3.87289434671401977539e-01) (44, 1.00427776575088500977e-01) (45, 1.70699879527091979980e-01) (46, 3.67081224918365478516e-01) (47, 5.26837468147277832031e-01) (48, 4.45234388113021850586e-01) (49, 2.71745115518569946289e-01) (50, 4.85611379146575927734e-01) (51, 4.05437052249908447266e-01) (52, 3.61733824014663696289e-01) (2, 2.90291607379913330078e-01) (3, 6.57954752445220947266e-01) (4, 3.79679113626480102539e-01) (5, -1.20728045701980590820e-01) (6, 5.31414508819580078125e-01) (7, 3.33852738142013549805e-01) (8, 2.51384317874908447266e-01) (9, 3.03301289677619934082e-02) (10, 1.28699445724487304688e+00) (11, 6.43744707107543945312e-01) (12, 5.35687327384948730469e-01) (13, 1.42777800559997558594e-01) (14, 5.72466611862182617188e-01) (15, 8.25729846954345703125e-01) (16, 7.07689642906188964844e-01) (17, -1.01826764643192291260e-01) (18, 7.90262997150421142578e-01) (19, 9.84745740890502929688e-01) (20, -1.00434064865112304688e-01) (21, 6.41266703605651855469e-01) (22, 1.14032773971557617188e+01) (23, 9.10110771656036376953e-01) (24, 2.48516038060188293457e-01) (25, -9.73533317446708679199e-02) (26, 2.23040029406547546387e-01) (27, -9.01826769113540649414e-02) (28, 2.47297093272209167480e-01) (29, 7.86596655845642089844e-01) (30, -5.91122582554817199707e-02) (31, 1.61535963416099548340e-01) (32, 6.34738743305206298828e-01) (33, 4.28124636411666870117e-01) (34, -8.81445109844207763672e-02) (35, -1.66356205940246582031e-01) (36, 1.10229420661926269531e+00) (37, 5.31626939773559570312e-01) (38, 1.04425728321075439453e+00) (39, 5.92688560485839843750e-01) (40, 1.14153718948364257812e+00) (41, -2.51158714294433593750e-01) (42, 2.60564098358154296875e+01) (43, 1.13697528839111328125e+00) (44, 4.05215710401535034180e-01) (45, 1.38754501938819885254e-01) (46, -1.01921804249286651611e-01) (47, 7.09118247032165527344e-01) (48, 1.44037127494812011719e-01) (49, 2.83959984779357910156e-01) (50, 5.59482097625732421875e-01) (51, -5.77452927827835083008e-02) (52, 3.85238528251647949219e-01) (2, 5.81380009651184082031e-01) (3, 1.86620920896530151367e-01) (4, 5.52049279212951660156e-01) (5, 2.09129214286804199219e-01) (6, 1.02329015731811523438e+00) (7, 6.72860503196716308594e-01) (8, 1.59141927957534790039e-01) (9, 1.46569085121154785156e+00) (10, 1.16005428135395050049e-01) (11, 2.26936668157577514648e-01) (12, 1.32829919457435607910e-01) (13, 3.84547263383865356445e-01) (14, 3.20740878582000732422e-01) (15, 6.48478209972381591797e-01) (16, 2.77615308761596679688e-01) (17, 2.53102988004684448242e-01) (18, 3.75110536813735961914e-01) (19, 1.00055968761444091797e+00) (20, 1.88912987709045410156e-01) (21, 1.01317815482616424561e-01) (22, 1.56870985031127929688e+01) (23, 4.71803218126296997070e-01) (24, 7.61298716068267822266e-01) (25, 6.08651161193847656250e-01) (26, 7.27512955665588378906e-01) (27, 1.10002800822257995605e-01) (28, 6.27855420112609863281e-01) (29, 1.58448493480682373047e+00) (30, 2.53168642520904541016e-01) (31, 9.71384286880493164062e-01) (32, 2.50973999500274658203e-01) (33, 5.04028499126434326172e-01) (34, 1.74601152539253234863e-01) (35, 2.31726869940757751465e-01) (36, 9.18441116809844970703e-01) (37, 2.11169406771659851074e-01) (38, 1.30157053470611572266e-01) (39, 7.09406435489654541016e-01) (40, 1.51410400867462158203e-01) (41, 1.82492125034332275391e+00) (42, 2.71726536750793457031e+00) (43, 5.74206054210662841797e-01) (44, 5.11681199073791503906e-01) (45, 3.04280787706375122070e-01) (46, 2.46268153190612792969e-01) (47, 4.30487155914306640625e-01) (48, 8.60549330711364746094e-01) (49, 7.01773345470428466797e-01) (50, 1.03590202331542968750e+00) (51, -3.00895571708679199219e-02) (52, 1.84696495532989501953e-01) (2, 1.79289340972900390625e+00) (3, 2.18406751751899719238e-01) (4, 1.72913670539855957031e-01) (5, 2.60628193616867065430e-01) (6, -1.17833413183689117432e-01) (7, 1.26010239124298095703e+00) (8, 2.96458929777145385742e-01) (9, 2.14209333062171936035e-01) (10, 6.95614337921142578125e-01) (11, 6.48462772369384765625e-01) (12, 3.43500167131423950195e-01) (13, 4.50375318527221679688e-01) (14, 1.14018785953521728516e+00) (15, -5.39640545845031738281e-01) (16, -1.79719924926757812500e-01) (17, 7.04601645469665527344e-01) (18, 6.49939998984336853027e-02) (19, 7.87249624729156494141e-01) (20, 2.48200312256813049316e-01) (21, 7.57461786270141601562e-01) (22, -1.17580041885375976562e+01) (23, 3.44506442546844482422e-01) (24, 6.02619647979736328125e-01) (25, -7.18641206622123718262e-02) (26, 1.37715780735015869141e+00) (27, 5.81159889698028564453e-01) (28, 1.95146262645721435547e-01) (29, -9.14968204498291015625e+00) (30, 1.87437042593955993652e-01) (31, 8.63185673952102661133e-02) (32, 8.32683026790618896484e-01) (33, -8.50624069571495056152e-02) (34, 6.86678230762481689453e-01) (35, 1.25174477696418762207e-01) (36, 5.07954061031341552734e-01) (37, 2.81751692295074462891e-01) (38, 7.74912655353546142578e-01) (39, -9.75915145874023437500e+00) (40, 6.11456632614135742188e-01) (41, 3.97000968456268310547e-01) (42, -1.26413965225219726562e+01) (43, 1.96647942066192626953e-01) (44, 1.52478054165840148926e-01) (45, 4.86504167318344116211e-01) (46, 7.15295374393463134766e-01) (47, -1.27355322241783142090e-01) (48, 1.18911123275756835938e+00) (49, 6.55933916568756103516e-01) (50, 2.25243091583251953125e-01) (51, 3.61960440874099731445e-01) (52, 5.91183841228485107422e-01) (2, -2.94851660728454589844e-01) (3, 6.60410225391387939453e-01) (4, 1.17265856266021728516e+00) (5, 9.34438407421112060547e-03) (6, 8.50208342075347900391e-01) (7, 1.18246950209140777588e-01) (8, 2.11866348981857299805e-01) (9, 7.62669563293457031250e-01) (10, 1.24481987953186035156e+00) (11, 5.48303306102752685547e-01) (12, 5.61561644077301025391e-01) (13, -3.16883683204650878906e-01) (14, 1.81503936648368835449e-01) (15, 9.38784360885620117188e-01) (16, 1.55441141128540039062e+00) (17, -4.65579852461814880371e-02) (18, 5.03977000713348388672e-01) (19, 5.16179800033569335938e-01) (20, -1.19436733424663543701e-01) (21, 6.30285084247589111328e-01) (22, 3.78417549133300781250e+01) (23, 1.24234032630920410156e+00) (24, 4.28876638412475585938e-01) (25, 1.35857343673706054688e-01) (26, 7.27389007806777954102e-02) (27, -3.05518507957458496094e-02) (28, 3.14131438732147216797e-01) (29, 9.89980041980743408203e-01) (30, 6.68444857001304626465e-02) (31, 4.95251834392547607422e-01) (32, 6.12538695335388183594e-01) (33, 5.31964600086212158203e-01) (34, -4.58916723728179931641e-02) (35, -1.42011776566505432129e-01) (36, 1.11502683162689208984e+00) (37, 3.71908426284790039062e-01) (38, 9.86825108528137207031e-01) (39, 7.84030914306640625000e-01) (40, 1.13186681270599365234e+00) (41, -8.12640666961669921875e-01) (42, 2.14786911010742187500e+02) (43, 9.95557010173797607422e-01) (44, 1.06925284862518310547e+00) (45, -2.33788147568702697754e-01) (46, -3.28733883798122406006e-02) (47, 8.80812227725982666016e-01) (48, 4.18941587209701538086e-01) (49, 2.76307374238967895508e-01) (50, 8.96217167377471923828e-01) (51, -5.20659610629081726074e-02) (52, 4.08109545707702636719e-01) (2, 6.59123957157135009766e-01) (3, 5.28669059276580810547e-01) (4, 4.82632786035537719727e-01) (5, -2.90526926517486572266e-01) (6, 3.70264619588851928711e-01) (7, 1.31188344955444335938e+00) (8, 3.39198321104049682617e-01) (9, 3.22951078414916992188e-01) (10, 4.49993312358856201172e-01) (11, 1.16541481018066406250e+00) (12, 6.29012465476989746094e-01) (13, 1.80497616529464721680e-01) (14, 5.69835126399993896484e-01) (15, 1.01546250283718109131e-01) (16, 6.14926338195800781250e-01) (17, 3.10304015874862670898e-01) (18, 1.05564117431640625000e+00) (19, 1.06255188584327697754e-01) (20, -2.57626146078109741211e-01) (21, 1.16419827938079833984e+00) (22, 5.54174780845642089844e-01) (23, 9.47459936141967773438e-01) (24, 2.97817170619964599609e-01) (25, 3.52589786052703857422e-01) (26, 1.27746367454528808594e+00) (27, 3.61975967884063720703e-01) (28, -1.43285989761352539062e-01) (29, 4.11828666925430297852e-01) (30, 2.59860038757324218750e-01) (31, -5.62392026185989379883e-02) (32, 1.12024509906768798828e+00) (33, 2.54262536764144897461e-01) (34, 4.03817325830459594727e-01) (35, -1.86770200729370117188e-01) (36, 1.18223035335540771484e+00) (37, 2.93936818838119506836e-01) (38, 1.11555850505828857422e+00) (39, 5.26083037257194519043e-02) (40, 1.22669208049774169922e+00) (41, 5.22626563906669616699e-02) (42, 9.64574396610260009766e-01) (43, 6.76713049411773681641e-01) (44, 8.01333904266357421875e-01) (45, 2.68303994089365005493e-02) (46, 2.97792375087738037109e-01) (47, 1.04847691953182220459e-01) (48, 4.10508811473846435547e-01) (49, 3.49100887775421142578e-01) (50, 1.45948815345764160156e+00) (51, -2.15718582272529602051e-01) (52, 4.02556747198104858398e-01) (2, 8.12792718410491943359e-01) (3, -2.11148962378501892090e-01) (4, -1.92282408475875854492e-01) (5, 4.40848469734191894531e-02) (6, -2.58237409591674804688e+00) (7, 7.15028107166290283203e-01) (8, 1.06748700141906738281e+00) (9, 3.77157688140869140625e-01) (10, 1.03659212589263916016e+00) (11, 4.30200785398483276367e-01) (12, -1.07818506658077239990e-01) (13, 3.68277221918106079102e-01) (14, 2.69355034828186035156e+00) (15, -3.61896976828575134277e-02) (16, -1.77966311573982238770e-01) (17, 1.12743759155273437500e+00) (18, 5.84152400493621826172e-01) (19, 1.11075973510742187500e+00) (20, 4.86823529005050659180e-01) (21, 4.16812598705291748047e-01) (22, 3.05094003677368164062e-01) (23, 3.66881012916564941406e-01) (24, 1.08025109767913818359e+00) (25, -1.24860942363739013672e+00) (26, 8.02237808704376220703e-01) (27, 2.83375710248947143555e-01) (28, 4.45890486240386962891e-01) (29, 3.46720755100250244141e-01) (30, 3.07001858949661254883e-01) (31, -1.06579685211181640625e+00) (32, 3.68072539567947387695e-01) (33, -8.01223814487457275391e-02) (34, 1.19485008716583251953e+00) (35, 4.22127306461334228516e-01) (36, 4.19479697942733764648e-01) (37, -3.85236048698425292969e+00) (38, 4.68171328306198120117e-01) (39, -4.02835160493850708008e-01) (40, 3.30730289220809936523e-01) (41, 3.79206031560897827148e-01) (42, -4.81327295303344726562e+00) (43, -3.25628876686096191406e-01) (44, -9.66395735740661621094e-02) (45, 6.40566587448120117188e-01) (46, 3.97607654333114624023e-01) (47, 2.11940966546535491943e-02) (48, 6.42741858959197998047e-01) (49, 7.22907185554504394531e-01) (50, 3.90532940626144409180e-01) (51, 6.69581234455108642578e-01) (52, 4.86983388662338256836e-01) (2, 2.89062559604644775391e-01) (3, 4.14058864116668701172e-01) (4, 2.12479665875434875488e-01) (5, 9.66623067855834960938e-01) (6, -2.34343275427818298340e-01) (7, 8.25871407985687255859e-01) (8, 3.66428285837173461914e-01) (9, 1.32132798433303833008e-01) (10, 3.80857467651367187500e-01) (11, 1.45559057593345642090e-01) (12, 1.10406041145324707031e-01) (13, 3.16965013742446899414e-01) (14, 6.62883341312408447266e-01) (15, 3.21629554033279418945e-01) (16, 2.99619108438491821289e-01) (17, 3.44687670469284057617e-01) (18, 4.78227883577346801758e-01) (19, 1.05515503883361816406e+00) (20, 8.43310892581939697266e-01) (21, -1.90720498561859130859e-01) (22, -7.43283689022064208984e-01) (23, 1.81728407740592956543e-01) (24, 3.82632017135620117188e-01) (25, 1.68867573142051696777e-01) (26, 4.00558263063430786133e-01) (27, 3.21635663509368896484e-01) (28, 8.64664614200592041016e-01) (29, -2.77379125356674194336e-01) (30, 3.36846709251403808594e-01) (31, 5.84517955780029296875e-01) (32, 1.09115704894065856934e-01) (33, 2.26377442479133605957e-01) (34, 2.87810266017913818359e-01) (35, 2.87707269191741943359e-01) (36, 4.42564278841018676758e-01) (37, -1.78695487976074218750e+00) (38, 8.25719013810157775879e-02) (39, -3.54794599115848541260e-02) (40, -4.95331883430480957031e-02) (41, 8.94353389739990234375e-01) (42, -5.06949329376220703125e+00) (43, 1.67175918817520141602e-01) (44, -4.51630264520645141602e-01) (45, 1.59977960586547851562e+00) (46, 3.20126742124557495117e-01) (47, 5.94759643077850341797e-01) (48, 6.44720971584320068359e-01) (49, 2.49659657478332519531e-01) (50, -7.32577383518218994141e-01) (51, 3.84477823972702026367e-01) (52, 2.75085240602493286133e-01) (2, 2.87478208541870117188e-01) (3, 8.59290599822998046875e-01) (4, -2.28707820177078247070e-01) (5, 1.51138424873352050781e-01) (6, -1.98951768875122070312e+00) (7, 2.88632810115814208984e-01) (8, 2.64287322759628295898e-01) (9, 3.56178313493728637695e-01) (10, 2.44716688990592956543e-01) (11, 1.86539304256439208984e+00) (12, 1.77406799793243408203e+00) (13, 6.06228828430175781250e-01) (14, 1.26734423637390136719e+00) (15, 5.01697361469268798828e-01) (16, -3.15148949623107910156e-01) (17, 1.28610685467720031738e-01) (18, 6.52996003627777099609e-01) (19, 4.58570748567581176758e-01) (20, 3.30355241894721984863e-02) (21, 9.33755993843078613281e-01) (22, -1.62775266170501708984e+00) (23, 6.40851974487304687500e-01) (24, -7.53698647022247314453e-01) (25, -3.37167412042617797852e-01) (26, 3.43044072389602661133e-01) (27, 4.35185097157955169678e-02) (28, -7.31909334659576416016e-01) (29, -1.64284002780914306641e+00) (30, 5.54697334766387939453e-01) (31, -3.08521896600723266602e-01) (32, 1.84002327919006347656e+00) (33, -3.10160636901855468750e-01) (34, 1.90222740173339843750e-01) (35, 8.97454097867012023926e-02) (36, 3.72821301221847534180e-01) (37, 6.81534826755523681641e-01) (38, 1.96499609947204589844e+00) (39, 1.23421110212802886963e-01) (40, 8.15833628177642822266e-01) (41, 2.83011019229888916016e-01) (42, -8.27919692993164062500e+01) (43, 1.77942439913749694824e-01) (44, -1.24719776213169097900e-01) (45, 5.43566942214965820312e-01) (46, 1.21205531060695648193e-01) (47, 5.08823096752166748047e-01) (48, 8.52043211460113525391e-01) (49, 6.34016618132591247559e-02) (50, -2.68301486968994140625e-01) (51, 5.93361914157867431641e-01) (52, 4.62595522403717041016e-02) (2, 8.15244376659393310547e-01) (3, 4.16246742010116577148e-01) (4, 8.58988583087921142578e-01) (5, 2.24073827266693115234e-01) (6, 4.98633116483688354492e-01) (7, 1.63161289691925048828e+00) (8, 4.84185487031936645508e-01) (9, 1.05472838878631591797e+00) (10, 5.69038867950439453125e-01) (11, 8.81037294864654541016e-01) (12, 2.46708452701568603516e-01) (13, 2.19885274767875671387e-01) (14, 5.58100163936614990234e-01) (15, 2.49506399035453796387e-01) (16, 6.36656045913696289062e-01) (17, 6.58197402954101562500e-01) (18, 5.14065325260162353516e-01) (19, 1.55948653817176818848e-01) (20, 3.95717620849609375000e-02) (21, 7.31726706027984619141e-01) (22, 9.16716575622558593750e-01) (23, 5.01229345798492431641e-01) (24, 6.25141859054565429688e-01) (25, 1.46943211555480957031e-01) (26, 1.66131079196929931641e+00) (27, 5.07803857326507568359e-01) (28, 1.98653653264045715332e-01) (29, 8.50998103618621826172e-01) (30, 1.41140192747116088867e-01) (31, -1.91264990717172622681e-02) (32, 7.58491396903991699219e-01) (33, 4.21858698129653930664e-01) (34, 5.40513217449188232422e-01) (35, 2.07405969500541687012e-01) (36, 5.94564676284790039062e-01) (37, -1.35870417580008506775e-03) (38, 8.02156567573547363281e-01) (39, 3.29001843929290771484e-01) (40, 5.99818587303161621094e-01) (41, 3.04185181856155395508e-01) (42, 3.07306718826293945312e+00) (43, 1.55478194355964660645e-01) (44, 9.42604184150695800781e-01) (45, 2.40020975470542907715e-01) (46, 6.89566433429718017578e-01) (47, 2.48164027929306030273e-01) (48, 4.16452527046203613281e-01) (49, 5.50249516963958740234e-01) (50, 7.24915742874145507812e-01) (51, 6.02269589900970458984e-01) (52, 5.94842851161956787109e-01) (2, 8.48789453506469726562e-01) (3, 1.18639206886291503906e+00) (4, 1.20084434747695922852e-01) (5, 3.46219360828399658203e-01) (6, 5.61552122235298156738e-02) (7, 8.47067534923553466797e-01) (8, 3.36904585361480712891e-01) (9, 5.20987212657928466797e-01) (10, 2.91053563356399536133e-01) (11, 1.14537739753723144531e+00) (12, 1.05563652515411376953e+00) (13, 7.17581629753112792969e-01) (14, 7.36147344112396240234e-01) (15, 5.38168489933013916016e-01) (16, 5.04224956035614013672e-01) (17, 3.93237054347991943359e-01) (18, 6.39524996280670166016e-01) (19, -3.27116042375564575195e-01) (20, 3.08250039815902709961e-01) (21, 1.00779175758361816406e+00) (22, -5.80024719238281250000e+00) (23, 2.24467411637306213379e-01) (24, -2.00492456555366516113e-01) (25, 5.06896555423736572266e-01) (26, 9.81989800930023193359e-01) (27, 4.41948384046554565430e-01) (28, -1.81343868374824523926e-01) (29, -3.52611154317855834961e-01) (30, 6.44918620586395263672e-01) (31, 1.68955072760581970215e-01) (32, 1.10772061347961425781e+00) (33, 2.20721915364265441895e-01) (34, 2.57997661828994750977e-01) (35, 3.65695863962173461914e-01) (36, 3.98036152124404907227e-01) (37, 6.75479531288146972656e-01) (38, 1.14289665222167968750e+00) (39, -2.18954920768737792969e-01) (40, 1.11739385128021240234e+00) (41, -1.88989061862230300903e-02) (42, -4.86807644367218017578e-01) (43, 5.72221100330352783203e-01) (44, 2.52024143934249877930e-01) (45, 