FANN_FLO_2.1
num_layers=5
learning_rate=0.700000
connection_rate=1.000000
network_type=0
learning_momentum=0.000000
training_algorithm=2
train_error_function=0
train_stop_function=0
cascade_output_change_fraction=0.010000
quickprop_decay=-0.000100
quickprop_mu=1.750000
rprop_increase_factor=1.200000
rprop_decrease_factor=0.500000
rprop_delta_min=0.000000
rprop_delta_max=50.000000
rprop_delta_zero=0.100000
cascade_output_stagnation_epochs=12
cascade_candidate_change_fraction=0.010000
cascade_candidate_stagnation_epochs=12
cascade_max_out_epochs=150
cascade_min_out_epochs=50
cascade_max_cand_epochs=150
cascade_min_cand_epochs=50
cascade_num_candidate_groups=2
bit_fail_limit=3.49999994039535522461e-01
cascade_candidate_limit=1.00000000000000000000e+03
cascade_weight_multiplier=4.00000005960464477539e-01
cascade_activation_functions_count=10
cascade_activation_functions=3 5 7 8 10 11 14 15 16 17 
cascade_activation_steepnesses_count=4
cascade_activation_steepnesses=2.50000000000000000000e-01 5.00000000000000000000e-01 7.50000000000000000000e-01 1.00000000000000000000e+00 
layer_sizes=2 21 21 21 127 
scale_included=0
neurons (num_inputs, activation_function, activation_steepness)=(0, 0, 0.00000000000000000000e+00) (0, 0, 0.00000000000000000000e+00) (2, 5, 5.00000000000000000000e-01) (2, 5, 5.00000000000000000000e-01) (2, 5, 5.00000000000000000000e-01) (2, 5, 5.00000000000000000000e-01) (2, 5, 5.00000000000000000000e-01) (2, 5, 5.00000000000000000000e-01) (2, 5, 5.00000000000000000000e-01) (2, 5, 5.00000000000000000000e-01) (2, 5, 5.00000000000000000000e-01) (2, 5, 5.00000000000000000000e-01) (2, 5, 5.00000000000000000000e-01) (2, 5, 5.00000000000000000000e-01) (2, 5, 5.00000000000000000000e-01) (2, 5, 5.00000000000000000000e-01) (2, 5, 5.00000000000000000000e-01) (2, 5, 5.00000000000000000000e-01) (2, 5, 5.00000000000000000000e-01) (2, 5, 5.00000000000000000000e-01) (2, 5, 5.00000000000000000000e-01) (2, 5, 5.00000000000000000000e-01) (0, 5, 0.00000000000000000000e+00) (21, 5, 5.00000000000000000000e-01) (21, 5, 5.00000000000000000000e-01) (21, 5, 5.00000000000000000000e-01) (21, 5, 5.00000000000000000000e-01) (21, 5, 5.00000000000000000000e-01) (21, 5, 5.00000000000000000000e-01) (21, 5, 5.00000000000000000000e-01) (21, 5, 5.00000000000000000000e-01) (21, 5, 5.00000000000000000000e-01) (21, 5, 5.00000000000000000000e-01) (21, 5, 5.00000000000000000000e-01) (21, 5, 5.00000000000000000000e-01) (21, 5, 5.00000000000000000000e-01) (21, 5, 5.00000000000000000000e-01) (21, 5, 5.00000000000000000000e-01) (21, 5, 5.00000000000000000000e-01) (21, 5, 5.00000000000000000000e-01) (21, 5, 5.00000000000000000000e-01) (21, 5, 5.00000000000000000000e-01) (21, 5, 5.00000000000000000000e-01) (0, 5, 0.00000000000000000000e+00) (21, 5, 5.00000000000000000000e-01) (21, 5, 5.00000000000000000000e-01) (21, 5, 5.00000000000000000000e-01) (21, 5, 5.00000000000000000000e-01) (21, 5, 5.00000000000000000000e-01) (21, 5, 5.00000000000000000000e-01) (21, 5, 5.00000000000000000000e-01) (21, 5, 5.00000000000000000000e-01) (21, 5, 5.00000000000000000000e-01) (21, 5, 5.00000000000000000000e-01) (21, 5, 5.00000000000000000000e-01) (21, 5, 5.00000000000000000000e-01) (21, 5, 5.00000000000000000000e-01) (21, 5, 5.00000000000000000000e-01) (21, 5, 5.00000000000000000000e-01) (21, 5, 5.00000000000000000000e-01) (21, 5, 5.00000000000000000000e-01) (21, 5, 5.00000000000000000000e-01) (21, 5, 5.00000000000000000000e-01) (21, 5, 5.00000000000000000000e-01) (0, 5, 0.00000000000000000000e+00) (21, 0, 5.00000000000000000000e-01) (21, 0, 5.00000000000000000000e-01) (21, 0, 5.00000000000000000000e-01) (21, 0, 5.00000000000000000000e-01) (21, 0, 5.00000000000000000000e-01) (21, 0, 5.00000000000000000000e-01) (21, 0, 5.00000000000000000000e-01) (21, 0, 5.00000000000000000000e-01) (21, 0, 5.00000000000000000000e-01) (21, 0, 5.00000000000000000000e-01) (21, 0, 5.00000000000000000000e-01) (21, 0, 5.00000000000000000000e-01) (21, 0, 5.00000000000000000000e-01) (21, 0, 5.00000000000000000000e-01) (21, 0, 5.00000000000000000000e-01) (21, 0, 5.00000000000000000000e-01) (21, 0, 5.00000000000000000000e-01) (21, 0, 5.00000000000000000000e-01) (21, 0, 5.00000000000000000000e-01) (21, 0, 5.00000000000000000000e-01) (21, 0, 5.00000000000000000000e-01) (21, 0, 5.00000000000000000000e-01) (21, 0, 5.00000000000000000000e-01) (21, 0, 5.00000000000000000000e-01) (21, 0, 5.00000000000000000000e-01) (21, 0, 5.00000000000000000000e-01) (21, 0, 5.00000000000000000000e-01) (21, 0, 5.00000000000000000000e-01) (21, 0, 5.00000000000000000000e-01) (21, 0, 5.00000000000000000000e-01) (21, 0, 5.00000000000000000000e-01) (21, 0, 5.00000000000000000000e-01) (21, 0, 5.00000000000000000000e-01) (21, 0, 5.00000000000000000000e-01) (21, 0, 5.00000000000000000000e-01) (21, 0, 5.00000000000000000000e-01) (21, 0, 5.00000000000000000000e-01) (21, 0, 5.00000000000000000000e-01) (21, 0, 5.00000000000000000000e-01) (21, 0, 5.00000000000000000000e-01) (21, 0, 5.00000000000000000000e-01) (21, 0, 5.00000000000000000000e-01) (21, 0, 5.00000000000000000000e-01) (21, 0, 5.00000000000000000000e-01) (21, 0, 5.00000000000000000000e-01) (21, 0, 5.00000000000000000000e-01) (21, 0, 5.00000000000000000000e-01) (21, 0, 5.00000000000000000000e-01) (21, 0, 5.00000000000000000000e-01) (21, 0, 5.00000000000000000000e-01) (21, 0, 5.00000000000000000000e-01) (21, 0, 5.00000000000000000000e-01) (21, 0, 5.00000000000000000000e-01) (21, 0, 5.00000000000000000000e-01) (21, 0, 5.00000000000000000000e-01) (21, 0, 5.00000000000000000000e-01) (21, 0, 5.00000000000000000000e-01) (21, 0, 5.00000000000000000000e-01) (21, 0, 5.00000000000000000000e-01) (21, 0, 5.00000000000000000000e-01) (21, 0, 5.00000000000000000000e-01) (21, 0, 5.00000000000000000000e-01) (21, 0, 5.00000000000000000000e-01) (21, 0, 5.00000000000000000000e-01) (21, 0, 5.00000000000000000000e-01) (21, 0, 5.00000000000000000000e-01) (21, 0, 5.00000000000000000000e-01) (21, 0, 5.00000000000000000000e-01) (21, 0, 5.00000000000000000000e-01) (21, 0, 5.00000000000000000000e-01) (21, 0, 5.00000000000000000000e-01) (21, 0, 5.00000000000000000000e-01) (21, 0, 5.00000000000000000000e-01) (21, 0, 5.00000000000000000000e-01) (21, 0, 5.00000000000000000000e-01) (21, 0, 5.00000000000000000000e-01) (21, 0, 5.00000000000000000000e-01) (21, 0, 5.00000000000000000000e-01) (21, 0, 5.00000000000000000000e-01) (21, 0, 5.00000000000000000000e-01) (21, 0, 5.00000000000000000000e-01) (21, 0, 5.00000000000000000000e-01) (21, 0, 5.00000000000000000000e-01) (21, 0, 5.00000000000000000000e-01) (21, 0, 5.00000000000000000000e-01) (21, 0, 5.00000000000000000000e-01) (21, 0, 5.00000000000000000000e-01) (21, 0, 5.00000000000000000000e-01) (21, 0, 5.00000000000000000000e-01) (21, 0, 5.00000000000000000000e-01) (21, 0, 5.00000000000000000000e-01) (21, 0, 5.00000000000000000000e-01) (21, 0, 5.00000000000000000000e-01) (21, 0, 5.00000000000000000000e-01) (21, 0, 5.00000000000000000000e-01) (21, 0, 5.00000000000000000000e-01) (21, 0, 5.00000000000000000000e-01) (21, 0, 5.00000000000000000000e-01) (21, 0, 5.00000000000000000000e-01) (21, 0, 5.00000000000000000000e-01) (21, 0, 5.00000000000000000000e-01) (21, 0, 5.00000000000000000000e-01) (21, 0, 5.00000000000000000000e-01) (21, 0, 5.00000000000000000000e-01) (21, 0, 5.00000000000000000000e-01) (21, 0, 5.00000000000000000000e-01) (21, 0, 5.00000000000000000000e-01) (21, 0, 5.00000000000000000000e-01) (21, 0, 5.00000000000000000000e-01) (21, 0, 5.00000000000000000000e-01) (21, 0, 5.00000000000000000000e-01) (21, 0, 5.00000000000000000000e-01) (21, 0, 5.00000000000000000000e-01) (21, 0, 5.00000000000000000000e-01) (21, 0, 5.00000000000000000000e-01) (21, 0, 5.00000000000000000000e-01) (21, 0, 5.00000000000000000000e-01) (21, 0, 5.00000000000000000000e-01) (21, 0, 5.00000000000000000000e-01) (21, 0, 5.00000000000000000000e-01) (21, 0, 5.00000000000000000000e-01) (21, 0, 5.00000000000000000000e-01) (21, 0, 5.00000000000000000000e-01) (21, 0, 5.00000000000000000000e-01) (21, 0, 5.00000000000000000000e-01) (21, 0, 5.00000000000000000000e-01) (0, 0, 0.00000000000000000000e+00) 
connections (connected_to_neuron, weight)=(0, 1.50567662715911865234e+00) (1, -5.06240463256835937500e+00) (0, 8.23894739151000976562e-01) (1, -3.38609266281127929688e+00) (0, 1.80610358715057373047e+00) (1, -3.86102080345153808594e-01) (0, 7.15496599674224853516e-01) (1, -4.92631256580352783203e-01) (0, 1.48735702037811279297e-01) (1, 4.99950294494628906250e+01) (0, -1.05418250313960015774e-04) (1, 3.71243238449096679688e+00) (0, 1.49999975585937500000e+03) (1, 4.81872844696044921875e+00) (0, -2.41706237196922302246e-01) (1, -1.22130715847015380859e+00) (0, 1.82329654693603515625e+00) (1, -8.06731343269348144531e-01) (0, 1.86401772499084472656e+00) (1, -6.89379751682281494141e-01) (0, 6.35274529457092285156e-01) (1, -1.15082006454467773438e+01) (0, 2.04846709966659545898e-01) (1, 1.91764485836029052734e+00) (0, -2.36757874488830566406e-01) (1, 2.13823490142822265625e+01) (0, 1.05521105229854583740e-01) (1, 3.93943095207214355469e+00) (0, 1.34608820080757141113e-01) (1, 4.17720508575439453125e+00) (0, 2.11612790822982788086e-01) (1, 1.85406410694122314453e+00) (0, 1.44705981016159057617e-01) (1, 4.19302082061767578125e+00) (0, -8.83261323906481266022e-04) (1, 4.20943230390548706055e-01) (0, -7.24984201951883733273e-05) (1, 4.75937986373901367188e+00) (0, 1.80717933177947998047e+00) (1, -7.29927778244018554688e-01) (2, 3.67108643054962158203e-01) (3, 2.30706930160522460938e-01) (4, 5.13259023427963256836e-02) (5, 2.64836937189102172852e-01) (6, 4.19060885906219482422e-02) (7, 1.35093018412590026855e-01) (8, -5.81833422183990478516e-01) (9, 8.14180612564086914062e-01) (10, 3.56358848512172698975e-02) (11, 1.53338357806205749512e-01) (12, 7.18647420406341552734e-01) (13, -3.55255119502544403076e-02) (14, -2.56926536560058593750e-01) (15, -5.43480038642883300781e-01) (16, -1.24121344089508056641e+00) (17, -4.32827174663543701172e-02) (18, -1.28000795841217041016e+00) (19, 3.93841773271560668945e-01) (20, -5.70139288902282714844e-01) (21, 1.56901910901069641113e-01) (22, -7.12897554039955139160e-02) (2, 1.78416860103607177734e+00) (3, 1.78942847251892089844e+00) (4, 7.60906457901000976562e-01) (5, 1.92261362075805664062e+00) (6, -3.86137574911117553711e-01) (7, -1.04458236694335937500e+00) (8, -1.35415699332952499390e-02) (9, -4.10907529294490814209e-03) (10, 7.98833847045898437500e-01) (11, 6.18739962577819824219e-01) (12, 5.37149488925933837891e-01) (13, -1.34124875068664550781e+00) (14, 3.36862295866012573242e-01) (15, -6.96623623371124267578e-02) (16, -1.14427708089351654053e-01) (17, -1.36080574989318847656e+00) (18, -4.17734012007713317871e-02) (19, -1.05228340253233909607e-02) (20, -1.53154563903808593750e+00) (21, 7.02241539955139160156e-01) (22, -1.26398277282714843750e+00) (2, 1.95644807815551757812e+00) (3, 1.99278545379638671875e+00) (4, 7.23109185695648193359e-01) (5, 1.91630303859710693359e+00) (6, -4.37490105628967285156e-01) (7, -8.74513149261474609375e-01) (8, -7.49432623386383056641e-01) (9, 4.71207350492477416992e-02) (10, 7.17005908489227294922e-01) (11, 7.00653731822967529297e-01) (12, 3.15114736557006835938e-01) (13, -1.19703090190887451172e+00) (14, -3.75880710780620574951e-02) (15, -1.75780966877937316895e-01) (16, -1.00856967270374298096e-01) (17, -1.19670689105987548828e+00) (18, -4.97033670544624328613e-02) (19, -8.49637091159820556641e-01) (20, 7.14505240321159362793e-02) (21, 7.89681851863861083984e-01) (22, -1.28574335575103759766e+00) (2, -1.08524896204471588135e-01) (3, 1.50122344493865966797e-01) (4, -2.48970746994018554688e-01) (5, 1.63745984435081481934e-01) (6, 1.00734925270080566406e+00) (7, 1.63274931907653808594e+00) (8, -3.83389919996261596680e-01) (9, 1.10094691626727581024e-03) (10, -1.79017066955566406250e-01) (11, -1.66617229580879211426e-01) (12, 7.16722130775451660156e-01) (13, 1.72859287261962890625e+00) (14, 3.69307368993759155273e-01) (15, 8.17375004291534423828e-01) (16, 8.64783287048339843750e-01) (17, 1.66058039665222167969e+00) (18, 8.31502497196197509766e-01) (19, 5.28762221336364746094e-01) (20, 8.75185549259185791016e-01) (21, -2.17683270573616027832e-01) (22, 2.16964626312255859375e+00) (2, 1.53977215290069580078e-01) (3, 3.05753737688064575195e-01) (4, 1.08080290257930755615e-01) (5, 1.31507933139801025391e-01) (6, 4.07042093575000762939e-02) (7, 3.95155668258666992188e-01) (8, -1.51520758867263793945e-01) (9, 7.50124037265777587891e-01) (10, 1.09087735414505004883e-01) (11, 1.37504056096076965332e-01) (12, 2.45441809296607971191e-01) (13, 1.66594430804252624512e-01) (14, -3.05343121290206909180e-01) (15, -6.15190327167510986328e-01) (16, -6.30512416362762451172e-01) (17, 1.82013720273971557617e-01) (18, -6.46810710430145263672e-01) (19, 2.07418069243431091309e-01) (20, -2.12270557880401611328e-01) (21, 8.23865607380867004395e-02) (22, -8.22008997201919555664e-02) (2, 5.87939262390136718750e-01) (3, 5.18983900547027587891e-01) (4, 6.65042638778686523438e-01) (5, 8.18876266479492187500e-01) (6, -1.51223197579383850098e-01) (7, -4.03904616832733154297e-01) (8, 1.40660956501960754395e-01) (9, 5.25243639945983886719e-01) (10, 6.69276952743530273438e-01) (11, 7.48582839965820312500e-01) (12, -4.70500499010086059570e-01) (13, -3.74321818351745605469e-01) (14, 1.13351929187774658203e+00) (15, 2.39893138408660888672e-01) (16, 1.65885344147682189941e-01) (17, -3.94563555717468261719e-01) (18, 2.74221420288085937500e-01) (19, -1.78255593776702880859e+00) (20, -7.39651381969451904297e-01) (21, 6.73067331314086914062e-01) (22, -9.24650549888610839844e-01) (2, 3.60659539699554443359e-01) (3, 4.19457584619522094727e-01) (4, 4.55388993024826049805e-01) (5, 5.34311175346374511719e-01) (6, -1.02477002143859863281e+00) (7, -1.84664833545684814453e+00) (8, -2.50299048423767089844e+00) (9, 4.47556644678115844727e-01) (10, 4.57356244325637817383e-01) (11, 4.35295045375823974609e-01) (12, -1.07032966613769531250e+00) (13, 4.96521472930908203125e-01) (14, 2.74279880523681640625e+00) (15, 1.55799365043640136719e+00) (16, 1.56717467308044433594e+00) (17, 5.03831446170806884766e-01) (18, 1.44942021369934082031e+00) (19, 2.49922037124633789062e-01) (20, 2.81097143888473510742e-01) (21, 4.72561597824096679688e-01) (22, 5.77517092227935791016e-01) (2, 2.98699766397476196289e-01) (3, 2.04171091318130493164e-01) (4, 2.84345466643571853638e-02) (5, 3.39688330888748168945e-01) (6, 6.80672377347946166992e-02) (7, 3.22801470756530761719e-01) (8, -3.59901756048202514648e-01) (9, 7.62521147727966308594e-01) (10, 1.30601450800895690918e-01) (11, 8.26809555292129516602e-02) (12, 2.35404267907142639160e-01) (13, -7.08418488502502441406e-02) (14, -2.96202242374420166016e-01) (15, -6.00824356079101562500e-01) (16, -7.11732327938079833984e-01) (17, -3.60317081212997436523e-02) (18, -5.90528905391693115234e-01) (19, 1.52157112956047058105e-01) (20, -6.20339155197143554688e-01) (21, 1.35057255625724792480e-01) (22, -1.65213853120803833008e-01) (2, 1.83600890636444091797e+00) (3, 1.48670744895935058594e+00) (4, 6.98833644390106201172e-01) (5, 1.45007169246673583984e+00) (6, -5.76062761247158050537e-02) (7, -1.04467272758483886719e+00) (8, -2.49993875622749328613e-01) (9, 2.87600588053464889526e-02) (10, 6.83006346225738525391e-01) (11, 6.38854444026947021484e-01) (12, 5.60307919979095458984e-01) (13, -1.26635003089904785156e+00) (14, 3.74417126178741455078e-01) (15, -8.08050110936164855957e-02) (16, -6.02996721863746643066e-02) (17, -1.35731935501098632812e+00) (18, -1.84291958808898925781e-01) (19, -5.70761501789093017578e-01) (20, -1.43730580806732177734e+00) (21, 7.02790677547454833984e-01) (22, -1.33936917781829833984e+00) (2, -4.29696775972843170166e-02) (3, 7.30664283037185668945e-02) (4, -1.72844097018241882324e-01) (5, -3.66239994764328002930e-02) (6, 7.89468526840209960938e-01) (7, 1.71742057800292968750e+00) (8, -5.25309324264526367188e-01) (9, 3.13158147037029266357e-02) (10, -1.45375609397888183594e-01) (11, -1.62598729133605957031e-01) (12, 7.99052834510803222656e-01) (13, 1.97059237957000732422e+00) (14, 5.08524596691131591797e-01) (15, 8.88185977935791015625e-01) (16, 8.63157868385314941406e-01) (17, 1.93294429779052734375e+00) (18, 8.89259994029998779297e-01) (19, 5.86305797100067138672e-01) (20, 8.05714130401611328125e-01) (21, -2.10198655724525451660e-01) (22, 1.97954583168029785156e+00) (2, 3.02511811256408691406e-01) (3, -1.99877634644508361816e-01) (4, 6.72094643115997314453e-01) (5, 3.03629398345947265625e-01) (6, -1.75181293487548828125e+00) (7, 1.17211046218872070312e+01) (8, -1.17551237344741821289e-01) (9, -2.20642223954200744629e-01) (10, 6.59263551235198974609e-01) (11, 6.96904599666595458984e-01) (12, -2.86680555343627929688e+00) (13, 8.14010858535766601562e-01) (14, 5.27994251251220703125e+00) (15, 5.60479164123535156250e+00) (16, 5.73355817794799804688e+00) (17, 4.67524975538253784180e-01) (18, 5.65137100219726562500e+00) (19, 6.46905541419982910156e-01) (20, 2.13923001289367675781e+00) (21, 6.82068645954132080078e-01) (22, 2.20150065422058105469e+00) (2, -5.21264255046844482422e-01) (3, 1.11103057861328125000e-01) (4, 4.50851142406463623047e-01) (5, 1.65733769536018371582e-01) (6, -3.40674459934234619141e-01) (7, 4.67510670423507690430e-01) (8, 2.85497212409973144531e+00) (9, 2.32194614410400390625e+00) (10, 3.20978254079818725586e-01) (11, 3.98300617933273315430e-01) (12, 2.48947978019714355469e-01) (13, 4.32134479284286499023e-01) (14, 2.47660350799560546875e+00) (15, 1.66989994049072265625e+00) (16, 1.50275826454162597656e+00) (17, 4.69510108232498168945e-01) (18, 1.55088448524475097656e+00) (19, 1.63656890392303466797e+00) (20, 6.54772877693176269531e-01) (21, 2.28283688426017761230e-01) (22, 5.27749359607696533203e-01) (2, 1.30332362651824951172e+00) (3, 1.93007075786590576172e+00) (4, 9.52881455421447753906e-01) (5, 1.97599053382873535156e+00) (6, 2.81183391809463500977e-01) (7, -9.64014530181884765625e-01) (8, -1.92510843276977539062e-01) (9, 3.18543195724487304688e-01) (10, 8.20330858230590820312e-01) (11, 8.67893218994140625000e-01) (12, -7.24761337041854858398e-02) (13, -1.32090461254119873047e+00) (14, 2.53918915987014770508e-01) (15, -1.55488193035125732422e-01) (16, -9.00597274303436279297e-02) (17, -1.31914818286895751953e+00) (18, -1.88675761222839355469e-01) (19, -3.34728866815567016602e-01) (20, -7.31306910514831542969e-01) (21, 9.02694702148437500000e-01) (22, -1.31309616565704345703e+00) (2, 6.30505904555320739746e-02) (3, 1.27790614962577819824e-01) (4, -2.60932713747024536133e-01) (5, 5.11511899530887603760e-02) (6, 9.68181610107421875000e-01) (7, 1.52859592437744140625e+00) (8, -4.23450738191604614258e-01) (9, -1.09486840665340423584e-02) (10, -1.58924162387847900391e-01) (11, -1.73261255025863647461e-01) (12, 6.99300408363342285156e-01) (13, 1.83222472667694091797e+00) (14, 4.21277880668640136719e-01) (15, 7.75659501552581787109e-01) (16, 7.47998952865600585938e-01) (17, 1.83341813087463378906e+00) (18, 8.74385654926300048828e-01) (19, 4.88211423158645629883e-01) (20, 7.80336260795593261719e-01) (21, -1.76840513944625854492e-01) (22, 2.19945859909057617188e+00) (2, -2.67312526702880859375e-01) (3, 2.90182586759328842163e-02) (4, -3.88926714658737182617e-01) (5, 1.93477643188089132309e-03) (6, 1.08431529998779296875e+00) (7, 7.80946195125579833984e-01) (8, 9.01511430740356445312e-01) (9, 7.36819624900817871094e-01) (10, -4.44118797779083251953e-01) (11, -5.03844380378723144531e-01) (12, 5.20451068878173828125e-01) (13, 1.29744529724121093750e+00) (14, 5.13857901096343994141e-01) (15, 4.46857482194900512695e-01) (16, 4.75875258445739746094e-01) (17, 1.29524600505828857422e+00) (18, 4.04154241085052490234e-01) (19, 6.08024597167968750000e-01) (20, -7.06189274787902832031e-01) (21, -3.30674529075622558594e-01) (22, 1.49821114540100097656e+00) (2, 4.67939257621765136719e-01) (3, 1.55008757114410400391e+00) (4, 2.37284258008003234863e-01) (5, 1.47997081279754638672e+00) (6, 3.01119834184646606445e-01) (7, -3.40383350849151611328e-01) (8, 1.40584778785705566406e+00) (9, 5.71572661399841308594e-01) (10, 3.11601579189300537109e-01) (11, 3.76928329467773437500e-01) (12, 1.79133367538452148438e+00) (13, 3.84413272142410278320e-01) (14, 3.70104283094406127930e-01) (15, 3.68587464094161987305e-01) (16, -4.63645011186599731445e-01) (17, 3.48390638828277587891e-01) (18, -4.58611279726028442383e-01) (19, 1.09403479099273681641e+00) (20, 1.45762598514556884766e+00) (21, 3.06204736232757568359e-01) (22, -3.81581872701644897461e-01) (2, -9.73320528864860534668e-02) (3, 2.47372373938560485840e-01) (4, -1.39066129922866821289e-01) (5, 2.58143424987792968750e-01) (6, 1.00686764717102050781e+00) (7, 1.58687508106231689453e+00) (8, -4.81449842453002929688e-01) (9, 6.16746172308921813965e-02) (10, -4.54489365220069885254e-02) (11, -8.15276652574539184570e-02) (12, 8.34698200225830078125e-01) (13, 1.74400734901428222656e+00) (14, 5.02984702587127685547e-01) (15, 8.57580184936523437500e-01) (16, 8.21203231811523437500e-01) (17, 1.85855889320373535156e+00) (18, 7.61470794677734375000e-01) (19, 6.81226134300231933594e-01) (20, 8.14143836498260498047e-01) (21, -2.27487787604331970215e-01) (22, 2.23155522346496582031e+00) (2, 2.02012747526168823242e-01) (3, 2.36978933215141296387e-01) (4, 1.11060313880443572998e-01) (5, 2.92778164148330688477e-01) (6, 1.02660588920116424561e-01) (7, 3.65481913089752197266e-01) (8, -1.85456648468971252441e-01) (9, 7.42936968803405761719e-01) (10, 1.64703354239463806152e-01) (11, 1.95418089628219604492e-01) (12, 2.35646381974220275879e-01) (13, 1.05200447142124176025e-01) (14, -2.81052708625793457031e-01) (15, -7.23444998264312744141e-01) (16, -7.19166696071624755859e-01) (17, 1.12957872450351715088e-01) (18, -6.69501483440399169922e-01) (19, 1.09557300806045532227e-01) (20, -1.83515116572380065918e-01) (21, 6.96311369538307189941e-02) (22, 5.22957043722271919250e-03) (2, 2.58932948112487792969e-01) (3, 1.42201885581016540527e-01) (4, 1.64942368865013122559e-01) (5, 3.33246171474456787109e-01) (6, 1.63350433111190795898e-01) (7, 3.28616678714752197266e-01) (8, 8.59377831220626831055e-02) (9, 7.40173041820526123047e-01) (10, 5.45141175389289855957e-02) (11, 1.19681790471076965332e-01) (12, 3.94349992275238037109e-01) (13, 1.82532787322998046875e-01) (14, -2.57091403007507324219e-01) (15, -5.68313062191009521484e-01) (16, -7.07700908184051513672e-01) (17, 1.59697145223617553711e-01) (18, -5.59433996677398681641e-01) (19, 3.94928455352783203125e-01) (20, -1.82657346129417419434e-01) (21, 1.85977205634117126465e-01) (22, -4.01811636984348297119e-02) (2, 1.17671394348144531250e+00) (3, 1.97980725765228271484e+00) (4, 7.29192435741424560547e-01) (5, 1.87220072746276855469e+00) (6, -1.58483721315860748291e-02) (7, -1.09217655658721923828e+00) (8, -8.76013338565826416016e-01) (9, 2.39177510142326354980e-01) (10, 6.39329135417938232422e-01) (11, 6.48479282855987548828e-01) (12, 1.38906955718994140625e-01) (13, -1.31558132171630859375e+00) (14, -4.00005012750625610352e-01) (15, -1.02293528616428375244e-01) (16, -2.02428758144378662109e-01) (17, -1.33624434471130371094e+00) (18, -1.26082405447959899902e-01) (19, -4.07627493143081665039e-01) (20, -9.48769330978393554688e-01) (21, 5.71645677089691162109e-01) (22, -1.31730806827545166016e+00) (23, 1.78817272186279296875e+00) (24, 1.29019570350646972656e+00) (25, 1.35120737552642822266e+00) (26, -1.66358113288879394531e+00) (27, 1.76175725460052490234e+00) (28, 5.61084210872650146484e-01) (29, 2.52623055130243301392e-02) (30, 1.70184099674224853516e+00) (31, 1.44982552528381347656e+00) (32, -1.49691402912139892578e+00) (33, 1.16259224712848663330e-01) (34, 5.57672023773193359375e-01) (35, 1.50034117698669433594e+00) (36, -1.60324263572692871094e+00) (37, -2.27305620908737182617e-01) (38, 3.00883555412292480469e+00) (39, -1.50468289852142333984e+00) (40, 1.67075228691101074219e+00) (41, 1.86233770847320556641e+00) (42, 1.38831293582916259766e+00) (43, -3.08364957571029663086e-01) (23, 1.77578389644622802734e+00) (24, 1.29527556896209716797e+00) (25, 1.44204831123352050781e+00) (26, -8.68215918540954589844e-01) (27, 1.74427533149719238281e+00) (28, 5.79878926277160644531e-01) (29, -1.95802114903926849365e-02) (30, 1.60686802864074707031e+00) (31, 1.26859092712402343750e+00) (32, -1.02848613262176513672e+00) (33, 7.56208300590515136719e-02) (34, 6.39965891838073730469e-01) (35, 1.30201256275177001953e+00) (36, -8.52555811405181884766e-01) (37, -1.55759647488594055176e-01) (38, 2.96883726119995117188e+00) (39, -7.90449559688568115234e-01) (40, 1.67288029193878173828e+00) (41, 1.60325455665588378906e+00) (42, 1.39317059516906738281e+00) (43, -4.30911272764205932617e-01) (23, 4.30178761482238769531e-01) (24, 4.58471998572349548340e-02) (25, -4.40324544906616210938e-02) (26, 1.72153130173683166504e-01) (27, 5.36590039730072021484e-01) (28, 1.59206330776214599609e-01) (29, 6.01929388940334320068e-02) (30, 4.63248580694198608398e-01) (31, 7.90554285049438476562e-02) (32, 2.76248842477798461914e-01) (33, 1.66703373193740844727e-01) (34, 4.36320424079895019531e-01) (35, -7.10451304912567138672e-02) (36, 1.88358679413795471191e-01) (37, 3.29550988972187042236e-02) (38, -3.06568950414657592773e-01) (39, 2.91610568761825561523e-01) (40, 5.69689869880676269531e-01) (41, 3.88997703790664672852e-01) (42, 1.36249631643295288086e-01) (43, 2.94463396072387695312e-01) (23, 5.61627864837646484375e-01) (24, 3.02984952926635742188e-01) (25, 1.78088009357452392578e-01) (26, 1.49175435304641723633e-01) (27, 5.55434525012969970703e-01) (28, 4.76193368434906005859e-01) (29, 1.01616151630878448486e-01) (30, 5.94134032726287841797e-01) (31, 3.88238698244094848633e-01) (32, 2.11058095097541809082e-01) (33, 4.72179204225540161133e-02) (34, 3.59910160303115844727e-01) (35, 1.75199106335639953613e-01) (36, 1.52106001973152160645e-01) (37, -1.83868080377578735352e-01) (38, -1.08433105051517486572e-01) (39, 5.39591610431671142578e-02) (40, 6.54686272144317626953e-01) (41, 5.98201632499694824219e-01) (42, 3.36619287729263305664e-01) (43, 1.78900644183158874512e-01) (23, 6.40780925750732421875e-01) (24, 1.54607951641082763672e-01) (25, 2.94218361377716064453e-01) (26, 1.44714504480361938477e-01) (27, 5.25969922542572021484e-01) (28, 5.42025804519653320312e-01) (29, -1.30274489521980285645e-01) (30, 6.18153810501098632812e-01) (31, 1.48849919438362121582e-01) (32, 7.18353316187858581543e-02) (33, 8.44991579651832580566e-02) (34, 6.68608844280242919922e-01) (35, 3.13591986894607543945e-01) (36, 6.65744468569755554199e-02) (37, -2.11056008934974670410e-01) (38, -1.77931994199752807617e-01) (39, 2.02606096863746643066e-01) (40, 5.86496055126190185547e-01) (41, 7.01160252094268798828e-01) (42, 1.41604632139205932617e-01) (43, 2.01190948486328125000e-01) (23, 1.12474107742309570312e+00) (24, -8.16204428672790527344e-01) (25, -5.91047108173370361328e-01) (26, 3.53845596313476562500e-01) (27, 1.00853765010833740234e+00) (28, 7.40316286683082580566e-02) (29, 2.39420384168624877930e-01) (30, 1.03873300552368164062e+00) (31, -2.39575886726379394531e+00) (32, 4.18552428483963012695e-01) (33, 3.42063575983047485352e-01) (34, 1.67534804344177246094e+00) (35, -6.73298358917236328125e-01) (36, 2.74698823690414428711e-01) (37, 7.57790565490722656250e-01) (38, 4.25685465335845947266e-01) (39, 2.93570786714553833008e-01) (40, 1.11686348915100097656e+00) (41, -1.20709228515625000000e+00) (42, -6.54878616333007812500e+00) (43, 2.38511487841606140137e-01) (23, -9.80419576168060302734e-01) (24, -1.97200500965118408203e+00) (25, -1.08574509620666503906e+00) (26, 2.05882620811462402344e+00) (27, -1.11310374736785888672e+00) (28, 2.32693359255790710449e-01) (29, 4.20013046264648437500e+00) (30, -1.06298220157623291016e+00) (31, -2.24146080017089843750e+00) (32, 2.27310419082641601562e+00) (33, 1.38551223278045654297e+00) (34, 5.44739663600921630859e-01) (35, -9.54141080379486083984e-01) (36, 2.07744526863098144531e+00) (37, 1.23097264766693115234e+00) (38, -4.03241348266601562500e+00) (39, 2.12622737884521484375e+00) (40, -1.16292953491210937500e+00) (41, -2.27809524536132812500e+00) (42, -8.62598717212677001953e-01) (43, 2.41960859298706054688e+00) (23, 5.26297211647033691406e-01) (24, 2.78168559074401855469e-01) (25, 4.97629009187221527100e-02) (26, 1.33962228894233703613e-01) (27, 6.81813418865203857422e-01) (28, 6.53147935867309570312e-01) (29, 1.83177262544631958008e-01) (30, 6.04308068752288818359e-01) (31, 2.59691208600997924805e-01) (32, 2.32977077364921569824e-01) (33, 3.04682832211256027222e-02) (34, 4.95709985494613647461e-01) (35, 2.23933234810829162598e-01) (36, 2.20191836357116699219e-01) (37, -1.52046248316764831543e-01) (38, -1.49508472532033920288e-02) (39, 2.14571803808212280273e-01) (40, 6.13356292247772216797e-01) (41, 4.53081518411636352539e-01) (42, 2.86900460720062255859e-01) (43, 2.01730504631996154785e-01) (23, 9.04740095138549804688e-01) (24, 1.50050267577171325684e-01) (25, -3.05643856525421142578e-01) (26, 4.26798552274703979492e-01) (27, 6.12610876560211181641e-01) (28, -8.41288983821868896484e-01) (29, 5.22087931632995605469e-01) (30, 8.76419544219970703125e-01) (31, 5.83775825798511505127e-02) (32, 4.34499621391296386719e-01) (33, 3.67526948451995849609e-01) (34, 2.85777635872364044189e-02) (35, -4.23212766647338867188e-01) (36, 4.79666233062744140625e-01) (37, 8.63520622253417968750e-01) (38, 4.99294340610504150391e-01) (39, 4.56376016139984130859e-01) (40, 5.74243724346160888672e-01) (41, 8.92233967781066894531e-01) (42, -2.10958614945411682129e-01) (43, 4.02184486389160156250e-01) (23, 7.38238096237182617188e-01) (24, 1.18913091719150543213e-01) (25, -3.98983061313629150391e-02) (26, 7.07040369510650634766e-01) (27, 5.46895921230316162109e-01) (28, -9.76824462413787841797e-01) (29, 4.38332110643386840820e-01) (30, 7.77721822261810302734e-01) (31, 7.89828002452850341797e-01) (32, 7.69995570182800292969e-01) (33, 5.61990439891815185547e-01) (34, 1.93876594305038452148e-01) (35, -2.48015359044075012207e-01) (36, 6.72058820724487304688e-01) (37, 1.15162038803100585938e+00) (38, 5.57711839675903320312e-01) (39, 5.66730082035064697266e-01) (40, 5.58959066867828369141e-01) (41, 6.39504730701446533203e-01) (42, -3.42228002846240997314e-02) (43, 5.96745610237121582031e-01) (23, 3.54268044233322143555e-01) (24, 7.70126953721046447754e-02) (25, 1.49931356310844421387e-01) (26, 4.96646821498870849609e-01) (27, 2.89164185523986816406e-01) (28, -7.22381889820098876953e-01) (29, 4.53096359968185424805e-01) (30, 3.95001024007797241211e-01) (31, -9.98415797948837280273e-02) (32, 5.53001403808593750000e-01) (33, 7.52321958541870117188e-01) (34, -2.68762290477752685547e-01) (35, -2.54227966070175170898e-01) (36, 5.65916597843170166016e-01) (37, 6.81152582168579101562e-01) (38, 4.72877085208892822266e-01) (39, 4.45144951343536376953e-01) (40, 4.24609899520874023438e-01) (41, 4.19744223356246948242e-01) (42, -4.35397952795028686523e-01) (43, 3.97649914026260375977e-01) (23, 1.54282093048095703125e+00) (24, 1.26482999324798583984e+00) (25, 1.37207019329071044922e+00) (26, -8.22136521339416503906e-01) (27, 1.84413695335388183594e+00) (28, 6.36106133460998535156e-01) (29, -1.82478234171867370605e-01) (30, 1.73400151729583740234e+00) (31, 1.25179791450500488281e+00) (32, -1.04794573783874511719e+00) (33, -9.25926677882671356201e-03) (34, 5.32998859882354736328e-01) (35, 1.25239861011505126953e+00) (36, -8.94534170627593994141e-01) (37, -1.18081636726856231689e-01) (38, 2.95581769943237304688e+00) (39, -7.46111392974853515625e-01) (40, 1.90347242355346679688e+00) (41, 1.61922717094421386719e+00) (42, 1.43342876434326171875e+00) (43, -2.98123002052307128906e-01) (23, 3.02402257919311523438e-01) (24, 9.41997110843658447266e-01) (25, 1.31233707070350646973e-01) (26, 5.45868635177612304688e-01) (27, 2.21042439341545104980e-01) (28, 1.27231463789939880371e-01) (29, 9.21810328960418701172e-01) (30, 3.30899983644485473633e-01) (31, 5.08408725261688232422e-01) (32, 5.23281037807464599609e-01) (33, 4.18354988098144531250e-01) (34, 1.53565183281898498535e-01) (35, 3.95891629159450531006e-02) (36, 3.63063395023345947266e-01) (37, 3.48275929689407348633e-01) (38, -9.10679548978805541992e-02) (39, 3.84922415018081665039e-01) (40, 2.27843746542930603027e-01) (41, 2.75336503982543945312e-01) (42, 5.26523470878601074219e-01) (43, 4.53000903129577636719e-01) (23, 6.34091675281524658203e-01) (24, 2.45169699192047119141e-01) (25, 1.57826796174049377441e-01) (26, 1.99184700846672058105e-01) (27, 5.00206351280212402344e-01) (28, 7.27969706058502197266e-01) (29, 2.27196693420410156250e-01) (30, 5.48386752605438232422e-01) (31, 2.72854030132293701172e-01) (32, 1.46859958767890930176e-01) (33, 8.56623128056526184082e-02) (34, 5.67490041255950927734e-01) (35, 1.98074728250503540039e-01) (36, 1.48980617523193359375e-01) (37, -1.56091541051864624023e-01) (38, -3.83602343499660491943e-02) (39, 9.68404486775398254395e-02) (40, 5.78222692012786865234e-01) (41, 5.84354281425476074219e-01) (42, 3.84557723999023437500e-01) (43, 2.87080973386764526367e-01) (23, -1.03033363819122314453e+00) (24, -8.35951387882232666016e-01) (25, -1.09602749347686767578e+00) (26, 1.93289184570312500000e+00) (27, -1.03351676464080810547e+00) (28, 8.60091298818588256836e-02) (29, 4.36499547958374023438e+00) (30, -9.82388675212860107422e-01) (31, -2.19504690170288085938e+00) (32, 2.25719237327575683594e+00) (33, 1.31511878967285156250e+00) (34, 5.71921527385711669922e-01) (35, -1.06330752372741699219e+00) (36, 1.94459044933319091797e+00) (37, 1.25144958496093750000e+00) (38, -3.89364957809448242188e+00) (39, 1.91615080833435058594e+00) (40, -1.12659239768981933594e+00) (41, -2.26232314109802246094e+00) (42, -9.62791800498962402344e-01) (43, 2.38782858848571777344e+00) (23, 4.63419631123542785645e-02) (24, 3.21178697049617767334e-02) (25, 1.16171039640903472900e-01) (26, 3.43712747097015380859e-01) (27, 1.76603540778160095215e-01) (28, 2.42463678121566772461e-01) (29, 1.78516304492950439453e+00) (30, 1.14641688764095306396e-01) (31, 2.61146843433380126953e-01) (32, 4.92237687110900878906e-01) (33, 4.06414210796356201172e-01) (34, -1.06180652976036071777e-01) (35, 2.65485048294067382812e-01) (36, 5.22706508636474609375e-01) (37, 8.43189433217048645020e-02) (38, -3.75339865684509277344e-01) (39, 3.21896851062774658203e-01) (40, 3.44607293605804443359e-01) (41, -9.53555524349212646484e-01) (42, 8.54298233985900878906e-01) (43, 4.14352238178253173828e-01) (23, 7.71291494369506835938e-01) (24, -3.46001572906970977783e-02) (25, -5.65909966826438903809e-02) (26, 6.10627353191375732422e-01) (27, 7.93329715728759765625e-01) (28, -5.41396319866180419922e-01) (29, 4.91283774375915527344e-01) (30, 6.69014453887939453125e-01) (31, -2.98202168196439743042e-02) (32, 6.30854427814483642578e-01) (33, 3.46944749355316162109e-01) (34, 6.55721902847290039062e-01) (35, -4.34737592935562133789e-01) (36, 5.85149466991424560547e-01) (37, 1.07961118221282958984e+00) (38, 6.44868195056915283203e-01) (39, 5.17071247100830078125e-01) (40, 7.09788560867309570312e-01) (41, 9.09399986267089843750e-01) (42, -2.81765431165695190430e-01) (43, 5.99322319030761718750e-01) (23, 1.67706274986267089844e+00) (24, 1.30084359645843505859e+00) (25, 1.37138783931732177734e+00) (26, -7.40092456340789794922e-01) (27, 1.67355287075042724609e+00) (28, 6.19064748287200927734e-01) (29, 6.36666938662528991699e-02) (30, 1.76705181598663330078e+00) (31, 1.26629340648651123047e+00) (32, -8.79899322986602783203e-01) (33, -3.76687832176685333252e-02) (34, 4.72339153289794921875e-01) (35, 1.44234013557434082031e+00) (36, -9.25597846508026123047e-01) (37, -1.27920418977737426758e-01) (38, 3.07964444160461425781e+00) (39, -8.66516590118408203125e-01) (40, 1.78080713748931884766e+00) (41, 1.58143246173858642578e+00) (42, 1.45151817798614501953e+00) (43, -3.34127545356750488281e-01) (23, -9.47170197963714599609e-01) (24, -1.92916631698608398438e+00) (25, -5.41372656822204589844e-01) (26, 2.05197143554687500000e+00) (27, -1.04523468017578125000e+00) (28, 2.01429814100265502930e-01) (29, 3.80965685844421386719e+00) (30, -1.00235605239868164062e+00) (31, -2.19972777366638183594e+00) (32, 2.28039479255676269531e+00) (33, 1.17354500293731689453e+00) (34, 5.80739751458168029785e-02) (35, -1.07455968856811523438e+00) (36, 2.06005859375000000000e+00) (37, 1.29463779926300048828e+00) (38, -3.19910669326782226562e+00) (39, 2.05726218223571777344e+00) (40, -1.10087430477142333984e+00) (41, -1.33319556713104248047e+00) (42, -9.91528868675231933594e-01) (43, 2.33982324600219726562e+00) (23, 1.50755095481872558594e+00) (24, 1.23085153102874755859e+00) (25, 1.36816442012786865234e+00) (26, -8.80391061305999755859e-01) (27, 1.75197219848632812500e+00) (28, 5.99221408367156982422e-01) (29, -5.11670112609863281250e-02) (30, 1.61812782287597656250e+00) (31, 1.28994810581207275391e+00) (32, -1.04669308662414550781e+00) (33, -7.61620029807090759277e-02) (34, 1.96500703692436218262e-01) (35, 1.40278744697570800781e+00) (36, -8.06800067424774169922e-01) (37, -2.53603070974349975586e-01) (38, 2.98462390899658203125e+00) (39, -8.83687317371368408203e-01) (40, 1.89230966567993164062e+00) (41, 1.68925189971923828125e+00) (42, 1.38766562938690185547e+00) (43, -3.87970030307769775391e-01) (44, 2.90438979864120483398e-01) (45, 5.85926771163940429688e-01) (46, 5.95808744430541992188e-01) (47, -6.46100878715515136719e-01) (48, 1.74871772527694702148e-01) (49, 2.62727499008178710938e+00) (50, 1.23636341094970703125e+00) (51, -6.22872889041900634766e-01) (52, -1.17449796199798583984e+00) (53, 1.12202715873718261719e+00) (54, -5.64591765403747558594e-01) (55, 9.00178968906402587891e-01) (56, -3.42139989137649536133e-01) (57, -7.01760411262512207031e-01) (58, 1.18090569972991943359e+00) (59, 5.31372117996215820312e+00) (60, 1.20626121759414672852e-01) (61, 4.60716098546981811523e-01) (62, 1.29611313343048095703e+00) (63, 4.92551088333129882812e-01) (64, 1.34502267837524414062e+00) (44, 3.55896979570388793945e-01) (45, 2.67883539199829101562e-01) (46, -2.85514980554580688477e-01) (47, 3.93391937017440795898e-01) (48, -4.60308879613876342773e-01) (49, -1.98400080204010009766e-01) (50, 6.26584351062774658203e-01) (51, 6.95222675800323486328e-01) (52, 1.10998642444610595703e+00) (53, -1.89295852184295654297e+00) (54, 4.33013945817947387695e-01) (55, 1.92610129714012145996e-01) (56, 6.45042836666107177734e-01) (57, 8.21522116661071777344e-01) (58, 6.20717704296112060547e-01) (59, 6.58070743083953857422e-01) (60, 2.89981663227081298828e-01) (61, 6.26337468624114990234e-01) (62, 6.68056368827819824219e-01) (63, 1.88272833824157714844e-01) (64, 6.88031494617462158203e-01) (44, 7.20102667808532714844e-01) (45, 4.48206067085266113281e-01) (46, -1.86264291405677795410e-01) (47, 7.26624503731727600098e-02) (48, -2.14324578642845153809e-01) (49, -4.24931973218917846680e-01) (50, 3.58379364013671875000e-01) (51, 1.24529205262660980225e-01) (52, 4.99420553445816040039e-01) (53, 3.33230733871459960938e-01) (54, -4.48519587516784667969e-02) (55, 6.98203980922698974609e-01) (56, 2.37265750765800476074e-01) (57, 1.47158592939376831055e-01) (58, 3.22826594114303588867e-01) (59, -1.04713089764118194580e-01) (60, -4.58194948732852935791e-02) (61, 1.86750575900077819824e-01) (62, 3.36999505758285522461e-01) (63, -7.13844060897827148438e-01) (64, 3.58156263828277587891e-01) (44, 6.68799281120300292969e-01) (45, 4.08103495836257934570e-01) (46, -2.21353888511657714844e-01) (47, -2.35255256295204162598e-01) (48, 1.92132756114006042480e-01) (49, -2.93488502502441406250e-01) (50, 3.00996035337448120117e-01) (51, -6.19527476374059915543e-04) (52, 1.26402512192726135254e-01) (53, -6.22083321213722229004e-02) (54, 2.91783004999160766602e-01) (55, 4.19205039739608764648e-01) (56, 1.97579205036163330078e-01) (57, -5.33068180084228515625e-02) (58, 2.12392807006835937500e-01) (59, -2.83396989107131958008e-01) (60, 2.21121102571487426758e-01) (61, 1.50512844324111938477e-01) (62, 2.18824133276939392090e-01) (63, -5.79297482967376708984e-01) (64, 2.03212276101112365723e-01) (44, 8.82691323757171630859e-01) (45, 5.81769943237304687500e-01) (46, 2.01403096318244934082e-01) (47, -1.52052059769630432129e-01) (48, 2.30595748871564865112e-02) (49, 2.06123352050781250000e-01) (50, 1.70656070113182067871e-01) (51, 1.98204144835472106934e-01) (52, 2.15855270624160766602e-01) (53, 7.76940882205963134766e-02) (54, 1.93301826715469360352e-01) (55, 4.15842294692993164062e-01) (56, -2.15084869414567947388e-02) (57, -2.68405992537736892700e-02) (58, 3.67193996906280517578e-01) (59, -2.05294027924537658691e-01) (60, 8.12699086964130401611e-03) (61, 1.62673786282539367676e-01) (62, 2.97481119632720947266e-01) (63, -5.54650664329528808594e-01) (64, 3.34083169698715209961e-01) (44, 7.11093008518218994141e-01) (45, 4.86193627119064331055e-01) (46, 3.02724987268447875977e-01) (47, 2.42964141070842742920e-02) (48, -1.16707704961299896240e-01) (49, 2.60208249092102050781e-01) (50, 3.70464265346527099609e-01) (51, 3.54090556502342224121e-02) (52, 2.00530603528022766113e-01) (53, -3.77123355865478515625e-02) (54, 6.57025352120399475098e-02) (55, 1.85398846864700317383e-01) (56, -1.39521896839141845703e-01) (57, 1.89996153116226196289e-01) (58, 3.87768745422363281250e-01) (59, -3.86326789855957031250e-01) (60, -9.47288125753402709961e-02) (61, 6.36540129780769348145e-02) (62, 3.74503999948501586914e-01) (63, -2.70713597536087036133e-01) (64, 2.80559957027435302734e-01) (44, 6.21597945690155029297e-01) (45, 4.01804864406585693359e-01) (46, 1.48653596639633178711e-01) (47, 6.39202445745468139648e-02) (48, 1.51181355118751525879e-01) (49, 3.46890509128570556641e-01) (50, 1.99549272656440734863e-01) (51, -1.67729288339614868164e-01) (52, 2.08863511681556701660e-01) (53, -1.95946395397186279297e-01) (54, 1.85432672500610351562e-01) (55, 1.02324239909648895264e-01) (56, -5.14935329556465148926e-02) (57, 1.62597671151161193848e-01) (58, 3.28942239284515380859e-01) (59, -1.69934973120689392090e-01) (60, -1.70569971203804016113e-01) (61, 1.71392813324928283691e-01) (62, 3.15145701169967651367e-01) (63, -1.92717492580413818359e-01) (64, 3.26326280832290649414e-01) (44, 4.85694587230682373047e-01) (45, 3.17896127700805664062e-01) (46, 2.92781084775924682617e-01) (47, 1.01743347942829132080e-01) (48, -1.59558475017547607422e-01) (49, 3.75038415193557739258e-01) (50, 2.57871121168136596680e-01) (51, 1.90240785479545593262e-01) (52, 1.76047310233116149902e-01) (53, 4.54495437443256378174e-02) (54, 1.91988795995712280273e-01) (55, 7.27782100439071655273e-02) (56, -3.84329974651336669922e-01) (57, 2.01542481780052185059e-01) (58, 2.63075143098831176758e-01) (59, -2.82544493675231933594e-01) (60, -1.01582504808902740479e-01) (61, 1.29424452781677246094e-01) (62, 2.64551877975463867188e-01) (63, -7.78353810310363769531e-02) (64, 2.50099629163742065430e-01) (44, 6.97760999202728271484e-01) (45, 4.50331956148147583008e-01) (46, 9.36869382858276367188e-02) (47, 2.87803877145051956177e-02) (48, 6.03066682815551757812e-02) (49, 4.85613614320755004883e-01) (50, 8.08286517858505249023e-02) (51, -8.92271986231207847595e-04) (52, 1.59045726060867309570e-01) (53, 1.69808223843574523926e-01) (54, 1.78947318345308303833e-02) (55, 3.32470126450061798096e-02) (56, -5.81253729760646820068e-02) (57, 1.13072149455547332764e-01) (58, 3.35436090826988220215e-02) (59, -7.57288420572876930237e-03) (60, 4.30157482624053955078e-01) (61, 2.65730500221252441406e-01) (62, 1.25079751014709472656e-01) (63, -1.78420022130012512207e-01) (64, 1.22619740664958953857e-01) (44, 7.19628095626831054688e-01) (45, 3.43924045562744140625e-01) (46, 3.29256743192672729492e-01) (47, -1.25943003222346305847e-02) (48, 9.33445245027542114258e-02) (49, 4.36965852975845336914e-01) (50, 2.64782071113586425781e-01) (51, -4.54987585544586181641e-03) (52, 1.27600446343421936035e-01) (53, 1.69437576550990343094e-03) (54, 3.60557734966278076172e-01) (55, 1.79535225033760070801e-02) (56, -2.13473308831453323364e-02) (57, 6.61283284425735473633e-02) (58, 1.59698516130447387695e-01) (59, -6.73329159617424011230e-02) (60, -2.00887531042098999023e-01) (61, 2.26779446005821228027e-01) (62, 1.95232704281806945801e-01) (63, -1.32032632827758789062e-01) (64, 1.43857210874557495117e-01) (44, 6.67441427707672119141e-01) (45, 4.91320312023162841797e-01) (46, 2.36984312534332275391e-01) (47, 5.74258379638195037842e-02) (48, 1.71846454031765460968e-03) (49, 4.48496431112289428711e-01) (50, 1.01721920073032379150e-01) (51, -4.91604208946228027344e-02) (52, 1.61385685205459594727e-01) (53, 1.69583991169929504395e-01) (54, 2.81871378421783447266e-01) (55, 1.42131403088569641113e-01) (56, -1.53500260785222053528e-02) (57, 1.33173644542694091797e-01) (58, 2.15846151113510131836e-01) (59, -1.34511198848485946655e-02) (60, -2.02023193240165710449e-01) (61, 6.07105828821659088135e-02) (62, 8.41355323791503906250e-02) (63, -2.29538902640342712402e-01) (64, 1.58117890357971191406e-01) (44, 6.62638783454895019531e-01) (45, 4.38990414142608642578e-01) (46, 3.06890487670898437500e-01) (47, 2.16870725154876708984e-01) (48, 1.46128520369529724121e-01) (49, 4.95156288146972656250e-01) (50, 2.34444305300712585449e-01) (51, -2.32896804809570312500e-01) (52, 1.76116272807121276855e-01) (53, -1.09337523579597473145e-01) (54, 4.84452806413173675537e-02) (55, -1.48904532194137573242e-01) (56, 4.24030572175979614258e-02) (57, 8.02234709262847900391e-02) (58, 3.40065270662307739258e-01) (59, -1.29000619053840637207e-01) (60, -1.49262636899948120117e-01) (61, 2.07327663898468017578e-01) (62, 2.66972810029983520508e-01) (63, -1.06527004390954971313e-02) (64, 2.51191347837448120117e-01) (44, 6.36624574661254882812e-01) (45, 4.42204207181930541992e-01) (46, 2.04545691609382629395e-01) (47, 8.81609856151044368744e-04) (48, 1.43620297312736511230e-02) (49, 4.61698323488235473633e-01) (50, 1.46573871374130249023e-01) (51, 1.27601101994514465332e-01) (52, 1.73475340008735656738e-01) (53, 8.46947729587554931641e-02) (54, 3.18047136068344116211e-01) (55, 3.48072238266468048096e-02) (56, -4.69861961901187896729e-02) (57, 2.98338346183300018311e-02) (58, 1.10472835600376129150e-01) (59, 1.98605265468358993530e-02) (60, -1.28459140658378601074e-01) (61, 2.29601308703422546387e-01) (62, 1.11149989068508148193e-01) (63, -2.27766588330268859863e-01) (64, 1.17660336196422576904e-01) (44, 6.30598545074462890625e-01) (45, 3.38602989912033081055e-01) (46, 2.01631650328636169434e-01) (47, 1.82798743247985839844e-01) (48, -4.61237840354442596436e-02) (49, 5.14343917369842529297e-01) (50, 3.07883381843566894531e-01) (51, 8.40505734086036682129e-02) (52, 1.54433429241180419922e-01) (53, 7.73972198367118835449e-02) (54, 3.42593997716903686523e-01) (55, -3.21465097367763519287e-02) (56, -3.75088900327682495117e-01) (57, 2.19333589076995849609e-01) (58, 1.85267314314842224121e-01) (59, -2.47994869947433471680e-01) (60, -4.34920899569988250732e-02) (61, 2.45809063315391540527e-01) (62, 2.29517683386802673340e-01) (63, -5.13893216848373413086e-02) (64, 2.19646006822586059570e-01) (44, 6.48671805858612060547e-01) (45, 3.93625319004058837891e-01) (46, 1.30550116300582885742e-01) (47, 3.31557728350162506104e-02) (48, -5.15928119421005249023e-02) (49, 5.74604511260986328125e-01) (50, 2.01776400208473205566e-01) (51, 1.47276654839515686035e-01) (52, 2.18682542443275451660e-01) (53, 1.35788649320602416992e-01) (54, 3.14002074301242828369e-02) (55, 1.33602097630500793457e-02) (56, -2.13402524590492248535e-01) (57, 2.01091006398200988770e-01) (58, 6.63385316729545593262e-02) (59, -3.59642393887042999268e-02) (60, 4.21025782823562622070e-01) (61, 2.96481102705001831055e-01) (62, 3.74106317758560180664e-02) (63, -5.51211126148700714111e-02) (64, 1.60078763961791992188e-01) (44, 8.02329659461975097656e-01) (45, 4.69145447015762329102e-01) (46, 9.40581113100051879883e-02) (47, 1.48419097065925598145e-01) (48, -2.00297795236110687256e-02) (49, 5.53437232971191406250e-01) (50, 1.31008967757225036621e-01) (51, 1.63130648434162139893e-02) (52, 1.51262640953063964844e-01) (53, 1.87950685620307922363e-01) (54, 7.84966498613357543945e-02) (55, -5.34475222229957580566e-02) (56, -9.44800153374671936035e-02) (57, 1.32724523544311523438e-01) (58, 1.24523386359214782715e-01) (59, -1.41225799918174743652e-01) (60, 4.31737661361694335938e-01) (61, 2.73508667945861816406e-01) (62, 1.20184771716594696045e-01) (63, -1.19019128382205963135e-01) (64, 1.51193171739578247070e-01) (44, 7.77340471744537353516e-01) (45, 5.68735241889953613281e-01) (46, 1.74839153885841369629e-01) (47, 1.46300107240676879883e-01) (48, 8.01351107656955718994e-03) (49, 5.95996737480163574219e-01) (50, 3.56530919671058654785e-02) (51, 9.14460420608520507812e-02) (52, 1.55309855937957763672e-01) (53, 2.45293572545051574707e-01) (54, -8.10919562354683876038e-04) (55, -3.42306010425090789795e-02) (56, -1.49462046101689338684e-02) (57, -1.96246001869440078735e-02) (58, 6.87558427453041076660e-02) (59, -4.91995736956596374512e-03) (60, 4.74472135305404663086e-01) (61, 2.11590081453323364258e-01) (62, 8.07583332061767578125e-02) (63, -1.03986151516437530518e-01) (64, 1.61420509219169616699e-01) (44, 7.83380270004272460938e-01) (45, 5.66151380538940429688e-01) (46, 1.57303005456924438477e-01) (47, 4.89139407873153686523e-02) (48, -3.21087688207626342773e-02) (49, 5.79090774059295654297e-01) (50, 1.39002606272697448730e-01) (51, 1.44827157258987426758e-01) (52, 1.82777673006057739258e-01) (53, 2.07999169826507568359e-01) (54, 6.60079494118690490723e-02) (55, -5.62589913606643676758e-02) (56, -1.01177178323268890381e-01) (57, 9.20553356409072875977e-02) (58, 1.23644076287746429443e-01) (59, -6.47588446736335754395e-02) (60, 3.77148151397705078125e-01) (61, 2.44313597679138183594e-01) (62, 1.03137232363224029541e-01) (63, -1.34465008974075317383e-01) (64, 1.07788443565368652344e-01) (44, 7.81843721866607666016e-01) (45, 5.28771579265594482422e-01) (46, 5.61994276940822601318e-02) (47, -4.79697473347187042236e-02) (48, 2.44339212775230407715e-01) (49, 6.46226584911346435547e-01) (50, 3.81904430687427520752e-02) (51, 4.08723168075084686279e-02) (52, 2.22324267029762268066e-01) (53, 2.89968729019165039062e-01) (54, 2.26457044482231140137e-03) (55, 6.53977468609809875488e-02) (56, 3.15782614052295684814e-02) (57, 8.53284168988466262817e-03) (58, 4.45049181580543518066e-02) (59, 1.70959755778312683105e-01) (60, 3.50373297929763793945e-01) (61, 2.21351578831672668457e-01) (62, 4.90142144262790679932e-02) (63, -5.45843653380870819092e-02) (64, 1.38683512806892395020e-01) (44, 6.05379462242126464844e-01) (45, 3.92935395240783691406e-01) (46, 1.88849389553070068359e-01) (47, 2.14234758168458938599e-02) (48, -8.48241709172725677490e-03) (49, 4.70578759908676147461e-01) (50, 2.01737970113754272461e-01) (51, 1.17301069200038909912e-01) (52, 1.67367964982986450195e-01) (53, 1.22350856661796569824e-01) (54, 4.14292156696319580078e-01) (55, 7.92837589979171752930e-02) (56, -1.94620922207832336426e-01) (57, 1.65395438671112060547e-01) (58, 1.60599231719970703125e-01) (59, -1.58073738217353820801e-01) (60, -2.39104494452476501465e-01) (61, 6.17615357041358947754e-02) (62, 2.72373199462890625000e-01) (63, -2.17597465962171554565e-02) (64, 1.30283385515213012695e-01) (44, 8.45436155796051025391e-01) (45, 5.00973284244537353516e-01) (46, 2.65980064868927001953e-02) (47, 1.47506415843963623047e-01) (48, 1.06181681156158447266e-01) (49, 6.02219283580780029297e-01) (50, -1.29294218495488166809e-02) (51, 5.04749827086925506592e-02) (52, 1.55120790004730224609e-01) (53, 2.22617596387863159180e-01) (54, 1.88211500644683837891e-01) (55, 1.87336876988410949707e-02) (56, -2.06487476825714111328e-02) (57, -2.65517346560955047607e-02) (58, 9.35136824846267700195e-02) (59, 3.60507182776927947998e-02) (60, 4.03867632150650024414e-01) (61, 3.20735454559326171875e-01) (62, 1.02157995104789733887e-01) (63, -2.04889535903930664062e-01) (64, 1.13261751830577850342e-01) (44, 6.07624828815460205078e-01) (45, 4.23730641603469848633e-01) (46, 3.12252074480056762695e-01) (47, 2.39541128277778625488e-01) (48, -8.92676338553428649902e-02) (49, 5.15477776527404785156e-01) (50, 3.48707556724548339844e-01) (51, 1.72346502542495727539e-01) (52, 1.43328890204429626465e-01) (53, 5.57107739150524139404e-02) (54, 3.28161984682083129883e-01) (55, -1.33523240685462951660e-01) (56, -3.56894910335540771484e-01) (57, 1.10721968114376068115e-01) (58, 2.72434413433074951172e-01) (59, -3.24000090360641479492e-01) (60, -1.36550068855285644531e-01) (61, 1.21712833642959594727e-01) (62, 3.12614411115646362305e-01) (63, 9.32648479938507080078e-02) (64, 1.89245998859405517578e-01) (44, 7.88189589977264404297e-01) (45, 5.00291228294372558594e-01) (46, 9.90567356348037719727e-02) (47, 7.20550492405891418457e-02) (48, -2.59391721338033676147e-02) (49, 5.17840206623077392578e-01) (50, 1.36162824928760528564e-02) (51, 1.34243652224540710449e-01) (52, 1.77301123738288879395e-01) (53, 2.38026812672615051270e-01) (54, 2.81738881021738052368e-02) (55, 1.74302014056593179703e-03) (56, -5.38359023630619049072e-02) (57, 3.89430336654186248779e-02) (58, 1.68244272470474243164e-01) (59, -2.82613839954137802124e-02) (60, 3.09098184108734130859e-01) (61, 2.09602564573287963867e-01) (62, 1.28942146897315979004e-01) (63, -1.82886645197868347168e-01) (64, 1.28414213657379150391e-01) (44, 5.90802431106567382812e-01) (45, 3.41686218976974487305e-01) (46, 3.54078888893127441406e-01) (47, 1.59913927316665649414e-01) (48, -8.61409585922956466675e-03) (49, 4.71332222223281860352e-01) (50, 2.34129279851913452148e-01) (51, -5.90578652918338775635e-02) (52, 9.64207723736763000488e-02) (53, -1.68579295277595520020e-02) (54, 3.12687605619430541992e-01) (55, -1.33034706115722656250e-01) (56, -2.34835296869277954102e-01) (57, 2.14176937937736511230e-01) (58, 1.92128702998161315918e-01) (59, -2.58462280035018920898e-01) (60, -8.42839330434799194336e-02) (61, 2.36572340130805969238e-01) (62, 2.93001264333724975586e-01) (63, -9.06226166989654302597e-04) (64, 2.32219859957695007324e-01) (44, 6.78863048553466796875e-01) (45, 3.87623041868209838867e-01) (46, 2.42889314889907836914e-01) (47, 1.45579755306243896484e-01) (48, -2.20853723585605621338e-02) (49, 5.25686919689178466797e-01) (50, 3.27853858470916748047e-01) (51, 1.19103372097015380859e-01) (52, 1.97972565889358520508e-01) (53, 4.08244468271732330322e-02) (54, 2.59556651115417480469e-01) (55, -4.78385463356971740723e-02) (56, -2.12688177824020385742e-01) (57, 8.86245965957641601562e-02) (58, 2.14059293270111083984e-01) (59, -8.16463381052017211914e-02) (60, -9.54062491655349731445e-02) (61, 2.91670620441436767578e-01) (62, 1.30402103066444396973e-01) (63, -1.19086250662803649902e-01) (64, 1.63845300674438476562e-01) (44, 8.48879158496856689453e-01) (45, 4.45594877004623413086e-01) (46, 1.46259024739265441895e-01) (47, 3.35770994424819946289e-02) (48, -3.90820531174540519714e-03) (49, 5.11042118072509765625e-01) (50, 1.74072071909904479980e-01) (51, 2.12342422455549240112e-02) (52, 1.64134129881858825684e-01) (53, 1.31685987114906311035e-01) (54, -1.88662055879831314087e-02) (55, -8.79443064332008361816e-02) (56, -4.38737533986568450928e-02) (57, 1.45278289914131164551e-01) (58, 1.76286309957504272461e-01) (59, -3.79458777606487274170e-02) (60, 4.55484807491302490234e-01) (61, 2.80443191528320312500e-01) (62, 7.55257606506347656250e-02) (63, -1.16826117038726806641e-01) (64, 7.25444704294204711914e-02) (44, 5.52414476871490478516e-01) (45, 4.62746888399124145508e-01) (46, 2.89408028125762939453e-01) (47, 8.89216735959053039551e-02) (48, 2.20953896641731262207e-02) (49, 5.63500463962554931641e-01) (50, 2.07662135362625122070e-01) (51, 1.44095495343208312988e-01) (52, 1.42985433340072631836e-01) (53, 2.29103509336709976196e-02) (54, 4.04544025659561157227e-01) (55, -1.42417356371879577637e-01) (56, -2.98833757638931274414e-01) (57, 1.37307524681091308594e-01) (58, 2.48583018779754638672e-01) (59, -2.53075182437896728516e-01) (60, -9.61663722991943359375e-02) (61, 2.60891050100326538086e-01) (62, 3.21119666099548339844e-01) (63, 1.93791929632425308228e-02) (64, 1.31466805934906005859e-01) (44, 5.87190330028533935547e-01) (45, 4.52767759561538696289e-01) (46, 2.34910845756530761719e-01) (47, 2.16228976845741271973e-01) (48, -4.78480104357004165649e-03) (49, 4.28024947643280029297e-01) (50, 2.06000015139579772949e-01) (51, 7.17460643500089645386e-03) (52, 6.76820725202560424805e-02) (53, 1.36138468980789184570e-01) (54, 2.83631473779678344727e-01) (55, -1.36396080255508422852e-01) (56, -2.16312721371650695801e-01) (57, 8.40416625142097473145e-02) (58, 2.62227207422256469727e-01) (59, -2.80113071203231811523e-01) (60, -9.04834941029548645020e-02) (61, 1.24112553894519805908e-01) (62, 2.10348412394523620605e-01) (63, -5.97543641924858093262e-02) (64, 1.62816554307937622070e-01) (44, 6.36606872081756591797e-01) (45, 3.70529353618621826172e-01) (46, 1.76266327500343322754e-01) (47, 2.25329861044883728027e-01) (48, 4.00701388716697692871e-02) (49, 4.23053830862045288086e-01) (50, 1.17476806044578552246e-01) (51, -8.18535089492797851562e-02) (52, 1.09060391783714294434e-01) (53, -7.26760774850845336914e-02) (54, 1.99701026082038879395e-01) (55, -9.10104587674140930176e-02) (56, -1.04911671951413154602e-02) (57, 3.64854894578456878662e-02) (58, 2.88023471832275390625e-01) (59, -1.98563024401664733887e-01) (60, -1.89607292413711547852e-02) (61, 1.97391897439956665039e-01) (62, 2.37387493252754211426e-01) (63, -8.46387818455696105957e-02) (64, 2.06865459680557250977e-01) (44, 7.60756671428680419922e-01) (45, 4.56120848655700683594e-01) (46, 4.60054576396942138672e-02) (47, 1.05604141950607299805e-01) (48, 3.48893217742443084717e-02) (49, 5.21575450897216796875e-01) (50, 4.68201041221618652344e-02) (51, 3.02078090608119964600e-02) (52, 1.54393047094345092773e-01) (53, 1.10446296632289886475e-01) (54, 1.11205741763114929199e-01) (55, -6.44890144467353820801e-02) (56, -1.50525555014610290527e-01) (57, 1.37434586882591247559e-01) (58, 1.28839343786239624023e-01) (59, 8.41624476015567779541e-03) (60, 4.79002803564071655273e-01) (61, 2.68990188837051391602e-01) (62, 2.79103294014930725098e-02) (63, -1.14774629473686218262e-01) (64, 1.78638845682144165039e-01) (44, 7.52079427242279052734e-01) (45, 5.86979269981384277344e-01) (46, 1.72999829053878784180e-01) (47, 9.82665792107582092285e-02) (48, -2.71308142691850662231e-02) (49, 4.88641828298568725586e-01) (50, 4.40312549471855163574e-02) (51, -1.05279888957738876343e-02) (52, 5.36254197359085083008e-02) (53, 3.47959965467453002930e-01) (54, 3.24289590120315551758e-01) (55, 1.26226007938385009766e-01) (56, 1.58465459942817687988e-01) (57, -1.55241843312978744507e-02) (58, 1.11444644629955291748e-01) (59, -2.02835842967033386230e-01) (60, 1.24986795708537101746e-02) (61, 1.45071566104888916016e-01) (62, 2.24025566130876541138e-02) (63, -3.87072384357452392578e-01) (64, 1.36424168944358825684e-01) (44, 5.97954690456390380859e-01) (45, 3.83835405111312866211e-01) (46, 2.80605167150497436523e-01) (47, 1.19328208267688751221e-01) (48, -9.90923419594764709473e-02) (49, 4.81252163648605346680e-01) (50, 2.75587767362594604492e-01) (51, 2.09325104951858520508e-01) (52, 1.37378349900245666504e-01) (53, 9.47784483432769775391e-02) (54, 2.94848710298538208008e-01) (55, -7.84772038459777832031e-02) (56, -3.90431076288223266602e-01) (57, 1.72645986080169677734e-01) (58, 1.82589307427406311035e-01) (59, -2.84526586532592773438e-01) (60, -6.07078522443771362305e-02) (61, 1.60648033022880554199e-01) (62, 2.90970236063003540039e-01) (63, -7.05964921507984399796e-04) (64, 2.24557787179946899414e-01) (44, 5.70900082588195800781e-01) (45, 4.28789526224136352539e-01) (46, 3.21536093950271606445e-01) (47, 1.79730907082557678223e-01) (48, -7.95068666338920593262e-02) (49, 5.00821352005004882812e-01) (50, 2.56435334682464599609e-01) (51, 4.58342991769313812256e-02) (52, 1.43466904759407043457e-01) (53, 3.11313103884458541870e-02) (54, 3.58875215053558349609e-01) (55, -4.45661731064319610596e-02) (56, -1.87591686844825744629e-01) (57, 1.42565473914146423340e-01) (58, 1.97499975562095642090e-01) (59, -2.35544696450233459473e-01) (60, -2.12663590908050537109e-01) (61, 2.09153860807418823242e-01) (62, 2.69672542810440063477e-01) (63, -1.03801533579826354980e-01) (64, 1.68959051370620727539e-01) (44, 5.34883856773376464844e-01) (45, 4.23052966594696044922e-01) (46, 3.00046861171722412109e-01) (47, 1.41666889190673828125e-01) (48, -6.38711033388972282410e-03) (49, 5.60563623905181884766e-01) (50, 2.44413658976554870605e-01) (51, 1.32743090391159057617e-01) (52, 1.32088750600814819336e-01) (53, 9.32549238204956054688e-02) (54, 3.52162420749664306641e-01) (55, -1.37374609708786010742e-01) (56, -3.77100110054016113281e-01) (57, 1.68554633855819702148e-01) (58, 3.06396007537841796875e-01) (59, -2.89032489061355590820e-01) (60, -5.35584986209869384766e-02) (61, 2.51138657331466674805e-01) (62, 1.56326234340667724609e-01) (63, 4.32770065963268280029e-02) (64, 2.25114151835441589355e-01) (44, 7.82357215881347656250e-01) (45, 5.07003128528594970703e-01) (46, -5.70133514702320098877e-02) (47, 5.19840419292449951172e-02) (48, 5.14242351055145263672e-02) (49, 5.46701669692993164062e-01) (50, 2.04891711473464965820e-01) (51, 7.61274844408035278320e-02) (52, 2.09009379148483276367e-01) (53, 1.70615315437316894531e-01) (54, 5.54262809455394744873e-02) (55, 1.71166528016328811646e-02) (56, -7.97367691993713378906e-02) (57, 1.20545782148838043213e-01) (58, 3.55282947421073913574e-02) (59, -5.29514774680137634277e-02) (60, 3.89489412307739257812e-01) (61, 2.17362105846405029297e-01) (62, 7.69707113504409790039e-02) (63, -1.44139245152473449707e-01) (64, 1.61962434649467468262e-01) (44, 5.79525470733642578125e-01) (45, 4.43769186735153198242e-01) (46, 3.41214954853057861328e-01) (47, 5.17306514084339141846e-02) (48, -4.33138608932495117188e-02) (49, 5.33408403396606445312e-01) (50, 3.00908923149108886719e-01) (51, 1.73970773816108703613e-01) (52, 1.54417276382446289062e-01) (53, 1.21145389974117279053e-01) (54, 3.50884586572647094727e-01) (55, -8.98215547204017639160e-02) (56, -2.73865431547164916992e-01) (57, 1.40644416213035583496e-01) (58, 1.75842478871345520020e-01) (59, -2.16855257749557495117e-01) (60, -1.57930240035057067871e-01) (61, 2.39509493112564086914e-01) (62, 1.65019422769546508789e-01) (63, -4.56946119666099548340e-02) (64, 1.95782557129859924316e-01) (44, 8.15602421760559082031e-01) (45, 4.78714853525161743164e-01) (46, -2.18604560941457748413e-02) (47, 1.53129309415817260742e-01) (48, 1.17915123701095581055e-01) (49, 6.19129896163940429688e-01) (50, 5.50681389868259429932e-02) (51, 2.58806650526821613312e-03) (52, 2.08834141492843627930e-01) (53, 3.09178650379180908203e-01) (54, -1.67587236501276493073e-03) (55, 1.31646618247032165527e-01) (56, 3.91167737543582916260e-02) (57, -3.25161335058510303497e-03) (58, 7.53555223345756530762e-02) (59, 1.55564034357666969299e-02) (60, 3.64141374826431274414e-01) (61, 2.33433604240417480469e-01) (62, 1.10746994614601135254e-01) (63, -1.72210738062858581543e-01) (64, 1.37269973754882812500e-01) (44, 8.44888150691986083984e-01) (45, 4.06245112419128417969e-01) (46, -1.75182558596134185791e-02) (47, 6.74051567912101745605e-02) (48, 6.79144784808158874512e-02) (49, 4.70648616552352905273e-01) (50, 2.86482013761997222900e-02) (51, -3.69012802839279174805e-02) (52, 1.41057863831520080566e-01) (53, 2.33548834919929504395e-01) (54, 1.16756074130535125732e-01) (55, 9.13594439625740051270e-02) (56, -2.44024861603975296021e-02) (57, 1.13112926483154296875e-01) (58, 1.01278051733970642090e-01) (59, 3.16538556944578886032e-04) (60, 3.11140447854995727539e-01) (61, 2.21470877528190612793e-01) (62, 5.13146072626113891602e-02) (63, -2.61673271656036376953e-01) (64, 1.76737725734710693359e-01) (44, 7.03645110130310058594e-01) (45, 4.34711188077926635742e-01) (46, 2.06810012459754943848e-01) (47, 4.12483960390090942383e-02) (48, 2.55475100129842758179e-02) (49, 4.15250778198242187500e-01) (50, 1.79417088627815246582e-01) (51, 5.91320767998695373535e-02) (52, 1.62340387701988220215e-01) (53, 1.35235384106636047363e-01) (54, 2.77406871318817138672e-01) (55, 1.53516251593828201294e-02) (56, -1.50298491120338439941e-01) (57, 1.01622037589550018311e-01) (58, 1.35998979210853576660e-01) (59, 7.18133822083473205566e-02) (60, -1.51671305298805236816e-01) (61, 8.34506303071975708008e-02) (62, 1.31170377135276794434e-01) (63, -1.41557931900024414062e-01) (64, 1.28913193941116333008e-01) (44, 8.33630859851837158203e-01) (45, 5.56615352630615234375e-01) (46, 5.74069619178771972656e-02) (47, 5.17564453184604644775e-02) (48, 5.19964918494224548340e-02) (49, 6.58973276615142822266e-01) (50, 1.43292382359504699707e-01) (51, 5.98652400076389312744e-02) (52, 2.23611384630203247070e-01) (53, 2.48472601175308227539e-01) (54, 1.69624127447605133057e-02) (55, 4.43527773022651672363e-02) (56, 1.68370008468627929688e-02) (57, 8.60000029206275939941e-02) (58, 7.82367438077926635742e-02) (59, -5.64291812479496002197e-02) (60, 4.43028032779693603516e-01) (61, 3.14834833145141601562e-01) (62, 7.77992904186248779297e-02) (63, -1.85301125049591064453e-01) (64, 1.21122740209102630615e-01) (44, 7.98848271369934082031e-01) (45, 4.97201681137084960938e-01) (46, -9.01327431201934814453e-02) (47, 1.86775490641593933105e-01) (48, -4.24197176471352577209e-03) (49, 5.04732787609100341797e-01) (50, 2.11737435311079025269e-02) (51, 5.95053806900978088379e-02) (52, 2.11245641112327575684e-01) (53, 6.57748430967330932617e-02) (54, 8.26632604002952575684e-02) (55, -1.11231515184044837952e-02) (56, -1.98028385639190673828e-01) (57, 1.42300575971603393555e-01) (58, 1.62338852882385253906e-01) (59, 3.71613577008247375488e-02) (60, 4.44682031869888305664e-01) (61, 1.81640580296516418457e-01) (62, 1.92478016018867492676e-01) (63, -1.52584701776504516602e-01) (64, 1.22094832360744476318e-01) (44, 8.18666040897369384766e-01) (45, 4.50693786144256591797e-01) (46, 7.20397606492042541504e-02) (47, 6.97154849767684936523e-02) (48, 6.45202472805976867676e-02) (49, 6.26419305801391601562e-01) (50, 2.05394521355628967285e-01) (51, -7.59246014058589935303e-03) (52, 2.61899024248123168945e-01) (53, 2.35052049160003662109e-01) (54, -3.34697179496288299561e-02) (55, 8.88717994093894958496e-02) (56, -7.20029547810554504395e-02) (57, 1.71226337552070617676e-01) (58, 1.00612699985504150391e-01) (59, 3.21489572525024414062e-02) (60, 2.90380954742431640625e-01) (61, 2.79386043548583984375e-01) (62, 7.10718333721160888672e-02) (63, -1.40879571437835693359e-01) (64, 1.78205803036689758301e-01) (44, 6.85644626617431640625e-01) (45, 3.37592542171478271484e-01) (46, 2.30670124292373657227e-01) (47, 3.31338673830032348633e-01) (48, 1.03499498218297958374e-02) (49, 4.10398960113525390625e-01) (50, 3.20943921804428100586e-01) (51, -3.06592196226119995117e-01) (52, 1.32410153746604919434e-01) (53, -2.68990471959114074707e-02) (54, 1.73229485750198364258e-01) (55, -2.54479926079511642456e-02) (56, -1.31307929754257202148e-01) (57, 2.46675103902816772461e-01) (58, 2.91186809539794921875e-01) (59, -1.23675763607025146484e-01) (60, -1.38765737414360046387e-01) (61, 1.03940412402153015137e-01) (62, 2.19903290271759033203e-01) (63, -8.50467160344123840332e-02) (64, 1.48919001221656799316e-01) (44, 7.15886950492858886719e-01) (45, 3.87362986803054809570e-01) (46, 6.59467303194105625153e-04) (47, 1.08155936002731323242e-01) (48, 2.06838622689247131348e-02) (49, 5.56158900260925292969e-01) (50, 1.32684454321861267090e-01) (51, 1.07341237366199493408e-01) (52, 1.90654665231704711914e-01) (53, 1.77895054221153259277e-01) (54, 1.04242958128452301025e-01) (55, 3.25881168246269226074e-02) (56, -1.34880319237709045410e-01) (57, 8.70173647999763488770e-02) (58, 9.38595607876777648926e-02) (59, -3.87122631072998046875e-02) (60, 3.79146933555603027344e-01) (61, 3.42656344175338745117e-01) (62, 6.88412934541702270508e-02) (63, -1.71337455511093139648e-01) (64, 1.11942149698734283447e-01) (44, 8.13035786151885986328e-01) (45, 4.92941766977310180664e-01) (46, 3.79427000880241394043e-02) (47, 8.89782235026359558105e-02) (48, -1.77089795470237731934e-02) (49, 5.00463426113128662109e-01) (50, 7.68011584877967834473e-02) (51, 8.86988192796707153320e-02) (52, 1.66203305125236511230e-01) (53, 2.22289964556694030762e-01) (54, 9.81792584061622619629e-02) (55, 5.67360892891883850098e-02) (56, -6.46749064326286315918e-02) (57, 7.56826028227806091309e-02) (58, 1.70724242925643920898e-02) (59, -1.21009917929768562317e-02) (60, 3.26010823249816894531e-01) (61, 1.65130645036697387695e-01) (62, 1.68963238596916198730e-01) (63, -2.04955026507377624512e-01) (64, 1.33231401443481445312e-01) (44, 6.44557595252990722656e-01) (45, 3.80660265684127807617e-01) (46, 2.41048350930213928223e-01) (47, 2.37686075270175933838e-02) (48, 2.43305340409278869629e-02) (49, 4.19063597917556762695e-01) (50, 1.03258289396762847900e-01) (51, 3.17215872928500175476e-03) (52, 1.56039819121360778809e-01) (53, 6.96472451090812683105e-02) (54, 1.34924337267875671387e-01) (55, 5.78558258712291717529e-03) (56, 5.05131110548973083496e-02) (57, 4.80643585324287414551e-02) (58, 2.26709440350532531738e-01) (59, -6.07465766370296478271e-03) (60, -8.72088894248008728027e-02) (61, 1.91162720322608947754e-01) (62, 1.20387531816959381104e-01) (63, -1.62991583347320556641e-01) (64, 1.13520018756389617920e-01) (44, 8.11710774898529052734e-01) (45, 5.60147285461425781250e-01) (46, 1.12805508077144622803e-01) (47, 1.84265941381454467773e-01) (48, 6.76476210355758666992e-02) (49, 6.34318709373474121094e-01) (50, 1.91059112548828125000e-01) (51, 8.54389294981956481934e-02) (52, 1.87930420041084289551e-01) (53, 2.42020562291145324707e-01) (54, 1.27902150154113769531e-01) (55, 2.10907161235809326172e-02) (56, -1.03429175913333892822e-01) (57, 4.62698005139827728271e-03) (58, 1.87209665775299072266e-01) (59, 8.11459776014089584351e-03) (60, 2.88733363151550292969e-01) (61, 1.69534355401992797852e-01) (62, 8.16908571869134902954e-03) (63, -6.43403530120849609375e-02) (64, 1.39629095792770385742e-01) (44, 7.04235494136810302734e-01) (45, 4.50022369623184204102e-01) (46, 3.57304215431213378906e-01) (47, 1.85018956661224365234e-01) (48, 2.02372938394546508789e-01) (49, 5.26061773300170898438e-01) (50, 2.03660652041435241699e-01) (51, -4.30538475513458251953e-01) (52, 1.81997492909431457520e-01) (53, 4.26093399524688720703e-01) (54, 9.12796258926391601562e-02) (55, -2.48024091124534606934e-01) (56, -2.94124353677034378052e-02) (57, 3.62370423972606658936e-02) (58, 1.28488406538963317871e-01) (59, -1.36291027069091796875e-01) (60, -1.80747568607330322266e-01) (61, 2.84447789192199707031e-01) (62, 2.91416287422180175781e-01) (63, -2.17353120446205139160e-01) (64, 1.68570488691329956055e-01) (44, 5.60775518417358398438e-01) (45, 3.10970306396484375000e-01) (46, -1.62709385156631469727e-01) (47, 5.36216422915458679199e-02) (48, 1.38196021318435668945e-01) (49, 6.05860292911529541016e-01) (50, 2.49229758977890014648e-01) (51, 2.57118314504623413086e-01) (52, 3.05215418338775634766e-01) (53, -4.81566973030567169189e-02) (54, 4.58206802606582641602e-01) (55, -1.67113125324249267578e-01) (56, -3.42578083276748657227e-01) (57, 2.43264257907867431641e-01) (58, 3.18467289209365844727e-01) (59, -1.71004995703697204590e-01) (60, 4.51669067144393920898e-01) (61, 2.32382059097290039062e-01) (62, -3.95922213792800903320e-01) (63, 2.41869658231735229492e-01) (64, 3.14357340335845947266e-01) (44, 5.60772538185119628906e-01) (45, 3.86169195175170898438e-01) (46, 2.36846789717674255371e-01) (47, 2.62833356857299804688e-01) (48, 2.23616021685302257538e-03) (49, 5.28244078159332275391e-01) (50, 2.95669019222259521484e-01) (51, -2.00200118124485015869e-02) (52, 2.37217545509338378906e-01) (53, -2.35458940267562866211e-01) (54, 3.87699872255325317383e-01) (55, -3.18213701248168945312e-01) (56, -3.04276823997497558594e-01) (57, 3.14230024814605712891e-01) (58, 3.09281706809997558594e-01) (59, -3.44930320978164672852e-01) (60, -9.62139107286930084229e-03) (61, 2.84607261419296264648e-01) (62, 3.43592673540115356445e-01) (63, 7.15265944600105285645e-02) (64, 1.65446549654006958008e-01) (44, 7.27235436439514160156e-01) (45, 3.69114726781845092773e-01) (46, 7.42568746209144592285e-02) (47, 4.15068753063678741455e-02) (48, 9.09270122647285461426e-02) (49, 5.95327854156494140625e-01) (50, 8.73535051941871643066e-02) (51, 5.53686358034610748291e-02) (52, 2.16386169195175170898e-01) (53, 1.11723124980926513672e-01) (54, 2.97554105520248413086e-01) (55, -6.10921420156955718994e-02) (56, -1.03076338768005371094e-01) (57, 1.91751420497894287109e-01) (58, 7.82848149538040161133e-02) (59, -7.73582160472869873047e-02) (60, 3.89290779829025268555e-01) (61, 3.96509796380996704102e-01) (62, -8.59557650983333587646e-04) (63, -1.08195297420024871826e-01) (64, 1.60060450434684753418e-01) (44, 5.74212431907653808594e-01) (45, 3.14884722232818603516e-01) (46, 1.90227329730987548828e-01) (47, 1.09719485044479370117e-02) (48, 7.82706495374441146851e-03) (49, 4.63364452123641967773e-01) (50, 2.14314699172973632812e-01) (51, 1.92154720425605773926e-01) (52, 2.43041142821311950684e-01) (53, 1.14776343107223510742e-01) (54, 2.48814955353736877441e-01) (55, -4.38349023461341857910e-02) (56, -1.24472059309482574463e-01) (57, 7.94053375720977783203e-02) (58, 9.77129489183425903320e-02) (59, -4.99294474720954895020e-02) (60, -1.21763721108436584473e-01) (61, 2.73800760507583618164e-01) (62, 1.20601318776607513428e-01) (63, -1.03490337729454040527e-01) (64, 1.23763285577297210693e-01) (44, 6.68378412723541259766e-01) (45, 4.23378944396972656250e-01) (46, 3.34123857319355010986e-02) (47, 1.32747486233711242676e-01) (48, 8.62869396805763244629e-02) (49, 6.44984960556030273438e-01) (50, 7.60227888822555541992e-02) (51, -2.51081176102161407471e-02) (52, 2.71434754133224487305e-01) (53, 1.83967784047126770020e-01) (54, -1.78529676049947738647e-02) (55, -7.16869393363595008850e-03) (56, -9.98889580368995666504e-02) (57, 1.89148485660552978516e-01) (58, 1.27269148826599121094e-01) (59, -3.53856012225151062012e-02) (60, 4.12150442600250244141e-01) (61, 3.71811240911483764648e-01) (62, 1.24866180121898651123e-01) (63, -9.49956700205802917480e-02) (64, 1.23243987560272216797e-01) (44, 8.17534446716308593750e-01) (45, 4.85080271959304809570e-01) (46, 8.25280789285898208618e-03) (47, 1.71329423785209655762e-01) (48, -6.42501376569271087646e-03) (49, 5.56144475936889648438e-01) (50, 6.88188448548316955566e-02) (51, 1.31850883364677429199e-01) (52, 2.00647279620170593262e-01) (53, 2.04209074378013610840e-01) (54, 1.02574072778224945068e-01) (55, 2.31675412505865097046e-02) (56, -7.07448422908782958984e-02) (57, 1.67498737573623657227e-02) (58, 1.23075798153877258301e-01) (59, -3.29850353300571441650e-02) (60, 4.16993021965026855469e-01) (61, 2.82876968383789062500e-01) (62, 4.17552962899208068848e-02) (63, -2.48257189989089965820e-01) (64, 1.39039024710655212402e-01) (44, 6.46319091320037841797e-01) (45, 4.65650022029876708984e-01) (46, 1.63121912628412246704e-02) (47, 1.02875202894210815430e-01) (48, -7.04923318699002265930e-03) (49, 5.29260754585266113281e-01) (50, 5.50559870898723602295e-02) (51, 1.20514802634716033936e-01) (52, 1.95828542113304138184e-01) (53, 2.44286045432090759277e-01) (54, 9.89216044545173645020e-02) (55, 6.43570674583315849304e-03) (56, -8.57949182391166687012e-02) (57, 6.65023252367973327637e-02) (58, -3.80585109815001487732e-03) (59, -7.12484270334243774414e-02) (60, 3.04449021816253662109e-01) (61, 2.87225067615509033203e-01) (62, 1.38737589120864868164e-01) (63, -2.10115462541580200195e-01) (64, 1.28387242555618286133e-01) (44, 7.53955721855163574219e-01) (45, 4.10535424947738647461e-01) (46, -4.28610779345035552979e-02) (47, 1.80647477507591247559e-01) (48, 1.37838516384363174438e-02) (49, 4.51173335313796997070e-01) (50, 1.68380692601203918457e-01) (51, 7.22754076123237609863e-02) (52, 1.55351385474205017090e-01) (53, 1.12663209438323974609e-01) (54, 4.94484640657901763916e-02) (55, -9.25193205475807189941e-02) (56, -1.18462838232517242432e-01) (57, 4.42599579691886901855e-02) (58, 1.59934252500534057617e-01) (59, -1.17981761693954467773e-01) (60, 3.97478222846984863281e-01) (61, 2.93852895498275756836e-01) (62, 8.36173295974731445312e-02) (63, -2.03969880938529968262e-01) (64, 1.16185836493968963623e-01) (44, 7.13288307189941406250e-01) (45, 3.47831755876541137695e-01) (46, 2.40265056490898132324e-01) (47, 1.59115970134735107422e-01) (48, -1.35274827480316162109e-01) (49, 4.49645370244979858398e-01) (50, 2.06394910812377929688e-01) (51, 5.87605610489845275879e-02) (52, 1.41117185354232788086e-01) (53, 1.22708514332771301270e-01) (54, 3.65310281515121459961e-01) (55, 6.39826953411102294922e-02) (56, -1.91521793603897094727e-01) (57, 1.86169669032096862793e-01) (58, 1.76862284541130065918e-01) (59, -1.97170272469520568848e-01) (60, -1.03200741112232208252e-01) (61, 1.90065860748291015625e-01) (62, 2.56176203489303588867e-01) (63, -2.07902833819389343262e-01) (64, 1.04286424815654754639e-01) (44, 6.10015213489532470703e-01) (45, 4.60766524076461791992e-01) (46, 2.62223094701766967773e-01) (47, 7.87962302565574645996e-02) (48, -5.75523115694522857666e-02) (49, 4.88710343837738037109e-01) (50, 3.17403078079223632812e-01) (51, 1.92480489611625671387e-01) (52, 1.49049445986747741699e-01) (53, 2.20496013760566711426e-01) (54, 3.34931015968322753906e-01) (55, -2.05158554017543792725e-02) (56, -2.36757412552833557129e-01) (57, 9.51064005494117736816e-02) (58, 3.27994346618652343750e-01) (59, -2.51123428344726562500e-01) (60, -2.20610097050666809082e-01) (61, 1.16158977150917053223e-01) (62, 1.88695102930068969727e-01) (63, -7.27241411805152893066e-02) (64, -2.47195857809856534004e-04) (44, 7.58976817131042480469e-01) (45, 4.62202519178390502930e-01) (46, -5.38234822452068328857e-02) (47, 3.13525535166263580322e-02) (48, 8.54750350117683410645e-02) (49, 4.93774652481079101562e-01) (50, 3.08152325451374053955e-02) (51, 1.25744134187698364258e-01) (52, 1.99239432811737060547e-01) (53, 2.20954015851020812988e-01) (54, 1.01951854303479194641e-02) (55, 5.88773787021636962891e-02) (56, -3.50418128073215484619e-02) (57, 9.64310299605131149292e-03) (58, 6.35122582316398620605e-02) (59, 8.26251357793807983398e-02) (60, 3.55045884847640991211e-01) (61, 1.52262851595878601074e-01) (62, 8.90023261308670043945e-02) (63, -1.36041298508644104004e-01) (64, 1.29995897412300109863e-01) (44, 7.99427688121795654297e-01) (45, 4.59986567497253417969e-01) (46, 6.87598213553428649902e-02) (47, 1.27296879887580871582e-01) (48, 1.34460076689720153809e-01) (49, 5.37566065788269042969e-01) (50, 3.77633459866046905518e-02) (51, -1.16347866132855415344e-02) (52, 1.33733749389648437500e-01) (53, 1.60574823617935180664e-01) (54, 1.29197686910629272461e-01) (55, -6.35343939065933227539e-02) (56, 3.63485305570065975189e-03) (57, -1.64710264652967453003e-02) (58, 1.64724588394165039062e-02) (59, 4.29709665477275848389e-02) (60, 3.84778589010238647461e-01) (61, 3.13093632459640502930e-01) (62, 7.29411989450454711914e-02) (63, -1.58849254250526428223e-01) (64, 1.96045413613319396973e-01) (44, 7.26557195186614990234e-01) (45, 3.71365636587142944336e-01) (46, -3.56023684144020080566e-02) (47, 1.11410319805145263672e-01) (48, 3.94435189664363861084e-02) (49, 5.58992803096771240234e-01) (50, 1.04055292904376983643e-01) (51, 1.24966740608215332031e-01) (52, 2.10363224148750305176e-01) (53, 8.95976051688194274902e-02) (54, 1.10167339444160461426e-01) (55, 2.79035214334726333618e-02) (56, -1.32499337196350097656e-01) (57, 7.66718983650207519531e-02) (58, 1.41134738922119140625e-01) (59, -4.32136580348014831543e-02) (60, 3.92318546772003173828e-01) (61, 3.46804767847061157227e-01) (62, 1.13110832870006561279e-01) (63, -1.45331948995590209961e-01) (64, 1.29127562046051025391e-01) (44, 6.81406080722808837891e-01) (45, 4.45921570062637329102e-01) (46, 1.82400748133659362793e-01) (47, 1.97369277477264404297e-01) (48, 1.50358667597174644470e-02) (49, 4.39373999834060668945e-01) (50, 2.14542731642723083496e-01) (51, -8.16917940974235534668e-02) (52, 1.16521254181861877441e-01) (53, 7.95560479164123535156e-02) (54, 3.52692931890487670898e-01) (55, 8.53272341191768646240e-03) (56, -6.74553960561752319336e-02) (57, 9.86903905868530273438e-02) (58, 1.14818647503852844238e-01) (59, -1.34275481104850769043e-01) (60, -1.59587204456329345703e-01) (61, 1.26223549246788024902e-01) (62, 2.12364852428436279297e-01) (63, -1.79185211658477783203e-01) (64, 1.72528952360153198242e-01) (44, 7.03170955181121826172e-01) (45, 4.44082677364349365234e-01) (46, -1.03071918711066246033e-02) (47, 1.16831529885530471802e-02) (48, 1.11958041787147521973e-01) (49, 5.15105664730072021484e-01) (50, 1.65511608123779296875e-01) (51, 3.10365296900272369385e-02) (52, 1.94866850972175598145e-01) (53, 1.54000431299209594727e-01) (54, 2.90180556476116180420e-04) (55, -6.58833086490631103516e-02) (56, -1.06540739536285400391e-01) (57, 1.44488856196403503418e-01) (58, 1.74433082342147827148e-01) (59, -4.14645187556743621826e-02) (60, 3.63635569810867309570e-01) (61, 2.14545428752899169922e-01) (62, 6.56235776841640472412e-03) (63, -1.67475081980228424072e-02) (64, 1.66191682219505310059e-01) (44, 6.93700850009918212891e-01) (45, 4.23841297626495361328e-01) (46, 3.15376490354537963867e-01) (47, 1.62818014621734619141e-01) (48, -6.52424395084381103516e-02) (49, 4.52836453914642333984e-01) (50, 2.22308158874511718750e-01) (51, 5.22113479673862457275e-02) (52, 7.47467875480651855469e-02) (53, 1.52891352772712707520e-01) (54, 3.75988632440567016602e-01) (55, -1.18426848202943801880e-02) (56, -2.35122144222259521484e-01) (57, 1.37516275048255920410e-01) (58, 2.57172673940658569336e-01) (59, -2.55527079105377197266e-01) (60, -1.34747087955474853516e-01) (61, 8.44334959983825683594e-02) (62, 2.21766307950019836426e-01) (63, -9.02896672487258911133e-02) (64, 1.64984345436096191406e-01) (44, 6.05728864669799804688e-01) (45, 4.01723742485046386719e-01) (46, 1.58237129449844360352e-01) (47, 2.77525693178176879883e-01) (48, 5.51783926784992218018e-02) (49, 4.19922024011611938477e-01) (50, 2.28683546185493469238e-01) (51, -1.40993535518646240234e-01) (52, 1.52249753475189208984e-01) (53, 1.96045041084289550781e-02) (54, 1.45429894328117370605e-01) (55, -8.65910649299621582031e-02) (56, -1.73133403062820434570e-01) (57, 1.32876142859458923340e-01) (58, 3.06654423475265502930e-01) (59, -1.20355390012264251709e-01) (60, -1.49392440915107727051e-01) (61, 1.30473494529724121094e-01) (62, 2.82054483890533447266e-01) (63, -8.54361876845359802246e-02) (64, 1.15583948791027069092e-01) (44, 6.66262805461883544922e-01) (45, 3.93571496009826660156e-01) (46, 3.03311198949813842773e-01) (47, 8.87834280729293823242e-02) (48, -8.32748636603355407715e-02) (49, 4.75365757942199707031e-01) (50, 2.37534031271934509277e-01) (51, 2.07036405801773071289e-01) (52, 1.51473850011825561523e-01) (53, 1.27058655023574829102e-01) (54, 2.75664597749710083008e-01) (55, -9.31668877601623535156e-02) (56, -3.02021324634552001953e-01) (57, 1.13303221762180328369e-01) (58, 1.77106231451034545898e-01) (59, -1.35191887617111206055e-01) (60, -5.32524660229682922363e-02) (61, 1.88928321003913879395e-01) (62, 2.14188411831855773926e-01) (63, -3.07127069681882858276e-02) (64, 1.68158918619155883789e-01) (44, 7.99466669559478759766e-01) (45, 5.36431908607482910156e-01) (46, 4.12911176681518554688e-02) (47, 9.89224240183830261230e-02) (48, 5.42802587151527404785e-02) (49, 5.58139085769653320312e-01) (50, 1.42994657158851623535e-01) (51, 4.99804876744747161865e-02) (52, 1.50730952620506286621e-01) (53, 2.24634245038032531738e-01) (54, 1.98193311691284179688e-01) (55, -2.75268796831369400024e-02) (56, -1.10543698072433471680e-01) (57, 1.00247271358966827393e-01) (58, 1.43514350056648254395e-01) (59, -1.44424065947532653809e-01) (60, 2.75060534477233886719e-01) (61, 2.22599610686302185059e-01) (62, 1.44119203090667724609e-01) (63, -1.50495231151580810547e-01) (64, 1.21510326862335205078e-01) (44, 7.18157351016998291016e-01) (45, 3.90074491500854492188e-01) (46, 7.19453766942024230957e-02) (47, 4.70689535140991210938e-02) (48, -2.29710564017295837402e-02) (49, 4.83131408691406250000e-01) (50, 1.10888883471488952637e-01) (51, 3.19895334541797637939e-02) (52, 1.66809692978858947754e-01) (53, 1.93105667829513549805e-01) (54, -3.83197255432605743408e-02) (55, 1.71028636395931243896e-02) (56, 1.05066958349198102951e-03) (57, 1.07770651578903198242e-01) (58, -1.53599157929420471191e-02) (59, -3.20335999131202697754e-02) (60, 3.86550366878509521484e-01) (61, 3.07350575923919677734e-01) (62, 1.40610873699188232422e-01) (63, -2.19659864902496337891e-01) (64, 1.00928477942943572998e-01) (44, 7.66814768314361572266e-01) (45, 3.89999181032180786133e-01) (46, -1.65610685944557189941e-02) (47, 1.18177056312561035156e-01) (48, 3.14258299767971038818e-02) (49, 4.91026461124420166016e-01) (50, 1.72726046293973922729e-02) (51, 1.65582280606031417847e-02) (52, 1.42818644642829895020e-01) (53, 2.43077039718627929688e-01) (54, 3.22837531566619873047e-02) (55, -8.22653714567422866821e-03) (56, -1.55336230993270874023e-01) (57, 1.40788108110427856445e-01) (58, 9.49617773294448852539e-02) (59, -1.07780277729034423828e-01) (60, 4.01301562786102294922e-01) (61, 2.79641181230545043945e-01) (62, 1.86378017067909240723e-01) (63, -1.85982108116149902344e-01) (64, 1.83956846594810485840e-01) (44, 6.33198976516723632812e-01) (45, 3.49902540445327758789e-01) (46, 2.52269089221954345703e-01) (47, 1.76266476511955261230e-01) (48, -3.56811583042144775391e-02) (49, 3.87216597795486450195e-01) (50, 1.19255207479000091553e-01) (51, -1.83976396918296813965e-01) (52, 5.60682676732540130615e-02) (53, 1.22713215649127960205e-01) (54, 2.24863246083259582520e-01) (55, -4.05726097524166107178e-02) (56, -9.98263135552406311035e-02) (57, 2.41168260574340820312e-01) (58, 2.77487486600875854492e-01) (59, -3.14753562211990356445e-01) (60, -5.55979907512664794922e-02) (61, 6.83970823884010314941e-02) (62, 2.50542491674423217773e-01) (63, -3.07915564626455307007e-02) (64, 1.92688420414924621582e-01) (44, 7.15220391750335693359e-01) (45, 5.52780985832214355469e-01) (46, -4.65722233057022094727e-02) (47, 1.88564062118530273438e-01) (48, 3.92020456492900848389e-02) (49, 4.72666591405868530273e-01) (50, 1.19442291557788848877e-01) (51, 2.87208426743745803833e-02) (52, 1.53741434216499328613e-01) (53, 1.61286249756813049316e-01) (54, 6.94781914353370666504e-02) (55, -2.85218637436628341675e-02) (56, -9.29522588849067687988e-02) (57, 3.45529690384864807129e-02) (58, 5.06125986576080322266e-02) (59, -1.07821421697735786438e-02) (60, 3.31440627574920654297e-01) (61, 1.59083262085914611816e-01) (62, 1.23441338539123535156e-01) (63, -2.19542443752288818359e-01) (64, 1.16690389811992645264e-01) (44, 5.87552011013031005859e-01) (45, 3.18146616220474243164e-01) (46, 1.90365180373191833496e-01) (47, 2.79252022504806518555e-01) (48, 1.33263438940048217773e-01) (49, 3.81629735231399536133e-01) (50, 1.57352522015571594238e-01) (51, -1.59128159284591674805e-01) (52, 2.30098664760589599609e-02) (53, 2.28804890066385269165e-02) (54, 2.59968698024749755859e-01) (55, -1.28477081656455993652e-01) (56, -8.45004245638847351074e-02) (57, -1.15683709736913442612e-03) (58, 1.85742825269699096680e-01) (59, -1.61761656403541564941e-01) (60, -2.14092452079057693481e-02) (61, 1.74051061272621154785e-01) (62, 2.54103869199752807617e-01) (63, -4.14091311395168304443e-02) (64, 1.30394116044044494629e-01) (44, 5.74825942516326904297e-01) (45, 4.30290341377258300781e-01) (46, 2.28006899356842041016e-01) (47, -2.38595809787511825562e-02) (48, 2.02528759837150573730e-02) (49, 4.77315455675125122070e-01) (50, 1.81910783052444458008e-01) (51, 4.10275049507617950439e-02) (52, 1.72811329364776611328e-01) (53, 9.79590788483619689941e-02) (54, 3.59388023614883422852e-01) (55, 5.68556189537048339844e-02) (56, -1.80447176098823547363e-02) (57, 1.24766826629638671875e-01) (58, 1.16422824561595916748e-01) (59, -5.95232024788856506348e-02) (60, -2.29349061846733093262e-01) (61, 1.74795687198638916016e-01) (62, 1.54979452490806579590e-01) (63, -1.40086352825164794922e-01) (64, 9.41660851240158081055e-02) (44, 7.65549957752227783203e-01) (45, 5.25126934051513671875e-01) (46, -2.13485192507505416870e-02) (47, 1.66374921798706054688e-01) (48, 8.07564333081245422363e-02) (49, 6.00710749626159667969e-01) (50, 1.18542507290840148926e-01) (51, 1.02840950712561607361e-02) (52, 2.11881577968597412109e-01) (53, 2.37448364496231079102e-01) (54, 1.62491053342819213867e-02) (55, -2.33285734429955482483e-03) (56, -7.48554840683937072754e-02) (57, 7.07695335149765014648e-02) (58, 7.01211690902709960938e-02) (59, -4.97444607317447662354e-02) (60, 3.40208619832992553711e-01) (61, 3.02986800670623779297e-01) (62, 1.82881459593772888184e-01) (63, -2.00501933693885803223e-01) (64, 1.30525186657905578613e-01) (44, 7.13694930076599121094e-01) (45, 4.73204016685485839844e-01) (46, 2.21171408891677856445e-01) (47, 1.40233919024467468262e-01) (48, -1.91144961863756179810e-02) (49, 5.16125440597534179688e-01) (50, 1.33541956543922424316e-01) (51, 1.49987265467643737793e-01) (52, 2.17507809400558471680e-01) (53, -8.89743585139513015747e-03) (54, 2.75156080722808837891e-01) (55, -4.61943820118904113770e-02) (56, -1.86787992715835571289e-01) (57, 5.54669946432113647461e-02) (58, 2.74051368236541748047e-01) (59, -4.22440608963370323181e-03) (60, -1.02269016206264495850e-01) (61, 1.86189010739326477051e-01) (62, 2.40468338131904602051e-01) (63, -9.75335463881492614746e-02) (64, 1.69922873377799987793e-01) (44, 5.83884060382843017578e-01) (45, 3.57115864753723144531e-01) (46, 1.46450594067573547363e-01) (47, 2.10467934608459472656e-01) (48, 2.55060382187366485596e-02) (49, 3.80666792392730712891e-01) (50, 1.83898225426673889160e-01) (51, -2.07006469368934631348e-01) (52, 9.75259393453598022461e-02) (53, 7.37868696451187133789e-02) (54, 1.50424793362617492676e-01) (55, -5.92778362333774566650e-02) (56, -1.48372814059257507324e-01) (57, 2.37420931458473205566e-01) (58, 2.18979448080062866211e-01) (59, -2.06502586603164672852e-01) (60, -1.68573539704084396362e-02) (61, 8.14087688922882080078e-02) (62, 2.66638517379760742188e-01) (63, -3.60957495868206024170e-02) (64, 1.36538580060005187988e-01) (44, 7.53888428211212158203e-01) (45, 4.35261726379394531250e-01) (46, 3.72241437435150146484e-01) (47, -4.79989796876907348633e-02) (48, -8.32888558506965637207e-02) (49, 3.44205409288406372070e-01) (50, 6.79822325706481933594e-01) (51, 4.75078672170639038086e-02) (52, 1.37605220079421997070e-01) (53, 1.86993509531021118164e-01) (54, -1.68241068720817565918e-01) (55, -2.00655385851860046387e-01) (56, 1.42681628465652465820e-01) (57, 1.65608059614896774292e-02) (58, -4.93296645581722259521e-02) (59, -1.80735230445861816406e-01) (60, -6.27385750412940979004e-02) (61, 3.03467869758605957031e-01) (62, 5.32576814293861389160e-02) (63, -3.07489722967147827148e-01) (64, 5.43538406491279602051e-02) (44, 6.71667814254760742188e-01) (45, 4.86097544431686401367e-01) (46, 5.89832253754138946533e-02) (47, 8.37409272789955139160e-02) (48, 1.55716417357325553894e-02) (49, 5.83661437034606933594e-01) (50, 1.11413665115833282471e-01) (51, 3.55853326618671417236e-02) (52, 1.97684928774833679199e-01) (53, 2.47412756085395812988e-01) (54, 6.07939697802066802979e-02) (55, 1.02997489273548126221e-01) (56, -5.83092272281646728516e-02) (57, 1.20527371764183044434e-01) (58, 1.07975177466869354248e-01) (59, 1.84711012989282608032e-02) (60, 3.50101470947265625000e-01) (61, 2.56232738494873046875e-01) (62, -4.93202544748783111572e-03) (63, -1.99174866080284118652e-01) (64, 6.07623904943466186523e-02) (44, 6.52864336967468261719e-01) (45, 4.84334558248519897461e-01) (46, 3.38184416294097900391e-01) (47, 1.83194071054458618164e-01) (48, 5.27523048222064971924e-02) (49, 4.78564471006393432617e-01) (50, 1.31616026163101196289e-01) (51, -1.92450448870658874512e-01) (52, 8.96416977047920227051e-02) (53, 2.60139927268028259277e-02) (54, 2.63325750827789306641e-01) (55, -1.65821731090545654297e-01) (56, -3.24693992733955383301e-02) (57, 1.49747326970100402832e-01) (58, 3.00512373447418212891e-01) (59, -1.90846502780914306641e-01) (60, -6.91501423716545104980e-02) (61, 1.59152120351791381836e-01) (62, 2.64765232801437377930e-01) (63, -1.03996172547340393066e-02) (64, 1.18996813893318176270e-01) (44, 5.99421977996826171875e-01) (45, 3.89357119798660278320e-01) (46, 3.16467374563217163086e-01) (47, 1.59849271178245544434e-01) (48, -6.10899403691291809082e-02) (49, 4.17009562253952026367e-01) (50, 1.88882753252983093262e-01) (51, 8.39190110564231872559e-02) (52, 6.62358477711677551270e-02) (53, 9.41912755370140075684e-02) (54, 4.03595060110092163086e-01) (55, -7.19819441437721252441e-02) (56, -2.05602109432220458984e-01) (57, 6.83611184358596801758e-02) (58, 1.54008984565734863281e-01) (59, -2.09912449121475219727e-01) (60, -1.59176021814346313477e-01) (61, 1.73576489090919494629e-01) (62, 2.24958136677742004395e-01) (63, -1.24236270785331726074e-01) (64, 1.71385228633880615234e-01) (44, 6.52389526367187500000e-01) (45, 2.84356981515884399414e-01) (46, 2.94195264577865600586e-01) (47, 1.55369937419891357422e-01) (48, -1.30307212471961975098e-01) (49, 4.71734941005706787109e-01) (50, 1.78564161062240600586e-01) (51, 2.34044179320335388184e-01) (52, 1.56603083014488220215e-01) (53, 4.95897717773914337158e-02) (54, 2.74275481700897216797e-01) (55, 1.24803669750690460205e-02) (56, -2.12445512413978576660e-01) (57, 4.04001623392105102539e-02) (58, 3.16566616296768188477e-01) (59, -1.99851125478744506836e-01) (60, -9.35117155313491821289e-02) (61, 2.05087676644325256348e-01) (62, 2.07460597157478332520e-01) (63, -4.67713475227355957031e-02) (64, 1.85089871287345886230e-01) (44, 5.60403048992156982422e-01) (45, 4.99224215745925903320e-01) (46, 2.75124639272689819336e-01) (47, 1.82433739304542541504e-01) (48, -6.39282763004302978516e-02) (49, 5.14577984809875488281e-01) (50, 2.05642014741897583008e-01) (51, 1.29792734980583190918e-01) (52, 1.14470370113849639893e-01) (53, 1.30786031484603881836e-01) (54, 4.22019153833389282227e-01) (55, -1.26233696937561035156e-01) (56, -4.14907664060592651367e-01) (57, 1.93256974220275878906e-01) (58, 2.16564863920211791992e-01) (59, -2.58243322372436523438e-01) (60, -6.60185813903808593750e-02) (61, 9.65806543827056884766e-02) (62, 1.92952379584312438965e-01) (63, 5.50260804593563079834e-02) (64, 2.44736656546592712402e-01) (44, 6.99726283550262451172e-01) (45, 4.39096748828887939453e-01) (46, 2.68072426319122314453e-01) (47, 2.43039634078741073608e-02) (48, -3.59238609671592712402e-02) (49, 4.47864800691604614258e-01) (50, 1.51335626840591430664e-01) (51, 1.47684529423713684082e-01) (52, 1.54688715934753417969e-01) (53, 8.96448045969009399414e-02) (54, 2.51271754503250122070e-01) (55, -7.66713470220565795898e-02) (56, -1.56041428446769714355e-01) (57, 9.65030863881111145020e-02) (58, 2.72665649652481079102e-01) (59, -1.24714441597461700439e-01) (60, -9.08051803708076477051e-02) (61, 1.44254356622695922852e-01) (62, 2.57679641246795654297e-01) (63, -6.68716281652450561523e-02) (64, 9.81279239058494567871e-02) (44, 6.84098601341247558594e-01) (45, 3.84611904621124267578e-01) (46, 1.68020173907279968262e-01) (47, -1.15282401442527770996e-01) (48, 2.31600314378738403320e-01) (49, 1.42320215702056884766e-01) (50, 2.15908512473106384277e-01) (51, -1.93083193153142929077e-02) (52, -4.18051071465015411377e-02) (53, -1.55695891007781028748e-02) (54, 1.72119259834289550781e-01) (55, 4.14980798959732055664e-01) (56, -1.26313909888267517090e-01) (57, 2.70201563835144042969e-02) (58, 2.44608893990516662598e-01) (59, -3.03084343671798706055e-01) (60, -2.12518703192472457886e-02) (61, -1.76880359649658203125e-01) (62, 2.57755279541015625000e-01) (63, -5.69506168365478515625e-01) (64, 2.24536359310150146484e-01) (44, 8.28023970127105712891e-01) (45, 5.96051812171936035156e-01) (46, 4.64594997465610504150e-02) (47, -3.00699435174465179443e-02) (48, 2.00375393033027648926e-01) (49, 5.34895420074462890625e-01) (50, 1.70678645372390747070e-01) (51, -1.60603318363428115845e-02) (52, 1.78262665867805480957e-01) (53, 2.60328292846679687500e-01) (54, 7.54451379179954528809e-02) (55, 2.74847805500030517578e-01) (56, -4.52323593199253082275e-02) (57, 7.88205862045288085938e-02) (58, -9.90187004208564758301e-03) (59, -1.92979611456394195557e-02) (60, 3.75819772481918334961e-01) (61, 1.48520976305007934570e-01) (62, 6.00582137703895568848e-02) (63, -4.29687261581420898438e-01) (64, 1.81885793805122375488e-01) (44, 5.23805141448974609375e-01) (45, 3.12157243490219116211e-01) (46, 9.96970832347869873047e-02) (47, 8.94227847456932067871e-02) (48, 1.09588466584682464600e-01) (49, 3.33644121885299682617e-01) (50, 1.71009197831153869629e-01) (51, -1.10198762267827987671e-02) (52, 1.05033636093139648438e-01) (53, 7.72620812058448791504e-02) (54, 2.35618680715560913086e-01) (55, 7.93812349438667297363e-02) (56, -2.40965977311134338379e-01) (57, 1.23173564672470092773e-01) (58, 1.82328164577484130859e-01) (59, -2.29167520999908447266e-01) (60, -8.47608968615531921387e-02) (61, 9.43503230810165405273e-02) (62, 2.16162681579589843750e-01) (63, -1.73066779971122741699e-01) (64, 2.39546090364456176758e-01) (44, 7.79315710067749023438e-01) (45, 4.16444122791290283203e-01) (46, -1.20136782526969909668e-01) (47, 7.07522705197334289551e-02) (48, 9.60889160633087158203e-02) (49, 4.42960560321807861328e-01) (50, 7.59666040539741516113e-02) (51, 5.83075322210788726807e-02) (52, 1.79036930203437805176e-01) (53, 1.99771374464035034180e-01) (54, -8.33951495587825775146e-03) (55, 9.80948433279991149902e-02) (56, -1.40130281448364257812e-01) (57, 8.05682018399238586426e-02) (58, 1.51964336633682250977e-01) (59, -1.83921363204717636108e-02) (60, 4.63712275028228759766e-01) (61, 2.29841828346252441406e-01) (62, 4.65377084910869598389e-02) (63, -3.08111011981964111328e-01) (64, 1.22894018888473510742e-01) (44, 7.66372382640838623047e-01) (45, 5.06871759891510009766e-01) (46, -3.50088924169540405273e-02) (47, 1.22532196342945098877e-01) (48, 1.19538731873035430908e-01) (49, 5.20986795425415039062e-01) (50, 6.63730800151824951172e-02) (51, -1.06219984591007232666e-02) (52, 1.32862001657485961914e-01) (53, 2.58426904678344726562e-01) (54, 7.79516026377677917480e-02) (55, 7.43628293275833129883e-02) (56, -4.17435579001903533936e-02) (57, 3.23291532695293426514e-02) (58, 8.89820791780948638916e-03) (59, -7.62407705187797546387e-02) (60, 4.37412261962890625000e-01) (61, 2.52628743648529052734e-01) (62, 6.38232082128524780273e-02) (63, -3.04155856370925903320e-01) (64, 1.90625905990600585938e-01) (44, 6.44308805465698242188e-01) (45, 4.29836869239807128906e-01) (46, 2.73411661386489868164e-01) (47, 1.26194924116134643555e-01) (48, 3.05131115019321441650e-02) (49, 4.74989265203475952148e-01) (50, 1.98072895407676696777e-01) (51, 9.77973118424415588379e-02) (52, 1.39455854892730712891e-01) (53, 3.44280116260051727295e-02) (54, 3.89918804168701171875e-01) (55, -7.06920772790908813477e-02) (56, -3.07570040225982666016e-01) (57, 1.12670943140983581543e-01) (58, 2.12655842304229736328e-01) (59, -8.70881527662277221680e-02) (60, -9.24109667539596557617e-02) (61, 1.66494652628898620605e-01) (62, 2.07016035914421081543e-01) (63, -6.27379119396209716797e-02) (64, 1.76591679453849792480e-01) (44, 8.39499533176422119141e-01) (45, 4.08695399761199951172e-01) (46, 7.81349912285804748535e-02) (47, 1.46339938044548034668e-01) (48, -4.97726164758205413818e-02) (49, 4.64357316493988037109e-01) (50, 1.40932500362396240234e-01) (51, 6.94392248988151550293e-02) (52, 1.17037214338779449463e-01) (53, 2.45632559061050415039e-01) (54, 1.55040584504604339600e-02) (55, -4.24251258373260498047e-02) (56, -1.99805572628974914551e-01) (57, 1.37866318225860595703e-01) (58, 1.70203089714050292969e-01) (59, -1.71096816658973693848e-01) (60, 4.85879927873611450195e-01) (61, 1.70417755842208862305e-01) (62, 