FANN_FLO_2.1
num_layers=5
learning_rate=0.700000
connection_rate=1.000000
network_type=0
learning_momentum=0.990000
training_algorithm=2
train_error_function=0
train_stop_function=0
cascade_output_change_fraction=0.010000
quickprop_decay=-0.000100
quickprop_mu=1.750000
rprop_increase_factor=1.200000
rprop_decrease_factor=0.500000
rprop_delta_min=0.000000
rprop_delta_max=50.000000
rprop_delta_zero=0.100000
cascade_output_stagnation_epochs=12
cascade_candidate_change_fraction=0.010000
cascade_candidate_stagnation_epochs=12
cascade_max_out_epochs=150
cascade_min_out_epochs=50
cascade_max_cand_epochs=150
cascade_min_cand_epochs=50
cascade_num_candidate_groups=2
bit_fail_limit=3.49999994039535522461e-01
cascade_candidate_limit=1.00000000000000000000e+03
cascade_weight_multiplier=4.00000005960464477539e-01
cascade_activation_functions_count=10
cascade_activation_functions=3 5 7 8 10 11 14 15 16 17 
cascade_activation_steepnesses_count=4
cascade_activation_steepnesses=2.50000000000000000000e-01 5.00000000000000000000e-01 7.50000000000000000000e-01 1.00000000000000000000e+00 
layer_sizes=2 11 11 11 127 
scale_included=0
neurons (num_inputs, activation_function, activation_steepness)=(0, 0, 0.00000000000000000000e+00) (0, 0, 0.00000000000000000000e+00) (2, 5, 5.00000000000000000000e-01) (2, 5, 5.00000000000000000000e-01) (2, 5, 5.00000000000000000000e-01) (2, 5, 5.00000000000000000000e-01) (2, 5, 5.00000000000000000000e-01) (2, 5, 5.00000000000000000000e-01) (2, 5, 5.00000000000000000000e-01) (2, 5, 5.00000000000000000000e-01) (2, 5, 5.00000000000000000000e-01) (2, 5, 5.00000000000000000000e-01) (0, 5, 0.00000000000000000000e+00) (11, 5, 5.00000000000000000000e-01) (11, 5, 5.00000000000000000000e-01) (11, 5, 5.00000000000000000000e-01) (11, 5, 5.00000000000000000000e-01) (11, 5, 5.00000000000000000000e-01) (11, 5, 5.00000000000000000000e-01) (11, 5, 5.00000000000000000000e-01) (11, 5, 5.00000000000000000000e-01) (11, 5, 5.00000000000000000000e-01) (11, 5, 5.00000000000000000000e-01) (0, 5, 0.00000000000000000000e+00) (11, 5, 5.00000000000000000000e-01) (11, 5, 5.00000000000000000000e-01) (11, 5, 5.00000000000000000000e-01) (11, 5, 5.00000000000000000000e-01) (11, 5, 5.00000000000000000000e-01) (11, 5, 5.00000000000000000000e-01) (11, 5, 5.00000000000000000000e-01) (11, 5, 5.00000000000000000000e-01) (11, 5, 5.00000000000000000000e-01) (11, 5, 5.00000000000000000000e-01) (0, 5, 0.00000000000000000000e+00) (11, 0, 5.00000000000000000000e-01) (11, 0, 5.00000000000000000000e-01) (11, 0, 5.00000000000000000000e-01) (11, 0, 5.00000000000000000000e-01) (11, 0, 5.00000000000000000000e-01) (11, 0, 5.00000000000000000000e-01) (11, 0, 5.00000000000000000000e-01) (11, 0, 5.00000000000000000000e-01) (11, 0, 5.00000000000000000000e-01) (11, 0, 5.00000000000000000000e-01) (11, 0, 5.00000000000000000000e-01) (11, 0, 5.00000000000000000000e-01) (11, 0, 5.00000000000000000000e-01) (11, 0, 5.00000000000000000000e-01) (11, 0, 5.00000000000000000000e-01) (11, 0, 5.00000000000000000000e-01) (11, 0, 5.00000000000000000000e-01) (11, 0, 5.00000000000000000000e-01) (11, 0, 5.00000000000000000000e-01) (11, 0, 5.00000000000000000000e-01) (11, 0, 5.00000000000000000000e-01) (11, 0, 5.00000000000000000000e-01) (11, 0, 5.00000000000000000000e-01) (11, 0, 5.00000000000000000000e-01) (11, 0, 5.00000000000000000000e-01) (11, 0, 5.00000000000000000000e-01) (11, 0, 5.00000000000000000000e-01) (11, 0, 5.00000000000000000000e-01) (11, 0, 5.00000000000000000000e-01) (11, 0, 5.00000000000000000000e-01) (11, 0, 5.00000000000000000000e-01) (11, 0, 5.00000000000000000000e-01) (11, 0, 5.00000000000000000000e-01) (11, 0, 5.00000000000000000000e-01) (11, 0, 5.00000000000000000000e-01) (11, 0, 5.00000000000000000000e-01) (11, 0, 5.00000000000000000000e-01) (11, 0, 5.00000000000000000000e-01) (11, 0, 5.00000000000000000000e-01) (11, 0, 5.00000000000000000000e-01) (11, 0, 5.00000000000000000000e-01) (11, 0, 5.00000000000000000000e-01) (11, 0, 5.00000000000000000000e-01) (11, 0, 5.00000000000000000000e-01) (11, 0, 5.00000000000000000000e-01) (11, 0, 5.00000000000000000000e-01) (11, 0, 5.00000000000000000000e-01) (11, 0, 5.00000000000000000000e-01) (11, 0, 5.00000000000000000000e-01) (11, 0, 5.00000000000000000000e-01) (11, 0, 5.00000000000000000000e-01) (11, 0, 5.00000000000000000000e-01) (11, 0, 5.00000000000000000000e-01) (11, 0, 5.00000000000000000000e-01) (11, 0, 5.00000000000000000000e-01) (11, 0, 5.00000000000000000000e-01) (11, 0, 5.00000000000000000000e-01) (11, 0, 5.00000000000000000000e-01) (11, 0, 5.00000000000000000000e-01) (11, 0, 5.00000000000000000000e-01) (11, 0, 5.00000000000000000000e-01) (11, 0, 5.00000000000000000000e-01) (11, 0, 5.00000000000000000000e-01) (11, 0, 5.00000000000000000000e-01) (11, 0, 5.00000000000000000000e-01) (11, 0, 5.00000000000000000000e-01) (11, 0, 5.00000000000000000000e-01) (11, 0, 5.00000000000000000000e-01) (11, 0, 5.00000000000000000000e-01) (11, 0, 5.00000000000000000000e-01) (11, 0, 5.00000000000000000000e-01) (11, 0, 5.00000000000000000000e-01) (11, 0, 5.00000000000000000000e-01) (11, 0, 5.00000000000000000000e-01) (11, 0, 5.00000000000000000000e-01) (11, 0, 5.00000000000000000000e-01) (11, 0, 5.00000000000000000000e-01) (11, 0, 5.00000000000000000000e-01) (11, 0, 5.00000000000000000000e-01) (11, 0, 5.00000000000000000000e-01) (11, 0, 5.00000000000000000000e-01) (11, 0, 5.00000000000000000000e-01) (11, 0, 5.00000000000000000000e-01) (11, 0, 5.00000000000000000000e-01) (11, 0, 5.00000000000000000000e-01) (11, 0, 5.00000000000000000000e-01) (11, 0, 5.00000000000000000000e-01) (11, 0, 5.00000000000000000000e-01) (11, 0, 5.00000000000000000000e-01) (11, 0, 5.00000000000000000000e-01) (11, 0, 5.00000000000000000000e-01) (11, 0, 5.00000000000000000000e-01) (11, 0, 5.00000000000000000000e-01) (11, 0, 5.00000000000000000000e-01) (11, 0, 5.00000000000000000000e-01) (11, 0, 5.00000000000000000000e-01) (11, 0, 5.00000000000000000000e-01) (11, 0, 5.00000000000000000000e-01) (11, 0, 5.00000000000000000000e-01) (11, 0, 5.00000000000000000000e-01) (11, 0, 5.00000000000000000000e-01) (11, 0, 5.00000000000000000000e-01) (11, 0, 5.00000000000000000000e-01) (11, 0, 5.00000000000000000000e-01) (11, 0, 5.00000000000000000000e-01) (11, 0, 5.00000000000000000000e-01) (11, 0, 5.00000000000000000000e-01) (11, 0, 5.00000000000000000000e-01) (11, 0, 5.00000000000000000000e-01) (11, 0, 5.00000000000000000000e-01) (11, 0, 5.00000000000000000000e-01) (11, 0, 5.00000000000000000000e-01) (11, 0, 5.00000000000000000000e-01) (11, 0, 5.00000000000000000000e-01) (11, 0, 5.00000000000000000000e-01) (11, 0, 5.00000000000000000000e-01) (11, 0, 5.00000000000000000000e-01) (11, 0, 5.00000000000000000000e-01) (11, 0, 5.00000000000000000000e-01) (11, 0, 5.00000000000000000000e-01) (11, 0, 5.00000000000000000000e-01) (11, 0, 5.00000000000000000000e-01) (11, 0, 5.00000000000000000000e-01) (11, 0, 5.00000000000000000000e-01) (11, 0, 5.00000000000000000000e-01) (11, 0, 5.00000000000000000000e-01) (0, 0, 0.00000000000000000000e+00) 
connections (connected_to_neuron, weight)=(0, 1.46256726074218750000e+03) (1, 1.13412597656250000000e+02) (0, -2.57362794876098632812e+00) (1, 3.97434730529785156250e+01) (0, 2.97439146379474550486e-05) (1, 4.40483713150024414062e+00) (0, 6.13683462142944335938e-02) (1, 3.82386436462402343750e+01) (0, -4.45207476615905761719e-01) (1, 6.72445678710937500000e+01) (0, -1.48138305664062500000e+03) (1, 1.06987625122070312500e+02) (0, -1.05944681167602539062e+01) (1, 1.67358016967773437500e+01) (0, -4.17869444936513900757e-03) (1, 1.49999987792968750000e+03) (0, -1.50000000000000000000e+03) (1, -1.66482101440429687500e+02) (0, -1.14731872558593750000e+03) (1, 9.49056339263916015625e+00) (2, 1.14715591073036193848e-01) (3, 8.18237423896789550781e-01) (4, 6.28919005393981933594e-01) (5, 8.14461946487426757812e-01) (6, 2.51657098531723022461e-01) (7, 2.83189296722412109375e-01) (8, 3.19308310747146606445e-01) (9, 8.34348797798156738281e-01) (10, 4.19251620769500732422e-01) (11, 1.40958547592163085938e+00) (12, 9.56054687500000000000e-01) (2, 6.44327926635742187500e+00) (3, -5.32832908630371093750e+00) (4, 1.65232486724853515625e+01) (5, 5.66927957534790039062e+00) (6, -7.88944244384765625000e+00) (7, -5.81059360504150390625e+00) (8, -7.74484932422637939453e-01) (9, 9.07815098762512207031e-01) (10, 1.39644765853881835938e+00) (11, -1.74125270843505859375e+01) (12, 1.41502356529235839844e+00) (2, 1.05134654045104980469e+00) (3, 1.53663921356201171875e+00) (4, 6.51290416717529296875e+00) (5, -3.73004078865051269531e-01) (6, -7.96564877033233642578e-01) (7, 6.18987143039703369141e-01) (8, 2.78069162368774414062e+00) (9, -3.90186190605163574219e-01) (10, -3.16437840461730957031e+00) (11, 1.13152712583541870117e-01) (12, 8.00627136230468750000e+00) (2, 2.08928182721138000488e-01) (3, 7.84241259098052978516e-01) (4, 3.58794853091239929199e-02) (5, -9.03750658035278320312e-02) (6, 2.28290438652038574219e-01) (7, 1.47868812084197998047e+00) (8, 7.25407540798187255859e-01) (9, 5.50978481769561767578e-02) (10, 4.04326356947422027588e-02) (11, -9.31625485420227050781e-01) (12, 1.62357139587402343750e+00) (2, 9.89754870533943176270e-02) (3, 6.61006331443786621094e-01) (4, 1.39371979236602783203e+00) (5, -4.24875356256961822510e-02) (6, -1.38804584741592407227e-01) (7, 8.36500644683837890625e-01) (8, 5.67100465297698974609e-01) (9, -1.42574742436408996582e-01) (10, -8.59161093831062316895e-02) (11, 6.01256668567657470703e-01) (12, 9.90719854831695556641e-01) (2, 1.91442406177520751953e+00) (3, -1.18886619567871093750e+02) (4, 3.07426881790161132812e+00) (5, 4.20289659500122070312e+00) (6, -9.63186073303222656250e+00) (7, -1.25036993026733398438e+01) (8, -6.22838554382324218750e+01) (9, 6.35732173919677734375e+00) (10, -3.08649802207946777344e+00) (11, -1.77703952789306640625e+01) (12, 5.66669273376464843750e+00) (2, 3.44392001628875732422e-01) (3, 1.25936162471771240234e+00) (4, 2.42120552062988281250e+00) (5, -1.04379057884216308594e+00) (6, -2.35761389136314392090e-01) (7, 9.83527541160583496094e-01) (8, 9.55713331699371337891e-01) (9, -8.99488329887390136719e-01) (10, -1.03129184246063232422e+00) (11, 5.13949692249298095703e-01) (12, 3.05843973159790039062e+00) (2, -1.68093979358673095703e+00) (3, 2.81236737966537475586e-01) (4, 8.14746093750000000000e+00) (5, 2.41045494079589843750e+01) (6, 2.78981447219848632812e-01) (7, -3.77979397773742675781e+00) (8, -4.87716197967529296875e+00) (9, 9.46158695220947265625e+00) (10, 5.39716720581054687500e+00) (11, -6.59102559089660644531e-01) (12, 9.58478450775146484375e+00) (2, -1.08910250663757324219e+00) (3, 8.79608452320098876953e-01) (4, 3.30232173204421997070e-01) (5, 1.96833860874176025391e+00) (6, 5.73707695007324218750e+01) (7, -1.44885301589965820312e-01) (8, 1.66105583310127258301e-01) (9, 1.98008680343627929688e+00) (10, 2.54716247320175170898e-01) (11, 5.38597166538238525391e-01) (12, 8.14669549465179443359e-01) (2, 8.44639396667480468750e+00) (3, -2.32870960235595703125e+00) (4, 1.06836354732513427734e+00) (5, 5.59167146682739257812e+00) (6, -1.05760216712951660156e+00) (7, -5.89925308227539062500e+01) (8, -4.97525215148925781250e+00) (9, 5.48427295684814453125e+00) (10, 9.36793289184570312500e+01) (11, -9.90981006622314453125e+00) (12, 1.33947420120239257812e+00) (13, -1.34888659667968750000e+03) (14, 2.55141906738281250000e+01) (15, 4.35635614395141601562e+00) (16, 6.44185733795166015625e+00) (17, -1.35990661621093750000e+03) (18, 1.71706405639648437500e+02) (19, 6.72679748535156250000e+02) (20, 9.77268981933593750000e+02) (21, 7.63472229003906250000e+02) (22, 1.17402966308593750000e+03) (23, 5.31898260116577148438e+00) (13, 2.02956588745117187500e+02) (14, -5.10678827762603759766e-01) (15, 6.90859746932983398438e+00) (16, -1.49999475097656250000e+03) (17, -1.49999987792968750000e+03) (18, 2.49974936246871948242e-01) (19, 1.43576989746093750000e+03) (20, 8.21043945312500000000e+02) (21, 7.75077270507812500000e+02) (22, -2.61464524269104003906e+00) (23, 4.48885488510131835938e+00) (13, 1.04354309082031250000e+03) (14, -2.88892817497253417969e+00) (15, 1.62796173095703125000e+01) (16, 1.50000000000000000000e+03) (17, 1.50000000000000000000e+03) (18, -1.74611318111419677734e+00) (19, 6.21541503906250000000e+02) (20, 9.78472351074218750000e+02) (21, 7.88765441894531250000e+02) (22, -7.73421466350555419922e-01) (23, 1.60714473724365234375e+01) (13, 1.26618298339843750000e+03) (14, 1.73177933692932128906e+00) (15, 9.56907081604003906250e+00) (16, 1.50000000000000000000e+03) (17, -1.47301501464843750000e+03) (18, 3.53730583190917968750e+01) (19, 6.34754272460937500000e+02) (20, 9.80372924804687500000e+02) (21, 7.91817749023437500000e+02) (22, 1.53780174255371093750e+01) (23, 9.50381851196289062500e+00) (13, 7.30322570800781250000e+02) (14, 8.14809381961822509766e-01) (15, 4.82898330688476562500e+01) (16, 1.50000000000000000000e+03) (17, -1.23699865341186523438e+01) (18, -3.32151859998703002930e-01) (19, 2.87716491699218750000e+02) (20, 5.70468473434448242188e+00) (21, 5.53156733512878417969e-01) (22, 3.18544566631317138672e-01) (23, 6.29374361038208007812e+00) (13, 1.72882485389709472656e+00) (14, 5.93574285507202148438e+00) (15, 2.55992484092712402344e+00) (16, 1.50000000000000000000e+03) (17, 9.30772781372070312500e+01) (18, 2.19597554206848144531e+00) (19, 6.35864562988281250000e+02) (20, 7.45962047576904296875e+00) (21, 1.41352045536041259766e+00) (22, 7.79816389083862304688e+00) (23, 1.09905519485473632812e+01) (13, 1.02124572753906250000e+03) (14, 1.83704400062561035156e+00) (15, 2.22149801254272460938e+00) (16, 1.50000000000000000000e+03) (17, -1.48848925781250000000e+03) (18, -4.77500963211059570312e+00) (19, 1.49999975585937500000e+03) (20, -1.23662889003753662109e+00) (21, 8.31996726989746093750e+00) (22, 1.26272781372070312500e+02) (23, 3.29657697677612304688e+00) (13, 1.29391956329345703125e+00) (14, -7.53443479537963867188e+00) (15, -2.02091240882873535156e+00) (16, 1.50000000000000000000e+03) (17, 1.13842185974121093750e+02) (18, 2.26525306701660156250e+01) (19, 9.34226257324218750000e+02) (20, 5.47318172454833984375e+00) (21, 3.42014002799987792969e+00) (22, 9.57342243194580078125e+00) (23, -6.11430644989013671875e-01) (13, 1.82539582252502441406e+00) (14, -3.52458357810974121094e+00) (15, -9.98482322692871093750e+00) (16, -4.39578643798828125000e+02) (17, 6.61393940448760986328e-01) (18, -9.41533029079437255859e-01) (19, 5.80414819717407226562e+00) (20, -8.30255222320556640625e+00) (21, 2.04154586791992187500e+01) (22, 5.39600515365600585938e+00) (23, -1.20993385314941406250e+01) (13, 2.33898806571960449219e+00) (14, 3.78383803367614746094e+00) (15, 4.45306510925292968750e+01) (16, 1.50000000000000000000e+03) (17, 1.25773468017578125000e+02) (18, 1.09831368923187255859e+00) (19, 3.73579681396484375000e+02) (20, 9.50411071777343750000e+01) (21, 4.53576713800430297852e-01) (22, 8.47074127197265625000e+00) (23, 9.55014114379882812500e+01) (24, -9.50474083423614501953e-01) (25, -3.72396171092987060547e-01) (26, -1.57636210322380065918e-01) (27, -2.37240806221961975098e-01) (28, 1.48285225033760070801e-01) (29, -1.08332443237304687500e+00) (30, -3.19380223751068115234e-01) (31, -1.68576881289482116699e-01) (32, -9.85430061817169189453e-01) (33, 9.36100006103515625000e+00) (34, 1.63586735725402832031e+00) (24, 8.10100972652435302734e-01) (25, 9.73161637783050537109e-01) (26, -1.43291622400283813477e-01) (27, 1.73691654205322265625e+00) (28, -1.20589524507522583008e-01) (29, 4.25130158662796020508e-01) (30, 3.49839866161346435547e-01) (31, 3.62765491008758544922e-01) (32, 7.01044380664825439453e-01) (33, -4.51641130447387695312e+00) (34, 2.71996450424194335938e+00) (24, 1.41011446714401245117e-01) (25, -1.52633130550384521484e-01) (26, -4.82153519988059997559e-02) (27, 7.18543946743011474609e-01) (28, -1.77912622690200805664e-01) (29, 2.47763097286224365234e-01) (30, 3.92806142568588256836e-01) (31, 1.64256691932678222656e-01) (32, 6.42550051212310791016e-01) (33, -2.56893610954284667969e+00) (34, 2.22840738296508789062e+00) (24, 6.27799937501549720764e-03) (25, -1.94464042782783508301e-01) (26, 6.73374906182289123535e-03) (27, 2.00944930315017700195e-01) (28, -1.62506908178329467773e-01) (29, 1.15201815962791442871e-01) (30, 2.75189489126205444336e-01) (31, 1.40328302979469299316e-01) (32, 3.63108694553375244141e-01) (33, -1.09785950183868408203e+00) (34, 1.10026311874389648438e+00) (24, -1.48684531450271606445e-02) (25, -1.78787410259246826172e-01) (26, 1.25873116776347160339e-02) (27, 1.31924927234649658203e-01) (28, -1.19293645024299621582e-01) (29, 9.61192995309829711914e-02) (30, 2.35001146793365478516e-01) (31, 1.35191485285758972168e-01) (32, 1.87790825963020324707e-01) (33, -7.20710277557373046875e-01) (34, 5.99358439445495605469e-01) (24, -6.32447795942425727844e-03) (25, -2.18368232250213623047e-01) (26, 1.34355220943689346313e-02) (27, 4.75653596222400665283e-02) (28, -8.31916034221649169922e-02) (29, 3.27210426330566406250e-02) (30, 1.01290710270404815674e-01) (31, 1.54023736715316772461e-01) (32, 8.98135304450988769531e-02) (33, -3.07508736848831176758e-01) (34, 3.53526413440704345703e-01) (24, -3.22761363349854946136e-03) (25, -1.15660466253757476807e-01) (26, 9.60567314177751541138e-03) (27, 3.78543371334671974182e-03) (28, -5.25479912757873535156e-02) (29, 1.90197341144084930420e-02) (30, 8.25079753994941711426e-02) (31, 9.39026698470115661621e-02) (32, 4.61389422416687011719e-02) (33, -1.85817390680313110352e-01) (34, 1.91408440470695495605e-01) (24, -1.90958997700363397598e-03) (25, -5.00911287963390350342e-02) (26, 1.84163241647183895111e-03) (27, 2.27649905718863010406e-03) (28, -3.22706811130046844482e-02) (29, 1.12196477130055427551e-02) (30, 2.11310461163520812988e-02) (31, 5.52580393850803375244e-02) (32, 2.41902340203523635864e-02) (33, -7.94575437903404235840e-02) (34, 9.38066393136978149414e-02) (24, -2.29396554641425609589e-03) (25, -2.73061431944370269775e-02) (26, 8.25032242573797702789e-04) (27, 5.67659875378012657166e-03) (28, -1.90774388611316680908e-02) (29, 7.12266610935330390930e-03) (30, 9.47267748415470123291e-04) (31, 4.00177538394927978516e-02) (32, 1.40934735536575317383e-02) (33, -4.57858331501483917236e-02) (34, 4.96898554265499114990e-02) (24, -1.14604982081800699234e-03) (25, -4.83775697648525238037e-03) (26, 5.59595937374979257584e-04) (27, 1.89388310536742210388e-03) (28, -1.10185528174042701721e-02) (29, 3.05037829093635082245e-03) (30, -5.70375844836235046387e-03) (31, 6.16427417844533920288e-03) (32, 7.99648743122816085815e-03) (33, -4.07787831500172615051e-03) (34, 2.16575283557176589966e-02) (24, -1.07003201264888048172e-03) (25, -4.42963372915983200073e-03) (26, -7.31238033040426671505e-05) (27, 4.99830464832484722137e-04) (28, -6.70801987871527671814e-03) (29, 2.39510182291269302368e-03) (30, -5.75431331526488065720e-04) (31, 3.75777320004999637604e-03) (32, 4.37247846275568008423e-03) (33, -4.21466212719678878784e-03) (34, 1.23569620773196220398e-02) (24, -7.95246975030750036240e-04) (25, -1.28375983331352472305e-03) (26, 2.56118684774264693260e-04) (27, 7.13772024028003215790e-04) (28, -3.78458993509411811829e-03) (29, 9.89249208942055702209e-04) (30, -3.19180922815576195717e-04) (31, 1.24245439656078815460e-03) (32, 3.03097348660230636597e-03) (33, -1.37797102797776460648e-03) (34, 5.68124698475003242493e-03) (24, -3.52717615896835923195e-04) (25, -4.69380902359262108803e-04) (26, 3.16411314997822046280e-04) (27, 2.11307342397049069405e-04) (28, -2.07048724405467510223e-03) (29, 5.81093772780150175095e-04) (30, -8.00977635663002729416e-04) (31, -1.18970223411452025175e-04) (32, 2.11294018663465976715e-03) (33, 2.53292761044576764107e-04) (34, 3.07656265795230865479e-03) (24, -2.81260145129635930061e-04) (25, 1.82462623342871665955e-04) (26, 1.34494286612607538700e-04) (27, -4.11167304264381527901e-04) (28, -1.19691598229110240936e-03) (29, 3.90233268262818455696e-04) (30, -3.70714406017214059830e-05) (31, -3.88195359846577048302e-04) (32, 1.25929655041545629501e-03) (33, 1.04580707557033747435e-04) (34, 1.78649229928851127625e-03) (24, 4.19114599935710430145e-04) (25, -5.96420548390597105026e-04) (26, -1.49461295222863554955e-04) (27, -3.26427572872489690781e-04) (28, -5.09989215061068534851e-04) (29, 2.14423387660644948483e-04) (30, -2.75853817583993077278e-04) (31, 6.49759953375905752182e-04) (32, 3.53909039404243230820e-04) (33, -4.52798092737793922424e-04) (34, 7.64699361752718687057e-04) (24, -9.71463232417590916157e-05) (25, 1.80765381082892417908e-03) (26, 1.08807151264045387506e-04) (27, 4.82369214296340942383e-05) (28, -6.05275563430041074753e-04) (29, 2.88348062895238399506e-04) (30, -3.24354681652039289474e-04) (31, -3.30145179759711027145e-04) (32, 4.12301626056432723999e-04) (33, 6.49609661195427179337e-04) (34, -9.81077668257057666779e-04) (24, 1.77670764969661831856e-04) (25, 1.06655526906251907349e-03) (26, -1.52925058500841259956e-04) (27, -5.27982847415842115879e-05) (28, -1.31181092001497745514e-04) (29, -2.32152262469753623009e-04) (30, -4.73730760859325528145e-04) (31, -7.13200279278680682182e-05) (32, 4.17510658735409379005e-04) (33, 2.00631591724231839180e-04) (34, 4.54254404758103191853e-06) (24, -1.68288112035952508450e-04) (25, 3.56698787072673439980e-04) (26, -2.59866967098787426949e-04) (27, 1.71066814800724387169e-04) (28, 5.99867489654570817947e-04) (29, -1.40440126415342092514e-04) (30, -7.98258581198751926422e-04) (31, -9.39694073167629539967e-05) (32, 1.09335465822368860245e-03) (33, 4.39503637608140707016e-05) (34, 2.48701137024909257889e-04) (24, 3.07741574943065643311e-05) (25, 3.34183365339413285255e-04) (26, 1.41975877340883016586e-04) (27, -3.14150180201977491379e-04) (28, 1.78380054421722888947e-04) (29, 1.25538732390850782394e-04) (30, -1.68632890563458204269e-04) (31, -4.11680288380011916161e-04) (32, 4.47484781034290790558e-04) (33, 4.02535166358575224876e-04) (34, 7.36012530978769063950e-04) (24, -5.71428157854825258255e-04) (25, 6.77246600389480590820e-04) (26, 1.54516776092350482941e-04) (27, -2.63814072241075336933e-05) (28, 1.23954087030142545700e-04) (29, -2.91924690827727317810e-04) (30, 1.58210779773071408272e-04) (31, 5.18718850798904895782e-04) (32, 6.40221987850964069366e-04) (33, 2.92125041596591472626e-05) (34, -2.95173784252256155014e-04) (24, -5.84670633543282747269e-04) (25, 1.72273302450776100159e-03) (26, 3.57965109287761151791e-05) (27, -8.13239166745916008949e-05) (28, 5.12721133418381214142e-04) (29, 2.68876101472415030003e-05) (30, -1.41202777740545570850e-04) (31, -1.18418436613865196705e-04) (32, 1.09414104372262954712e-03) (33, 3.45454260241240262985e-04) (34, -1.53312401380389928818e-03) (24, 3.60185804311186075211e-04) (25, -8.07055475888773798943e-05) (26, 2.71315482677891850471e-04) (27, 3.42881277902051806450e-04) (28, 1.33796871523372828960e-04) (29, 2.90156203845981508493e-05) (30, 2.89708550553768873215e-04) (31, -4.63746022433042526245e-04) (32, -1.25759135698899626732e-04) (33, 5.15148625709116458893e-04) (34, 1.04737802757881581783e-04) (24, -3.95670620491728186607e-04) (25, 5.46961498912423849106e-04) (26, -2.90151569060981273651e-04) (27, 3.60789999831467866898e-04) (28, 4.79096837807446718216e-04) (29, -6.28973793936893343925e-05) (30, 1.10026285983622074127e-03) (31, -2.38833672483451664448e-05) (32, 8.18457512650638818741e-04) (33, -2.13582883588969707489e-04) (34, -1.33274204563349485397e-03) (24, -6.26586086582392454147e-04) (25, 1.61314179422333836555e-04) (26, -1.99551810510456562042e-04) (27, -4.86214354168623685837e-04) (28, 5.32804522663354873657e-04) (29, 5.47191011719405651093e-04) (30, 3.38377256412059068680e-04) (31, -6.02119362156372517347e-05) (32, 7.65651057008653879166e-04) (33, -1.46153804962523281574e-04) (34, 8.40514185256324708462e-05) (24, -4.25116071710363030434e-04) (25, 7.35504669137299060822e-04) (26, 1.06734180008061230183e-04) (27, -5.32756501343101263046e-04) (28, 2.27668468141928315163e-04) (29, -8.96139972610399127007e-05) (30, -4.09923522965982556343e-04) (31, -9.86848725005984306335e-04) (32, 4.89690341055393218994e-04) (33, 1.03396957274526357651e-03) (34, 1.56053225509822368622e-04) (24, -6.42404716927558183670e-04) (25, 2.20967674977146089077e-04) (26, -5.75624908378813415766e-05) (27, 3.70197638403624296188e-04) (28, 8.07640244602225720882e-05) (29, -2.57727457210421562195e-04) (30, -1.88627673196606338024e-04) (31, 7.40626652259379625320e-04) (32, 4.07033599913120269775e-04) (33, -5.02466980833560228348e-04) (34, -2.98371363896876573563e-04) (24, -2.98107799608260393143e-04) (25, 5.10896090418100357056e-04) (26, 3.68965047528035938740e-05) (27, 7.12264663889072835445e-05) (28, 7.06076680216938257217e-04) (29, 6.66616469970904290676e-05) (30, -2.21726659219712018967e-04) (31, -3.17535537760704755783e-04) (32, 1.08623609412461519241e-03) (33, 2.99097009701654314995e-04) (34, -1.89128972124308347702e-04) (24, -6.51954731438308954239e-04) (25, 1.51953916065394878387e-03) (26, 6.63197643007151782513e-05) (27, 6.50929796393029391766e-05) (28, 4.23373567173257470131e-04) (29, 9.08537986106239259243e-05) (30, -4.92756429594010114670e-04) (31, 3.62262071575969457626e-04) (32, 8.44148220494389533997e-04) (33, -3.86760541005060076714e-04) (34, -1.07896910049021244049e-03) (24, -2.31165613513439893723e-04) (25, 4.33116190833970904350e-04) (26, 2.19475594349205493927e-04) (27, 1.71189021784812211990e-04) (28, 2.63718917267397046089e-04) (29, 3.11809490085579454899e-05) (30, -3.03199165500700473785e-04) (31, -6.07520807534456253052e-04) (32, 4.06951265176758170128e-04) (33, 3.17967293085530400276e-04) (34, 5.88440962019376456738e-05) (24, -1.09154862002469599247e-05) (25, 4.94456209708005189896e-04) (26, 1.44922436447814106941e-04) (27, -6.71416404657065868378e-04) (28, 3.59457568265497684479e-04) (29, 4.12101508118212223053e-06) (30, 5.09153178427368402481e-04) (31, -4.76731831440702080727e-04) (32, 5.36806357558816671371e-04) (33, -2.19840905629098415375e-04) (34, 6.82226149365305900574e-04) (24, -4.51321771834045648575e-04) (25, -2.00793205294758081436e-04) (26, -3.86609433917328715324e-04) (27, 1.42203178256750106812e-04) (28, 6.39518257230520248413e-04) (29, 1.84654054464772343636e-04) (30, 7.35169087420217692852e-05) (31, 3.02564789308235049248e-04) (32, 7.95117288362234830856e-04) (33, 1.82692398084327578545e-04) (34, -1.31503315060399472713e-04) (24, 7.74360159994103014469e-06) (25, 3.09696712065488100052e-04) (26, 3.09080758597701787949e-04) (27, 5.30190358404070138931e-04) (28, 7.70519691286608576775e-05) (29, -2.03501302166841924191e-04) (30, 1.94174339412711560726e-04) (31, -1.91963437828235328197e-04) (32, 3.29146132571622729301e-04) (33, 1.94234002265147864819e-04) (34, -3.27381676470395177603e-05) (24, 1.41308133606798946857e-04) (25, -8.72406759299337863922e-04) (26, 2.35633080592378973961e-04) (27, 3.96492047002539038658e-04) (28, 4.72793471999466419220e-05) (29, 1.45915197208523750305e-04) (30, 6.97901487001217901707e-06) (31, -7.58287933422252535820e-05) (32, 3.52267437847331166267e-04) (33, 2.99438979709520936012e-04) (34, 9.19369282200932502747e-04) (24, -5.83842302148696035147e-05) (25, 1.07868239865638315678e-04) (26, -7.47142912587150931358e-05) (27, 1.92406456335447728634e-04) (28, 3.35312128299847245216e-04) (29, 1.13239322672598063946e-04) (30, -1.68116108397953212261e-04) (31, -9.87740204436704516411e-05) (32, 6.00303872488439083099e-04) (33, 3.24899563565850257874e-04) (34, 4.01358556700870394707e-04) (24, -2.97476624837145209312e-04) (25, 1.60553003661334514618e-03) (26, -1.38913339469581842422e-04) (27, 1.26925369841046631336e-05) (28, 3.84343526093289256096e-04) (29, -1.21539276733528822660e-04) (30, 1.32995759486220777035e-04) (31, -9.70445616985671222210e-05) (32, 7.74743966758251190186e-04) (33, 6.18594640400260686874e-04) (34, -1.31484959274530410767e-03) (24, -3.92327259760349988937e-04) (25, -4.11490473197773098946e-04) (26, -1.23194811749272048473e-04) (27, -5.21734589710831642151e-04) (28, 4.25173289841040968895e-04) (29, 5.43796573765575885773e-04) (30, 3.24969587381929159164e-04) (31, 2.88684619590640068054e-04) (32, 7.21649790648370981216e-04) (33, -5.14229541295208036900e-05) (34, 4.06873034080490469933e-04) (24, 2.20261703361757099628e-04) (25, 2.30620498768985271454e-03) (26, -1.46632199175655841827e-04) (27, 1.15310744149610400200e-04) (28, 3.10609233565628528595e-04) (29, 4.12466215493623167276e-05) (30, -1.84546850505284965038e-04) (31, -1.91601086407899856567e-03) (32, 2.48162978095933794975e-04) (33, 1.38922408223152160645e-03) (34, -1.51330092921853065491e-03) (24, -5.84103399887681007385e-04) (25, 1.18964468128979206085e-03) (26, -3.88884582207538187504e-05) (27, 3.33649339154362678528e-04) (28, 2.28387594688683748245e-04) (29, -6.74274109769612550735e-04) (30, -3.29752219840884208679e-04) (31, -8.05246876552700996399e-04) (32, 1.73036794876679778099e-04) (33, 3.77785472664982080460e-04) (34, -4.54029359389096498489e-04) (24, -3.06393252685666084290e-04) (25, -4.24919446231797337532e-04) (26, -1.88731530215591192245e-04) (27, 3.38487880071625113487e-04) (28, 2.69761803792789578438e-04) (29, -3.64443782018497586250e-04) (30, 1.73887994606047868729e-04) (31, 6.73416361678391695023e-04) (32, 3.59725672751665115356e-04) (33, -4.43836208432912826538e-04) (34, 7.05977203324437141418e-04) (24, 7.69112666603177785873e-04) (25, 2.57698644418269395828e-04) (26, -4.44367819000035524368e-04) (27, 5.92572177993133664131e-06) (28, 6.84455662849359214306e-05) (29, 1.25520047731697559357e-04) (30, -2.26539385039359331131e-04) (31, 1.54829904204234480858e-04) (32, -3.66900028893724083900e-04) (33, -2.90153024252504110336e-04) (34, -1.13164991489611566067e-04) (24, -5.27896336279809474945e-04) (25, 1.50291749741882085800e-03) (26, -3.42733808793127536774e-04) (27, 1.08745798934251070023e-03) (28, 7.16236652806401252747e-04) (29, -5.94182856730185449123e-05) (30, -1.23307504691183567047e-03) (31, -5.16994565259665250778e-04) (32, 4.84320160467177629471e-04) (33, 2.70701595582067966461e-04) (34, -1.65467755869030952454e-03) (24, -4.57645743153989315033e-04) (25, 1.92937778774648904800e-03) (26, -2.17233697185292840004e-04) (27, 9.01672901818528771400e-05) (28, 3.78173834178596735001e-04) (29, 2.40341367316432297230e-04) (30, -2.61221168329939246178e-04) (31, -4.37010661698877811432e-04) (32, 4.78431174997240304947e-04) (33, -5.53000427316874265671e-04) (34, -1.78783363662660121918e-03) (24, -6.83231221046298742294e-04) (25, 1.15824055683333426714e-04) (26, 2.14028041227720677853e-04) (27, -1.93379935808479785919e-04) (28, 3.13562079099938273430e-04) (29, 4.32146480306982994080e-05) (30, 1.50713662151247262955e-04) (31, 6.10252609476447105408e-04) (32, 1.08521990478038787842e-03) (33, 4.23172692535445094109e-04) (34, -7.16638693120330572128e-04) (24, 2.58776039117947220802e-04) (25, 6.95553142577409744263e-04) (26, -8.85906774783506989479e-06) (27, -1.86295073945075273514e-04) (28, -1.63225282449275255203e-04) (29, 2.24806673941202461720e-04) (30, -6.46826010779477655888e-05) (31, -1.11288495827466249466e-03) (32, -6.89248918206430971622e-05) (33, 1.23932573478668928146e-03) (34, -4.32634347816929221153e-04) (24, -2.57827807217836380005e-04) (25, 1.01005694887135177851e-04) (26, 1.04435384855605661869e-05) (27, -1.54081528307870030403e-04) (28, 4.90004953462630510330e-04) (29, 2.30559991905465722084e-04) (30, 7.20539028407074511051e-05) (31, -1.45839672768488526344e-04) (32, 7.57859728764742612839e-04) (33, -2.95449106488376855850e-04) (34, 4.42349497461691498756e-04) (24, -1.00102231954224407673e-04) (25, 1.48641265695914626122e-04) (26, 1.52192340465262532234e-04) (27, -3.87008272809907793999e-04) (28, 4.80162154417484998703e-04) (29, -2.35235551372170448303e-04) (30, 3.62780003342777490616e-04) (31, 4.61497140349820256233e-04) (32, 6.92573434207588434219e-04) (33, -3.90236760722473263741e-04) (34, -6.34138850728049874306e-05) (24, -1.26457976875826716423e-04) (25, 2.09749530768021941185e-04) (26, 5.53555946680717170238e-06) (27, 3.13167111016809940338e-04) (28, 5.23792696185410022736e-04) (29, -6.02339685428887605667e-04) (30, -1.13413268991280347109e-04) (31, -2.35643310588784515858e-05) (32, 6.13641983363777399063e-04) (33, -1.51065221871249377728e-04) (34, -7.09626765456050634384e-04) (24, -1.52313604950904846191e-01) (25, 7.87395089864730834961e-02) (26, 1.00225778296589851379e-02) (27, 1.43362991511821746826e-02) (28, 7.35639110207557678223e-02) (29, -3.21216844022274017334e-02) (30, -1.07863634824752807617e-01) (31, -1.32842332124710083008e-01) (32, 2.14737076312303543091e-02) (33, 4.10467922687530517578e-01) (34, 2.94663161039352416992e-02) (24, 4.23040129244327545166e-02) (25, -1.30644058808684349060e-02) (26, 1.19508458301424980164e-02) (27, 4.11621034145355224609e-02) (28, 4.10495884716510772705e-02) (29, 1.77747663110494613647e-02) (30, 4.90659894421696662903e-03) (31, 1.62013787776231765747e-02) (32, -2.20822095870971679688e-02) (33, -7.87811651825904846191e-02) (34, 6.45198151469230651855e-02) (24, 3.51955890655517578125e-02) (25, -1.45949581637978553772e-02) (26, 7.10043450817465782166e-03) (27, 1.11950468271970748901e-02) (28, 3.27255874872207641602e-02) (29, 1.04053290560841560364e-02) (30, -1.49955367669463157654e-02) (31, 8.09559039771556854248e-03) (32, 7.70589249441400170326e-05) (33, -1.22715346515178680420e-02) (34, 3.17794494330883026123e-02) (24, 2.33137290924787521362e-02) (25, -1.35627212002873420715e-02) (26, 5.24710351601243019104e-03) (27, 3.25957150198519229889e-03) (28, 2.49107889831066131592e-02) (29, 7.47618684545159339905e-03) (30, 1.47815337404608726501e-02) (31, 8.99174995720386505127e-03) (32, 8.28747265040874481201e-03) (33, -3.20631824433803558350e-02) (34, 2.00359746813774108887e-02) (24, 1.37572521343827247620e-02) (25, -9.23584029078483581543e-03) (26, 3.22317029349505901337e-03) (27, 4.90770302712917327881e-03) (28, 1.92098114639520645142e-02) (29, 4.63819643482565879822e-03) (30, -7.58673390373587608337e-03) (31, 7.17154517769813537598e-03) (32, 1.18311094120144844055e-02) (33, -8.13499465584754943848e-03) (34, 1.19014335796236991882e-02) (24, 8.07956233620643615723e-03) (25, -5.19232871010899543762e-03) (26, 2.91879707947373390198e-03) (27, -3.29087907448410987854e-03) (28, 1.47505458444356918335e-02) (29, 2.82264035195112228394e-03) (30, -7.62845855206251144409e-04) (31, 4.09149890765547752380e-03) (32, 1.17686567828059196472e-02) (33, -5.21207554265856742859e-03) (34, 8.84394813328981399536e-03) (24, 4.49903402477502822876e-03) (25, -1.19906999170780181885e-02) (26, 1.80127355270087718964e-03) (27, 3.28759866533800959587e-04) (28, 1.12445391714572906494e-02) (29, 1.99814513325691223145e-03) (30, 2.70273798378184437752e-04) (31, 1.14509314298629760742e-02) (32, 1.02285984903573989868e-02) (33, -1.26882540062069892883e-02) (34, 1.08694601804018020630e-02) (24, 2.25816760212182998657e-03) (25, -3.29223927110433578491e-03) (26, 1.55523442663252353668e-03) (27, 8.98049853276461362839e-04) (28, 8.26760567724704742432e-03) (29, 1.26458704471588134766e-03) (30, -2.70205875858664512634e-03) (31, 1.93170038983225822449e-03) (32, 8.00029933452606201172e-03) (33, -1.83086225297302007675e-03) (34, 3.94907407462596893311e-03) (24, 9.64675331488251686096e-04) (25, -2.60623008944094181061e-03) (26, 8.35972139611840248108e-04) (27, -1.00753235165029764175e-03) (28, 6.03615446016192436218e-03) (29, 9.15221055038273334503e-04) (30, -8.12033758847974240780e-05) (31, 1.36895827017724514008e-03) (32, 6.45599653944373130798e-03) (33, -1.38118106406182050705e-03) (34, 3.22635774500668048859e-03) (24, 5.69166091736406087875e-04) (25, -4.44715231424197554588e-04) (26, 6.97850715368986129761e-04) (27, -4.13246947573497891426e-04) (28, 4.13934700191020965576e-03) (29, 8.17911233752965927124e-04) (30, 2.19914625631645321846e-04) (31, -7.54965352825820446014e-04) (32, 4.96645411476492881775e-03) (33, 2.56323255598545074463e-04) (34, 1.07037099951412528753e-04) (24, 4.53729619039222598076e-04) (25, -1.53177871834486722946e-03) (26, 4.91283775772899389267e-04) (27, 2.36697553191334009171e-04) (28, 2.99655064009130001068e-03) (29, 4.62548545328900218010e-04) (30, -5.83424000069499015808e-04) (31, -7.95648549683392047882e-04) (32, 3.30157182179391384125e-03) (33, 7.17550981789827346802e-04) (34, 1.31983729079365730286e-03) (24, 7.28971441276371479034e-04) (25, 1.10297021456062793732e-03) (26, 5.22599148098379373550e-04) (27, -4.88538862555287778378e-05) (28, 1.90915702842175960541e-03) (29, 3.11896059429273009300e-04) (30, -5.97759906668215990067e-04) (31, 3.52128190570510923862e-05) (32, 2.10847402922809123993e-03) (33, 2.53637670539319515228e-04) (34, -4.13476926041767001152e-04) (24, -7.71444101701490581036e-05) (25, -6.44228130113333463669e-04) (26, 1.64768862305209040642e-04) (27, -1.06746226083487272263e-03) (28, 1.67602882720530033112e-03) (29, -1.48860417539253830910e-04) (30, 2.58803134784102439880e-04) (31, -1.83925003511831164360e-04) (32, 1.64862431120127439499e-03) (33, 6.56394346151500940323e-04) (34, 6.37434597592800855637e-04) (24, -4.76969929877668619156e-04) (25, 8.17918044049292802811e-06) (26, 1.21078141091857105494e-04) (27, -2.38271430134773254395e-04) (28, 9.59139666520059108734e-04) (29, 6.62114704027771949768e-04) (30, -1.38271861942484974861e-05) (31, 3.65177751518785953522e-04) (32, 1.50726665742695331573e-03) (33, -4.53040818683803081512e-04) (34, -5.92400785535573959351e-04) (24, -5.42574911378324031830e-04) (25, 2.05988460220396518707e-03) (26, 7.94747757026925683022e-05) (27, -4.67901991214603185654e-04) (28, 9.37530247028917074203e-04) (29, 2.93907214654609560966e-05) (30, -7.38649105187505483627e-04) (31, -1.64221168961375951767e-03) (32, 1.16968643851578235626e-03) (33, 1.01757422089576721191e-03) (34, -9.05170221813023090363e-04) (24, -1.09164735476952046156e-04) (25, 7.27271486539393663406e-04) (26, -1.03234000562224537134e-04) (27, -2.56945524597540497780e-04) (28, 1.07638514600694179535e-03) (29, -1.99196598259732127190e-04) (30, -6.33910589385777711868e-04) (31, 4.97833680128678679466e-05) (32, 8.41884349938482046127e-04) (33, -3.21106286719441413879e-04) (34, -1.00502824352588504553e-04) (24, -2.37721862504258751869e-04) (25, 1.75390532240271568298e-03) (26, -4.53330503660254180431e-05) (27, -1.16532173706218600273e-04) (28, 6.71795423841103911400e-05) (29, -1.40563526656478643417e-04) (30, -2.18798319110646843910e-04) (31, -4.05644823331385850906e-04) (32, 1.49215542478486895561e-04) (33, 3.01385240163654088974e-04) (34, -1.55916879884898662567e-03) (24, -3.97014628106262534857e-05) (25, -1.82983276317827403545e-04) (26, 2.07762102945707738400e-04) (27, 3.27232060953974723816e-04) (28, 1.12442176032345741987e-04) (29, -5.42555317224469035864e-05) (30, 5.24068927916232496500e-05) (31, 1.13328962470404803753e-04) (32, 5.29260491020977497101e-04) (33, 3.10787494527176022530e-04) (34, 5.75781741645187139511e-04) (24, -3.63999221008270978928e-04) (25, -3.16907942760735750198e-04) (26, -2.31343990890309214592e-04) (27, 3.99569718865677714348e-04) (28, 5.02237176988273859024e-04) (29, -4.31084481533616781235e-04) (30, -9.57957527134567499161e-05) (31, 4.28574188845232129097e-04) (32, 6.84842292685061693192e-04) (33, 2.78699953923933207989e-05) (34, 7.57505826186388731003e-04) (24, -7.19549483619630336761e-04) (25, 2.12193420156836509705e-03) (26, 6.82061290717683732510e-05) (27, 1.60765863256528973579e-04) (28, 7.25309830158948898315e-04) (29, -2.40632216446101665497e-05) (30, 3.57545395672786980867e-05) (31, -1.39101315289735794067e-03) (32, 8.02138238213956356049e-04) (33, 1.05221581179648637772e-03) (34, -1.65974744595587253571e-03) (24, -4.13743051467463374138e-04) (25, 5.01715228892862796783e-04) (26, -1.41704367706552147865e-06) (27, 2.96645564958453178406e-04) (28, 3.52163187926635146141e-04) (29, -4.15061687817797064781e-04) (30, -5.17080712597817182541e-04) (31, 7.68195663113147020340e-04) (32, 6.99484837241470813751e-04) (33, 6.51391674182377755642e-05) (34, -3.98170872358605265617e-04) (24, 2.26185147766955196857e-04) (25, 3.03049222566187381744e-04) (26, 2.03087649424560368061e-04) (27, -1.67962934938259422779e-05) (28, 4.01876895921304821968e-05) (29, -3.09210852719843387604e-04) (30, -3.66500637028366327286e-04) (31, 1.37707334943115711212e-04) (32, 6.61181111354380846024e-05) (33, 1.85144177521578967571e-04) (34, 4.22308599809184670448e-04) (24, 4.06248000217601656914e-06) (25, 2.98094499157741665840e-04) (26, -2.28446151595562696457e-04) (27, -3.76718788174912333488e-04) (28, 7.53527448978275060654e-04) (29, 3.86686559068039059639e-04) (30, -1.20861004688777029514e-05) (31, -1.71707230038009583950e-04) (32, 6.76183728501200675964e-04) (33, 1.14916743768844753504e-04) (34, -9.28712106542661786079e-05) (24, -2.04049749299883842468e-04) (25, 1.50722055695950984955e-03) (26, -5.63372392207384109497e-04) (27, 1.17875612340867519379e-03) (28, 1.86208970262669026852e-04) (29, -1.13767295260913670063e-04) (30, -5.96389058046042919159e-04) (31, -9.44773637456819415092e-05) (32, 6.21734870946966111660e-05) (33, 1.11910782288759946823e-03) (34, -2.36908439546823501587e-03) (24, -2.12122715311124920845e-04) (25, 1.54186272993683815002e-06) (26, 3.56070639099925756454e-04) (27, -4.54733453807421028614e-05) (28, 7.65962613513693213463e-05) (29, -1.62268639542162418365e-04) (30, 2.66591960098594427109e-05) (31, 4.11564134992659091949e-04) (32, 5.64250396564602851868e-04) (33, 1.52883294504135847092e-05) (34, -3.99439377360977232456e-05) (24, 1.02653648355044424534e-05) (25, 1.37887080200016498566e-03) (26, -5.84715962759219110012e-05) (27, 1.08250984339974820614e-04) (28, 5.07661497977096587420e-05) (29, 1.48805935168638825417e-04) (30, -7.31093095964752137661e-05) (31, 1.19735734187997877598e-04) (32, 2.98250844934955239296e-04) (33, -1.22560624731704592705e-04) (34, -9.62795107625424861908e-04) (24, 3.02992557408288121223e-04) (25, -1.47805490996688604355e-04) (26, 7.74306608946062624454e-05) (27, 1.50290434248745441437e-05) (28, -6.65786719764582812786e-05) (29, -1.51042477227747440338e-04) (30, 3.27921035932376980782e-04) (31, 1.01912533864378929138e-03) (32, 2.15898704482242465019e-04) (33, -1.20648636948317289352e-03) (34, 4.15831920690834522247e-04) (24, 4.10643115174025297165e-04) (25, 2.97362986020743846893e-03) (26, 8.55119506013579666615e-05) (27, 3.98414587834849953651e-04) (28, 9.42817860050126910210e-05) (29, -2.50980025157332420349e-04) (30, -2.90446507278829813004e-04) (31, -1.64547027088701725006e-03) (32, 1.77129855728708207607e-04) (33, 1.70008535496890544891e-03) (34, -2.73479637689888477325e-03) (24, 3.91941466659773141146e-05) (25, 3.66566353477537631989e-04) (26, -2.09741730941459536552e-04) (27, -2.61004082858562469482e-04) (28, 3.05835492326878011227e-05) (29, -2.48997006565332412720e-04) (30, -1.67878766660578548908e-04) (31, 2.12854967685416340828e-04) (32, -2.10609825444407761097e-04) (33, -2.60740489466115832329e-04) (34, 3.54936055373400449753e-04) (24, 1.17962008516769856215e-04) (25, 4.42764488980174064636e-04) (26, -6.30523500149138271809e-05) (27, 2.74321064352989196777e-05) (28, 1.03692982520442456007e-04) (29, 1.97347835637629032135e-05) (30, -2.19454406760632991791e-04) (31, -1.25703314552083611488e-04) (32, 3.43548686942085623741e-04) (33, 8.45186877995729446411e-04) (34, -4.82448813272640109062e-04) (24, 1.79029200808145105839e-04) (25, 2.01010218006558716297e-04) (26, 2.68211821094155311584e-04) (27, -4.47490165242925286293e-04) (28, -2.88291266770102083683e-05) (29, 1.84531774721108376980e-04) (30, -8.99333739653229713440e-04) (31, -4.88563746330328285694e-05) (32, 1.12567366159055382013e-04) (33, -2.07060540560632944107e-04) (34, 1.54453585855662822723e-03) (24, -2.06569558940827846527e-04) (25, -1.66022087796591222286e-04) (26, 1.94682870642282068729e-05) (27, 3.18988517392426729202e-04) (28, 4.09905391279608011246e-04) (29, -1.49321349454112350941e-05) (30, -3.00476458505727350712e-05) (31, 9.06792047317139804363e-05) (32, 4.50621271738782525063e-04) (33, -1.43482859130017459393e-04) (34, 2.87698290776461362839e-04) (24, -4.44517034338787198067e-04) (25, 6.94626593030989170074e-04) (26, 1.52392909512855112553e-04) (27, 1.15504328277893364429e-04) (28, -3.10476607410237193108e-05) (29, -2.02556562726385891438e-04) (30, 3.54448420694097876549e-04) (31, -2.78201099717989563942e-04) (32, 1.33555353386327624321e-04) (33, 1.99289832380600273609e-04) (34, -5.83151297178119421005e-04) (24, 4.94884152431041002274e-05) (25, 5.07270451635122299194e-03) (26, 8.81389059941284358501e-05) (27, -2.90388183202594518661e-04) (28, 4.01415891246870160103e-05) (29, -1.07441017462406307459e-04) (30, -7.48581194784492254257e-04) (31, -1.08999479562044143677e-03) (32, 2.01078088139183819294e-04) (33, 1.51288975030183792114e-03) (34, -3.85040370747447013855e-03) (24, -3.31053801346570253372e-04) (25, 4.52905165730044245720e-04) (26, -2.03870527911931276321e-04) (27, 1.98239024030044674873e-04) (28, 5.19490509759634733200e-04) (29, 3.27743502566590905190e-04) (30, 2.88707014988176524639e-05) (31, 1.13172503188252449036e-03) (32, 7.10252381395548582077e-04) (33, -9.76746552623808383942e-04) (34, -7.86689983215183019638e-04) (24, -1.49962739669717848301e-04) (25, -3.20473336614668369293e-04) (26, -1.58685652422718703747e-04) (27, 4.40360134234651923180e-04) (28, 3.23204149026423692703e-04) (29, 2.04683135962113738060e-04) (30, -1.43707016832195222378e-04) (31, -3.01729945931583642960e-04) (32, 3.87754611438140273094e-04) (33, -3.84932573069818317890e-05) (34, 2.44399183429777622223e-04) (24, -1.31087889894843101501e-03) (25, -4.13959324359893798828e-02) (26, 1.33720925077795982361e-02) (27, 3.79168279469013214111e-02) (28, -5.23032583296298980713e-02) (29, 3.76264797523617744446e-03) (30, 4.95956838130950927734e-02) (31, 5.51264956593513488770e-02) (32, 1.04030258953571319580e-02) (33, -1.08318105340003967285e-01) (34, 5.52278161048889160156e-02) (24, -1.36610493063926696777e-03) (25, -1.68578792363405227661e-02) (26, 6.09015300869941711426e-03) (27, 1.58940069377422332764e-02) (28, -3.17603796720504760742e-02) (29, 3.53985559195280075073e-03) (30, 1.37621248140931129456e-02) (31, 4.49607521295547485352e-02) (32, 8.50587151944637298584e-03) (33, -5.57677596807479858398e-02) (34, 2.85304412245750427246e-02) (24, -1.17229809984564781189e-03) (25, -1.87860839068889617920e-02) (26, 1.21130573097616434097e-03) (27, 2.12292876094579696655e-02) (28, -1.96556616574525833130e-02) (29, 1.81487612426280975342e-02) (30, 3.00553743727505207062e-03) (31, 2.44314260780811309814e-02) (32, 5.07606239989399909973e-03) (33, -5.13453930616378784180e-02) (34, 2.74038482457399368286e-02) (24, -1.15340808406472206116e-03) (25, -6.15540659055113792419e-03) (26, -1.08521827496588230133e-03) (27, 1.30835706368088722229e-02) (28, -1.21237179264426231384e-02) (29, 1.13916434347629547119e-02) (30, -1.59178078174591064453e-02) (31, 1.66537761688232421875e-02) (32, 3.73753043822944164276e-03) (33, -1.17753082886338233948e-02) (34, 8.47923476248979568481e-03) (24, -1.04422762524336576462e-03) (25, -5.39906416088342666626e-03) (26, 9.29244197322987020016e-05) (27, 8.13803821802139282227e-03) (28, -7.03113758936524391174e-03) (29, 9.03524551540613174438e-03) (30, -1.03412354364991188049e-02) (31, 1.33617604151368141174e-02) (32, 3.47609305754303932190e-03) (33, -1.43201015889644622803e-02) (34, 9.64156445115804672241e-03) (24, -5.43121132068336009979e-04) (25, -8.45088798087090253830e-05) (26, 5.99816907197237014771e-04) (27, 4.16644196957349777222e-03) (28, -4.14269464090466499329e-03) (29, 3.63465561531484127045e-03) (30, -4.60507534444332122803e-03) (31, 1.76310213282704353333e-03) (32, 2.63236043974757194519e-03) (33, 8.91201489139348268509e-05) (34, 1.23412115499377250671e-03) (24, -5.13109494931995868683e-04) (25, -1.30028801504522562027e-03) (26, 5.68944844417273998260e-04) (27, -4.73823136417195200920e-04) (28, -2.54349643364548683167e-03) (29, 3.20586864836513996124e-03) (30, -1.52100546984001994133e-05) (31, 1.04229548014700412750e-03) (32, 2.58102430962026119232e-03) (33, -1.93628377746790647507e-03) (34, 2.88831815123558044434e-03) (24, -1.68083162861876189709e-04) (25, -1.07340316753834486008e-03) (26, 7.87350814789533615112e-04) (27, 1.37166189961135387421e-03) (28, -1.05958781205117702484e-03) (29, 1.87593302689492702484e-03) (30, -2.30424478650093078613e-03) (31, 2.19007418490946292877e-03) (32, 2.06767045892775058746e-03) (33, -1.67198211420327425003e-03) (34, 1.92698161117732524872e-03) (24, -7.12439708877354860306e-04) (25, 7.14508467353880405426e-04) (26, 3.20126971928402781487e-04) (27, 1.08978652860969305038e-03) (28, -8.17812979221343994141e-04) (29, 1.23458018060773611069e-03) (30, -2.01235665008425712585e-03) (31, -2.58603395195677876472e-04) (32, 1.52875063940882682800e-03) (33, 6.06184708885848522186e-04) (34, -1.46986974868923425674e-04) (24, -5.48098119907081127167e-04) (25, 2.92274868115782737732e-04) (26, 2.92110460577532649040e-04) (27, 3.91027744626626372337e-04) (28, -1.71917126863263547421e-04) (29, 5.08997472934424877167e-04) (30, -6.28751469776034355164e-04) (31, -2.08612560527399182320e-04) (32, 9.98677802272140979767e-04) (33, 1.66926241945475339890e-04) (34, -7.64409051043912768364e-05) (24, -2.19236419070512056351e-04) (25, 1.11724936868995428085e-03) (26, 4.19288931880146265030e-04) (27, 3.67793865734711289406e-04) (28, -1.74456668901257216930e-04) (29, 2.85075890133157372475e-04) (30, -6.07292517088353633881e-04) (31, -1.28515926189720630646e-03) (32, 1.05482689104974269867e-03) (33, 1.09169294591993093491e-03) (34, -9.05614637304097414017e-04) (24, -4.26662649260833859444e-04) (25, 3.23363463394343852997e-04) (26, 3.72376904124394059181e-04) (27, 4.86092292703688144684e-04) (28, -9.38701050472445785999e-05) (29, 1.62681099027395248413e-05) (30, -1.37112766969949007034e-03) (31, 1.43124023452401161194e-03) (32, 9.99753479845821857452e-04) (33, -1.94479885976761579514e-04) (34, 2.39383371081203222275e-05) (24, -4.30105195846408605576e-04) (25, 6.29109970759600400925e-04) (26, 2.84496316453441977501e-04) (27, 3.17909813020378351212e-04) (28, 2.11188031244091689587e-04) (29, 7.73833016864955425262e-05) (30, -4.88637713715434074402e-04) (31, -1.38802453875541687012e-03) (32, 6.48373621515929698944e-04) (33, 1.34878361131995916367e-03) (34, -1.07758748345077037811e-03) (24, -4.50749881565570831299e-04) (25, 1.05964310932904481888e-03) (26, -4.39320210716687142849e-05) (27, -1.14484879304654896259e-04) (28, 8.81179439602419734001e-05) (29, -1.16862836875952780247e-04) (30, -2.83702218439429998398e-04) (31, -1.24850164866074919701e-04) (32, 5.78068487811833620071e-04) (33, -7.25642166798934340477e-06) (34, -8.01317393779754638672e-04) (24, 3.87750333175063133240e-04) (25, 6.07846770435571670532e-04) (26, -1.05994629848282784224e-04) (27, -2.74632795481011271477e-04) (28, -2.12741615541744977236e-05) (29, 2.44497277890332043171e-05) (30, 1.19419673865195363760e-04) (31, -2.03917297767475247383e-04) (32, 4.47922706371173262596e-04) (33, -5.77824903302825987339e-05) (34, -1.13336043432354927063e-03) (24, 3.41827340889722108841e-04) (25, -4.05341299483552575111e-04) (26, 6.32708542980253696442e-05) (27, 6.28634938038885593414e-04) (28, 3.95048031350597739220e-04) (29, 2.78744846582412719727e-05) (30, -7.30416155420243740082e-04) (31, 3.51577793480828404427e-04) (32, 4.43194818217307329178e-04) (33, -6.23459418420679867268e-05) (34, 6.06239482294768095016e-04) (24, -1.10740460513625293970e-04) (25, -4.01169614633545279503e-04) (26, -1.56963433255441486835e-05) (27, 1.73433349118568003178e-04) (28, 1.64566852618008852005e-04) (29, 2.47481133555993437767e-04) (30, 3.38440935593098402023e-04) (31, -4.98406414408236742020e-04) (32, 3.69484565453603863716e-04) (33, 1.33465102408081293106e-04) (34, 6.08818430919200181961e-04) (24, -2.51326011493802070618e-04) (25, 1.35274394415318965912e-03) (26, 8.86495472514070570469e-05) (27, 1.37037568492814898491e-04) (28, 3.88381595257669687271e-05) (29, 9.95271111605688929558e-05) (30, -1.57921676873229444027e-04) (31, -1.75579625647515058517e-04) (32, 4.07672428991645574570e-04) (33, 6.58957287669181823730e-04) (34, -1.56774942297488451004e-03) (24, -3.76954558305442333221e-04) (25, 4.55152243375778198242e-04) (26, -3.76235722796991467476e-04) (27, -2.80307460343465209007e-04) (28, 4.93636354804039001465e-04) (29, 1.11613408080302178860e-04) (30, -1.69795122928917407990e-04) (31, -1.96399661945179104805e-04) (32, 2.86469352431595325470e-04) (33, -9.16373028303496539593e-05) (34, -5.12244936544448137283e-04) (24, 2.76724924333393573761e-04) (25, 4.20722702983766794205e-04) (26, 5.91177777096163481474e-05) (27, 2.49864824581891298294e-04) (28, 1.40292802825570106506e-04) (29, 2.49127740971744060516e-04) (30, 1.79793816641904413700e-04) (31, -4.51978994533419609070e-04) (32, 2.82700581010431051254e-04) (33, 5.62787347007542848587e-04) (34, -1.07775602373294532299e-04) (24, -2.33940445468761026859e-04) (25, -1.07479316648095846176e-03) (26, -1.89462953130714595318e-04) (27, -2.45942574110813438892e-05) (28, 1.95056796655990183353e-04) (29, 5.69016119698062539101e-05) (30, -4.41086594946682453156e-04) (31, 4.09484375268220901489e-04) (32, 1.29045947687700390816e-05) (33, -6.71845846227370202541e-05) (34, 5.57523511815816164017e-04) (24, -1.12199581053573638201e-04) (25, 5.63694920856505632401e-04) (26, 2.33553801081143319607e-04) (27, -3.49135545548051595688e-04) (28, -6.01380161242559552193e-05) (29, 1.78023838088847696781e-04) (30, -4.72982719657011330128e-05) (31, -6.74494542181491851807e-04) (32, 4.87543147755786776543e-04) (33, 1.14330032374709844589e-05) (34, 6.21484243310987949371e-04) (24, -2.33712053159251809120e-04) (25, 3.72754730051383376122e-05) (26, -3.68540757335722446442e-04) (27, -3.03852604702115058899e-04) (28, 7.35052919480949640274e-04) (29, 3.29914677422493696213e-04) (30, -6.79616932757198810577e-04) (31, 4.19660646002739667892e-04) (32, 6.49865309242159128189e-04) (33, -8.88398615643382072449e-04) (34, 9.85075748758390545845e-05) (24, -2.42081470787525177002e-04) (25, -6.62192760501056909561e-04) (26, 7.47609956306405365467e-05) (27, 4.96659195050597190857e-04) (28, 2.64053087448701262474e-05) (29, -1.51187414303421974182e-04) (30, -2.58642918197438120842e-04) (31, 3.15354758640751242638e-04) (32, 4.57401692983694374561e-05) (33, 1.18336196464952081442e-04) (34, 8.21590190753340721130e-04) (24, 1.12060894025489687920e-04) (25, 1.57926592510193586349e-03) (26, 2.30470206588506698608e-04) (27, -9.30200185393914580345e-05) (28, 2.58032174315303564072e-04) (29, 1.94247040781192481518e-04) (30, -4.11670160247012972832e-04) (31, 2.45694362092763185501e-04) (32, 2.97311344183981418610e-04) (33, 9.58524324232712388039e-05) (34, -6.55322684906423091888e-04) (24, -2.94961500912904739380e-04) (25, 9.84759768471121788025e-04) (26, 3.24757362250238656998e-04) (27, 3.59024561475962400436e-04) (28, 9.94667061604559421539e-07) (29, -3.10138391796499490738e-04) (30, -2.16437911149114370346e-04) (31, -2.29956116527318954468e-04) (32, 8.27083887998014688492e-04) (33, 1.09639229776803404093e-04) (34, -6.37049379292875528336e-04) (24, -1.85460172360762953758e-04) (25, 1.42911402508616447449e-03) (26, -2.72455974481999874115e-04) (27, 6.79607386700809001923e-04) (28, 1.28197585581801831722e-04) (29, -2.38965003518387675285e-06) (30, -7.15774949640035629272e-04) (31, 5.06236610817722976208e-05) (32, 1.73070147866383194923e-04) (33, -5.89448201935738325119e-04) (34, -1.23235513456165790558e-03) (24, -2.13258666917681694031e-04) (25, 1.77066586911678314209e-03) (26, 7.70771803217940032482e-05) (27, 2.66194401774555444717e-04) (28, 7.30702158762142062187e-05) (29, -4.24822588684037327766e-04) (30, -2.92922049993649125099e-06) (31, 2.83733243122696876526e-07) (32, 4.43026772700250148773e-04) (33, -6.75422270433045923710e-05) (34, -9.82202356681227684021e-04) (24, 3.56429372914135456085e-04) (25, 2.45219888165593147278e-03) (26, -1.35864960611797869205e-04) (27, 2.06784025067463517189e-04) (28, 1.28545594634488224983e-04) (29, 4.25661826739087700844e-04) (30, -1.92575913388282060623e-04) (31, -4.60890238173305988312e-04) (32, -9.43538179853931069374e-05) (33, 1.91894505405798554420e-04) (34, -2.48787691816687583923e-03) (24, 1.28936866531148552895e-04) (25, 6.11463910900056362152e-04) (26, 1.11006353108678013086e-04) (27, -1.35324057191610336304e-03) (28, 3.48520930856466293335e-04) (29, 2.03126037376932799816e-04) (30, 3.23942018439993262291e-04) (31, 2.55123479291796684265e-04) (32, 6.83722901158034801483e-04) (33, -1.64425058756023645401e-04) (34, 4.33116831118240952492e-04) (24, -1.88311852980405092239e-04) (25, 6.53858762234449386597e-04) (26, 2.55587452556937932968e-04) (27, 7.03189347404986619949e-04) (28, 3.71090718545019626617e-04) (29, -4.10399195970967411995e-04) (30, -3.12582415062934160233e-04) (31, 2.20630652620457112789e-04) (32, 9.49259265325963497162e-04) (33, -3.18676524329930543900e-04) (34, -3.14037897624075412750e-04) (24, 6.15313183516263961792e-07) (25, 1.24625716125592589378e-04) (26, -1.81983690708875656128e-04) (27, 1.88698599231429398060e-04) (28, 4.00276010623201727867e-04) (29, -6.46808621240779757500e-05) (30, 2.63178721070289611816e-04) (31, 5.84221736062318086624e-04) (32, 1.70609855558723211288e-04) (33, 9.13715339265763759613e-05) (34, -6.81259145494550466537e-04) (24, 2.33551574638113379478e-04) (25, 7.02594465110450983047e-04) (26, -2.44737660977989435196e-04) (27, 1.94335327250882983208e-04) (28, 1.03082616988103836775e-04) (29, 5.72212215047329664230e-04) (30, -1.39880183269269764423e-04) (31, -2.02246126718819141388e-04) (32, -1.72983840457163751125e-04) (33, -2.35818733926862478256e-04) (34, -7.12408451363444328308e-04) (24, 9.56918665906414389610e-05) (25, 1.89550127834081649780e-03) (26, 1.10680251964367926121e-04) (27, 4.83264884678646922112e-04) (28, 2.49044300289824604988e-04) (29, 7.33140768716111779213e-05) (30, -7.45308236218988895416e-04) (31, -5.78617444261908531189e-04) (32, 6.74636918120086193085e-04) (33, 1.60674127982929348946e-04) (34, -1.73660786822438240051e-03) (24, -2.81107058981433510780e-04) (25, -3.13711847411468625069e-04) (26, 2.61384528130292892456e-04) (27, -1.71608975506387650967e-04) (28, 3.64174455171450972557e-04) (29, 1.67060774401761591434e-04) (30, -3.27183253830298781395e-04) (31, 2.70035030553117394447e-04) (32, 6.60678197164088487625e-04) (33, -7.54720967961475253105e-05) (34, 1.38710415922105312347e-03) (24, -1.07962005131412297487e-04) (25, 1.18707004003226757050e-03) (26, 3.66457999916747212410e-04) (27, 9.30966998566873371601e-05) (28, -1.67809892445802688599e-04) (29, 7.85855590947903692722e-05) (30, -1.28713465528562664986e-04) (31, -5.83791173994541168213e-04) (32, 2.86962836980819702148e-04) (33, 5.53949968889355659485e-04) (34, -7.87212222348898649216e-04) (24, 3.35663295118138194084e-04) (25, 2.41536903195083141327e-03) (26, 1.39938405482098460197e-04) (27, -2.43813134147785604000e-04) (28, 2.63610534602776169777e-04) (29, 1.90076083526946604252e-04) (30, -2.74965015705674886703e-04) (31, -1.04902463499456644058e-03) (32, 3.75673233065754175186e-04) (33, 1.35753164067864418030e-03) (34, -1.68365775607526302338e-03) (24, -4.61822055513039231300e-04) (25, 2.30983132496476173401e-05) (26, 8.16432802821509540081e-05) (27, -2.25963362026959657669e-04) (28, 6.36314143775962293148e-05) (29, 1.55468704178929328918e-04) (30, 4.75327193271368741989e-04) (31, -1.33874244056642055511e-04) (32, 6.65694824419915676117e-04) (33, -2.65416165348142385483e-04) (34, 4.89435507915914058685e-04) (24, 3.73449089238420128822e-04) (25, 7.53911794163286685944e-04) (26, 1.83115029358305037022e-04) (27, 8.22807778604328632355e-04) (28, 2.95869336696341633797e-04) (29, -7.10333551978692412376e-05) (30, -2.97011982183903455734e-04) (31, -4.38860115536954253912e-05) (32, 1.83258671313524246216e-04) (33, 4.36238915426656603813e-04) (34, -8.06069001555442810059e-04) (24, -7.02397571876645088196e-03) (25, -8.49780440330505371094e-02) (26, -3.03226020187139511108e-02) (27, -3.74253243207931518555e-02) (28, -5.97238577902317047119e-02) (29, 2.43808585219085216522e-03) (30, -4.43776622414588928223e-02) (31, 1.56220057979226112366e-02) (32, 1.70006938278675079346e-02) (33, 4.76996712386608123779e-02) (34, 2.06254035234451293945e-01) (24, -5.83618283271789550781e-02) (25, -1.75512596964836120605e-01) (26, -1.89202904701232910156e-01) (27, 1.86207935214042663574e-01) (28, -3.17032724618911743164e-01) (29, -1.20855132117867469788e-02) (30, 3.57197046279907226562e-01) (31, -2.59739737957715988159e-02) (32, 1.55523419380187988281e-01) (33, -3.10426145792007446289e-01) (34, 6.07226908206939697266e-01) (24, -6.29875715821981430054e-03) (25, 2.98148170113563537598e-02) (26, 3.36714438162744045258e-03) (27, 2.50344760715961456299e-02) (28, 1.93533916026353836060e-02) (29, 3.43391136266291141510e-03) (30, -3.97876538336277008057e-02) (31, -1.16436136886477470398e-02) (32, -1.80519409477710723877e-02) (33, 2.76090316474437713623e-02) (34, 2.65636712312698364258e-01) (24, 7.66412019729614257812e-01) (25, -1.11408042907714843750e+00) (26, 2.98196256160736083984e-01) (27, 4.10898876190185546875e+00) (28, 2.55648279190063476562e+00) (29, 4.06158256530761718750e+00) (30, 8.43971908092498779297e-01) (31, 6.85435116291046142578e-01) (32, -3.11457657814025878906e+00) (33, 2.42716789245605468750e+01) (34, 8.99754905700683593750e+00) 
