FANN_FLO_2.1
num_layers=5
learning_rate=0.700000
connection_rate=1.000000
network_type=0
learning_momentum=0.000000
training_algorithm=2
train_error_function=0
train_stop_function=0
cascade_output_change_fraction=0.010000
quickprop_decay=-0.000100
quickprop_mu=1.750000
rprop_increase_factor=1.200000
rprop_decrease_factor=0.500000
rprop_delta_min=0.000000
rprop_delta_max=50.000000
rprop_delta_zero=0.100000
cascade_output_stagnation_epochs=12
cascade_candidate_change_fraction=0.010000
cascade_candidate_stagnation_epochs=12
cascade_max_out_epochs=150
cascade_min_out_epochs=50
cascade_max_cand_epochs=150
cascade_min_cand_epochs=50
cascade_num_candidate_groups=2
bit_fail_limit=3.49999994039535522461e-01
cascade_candidate_limit=1.00000000000000000000e+03
cascade_weight_multiplier=4.00000005960464477539e-01
cascade_activation_functions_count=10
cascade_activation_functions=3 5 7 8 10 11 14 15 16 17 
cascade_activation_steepnesses_count=4
cascade_activation_steepnesses=2.50000000000000000000e-01 5.00000000000000000000e-01 7.50000000000000000000e-01 1.00000000000000000000e+00 
layer_sizes=2 51 51 51 127 
scale_included=0
neurons (num_inputs, activation_function, activation_steepness)=(0, 0, 0.00000000000000000000e+00) (0, 0, 0.00000000000000000000e+00) (2, 5, 5.00000000000000000000e-01) (2, 5, 5.00000000000000000000e-01) (2, 5, 5.00000000000000000000e-01) (2, 5, 5.00000000000000000000e-01) (2, 5, 5.00000000000000000000e-01) (2, 5, 5.00000000000000000000e-01) (2, 5, 5.00000000000000000000e-01) (2, 5, 5.00000000000000000000e-01) (2, 5, 5.00000000000000000000e-01) (2, 5, 5.00000000000000000000e-01) (2, 5, 5.00000000000000000000e-01) (2, 5, 5.00000000000000000000e-01) (2, 5, 5.00000000000000000000e-01) (2, 5, 5.00000000000000000000e-01) (2, 5, 5.00000000000000000000e-01) (2, 5, 5.00000000000000000000e-01) (2, 5, 5.00000000000000000000e-01) (2, 5, 5.00000000000000000000e-01) (2, 5, 5.00000000000000000000e-01) (2, 5, 5.00000000000000000000e-01) (2, 5, 5.00000000000000000000e-01) (2, 5, 5.00000000000000000000e-01) (2, 5, 5.00000000000000000000e-01) (2, 5, 5.00000000000000000000e-01) (2, 5, 5.00000000000000000000e-01) (2, 5, 5.00000000000000000000e-01) (2, 5, 5.00000000000000000000e-01) (2, 5, 5.00000000000000000000e-01) (2, 5, 5.00000000000000000000e-01) (2, 5, 5.00000000000000000000e-01) (2, 5, 5.00000000000000000000e-01) (2, 5, 5.00000000000000000000e-01) (2, 5, 5.00000000000000000000e-01) (2, 5, 5.00000000000000000000e-01) (2, 5, 5.00000000000000000000e-01) (2, 5, 5.00000000000000000000e-01) (2, 5, 5.00000000000000000000e-01) (2, 5, 5.00000000000000000000e-01) (2, 5, 5.00000000000000000000e-01) (2, 5, 5.00000000000000000000e-01) (2, 5, 5.00000000000000000000e-01) (2, 5, 5.00000000000000000000e-01) (2, 5, 5.00000000000000000000e-01) (2, 5, 5.00000000000000000000e-01) (2, 5, 5.00000000000000000000e-01) (2, 5, 5.00000000000000000000e-01) (2, 5, 5.00000000000000000000e-01) (2, 5, 5.00000000000000000000e-01) (2, 5, 5.00000000000000000000e-01) (2, 5, 5.00000000000000000000e-01) (0, 5, 0.00000000000000000000e+00) (51, 5, 5.00000000000000000000e-01) (51, 5, 5.00000000000000000000e-01) (51, 5, 5.00000000000000000000e-01) (51, 5, 5.00000000000000000000e-01) (51, 5, 5.00000000000000000000e-01) (51, 5, 5.00000000000000000000e-01) (51, 5, 5.00000000000000000000e-01) (51, 5, 5.00000000000000000000e-01) (51, 5, 5.00000000000000000000e-01) (51, 5, 5.00000000000000000000e-01) (51, 5, 5.00000000000000000000e-01) (51, 5, 5.00000000000000000000e-01) (51, 5, 5.00000000000000000000e-01) (51, 5, 5.00000000000000000000e-01) (51, 5, 5.00000000000000000000e-01) (51, 5, 5.00000000000000000000e-01) (51, 5, 5.00000000000000000000e-01) (51, 5, 5.00000000000000000000e-01) (51, 5, 5.00000000000000000000e-01) (51, 5, 5.00000000000000000000e-01) (51, 5, 5.00000000000000000000e-01) (51, 5, 5.00000000000000000000e-01) (51, 5, 5.00000000000000000000e-01) (51, 5, 5.00000000000000000000e-01) (51, 5, 5.00000000000000000000e-01) (51, 5, 5.00000000000000000000e-01) (51, 5, 5.00000000000000000000e-01) (51, 5, 5.00000000000000000000e-01) (51, 5, 5.00000000000000000000e-01) (51, 5, 5.00000000000000000000e-01) (51, 5, 5.00000000000000000000e-01) (51, 5, 5.00000000000000000000e-01) (51, 5, 5.00000000000000000000e-01) (51, 5, 5.00000000000000000000e-01) (51, 5, 5.00000000000000000000e-01) (51, 5, 5.00000000000000000000e-01) (51, 5, 5.00000000000000000000e-01) (51, 5, 5.00000000000000000000e-01) (51, 5, 5.00000000000000000000e-01) (51, 5, 5.00000000000000000000e-01) (51, 5, 5.00000000000000000000e-01) (51, 5, 5.00000000000000000000e-01) (51, 5, 5.00000000000000000000e-01) (51, 5, 5.00000000000000000000e-01) (51, 5, 5.00000000000000000000e-01) (51, 5, 5.00000000000000000000e-01) (51, 5, 5.00000000000000000000e-01) (51, 5, 5.00000000000000000000e-01) (51, 5, 5.00000000000000000000e-01) (51, 5, 5.00000000000000000000e-01) (0, 5, 0.00000000000000000000e+00) (51, 5, 5.00000000000000000000e-01) (51, 5, 5.00000000000000000000e-01) (51, 5, 5.00000000000000000000e-01) (51, 5, 5.00000000000000000000e-01) (51, 5, 5.00000000000000000000e-01) (51, 5, 5.00000000000000000000e-01) (51, 5, 5.00000000000000000000e-01) (51, 5, 5.00000000000000000000e-01) (51, 5, 5.00000000000000000000e-01) (51, 5, 5.00000000000000000000e-01) (51, 5, 5.00000000000000000000e-01) (51, 5, 5.00000000000000000000e-01) (51, 5, 5.00000000000000000000e-01) (51, 5, 5.00000000000000000000e-01) (51, 5, 5.00000000000000000000e-01) (51, 5, 5.00000000000000000000e-01) (51, 5, 5.00000000000000000000e-01) (51, 5, 5.00000000000000000000e-01) (51, 5, 5.00000000000000000000e-01) (51, 5, 5.00000000000000000000e-01) (51, 5, 5.00000000000000000000e-01) (51, 5, 5.00000000000000000000e-01) (51, 5, 5.00000000000000000000e-01) (51, 5, 5.00000000000000000000e-01) (51, 5, 5.00000000000000000000e-01) (51, 5, 5.00000000000000000000e-01) (51, 5, 5.00000000000000000000e-01) (51, 5, 5.00000000000000000000e-01) (51, 5, 5.00000000000000000000e-01) (51, 5, 5.00000000000000000000e-01) (51, 5, 5.00000000000000000000e-01) (51, 5, 5.00000000000000000000e-01) (51, 5, 5.00000000000000000000e-01) (51, 5, 5.00000000000000000000e-01) (51, 5, 5.00000000000000000000e-01) (51, 5, 5.00000000000000000000e-01) (51, 5, 5.00000000000000000000e-01) (51, 5, 5.00000000000000000000e-01) (51, 5, 5.00000000000000000000e-01) (51, 5, 5.00000000000000000000e-01) (51, 5, 5.00000000000000000000e-01) (51, 5, 5.00000000000000000000e-01) (51, 5, 5.00000000000000000000e-01) (51, 5, 5.00000000000000000000e-01) (51, 5, 5.00000000000000000000e-01) (51, 5, 5.00000000000000000000e-01) (51, 5, 5.00000000000000000000e-01) (51, 5, 5.00000000000000000000e-01) (51, 5, 5.00000000000000000000e-01) (51, 5, 5.00000000000000000000e-01) (0, 5, 0.00000000000000000000e+00) (51, 0, 5.00000000000000000000e-01) (51, 0, 5.00000000000000000000e-01) (51, 0, 5.00000000000000000000e-01) (51, 0, 5.00000000000000000000e-01) (51, 0, 5.00000000000000000000e-01) (51, 0, 5.00000000000000000000e-01) (51, 0, 5.00000000000000000000e-01) (51, 0, 5.00000000000000000000e-01) (51, 0, 5.00000000000000000000e-01) (51, 0, 5.00000000000000000000e-01) (51, 0, 5.00000000000000000000e-01) (51, 0, 5.00000000000000000000e-01) (51, 0, 5.00000000000000000000e-01) (51, 0, 5.00000000000000000000e-01) (51, 0, 5.00000000000000000000e-01) (51, 0, 5.00000000000000000000e-01) (51, 0, 5.00000000000000000000e-01) (51, 0, 5.00000000000000000000e-01) (51, 0, 5.00000000000000000000e-01) (51, 0, 5.00000000000000000000e-01) (51, 0, 5.00000000000000000000e-01) (51, 0, 5.00000000000000000000e-01) (51, 0, 5.00000000000000000000e-01) (51, 0, 5.00000000000000000000e-01) (51, 0, 5.00000000000000000000e-01) (51, 0, 5.00000000000000000000e-01) (51, 0, 5.00000000000000000000e-01) (51, 0, 5.00000000000000000000e-01) (51, 0, 5.00000000000000000000e-01) (51, 0, 5.00000000000000000000e-01) (51, 0, 5.00000000000000000000e-01) (51, 0, 5.00000000000000000000e-01) (51, 0, 5.00000000000000000000e-01) (51, 0, 5.00000000000000000000e-01) (51, 0, 5.00000000000000000000e-01) (51, 0, 5.00000000000000000000e-01) (51, 0, 5.00000000000000000000e-01) (51, 0, 5.00000000000000000000e-01) (51, 0, 5.00000000000000000000e-01) (51, 0, 5.00000000000000000000e-01) (51, 0, 5.00000000000000000000e-01) (51, 0, 5.00000000000000000000e-01) (51, 0, 5.00000000000000000000e-01) (51, 0, 5.00000000000000000000e-01) (51, 0, 5.00000000000000000000e-01) (51, 0, 5.00000000000000000000e-01) (51, 0, 5.00000000000000000000e-01) (51, 0, 5.00000000000000000000e-01) (51, 0, 5.00000000000000000000e-01) (51, 0, 5.00000000000000000000e-01) (51, 0, 5.00000000000000000000e-01) (51, 0, 5.00000000000000000000e-01) (51, 0, 5.00000000000000000000e-01) (51, 0, 5.00000000000000000000e-01) (51, 0, 5.00000000000000000000e-01) (51, 0, 5.00000000000000000000e-01) (51, 0, 5.00000000000000000000e-01) (51, 0, 5.00000000000000000000e-01) (51, 0, 5.00000000000000000000e-01) (51, 0, 5.00000000000000000000e-01) (51, 0, 5.00000000000000000000e-01) (51, 0, 5.00000000000000000000e-01) (51, 0, 5.00000000000000000000e-01) (51, 0, 5.00000000000000000000e-01) (51, 0, 5.00000000000000000000e-01) (51, 0, 5.00000000000000000000e-01) (51, 0, 5.00000000000000000000e-01) (51, 0, 5.00000000000000000000e-01) (51, 0, 5.00000000000000000000e-01) (51, 0, 5.00000000000000000000e-01) (51, 0, 5.00000000000000000000e-01) (51, 0, 5.00000000000000000000e-01) (51, 0, 5.00000000000000000000e-01) (51, 0, 5.00000000000000000000e-01) (51, 0, 5.00000000000000000000e-01) (51, 0, 5.00000000000000000000e-01) (51, 0, 5.00000000000000000000e-01) (51, 0, 5.00000000000000000000e-01) (51, 0, 5.00000000000000000000e-01) (51, 0, 5.00000000000000000000e-01) (51, 0, 5.00000000000000000000e-01) (51, 0, 5.00000000000000000000e-01) (51, 0, 5.00000000000000000000e-01) (51, 0, 5.00000000000000000000e-01) (51, 0, 5.00000000000000000000e-01) (51, 0, 5.00000000000000000000e-01) (51, 0, 5.00000000000000000000e-01) (51, 0, 5.00000000000000000000e-01) (51, 0, 5.00000000000000000000e-01) (51, 0, 5.00000000000000000000e-01) (51, 0, 5.00000000000000000000e-01) (51, 0, 5.00000000000000000000e-01) (51, 0, 5.00000000000000000000e-01) (51, 0, 5.00000000000000000000e-01) (51, 0, 5.00000000000000000000e-01) (51, 0, 5.00000000000000000000e-01) (51, 0, 5.00000000000000000000e-01) (51, 0, 5.00000000000000000000e-01) (51, 0, 5.00000000000000000000e-01) (51, 0, 5.00000000000000000000e-01) (51, 0, 5.00000000000000000000e-01) (51, 0, 5.00000000000000000000e-01) (51, 0, 5.00000000000000000000e-01) (51, 0, 5.00000000000000000000e-01) (51, 0, 5.00000000000000000000e-01) (51, 0, 5.00000000000000000000e-01) (51, 0, 5.00000000000000000000e-01) (51, 0, 5.00000000000000000000e-01) (51, 0, 5.00000000000000000000e-01) (51, 0, 5.00000000000000000000e-01) (51, 0, 5.00000000000000000000e-01) (51, 0, 5.00000000000000000000e-01) (51, 0, 5.00000000000000000000e-01) (51, 0, 5.00000000000000000000e-01) (51, 0, 5.00000000000000000000e-01) (51, 0, 5.00000000000000000000e-01) (51, 0, 5.00000000000000000000e-01) (51, 0, 5.00000000000000000000e-01) (51, 0, 5.00000000000000000000e-01) (51, 0, 5.00000000000000000000e-01) (51, 0, 5.00000000000000000000e-01) (51, 0, 5.00000000000000000000e-01) (51, 0, 5.00000000000000000000e-01) (51, 0, 5.00000000000000000000e-01) (51, 0, 5.00000000000000000000e-01) (51, 0, 5.00000000000000000000e-01) (0, 0, 0.00000000000000000000e+00) 
connections (connected_to_neuron, weight)=(0, 6.44114241003990173340e-02) (1, -6.20136022567749023438e+00) (0, 3.14480252563953399658e-02) (1, -3.70040464401245117188e+00) (0, 5.37131233215332031250e+01) (1, 7.33845443725585937500e+01) (0, 8.61671864986419677734e-01) (1, 1.01845083236694335938e+01) (0, 1.71967239379882812500e+02) (1, -7.48937416076660156250e+00) (0, -1.33509063720703125000e+02) (1, 2.46863514184951782227e-01) (0, 2.17751085758209228516e-01) (1, -7.63139526367187500000e+02) (0, 5.10979728698730468750e+01) (1, 6.08844490051269531250e+01) (0, 1.10579140484333038330e-01) (1, -8.04696533203125000000e+02) (0, -1.49524243164062500000e+03) (1, -1.18614859879016876221e-01) (0, 5.53979985415935516357e-02) (1, 2.48309574127197265625e+01) (0, 4.91695106029510498047e-01) (1, 8.99329841136932373047e-01) (0, 9.68244671821594238281e-02) (1, 5.14404010772705078125e+00) (0, 1.35464167594909667969e+00) (1, 6.09994363784790039062e+00) (0, 4.27357055664062500000e+02) (1, -1.28527023315429687500e+02) (0, 1.88642859458923339844e-01) (1, 1.12598836421966552734e+00) (0, -3.55684421956539154053e-02) (1, -2.15023589134216308594e+00) (0, 1.43306926474906504154e-04) (1, -2.92555475234985351562e+00) (0, 1.15875370800495147705e-01) (1, -2.89443397521972656250e+00) (0, -1.44395043945312500000e+03) (1, -6.94951049804687500000e+02) (0, 1.35524845123291015625e+00) (1, 3.90425338745117187500e+01) (0, -7.91363037109375000000e+02) (1, -1.66718845367431640625e+01) (0, 1.06472291052341461182e-01) (1, -9.18003320693969726562e-01) (0, -1.44783154296875000000e+03) (1, -1.34847949218750000000e+03) (0, 8.18613529205322265625e+00) (1, -2.99433288574218750000e+01) (0, -1.18972213745117187500e+02) (1, 2.33065083622932434082e-01) (0, -1.62279844284057617188e+00) (1, -3.62867689132690429688e+00) (0, 4.85204887390136718750e+00) (1, 4.84743385314941406250e+01) (0, -6.73895001411437988281e-01) (1, -5.54573202133178710938e+00) (0, 8.19488316774368286133e-02) (1, -6.01967144012451171875e+00) (0, 2.72020459175109863281e+00) (1, -1.28098382949829101562e+01) (0, 4.85330486297607421875e+00) (1, 4.52043151855468750000e+01) (0, -6.41810560226440429688e+00) (1, -3.48368644714355468750e+01) (0, 1.34024908766150474548e-02) (1, -1.40084362030029296875e+01) (0, -4.65824651718139648438e+00) (1, -1.71177406311035156250e+01) (0, 4.37502682209014892578e-01) (1, 2.80566692352294921875e+00) (0, 1.47360583496093750000e+03) (1, -1.38989184570312500000e+03) (0, -1.49231982421875000000e+03) (1, 1.36767227172851562500e+02) (0, -1.36192993164062500000e+03) (1, -1.49513098144531250000e+03) (0, -1.01498365402221679688e+01) (1, -4.44394012451171875000e+02) (0, 5.33040733337402343750e+01) (1, 1.73015472412109375000e+02) (0, -1.27325618267059326172e+00) (1, -1.37369604110717773438e+01) (0, 1.23178869485855102539e-01) (1, -7.10730590820312500000e+01) (0, 9.01462554931640625000e-01) (1, 1.15712089538574218750e+01) (0, 1.08958837890625000000e+03) (1, 1.12610641479492187500e+02) (0, -1.88289666175842285156e+00) (1, -5.07515096664428710938e+00) (0, 1.52910292148590087891e-01) (1, -5.93582487106323242188e+00) (0, -1.03639566898345947266e+00) (1, -1.10151904296875000000e+03) (0, 1.37408718466758728027e-01) (1, -7.36044006347656250000e+01) (0, 3.36354714818298816681e-05) (1, 1.91359221935272216797e+00) (2, 2.10497751832008361816e-01) (3, 5.98408639430999755859e-01) (4, -5.72209767997264862061e-02) (5, -2.11385631561279296875e+00) (6, 3.15427988767623901367e-01) (7, 8.58767926692962646484e-01) (8, -6.39297813177108764648e-02) (9, -2.22077649086713790894e-02) (10, 7.60539054870605468750e-01) (11, 5.43787896633148193359e-01) (12, 7.33942627906799316406e-01) (13, -8.22017431259155273438e-01) (14, -1.77084410190582275391e+00) (15, 7.09135308861732482910e-02) (16, -2.75442600250244140625e-01) (17, -3.31662073731422424316e-02) (18, 4.23441588878631591797e-01) (19, -6.44650831818580627441e-02) (20, -8.53497013449668884277e-02) (21, 5.86036741733551025391e-01) (22, 3.34358178079128265381e-02) (23, 2.40074098110198974609e-01) (24, -4.09724891185760498047e-01) (25, 3.61919224262237548828e-01) (26, 5.03428637981414794922e-01) (27, 8.25073540210723876953e-01) (28, 8.90186309814453125000e-01) (29, 5.95881557092070579529e-03) (30, 7.85280883312225341797e-01) (31, 4.18371796607971191406e-01) (32, 5.97996771335601806641e-01) (33, 9.63156521320343017578e-02) (34, 9.78593289852142333984e-01) (35, 3.24338912963867187500e-01) (36, -2.34914112091064453125e+00) (37, -1.79118663072586059570e-01) (38, 3.84131133556365966797e-01) (39, 2.71864145994186401367e-01) (40, -4.28214222192764282227e-01) (41, -2.41947078704833984375e+00) (42, -1.05889745056629180908e-01) (43, 8.12622606754302978516e-01) (44, 2.66415663063526153564e-02) (45, 4.56490926444530487061e-02) (46, 8.89525469392538070679e-03) (47, 7.74450242519378662109e-01) (48, 8.74618887901306152344e-01) (49, 8.12388479709625244141e-01) (50, 9.20355141162872314453e-01) (51, -5.28440019115805625916e-03) (52, 1.35820642113685607910e-01) (2, -3.58525966294109821320e-03) (3, -4.12716120481491088867e-01) (4, 6.29336714744567871094e-01) (5, 6.84680759906768798828e-01) (6, -2.49118089675903320312e-01) (7, 1.33508121967315673828e+00) (8, 2.46667981147766113281e-01) (9, 5.68078279495239257812e-01) (10, -2.07171648740768432617e-01) (11, 9.74106907844543457031e-01) (12, 3.06719362735748291016e-01) (13, -2.57470197975635528564e-02) (14, 2.33903944492340087891e-01) (15, 5.77003777027130126953e-01) (16, -1.87612041831016540527e-01) (17, 1.22089779376983642578e+00) (18, -9.98148620128631591797e-01) (19, 1.10577799379825592041e-01) (20, -8.78039896488189697266e-01) (21, -7.77046903967857360840e-02) (22, 5.98433017730712890625e-01) (23, 6.87367200851440429688e-01) (24, -6.16384148597717285156e-01) (25, 1.30133521556854248047e+00) (26, -2.64915704727172851562e-01) (27, 1.48901367187500000000e+00) (28, 2.60631859302520751953e-01) (29, 5.65703928470611572266e-01) (30, 6.02156817913055419922e-01) (31, 2.31441315263509750366e-02) (32, -5.31535983085632324219e-01) (33, 6.02243721485137939453e-01) (34, -2.15094983577728271484e-01) (35, -1.34089723229408264160e-01) (36, 1.05678927898406982422e+00) (37, 2.57978171110153198242e-01) (38, -2.10893005132675170898e-01) (39, 8.51345717906951904297e-01) (40, -5.00579416751861572266e-01) (41, 9.33690011501312255859e-01) (42, 4.98171985149383544922e-01) (43, 4.46616381406784057617e-01) (44, -1.07051050662994384766e+00) (45, 7.13140249252319335938e-01) (46, 7.59446442127227783203e-01) (47, 5.85042953491210937500e-01) (48, 1.95337366312742233276e-02) (49, 2.82607644796371459961e-01) (50, 6.02384567260742187500e-01) (51, 3.43344956636428833008e-01) (52, 6.12760543823242187500e-01) (2, 4.80886310338973999023e-01) (3, 6.20287239551544189453e-01) (4, -4.09670174121856689453e-02) (5, 5.45996800065040588379e-02) (6, 5.87821245193481445312e-01) (7, 1.12431362271308898926e-01) (8, 7.54622578620910644531e-01) (9, -8.82068350911140441895e-02) (10, 6.35196208953857421875e-01) (11, 3.22343140840530395508e-01) (12, 1.33919620513916015625e+00) (13, 4.91635739803314208984e-01) (14, 4.51619625091552734375e-01) (15, -1.89781621098518371582e-01) (16, 2.35683843493461608887e-01) (17, 7.15747296810150146484e-01) (18, 9.26782727241516113281e-01) (19, 1.45768678188323974609e+00) (20, 2.07588148117065429688e+00) (21, 8.10837328433990478516e-01) (22, -1.74685433506965637207e-01) (23, 8.02248001098632812500e-01) (24, 3.46976161003112792969e-01) (25, 4.12175953388214111328e-01) (26, 6.28848850727081298828e-01) (27, -1.77041403949260711670e-02) (28, 1.23833012580871582031e+00) (29, -1.00659877061843872070e-01) (30, 1.00869202613830566406e+00) (31, 8.76120388507843017578e-01) (32, 6.65615379810333251953e-01) (33, -1.31261765956878662109e-01) (34, 8.04245352745056152344e-01) (35, 5.23819267749786376953e-01) (36, 5.20751655101776123047e-01) (37, 3.57767671346664428711e-01) (38, 5.12037396430969238281e-01) (39, 1.83106645941734313965e-01) (40, 1.10822331905364990234e+00) (41, 7.65408873558044433594e-01) (42, -3.11566870659589767456e-02) (43, 1.00915908813476562500e+00) (44, 6.92303776741027832031e-01) (45, -1.77438557147979736328e-01) (46, 5.06803244352340698242e-02) (47, 1.26965296268463134766e+00) (48, 1.15339708328247070312e+00) (49, 6.60711407661437988281e-01) (50, 1.48031258583068847656e+00) (51, -4.93550710380077362061e-02) (52, 2.95181218534708023071e-02) (2, -4.19491808861494064331e-03) (3, -4.73953373730182647705e-02) (4, 5.22213578224182128906e-01) (5, 4.83764261007308959961e-01) (6, -4.74307090044021606445e-01) (7, 6.72910809516906738281e-01) (8, -3.43432463705539703369e-02) (9, 5.62393784523010253906e-01) (10, -1.68085813522338867188e-01) (11, 8.93544137477874755859e-01) (12, 1.58630385994911193848e-01) (13, 4.98391509056091308594e-01) (14, 7.72736728191375732422e-01) (15, 5.53853869438171386719e-01) (16, 8.70190680027008056641e-01) (17, 6.89929127693176269531e-01) (18, 2.98798412084579467773e-01) (19, -5.92227458953857421875e-01) (20, -2.66583651304244995117e-01) (21, -1.60776197910308837891e-01) (22, 4.15843665599822998047e-01) (23, -8.09627100825309753418e-02) (24, 7.33757734298706054688e-01) (25, 5.07695317268371582031e-01) (26, -8.95679369568824768066e-02) (27, 6.09752476215362548828e-01) (28, -2.04454153776168823242e-01) (29, 4.89785104990005493164e-01) (30, 2.62139648199081420898e-01) (31, 6.63180183619260787964e-03) (32, -5.31455576419830322266e-02) (33, 4.53962296247482299805e-01) (34, 8.77715572714805603027e-02) (35, -7.91422054171562194824e-02) (36, 2.02647045254707336426e-01) (37, 7.14806437492370605469e-01) (38, -1.43270850181579589844e-01) (39, 5.43565332889556884766e-01) (40, -5.41657283902168273926e-02) (41, -1.02209918200969696045e-01) (42, 2.66303539276123046875e-01) (43, 4.06808912754058837891e-01) (44, -2.47798204421997070312e-01) (45, 5.78136861324310302734e-01) (46, 3.94240230321884155273e-01) (47, 1.31905972957611083984e-01) (48, -1.87676385045051574707e-01) (49, 2.98558752983808517456e-02) (50, -4.67074543237686157227e-01) (51, 4.47361052036285400391e-01) (52, 5.64357638359069824219e-01) (2, 8.31656530499458312988e-02) (3, 5.51692962646484375000e-01) (4, 1.57877430319786071777e-01) (5, 4.20085996389389038086e-01) (6, 2.36642464995384216309e-01) (7, 5.97981631755828857422e-01) (8, 6.15544319152832031250e-01) (9, 1.55381992459297180176e-01) (10, 1.71425926685333251953e+00) (11, 7.45520770549774169922e-01) (12, 4.48509871959686279297e-01) (13, 3.09197008609771728516e-01) (14, 3.54708641767501831055e-01) (15, 7.15201869606971740723e-02) (16, 4.01374459266662597656e-01) (17, 3.79008561372756958008e-01) (18, 6.31403684616088867188e-01) (19, 5.37005364894866943359e-02) (20, -2.64369193464517593384e-02) (21, 2.03736543655395507812e+00) (22, 3.06034423410892486572e-02) (23, 3.66615116596221923828e-01) (24, 2.79086619615554809570e-01) (25, 5.41142463684082031250e-01) (26, 5.39925754070281982422e-01) (27, 6.89804553985595703125e-01) (28, 5.27103304862976074219e-01) (29, 1.73346802592277526855e-01) (30, 6.98563873767852783203e-01) (31, 3.95556986331939697266e-01) (32, 6.31526112556457519531e-01) (33, 1.24526523053646087646e-01) (34, 3.04255783557891845703e-01) (35, 7.23553419113159179688e-01) (36, 5.42158782482147216797e-01) (37, 2.27264195680618286133e-01) (38, 6.01566433906555175781e-01) (39, 4.83482062816619873047e-01) (40, 7.13323950767517089844e-01) (41, -3.29272359609603881836e-01) (42, 1.25934660434722900391e-01) (43, 9.17287170886993408203e-01) (44, 5.16613960266113281250e-01) (45, 1.47971779108047485352e-01) (46, 4.35742288827896118164e-02) (47, 7.84732997417449951172e-01) (48, 1.18992686271667480469e+00) (49, 5.15184402465820312500e-01) (50, 2.19031885266304016113e-01) (51, -2.38541625440120697021e-02) (52, -4.81138704344630241394e-03) (2, 3.67575585842132568359e-01) (3, 4.57407414913177490234e-01) (4, 2.57159937173128128052e-02) (5, -4.83497865498065948486e-02) (6, 4.13508176803588867188e-01) (7, 8.32807898521423339844e-01) (8, 6.33009910583496093750e-01) (9, 1.08049206435680389404e-01) (10, 4.20748412609100341797e-01) (11, 4.83030766248703002930e-01) (12, 6.42910718917846679688e-01) (13, -1.84826776385307312012e-01) (14, -2.11226537823677062988e-01) (15, 1.01988334208726882935e-02) (16, -4.06318336725234985352e-01) (17, -1.96299776434898376465e-02) (18, 5.10422348976135253906e-01) (19, -2.33045548200607299805e-01) (20, 6.75907909870147705078e-01) (21, 6.36029660701751708984e-01) (22, 1.00117370486259460449e-01) (23, 1.78142935037612915039e-01) (24, -2.27829843759536743164e-01) (25, 2.62374132871627807617e-01) (26, 7.45786488056182861328e-01) (27, 7.18940436840057373047e-01) (28, 6.56569540500640869141e-01) (29, -1.55709646642208099365e-02) (30, 5.91410934925079345703e-01) (31, 5.49546003341674804688e-01) (32, 5.05013763904571533203e-01) (33, 7.27815330028533935547e-02) (34, 9.28871810436248779297e-01) (35, 4.56663638353347778320e-01) (36, 7.14712977409362792969e-01) (37, -1.81788757443428039551e-01) (38, 3.22654217481613159180e-01) (39, -1.35006695985794067383e-01) (40, 1.45715141296386718750e+00) (41, 8.38252484798431396484e-01) (42, -1.96660950779914855957e-01) (43, 7.86961197853088378906e-01) (44, 5.50536215305328369141e-01) (45, 9.27082374691963195801e-02) (46, -5.15912733972072601318e-02) (47, 6.87448143959045410156e-01) (48, 5.97711980342864990234e-01) (49, 6.70524477958679199219e-01) (50, 8.29918146133422851562e-01) (51, -3.24844499118626117706e-03) (52, 2.11882755160331726074e-01) (2, 1.11107960343360900879e-01) (3, 1.82774931192398071289e-01) (4, 1.00524282455444335938e+00) (5, 3.08222740888595581055e-01) (6, 2.55353063344955444336e-01) (7, 9.31207418441772460938e-01) (8, -3.38787168264389038086e-01) (9, 1.03037309646606445312e+00) (10, 2.06261008977890014648e-01) (11, 8.45316350460052490234e-01) (12, 2.95485109090805053711e-01) (13, 5.16295015811920166016e-01) (14, 3.61253231763839721680e-01) (15, 8.97775590419769287109e-01) (16, 2.09713682532310485840e-01) (17, 6.62326574325561523438e-01) (18, 3.97788658738136291504e-02) (19, 1.02667617797851562500e+00) (20, -5.77174484729766845703e-01) (21, 8.62581908702850341797e-01) (22, 9.12646412849426269531e-01) (23, 3.20403248071670532227e-01) (24, 4.10245925188064575195e-01) (25, 7.56704449653625488281e-01) (26, -5.37265479564666748047e-01) (27, 7.61931836605072021484e-01) (28, 3.68787974119186401367e-01) (29, 1.02600276470184326172e+00) (30, 1.05542093515396118164e-01) (31, -4.81362402439117431641e-01) (32, 3.29830795526504516602e-01) (33, 1.00440239906311035156e+00) (34, 2.67608493566513061523e-01) (35, 1.08566908165812492371e-02) (36, -7.68554732203483581543e-02) (37, 5.32932281494140625000e-01) (38, 1.88948944211006164551e-01) (39, 1.33927452564239501953e+00) (40, 2.69996851682662963867e-01) (41, 3.20991230010986328125e+00) (42, 4.49879556894302368164e-01) (43, 3.42865347862243652344e-01) (44, 2.32354953885078430176e-01) (45, 1.03048980236053466797e+00) (46, 4.79427933692932128906e-01) (47, 3.61882537603378295898e-01) (48, -5.18887460231781005859e-01) (49, 9.39516872167587280273e-02) (50, 8.37881788611412048340e-02) (51, 6.78773462772369384766e-01) (52, 1.68492746353149414062e+00) (2, 1.21604037284851074219e+00) (3, 2.74118691682815551758e-01) (4, -4.30660724639892578125e-01) (5, -4.12923246622085571289e-01) (6, 1.43583953380584716797e-01) (7, -2.38638788461685180664e-01) (8, 9.80305075645446777344e-01) (9, -5.27976453304290771484e-01) (10, 1.20032823085784912109e+00) (11, 1.82014361023902893066e-01) (12, 9.25370633602142333984e-01) (13, -2.18974631279706954956e-02) (14, 7.21515342593193054199e-03) (15, -3.76798480749130249023e-01) (16, 1.42388805747032165527e-01) (17, 1.74734264612197875977e-01) (18, 1.24085319042205810547e+00) (19, 5.62337875366210937500e-01) (20, 3.22229981422424316406e-01) (21, 4.49965566396713256836e-01) (22, -4.64650958776473999023e-01) (23, 9.68458712100982666016e-01) (24, -3.90665578842163085938e+00) (25, -9.45387706160545349121e-02) (26, 3.66228520870208740234e-01) (27, -3.50276589393615722656e-01) (28, 9.01814877986907958984e-01) (29, -5.12676060199737548828e-01) (30, 1.19172227382659912109e+00) (31, 1.13056051731109619141e+00) (32, 1.33683949708938598633e-01) (33, -4.32584047317504882812e-01) (34, 4.06347125768661499023e-01) (35, 8.76781749725341796875e+00) (36, 1.34536480903625488281e+00) (37, 1.54365554451942443848e-01) (38, 2.40755960345268249512e-01) (39, -1.29441991448402404785e-01) (40, 5.01112580299377441406e-01) (41, 4.55595701932907104492e-01) (42, -2.45612382888793945312e-01) (43, 1.50989615917205810547e+00) (44, 1.30028843879699707031e+00) (45, -3.64385157823562622070e-01) (46, -3.00031900405883789062e-01) (47, 1.18213987350463867188e+00) (48, 7.74128854274749755859e-01) (49, 8.03165495395660400391e-01) (50, 4.86363679170608520508e-01) (51, -1.69895559549331665039e-01) (52, -5.29013097286224365234e-01) (2, -1.74155980348587036133e-01) (3, 3.30580383539199829102e-01) (4, 8.61607372760772705078e-01) (5, 9.05155062675476074219e-01) (6, -1.92572325468063354492e-02) (7, 3.38663786649703979492e-01) (8, -1.02031528949737548828e-01) (9, 1.09136962890625000000e+00) (10, -3.07408601045608520508e-01) (11, 4.66132491827011108398e-01) (12, -9.18669641017913818359e-01) (13, 1.31708920001983642578e+00) (14, 1.30677211284637451172e+00) (15, 7.76417374610900878906e-01) (16, 1.29033651351928710938e+01) (17, 1.44113671779632568359e+00) (18, 5.10737448930740356445e-02) (19, -5.49867093563079833984e-01) (20, -4.13224309682846069336e-01) (21, -7.39503622055053710938e-01) (22, 1.03355073928833007812e+00) (23, -2.94784158468246459961e-01) (24, 1.29711103439331054688e+00) (25, 8.06228816509246826172e-01) (26, 7.81426355242729187012e-02) (27, 1.94763660430908203125e-01) (28, -1.03608357906341552734e+00) (29, 1.15436303615570068359e+00) (30, 2.35140938311815261841e-02) (31, -7.29497447609901428223e-02) (32, -1.58476345241069793701e-02) (33, 8.31805467605590820312e-01) (34, -2.37128034234046936035e-01) (35, -1.78738427162170410156e+00) (36, -2.03214898705482482910e-01) (37, 1.37781107425689697266e+00) (38, 3.19907180964946746826e-02) (39, 7.28037655353546142578e-01) (40, 2.20966022461652755737e-02) (41, 9.75976958870887756348e-02) (42, 6.20439291000366210938e-01) (43, 7.69248232245445251465e-02) (44, 5.88285923004150390625e-01) (45, 1.10752797126770019531e+00) (46, 7.85358011722564697266e-01) (47, -3.69153648614883422852e-01) (48, -5.98987162113189697266e-01) (49, -9.36194837093353271484e-01) (50, -3.10632824897766113281e-01) (51, 6.13068044185638427734e-01) (52, 5.41642725467681884766e-01) (2, 6.37249574065208435059e-02) (3, 2.79613137245178222656e-01) (4, 6.83027029037475585938e-01) (5, 8.28431963920593261719e-01) (6, 4.72892336547374725342e-02) (7, -2.84999936819076538086e-01) (8, -5.07511496543884277344e-02) (9, 6.21297419071197509766e-01) (10, -5.43199598789215087891e-01) (11, 3.52405369281768798828e-01) (12, -2.52992868423461914062e+00) (13, 1.34653806686401367188e+00) (14, 1.13603138923645019531e+00) (15, 6.19846105575561523438e-01) (16, 1.33341312408447265625e+01) (17, 1.35346627235412597656e+00) (18, 4.73782494664192199707e-02) (19, -3.42427134513854980469e-01) (20, -4.35848951339721679688e-01) (21, -4.15542650222778320312e+00) (22, 6.52784883975982666016e-01) (23, -1.19540117681026458740e-01) (24, 9.08023774623870849609e-01) (25, 5.97587943077087402344e-01) (26, 1.06162473559379577637e-01) (27, 2.98226863145828247070e-01) (28, -1.01967489719390869141e+00) (29, 5.40189146995544433594e-01) (30, 2.19764456152915954590e-01) (31, 8.16846489906311035156e-02) (32, 6.45079761743545532227e-02) (33, 6.50379538536071777344e-01) (34, 1.48839950561523437500e-02) (35, -9.44091498851776123047e-01) (36, -4.66083079576492309570e-01) (37, 1.02375459671020507812e+00) (38, -2.49828472733497619629e-01) (39, 9.19239878654479980469e-01) (40, -6.48500978946685791016e-01) (41, 1.21278405189514160156e-01) (42, 7.12413370609283447266e-01) (43, 3.39620828628540039062e-01) (44, 7.27274477481842041016e-01) (45, 6.14893615245819091797e-01) (46, 8.20509254932403564453e-01) (47, -3.33634346723556518555e-01) (48, -9.99070703983306884766e-02) (49, -7.54876017570495605469e-01) (50, -2.31172966957092285156e+00) (51, 7.86065042018890380859e-01) (52, 7.71816432476043701172e-01) (2, 9.49739873409271240234e-01) (3, -2.47107362747192382812e+00) (4, -3.43378931283950805664e-01) (5, -2.13786259293556213379e-01) (6, 1.63952469825744628906e-01) (7, -1.77457794547080993652e-01) (8, 6.78660869598388671875e-01) (9, -4.97839003801345825195e-01) (10, 2.21727395057678222656e+00) (11, 2.36758947372436523438e-01) (12, 9.91308033466339111328e-01) (13, 1.25940144062042236328e-01) (14, -3.38993668556213378906e-01) (15, -4.49195504188537597656e-01) (16, 4.31907363235950469971e-02) (17, 1.84145778417587280273e-01) (18, 1.26573252677917480469e+00) (19, 6.29657804965972900391e-01) (20, -3.74159477651119232178e-02) (21, 5.83862423896789550781e-01) (22, -4.36926335096359252930e-01) (23, 9.21349942684173583984e-01) (24, -4.01685610413551330566e-02) (25, 2.51796003431081771851e-02) (26, 3.06866943836212158203e-01) (27, -2.04045370221138000488e-01) (28, 9.22446250915527343750e-01) (29, -4.56155061721801757812e-01) (30, 1.23015820980072021484e+00) (31, 3.43477547168731689453e-01) (32, 2.44044400751590728760e-02) (33, -5.04091262817382812500e-01) (34, 5.35124599933624267578e-01) (35, -9.64135360717773437500e+00) (36, 1.21454751491546630859e+00) (37, 1.07402391731739044189e-01) (38, -2.89432872086763381958e-02) (39, -1.96933317929506301880e-02) (40, 4.83472198247909545898e-01) (41, 6.97951793670654296875e-01) (42, -2.24522352218627929688e-01) (43, 1.45458221435546875000e+00) (44, 1.00159573554992675781e+00) (45, -4.54330742359161376953e-01) (46, -1.76264598965644836426e-01) (47, 7.27019786834716796875e-01) (48, 5.03689646720886230469e-01) (49, 1.21682035923004150391e+00) (50, -3.71965952217578887939e-02) (51, -3.11596453189849853516e-01) (52, -4.62765209376811981201e-02) (2, 3.76247972249984741211e-01) (3, 5.01891255378723144531e-01) (4, -3.87553349137306213379e-02) (5, -2.45340898633003234863e-01) (6, 1.25733107328414916992e-01) (7, 8.90530288219451904297e-01) (8, 3.89387309551239013672e-01) (9, -1.33103448897600173950e-02) (10, 5.26505410671234130859e-01) (11, 6.15396261215209960938e-01) (12, 6.03862643241882324219e-01) (13, -9.86511588096618652344e-01) (14, -1.39744207262992858887e-01) (15, 5.16017675399780273438e-02) (16, -4.36815321445465087891e-01) (17, 3.30286193639039993286e-03) (18, 4.63976293802261352539e-01) (19, -2.04770445823669433594e-01) (20, 6.45201504230499267578e-01) (21, 8.04952383041381835938e-01) (22, -1.29313776269555091858e-02) (23, 2.74946451187133789062e-01) (24, -3.48409384489059448242e-01) (25, 4.21297460794448852539e-01) (26, 5.02718627452850341797e-01) (27, 8.93775284290313720703e-01) (28, 9.15884554386138916016e-01) (29, 9.74602326750755310059e-02) (30, 7.10739910602569580078e-01) (31, 3.81644457578659057617e-01) (32, 5.78735530376434326172e-01) (33, -2.17531565576791763306e-02) (34, 1.16319286823272705078e+00) (35, 5.77215254306793212891e-01) (36, -2.30062007904052734375e+00) (37, -7.34067335724830627441e-02) (38, 4.50519770383834838867e-01) (39, 1.92720800638198852539e-01) (40, 9.17301416397094726562e-01) (41, -7.24764645099639892578e-01) (42, -1.38015761971473693848e-01) (43, 8.83667051792144775391e-01) (44, -1.34975999593734741211e-01) (45, 1.01453803479671478271e-01) (46, 6.40536323189735412598e-02) (47, 8.18603396415710449219e-01) (48, 6.74725353717803955078e-01) (49, 6.52206659317016601562e-01) (50, 4.49522823095321655273e-01) (51, -2.26430054754018783569e-02) (52, -4.37461063265800476074e-02) (2, 1.24008846282958984375e+00) (3, 2.30874910950660705566e-01) (4, -5.64521551132202148438e-01) (5, -3.31178903579711914062e-01) (6, 1.63743281364440917969e+00) (7, 2.17858657240867614746e-01) (8, 1.18168127536773681641e+00) (9, -5.03610491752624511719e-01) (10, 3.06687998771667480469e+00) (11, 1.86625599861145019531e-01) (12, 9.15242075920104980469e-01) (13, 3.68038229644298553467e-02) (14, 4.12137396633625030518e-02) (15, -5.55812716484069824219e-01) (16, 1.43525868654251098633e-01) (17, 1.99577119201421737671e-02) (18, 1.24189162254333496094e+00) (19, 4.62082892656326293945e-01) (20, 4.28387105464935302734e-01) (21, 4.27539229393005371094e-01) (22, -4.09045398235321044922e-01) (23, 1.24912416934967041016e+00) (24, -1.51924401521682739258e-01) (25, -6.47632777690887451172e-02) (26, 4.67673093080520629883e-01) (27, 1.68424949049949645996e-01) (28, 5.47385096549987792969e-01) (29, -4.33853626251220703125e-01) (30, 1.24796235561370849609e+00) (31, 1.21953713893890380859e+00) (32, 2.20365643501281738281e-01) (33, -5.47533094882965087891e-01) (34, 3.46290707588195800781e-01) (35, -6.75514101982116699219e-01) (36, 1.20911097526550292969e+00) (37, 2.50550042837858200073e-02) (38, 2.79757648706436157227e-01) (39, -2.46241271495819091797e-01) (40, 3.78944396972656250000e-01) (41, 5.57076871395111083984e-01) (42, -2.25986853241920471191e-01) (43, 1.45610129833221435547e+00) (44, 1.47276282310485839844e+00) (45, -5.62129974365234375000e-01) (46, -2.08714216947555541992e-01) (47, 1.24814987182617187500e+00) (48, 4.38302010297775268555e-01) (49, 1.09379720687866210938e+00) (50, 8.62853348255157470703e-01) (51, -4.09578144550323486328e-01) (52, -4.71510589122772216797e-01) (2, 1.00860464572906494141e+00) (3, 3.49744439125061035156e-01) (4, -2.05164626240730285645e-01) (5, -1.65079087018966674805e-01) (6, 3.08507412672042846680e-01) (7, -4.24034804105758666992e-01) (8, 1.15979063510894775391e+00) (9, -2.01189368963241577148e-01) (10, 1.90437185764312744141e+00) (11, 1.91768825054168701172e-01) (12, 1.22451341152191162109e+00) (13, 2.49721869826316833496e-01) (14, 1.41389071941375732422e-01) (15, -2.01567843556404113770e-01) (16, 3.36459904909133911133e-01) (17, 2.53947168588638305664e-01) (18, 1.16588139533996582031e+00) (19, 9.43180382251739501953e-01) (20, 5.43122947216033935547e-01) (21, 1.54890894889831542969e-01) (22, -3.31930369138717651367e-01) (23, 9.66439902782440185547e-01) (24, 1.32196798920631408691e-01) (25, -2.33936637639999389648e-01) (26, 4.42582279443740844727e-01) (27, -4.30267423391342163086e-01) (28, 2.01515436172485351562e-01) (29, -3.09217840433120727539e-01) (30, 1.15462243556976318359e+00) (31, 1.16451549530029296875e+00) (32, 5.35074710845947265625e-01) (33, -2.90946930646896362305e-01) (34, 2.18053027987480163574e-01) (35, 3.85108590126037597656e-02) (36, 1.04520487785339355469e+00) (37, 1.40738233923912048340e-01) (38, 4.10470247268676757812e-01) (39, -2.26287737488746643066e-01) (40, 3.45692485570907592773e-01) (41, 3.88857513666152954102e-01) (42, -2.31686174869537353516e-01) (43, 1.31434857845306396484e+00) (44, 1.28445982933044433594e+00) (45, -1.71605199575424194336e-01) (46, -8.78892242908477783203e-02) (47, 1.60922110080718994141e+00) (48, 1.08009970188140869141e+00) (49, 7.65371203422546386719e-01) (50, -7.08603933453559875488e-02) (51, -1.62341654300689697266e-01) (52, -3.56703460216522216797e-01) (2, 3.38736772537231445312e-01) (3, 3.94529670476913452148e-01) (4, 1.22150790691375732422e+00) (5, 1.29633796215057373047e+00) (6, 2.38378658890724182129e-01) (7, -3.22394847869873046875e-01) (8, 1.53353667259216308594e+00) (9, 1.22116720676422119141e+00) (10, 4.65777397155761718750e+00) (11, -9.13106463849544525146e-03) (12, 2.48057037591934204102e-01) (13, 4.42662358283996582031e-01) (14, 7.61923611164093017578e-01) (15, 1.31462442874908447266e+00) (16, 3.29476594924926757812e-02) (17, 9.46807503700256347656e-01) (18, 4.08582389354705810547e-01) (19, 2.48861417174339294434e-01) (20, 6.39972591400146484375e+00) (21, 4.98223632574081420898e-01) (22, 1.34416747093200683594e+00) (23, 5.08362591266632080078e-01) (24, 3.18184584379196166992e-01) (25, 8.94737616181373596191e-02) (26, 4.34373497962951660156e-01) (27, -2.12775751948356628418e-01) (28, 4.05217409133911132812e-01) (29, 1.24992477893829345703e+00) (30, 1.20440743863582611084e-01) (31, 5.26872158050537109375e-01) (32, 5.47532558441162109375e-01) (33, 1.19445955753326416016e+00) (34, -4.87222135066986083984e-01) (35, 5.33815205097198486328e-01) (36, 1.74688708782196044922e+00) (37, 4.13913220167160034180e-01) (38, 1.46292757987976074219e+00) (39, -1.32069659233093261719e+00) (40, 1.97440385818481445312e-01) (41, -3.80831503868103027344e+00) (42, 1.06076061725616455078e+00) (43, 1.43246561288833618164e-01) (44, 6.37180030345916748047e-01) (45, 1.22356295585632324219e+00) (46, 1.10517847537994384766e+00) (47, -1.69915854930877685547e+00) (48, -8.76277834177017211914e-02) (49, -3.84263783693313598633e-01) (50, -1.18164432048797607422e+00) (51, 3.99360001087188720703e-01) (52, 1.41455078125000000000e+00) (2, 9.05463576316833496094e-01) (3, 3.16157579421997070312e-01) (4, -5.59710621833801269531e-01) (5, -4.23616081476211547852e-01) (6, 4.92773860692977905273e-01) (7, -3.67890715599060058594e-01) (8, 1.11986303329467773438e+00) (9, -4.86016094684600830078e-01) (10, 1.75989377498626708984e+00) (11, 1.39721915125846862793e-01) (12, 9.19716000556945800781e-01) (13, 1.29159837961196899414e-01) (14, 7.53665342926979064941e-02) (15, -3.95151913166046142578e-01) (16, 2.04129710793495178223e-01) (17, 1.11414179205894470215e-01) (18, 1.03125774860382080078e+00) (19, 2.83822953701019287109e-01) (20, 8.76354426145553588867e-02) (21, 5.14803946018218994141e-01) (22, -5.30606627464294433594e-01) (23, 9.98759090900421142578e-01) (24, -3.76647710800170898438e-01) (25, -9.35733690857887268066e-02) (26, 3.75674903392791748047e-01) (27, -2.27030739188194274902e-01) (28, 6.37673616409301757812e-01) (29, -3.92832189798355102539e-01) (30, 1.03643333911895751953e+00) (31, 1.14430105686187744141e+00) (32, 1.33083447813987731934e-01) (33, -5.29338359832763671875e-01) (34, 4.08113420009613037109e-01) (35, -2.20710504800081253052e-02) (36, 1.03123545646667480469e+00) (37, 1.24457754194736480713e-01) (38, 2.30809673666954040527e-01) (39, -1.84983909130096435547e-01) (40, 3.09658527374267578125e-01) (41, 6.05808973312377929688e-01) (42, -2.41064682602882385254e-01) (43, 1.23635089397430419922e+00) (44, 1.30580723285675048828e+00) (45, -3.88422220945358276367e-01) (46, -2.46545523405075073242e-01) (47, 8.68592560291290283203e-01) (48, 6.04912161827087402344e-01) (49, 8.24990212917327880859e-01) (50, 7.37330555915832519531e-01) (51, -2.16723084449768066406e-01) (52, -5.26104569435119628906e-01) (2, 2.97740280628204345703e-01) (3, 4.89918142557144165039e-01) (4, 5.16521595418453216553e-02) (5, -1.39066070318222045898e-01) (6, 4.45315182209014892578e-01) (7, 7.22061634063720703125e-01) (8, 6.56986117362976074219e-01) (9, 1.34218454360961914062e-01) (10, 4.94086951017379760742e-01) (11, 5.44454216957092285156e-01) (12, 7.39621937274932861328e-01) (13, -2.31380730867385864258e-01) (14, -2.44748741388320922852e-01) (15, -1.82093717157840728760e-02) (16, -9.88065540790557861328e-01) (17, 6.58606458455324172974e-03) (18, 4.71683710813522338867e-01) (19, -2.73880153894424438477e-01) (20, 5.42813479900360107422e-01) (21, 5.44627308845520019531e-01) (22, 1.09284259378910064697e-01) (23, 4.20631378889083862305e-01) (24, -1.98784276843070983887e-01) (25, 3.48422646522521972656e-01) (26, 6.28267228603363037109e-01) (27, 7.43471205234527587891e-01) (28, 6.90352976322174072266e-01) (29, 1.21304050087928771973e-01) (30, 7.22120285034179687500e-01) (31, 6.00982546806335449219e-01) (32, 5.17475843429565429688e-01) (33, 1.62025272846221923828e-01) (34, 8.71626079082489013672e-01) (35, 5.87974786758422851562e-01) (36, 5.10795414447784423828e-01) (37, -2.21110388636589050293e-01) (38, 3.90056878328323364258e-01) (39, -5.17657463205978274345e-05) (40, 9.48551893234252929688e-01) (41, 6.73715412616729736328e-01) (42, -1.01980797946453094482e-01) (43, 7.15494334697723388672e-01) (44, 4.77262794971466064453e-01) (45, -3.50005887448787689209e-02) (46, -9.63102355599403381348e-02) (47, 7.80382275581359863281e-01) (48, 7.88278579711914062500e-01) (49, 6.69645905494689941406e-01) (50, 7.25025177001953125000e-01) (51, -1.91159062087535858154e-02) (52, 1.24949507415294647217e-01) (2, 5.02676051110029220581e-03) (3, 1.66461780667304992676e-01) (4, 1.42515206336975097656e+00) (5, 1.15940308570861816406e+00) (6, 4.75609958171844482422e-01) (7, 1.23703348636627197266e+00) (8, -9.95797932147979736328e-01) (9, 1.38766527175903320312e+00) (10, -5.37968240678310394287e-02) (11, 1.28379464149475097656e+00) (12, -6.71186670660972595215e-02) (13, 5.48071801662445068359e-01) (14, 6.20664060115814208984e-01) (15, 1.30351912975311279297e+00) (16, 4.67875659465789794922e-01) (17, 6.75043642520904541016e-01) (18, 7.07245096564292907715e-02) (19, -2.35467761754989624023e-01) (20, -7.11054801940917968750e-02) (21, 2.89047026634216308594e+00) (22, 1.31071519851684570312e+00) (23, 1.32295393943786621094e+00) (24, 4.26621496677398681641e-01) (25, 8.90802025794982910156e-01) (26, 4.48560625314712524414e-01) (27, 1.30985808372497558594e+00) (28, -1.34664401412010192871e-01) (29, 1.42993712425231933594e+00) (30, -1.53507560491561889648e-01) (31, -5.52667118608951568604e-02) (32, 3.68578732013702392578e-01) (33, 1.45537054538726806641e+00) (34, 4.67872649431228637695e-01) (35, 2.56715089082717895508e-01) (36, 3.25991451740264892578e-01) (37, 6.04321897029876708984e-01) (38, 2.57904559373855590820e-01) (39, 1.01113605499267578125e+00) (40, 6.49245917797088623047e-01) (41, 4.86709743738174438477e-01) (42, 7.88566112518310546875e-01) (43, 1.81567102670669555664e-01) (44, 1.93539485335350036621e-01) (45, 1.45481348037719726562e+00) (46, 2.06173047423362731934e-01) (47, 2.38599866628646850586e-01) (48, -3.76217626035213470459e-02) (49, -1.35581165552139282227e-01) (50, -6.19542241096496582031e-01) (51, 1.07947993278503417969e+00) (52, 1.36852490901947021484e+00) (2, -6.76926374435424804688e-02) (3, -1.54756471514701843262e-01) (4, 3.96933197975158691406e-01) (5, 3.53730946779251098633e-01) (6, -9.29616913199424743652e-02) (7, 6.58081710338592529297e-01) (8, 4.47432696819305419922e-01) (9, 3.92728656530380249023e-01) (10, -7.53569900989532470703e-01) (11, 5.57137012481689453125e-01) (12, 3.64998102188110351562e-01) (13, 1.14166408777236938477e-01) (14, 9.58190709352493286133e-02) (15, 5.41176140308380126953e-01) (16, 1.60945549607276916504e-01) (17, 4.37151759862899780273e-01) (18, 2.24237099289894104004e-01) (19, -1.36594402790069580078e+00) (20, -3.67808461189270019531e-01) (21, -5.15130281448364257812e-01) (22, 4.65516954660415649414e-01) (23, -1.33081865310668945312e+00) (24, -2.59387016296386718750e-01) (25, 6.23205542564392089844e-01) (26, 8.31541717052459716797e-02) (27, 6.06227695941925048828e-01) (28, 3.05932104587554931641e-01) (29, 5.82294821739196777344e-01) (30, 9.27659928798675537109e-01) (31, 1.12788423895835876465e-01) (32, -1.69446561485528945923e-02) (33, 4.31305974721908569336e-01) (34, 4.13467615842819213867e-01) (35, -6.43916875123977661133e-02) (36, -9.62193548679351806641e-01) (37, 2.40371316671371459961e-01) (38, -2.83547155559062957764e-02) (39, 4.04432684183120727539e-01) (40, -8.93758714199066162109e-01) (41, -7.59662613272666931152e-02) (42, 3.17408829927444458008e-01) (43, 5.83282768726348876953e-01) (44, -6.07051372528076171875e-01) (45, 4.49201762676239013672e-01) (46, 5.39344072341918945312e-01) (47, 5.16705572605133056641e-01) (48, -3.17930787801742553711e-01) (49, 4.10065770149230957031e-01) (50, 2.92992055416107177734e-01) (51, 5.39370477199554443359e-01) (52, 7.97384381294250488281e-01) (2, 2.67614185810089111328e-01) (3, 6.46299242973327636719e-01) (4, 1.11646600067615509033e-01) (5, -5.21628335118293762207e-02) (6, 4.53477919101715087891e-01) (7, 8.42537522315979003906e-01) (8, 5.06603062152862548828e-01) (9, 6.25794082880020141602e-02) (10, 6.10598742961883544922e-01) (11, 5.54266750812530517578e-01) (12, 7.39530742168426513672e-01) (13, -1.53271496295928955078e-01) (14, -1.31685838103294372559e-01) (15, 4.59167640656232833862e-03) (16, -7.84950613975524902344e-01) (17, -1.26936718821525573730e-01) (18, 3.19519191980361938477e-01) (19, -4.55950908362865447998e-02) (20, 6.30323588848114013672e-01) (21, 5.67085325717926025391e-01) (22, 6.15709135308861732483e-03) (23, 5.26879966259002685547e-01) (24, -2.13291063904762268066e-01) (25, 3.22001397609710693359e-01) (26, 6.50184750556945800781e-01) (27, 7.24881649017333984375e-01) (28, 8.08253288269042968750e-01) (29, 1.42317712306976318359e-01) (30, 6.92033946514129638672e-01) (31, 4.95404809713363647461e-01) (32, 6.50873482227325439453e-01) (33, 1.22425027191638946533e-01) (34, 1.00041949748992919922e+00) (35, 5.39787292480468750000e-01) (36, 5.09104430675506591797e-01) (37, -2.14575096964836120605e-01) (38, 4.61539536714553833008e-01) (39, 8.79352614283561706543e-02) (40, 6.99465155601501464844e-01) (41, 8.34724187850952148438e-01) (42, 9.48050916194915771484e-02) (43, 8.24842572212219238281e-01) (44, 2.52397179603576660156e-01) (45, 1.08392313122749328613e-01) (46, 7.91534706950187683105e-02) (47, 7.54728257656097412109e-01) (48, 7.48812079429626464844e-01) (49, 8.21584939956665039062e-01) (50, 6.93605363368988037109e-01) (51, 4.44764457643032073975e-02) (52, 3.36137376725673675537e-02) (2, 7.08074450492858886719e-01) (3, 1.65760231018066406250e+00) (4, 2.05531358718872070312e-01) (5, 4.39238578081130981445e-01) (6, 2.90593635290861129761e-02) (7, 3.91782104969024658203e-01) (8, 7.19033658504486083984e-01) (9, 3.87017101049423217773e-01) (10, 3.38150888681411743164e-01) (11, 4.37391638755798339844e-01) (12, 7.03671395778656005859e-01) (13, 5.21571397781372070312e-01) (14, 8.80983829498291015625e-01) (15, 3.33784878253936767578e-01) (16, 5.04319489002227783203e-01) (17, -2.28087559342384338379e-01) (18, 6.10295057296752929688e-01) (19, 1.16236709058284759521e-01) (20, 1.90725290775299072266e+00) (21, 3.95203888416290283203e-01) (22, 2.58803397417068481445e-01) (23, 2.13447287678718566895e-02) (24, 2.47312402725219726562e+00) (25, 2.90028929710388183594e-01) (26, -1.08581833541393280029e-01) (27, 4.76346820592880249023e-01) (28, 7.18560457229614257812e-01) (29, 2.38084495067596435547e-01) (30, 6.74352288246154785156e-01) (31, -1.70894991606473922729e-02) (32, 2.02711090445518493652e-01) (33, 3.82480055093765258789e-01) (34, 3.60987633466720581055e-01) (35, 2.74211972951889038086e-01) (36, 1.75370395183563232422e-01) (37, 4.38116550445556640625e-01) (38, 6.28506243228912353516e-01) (39, 2.72803962230682373047e-01) (40, 6.92627191543579101562e-01) (41, -1.11146405339241027832e-01) (42, 1.71546295285224914551e-01) (43, 7.14459598064422607422e-01) (44, 6.80556237697601318359e-01) (45, 3.48676592111587524414e-01) (46, 1.51762902736663818359e-01) (47, 5.51638305187225341797e-01) (48, 2.17154979705810546875e-01) (49, -9.24686253070831298828e-01) (50, 1.30658018589019775391e+00) (51, 2.36312955617904663086e-01) (52, 1.98502063751220703125e-01) (2, 7.92812108993530273438e-02) (3, 4.83835898339748382568e-02) (4, 8.28373312950134277344e-01) (5, -4.35930155217647552490e-02) (6, 2.54537433385848999023e-01) (7, 7.72998392581939697266e-01) (8, -2.62635916471481323242e-01) (9, 7.54514932632446289062e-01) (10, 7.07268595695495605469e-01) (11, 7.47058689594268798828e-01) (12, 9.06972467899322509766e-01) (13, 5.02969205379486083984e-01) (14, 4.60929661989212036133e-01) (15, 8.05813610553741455078e-01) (16, 2.85914003849029541016e-01) (17, 3.96474808454513549805e-01) (18, -1.33912146091461181641e-01) (19, 3.61740961670875549316e-02) (20, 2.19418779015541076660e-01) (21, -1.87427687644958496094e+00) (22, 9.27692115306854248047e-01) (23, 7.21941888332366943359e-01) (24, 4.00072097778320312500e-01) (25, 6.77933990955352783203e-01) (26, 2.32179790735244750977e-01) (27, 8.01713824272155761719e-01) (28, 6.34788051247596740723e-02) (29, 8.84652137756347656250e-01) (30, 3.12896966934204101562e-01) (31, 2.98135042190551757812e-01) (32, 2.68292665481567382812e-01) (33, 8.79398703575134277344e-01) (34, 1.73371508717536926270e-01) (35, 1.00505150854587554932e-01) (36, 1.40001207590103149414e-01) (37, 4.05010938644409179688e-01) (38, 1.43941417336463928223e-01) (39, 5.53543925285339355469e-01) (40, 1.49873840808868408203e+00) (41, 5.42742013931274414062e-01) (42, 3.70648086071014404297e-01) (43, 2.56846398115158081055e-01) (44, 8.04078340530395507812e-01) (45, 9.36514914035797119141e-01) (46, 4.27630424499511718750e-01) (47, 3.74897778034210205078e-01) (48, 7.46280401945114135742e-02) (49, 2.01911047101020812988e-01) (50, -2.31551456451416015625e+00) (51, 7.51275777816772460938e-01) (52, 1.20449101924896240234e+00) (2, 4.07370716333389282227e-01) (3, 5.12201011180877685547e-01) (4, 6.40982165932655334473e-02) (5, -9.97924953699111938477e-02) (6, 2.42464452981948852539e-01) (7, 8.43969166278839111328e-01) (8, 4.19862985610961914062e-01) (9, 1.38288334012031555176e-01) (10, 8.92745554447174072266e-01) (11, 4.21673417091369628906e-01) (12, 7.10406124591827392578e-01) (13, -1.85454308986663818359e-01) (14, -2.67602860927581787109e-01) (15, 1.17244601249694824219e-01) (16, -1.05208814144134521484e+00) (17, -1.77630990743637084961e-01) (18, 4.83761727809906005859e-01) (19, -7.16076716780662536621e-02) (20, 6.22858285903930664062e-01) (21, 5.98690927028656005859e-01) (22, 3.29467877745628356934e-02) (23, -5.25212064385414123535e-02) (24, -3.37332606315612792969e-01) (25, 2.75791347026824951172e-01) (26, 6.19436144828796386719e-01) (27, 8.32798957824707031250e-01) (28, 7.59335398674011230469e-01) (29, -4.01124544441699981689e-02) (30, 6.49011552333831787109e-01) (31, 4.34473305940628051758e-01) (32, 6.50340139865875244141e-01) (33, -2.88241431117057800293e-02) (34, 9.65205430984497070312e-01) (35, 4.68452215194702148438e-01) (36, 1.25357359647750854492e-01) (37, -8.64097699522972106934e-02) (38, 2.96064525842666625977e-01) (39, -1.22203327715396881104e-01) (40, 1.12619340419769287109e+00) (41, 5.41010737419128417969e-01) (42, -9.55966040492057800293e-02) (43, 8.25472176074981689453e-01) (44, 4.96944151818752288818e-02) (45, -3.43673340976238250732e-02) (46, -2.18524504452943801880e-02) (47, 7.44001269340515136719e-01) (48, 6.50500178337097167969e-01) (49, 7.36926138401031494141e-01) (50, 7.03907132148742675781e-01) (51, 1.45240932703018188477e-01) (52, 2.70311720669269561768e-02) (2, -8.91416892409324645996e-02) (3, -9.47771370410919189453e-01) (4, 4.07824069261550903320e-01) (5, 7.63931035995483398438e-01) (6, -1.87898501753807067871e-01) (7, -4.18749749660491943359e-02) (8, -9.13153216242790222168e-02) (9, 5.52234530448913574219e-01) (10, -3.54437708854675292969e-01) (11, 2.09626853466033935547e-01) (12, -1.04987180233001708984e+00) (13, 8.36733818054199218750e-01) (14, 9.03759598731994628906e-01) (15, 5.72883129119873046875e-01) (16, 4.74734878540039062500e+00) (17, 1.00685346126556396484e+00) (18, 2.48443540185689926147e-02) (19, -3.97463291883468627930e-01) (20, -5.80290436744689941406e-01) (21, -3.52188855409622192383e-01) (22, 4.15515184402465820312e-01) (23, -9.08444970846176147461e-02) (24, 7.11805999279022216797e-01) (25, 8.04060161113739013672e-01) (26, 5.67695088684558868408e-02) (27, -1.21902875602245330811e-01) (28, -2.54264026880264282227e-01) (29, 4.12997364997863769531e-01) (30, 2.63535350561141967773e-01) (31, 1.79155960679054260254e-01) (32, 1.63803324103355407715e-01) (33, 4.72831040620803833008e-01) (34, 8.50773304700851440430e-02) (35, -6.79371976852416992188e+00) (36, 2.75471538305282592773e-01) (37, 9.19707179069519042969e-01) (38, -1.42360195517539978027e-01) (39, 7.98325598239898681641e-01) (40, -8.14645171165466308594e-01) (41, 3.08373659849166870117e-01) (42, 6.44362151622772216797e-01) (43, 4.13666576147079467773e-01) (44, -8.02138566970825195312e-01) (45, 5.42929172515869140625e-01) (46, 6.97154879570007324219e-01) (47, -6.33401215076446533203e-01) (48, -1.43736615777015686035e-01) (49, -4.30506557226181030273e-01) (50, -7.81956315040588378906e-01) (51, 6.04493618011474609375e-01) (52, 4.57401543855667114258e-01) (2, 1.16636288166046142578e+00) (3, 2.89550185203552246094e-01) (4, -3.91540378332138061523e-01) (5, -2.90162324905395507812e-01) (6, 2.07158878445625305176e-01) (7, -2.15594917535781860352e-01) (8, 9.77582216262817382812e-01) (9, -4.24200147390365600586e-01) (10, 1.01647651195526123047e+00) (11, 2.80372291803359985352e-01) (12, 7.11964964866638183594e-01) (13, 6.39700740575790405273e-02) (14, 1.12754352390766143799e-01) (15, -3.51980566978454589844e-01) (16, 5.11388666927814483643e-02) (17, 4.02272082865238189697e-02) (18, 1.09832084178924560547e+00) (19, 3.42688679695129394531e-01) (20, 1.13751120865345001221e-01) (21, 5.81423461437225341797e-01) (22, -3.04009854793548583984e-01) (23, 1.03803730010986328125e+00) (24, -2.13987514376640319824e-01) (25, -1.08927190303802490234e-01) (26, 4.07156884670257568359e-01) (27, -2.85750776529312133789e-01) (28, 7.90569484233856201172e-01) (29, -4.06994402408599853516e-01) (30, 1.11111199855804443359e+00) (31, 1.02144825458526611328e+00) (32, 2.28910997509956359863e-01) (33, -3.89069110155105590820e-01) (34, 4.34693902730941772461e-01) (35, -2.55444109439849853516e-01) (36, 1.15265047550201416016e+00) (37, 1.66233822703361511230e-01) (38, 2.56990581750869750977e-01) (39, -2.56463773548603057861e-02) (40, 4.81180429458618164062e-01) (41, 4.45623666048049926758e-01) (42, -1.93932309746742248535e-01) (43, 1.28019177913665771484e+00) (44, 1.37986993789672851562e+00) (45, -3.41313689947128295898e-01) (46, -1.33163452148437500000e-01) (47, 9.26444292068481445312e-01) (48, 7.37173736095428466797e-01) (49, 8.37664723396301269531e-01) (50, 2.21749186515808105469e+00) (51, -1.82968661189079284668e-01) (52, -5.28236389160156250000e-01) (2, 2.92544215917587280273e-01) (3, 1.60341632366180419922e+00) (4, 5.67641891539096832275e-02) (5, 1.18760928511619567871e-01) (6, 1.91656434535980224609e+00) (7, 5.94695210456848144531e-01) (8, 6.40262186527252197266e-01) (9, 1.40902951359748840332e-01) (10, 1.74289596080780029297e+00) (11, 6.96625173091888427734e-01) (12, 2.50401765108108520508e-01) (13, 2.56171375513076782227e-01) (14, 2.21327066421508789062e-01) (15, 2.01306238770484924316e-01) (16, 3.84902507066726684570e-01) (17, 3.81431460380554199219e-01) (18, 1.08810150623321533203e+00) (19, 6.11559450626373291016e-01) (20, 1.46960973739624023438e-01) (21, 2.32305502891540527344e+00) (22, 1.22655779123306274414e-01) (23, -1.23583209514617919922e+00) (24, 2.10101351141929626465e-01) (25, 4.55464452505111694336e-01) (26, 3.71104449033737182617e-01) (27, 4.82001870870590209961e-01) (28, 9.10576820373535156250e-01) (29, 1.04675576090812683105e-01) (30, 7.08699882030487060547e-01) (31, 4.58734780550003051758e-01) (32, 5.66224515438079833984e-01) (33, 1.67162612080574035645e-01) (34, 7.96052098274230957031e-01) (35, 5.59317409992218017578e-01) (36, 3.71098488569259643555e-01) (37, 3.70679676532745361328e-01) (38, 5.46378731727600097656e-01) (39, 4.55223590135574340820e-01) (40, -7.40206241607666015625e-01) (41, 9.99736070632934570312e-01) (42, 1.14053227007389068604e-02) (43, 8.79188776016235351562e-01) (44, -7.37929716706275939941e-02) (45, 1.25857248902320861816e-01) (46, 3.26024694368243217468e-03) (47, 6.66308104991912841797e-01) (48, 1.65853679180145263672e+00) (49, 1.05250447988510131836e-01) (50, 3.30169171094894409180e-01) (51, -3.01880985498428344727e-02) (52, -4.02214884757995605469e-01) (2, -1.28613090515136718750e+00) (3, -4.16171884536743164062e+00) (4, 6.12015902996063232422e-01) (5, 7.06653654575347900391e-01) (6, 6.70024603605270385742e-02) (7, 1.66636273264884948730e-01) (8, -3.95570009946823120117e-01) (9, 6.51436746120452880859e-01) (10, -9.38844799995422363281e-01) (11, 2.19281196594238281250e-01) (12, -8.43876659870147705078e-01) (13, 7.39597141742706298828e-01) (14, 2.01750349998474121094e+00) (15, 6.23039007186889648438e-01) (16, 1.87653672695159912109e+00) (17, -2.68537521362304687500e+00) (18, 1.33991611003875732422e+00) (19, -6.43704086542129516602e-03) (20, 1.68385267257690429688e+00) (21, 4.29364293813705444336e-02) (22, 6.81638658046722412109e-01) (23, 6.08131010085344314575e-03) (24, 8.99608135223388671875e-01) (25, 4.53297793865203857422e-01) (26, 8.90657711029052734375e+00) (27, 1.35496929287910461426e-01) (28, -2.38713338971138000488e-01) (29, 7.75610327720642089844e-01) (30, 2.31201618909835815430e-01) (31, 7.91753947734832763672e-01) (32, 1.43461799621582031250e+01) (33, 6.39555096626281738281e-01) (34, -2.05433055758476257324e-01) (35, -2.00200214385986328125e+01) (36, 3.21236789226531982422e-01) (37, 1.61525523662567138672e+00) (38, 1.75419163703918457031e+00) (39, -4.31186825037002563477e-01) (40, -5.57796359062194824219e-01) (41, -1.07766680419445037842e-01) (42, 6.54767453670501708984e-01) (43, 2.65090197324752807617e-01) (44, 8.54507386684417724609e-01) (45, 6.82514667510986328125e-01) (46, 6.67921900749206542969e-01) (47, -5.47997951507568359375e-02) (48, -1.62219867110252380371e-01) (49, 8.83540287613868713379e-02) (50, -3.70744013786315917969e+00) (51, 7.83138453960418701172e-01) (52, 6.99105858802795410156e-01) (2, -8.05457681417465209961e-02) (3, 3.85367870330810546875e-01) (4, 1.22229957580566406250e+00) (5, 9.97124850749969482422e-01) (6, 4.35810089111328125000e-01) (7, 1.59522998332977294922e+00) (8, -1.58706739544868469238e-01) (9, 1.20796108245849609375e+00) (10, 2.24159974604845046997e-02) (11, 1.12459111213684082031e+00) (12, -1.87852680683135986328e-02) (13, 4.37074214220046997070e-01) (14, 5.73671340942382812500e-01) (15, 1.24456524848937988281e+00) (16, 3.40869963169097900391e-01) (17, 5.60984075069427490234e-01) (18, -2.75944709777832031250e-01) (19, -2.63081163167953491211e-01) (20, -1.44077122211456298828e-01) (21, 3.00909447669982910156e+00) (22, 1.13539505004882812500e+00) (23, 6.81926310062408447266e-01) (24, 2.73973315954208374023e-01) (25, 9.08509016036987304688e-01) (26, 3.86312395334243774414e-01) (27, 1.50339734554290771484e+00) (28, -7.43018686771392822266e-02) (29, 1.09372341632843017578e+00) (30, -7.75360688567161560059e-02) (31, 1.35139167308807373047e-01) (32, 3.49035710096359252930e-01) (33, 1.20030212402343750000e+00) (34, 5.17240464687347412109e-01) (35, 6.56534805893898010254e-02) (36, 5.34807026386260986328e-01) (37, 6.78038537502288818359e-01) (38, 2.48279199004173278809e-01) (39, 7.83764362335205078125e-01) (40, 7.68161118030548095703e-01) (41, 4.21358227729797363281e-01) (42, 1.78455138206481933594e+00) (43, -5.63224777579307556152e-03) (44, -2.15565320104360580444e-02) (45, 1.22909331321716308594e+00) (46, 9.45861697196960449219e-01) (47, 9.10824909806251525879e-02) (48, -2.39476695656776428223e-01) (49, -1.68273430317640304565e-02) (50, -6.68817400932312011719e-01) (51, 8.97524058818817138672e-01) (52, 1.44925117492675781250e+00) (2, -7.35420048236846923828e-01) (3, 1.05725693702697753906e+00) (4, 1.85467672348022460938e+00) (5, 1.58043551445007324219e+00) (6, 4.25616681575775146484e-01) (7, 1.29060912132263183594e+00) (8, -2.35604515075683593750e+01) (9, 1.84639000892639160156e+00) (10, 5.05859231948852539062e+00) (11, -1.33907961845397949219e+00) (12, -1.55125662684440612793e-01) (13, 1.62281048297882080078e+00) (14, 2.96778392791748046875e+00) (15, 1.87498927116394042969e+00) (16, 1.62317419052124023438e+00) (17, 1.75885891914367675781e+00) (18, 4.08967304229736328125e+00) (19, -3.93066018819808959961e-01) (20, -2.20072865486145019531e-01) (21, 2.49179911613464355469e+00) (22, 1.71778869628906250000e+00) (23, 1.53037428855895996094e+00) (24, 1.34881353378295898438e+00) (25, 5.70462942123413085938e-01) (26, -1.61814764142036437988e-01) (27, 1.37296867370605468750e+00) (28, -3.34591209888458251953e-01) (29, 1.49733996391296386719e+00) (30, -1.39944702386856079102e-01) (31, 2.07946228981018066406e+00) (32, 1.60586321353912353516e+00) (33, 1.87478232383728027344e+00) (34, 4.80989962816238403320e-01) (35, 1.72215676307678222656e+00) (36, 9.23120677471160888672e-01) (37, 1.27867567539215087891e+00) (38, 7.77867674827575683594e-01) (39, 3.50457012653350830078e-01) (40, -3.42785984277725219727e-01) (41, 4.47836923599243164062e+00) (42, 1.01512706279754638672e+00) (43, -1.19547963142395019531e+00) (44, 3.24605494737625122070e-01) (45, 1.79171383380889892578e+00) (46, 1.06102216243743896484e+00) (47, 3.62878851592540740967e-02) (48, -1.81215420365333557129e-01) (49, -2.11618989706039428711e-01) (50, 4.59534072875976562500e+00) (51, 5.74170207977294921875e+00) (52, 1.85731434822082519531e+00) (2, -1.99690937995910644531e-01) (3, 2.14712813496589660645e-01) (4, 1.02496671676635742188e+00) (5, 6.19031429290771484375e-01) (6, 4.30852115154266357422e-01) (7, 1.53097414970397949219e+00) (8, -7.58926033973693847656e-01) (9, 1.03050470352172851562e+00) (10, -2.09124207496643066406e-01) (11, 1.25867378711700439453e+00) (12, -1.59958600997924804688e-01) (13, 4.60342854261398315430e-01) (14, 5.12652516365051269531e-01) (15, 1.15352332592010498047e+00) (16, 4.42470163106918334961e-01) (17, 6.95483446121215820312e-01) (18, -4.40238326787948608398e-01) (19, -1.15454055368900299072e-01) (20, -1.28024637699127197266e-01) (21, 1.63042223453521728516e+00) (22, 1.14625120162963867188e+00) (23, 2.93618649244308471680e-01) (24, 3.03854912519454956055e-01) (25, 1.03832471370697021484e+00) (26, 3.82966130971908569336e-01) (27, 1.55929815769195556641e+00) (28, -1.52680631726980209351e-02) (29, 1.16322183609008789062e+00) (30, -1.14122353494167327881e-01) (31, 1.09308347105979919434e-01) (32, 3.43598216772079467773e-01) (33, 1.01507604122161865234e+00) (34, 3.25383275747299194336e-01) (35, -2.17181295156478881836e-02) (36, 4.75394785404205322266e-01) (37, 5.41361153125762939453e-01) (38, 3.54055047035217285156e-01) (39, 1.02717792987823486328e+00) (40, 5.68862736225128173828e-01) (41, 2.88244038820266723633e-01) (42, 9.08621251583099365234e-01) (43, -3.48832979798316955566e-02) (44, -8.82475823163986206055e-03) (45, 1.16830754280090332031e+00) (46, 7.44503676891326904297e-01) (47, -4.18913215398788452148e-02) (48, -1.84351697564125061035e-01) (49, -5.89784532785415649414e-02) (50, -2.00188636779785156250e-01) (51, 8.17515373229980468750e-01) (52, 1.34771859645843505859e+00) (2, 3.93051117658615112305e-01) (3, -1.53403377532958984375e+00) (4, 6.22553884983062744141e-01) (5, 5.56398868560791015625e-01) (6, -3.39649349451065063477e-01) (7, 1.91176533699035644531e-01) (8, 4.25267010927200317383e-01) (9, 6.04341924190521240234e-01) (10, 1.15945982933044433594e+00) (11, 5.01671850681304931641e-01) (12, -9.80140507221221923828e-01) (13, 1.19444727897644042969e+00) (14, 1.03828310966491699219e+00) (15, 6.64206802845001220703e-01) (16, 3.00741600990295410156e+00) (17, 1.25798451900482177734e+00) (18, 1.71392798423767089844e-01) (19, -2.90780067443847656250e-01) (20, -2.51648455858230590820e-01) (21, -6.19774484634399414062e+00) (22, 4.65801328420639038086e-01) (23, -1.10286891460418701172e-01) (24, 1.12807631492614746094e+00) (25, 8.20407450199127197266e-01) (26, 2.93550103902816772461e-01) (27, 4.76302951574325561523e-01) (28, 2.82099097967147827148e-01) (29, 4.78215008974075317383e-01) (30, 1.70609638094902038574e-01) (31, 6.29517078399658203125e-01) (32, 6.81341886520385742188e-02) (33, 4.99367326498031616211e-01) (34, 4.30629476904869079590e-02) (35, -1.18277330398559570312e+01) (36, -2.81868666410446166992e-01) (37, 1.36384522914886474609e+00) (38, -1.77309885621070861816e-02) (39, 5.18981814384460449219e-01) (40, -6.24147891998291015625e-01) (41, 1.88505232334136962891e-01) (42, 6.74412012100219726562e-01) (43, 3.67490619421005249023e-01) (44, 1.38646841049194335938e+00) (45, 6.32507145404815673828e-01) (46, 7.28237390518188476562e-01) (47, 2.29990035295486450195e-02) (48, -1.10736680030822753906e+00) (49, -7.50134289264678955078e-01) (50, 6.11267030239105224609e-01) (51, 5.96071481704711914062e-01) (52, 4.42399680614471435547e-01) (2, 1.06660556793212890625e+00) (3, 3.43789070844650268555e-01) (4, -4.20813947916030883789e-01) (5, -1.97349205613136291504e-01) (6, 1.29076331853866577148e-01) (7, -3.74079972505569458008e-01) (8, 9.70000624656677246094e-01) (9, -3.80938768386840820312e-01) (10, 1.80366051197052001953e+00) (11, 2.37786680459976196289e-01) (12, 8.31527531147003173828e-01) (13, 9.12175104022026062012e-02) (14, 1.36522501707077026367e-01) (15, -4.20693755149841308594e-01) (16, 1.68757930397987365723e-01) (17, 1.06908582150936126709e-01) (18, 1.06499075889587402344e+00) (19, 3.21657508611679077148e-01) (20, 1.44788995385169982910e-01) (21, 4.89853590726852416992e-01) (22, -2.90600448846817016602e-01) (23, 9.41959738731384277344e-01) (24, -3.73544067144393920898e-01) (25, -1.01709701120853424072e-01) (26, 3.25602442026138305664e-01) (27, -3.54345470666885375977e-01) (28, 7.35625982284545898438e-01) (29, -3.12270492315292358398e-01) (30, 1.16776120662689208984e+00) (31, 1.17706096172332763672e+00) (32, 9.46472883224487304688e-02) (33, -3.64760130643844604492e-01) (34, 3.60330581665039062500e-01) (35, -4.67873066663742065430e-01) (36, 1.13150072097778320312e+00) (37, 1.54296666383743286133e-01) (38, 1.85154497623443603516e-01) (39, -5.37989884614944458008e-02) (40, 3.15737634897232055664e-01) (41, 6.58930003643035888672e-01) (42, -2.06010848283767700195e-01) (43, 1.35780453681945800781e+00) (44, 1.46253812313079833984e+00) (45, -3.46345067024230957031e-01) (46, -9.64225754141807556152e-02) (47, 1.00167715549468994141e+00) (48, 6.82933151721954345703e-01) (49, 7.98669338226318359375e-01) (50, 7.91560471057891845703e-01) (51, -2.13745817542076110840e-01) (52, -5.69170236587524414062e-01) (2, -8.32923129200935363770e-02) (3, 2.08725810050964355469e+00) (4, 5.28329074382781982422e-01) (5, 7.47406363487243652344e-01) (6, -1.38903513550758361816e-01) (7, 5.88448941707611083984e-01) (8, -7.78693407773971557617e-02) (9, 6.26259207725524902344e-01) (10, -8.23421061038970947266e-01) (11, 4.54421877861022949219e-01) (12, -2.93571376800537109375e+00) (13, 9.62787985801696777344e-01) (14, 9.00828421115875244141e-01) (15, 4.74437445402145385742e-01) (16, 3.55545306205749511719e+00) (17, 7.98278808593750000000e-01) (18, 8.80439952015876770020e-02) (19, -2.35869854688644409180e-01) (20, -6.25633835792541503906e-01) (21, -3.51692348718643188477e-01) (22, 4.71335649490356445312e-01) (23, 1.34798467159271240234e-01) (24, 9.60004270076751708984e-01) (25, 7.37949430942535400391e-01) (26, -7.87122026085853576660e-02) (27, 6.34777426719665527344e-01) (28, -4.85905468463897705078e-01) (29, 4.49069201946258544922e-01) (30, 2.74730980396270751953e-01) (31, -9.05955769121646881104e-03) (32, -1.53701439499855041504e-01) (33, 4.86612975597381591797e-01) (34, -8.56611430644989013672e-02) (35, -4.36275541782379150391e-01) (36, -6.89311981201171875000e-01) (37, 8.90811562538146972656e-01) (38, -3.25063258409500122070e-01) (39, 6.55272603034973144531e-01) (40, -7.83883333206176757812e-01) (41, 3.98715019226074218750e-01) (42, 4.35714244842529296875e-01) (43, 2.66717553138732910156e-01) (44, 1.22287356853485107422e+00) (45, 5.56176126003265380859e-01) (46, 5.57549118995666503906e-01) (47, -3.50625777244567871094e+00) (48, -2.66017168760299682617e-01) (49, 5.18677942454814910889e-02) (50, 9.72339287400245666504e-02) (51, 5.79451382160186767578e-01) (52, 6.09495460987091064453e-01) (2, 2.03669324517250061035e-01) (3, 1.22773103415966033936e-01) (4, 9.03568565845489501953e-01) (5, 6.41009151935577392578e-01) (6, 2.30090364813804626465e-01) (7, 6.85399413108825683594e-01) (8, -1.13900077342987060547e+00) (9, 8.64269137382507324219e-01) (10, 4.67751324176788330078e-01) (11, 7.55086302757263183594e-01) (12, 1.37808397412300109863e-01) (13, 4.23776149749755859375e-01) (14, 4.30233001708984375000e-01) (15, 7.82919824123382568359e-01) (16, 3.97716522216796875000e-01) (17, 5.46662449836730957031e-01) (18, 6.85747489333152770996e-02) (19, -1.17918990552425384521e-01) (20, 1.25737592577934265137e-01) (21, -4.24682348966598510742e-01) (22, 9.60066795349121093750e-01) (23, 1.17149090766906738281e+00) (24, 2.93577343225479125977e-01) (25, 6.54021382331848144531e-01) (26, 2.38965094089508056641e-01) (27, 7.79593110084533691406e-01) (28, 8.92341956496238708496e-02) (29, 9.02664303779602050781e-01) (30, 1.75200134515762329102e-01) (31, 2.90374994277954101562e-01) (32, 2.06589713692665100098e-01) (33, 8.92160773277282714844e-01) (34, 1.63857296109199523926e-01) (35, -2.07601040601730346680e-01) (36, 4.19951379299163818359e-01) (37, 5.03842473030090332031e-01) (38, 1.97979778051376342773e-01) (39, 6.71084463596343994141e-01) (40, 7.61272013187408447266e-01) (41, 3.88146251440048217773e-01) (42, 5.89398741722106933594e-01) (43, 5.05187995731830596924e-02) (44, 5.23267239332199096680e-02) (45, 9.59735512733459472656e-01) (46, 5.12452304363250732422e-01) (47, 1.47050082683563232422e-01) (48, -4.17744480073451995850e-02) (49, 9.40736904740333557129e-02) (50, -3.35496842861175537109e-01) (51, 7.67282426357269287109e-01) (52, 1.43565666675567626953e+00) (2, 4.39368426799774169922e-01) (3, 5.35363674163818359375e-01) (4, 6.79254382848739624023e-02) (5, 7.31109827756881713867e-02) (6, 4.80170905590057373047e-01) (7, 6.99494421482086181641e-01) (8, 4.87569838762283325195e-01) (9, 3.79609204828739166260e-02) (10, 7.70798087120056152344e-01) (11, 5.85132002830505371094e-01) (12, 5.27081847190856933594e-01) (13, -8.30821692943572998047e-01) (14, -1.30969896912574768066e-01) (15, 1.75486683845520019531e-01) (16, -3.41607332229614257812e-01) (17, -1.78244337439537048340e-01) (18, 2.81135320663452148438e-01) (19, -2.51925408840179443359e-01) (20, 1.13152503967285156250e-01) (21, 6.56100451946258544922e-01) (22, 1.06088504195213317871e-01) (23, 5.70329785346984863281e-01) (24, -2.42087200284004211426e-01) (25, 3.77360045909881591797e-01) (26, 7.16976583003997802734e-01) (27, 7.95826613903045654297e-01) (28, 5.46821534633636474609e-01) (29, 4.52254675328731536865e-02) (30, 5.92572867870330810547e-01) (31, 4.78064775466918945312e-01) (32, 5.40607094764709472656e-01) (33, 8.45987424254417419434e-02) (34, 8.29210102558135986328e-01) (35, 6.93103432655334472656e-01) (36, 6.25472664833068847656e-01) (37, -6.88510239124298095703e-02) (38, 5.07087290287017822266e-01) (39, 2.29031369090080261230e-01) (40, 8.89915049076080322266e-01) (41, 8.22180986404418945312e-01) (42, 7.44608715176582336426e-02) (43, 8.29400181770324707031e-01) (44, 6.13000512123107910156e-01) (45, 1.68617233633995056152e-01) (46, 1.15360409021377563477e-01) (47, 8.19153130054473876953e-01) (48, 5.38251757621765136719e-01) (49, 6.62307322025299072266e-01) (50, 6.77877783775329589844e-01) (51, 2.05628782510757446289e-01) (52, 8.51344838738441467285e-02) (2, 1.24928426742553710938e+00) (3, 2.85130470991134643555e-01) (4, -4.48293000459671020508e-01) (5, -4.18517410755157470703e-01) (6, 1.67421251535415649414e-01) (7, 1.55968442559242248535e-01) (8, 1.14476048946380615234e+00) (9, -4.80797946453094482422e-01) (10, 1.83967256546020507812e+00) (11, 1.99359998106956481934e-01) (12, 1.17813920974731445312e+00) (13, -2.69249528646469116211e-02) (14, 1.16130344569683074951e-01) (15, -5.29007732868194580078e-01) (16, 1.40576213598251342773e-01) (17, 4.51893620193004608154e-02) (18, 1.25855123996734619141e+00) (19, 1.67495664209127426147e-02) (20, 4.16292309761047363281e-01) (21, 2.91133821010589599609e-01) (22, -5.85275232791900634766e-01) (23, 1.87271404266357421875e+00) (24, -1.03146754205226898193e-01) (25, -2.56632491946220397949e-02) (26, 4.87477511167526245117e-01) (27, 2.43128553032875061035e-01) (28, 5.00907659530639648438e-01) (29, -5.76040208339691162109e-01) (30, 1.39417243003845214844e+00) (31, 1.25760459899902343750e+00) (32, 1.76971048116683959961e-01) (33, -4.94280755519866943359e-01) (34, 4.65729922056198120117e-01) (35, -1.23370783403515815735e-02) (36, 1.89801990985870361328e-01) (37, -5.56798558682203292847e-03) (38, 3.18781286478042602539e-01) (39, -1.08563743531703948975e-01) (40, 4.44112688302993774414e-01) (41, 6.18367612361907958984e-01) (42, -2.79803723096847534180e-01) (43, 1.49596226215362548828e+00) (44, 1.50380527973175048828e+00) (45, -5.44966757297515869141e-01) (46, -1.45910039544105529785e-01) (47, 1.28911674022674560547e+00) (48, 4.15337800979614257812e-01) (49, 9.44266676902770996094e-01) (50, 2.90380048751831054688e+00) (51, -2.77891308069229125977e-01) (52, -5.62917709350585937500e-01) (2, -1.26124456524848937988e-01) (3, -5.41110746562480926514e-02) (4, 1.09277749061584472656e+00) (5, 8.24404060840606689453e-01) (6, 2.37852185964584350586e-01) (7, 1.64755129814147949219e+00) (8, -1.97430580854415893555e-01) (9, 1.05888140201568603516e+00) (10, -1.40704348683357238770e-01) (11, 1.33498787879943847656e+00) (12, -2.10507865995168685913e-02) (13, 2.65850603580474853516e-01) (14, 4.24804508686065673828e-01) (15, 1.02975356578826904297e+00) (16, -1.65693342685699462891e+00) (17, 5.57354927062988281250e-01) (18, -3.03962200880050659180e-01) (19, -1.97594016790390014648e-01) (20, -4.42669428884983062744e-02) (21, 1.42864429950714111328e+00) (22, 1.11132562160491943359e+00) (23, 4.56983596086502075195e-01) (24, 3.64013612270355224609e-01) (25, 8.35287392139434814453e-01) (26, 2.67798990011215209961e-01) (27, 1.40166091918945312500e+00) (28, 4.23715025186538696289e-01) (29, 1.10267007350921630859e+00) (30, 1.38026013970375061035e-01) (31, -1.13003171980381011963e-01) (32, 2.96857327222824096680e-01) (33, 1.07794916629791259766e+00) (34, 3.84635180234909057617e-01) (35, 1.52441263198852539062e-01) (36, -2.20939472317695617676e-01) (37, 5.35756230354309082031e-01) (38, 2.00738385319709777832e-01) (39, 7.99648106098175048828e-01) (40, 3.50029044784605503082e-03) (41, -1.46145746111869812012e-02) (42, 7.60961353778839111328e-01) (43, -7.44712864980101585388e-03) (44, -2.13855341076850891113e-01) (45, 1.08620560169219970703e+00) (46, -1.28544718027114868164e-01) (47, -5.51596954464912414551e-02) (48, -6.89622238278388977051e-02) (49, -7.46687710285186767578e-01) (50, 1.48735374212265014648e-01) (51, 8.32875311374664306641e-01) (52, 1.08699858188629150391e+00) (2, 6.60069048404693603516e-01) (3, -1.34723037481307983398e-01) (4, 6.42564356327056884766e-01) (5, 7.22485125064849853516e-01) (6, -4.15532998740673065186e-02) (7, 5.13246774673461914062e-01) (8, 3.23645681142807006836e-01) (9, 5.63922226428985595703e-01) (10, 1.32945537567138671875e+00) (11, 9.80172216892242431641e-01) (12, 1.66304126381874084473e-01) (13, 8.39989781379699707031e-01) (14, 7.70646154880523681641e-01) (15, 5.13930439949035644531e-01) (16, 6.52825653553009033203e-01) (17, 6.45284712314605712891e-01) (18, 2.57373243570327758789e-01) (19, -5.17168164253234863281e-01) (20, -6.38901591300964355469e-01) (21, -9.40019115805625915527e-02) (22, 4.64788883924484252930e-01) (23, 2.42231273651123046875e+00) (24, 5.95430612564086914062e-01) (25, 5.57252824306488037109e-01) (26, 7.71951675415039062500e-01) (27, 5.23963034152984619141e-01) (28, -1.07993710041046142578e+00) (29, 4.97684091329574584961e-01) (30, 1.82281672954559326172e-01) (31, 1.27870619297027587891e-01) (32, -2.33525931835174560547e-01) (33, 4.74339276552200317383e-01) (34, -1.41187176108360290527e-01) (35, 1.69303879141807556152e-01) (36, -1.68614983558654785156e+00) (37, 8.44196557998657226562e-01) (38, -2.51268237829208374023e-01) (39, 4.15570855140686035156e-01) (40, -1.40251055359840393066e-01) (41, -8.25666412711143493652e-02) (42, 5.20372867584228515625e-01) (43, 2.08763137459754943848e-01) (44, -3.87601017951965332031e-01) (45, 5.40542244911193847656e-01) (46, 4.34261083602905273438e-01) (47, 2.89254158735275268555e-01) (48, -3.00906226038932800293e-02) (49, -8.20416286587715148926e-02) (50, -6.56577765941619873047e-01) (51, 5.71117699146270751953e-01) (52, 4.71674621105194091797e-01) (2, -8.58043804764747619629e-02) (3, -2.12088719010353088379e-01) (4, 4.54543560743331909180e-01) (5, 4.30080950260162353516e-01) (6, -4.16028499603271484375e-01) (7, 6.37564897537231445312e-01) (8, -3.33883501589298248291e-02) (9, 5.42995393276214599609e-01) (10, -2.33717873692512512207e-01) (11, 1.00139224529266357422e+00) (12, 6.21131546795368194580e-02) (13, 6.78944468498229980469e-01) (14, 7.58026123046875000000e-01) (15, 5.15642762184143066406e-01) (16, 7.72511541843414306641e-01) (17, 7.66339898109436035156e-01) (18, 2.09473267197608947754e-01) (19, -6.16969943046569824219e-01) (20, -9.99126255512237548828e-01) (21, -1.06222055852413177490e-01) (22, 5.56237876415252685547e-01) (23, 3.03889159113168716431e-02) (24, 6.13593757152557373047e-01) (25, 5.02535820007324218750e-01) (26, -3.34382019937038421631e-02) (27, 6.03522241115570068359e-01) (28, -1.60645151138305664062e+00) (29, 5.25490343570709228516e-01) (30, 1.97511911392211914062e-01) (31, 1.74145683646202087402e-01) (32, -5.81005699932575225830e-02) (33, 5.51620066165924072266e-01) (34, 6.85125216841697692871e-02) (35, -1.20376849174499511719e+00) (36, 2.02104926109313964844e-01) (37, 7.21269249916076660156e-01) (38, -7.93652012944221496582e-02) (39, 4.26097631454467773438e-01) (40, -1.21763922274112701416e-01) (41, 6.26448690891265869141e-02) (42, 4.65653508901596069336e-01) (43, 4.41062182188034057617e-01) (44, -6.22869551181793212891e-01) (45, 5.09873569011688232422e-01) (46, 4.04791742563247680664e-01) (47, 5.39828501641750335693e-02) (48, 7.50950425863265991211e-02) (49, -7.82289076596498489380e-03) (50, -8.05003762245178222656e-01) (51, 4.44904088973999023438e-01) (52, 4.32984799146652221680e-01) (2, -1.07403941452503204346e-01) (3, -4.00744348764419555664e-01) (4, 1.01529812812805175781e+00) (5, 8.65150153636932373047e-01) (6, 1.61490201950073242188e-01) (7, 6.04722380638122558594e-01) (8, 2.30095684528350830078e-01) (9, 1.11324083805084228516e+00) (10, -8.91443416476249694824e-02) (11, 5.05626022815704345703e-01) (12, -1.63247063755989074707e-02) (13, 4.01757925748825073242e-01) (14, 4.28709179162979125977e-01) (15, 1.08394360542297363281e+00) (16, -7.09955036640167236328e-01) (17, 2.09689348936080932617e-01) (18, 1.76387857645750045776e-02) (19, -3.08554619550704956055e-01) (20, -6.22574537992477416992e-02) (21, 4.56449413299560546875e+00) (22, 1.14636933803558349609e+00) (23, 2.25711441040039062500e+00) (24, 2.49806538224220275879e-01) (25, 4.75783139467239379883e-01) (26, 3.06974470615386962891e-01) (27, 6.40222311019897460938e-01) (28, 2.90993936359882354736e-02) (29, 9.90353643894195556641e-01) (30, -1.55990824103355407715e-01) (31, -1.18596285581588745117e-01) (32, 4.91720344871282577515e-03) (33, 1.03296053409576416016e+00) (34, 3.44318926334381103516e-01) (35, 1.08606174588203430176e-01) (36, 2.28337597846984863281e+00) (37, 6.06943309307098388672e-01) (38, 8.29517189413309097290e-03) (39, 2.99294352531433105469e-01) (40, -5.72235524654388427734e-01) (41, -1.99271106719970703125e+00) (42, 5.65620839595794677734e-01) (43, -1.49150311946868896484e-01) (44, 1.80692970752716064453e-01) (45, 1.12992060184478759766e+00) (46, 2.67796851694583892822e-02) (47, -8.36360454559326171875e-02) (48, -2.11873605847358703613e-01) (49, -1.56782090663909912109e-01) (50, 4.01596724987030029297e-01) (51, 6.45141363143920898438e-01) (52, 1.34363090991973876953e+00) (2, 2.30751484632492065430e-01) (3, -1.57117739319801330566e-01) (4, 5.44593334197998046875e-01) (5, 4.60566073656082153320e-01) (6, -1.98907330632209777832e-01) (7, 7.14556515216827392578e-01) (8, 1.88700810074806213379e-01) (9, 5.83085238933563232422e-01) (10, 1.15598462522029876709e-01) (11, 1.21798753738403320312e+00) (12, 1.94860339164733886719e-01) (13, 6.80139124393463134766e-01) (14, 5.87654948234558105469e-01) (15, 5.69835066795349121094e-01) (16, 2.13538706302642822266e-01) (17, 5.49369752407073974609e-01) (18, 1.09571166336536407471e-01) (19, 1.66686356067657470703e-01) (20, 1.15729868412017822266e-01) (21, -1.38163104653358459473e-01) (22, 5.71754574775695800781e-01) (23, -8.33147615194320678711e-02) (24, 4.68721836805343627930e-01) (25, 5.37530958652496337891e-01) (26, -1.13672211766242980957e-01) (27, 6.13154351711273193359e-01) (28, 3.01429361104965209961e-01) (29, 5.53886175155639648438e-01) (30, 8.61366912722587585449e-02) (31, 1.52316510677337646484e-01) (32, -2.75090008974075317383e-01) (33, 4.91073966026306152344e-01) (34, -1.29078432917594909668e-01) (35, -1.50074511766433715820e-01) (36, 7.89530053734779357910e-02) (37, 5.69861769676208496094e-01) (38, -3.70345413684844970703e-01) (39, 3.29220414161682128906e-01) (40, 1.27293139696121215820e-01) (41, -5.24955429136753082275e-02) (42, 2.02984869480133056641e-01) (43, 3.05321544408798217773e-01) (44, 5.69314181804656982422e-01) (45, 4.87207293510437011719e-01) (46, 2.95688211917877197266e-01) (47, 3.34781199693679809570e-01) (48, -1.61851346492767333984e-01) (49, -1.70928344130516052246e-01) (50, -7.32037499547004699707e-02) (51, 3.72093588113784790039e-01) (52, 5.70795893669128417969e-01) (2, 4.00691926479339599609e-01) (3, 1.81950795650482177734e+00) (4, 4.88615781068801879883e-01) (5, 1.12577843666076660156e+00) (6, -1.37567317485809326172e+00) (7, 3.35430592298507690430e-01) (8, 5.95673203468322753906e-01) (9, 5.79569220542907714844e-01) (10, -5.37545047700405120850e-02) (11, 3.18394064903259277344e-01) (12, -3.82532984018325805664e-01) (13, 8.04862260818481445312e-01) (14, 6.83061122894287109375e-01) (15, 5.31880736351013183594e-01) (16, 7.05660963058471679688e+00) (17, 6.59459352493286132812e-01) (18, 4.60210412740707397461e-01) (19, 2.36428350210189819336e-01) (20, -4.78414565324783325195e-01) (21, 2.41217657923698425293e-01) (22, 5.87866604328155517578e-01) (23, 1.76306575536727905273e-01) (24, 7.64309048652648925781e-01) (25, 4.75428879261016845703e-01) (26, -2.58402854204177856445e-01) (27, 3.33606928586959838867e-01) (28, -2.48389542102813720703e-01) (29, 5.97413897514343261719e-01) (30, 4.80102419853210449219e-01) (31, -1.27946019172668457031e+00) (32, -2.39640668034553527832e-01) (33, 4.72176164388656616211e-01) (34, -6.26434981822967529297e-02) (35, 2.01203107833862304688e+00) (36, -6.56831264495849609375e-01) (37, 7.16497123241424560547e-01) (38, 1.56405307352542877197e-02) (39, 1.01682300567626953125e+01) (40, -6.51308715343475341797e-01) (41, -8.35518419742584228516e-01) (42, 4.91355597972869873047e-01) (43, 4.20442432165145874023e-01) (44, 6.76228165626525878906e-01) (45, 6.07836663722991943359e-01) (46, 4.25756573677062988281e-01) (47, -7.06340014934539794922e-01) (48, -1.74366021156311035156e+00) (49, 2.21770524978637695312e-01) (50, 5.98993003368377685547e-01) (51, 5.88753938674926757812e-01) (52, 5.64973950386047363281e-01) (2, -3.82523350417613983154e-02) (3, 1.23742759227752685547e-01) (4, 9.48214709758758544922e-01) (5, 7.43317306041717529297e-01) (6, 1.21529646217823028564e-01) (7, 7.99141228199005126953e-01) (8, -4.10808801651000976562e-01) (9, 9.20761227607727050781e-01) (10, 2.60146677494049072266e-01) (11, 6.88807487487792968750e-01) (12, 2.22301393747329711914e-01) (13, 3.60173910856246948242e-01) (14, 4.38453346490859985352e-01) (15, 1.02495419979095458984e+00) (16, 1.10236003994941711426e-01) (17, 6.17435753345489501953e-01) (18, 1.33955165743827819824e-01) (19, 1.17742404341697692871e-01) (20, 1.51527851819992065430e-01) (21, 7.41194546222686767578e-01) (22, 9.08599972724914550781e-01) (23, 2.02059960365295410156e+00) (24, 3.58778178691864013672e-01) (25, 5.04269719123840332031e-01) (26, 3.18542979657649993896e-02) (27, 7.75096774101257324219e-01) (28, 2.06221774220466613770e-01) (29, 8.51793289184570312500e-01) (30, 1.56930908560752868652e-01) (31, 3.04087340831756591797e-01) (32, 2.94464856386184692383e-01) (33, 1.03912603855133056641e+00) (34, 1.50786384940147399902e-01) (35, -1.31407290697097778320e-01) (36, 1.93695366382598876953e-01) (37, 6.03285074234008789062e-01) (38, 1.41609296202659606934e-01) (39, 5.60585081577301025391e-01) (40, 3.57712626457214355469e-01) (41, 3.32198023796081542969e-01) (42, 4.69611644744873046875e-01) (43, 7.20913261175155639648e-02) (44, -1.72405689954757690430e-01) (45, 9.46996629238128662109e-01) (46, 4.47496771812438964844e-01) (47, 1.51877596974372863770e-01) (48, -7.37555697560310363770e-02) (49, 8.25325846672058105469e-02) (50, -5.38326382637023925781e-01) (51, 7.17326402664184570312e-01) (52, 1.69140052795410156250e+00) (2, 9.19840410351753234863e-02) (3, 3.52096647024154663086e-01) (4, 3.39816212654113769531e+00) (5, 3.19647789001464843750e+00) (6, 2.32499271631240844727e-01) (7, 1.59732091426849365234e+00) (8, -3.82914566993713378906e+00) (9, 3.37149500846862792969e+00) (10, 2.63531517982482910156e+00) (11, -6.00287139415740966797e-01) (12, 3.17486077547073364258e-02) (13, 1.69156634807586669922e+00) (14, 1.11419427394866943359e+00) (15, 3.31417989730834960938e+00) (16, 1.14661741256713867188e+00) (17, 1.82607948780059814453e+00) (18, 1.54802160263061523438e+01) (19, -4.71398651599884033203e-01) (20, -6.33045196533203125000e-01) (21, 2.24772548675537109375e+00) (22, 3.42416024208068847656e+00) (23, 1.87866413593292236328e+00) (24, 1.13902986049652099609e+00) (25, 9.26136016845703125000e+00) (26, 1.76963694393634796143e-02) (27, 1.52757656574249267578e+00) (28, -4.73257005214691162109e-02) (29, 2.03424739837646484375e+00) (30, 1.28287449479103088379e-01) (31, 2.57012438774108886719e+00) (32, 3.66726607084274291992e-01) (33, 3.35608410835266113281e+00) (34, 3.17710876464843750000e-01) (35, 2.76549726724624633789e-01) (36, 2.61857450008392333984e-01) (37, 2.01042103767395019531e+00) (38, 9.25118565559387207031e-01) (39, 2.40878552198410034180e-01) (40, -1.03433120250701904297e+00) (41, 3.03343027830123901367e-01) (42, 2.34872698783874511719e-01) (43, 5.60433435440063476562e+00) (44, 6.77608013153076171875e-01) (45, 3.45783567428588867188e+00) (46, 6.41133129596710205078e-01) (47, -2.66516655683517456055e-01) (48, -7.01832678169012069702e-03) (49, 1.55170172452926635742e-01) (50, -8.53304386138916015625e-01) (51, 1.00672826766967773438e+01) (52, 3.44967007637023925781e+00) (2, -2.36224941909313201904e-02) (3, -2.61503189802169799805e-01) (4, 8.52623879909515380859e-01) (5, 4.97805804014205932617e-01) (6, 1.36955201625823974609e-01) (7, 9.36647474765777587891e-01) (8, -1.40702426433563232422e-01) (9, 8.60246598720550537109e-01) (10, 2.47912511229515075684e-01) (11, 8.48711192607879638672e-01) (12, 5.43449334800243377686e-02) (13, 1.75146326422691345215e-01) (14, 3.09370547533035278320e-01) (15, 9.35598373413085937500e-01) (16, 2.45617136359214782715e-01) (17, 4.05180007219314575195e-01) (18, 1.26699924468994140625e-01) (19, -7.07406282424926757812e-01) (20, -5.31398244202136993408e-02) (21, 1.13214027881622314453e+00) (22, 8.48992586135864257812e-01) (23, 9.24849569797515869141e-01) (24, 2.59209960699081420898e-01) (25, 8.32729518413543701172e-01) (26, 3.96975539624691009521e-02) (27, 9.05525565147399902344e-01) (28, 2.87680681794881820679e-02) (29, 9.58189189434051513672e-01) (30, 4.19677533209323883057e-02) (31, 3.61921973526477813721e-02) (32, 7.11187124252319335938e-02) (33, 1.00330734252929687500e+00) (34, 3.20029914379119873047e-01) (35, -7.97033011913299560547e-02) (36, 7.56337821483612060547e-01) (37, 4.17646348476409912109e-01) (38, 2.04823046922683715820e-01) (39, 7.25570976734161376953e-01) (40, 5.64306259155273437500e-01) (41, 1.35496997833251953125e+00) (42, 4.39827084541320800781e-01) (43, 1.73064190894365310669e-02) (44, -6.05153031647205352783e-02) (45, 9.84960794448852539062e-01) (46, 8.12653839588165283203e-01) (47, 1.80725798010826110840e-01) (48, -1.61703899502754211426e-01) (49, 4.76992428302764892578e-02) (50, -7.93883085250854492188e-01) (51, 7.10556924343109130859e-01) (52, 1.35029089450836181641e+00) (2, 6.58563852310180664062e-01) (3, -3.65179657936096191406e-01) (4, -4.28174585103988647461e-01) (5, -2.34728813171386718750e-01) (6, 5.01341104507446289062e-01) (7, 1.95805594325065612793e-01) (8, 6.67479872703552246094e-01) (9, -3.01821380853652954102e-01) (10, 1.03505730628967285156e+00) (11, 3.28946530818939208984e-01) (12, 4.77247118949890136719e-01) (13, 1.07282757759094238281e-01) (14, -3.09934473037719726562e+00) (15, -3.77681940793991088867e-01) (16, -2.19628781080245971680e-01) (17, 4.38153028488159179688e-01) (18, 8.98366808891296386719e-01) (19, 5.57964861392974853516e-01) (20, 4.98193830251693725586e-01) (21, 8.99964630603790283203e-01) (22, -3.15541058778762817383e-01) (23, 9.95530113577842712402e-02) (24, 1.87312364578247070312e-01) (25, 2.88433700799942016602e-01) (26, -1.03514122962951660156e+00) (27, 2.85929083824157714844e-01) (28, 6.88125014305114746094e-01) (29, -2.31306150555610656738e-01) (30, 1.07868480682373046875e+00) (31, -2.84819245338439941406e+00) (32, 5.96132464706897735596e-02) (33, -3.55888575315475463867e-01) (34, 8.08344244956970214844e-01) (35, 4.64616984128952026367e-01) (36, 1.07652282714843750000e+00) (37, 1.59794360399246215820e-01) (38, 3.40509712696075439453e-01) (39, 6.35982608795166015625e+00) (40, 8.64646315574645996094e-01) (41, 8.13139617443084716797e-01) (42, -1.92290455102920532227e-01) (43, 1.31532073020935058594e+00) (44, 6.44646465778350830078e-01) (45, -3.54250341653823852539e-01) (46, -1.03886343538761138916e-01) (47, 8.86549055576324462891e-01) (48, -1.20681852102279663086e-01) (49, 8.90813946723937988281e-01) (50, -4.11672055721282958984e-01) (51, -2.85492956638336181641e-01) (52, -2.87634730339050292969e-01) (2, -2.01499099731445312500e+01) (3, 3.66532742977142333984e-01) (4, 6.10342800617218017578e-01) (5, 1.96082508563995361328e+00) (6, 1.10221721231937408447e-01) (7, 1.87799930572509765625e-01) (8, 8.38153600692749023438e-01) (9, 6.17923796176910400391e-01) (10, 5.93483597040176391602e-02) (11, 5.84787130355834960938e-01) (12, 3.70823144912719726562e-01) (13, 1.25328171253204345703e+00) (14, 6.09576046466827392578e-01) (15, 7.28437721729278564453e-01) (16, 5.95563936233520507812e+00) (17, 7.42218971252441406250e+00) (18, 6.86191990971565246582e-02) (19, -2.21355855464935302734e-01) (20, -2.39781332015991210938e+00) (21, -3.16258341073989868164e-01) (22, 7.17303454875946044922e-01) (23, -5.07242858409881591797e-01) (24, 9.44626748561859130859e-01) (25, 5.46846151351928710938e-01) (26, -4.87718194723129272461e-01) (27, 3.07569533586502075195e-01) (28, 2.36288993619382381439e-03) (29, 6.59959137439727783203e-01) (30, 2.93890029191970825195e-01) (31, 6.57264411449432373047e-01) (32, 3.18153917789459228516e-01) (33, 6.39297246932983398438e-01) (34, -3.62928211688995361328e-01) (35, -4.57413762807846069336e-01) (36, -1.53387336730957031250e+01) (37, 9.04620349407196044922e-01) (38, 1.80568426847457885742e-01) (39, 8.34134340286254882812e-01) (40, -5.42484045028686523438e-01) (41, -1.09632730484008789062e+00) (42, 9.31921422481536865234e-01) (43, 3.52304339408874511719e-01) (44, -5.12489020824432373047e-01) (45, 5.52632987499237060547e-01) (46, 6.58202946186065673828e-01) (47, -2.01370820403099060059e-01) (48, -1.32368221879005432129e-01) (49, -9.33804512023925781250e-01) (50, -1.34177327156066894531e+00) (51, 6.41810417175292968750e-01) (52, 6.82143509387969970703e-01) (2, -1.38847772032022476196e-02) (3, 3.02214741706848144531e-01) (4, 8.98480832576751708984e-01) (5, 7.13293850421905517578e-01) (6, 6.71794861555099487305e-02) (7, 6.47752583026885986328e-01) (8, -6.18427991867065429688e-01) (9, 9.94979083538055419922e-01) (10, 1.30040720105171203613e-01) (11, 7.12695419788360595703e-01) (12, 1.69757246971130371094e-01) (13, 6.74526393413543701172e-01) (14, 7.14373230934143066406e-01) (15, 8.63680779933929443359e-01) (16, 4.42626029253005981445e-01) (17, 7.51202166080474853516e-01) (18, 6.72063112258911132812e-01) (19, -9.31003019213676452637e-02) (20, -5.42837828397750854492e-02) (21, -2.08286598324775695801e-01) (22, 8.03735256195068359375e-01) (23, 1.07486665248870849609e+00) (24, 7.66651034355163574219e-01) (25, 5.56667089462280273438e-01) (26, -3.36083695292472839355e-02) (27, 6.59136295318603515625e-01) (28, 1.46196156740188598633e-01) (29, 9.50250566005706787109e-01) (30, 2.10675746202468872070e-01) (31, 7.17892169952392578125e-01) (32, 4.62357521057128906250e-01) (33, 9.70585286617279052734e-01) (34, 1.59162387251853942871e-01) (35, 2.71014600992202758789e-01) (36, 1.35138404369354248047e+00) (37, 8.32995295524597167969e-01) (38, 6.71710789203643798828e-01) (39, 4.04600530862808227539e-01) (40, -7.41296768188476562500e-01) (41, 2.02849641442298889160e-01) (42, 5.32930076122283935547e-01) (43, 7.50839710235595703125e-02) (44, 9.01618786156177520752e-03) (45, 9.73444402217864990234e-01) (46, 7.64432311058044433594e-01) (47, 1.46769613027572631836e-01) (48, -3.32119762897491455078e-01) (49, 1.17030568420886993408e-01) (50, 7.85236537456512451172e-01) (51, 1.01326262950897216797e+00) (52, 1.37664282321929931641e+00) (2, 5.33347427845001220703e-01) (3, 6.06614828109741210938e-01) (4, 1.65549799799919128418e-01) (5, 8.93586128950119018555e-02) (6, 6.18726015090942382812e-01) (7, 7.11294114589691162109e-01) (8, 5.48318386077880859375e-01) (9, 2.24420085549354553223e-01) (10, 7.46449410915374755859e-01) (11, 4.32377547025680541992e-01) (12, -1.82462111115455627441e-01) (13, -8.48956227302551269531e-01) (14, -6.96160420775413513184e-02) (15, 2.57449686527252197266e-01) (16, -9.67100679874420166016e-01) (17, -6.66073933243751525879e-02) (18, 4.05765384435653686523e-01) (19, -2.32609167695045471191e-01) (20, 5.27712404727935791016e-01) (21, 7.28614091873168945312e-01) (22, 1.63433000445365905762e-01) (23, 1.06767094135284423828e+00) (24, -1.17368988692760467529e-01) (25, 2.35780835151672363281e-01) (26, 6.62763714790344238281e-01) (27, 7.54838228225708007812e-01) (28, 6.95623397827148437500e-01) (29, 1.80778756737709045410e-01) (30, 5.48814117908477783203e-01) (31, 4.82595920562744140625e-01) (32, 5.10189831256866455078e-01) (33, 2.10377544164657592773e-01) (34, 8.33574414253234863281e-01) (35, 7.88848042488098144531e-01) (36, 6.84321284294128417969e-01) (37, 4.68979887664318084717e-02) (38, 4.86594259738922119141e-01) (39, 2.14370325207710266113e-01) (40, 8.59145224094390869141e-01) (41, 9.61938858032226562500e-01) (42, 9.91392135620117187500e-02) (43, 7.33691215515136718750e-01) (44, 7.89184451103210449219e-01) (45, 2.47575059533119201660e-01) (46, 2.00838357210159301758e-01) (47, 5.11866629123687744141e-01) (48, 5.04610478878021240234e-01) (49, 7.40768730640411376953e-01) (50, 1.31738424301147460938e-01) (51, 1.99127614498138427734e-01) (52, 2.56728261709213256836e-01) (2, 4.77361559867858886719e-01) (3, 4.16121214628219604492e-01) (4, 5.67653775215148925781e-02) (5, -1.40796154737472534180e-01) (6, 3.36170226335525512695e-01) (7, 7.72082746028900146484e-01) (8, 5.56377351284027099609e-01) (9, 1.37341976165771484375e-01) (10, 7.78700172901153564453e-01) (11, 5.78442454338073730469e-01) (12, 5.73435783386230468750e-01) (13, -2.69125819206237792969e-01) (14, -1.94182470440864562988e-01) (15, 7.09499940276145935059e-02) (16, -6.53129220008850097656e-01) (17, -4.33864407241344451904e-02) (18, 5.82488596439361572266e-01) (19, -2.13791906833648681641e-01) (20, 6.36130094528198242188e-01) (21, 5.09505331516265869141e-01) (22, 7.42142973467707633972e-03) (23, 4.72309291362762451172e-01) (24, -3.09993147850036621094e-01) (25, 2.89741605520248413086e-01) (26, 6.52035653591156005859e-01) (27, 8.74765217304229736328e-01) (28, 7.85493135452270507812e-01) (29, 2.56014410406351089478e-02) (30, 6.51159167289733886719e-01) (31, 4.95410889387130737305e-01) (32, 5.69693624973297119141e-01) (33, -5.04443049430847167969e-02) (34, 9.13538753986358642578e-01) (35, 6.18172883987426757812e-01) (36, 4.89361375570297241211e-01) (37, -1.08849093317985534668e-01) (38, 3.16250592470169067383e-01) (39, -7.81785994768142700195e-02) (40, 8.70040416717529296875e-01) (41, 7.08814680576324462891e-01) (42, -1.22469305992126464844e-01) (43, 9.04271781444549560547e-01) (44, 6.22743725776672363281e-01) (45, 1.85040086507797241211e-02) (46, -4.28420584648847579956e-03) (47, 7.77417480945587158203e-01) (48, 6.09595894813537597656e-01) (49, 7.51731216907501220703e-01) (50, 7.84931540489196777344e-01) (51, 7.74735882878303527832e-02) (52, 1.74433723092079162598e-01) (53, 7.04632699489593505859e-01) (54, 3.42384666204452514648e-01) (55, -8.98524373769760131836e-02) (56, 3.27563464641571044922e-01) (57, 5.97567498683929443359e-01) (58, 4.31185156106948852539e-01) (59, -2.43823185563087463379e-01) (60, 9.19196307659149169922e-01) (61, 6.76149070262908935547e-01) (62, 6.71595633029937744141e-01) (63, 9.00498270988464355469e-01) (64, 4.86912816762924194336e-01) (65, 1.09197640419006347656e+00) (66, -1.52079188823699951172e+00) (67, -3.31328511238098144531e-01) (68, 1.05451643466949462891e+00) (69, 4.51330155134201049805e-01) (70, -1.90805364400148391724e-02) (71, 7.70033895969390869141e-02) (72, 4.78624403476715087891e-01) (73, 5.93013703823089599609e-01) (74, -4.02699708938598632812e-02) (75, 4.10173922777175903320e-01) (76, 7.73046791553497314453e-01) (77, 1.07413804531097412109e+00) (78, 6.50405049324035644531e-01) (79, 8.18103134632110595703e-01) (80, -5.98148554563522338867e-02) (81, -2.02424321323633193970e-02) (82, 