FANN_FLO_2.1
num_layers=5
learning_rate=0.700000
connection_rate=1.000000
network_type=0
learning_momentum=0.000000
training_algorithm=2
train_error_function=1
train_stop_function=0
cascade_output_change_fraction=0.010000
quickprop_decay=-0.000100
quickprop_mu=1.750000
rprop_increase_factor=1.200000
rprop_decrease_factor=0.500000
rprop_delta_min=0.000000
rprop_delta_max=50.000000
rprop_delta_zero=0.100000
cascade_output_stagnation_epochs=12
cascade_candidate_change_fraction=0.010000
cascade_candidate_stagnation_epochs=12
cascade_max_out_epochs=150
cascade_min_out_epochs=50
cascade_max_cand_epochs=150
cascade_min_cand_epochs=50
cascade_num_candidate_groups=2
bit_fail_limit=3.49999994039535522461e-01
cascade_candidate_limit=1.00000000000000000000e+03
cascade_weight_multiplier=4.00000005960464477539e-01
cascade_activation_functions_count=10
cascade_activation_functions=3 5 7 8 10 11 14 15 16 17 
cascade_activation_steepnesses_count=4
cascade_activation_steepnesses=2.50000000000000000000e-01 5.00000000000000000000e-01 7.50000000000000000000e-01 1.00000000000000000000e+00 
layer_sizes=2 51 51 51 127 
scale_included=0
neurons (num_inputs, activation_function, activation_steepness)=(0, 0, 0.00000000000000000000e+00) (0, 0, 0.00000000000000000000e+00) (2, 5, 5.00000000000000000000e-01) (2, 5, 5.00000000000000000000e-01) (2, 5, 5.00000000000000000000e-01) (2, 5, 5.00000000000000000000e-01) (2, 5, 5.00000000000000000000e-01) (2, 5, 5.00000000000000000000e-01) (2, 5, 5.00000000000000000000e-01) (2, 5, 5.00000000000000000000e-01) (2, 5, 5.00000000000000000000e-01) (2, 5, 5.00000000000000000000e-01) (2, 5, 5.00000000000000000000e-01) (2, 5, 5.00000000000000000000e-01) (2, 5, 5.00000000000000000000e-01) (2, 5, 5.00000000000000000000e-01) (2, 5, 5.00000000000000000000e-01) (2, 5, 5.00000000000000000000e-01) (2, 5, 5.00000000000000000000e-01) (2, 5, 5.00000000000000000000e-01) (2, 5, 5.00000000000000000000e-01) (2, 5, 5.00000000000000000000e-01) (2, 5, 5.00000000000000000000e-01) (2, 5, 5.00000000000000000000e-01) (2, 5, 5.00000000000000000000e-01) (2, 5, 5.00000000000000000000e-01) (2, 5, 5.00000000000000000000e-01) (2, 5, 5.00000000000000000000e-01) (2, 5, 5.00000000000000000000e-01) (2, 5, 5.00000000000000000000e-01) (2, 5, 5.00000000000000000000e-01) (2, 5, 5.00000000000000000000e-01) (2, 5, 5.00000000000000000000e-01) (2, 5, 5.00000000000000000000e-01) (2, 5, 5.00000000000000000000e-01) (2, 5, 5.00000000000000000000e-01) (2, 5, 5.00000000000000000000e-01) (2, 5, 5.00000000000000000000e-01) (2, 5, 5.00000000000000000000e-01) (2, 5, 5.00000000000000000000e-01) (2, 5, 5.00000000000000000000e-01) (2, 5, 5.00000000000000000000e-01) (2, 5, 5.00000000000000000000e-01) (2, 5, 5.00000000000000000000e-01) (2, 5, 5.00000000000000000000e-01) (2, 5, 5.00000000000000000000e-01) (2, 5, 5.00000000000000000000e-01) (2, 5, 5.00000000000000000000e-01) (2, 5, 5.00000000000000000000e-01) (2, 5, 5.00000000000000000000e-01) (2, 5, 5.00000000000000000000e-01) (2, 5, 5.00000000000000000000e-01) (0, 5, 0.00000000000000000000e+00) (51, 5, 5.00000000000000000000e-01) (51, 5, 5.00000000000000000000e-01) (51, 5, 5.00000000000000000000e-01) (51, 5, 5.00000000000000000000e-01) (51, 5, 5.00000000000000000000e-01) (51, 5, 5.00000000000000000000e-01) (51, 5, 5.00000000000000000000e-01) (51, 5, 5.00000000000000000000e-01) (51, 5, 5.00000000000000000000e-01) (51, 5, 5.00000000000000000000e-01) (51, 5, 5.00000000000000000000e-01) (51, 5, 5.00000000000000000000e-01) (51, 5, 5.00000000000000000000e-01) (51, 5, 5.00000000000000000000e-01) (51, 5, 5.00000000000000000000e-01) (51, 5, 5.00000000000000000000e-01) (51, 5, 5.00000000000000000000e-01) (51, 5, 5.00000000000000000000e-01) (51, 5, 5.00000000000000000000e-01) (51, 5, 5.00000000000000000000e-01) (51, 5, 5.00000000000000000000e-01) (51, 5, 5.00000000000000000000e-01) (51, 5, 5.00000000000000000000e-01) (51, 5, 5.00000000000000000000e-01) (51, 5, 5.00000000000000000000e-01) (51, 5, 5.00000000000000000000e-01) (51, 5, 5.00000000000000000000e-01) (51, 5, 5.00000000000000000000e-01) (51, 5, 5.00000000000000000000e-01) (51, 5, 5.00000000000000000000e-01) (51, 5, 5.00000000000000000000e-01) (51, 5, 5.00000000000000000000e-01) (51, 5, 5.00000000000000000000e-01) (51, 5, 5.00000000000000000000e-01) (51, 5, 5.00000000000000000000e-01) (51, 5, 5.00000000000000000000e-01) (51, 5, 5.00000000000000000000e-01) (51, 5, 5.00000000000000000000e-01) (51, 5, 5.00000000000000000000e-01) (51, 5, 5.00000000000000000000e-01) (51, 5, 5.00000000000000000000e-01) (51, 5, 5.00000000000000000000e-01) (51, 5, 5.00000000000000000000e-01) (51, 5, 5.00000000000000000000e-01) (51, 5, 5.00000000000000000000e-01) (51, 5, 5.00000000000000000000e-01) (51, 5, 5.00000000000000000000e-01) (51, 5, 5.00000000000000000000e-01) (51, 5, 5.00000000000000000000e-01) (51, 5, 5.00000000000000000000e-01) (0, 5, 0.00000000000000000000e+00) (51, 5, 5.00000000000000000000e-01) (51, 5, 5.00000000000000000000e-01) (51, 5, 5.00000000000000000000e-01) (51, 5, 5.00000000000000000000e-01) (51, 5, 5.00000000000000000000e-01) (51, 5, 5.00000000000000000000e-01) (51, 5, 5.00000000000000000000e-01) (51, 5, 5.00000000000000000000e-01) (51, 5, 5.00000000000000000000e-01) (51, 5, 5.00000000000000000000e-01) (51, 5, 5.00000000000000000000e-01) (51, 5, 5.00000000000000000000e-01) (51, 5, 5.00000000000000000000e-01) (51, 5, 5.00000000000000000000e-01) (51, 5, 5.00000000000000000000e-01) (51, 5, 5.00000000000000000000e-01) (51, 5, 5.00000000000000000000e-01) (51, 5, 5.00000000000000000000e-01) (51, 5, 5.00000000000000000000e-01) (51, 5, 5.00000000000000000000e-01) (51, 5, 5.00000000000000000000e-01) (51, 5, 5.00000000000000000000e-01) (51, 5, 5.00000000000000000000e-01) (51, 5, 5.00000000000000000000e-01) (51, 5, 5.00000000000000000000e-01) (51, 5, 5.00000000000000000000e-01) (51, 5, 5.00000000000000000000e-01) (51, 5, 5.00000000000000000000e-01) (51, 5, 5.00000000000000000000e-01) (51, 5, 5.00000000000000000000e-01) (51, 5, 5.00000000000000000000e-01) (51, 5, 5.00000000000000000000e-01) (51, 5, 5.00000000000000000000e-01) (51, 5, 5.00000000000000000000e-01) (51, 5, 5.00000000000000000000e-01) (51, 5, 5.00000000000000000000e-01) (51, 5, 5.00000000000000000000e-01) (51, 5, 5.00000000000000000000e-01) (51, 5, 5.00000000000000000000e-01) (51, 5, 5.00000000000000000000e-01) (51, 5, 5.00000000000000000000e-01) (51, 5, 5.00000000000000000000e-01) (51, 5, 5.00000000000000000000e-01) (51, 5, 5.00000000000000000000e-01) (51, 5, 5.00000000000000000000e-01) (51, 5, 5.00000000000000000000e-01) (51, 5, 5.00000000000000000000e-01) (51, 5, 5.00000000000000000000e-01) (51, 5, 5.00000000000000000000e-01) (51, 5, 5.00000000000000000000e-01) (0, 5, 0.00000000000000000000e+00) (51, 0, 5.00000000000000000000e-01) (51, 0, 5.00000000000000000000e-01) (51, 0, 5.00000000000000000000e-01) (51, 0, 5.00000000000000000000e-01) (51, 0, 5.00000000000000000000e-01) (51, 0, 5.00000000000000000000e-01) (51, 0, 5.00000000000000000000e-01) (51, 0, 5.00000000000000000000e-01) (51, 0, 5.00000000000000000000e-01) (51, 0, 5.00000000000000000000e-01) (51, 0, 5.00000000000000000000e-01) (51, 0, 5.00000000000000000000e-01) (51, 0, 5.00000000000000000000e-01) (51, 0, 5.00000000000000000000e-01) (51, 0, 5.00000000000000000000e-01) (51, 0, 5.00000000000000000000e-01) (51, 0, 5.00000000000000000000e-01) (51, 0, 5.00000000000000000000e-01) (51, 0, 5.00000000000000000000e-01) (51, 0, 5.00000000000000000000e-01) (51, 0, 5.00000000000000000000e-01) (51, 0, 5.00000000000000000000e-01) (51, 0, 5.00000000000000000000e-01) (51, 0, 5.00000000000000000000e-01) (51, 0, 5.00000000000000000000e-01) (51, 0, 5.00000000000000000000e-01) (51, 0, 5.00000000000000000000e-01) (51, 0, 5.00000000000000000000e-01) (51, 0, 5.00000000000000000000e-01) (51, 0, 5.00000000000000000000e-01) (51, 0, 5.00000000000000000000e-01) (51, 0, 5.00000000000000000000e-01) (51, 0, 5.00000000000000000000e-01) (51, 0, 5.00000000000000000000e-01) (51, 0, 5.00000000000000000000e-01) (51, 0, 5.00000000000000000000e-01) (51, 0, 5.00000000000000000000e-01) (51, 0, 5.00000000000000000000e-01) (51, 0, 5.00000000000000000000e-01) (51, 0, 5.00000000000000000000e-01) (51, 0, 5.00000000000000000000e-01) (51, 0, 5.00000000000000000000e-01) (51, 0, 5.00000000000000000000e-01) (51, 0, 5.00000000000000000000e-01) (51, 0, 5.00000000000000000000e-01) (51, 0, 5.00000000000000000000e-01) (51, 0, 5.00000000000000000000e-01) (51, 0, 5.00000000000000000000e-01) (51, 0, 5.00000000000000000000e-01) (51, 0, 5.00000000000000000000e-01) (51, 0, 5.00000000000000000000e-01) (51, 0, 5.00000000000000000000e-01) (51, 0, 5.00000000000000000000e-01) (51, 0, 5.00000000000000000000e-01) (51, 0, 5.00000000000000000000e-01) (51, 0, 5.00000000000000000000e-01) (51, 0, 5.00000000000000000000e-01) (51, 0, 5.00000000000000000000e-01) (51, 0, 5.00000000000000000000e-01) (51, 0, 5.00000000000000000000e-01) (51, 0, 5.00000000000000000000e-01) (51, 0, 5.00000000000000000000e-01) (51, 0, 5.00000000000000000000e-01) (51, 0, 5.00000000000000000000e-01) (51, 0, 5.00000000000000000000e-01) (51, 0, 5.00000000000000000000e-01) (51, 0, 5.00000000000000000000e-01) (51, 0, 5.00000000000000000000e-01) (51, 0, 5.00000000000000000000e-01) (51, 0, 5.00000000000000000000e-01) (51, 0, 5.00000000000000000000e-01) (51, 0, 5.00000000000000000000e-01) (51, 0, 5.00000000000000000000e-01) (51, 0, 5.00000000000000000000e-01) (51, 0, 5.00000000000000000000e-01) (51, 0, 5.00000000000000000000e-01) (51, 0, 5.00000000000000000000e-01) (51, 0, 5.00000000000000000000e-01) (51, 0, 5.00000000000000000000e-01) (51, 0, 5.00000000000000000000e-01) (51, 0, 5.00000000000000000000e-01) (51, 0, 5.00000000000000000000e-01) (51, 0, 5.00000000000000000000e-01) (51, 0, 5.00000000000000000000e-01) (51, 0, 5.00000000000000000000e-01) (51, 0, 5.00000000000000000000e-01) (51, 0, 5.00000000000000000000e-01) (51, 0, 5.00000000000000000000e-01) (51, 0, 5.00000000000000000000e-01) (51, 0, 5.00000000000000000000e-01) (51, 0, 5.00000000000000000000e-01) (51, 0, 5.00000000000000000000e-01) (51, 0, 5.00000000000000000000e-01) (51, 0, 5.00000000000000000000e-01) (51, 0, 5.00000000000000000000e-01) (51, 0, 5.00000000000000000000e-01) (51, 0, 5.00000000000000000000e-01) (51, 0, 5.00000000000000000000e-01) (51, 0, 5.00000000000000000000e-01) (51, 0, 5.00000000000000000000e-01) (51, 0, 5.00000000000000000000e-01) (51, 0, 5.00000000000000000000e-01) (51, 0, 5.00000000000000000000e-01) (51, 0, 5.00000000000000000000e-01) (51, 0, 5.00000000000000000000e-01) (51, 0, 5.00000000000000000000e-01) (51, 0, 5.00000000000000000000e-01) (51, 0, 5.00000000000000000000e-01) (51, 0, 5.00000000000000000000e-01) (51, 0, 5.00000000000000000000e-01) (51, 0, 5.00000000000000000000e-01) (51, 0, 5.00000000000000000000e-01) (51, 0, 5.00000000000000000000e-01) (51, 0, 5.00000000000000000000e-01) (51, 0, 5.00000000000000000000e-01) (51, 0, 5.00000000000000000000e-01) (51, 0, 5.00000000000000000000e-01) (51, 0, 5.00000000000000000000e-01) (51, 0, 5.00000000000000000000e-01) (51, 0, 5.00000000000000000000e-01) (51, 0, 5.00000000000000000000e-01) (51, 0, 5.00000000000000000000e-01) (51, 0, 5.00000000000000000000e-01) (51, 0, 5.00000000000000000000e-01) (51, 0, 5.00000000000000000000e-01) (51, 0, 5.00000000000000000000e-01) (0, 0, 0.00000000000000000000e+00) 
connections (connected_to_neuron, weight)=(0, 6.04190170764923095703e-01) (1, 2.55423694849014282227e-01) (0, -4.18517608642578125000e+02) (1, -1.15276038646697998047e+00) (0, -1.49421887207031250000e+03) (1, 2.47907781600952148438e+00) (0, -6.23078680038452148438e+00) (1, 2.59902973175048828125e+01) (0, 1.29939496517181396484e-01) (1, 3.80280456542968750000e+01) (0, 8.31655456542968750000e+02) (1, 1.80468964576721191406e+00) (0, -1.82618331909179687500e+00) (1, -2.27465009689331054688e+00) (0, 5.13473987579345703125e-01) (1, -2.30617618560791015625e+00) (0, -1.88187986612319946289e-01) (1, 1.11540734767913818359e+00) (0, -5.97237765789031982422e-01) (1, -2.56515890359878540039e-01) (0, -7.93753671646118164062e+00) (1, 7.48131713867187500000e+01) (0, -1.40974975585937500000e+03) (1, 2.38836884498596191406e+00) (0, -1.11373506486415863037e-01) (1, -3.56438010931015014648e-02) (0, -2.48296977952122688293e-03) (1, 3.24298620223999023438e-01) (0, 7.52767994999885559082e-02) (1, 1.30957853794097900391e+00) (0, -2.08612978458404541016e-01) (1, -2.65450328588485717773e-01) (0, 5.64262531697750091553e-02) (1, 3.47236895561218261719e+00) (0, 1.33447229862213134766e+00) (1, 1.15451920032501220703e+00) (0, -1.09399776458740234375e+01) (1, -1.94401192665100097656e+00) (0, -1.27116718795150518417e-03) (1, -1.58947348594665527344e-01) (0, 3.90947961807250976562e+00) (1, -6.44360427856445312500e+01) (0, -3.42958182096481323242e-01) (1, -4.03463803231716156006e-02) (0, 3.50011378526687622070e-01) (1, 5.64772415161132812500e+00) (0, 9.88583117723464965820e-02) (1, 6.25878763198852539062e+00) (0, 1.20052051544189453125e+00) (1, -3.39392204284667968750e+01) (0, 3.08298892974853515625e+01) (1, 1.75179576873779296875e+00) (0, 6.23498931527137756348e-02) (1, 1.62563562393188476562e-01) (0, 2.07087492942810058594e+00) (1, -2.31409907341003417969e-01) (0, 6.09245262145996093750e+01) (1, -3.84405422210693359375e+00) (0, 7.12608154296875000000e+02) (1, -4.29285526275634765625e+00) (0, 6.81102722883224487305e-02) (1, 1.13937873840332031250e+01) (0, 4.93232682347297668457e-02) (1, 5.81818163394927978516e-01) (0, 6.37694239616394042969e-01) (1, 5.40245723724365234375e+00) (0, -1.39861869812011718750e+00) (1, -4.93654489517211914062e-01) (0, -3.20532433688640594482e-02) (1, 6.59348297119140625000e+01) (0, 1.08417965471744537354e-01) (1, 1.48071050643920898438e-01) (0, 4.04126853942871093750e+01) (1, -9.89142990112304687500e+00) (0, 1.17035781860351562500e+02) (1, 2.64125671386718750000e+02) (0, -7.94403910636901855469e-01) (1, 5.27053976058959960938e+00) (0, 1.63287091255187988281e+00) (1, 1.82567989826202392578e+00) (0, 1.77232146263122558594e+00) (1, -3.42332077026367187500e+00) (0, 1.17068611085414886475e-01) (1, -3.61054301261901855469e-01) (0, 7.25764781236648559570e-02) (1, 2.51982212066650390625e-01) (0, -7.18413591384887695312e-02) (1, 7.45031691621989011765e-04) (0, -1.45988815347664058208e-04) (1, 3.29597663879394531250e+00) (0, 1.68664723634719848633e-01) (1, -7.97171965241432189941e-02) (0, -9.65367555618286132812e-02) (1, -1.78456425666809082031e-01) (0, -9.05922949314117431641e-01) (1, -1.17339156568050384521e-01) (0, 3.26926587149500846863e-04) (1, 2.91349172592163085938e+00) (0, -2.09709241986274719238e-01) (1, 5.35452604293823242188e-01) (2, 7.37525105476379394531e-01) (3, 1.91803202033042907715e-01) (4, -9.01594340801239013672e-01) (5, 9.19352471828460693359e-02) (6, 1.25761294364929199219e+00) (7, 1.16085743904113769531e+00) (8, 1.16896189749240875244e-01) (9, 3.59527587890625000000e-01) (10, 4.39507693052291870117e-01) (11, -6.21174156665802001953e-01) (12, 7.08661615848541259766e-01) (13, 5.37083148956298828125e-01) (14, -1.63211852312088012695e-01) (15, -5.98484836518764495850e-02) (16, 9.65166240930557250977e-02) (17, -3.49137723445892333984e-01) (18, 5.46476542949676513672e-01) (19, 6.32363975048065185547e-01) (20, -5.09711802005767822266e-02) (21, -1.08160257339477539062e-01) (22, 3.65031749010086059570e-01) (23, 1.13025069236755371094e+00) (24, 7.18124508857727050781e-01) (25, 7.13618218898773193359e-01) (26, 3.05977642536163330078e-01) (27, 1.19592642784118652344e+00) (28, 1.32696199417114257812e+00) (29, 1.69214025139808654785e-01) (30, 4.36878025531768798828e-01) (31, 4.26019221544265747070e-01) (32, 1.05445230007171630859e+00) (33, 1.07219529151916503906e+00) (34, 6.35488092899322509766e-01) (35, 2.20126688480377197266e-01) (36, 4.32187199592590332031e-01) (37, 1.27596509456634521484e+00) (38, 4.07503724098205566406e-01) (39, 9.10402119159698486328e-01) (40, 1.19680166244506835938e+00) (41, 7.24661767482757568359e-01) (42, 4.43592995405197143555e-01) (43, 7.31209933757781982422e-01) (44, 7.30015516281127929688e-01) (45, -1.68248951435089111328e-01) (46, 6.61817431449890136719e-01) (47, 1.19185769557952880859e+00) (48, 1.76424503326416015625e-01) (49, 5.66182322800159454346e-02) (50, 2.61593580245971679688e-01) (51, 5.37570297718048095703e-01) (52, 1.07075095176696777344e-01) (2, 6.64588034152984619141e-01) (3, 4.26130861043930053711e-01) (4, 1.69843211770057678223e-02) (5, 2.55069166421890258789e-01) (6, 1.11382782459259033203e+00) (7, 8.91324341297149658203e-01) (8, 2.37892523407936096191e-01) (9, 1.91874399781227111816e-01) (10, 4.02135848999023437500e-01) (11, 1.62482991814613342285e-01) (12, 1.04198610782623291016e+00) (13, 4.09032434225082397461e-01) (14, 6.31452947854995727539e-02) (15, -6.32716357707977294922e-01) (16, 3.15098971128463745117e-01) (17, -1.31233945488929748535e-01) (18, 4.53691184520721435547e-01) (19, 6.11824035644531250000e-01) (20, -1.56672224402427673340e-01) (21, 7.81096443533897399902e-02) (22, 2.27307885885238647461e-01) (23, 8.49075436592102050781e-01) (24, 6.42718076705932617188e-01) (25, 4.66103583574295043945e-01) (26, 3.11502385884523391724e-02) (27, 6.79932296276092529297e-01) (28, 9.78653073310852050781e-01) (29, -3.54149788618087768555e-02) (30, 1.56647771596908569336e-01) (31, 1.59721881151199340820e-01) (32, 8.63723397254943847656e-01) (33, 8.18957030773162841797e-01) (34, 5.57013511657714843750e-01) (35, 4.01340931653976440430e-01) (36, 1.59976035356521606445e-01) (37, 1.02113568782806396484e+00) (38, 2.24749505519866943359e-01) (39, 4.74065095186233520508e-01) (40, 1.08799588680267333984e+00) (41, 6.47045612335205078125e-01) (42, 1.56656563282012939453e-01) (43, 8.81381571292877197266e-01) (44, 4.93156045675277709961e-01) (45, 1.76360920071601867676e-01) (46, 4.78523224592208862305e-01) (47, 9.88664925098419189453e-01) (48, 3.69025915861129760742e-01) (49, 2.80624210834503173828e-01) (50, -7.93099030852317810059e-02) (51, 2.77888923883438110352e-01) (52, 2.27032452821731567383e-02) (2, -3.22088077664375305176e-02) (3, 3.91886830329895019531e-02) (4, 1.92683362960815429688e+00) (5, 9.02002975344657897949e-02) (6, -6.27144038677215576172e-01) (7, 3.18515151739120483398e-02) (8, 3.53894889354705810547e-01) (9, 6.20484471321105957031e-01) (10, 5.81777691841125488281e-01) (11, 3.72370600700378417969e-01) (12, -3.92545282840728759766e-01) (13, -8.46713036298751831055e-02) (14, 1.65308332443237304688e+00) (15, -1.22689545154571533203e+00) (16, 8.93028259277343750000e-01) (17, 1.48125219345092773438e+00) (18, -1.49262845516204833984e-01) (19, 2.16225609183311462402e-02) (20, 2.34444066882133483887e-01) (21, 1.90222156047821044922e+00) (22, 4.95245456695556640625e-01) (23, 1.79004773497581481934e-01) (24, 1.56495571136474609375e-02) (25, -8.65705981850624084473e-02) (26, 7.19505131244659423828e-01) (27, 1.01116642355918884277e-01) (28, 6.11103996634483337402e-02) (29, 1.98820069432258605957e-01) (30, 9.71502304077148437500e-01) (31, 1.05834949016571044922e+00) (32, -8.45569968223571777344e-01) (33, 8.86765867471694946289e-02) (34, 6.12693764269351959229e-02) (35, 6.01546585559844970703e-01) (36, 1.04910448193550109863e-01) (37, 1.05125069618225097656e-01) (38, 3.89529675245285034180e-01) (39, -5.99616169929504394531e-02) (40, -4.22999858856201171875e-01) (41, 8.04105922579765319824e-02) (42, 6.99869573116302490234e-01) (43, 9.16665256023406982422e-01) (44, 9.90742743015289306641e-01) (45, 1.79075622558593750000e+00) (46, -6.94967210292816162109e-02) (47, 1.73243880271911621094e-01) (48, 1.01727056503295898438e+00) (49, 5.50617426633834838867e-02) (50, 2.99468219280242919922e-01) (51, 5.88021934032440185547e-01) (52, -1.62050232291221618652e-01) (2, 2.75583028793334960938e-01) (3, 1.59436360001564025879e-01) (4, 1.20488631725311279297e+00) (5, 4.18893754482269287109e-01) (6, 6.39959156513214111328e-01) (7, 5.63201606273651123047e-01) (8, 4.41910147666931152344e-01) (9, 4.15366291999816894531e-01) (10, 1.17341363430023193359e+00) (11, 1.06107819080352783203e+00) (12, 9.91597115993499755859e-01) (13, 9.14360284805297851562e-01) (14, 4.75333422422409057617e-01) (15, 1.34881842136383056641e+00) (16, -3.53937327861785888672e-01) (17, 8.04369628429412841797e-01) (18, 4.38020676374435424805e-01) (19, 7.09275752305984497070e-02) (20, 1.53733456134796142578e+00) (21, 2.29986041784286499023e-01) (22, 4.03010189533233642578e-01) (23, 4.79381024837493896484e-01) (24, 2.86988556385040283203e-01) (25, 3.95093858242034912109e-01) (26, 3.52985024452209472656e-01) (27, 4.75669264793395996094e-01) (28, 6.28386318683624267578e-01) (29, 2.71940529346466064453e-01) (30, 4.27346259355545043945e-01) (31, 4.29647296667098999023e-01) (32, 7.17021942138671875000e-01) (33, 1.45597411319613456726e-02) (34, 2.98507302999496459961e-01) (35, 4.67617720365524291992e-01) (36, 1.87294185161590576172e+00) (37, 6.63996636867523193359e-01) (38, 1.06060016155242919922e+00) (39, 5.58885812759399414062e-01) (40, 4.12222146987915039062e-01) (41, 2.16268539428710937500e-01) (42, 3.60294848680496215820e-01) (43, -4.67080384492874145508e-01) (44, -1.18056692183017730713e-01) (45, 2.65933215618133544922e-01) (46, 4.04906958341598510742e-01) (47, 6.30308508872985839844e-01) (48, 2.34270125627517700195e-01) (49, 2.01340496540069580078e-01) (50, 5.32082736492156982422e-01) (51, 1.05356979370117187500e+00) (52, 6.59796237945556640625e-01) (2, 4.48611408472061157227e-01) (3, 6.19084835052490234375e-01) (4, 2.00597450137138366699e-01) (5, 5.59238851070404052734e-01) (6, 5.02932846546173095703e-01) (7, 2.03324288129806518555e-01) (8, 5.28124153614044189453e-01) (9, 5.11499285697937011719e-01) (10, 5.90132653713226318359e-01) (11, 3.81311535835266113281e-01) (12, 4.02346104383468627930e-01) (13, 1.76075682044029235840e-01) (14, 3.32644909620285034180e-01) (15, 2.92702317237854003906e-01) (16, 4.64965343475341796875e-01) (17, 2.74231910705566406250e-01) (18, 5.27532219886779785156e-01) (19, 4.71958994865417480469e-01) (20, 5.29217123985290527344e-01) (21, 4.70649093389511108398e-01) (22, 5.71313738822937011719e-01) (23, 2.60103642940521240234e-01) (24, 4.02866780757904052734e-01) (25, 4.53334033489227294922e-01) (26, 4.62164938449859619141e-01) (27, 2.15482831001281738281e-01) (28, 3.05473148822784423828e-01) (29, 4.15597766637802124023e-01) (30, 3.23504716157913208008e-01) (31, 4.56960022449493408203e-01) (32, 4.89594370126724243164e-01) (33, 2.81018555164337158203e-01) (34, 4.09245699644088745117e-01) (35, 4.87926423549652099609e-01) (36, 7.38227963447570800781e-01) (37, 3.51120471954345703125e-01) (38, 4.60685640573501586914e-01) (39, 3.56748938560485839844e-01) (40, 4.35351818799972534180e-01) (41, 4.91428613662719726562e-01) (42, 4.40967500209808349609e-01) (43, 9.18565869331359863281e-01) (44, 7.91735589504241943359e-01) (45, 4.17986601591110229492e-01) (46, 3.67296785116195678711e-01) (47, 2.54129499197006225586e-01) (48, 3.39848428964614868164e-01) (49, 6.34485602378845214844e-01) (50, 3.08747291564941406250e-01) (51, 6.42655968666076660156e-01) (52, 6.75146877765655517578e-01) (2, 1.94436609745025634766e-02) (3, 6.75018310546875000000e-01) (4, 1.12116897106170654297e+00) (5, 1.82404920458793640137e-01) (6, -1.56904220581054687500e+00) (7, -2.34781041741371154785e-01) (8, 1.07463073730468750000e+00) (9, 8.67675721645355224609e-01) (10, 4.03339117765426635742e-01) (11, 6.38476312160491943359e-01) (12, -2.34740877151489257812e+00) (13, 1.32430553436279296875e-01) (14, 1.10286355018615722656e+00) (15, 6.83584511280059814453e-01) (16, 1.91446936130523681641e+00) (17, 1.04976737499237060547e+00) (18, -4.04433637857437133789e-01) (19, 1.39581575989723205566e-01) (20, 6.85143172740936279297e-01) (21, 1.14080977439880371094e+00) (22, 9.22029376029968261719e-01) (23, -1.52392745018005371094e-01) (24, 3.57216224074363708496e-03) (25, 5.03989830613136291504e-02) (26, 8.04770648479461669922e-01) (27, -2.15907648205757141113e-01) (28, -2.02813670039176940918e-01) (29, 2.89474993944168090820e-01) (30, 7.47424006462097167969e-01) (31, 7.01905071735382080078e-01) (32, -2.84212493896484375000e+00) (33, -2.62188643217086791992e-01) (34, 1.61705434322357177734e-01) (35, 6.82798564434051513672e-01) (36, -5.16017138957977294922e-01) (37, -2.89200395345687866211e-01) (38, 1.59130528569221496582e-01) (39, -1.18618941307067871094e+00) (40, -2.20062375068664550781e+00) (41, 1.15278005599975585938e-01) (42, 8.28219592571258544922e-01) (43, 6.38713598251342773438e-01) (44, 3.82361918687820434570e-01) (45, 9.90534305572509765625e-01) (46, -1.79947484284639358521e-02) (47, -7.55908191204071044922e-02) (48, 1.29595482349395751953e+00) (49, 6.93633258342742919922e-01) (50, 4.43617016077041625977e-01) (51, 4.65474694967269897461e-01) (52, 4.28569495677947998047e-01) (2, 3.92437219619750976562e-01) (3, 3.97211223840713500977e-01) (4, -1.05232775211334228516e-01) (5, 6.67061328887939453125e-01) (6, 4.79377299547195434570e-01) (7, 2.75734573602676391602e-01) (8, 5.00282645225524902344e-01) (9, 4.74721759557723999023e-01) (10, 4.06424224376678466797e-01) (11, 5.16908943653106689453e-01) (12, 4.28343385457992553711e-01) (13, 1.43355384469032287598e-01) (14, 4.45223271846771240234e-01) (15, 2.75233447551727294922e-01) (16, 5.32302081584930419922e-01) (17, 3.65318864583969116211e-01) (18, 4.85516279935836791992e-01) (19, 4.78582888841629028320e-01) (20, 4.58629637956619262695e-01) (21, 4.46229815483093261719e-01) (22, 4.82406258583068847656e-01) (23, 2.43630632758140563965e-01) (24, 4.34495359659194946289e-01) (25, 4.26449775695800781250e-01) (26, 4.80759292840957641602e-01) (27, 2.67432153224945068359e-01) (28, 1.75040781497955322266e-01) (29, 3.63890677690505981445e-01) (30, 3.79858046770095825195e-01) (31, 4.19404059648513793945e-01) (32, 4.64947402477264404297e-01) (33, 1.19940392673015594482e-01) (34, 3.81112486124038696289e-01) (35, 5.56585490703582763672e-01) (36, 6.74697935581207275391e-01) (37, 2.01672717928886413574e-01) (38, 2.16847166419029235840e-01) (39, 3.35755616426467895508e-01) (40, 4.05317395925521850586e-01) (41, 3.66203457117080688477e-01) (42, 5.32165944576263427734e-01) (43, 8.14503073692321777344e-01) (44, 6.48574352264404296875e-01) (45, 3.74785453081130981445e-01) (46, 3.53345334529876708984e-01) (47, 9.32053327560424804688e-02) (48, 3.16430091857910156250e-01) (49, 5.68316638469696044922e-01) (50, 1.07882805168628692627e-01) (51, 4.42644298076629638672e-01) (52, 6.37513160705566406250e-01) (2, 5.99716067314147949219e-01) (3, 7.27369263768196105957e-02) (4, -5.63754513859748840332e-02) (5, 1.37791514396667480469e-01) (6, 1.34061491489410400391e+00) (7, 4.91178095340728759766e-01) (8, 2.14616805315017700195e-01) (9, -2.45369225740432739258e-02) (10, 6.37898221611976623535e-02) (11, -1.89886186271905899048e-02) (12, 3.00002336502075195312e-01) (13, 5.62362730503082275391e-01) (14, 2.57979005575180053711e-01) (15, -2.92979888617992401123e-02) (16, 3.04608374834060668945e-01) (17, 1.00839696824550628662e-01) (18, 5.56982934474945068359e-01) (19, 5.75581312179565429688e-01) (20, 3.97596061229705810547e-01) (21, 9.77629870176315307617e-02) (22, -1.82806417346000671387e-01) (23, 3.36718410253524780273e-01) (24, 6.88727974891662597656e-01) (25, 5.55253386497497558594e-01) (26, -1.15615934133529663086e-01) (27, 3.41605067253112792969e-01) (28, 5.44451832771301269531e-01) (29, -4.30755734443664550781e-01) (30, -1.75173863768577575684e-01) (31, -6.41007646918296813965e-02) (32, 1.15339601039886474609e+00) (33, 4.86427396535873413086e-01) (34, 5.35631299018859863281e-01) (35, 2.17433590441942214966e-02) (36, 3.69316548109054565430e-01) (37, 5.18770933151245117188e-01) (38, 3.33916954696178436279e-02) (39, 5.24299442768096923828e-01) (40, 1.13754522800445556641e+00) (41, 5.41634023189544677734e-01) (42, -1.77691504359245300293e-02) (43, 5.08649826049804687500e-01) (44, 8.51006746292114257812e-01) (45, 2.12999269366264343262e-01) (46, 4.63635146617889404297e-01) (47, 5.90029656887054443359e-01) (48, 1.72654598951339721680e-01) (49, 4.03309240937232971191e-02) (50, -3.57423394918441772461e-01) (51, 1.73368137329816818237e-02) (52, 4.12051022052764892578e-01) (2, 1.72614562511444091797e+00) (3, 8.99450659751892089844e-01) (4, 3.51246520876884460449e-02) (5, -6.70665919780731201172e-01) (6, 1.96954742074012756348e-01) (7, 4.72310394048690795898e-01) (8, 8.87080311775207519531e-01) (9, 6.83649003505706787109e-01) (10, -2.01359972357749938965e-01) (11, -2.70869314670562744141e-01) (12, 2.77101933956146240234e-01) (13, 1.42006051540374755859e+00) (14, -2.12746709585189819336e-02) (15, -2.27191954851150512695e-01) (16, 9.62611138820648193359e-01) (17, -1.68677307665348052979e-02) (18, 1.67971158027648925781e+00) (19, 1.61398041248321533203e+00) (20, -3.18111181259155273438e-01) (21, 5.96522837877273559570e-02) (22, 1.32770389318466186523e-01) (23, 3.51963043212890625000e-01) (24, 1.62534952163696289062e+00) (25, 1.45268678665161132812e+00) (26, 6.00394487380981445312e-01) (27, 3.77414405345916748047e-01) (28, 3.23533535003662109375e-01) (29, 5.09794890880584716797e-01) (30, 6.38560473918914794922e-01) (31, 6.14069640636444091797e-01) (32, 2.46814742684364318848e-01) (33, 2.95265406370162963867e-01) (34, 1.70695483684539794922e+00) (35, 8.40530574321746826172e-01) (36, -1.08133018016815185547e+00) (37, 4.64309930801391601562e-01) (38, -2.95327514410018920898e-01) (39, -1.57853811979293823242e-01) (40, 2.77618736028671264648e-01) (41, 1.64883935451507568359e+00) (42, 7.86679565906524658203e-01) (43, 3.29113149642944335938e+00) (44, 2.27084445953369140625e+00) (45, 5.33077716827392578125e-02) (46, 1.48390340805053710938e+00) (47, 3.71323794126510620117e-01) (48, 2.77634918689727783203e-01) (49, 9.59935069084167480469e-01) (50, 6.32342338562011718750e-01) (51, -1.01796329021453857422e-01) (52, 7.57058262825012207031e-01) (2, 3.21855664253234863281e-01) (3, 8.98475766181945800781e-01) (4, 9.22667324542999267578e-01) (5, 1.84703946113586425781e-01) (6, -7.41294622421264648438e-02) (7, 1.29007231444120407104e-02) (8, 1.12760305404663085938e+00) (9, 9.38324630260467529297e-01) (10, 5.08474469184875488281e-01) (11, 1.69954192638397216797e+00) (12, -2.00405061244964599609e-01) (13, 2.21758589148521423340e-01) (14, 1.05530297756195068359e+00) (15, -1.98997110128402709961e-01) (16, 7.05529391765594482422e-01) (17, 9.86185789108276367188e-01) (18, 3.14267307519912719727e-01) (19, 3.30152809619903564453e-01) (20, 1.23947489261627197266e+00) (21, 1.08895027637481689453e+00) (22, 8.25089275836944580078e-01) (23, 3.63529510796070098877e-02) (24, 1.95402085781097412109e-01) (25, 3.37128847837448120117e-01) (26, 8.80310297012329101562e-01) (27, 2.67165564000606536865e-02) (28, 7.36493021249771118164e-02) (29, 8.70577156543731689453e-01) (30, 6.49952828884124755859e-01) (31, 6.60849571228027343750e-01) (32, -9.18921455740928649902e-03) (33, -1.66683450341224670410e-01) (34, 1.59007042646408081055e-01) (35, 6.65142297744750976562e-01) (36, 1.28617310523986816406e+00) (37, 3.00184227526187896729e-02) (38, -1.20987527072429656982e-01) (39, 2.62663632631301879883e-01) (40, -2.82167553901672363281e-01) (41, 2.90742367506027221680e-01) (42, 7.69044578075408935547e-01) (43, 4.29012805223464965820e-01) (44, 3.01861494779586791992e-01) (45, 1.04516530036926269531e+00) (46, 2.19658449292182922363e-01) (47, 3.08978464454412460327e-02) (48, 8.30503523349761962891e-01) (49, 8.31030786037445068359e-01) (50, 5.70230543613433837891e-01) (51, 5.13091087341308593750e-01) (52, 8.67465078830718994141e-01) (2, 4.81122672557830810547e-01) (3, 1.90642550587654113770e-01) (4, 7.73428261280059814453e-01) (5, 2.39474534988403320312e-01) (6, 3.72077405452728271484e-01) (7, 4.44752663373947143555e-01) (8, 3.52914631366729736328e-01) (9, 2.75227665901184082031e-01) (10, 8.06172713637351989746e-02) (11, 8.29651206731796264648e-02) (12, 3.18175107240676879883e-01) (13, 3.87079328298568725586e-01) (14, 8.02255749702453613281e-01) (15, 5.58825694024562835693e-02) (16, 3.18329751491546630859e-01) (17, 6.16022169589996337891e-01) (18, 3.46832484006881713867e-01) (19, 5.14696419239044189453e-01) (20, 2.31161490082740783691e-02) (21, 7.90751814842224121094e-01) (22, 2.66772210597991943359e-01) (23, 5.76830029487609863281e-01) (24, 4.90320384502410888672e-01) (25, 6.16100370883941650391e-01) (26, 2.85296440124511718750e-01) (27, 4.96153026819229125977e-01) (28, 5.90624570846557617188e-01) (29, 9.56187620759010314941e-02) (30, 2.40093424916267395020e-01) (31, 2.76666581630706787109e-01) (32, 2.84779846668243408203e-01) (33, 4.32542294263839721680e-01) (34, 5.79762995243072509766e-01) (35, 3.87390315532684326172e-01) (36, 3.35339277982711791992e-01) (37, 6.74432516098022460938e-01) (38, 1.56418532133102416992e-01) (39, 3.47331315279006958008e-01) (40, 3.52507531642913818359e-01) (41, 4.99236732721328735352e-01) (42, 4.48798596858978271484e-01) (43, 1.78216731548309326172e+00) (44, 7.05819666385650634766e-01) (45, 7.74301886558532714844e-01) (46, 3.00751775503158569336e-01) (47, 4.72033739089965820312e-01) (48, 6.44085884094238281250e-01) (49, 3.16065251827239990234e-01) (50, 1.06855474412441253662e-01) (51, 1.97446465492248535156e-01) (52, 1.71343192458152770996e-01) (2, 4.39425408840179443359e-01) (3, 5.44322788715362548828e-01) (4, -1.97085276246070861816e-01) (5, 6.16728961467742919922e-01) (6, 4.75983291864395141602e-01) (7, 2.76170730590820312500e-01) (8, 5.78539252281188964844e-01) (9, 5.27193903923034667969e-01) (10, 4.70558464527130126953e-01) (11, 4.27985966205596923828e-01) (12, 4.87783193588256835938e-01) (13, 4.10826206207275390625e-01) (14, 3.69960159063339233398e-01) (15, 2.12310448288917541504e-01) (16, 5.23064792156219482422e-01) (17, 4.03531491756439208984e-01) (18, 3.46884518861770629883e-01) (19, 4.21137452125549316406e-01) (20, 4.58867430686950683594e-01) (21, 4.99741137027740478516e-01) (22, 5.33348739147186279297e-01) (23, 1.57526120543479919434e-01) (24, 4.16363000869750976562e-01) (25, 3.00414055585861206055e-01) (26, 4.67194050550460815430e-01) (27, 1.45430967211723327637e-01) (28, 3.02328288555145263672e-01) (29, 4.12597268819808959961e-01) (30, 5.17261803150177001953e-01) (31, 5.37412106990814208984e-01) (32, 5.20962536334991455078e-01) (33, 1.56371071934700012207e-01) (34, 4.64782506227493286133e-01) (35, 5.09121894836425781250e-01) (36, 6.80477440357208251953e-01) (37, 2.90555894374847412109e-01) (38, 4.35029685497283935547e-01) (39, 1.41114473342895507812e-01) (40, 4.33862835168838500977e-01) (41, 4.07899051904678344727e-01) (42, 4.71096694469451904297e-01) (43, 9.78571593761444091797e-01) (44, 6.89228236675262451172e-01) (45, 4.37290430068969726562e-01) (46, 2.58580744266510009766e-01) (47, 2.09303572773933410645e-01) (48, 5.73158442974090576172e-01) (49, 4.60155040025711059570e-01) (50, 2.58660316467285156250e-01) (51, 4.90818589925765991211e-01) (52, 7.43070363998413085938e-01) (2, -1.22423179447650909424e-01) (3, 3.54321032762527465820e-01) (4, 6.07059895992279052734e-01) (5, -2.52273827791213989258e-02) (6, 1.36110365390777587891e-01) (7, 4.27123218774795532227e-01) (8, 5.36367774009704589844e-01) (9, 3.59795361757278442383e-01) (10, 9.26694154739379882812e-01) (11, 5.11087298393249511719e-01) (12, -2.42798831313848495483e-02) (13, -6.20171368122100830078e-01) (14, 4.36525166034698486328e-01) (15, 1.51158124208450317383e-01) (16, -2.53738313913345336914e-01) (17, 5.74392735958099365234e-01) (18, -1.71865060925483703613e-01) (19, -2.63029754161834716797e-01) (20, 2.20886811614036560059e-01) (21, 7.25621163845062255859e-01) (22, 3.72186720371246337891e-01) (23, 2.86662012338638305664e-01) (24, -3.47246676683425903320e-01) (25, -3.74934226274490356445e-01) (26, 2.38698273897171020508e-01) (27, 3.57455432415008544922e-01) (28, 5.22418975830078125000e-01) (29, 1.15051917731761932373e-01) (30, 6.55857101082801818848e-02) (31, 3.18800099194049835205e-02) (32, 3.72805386781692504883e-01) (33, 2.39240482449531555176e-01) (34, -3.75939160585403442383e-01) (35, 7.52316713333129882812e-02) (36, 1.06716322898864746094e+00) (37, 3.85197252035140991211e-01) (38, 3.40009778738021850586e-01) (39, 3.46938163042068481445e-01) (40, 7.48063400387763977051e-02) (41, -1.83549985289573669434e-01) (42, 2.11675018072128295898e-01) (43, -1.15978280082345008850e-02) (44, -4.72171790897846221924e-02) (45, 4.65755879878997802734e-01) (46, -2.74700999259948730469e-01) (47, 3.84948700666427612305e-01) (48, 2.54955917596817016602e-01) (49, 2.47805356979370117188e-01) (50, 2.92824178934097290039e-01) (51, 8.88116776943206787109e-01) (52, 3.77955615520477294922e-01) (2, 7.61604979634284973145e-02) (3, 7.83638834953308105469e-01) (4, 3.68748128414154052734e-01) (5, -7.29655504226684570312e-01) (6, 9.51176404953002929688e-01) (7, 1.40233218669891357422e+00) (8, -5.58555722236633300781e-01) (9, -1.88384294509887695312e+00) (10, 3.89978647232055664062e-01) (11, 3.29895079135894775391e-01) (12, 7.53570556640625000000e-01) (13, -6.94170892238616943359e-02) (14, 3.61349850893020629883e-01) (15, -1.50056868791580200195e-01) (16, -9.29067254066467285156e-01) (17, 3.91129970550537109375e-01) (18, 2.32246726751327514648e-01) (19, 7.28973299264907836914e-02) (20, 2.54171162843704223633e-01) (21, 4.80622440576553344727e-01) (22, -2.16244077682495117188e+00) (23, 1.12628090381622314453e+00) (24, 3.42032939195632934570e-01) (25, 3.41849654912948608398e-01) (26, -1.95434284210205078125e+00) (27, 1.40638661384582519531e+00) (28, 1.22938096523284912109e+00) (29, -3.23347473144531250000e+00) (30, -1.46815299987792968750e+00) (31, -1.57240843772888183594e+00) (32, 1.34748446941375732422e+00) (33, 1.07144474983215332031e+00) (34, 2.76715964078903198242e-01) (35, 7.86265313625335693359e-01) (36, -8.83563697338104248047e-01) (37, 1.09599518775939941406e+00) (38, 2.15089857578277587891e-01) (39, 1.29967665672302246094e+00) (40, 7.10851609706878662109e-01) (41, -3.58770117163658142090e-02) (42, -1.94209957122802734375e+00) (43, 3.82394403219223022461e-01) (44, 2.40009605884552001953e-01) (45, 3.82861942052841186523e-01) (46, -4.94599640369415283203e-01) (47, 1.28471601009368896484e+00) (48, 2.46324539184570312500e-01) (49, 7.90890812873840332031e-01) (50, -2.74677181243896484375e+00) (51, 2.73449063301086425781e-01) (52, -4.38788354396820068359e-01) (2, 3.73106271028518676758e-01) (3, -3.82605224847793579102e-01) (4, 1.30070710182189941406e+00) (5, 7.71616399288177490234e-01) (6, -1.34485512971878051758e-01) (7, 3.98538410663604736328e-01) (8, 7.24527478218078613281e-01) (9, 1.43024790287017822266e+00) (10, 5.10798454284667968750e-01) (11, 9.26441729068756103516e-01) (12, -5.45818209648132324219e-01) (13, 9.59120094776153564453e-02) (14, 1.30758714675903320312e+00) (15, 1.02633857727050781250e+00) (16, -1.95778286457061767578e+00) (17, 1.24784731864929199219e+00) (18, 1.93700298666954040527e-01) (19, 3.56273680925369262695e-01) (20, 3.68190854787826538086e-01) (21, 1.20815515518188476562e+00) (22, 1.53328979015350341797e+00) (23, 2.18017071485519409180e-01) (24, 1.83952555060386657715e-01) (25, 2.72152155637741088867e-01) (26, 5.11854030191898345947e-02) (27, 2.71793246269226074219e-01) (28, 3.81553947925567626953e-01) (29, 6.04505062103271484375e-01) (30, 1.52706789970397949219e+00) (31, 1.52869296073913574219e+00) (32, -3.08513879776000976562e-01) (33, 3.21030884981155395508e-01) (34, 2.21625372767448425293e-01) (35, -4.19046133756637573242e-01) (36, 6.07801973819732666016e-01) (37, 3.14462512731552124023e-01) (38, 4.31961208581924438477e-01) (39, 2.77958154678344726562e-01) (40, -1.19819831848144531250e+00) (41, 2.09676042199134826660e-01) (42, 1.20977032184600830078e+00) (43, 6.04516029357910156250e-01) (44, 4.84237313270568847656e-01) (45, 1.26817786693572998047e+00) (46, 1.44303813576698303223e-01) (47, 4.26538258790969848633e-01) (48, 8.78669261932373046875e-01) (49, -3.87285739183425903320e-01) (50, 8.11575472354888916016e-01) (51, 4.58702474832534790039e-01) (52, 2.67147775739431381226e-02) (2, 2.40071922540664672852e-01) (3, 8.11714291572570800781e-01) (4, 5.70107698440551757812e-01) (5, 1.12480175495147705078e+00) (6, -9.10303518176078796387e-02) (7, -4.66613471508026123047e-01) (8, 1.11521732807159423828e+00) (9, 8.65463018417358398438e-01) (10, 4.49450284242630004883e-01) (11, 3.69839996099472045898e-01) (12, -1.19315288960933685303e-01) (13, 1.89869448542594909668e-01) (14, 2.39914029836654663086e-01) (15, -1.96514487266540527344e-01) (16, 1.18288075923919677734e+00) (17, 2.93938577175140380859e-01) (18, 2.76192575693130493164e-01) (19, 2.66025245189666748047e-01) (20, 3.02723139524459838867e-01) (21, 6.74249827861785888672e-01) (22, 9.08839166164398193359e-01) (23, 8.52348804473876953125e-02) (24, 1.70433804392814636230e-01) (25, 1.37684389948844909668e-01) (26, 8.52834165096282958984e-01) (27, -5.73607146739959716797e-01) (28, 1.72040358185768127441e-01) (29, 7.40422487258911132812e-01) (30, 9.83648300170898437500e-01) (31, 9.82340216636657714844e-01) (32, -1.71925440430641174316e-01) (33, -3.19980718195438385010e-02) (34, 1.40383094549179077148e-01) (35, 9.45118606090545654297e-01) (36, 1.37824296951293945312e-01) (37, 1.90768510103225708008e-01) (38, 4.87872093915939331055e-01) (39, -5.36663591861724853516e-01) (40, -1.92799761891365051270e-01) (41, 2.93907403945922851562e-01) (42, 8.44040811061859130859e-01) (43, 4.38829272985458374023e-01) (44, 4.58386987447738647461e-01) (45, 6.43597960472106933594e-01) (46, 6.27783685922622680664e-03) (47, 4.36589345335960388184e-02) (48, 7.41570889949798583984e-01) (49, 8.16378116607666015625e-01) (50, 1.11516904830932617188e+00) (51, 5.23957312107086181641e-01) (52, 7.04963147640228271484e-01) (2, 1.88661187887191772461e-01) (3, 2.77959406375885009766e-01) (4, 4.38343286514282226562e-01) (5, 2.63780087232589721680e-01) (6, 6.81059733033180236816e-02) (7, 4.80403840541839599609e-01) (8, 4.14352804422378540039e-01) (9, 2.68300265073776245117e-01) (10, 1.97529137134552001953e-01) (11, 1.36233782768249511719e+00) (12, 1.78997725248336791992e-01) (13, 9.14793983101844787598e-02) (14, 1.22781467437744140625e+00) (15, 2.87411868572235107422e-01) (16, 3.00512284040451049805e-01) (17, 9.50410187244415283203e-01) (18, 1.35321855545043945312e-01) (19, 2.45837971568107604980e-01) (20, 9.07151341438293457031e-01) (21, 1.33069074153900146484e+00) (22, 5.85137367248535156250e-01) (23, 5.21206915378570556641e-01) (24, 4.21253629028797149658e-02) (25, 2.07441356033086776733e-02) (26, 4.22174096107482910156e-01) (27, 3.70689243078231811523e-01) (28, 5.29977440834045410156e-01) (29, 2.32807528227567672729e-02) (30, 7.59592801332473754883e-02) (31, 3.85890454053878784180e-01) (32, 9.80409011244773864746e-02) (33, 4.18610274791717529297e-01) (34, 4.69888597726821899414e-02) (35, 2.75050997734069824219e-01) (36, -3.63645762205123901367e-01) (37, 4.56872165203094482422e-01) (38, 7.45895355939865112305e-02) (39, 2.85875856876373291016e-01) (40, 1.19506694376468658447e-01) (41, 1.40828385949134826660e-01) (42, 2.85437673330307006836e-01) (43, 1.42242181301116943359e+00) (44, 5.74545562267303466797e-01) (45, 1.14802241325378417969e+00) (46, -5.89662082493305206299e-02) (47, 5.69188892841339111328e-01) (48, 7.14492917060852050781e-01) (49, 2.69761890172958374023e-01) (50, 3.76267582178115844727e-02) (51, 2.14415788650512695312e-01) (52, -1.31116481497883796692e-02) (2, 3.60216647386550903320e-01) (3, 5.16464114189147949219e-01) (4, 2.58365774154663085938e+00) (5, 9.05446767807006835938e-01) (6, 5.50022602081298828125e-01) (7, 4.18470740318298339844e-01) (8, 4.82996493577957153320e-01) (9, 4.35533732175827026367e-01) (10, 3.18336874246597290039e-01) (11, 6.73481166362762451172e-01) (12, 5.17689406871795654297e-01) (13, 1.39642560482025146484e+00) (14, 2.75464773178100585938e-01) (15, 9.64012324810028076172e-01) (16, 6.18820190429687500000e-01) (17, 5.78339457511901855469e-01) (18, 7.64682948589324951172e-01) (19, 3.14030498266220092773e-01) (20, 7.35094904899597167969e-01) (21, 4.21678900718688964844e-01) (22, 3.44546228647232055664e-01) (23, 2.26568594574928283691e-01) (24, 6.81876063346862792969e-01) (25, 5.93317151069641113281e-01) (26, 5.21121680736541748047e-01) (27, 3.09563994407653808594e-01) (28, 3.16525489091873168945e-01) (29, 6.25951468944549560547e-01) (30, 5.83235442638397216797e-01) (31, 4.48549538850784301758e-01) (32, 6.44373953342437744141e-01) (33, 3.81347000598907470703e-01) (34, 8.41556131839752197266e-01) (35, 9.33090329170227050781e-01) (36, 5.65974593162536621094e-01) (37, 3.03150534629821777344e-01) (38, 2.31950044631958007812e+00) (39, 4.41808700561523437500e-01) (40, 5.13046503067016601562e-01) (41, 3.13072293996810913086e-01) (42, 4.62838053703308105469e-01) (43, -9.33835729956626892090e-02) (44, -7.00353533029556274414e-02) (45, 3.09866607189178466797e-01) (46, 7.00747966766357421875e-01) (47, 3.81541490554809570312e-01) (48, 3.37964862585067749023e-01) (49, 5.36076128482818603516e-01) (50, 4.74632769823074340820e-01) (51, 3.82099837064743041992e-01) (52, 7.05282807350158691406e-01) (2, -1.15049881860613822937e-02) (3, 1.98715165257453918457e-01) (4, 1.80235469341278076172e+00) (5, 3.82064133882522583008e-01) (6, -6.50404095649719238281e-01) (7, 1.57552376389503479004e-01) (8, 5.64921677112579345703e-01) (9, 5.53730547428131103516e-01) (10, 5.81383705139160156250e-01) (11, 1.04496729373931884766e+00) (12, -7.62573599815368652344e-01) (13, -1.63904894143342971802e-02) (14, 1.60347962379455566406e+00) (15, 9.95674908161163330078e-01) (16, 8.86815488338470458984e-01) (17, 1.07909286022186279297e+00) (18, -3.11731752008199691772e-02) (19, 7.14171156287193298340e-02) (20, 8.96798133850097656250e-01) (21, 1.83879828453063964844e+00) (22, 6.70468807220458984375e-01) (23, 2.95963883399963378906e-01) (24, -4.38490957021713256836e-02) (25, -5.59142157435417175293e-02) (26, 6.06271862983703613281e-01) (27, 2.59917408227920532227e-01) (28, 2.29081705212593078613e-01) (29, 2.15765833854675292969e-01) (30, 1.31960880756378173828e+00) (31, 1.32405674457550048828e+00) (32, -8.69466125965118408203e-01) (33, 2.48138040304183959961e-01) (34, 5.46791078522801399231e-03) (35, 5.67014932632446289062e-01) (36, -6.56062662601470947266e-01) (37, 1.34195283055305480957e-01) (38, 3.54890525341033935547e-01) (39, -7.27561302483081817627e-04) (40, -6.48271977901458740234e-01) (41, 1.23318083584308624268e-01) (42, 7.02087879180908203125e-01) (43, 4.58573758602142333984e-01) (44, 3.19822669029235839844e-01) (45, 1.58377063274383544922e+00) (46, -6.51385039091110229492e-02) (47, 2.21412152051925659180e-01) (48, 1.19248712062835693359e+00) (49, 5.95335364341735839844e-01) (50, 1.18775129318237304688e-01) (51, 5.67529499530792236328e-01) (52, -2.99785472452640533447e-02) (2, 4.43295031785964965820e-01) (3, -1.10842049121856689453e+00) (4, 2.44198188185691833496e-01) (5, -1.37291657924652099609e+00) (6, 1.46570372581481933594e+00) (7, 1.04862475395202636719e+00) (8, -4.86674755811691284180e-01) (9, -6.48355245590209960938e-01) (10, 3.47071260213851928711e-01) (11, 1.77859365940093994141e-01) (12, 1.00843083858489990234e+00) (13, 1.05530214309692382812e+00) (14, 2.24318251013755798340e-01) (15, 3.43964807689189910889e-02) (16, -3.17525953054428100586e-01) (17, 1.01238325238227844238e-01) (18, 3.25543612241744995117e-01) (19, 4.45011496543884277344e-01) (20, 1.38567805290222167969e-01) (21, 9.08531621098518371582e-02) (22, -5.87372124195098876953e-01) (23, 9.57525134086608886719e-01) (24, 3.07775199413299560547e-01) (25, 3.93578290939331054688e-01) (26, -7.41948604583740234375e-01) (27, 1.05560040473937988281e+00) (28, 1.03413677215576171875e+00) (29, -9.75841522216796875000e-01) (30, -4.82884705066680908203e-01) (31, -6.01994156837463378906e-01) (32, 1.55015134811401367188e+00) (33, 7.56306946277618408203e-01) (34, 3.44956457614898681641e-01) (35, -5.47417581081390380859e-01) (36, 1.82161033153533935547e-02) (37, 9.42111611366271972656e-01) (38, -1.32880538702011108398e-01) (39, 1.51157951354980468750e+00) (40, 1.34458291530609130859e+00) (41, 4.12688910961151123047e-01) (42, -6.95500016212463378906e-01) (43, 4.64062154293060302734e-01) (44, 3.01105976104736328125e-01) (45, 2.71634936332702636719e-01) (46, 1.44058957695960998535e-01) (47, 1.54704821109771728516e+00) (48, 2.20979526638984680176e-01) (49, -6.50608837604522705078e-01) (50, -9.99446451663970947266e-01) (51, 4.15525645017623901367e-01) (52, -2.03499883413314819336e-01) (2, 4.55861091613769531250e-01) (3, 3.70694935321807861328e-01) (4, 1.88288524746894836426e-01) (5, 4.72333997488021850586e-01) (6, 5.51132738590240478516e-01) (7, 2.08691224455833435059e-01) (8, 4.06962543725967407227e-01) (9, 5.05777478218078613281e-01) (10, 6.68547928333282470703e-01) (11, 5.35548865795135498047e-01) (12, 4.10264045000076293945e-01) (13, 2.75108039379119873047e-01) (14, 2.70145326852798461914e-01) (15, 4.93543595075607299805e-01) (16, 5.57163476943969726562e-01) (17, 2.30141595005989074707e-01) (18, 4.10862028598785400391e-01) (19, 4.84382748603820800781e-01) (20, 5.74148416519165039062e-01) (21, 4.25326257944107055664e-01) (22, 3.25759649276733398438e-01) (23, 2.86626160144805908203e-01) (24, 3.56016963720321655273e-01) (25, 3.70396822690963745117e-01) (26, 5.13562321662902832031e-01) (27, 3.57869625091552734375e-01) (28, 3.48856359720230102539e-01) (29, 5.30022978782653808594e-01) (30, 2.81871020793914794922e-01) (31, 2.90314763784408569336e-01) (32, 4.87666279077529907227e-01) (33, 1.38709604740142822266e-01) (34, 5.26735484600067138672e-01) (35, 5.16548395156860351562e-01) (36, 7.61989712715148925781e-01) (37, 2.46881976723670959473e-01) (38, 6.24597609043121337891e-01) (39, 5.17912089824676513672e-01) (40, 5.72854638099670410156e-01) (41, 4.62975651025772094727e-01) (42, 5.93698561191558837891e-01) (43, 2.31652751564979553223e-01) (44, 7.96445786952972412109e-01) (45, 2.37374246120452880859e-01) (46, 3.87239277362823486328e-01) (47, 3.65445137023925781250e-01) (48, 2.88834452629089355469e-01) (49, 4.55977439880371093750e-01) (50, 4.77448999881744384766e-01) (51, 5.35504639148712158203e-01) (52, 4.51319158077239990234e-01) (2, 4.60619062185287475586e-01) (3, 1.80191326141357421875e+00) (4, 6.37287378311157226562e-01) (5, -2.80902892351150512695e-01) (6, -6.41513228416442871094e-01) (7, -8.49565148353576660156e-01) (8, 1.59019291400909423828e+00) (9, 1.34037637710571289062e+00) (10, 7.77763307094573974609e-01) (11, 1.41771280765533447266e+00) (12, -1.97865575551986694336e-01) (13, 4.51370269060134887695e-01) (14, 7.04748094081878662109e-01) (15, 6.84711575508117675781e-01) (16, 2.27420830726623535156e+00) (17, 9.44950342178344726562e-01) (18, 1.21896147727966308594e-01) (19, 4.96580004692077636719e-01) (20, 1.11117374897003173828e+00) (21, 7.01355218887329101562e-01) (22, 2.19798231124877929688e+00) (23, 1.48426160216331481934e-01) (24, 3.76366317272186279297e-01) (25, 4.39545899629592895508e-01) (26, 1.72231841087341308594e+00) (27, -7.79931366443634033203e-01) (28, -8.27862203121185302734e-01) (29, 1.12948489189147949219e+00) (30, 1.23594677448272705078e+00) (31, 6.27286612987518310547e-01) (32, -8.20931375026702880859e-01) (33, -1.04329240322113037109e+00) (34, 3.24875593185424804688e-01) (35, 1.40695679187774658203e+00) (36, -8.50903570652008056641e-01) (37, -6.98642492294311523438e-01) (38, -6.24295249581336975098e-02) (39, -2.39632457494735717773e-01) (40, -4.10184741020202636719e-01) (41, 4.48522627353668212891e-01) (42, 1.36407411098480224609e+00) (43, 1.58235788345336914062e-01) (44, 2.50890940427780151367e-01) (45, 7.86657571792602539062e-01) (46, -1.65400519967079162598e-01) (47, -7.62785315513610839844e-01) (48, 7.59342491626739501953e-01) (49, 1.68694591522216796875e+00) (50, 1.06659746170043945312e+00) (51, 5.94478964805603027344e-01) (52, 1.72971677780151367188e+00) (2, 6.11412465572357177734e-01) (3, 2.20163837075233459473e-01) (4, 1.13860547542572021484e+00) (5, 1.08451843261718750000e+00) (6, 4.40556019544601440430e-01) (7, 6.21691465377807617188e-01) (8, 2.17290595173835754395e-01) (9, 4.02366608381271362305e-01) (10, 3.64599041640758514404e-02) (11, 6.91887378692626953125e-01) (12, 3.33604097366333007812e-01) (13, 5.33543467521667480469e-01) (14, 7.53793656826019287109e-01) (15, -4.03553038835525512695e-01) (16, 7.12587928771972656250e+00) (17, 7.09726512432098388672e-01) (18, 4.69617366790771484375e-01) (19, 6.74207329750061035156e-01) (20, 5.73329269886016845703e-01) (21, 7.41415441036224365234e-01) (22, 2.97908663749694824219e-01) (23, 3.90968978404998779297e-01) (24, 6.07684254646301269531e-01) (25, 5.58093070983886718750e-01) (26, 2.60905891656875610352e-01) (27, 6.40576839447021484375e-01) (28, 6.74680948257446289062e-01) (29, 3.34007859230041503906e-01) (30, 4.21010076999664306641e-01) (31, 5.37500560283660888672e-01) (32, 1.07946538925170898438e+01) (33, 9.22406315803527832031e-01) (34, 6.20039701461791992188e-01) (35, 2.05160900950431823730e-01) (36, 5.31086742877960205078e-01) (37, 5.59838294982910156250e-01) (38, 7.58589208126068115234e-01) (39, 5.04369854927062988281e-01) (40, 2.72928684949874877930e-01) (41, 5.31727552413940429688e-01) (42, 5.45853853225708007812e-01) (43, 6.06801271438598632812e-01) (44, 6.54005169868469238281e-01) (45, 7.40428924560546875000e-01) (46, 2.05492095947265625000e+01) (47, 6.75760388374328613281e-01) (48, 5.79349935054779052734e-01) (49, 2.99863725900650024414e-01) (50, 1.98924943804740905762e-01) (51, 1.51234731078147888184e-01) (52, 1.55572995543479919434e-01) (2, 6.88003838062286376953e-01) (3, 5.56131184101104736328e-01) (4, 9.10889983177185058594e-01) (5, -1.58811163902282714844e+00) (6, 1.69386237859725952148e-01) (7, 6.12746477127075195312e-01) (8, 3.66953790187835693359e-01) (9, 1.42385196685791015625e+00) (10, 3.63555580377578735352e-01) (11, 6.94875344634056091309e-02) (12, -1.76598072052001953125e+00) (13, -2.71149933338165283203e-01) (14, 7.95663058757781982422e-01) (15, -1.56880959868431091309e-01) (16, -3.50104719400405883789e-02) (17, 6.30744338035583496094e-01) (18, 4.55979824066162109375e-01) (19, 4.76353466510772705078e-01) (20, -9.37320739030838012695e-02) (21, 8.33952009677886962891e-01) (22, 9.14271116256713867188e-01) (23, 5.16310453414916992188e-01) (24, 4.51902806758880615234e-01) (25, 4.20828402042388916016e-01) (26, 2.11177617311477661133e-01) (27, 4.23238903284072875977e-01) (28, 7.48789727687835693359e-01) (29, 3.38152050971984863281e-01) (30, -1.61244168877601623535e-01) (31, 4.12288069725036621094e-01) (32, 1.92531481385231018066e-01) (33, 6.09543502330780029297e-01) (34, 3.48836839199066162109e-01) (35, 2.11995184421539306641e-01) (36, -2.91370093822479248047e-01) (37, 6.81837677955627441406e-01) (38, 2.39243611693382263184e-01) (39, 3.38120847940444946289e-01) (40, 4.85886856913566589355e-02) (41, 4.55077260732650756836e-01) (42, 6.45880341529846191406e-01) (43, 1.47997355461120605469e+00) (44, 1.09175717830657958984e+00) (45, 8.11969816684722900391e-01) (46, 2.95724511146545410156e-01) (47, 7.56218731403350830078e-01) (48, 4.64434683322906494141e-01) (49, 2.60874837636947631836e-01) (50, 1.76295518875122070312e-01) (51, 4.61402267217636108398e-01) (52, 2.25217536091804504395e-01) (2, 1.70937791466712951660e-01) (3, 3.84643405675888061523e-01) (4, 3.82599085569381713867e-01) (5, 1.53029978275299072266e-01) (6, 1.78761094808578491211e-01) (7, 5.36912918090820312500e-01) (8, 2.86654442548751831055e-01) (9, 2.06056550145149230957e-01) (10, 1.67549759149551391602e-01) (11, 1.07563543319702148438e+00) (12, 7.99735188484191894531e-02) (13, 1.18504963815212249756e-01) (14, 1.14042842388153076172e+00) (15, 4.48077619075775146484e-01) (16, 2.64918744564056396484e-01) (17, 1.17130446434020996094e+00) (18, 1.31040289998054504395e-01) (19, 1.97673946619033813477e-01) (20, 6.18574142456054687500e-01) (21, 1.30630147457122802734e+00) (22, 1.76157072186470031738e-01) (23, 6.67539060115814208984e-01) (24, 1.11159145832061767578e-01) (25, 4.02371622622013092041e-02) (26, 3.24275970458984375000e-01) (27, 3.62815737724304199219e-01) (28, 6.45942211151123046875e-01) (29, 1.65498092770576477051e-01) (30, 1.12835898995399475098e-01) (31, 3.36248546838760375977e-01) (32, 1.42092436552047729492e-01) (33, 5.03033220767974853516e-01) (34, 1.09895542263984680176e-01) (35, 1.74139626324176788330e-02) (36, -2.76547551155090332031e-01) (37, 6.09247148036956787109e-01) (38, 3.04521284997463226318e-02) (39, 4.37503099441528320312e-01) (40, -3.87095659971237182617e-02) (41, 7.54099041223526000977e-02) (42, 2.26886287331581115723e-01) (43, 8.98745000362396240234e-01) (44, 7.96662926673889160156e-01) (45, 1.19042527675628662109e+00) (46, -3.08272782713174819946e-02) (47, 6.63379848003387451172e-01) (48, 6.82360410690307617188e-01) (49, 2.97972857952117919922e-01) (50, 3.53735908865928649902e-02) (51, 1.86537712812423706055e-01) (52, 6.98140785098075866699e-02) (2, 2.90477424860000610352e-01) (3, 6.44452154636383056641e-01) (4, 7.25283145904541015625e-01) (5, 4.73714679479598999023e-01) (6, 4.89214539527893066406e-01) (7, 2.31362774968147277832e-01) (8, 4.83231335878372192383e-01) (9, 6.35800600051879882812e-01) (10, 3.85929554700851440430e-01) (11, 6.09329760074615478516e-01) (12, 4.72089171409606933594e-01) (13, 5.58894693851470947266e-01) (14, 5.79545319080352783203e-01) (15, 4.82567101716995239258e-01) (16, 8.34482237696647644043e-02) (17, 5.11124372482299804688e-01) (18, 4.52342510223388671875e-01) (19, 2.59529888629913330078e-01) (20, 5.37579953670501708984e-01) (21, 4.17244911193847656250e-01) (22, 4.60916370153427124023e-01) (23, 1.60885140299797058105e-01) (24, 3.88626694679260253906e-01) (25, 5.24626374244689941406e-01) (26, 2.63941049575805664062e-01) (27, 1.93362236022949218750e-01) (28, 2.69475817680358886719e-01) (29, 5.41311085224151611328e-01) (30, 4.96215432882308959961e-01) (31, 5.30246615409851074219e-01) (32, 5.28118550777435302734e-01) (33, -1.96820259094238281250e-01) (34, 3.74482572078704833984e-01) (35, 5.18600463867187500000e-01) (36, 2.13559731841087341309e-01) (37, 1.94296464323997497559e-01) (38, 3.08072209358215332031e-01) (39, 4.85835790634155273438e-01) (40, 2.83962011337280273438e-01) (41, 3.30415248870849609375e-01) (42, 5.23888647556304931641e-01) (43, 1.99851229786872863770e-01) (44, -8.21051467210054397583e-03) (45, 6.01371109485626220703e-01) (46, 4.28975313901901245117e-01) (47, 2.27580115199089050293e-01) (48, 5.41717827320098876953e-01) (49, 6.37699842453002929688e-01) (50, 3.57170492410659790039e-01) (51, 4.88025724887847900391e-01) (52, 4.79651302099227905273e-01) (2, 4.35804575681686401367e-02) (3, 1.94057703018188476562e-01) (4, -4.64873075485229492188e-01) (5, 2.02489018440246582031e-01) (6, 3.91788423061370849609e-01) (7, 5.96563756465911865234e-01) (8, 1.46596223115921020508e-01) (9, 2.86687493324279785156e-01) (10, 1.49577975273132324219e-01) (11, 2.74397522211074829102e-01) (12, 2.59464144706726074219e-01) (13, 3.50998133420944213867e-01) (14, 1.37614572048187255859e+00) (15, -4.61102463304996490479e-02) (16, 2.39530459046363830566e-01) (17, 1.11030924320220947266e+00) (18, 4.77965235710144042969e-01) (19, 5.21827697753906250000e-01) (20, 2.15795442461967468262e-01) (21, 1.29399883747100830078e+00) (22, 3.43249291181564331055e-01) (23, 4.52582210302352905273e-01) (24, 4.21323657035827636719e-01) (25, 4.23204153776168823242e-01) (26, 1.94059059023857116699e-01) (27, 5.83486914634704589844e-01) (28, 5.26876509189605712891e-01) (29, 3.86584587395191192627e-02) (30, 3.44753533601760864258e-01) (31, 2.73230791091918945312e-01) (32, 1.31088852882385253906e-01) (33, 3.87827336788177490234e-01) (34, 5.53928613662719726562e-01) (35, 8.22964534163475036621e-02) (36, 6.64671733975410461426e-02) (37, 5.40582954883575439453e-01) (38, 1.95576593279838562012e-01) (39, 1.26948714256286621094e-01) (40, 3.08435231447219848633e-01) (41, 3.48851770162582397461e-01) (42, 3.23431700468063354492e-01) (43, 1.16100096702575683594e+00) (44, 1.22921836376190185547e+00) (45, 1.27993845939636230469e+00) (46, 4.41681921482086181641e-01) (47, 6.24299049377441406250e-01) (48, 1.32896792888641357422e+00) (49, 1.65499567985534667969e-01) (50, 1.96067482233047485352e-01) (51, 3.51475961506366729736e-02) (52, 4.77523580193519592285e-02) (2, 1.44085347652435302734e-01) (3, 8.19443285465240478516e-01) (4, 1.18878149986267089844e+00) (5, 5.92667162418365478516e-01) (6, -1.79845869541168212891e+00) (7, -2.43577614426612854004e-01) (8, 1.29038059711456298828e+00) (9, 1.05238866806030273438e+00) (10, 4.26227241754531860352e-01) (11, 6.67745172977447509766e-01) (12, -1.59909999370574951172e+00) (13, 1.76244363188743591309e-01) (14, 1.16680240631103515625e+00) (15, 3.76465350389480590820e-01) (16, 1.83909094333648681641e+00) (17, 1.00856375694274902344e+00) (18, 1.63847878575325012207e-01) (19, 1.24453261494636535645e-01) (20, 6.52756035327911376953e-01) (21, 1.08868014812469482422e+00) (22, 8.35826396942138671875e-01) (23, -4.20768558979034423828e-02) (24, 2.16538831591606140137e-01) (25, 5.99962174892425537109e-02) (26, 8.86285722255706787109e-01) (27, -2.22494199872016906738e-01) (28, -3.18561464548110961914e-01) (29, 4.73590373992919921875e-01) (30, 8.98581206798553466797e-01) (31, 9.16170597076416015625e-01) (32, -2.01920390129089355469e+00) (33, -5.90101361274719238281e-01) (34, 1.77086427807807922363e-01) (35, 7.08478212356567382812e-01) (36, -1.00594028830528259277e-01) (37, -3.15290123224258422852e-01) (38, 1.03627763688564300537e-01) (39, -8.95890891551971435547e-01) (40, -1.69146537780761718750e+00) (41, 7.71645084023475646973e-02) (42, 1.03968882560729980469e+00) (43, 5.78441262245178222656e-01) (44, 5.63796937465667724609e-01) (45, 1.14448595046997070312e+00) (46, -5.81169426441192626953e-02) (47, -2.95348346233367919922e-01) (48, 1.20056378841400146484e+00) (49, 7.89576411247253417969e-01) (50, 5.97193181514739990234e-01) (51, 4.22387212514877319336e-01) (52, 7.65501618385314941406e-01) (2, 1.82009100914001464844e-01) (3, 1.00970935821533203125e+00) (4, 1.14104771614074707031e+00) (5, 6.87933564186096191406e-02) (6, -2.28395295143127441406e+00) (7, -4.07808989286422729492e-01) (8, 7.67403602600097656250e-01) (9, 8.69631469249725341797e-01) (10, 3.99345695972442626953e-01) (11, 7.28099584579467773438e-01) (12, -2.28603625297546386719e+00) (13, 2.15365350246429443359e-01) (14, 1.14934396743774414062e+00) (15, 5.13036608695983886719e-01) (16, 2.19892597198486328125e+00) (17, 1.17857706546783447266e+00) (18, -2.94652104377746582031e-01) (19, 2.11171403527259826660e-01) (20, 6.13727152347564697266e-01) (21, 1.07569742202758789062e+00) (22, -4.87684488296508789062e-01) (23, -2.55907297134399414062e-01) (24, 7.20321238040924072266e-02) (25, 8.93554240465164184570e-02) (26, 8.40465605258941650391e-01) (27, -2.63675630092620849609e-01) (28, -2.53885269165039062500e-01) (29, 3.38396519422531127930e-01) (30, 7.35053360462188720703e-01) (31, 7.85109221935272216797e-01) (32, -2.84923887252807617188e+00) (33, -3.85340780019760131836e-01) (34, 3.42808924615383148193e-02) (35, 1.00178146362304687500e+00) (36, -1.57638430595397949219e+00) (37, -3.36646586656570434570e-01) (38, 3.21112990379333496094e-01) (39, -2.65676438808441162109e-01) (40, -2.18397259712219238281e+00) (41, 1.00480847060680389404e-01) (42, 8.99933755397796630859e-01) (43, 6.81586503982543945312e-01) (44, 5.57954430580139160156e-01) (45, 1.26869821548461914062e+00) (46, -6.78443163633346557617e-02) (47, -3.08377981185913085938e-01) (48, 7.67047941684722900391e-01) (49, 1.04770290851593017578e+00) (50, 3.61824333667755126953e-01) (51, 4.96502757072448730469e-01) (52, 4.26211833953857421875e-01) (2, -2.68951361067593097687e-03) (3, 5.80357849597930908203e-01) (4, 1.20464432239532470703e+00) (5, 2.72109746932983398438e-01) (6, -1.68649137020111083984e+00) (7, -3.79227846860885620117e-01) (8, 7.74831593036651611328e-01) (9, 9.10645306110382080078e-01) (10, 4.51469451189041137695e-01) (11, 7.79746890068054199219e-01) (12, -1.42835438251495361328e+00) (13, 3.42498391866683959961e-01) (14, 1.16911828517913818359e+00) (15, 5.02967298030853271484e-01) (16, 2.20514249801635742188e+00) (17, 1.15603685379028320312e+00) (18, -3.86484891176223754883e-01) (19, -3.00122104818001389503e-04) (20, 5.21033287048339843750e-01) (21, 1.29023492336273193359e+00) (22, 1.03984344005584716797e+00) (23, 3.57320681214332580566e-02) (24, 1.30531415343284606934e-01) (25, 8.55762362480163574219e-02) (26, 9.60970103740692138672e-01) (27, -3.96980345249176025391e-01) (28, -2.08272218704223632812e-01) (29, 4.42359954118728637695e-01) (30, 1.04237747192382812500e+00) (31, 9.84650075435638427734e-01) (32, -2.81901168823242187500e+00) (33, -2.00098633766174316406e-01) (34, -1.64764095097780227661e-02) (35, 5.55541455745697021484e-01) (36, -2.44733802974224090576e-02) (37, -1.54112040996551513672e-01) (38, 2.21323952078819274902e-01) (39, -3.67885977029800415039e-01) (40, -1.32850277423858642578e+00) (41, 1.77647341042757034302e-02) (42, 7.89275467395782470703e-01) (43, 5.50893843173980712891e-01) (44, 2.60580062866210937500e-01) (45, 1.21717369556427001953e+00) (46, -6.14961683750152587891e-02) (47, -1.65791466832160949707e-01) (48, 8.92220795154571533203e-01) (49, 7.22411453723907470703e-01) (50, 4.44781124591827392578e-01) (51, 5.03757357597351074219e-01) (52, 3.72658014297485351562e-01) (2, 5.90432882308959960938e-01) (3, 4.99366998672485351562e-01) (4, 9.26098413765430450439e-03) (5, 1.09219774603843688965e-01) (6, 1.27878177165985107422e+00) (7, 4.79650050401687622070e-01) (8, 7.05230236053466796875e-02) (9, 2.13756635785102844238e-02) (10, 6.50461912155151367188e-02) (11, -3.40279787778854370117e-02) (12, 8.73887613415718078613e-02) (13, 4.65592503547668457031e-01) (14, 1.80797114968299865723e-01) (15, 5.45963197946548461914e-02) (16, 3.24494749307632446289e-01) (17, 2.17824250459671020508e-01) (18, 5.82435846328735351562e-01) (19, 6.88097059726715087891e-01) (20, -1.79781317710876464844e-02) (21, 8.82702395319938659668e-02) (22, -1.55449599027633666992e-01) (23, 3.28748315572738647461e-01) (24, 6.50182664394378662109e-01) (25, 6.37442886829376220703e-01) (26, -2.07557141780853271484e-01) (27, 3.88859540224075317383e-01) (28, 4.45916324853897094727e-01) (29, -3.14544349908828735352e-01) (30, -2.06155523657798767090e-01) (31, -9.18491259217262268066e-02) (32, 1.23564910888671875000e+00) (33, 1.34936705231666564941e-01) (34, 5.58868229389190673828e-01) (35, 4.30207103490829467773e-01) (36, 2.88912296295166015625e-01) (37, 5.05062103271484375000e-01) (38, 4.50495481491088867188e-02) (39, 5.19657373428344726562e-01) (40, 9.32404160499572753906e-01) (41, 5.60760676860809326172e-01) (42, -3.44131663441658020020e-02) (43, 6.58926665782928466797e-01) (44, 8.03953051567077636719e-01) (45, 3.13681483268737792969e-01) (46, 5.05600929260253906250e-01) (47, 5.81069111824035644531e-01) (48, 1.94015771150588989258e-01) (49, 5.15800356864929199219e-01) (50, -4.60158884525299072266e-01) (51, 5.40946274995803833008e-02) (52, 3.10230553150177001953e-01) (2, 2.07577884197235107422e-01) (3, 3.25557738542556762695e-01) (4, 4.68089610338211059570e-01) (5, 1.84103190898895263672e-01) (6, 2.15328425168991088867e-01) (7, 4.33863073587417602539e-01) (8, 4.64011102914810180664e-01) (9, 3.35810571908950805664e-01) (10, 9.32890027761459350586e-02) (11, 6.39743387699127197266e-01) (12, 1.06400035321712493896e-01) (13, 9.91454198956489562988e-02) (14, 1.22021007537841796875e+00) (15, 1.54932960867881774902e-01) (16, -4.53241062164306640625e+00) (17, 1.12472569942474365234e+00) (18, 2.23721086978912353516e-01) (19, 2.42965787649154663086e-01) (20, 7.88218438625335693359e-01) (21, 1.25393700599670410156e+00) (22, 2.21567302942276000977e-01) (23, 5.63514113426208496094e-01) (24, 3.81236784160137176514e-02) (25, 1.16100355982780456543e-01) (26, 2.30437293648719787598e-01) (27, 4.51737046241760253906e-01) (28, 4.82122689485549926758e-01) (29, 4.31755930185317993164e-02) (30, 2.46403172612190246582e-01) (31, 7.59715437889099121094e-01) (32, 1.11052475869655609131e-01) (33, 4.09234344959259033203e-01) (34, 1.05484426021575927734e-02) (35, -3.42138916254043579102e-01) (36, -1.44978189468383789062e+00) (37, 4.50930505990982055664e-01) (38, 1.59629300236701965332e-01) (39, 3.25006842613220214844e-01) (40, 2.83289015293121337891e-01) (41, 1.15782991051673889160e-01) (42, 3.60107809305191040039e-01) (43, 5.49265027046203613281e-01) (44, 2.23373651504516601562e-01) (45, 1.16030561923980712891e+00) (46, 9.99611988663673400879e-02) (47, 5.81561267375946044922e-01) (48, 7.94548869132995605469e-01) (49, 1.99066191911697387695e-01) (50, 4.51386384665966033936e-02) (51, 2.45672553777694702148e-01) (52, -6.31265416741371154785e-02) (2, 4.88069087266921997070e-01) (3, 6.08636677265167236328e-01) (4, -2.59662419557571411133e-01) (5, 5.13440549373626708984e-01) (6, 4.68430906534194946289e-01) (7, 2.90930390357971191406e-01) (8, 5.49741446971893310547e-01) (9, 4.57488954067230224609e-01) (10, 5.46382129192352294922e-01) (11, 3.77628624439239501953e-01) (12, 5.08791387081146240234e-01) (13, 3.29110562801361083984e-01) (14, 3.81964594125747680664e-01) (15, 1.48655280470848083496e-01) (16, 4.55884754657745361328e-01) (17, 2.68877714872360229492e-01) (18, 3.51716518402099609375e-01) (19, 4.35470491647720336914e-01) (20, 3.86127799749374389648e-01) (21, 3.70527416467666625977e-01) (22, 4.68400239944458007812e-01) (23, 1.90622255206108093262e-01) (24, 4.06198054552078247070e-01) (25, 4.48908865451812744141e-01) (26, 4.58680331707000732422e-01) (27, 3.58095020055770874023e-01) (28, 2.90517926216125488281e-01) (29, 3.70456725358963012695e-01) (30, 3.71810883283615112305e-01) (31, 4.25656050443649291992e-01) (32, 5.36765217781066894531e-01) (33, 1.28374755382537841797e-01) (34, 3.76416742801666259766e-01) (35, 5.84578871726989746094e-01) (36, 7.62635886669158935547e-01) (37, 2.39529356360435485840e-01) (38, 4.35454994440078735352e-01) (39, 1.96147173643112182617e-01) (40, 4.98967975378036499023e-01) (41, 4.41868901252746582031e-01) (42, 4.66694951057434082031e-01) (43, 9.50696706771850585938e-01) (44, 6.49193882942199707031e-01) (45, 4.29897367954254150391e-01) (46, 2.71289706230163574219e-01) (47, 3.47808271646499633789e-01) (48, 3.47881555557250976562e-01) (49, 5.30667424201965332031e-01) (50, 3.60741794109344482422e-01) (51, 5.12028276920318603516e-01) (52, 7.04996764659881591797e-01) (2, 4.54724580049514770508e-01) (3, 5.24255514144897460938e-01) (4, -2.46927946805953979492e-01) (5, 5.68575918674468994141e-01) (6, 5.02068042755126953125e-01) (7, 1.92444205284118652344e-01) (8, 4.59223210811614990234e-01) (9, 4.81906056404113769531e-01) (10, 5.64268171787261962891e-01) (11, 5.08502006530761718750e-01) (12, 5.74740827083587646484e-01) (13, 2.85393893718719482422e-01) (14, 3.22958916425704956055e-01) (15, 1.28605514764785766602e-01) (16, 4.66275513172149658203e-01) (17, 2.75530040264129638672e-01) (18, 4.46822315454483032227e-01) (19, 4.09363687038421630859e-01) (20, 3.61890166997909545898e-01) (21, 3.75067561864852905273e-01) (22, 4.02777791023254394531e-01) (23, 1.64515376091003417969e-01) (24, 4.32411611080169677734e-01) (25, 3.78080993890762329102e-01) (26, 4.85711753368377685547e-01) (27, 2.46636584401130676270e-01) (28, 2.47719436883926391602e-01) (29, 5.00947237014770507812e-01) (30, 4.73779022693634033203e-01) (31, 4.48550730943679809570e-01) (32, 5.78397214412689208984e-01) (33, 2.02654615044593811035e-01) (34, 3.92969429492950439453e-01) (35, 6.51096045970916748047e-01) (36, 6.62358403205871582031e-01) (37, 2.67641484737396240234e-01) (38, 4.34043884277343750000e-01) (39, 2.06559047102928161621e-01) (40, 5.82405388355255126953e-01) (41, 4.17145460844039916992e-01) (42, 6.05727910995483398438e-01) (43, 8.84775757789611816406e-01) (44, 6.24216854572296142578e-01) (45, 3.19065392017364501953e-01) (46, 2.23637938499450683594e-01) (47, 2.90502935647964477539e-01) (48, 5.64926445484161376953e-01) (49, 4.89324629306793212891e-01) (50, 3.28037053346633911133e-01) (51, 5.74865698814392089844e-01) (52, 7.12003052234649658203e-01) (2, 1.06680765748023986816e-01) (3, 3.46960216760635375977e-01) (4, 3.09750407934188842773e-01) (5, 2.13467672467231750488e-01) (6, 2.35840722918510437012e-01) (7, 5.28311192989349365234e-01) (8, 4.74165230989456176758e-01) (9, 2.83481538295745849609e-01) (10, 1.59884020686149597168e-01) (11, 7.41244554519653320312e-01) (12, 2.66449730843305587769e-02) (13, 1.10718220472335815430e-01) (14, 1.11848306655883789062e+00) (15, 1.04957353323698043823e-02) (16, 1.32220193743705749512e-01) (17, 1.15896391868591308594e+00) (18, 3.46271432936191558838e-02) (19, 2.13268667459487915039e-01) (20, 7.14472770690917968750e-01) (21, 1.46873474121093750000e+00) (22, 2.22416803240776062012e-01) (23, 4.76233750581741333008e-01) (24, 2.17767104506492614746e-01) (25, 1.82723775506019592285e-01) (26, 2.39404499530792236328e-01) (27, 4.91704493761062622070e-01) (28, 4.82021600008010864258e-01) (29, 1.38833597302436828613e-01) (30, 3.64914625883102416992e-01) (31, 3.53961080312728881836e-01) (32, 1.47035345435142517090e-01) (33, 3.38747739791870117188e-01) (34, 9.48520824313163757324e-02) (35, 8.32430273294448852539e-02) (36, -2.05219477415084838867e-01) (37, 4.66751605272293090820e-01) (38, 1.59635081887245178223e-01) (39, 3.41143876314163208008e-01) (40, 1.93168506026268005371e-01) (41, 1.89757481217384338379e-01) (42, 2.18063682317733764648e-01) (43, 8.82942080497741699219e-01) (44, 4.96757060289382934570e-01) (45, 1.14003980159759521484e+00) (46, 5.98584078252315521240e-02) (47, 6.04063272476196289062e-01) (48, 7.99349486827850341797e-01) (49, 2.32313916087150573730e-01) (50, 6.05508983135223388672e-02) (51, 1.44075363874435424805e-01) (52, -1.84177029877901077271e-02) (2, -3.15971076488494873047e-02) (3, 6.30330502986907958984e-01) (4, 1.80158543586730957031e+00) (5, 2.84848421812057495117e-01) (6, -7.23452627658843994141e-01) (7, 5.75402192771434783936e-02) (8, 4.56013500690460205078e-01) (9, 5.01269698143005371094e-01) (10, 4.02558952569961547852e-01) (11, 6.74439787864685058594e-01) (12, -5.57176470756530761719e-01) (13, -1.53243150562047958374e-02) (14, 1.68019473552703857422e+00) (15, 8.53463470935821533203e-01) (16, 1.03327620029449462891e+00) (17, 1.67516374588012695312e+00) (18, 6.93999370560050010681e-03) (19, -6.70640096068382263184e-02) (20, 2.86046653985977172852e-01) (21, 1.81608986854553222656e+00) (22, 5.37958025932312011719e-01) (23, 2.24158987402915954590e-01) (24, 1.78332775831222534180e-02) (25, -1.66342165321111679077e-02) (26, 5.74272871017456054688e-01) (27, -1.27326557412743568420e-03) (28, 1.43317401409149169922e-01) (29, 1.04137666523456573486e-01) (30, 1.02877068519592285156e+00) (31, 1.06288290023803710938e+00) (32, -9.40020680427551269531e-01) (33, 1.88523441553115844727e-01) (34, 3.12627032399177551270e-02) (35, 6.07416272163391113281e-01) (36, 1.07502669095993041992e-01) (37, 2.43766322731971740723e-01) (38, 5.24279832839965820312e-01) (39, -4.01884317398071289062e-02) (40, -5.54828286170959472656e-01) (41, 1.12480193376541137695e-01) (42, 5.43341934680938720703e-01) (43, 3.01082074642181396484e-01) (44, 6.24681293964385986328e-01) (45, 1.59148895740509033203e+00) (46, -1.47850483655929565430e-01) (47, 2.44690388441085815430e-01) (48, 1.09043335914611816406e+00) (49, 6.32685601711273193359e-01) (50, 2.21489876508712768555e-01) (51, 4.22371506690979003906e-01) (52, -2.71232724189758300781e-01) (2, 7.71556019783020019531e-01) (3, 1.37140423059463500977e-01) (4, 8.35452079772949218750e-01) (5, 5.46885907649993896484e-01) (6, 3.55850607156753540039e-01) (7, 5.30499577522277832031e-01) (8, 4.52302992343902587891e-01) (9, 3.33775639533996582031e-01) (10, 3.81747156381607055664e-01) (11, 4.69668805599212646484e-01) (12, -5.65004302188754081726e-03) (13, 5.69664299488067626953e-01) (14, 5.83573341369628906250e-01) (15, 4.15040731430053710938e-01) (16, 2.31382414698600769043e-01) (17, 6.46517515182495117188e-01) (18, 6.94581449031829833984e-01) (19, 6.83659434318542480469e-01) (20, 5.19948720932006835938e-01) (21, 8.10127556324005126953e-01) (22, 3.31458896398544311523e-01) (23, 5.27318239212036132812e-01) (24, 7.10189938545227050781e-01) (25, 7.69385039806365966797e-01) (26, 2.00051620602607727051e-01) (27, 5.74109077453613281250e-01) (28, 5.62406003475189208984e-01) (29, 1.87976598739624023438e-01) (30, 8.86289402842521667480e-02) (31, 1.41642078757286071777e-01) (32, 4.33439821004867553711e-01) (33, 4.36768054962158203125e-01) (34, 6.03818178176879882812e-01) (35, 4.75893877446651458740e-02) (36, 2.28633075952529907227e-01) (37, 5.49973845481872558594e-01) (38, 3.86493593454360961914e-01) (39, 6.92202031612396240234e-01) (40, 4.42260444164276123047e-01) (41, 6.98797345161437988281e-01) (42, 3.94953191280364990234e-01) (43, 3.09730410575866699219e-01) (44, 1.03050494194030761719e+00) (45, 5.90554773807525634766e-01) (46, 6.45047247409820556641e-01) (47, 6.32388591766357421875e-01) (48, 3.07869791984558105469e-01) (49, 5.30201718211174011230e-02) (50, 1.05718947947025299072e-01) (51, 4.07220661640167236328e-01) (52, 3.72603774070739746094e-01) (2, 3.00919860601425170898e-01) (3, 4.32253241539001464844e-01) (4, 1.31928503513336181641e+00) (5, 1.14729918539524078369e-01) (6, -4.90123659372329711914e-01) (7, 2.78309315443038940430e-01) (8, 5.90448379516601562500e-01) (9, 1.04220247268676757812e+00) (10, 5.36302685737609863281e-01) (11, 1.48014903068542480469e+00) (12, -2.01278045773506164551e-01) (13, -1.02260529994964599609e-01) (14, 1.33769404888153076172e+00) (15, 1.00980544090270996094e+00) (16, 8.41429948806762695312e-01) (17, 1.36090779304504394531e+00) (18, 3.99912670254707336426e-02) (19, 2.03159064054489135742e-01) (20, 1.08746349811553955078e+00) (21, 1.24855899810791015625e+00) (22, 1.17068994045257568359e+00) (23, 2.72677183151245117188e-01) (24, 9.71045717597007751465e-02) (25, 1.14961862564086914062e-02) (26, 1.00408852100372314453e+00) (27, 9.43937301635742187500e-02) (28, 1.32656738162040710449e-01) (29, 4.14614886045455932617e-01) (30, 1.04029107093811035156e+00) (31, 4.56055849790573120117e-01) (32, -6.41088783740997314453e-01) (33, -1.81901916861534118652e-01) (34, 1.71095028519630432129e-01) (35, 5.66287457942962646484e-01) (36, -1.25288450717926025391e+00) (37, 9.64488610625267028809e-02) (38, 5.41034579277038574219e-01) (39, 2.72984206676483154297e-01) (40, 4.69709560275077819824e-03) (41, 3.00547838211059570312e-01) (42, 1.01990246772766113281e+00) (43, 3.76274824142456054688e-01) (44, 1.65465727448463439941e-01) (45, 1.41266512870788574219e+00) (46, 1.45591959357261657715e-01) (47, 1.77496656775474548340e-01) (48, 1.00361514091491699219e+00) (49, 2.99075514078140258789e-01) (50, 7.60199487209320068359e-01) (51, 7.16895580291748046875e-01) (52, -6.86994254589080810547e-01) (2, 3.62822264432907104492e-01) (3, -2.80016779899597167969e-01) (4, 3.23781818151473999023e-01) (5, -1.13986742496490478516e+00) (6, 9.63359713554382324219e-01) (7, 1.45010948181152343750e+00) (8, -1.13936114311218261719e+00) (9, -9.34783458709716796875e-01) (10, 4.80849772691726684570e-01) (11, 2.82457113265991210938e-01) (12, 1.37574088573455810547e+00) (13, 1.63786560297012329102e-01) (14, 2.84235864877700805664e-01) (15, 9.18241664767265319824e-02) (16, -7.28769063949584960938e-01) (17, 3.17995458841323852539e-01) (18, 3.01213830709457397461e-01) (19, 3.87380093336105346680e-01) (20, 2.39042654633522033691e-01) (21, 3.40343087911605834961e-01) (22, -4.74666208028793334961e-01) (23, 1.25034892559051513672e+00) (24, 2.91023045778274536133e-01) (25, 2.71756261587142944336e-01) (26, -5.59691190719604492188e-01) (27, 1.44829225540161132812e+00) (28, 1.19531297683715820312e+00) (29, -1.00232994556427001953e+00) (30, -1.36235284805297851562e+00) (31, -1.35275721549987792969e+00) (32, 1.42699432373046875000e+00) (33, 1.21062743663787841797e+00) (34, 2.75659471750259399414e-01) (35, 3.72669219970703125000e-01) (36, 7.05313503742218017578e-01) (37, 1.37169814109802246094e+00) (38, 4.69021856784820556641e-01) (39, 1.44395875930786132812e+00) (40, 1.43822717666625976562e+00) (41, 3.50479513406753540039e-01) (42, -7.40526616573333740234e-01) (43, 3.26198577880859375000e-01) (44, 4.27995562553405761719e-01) (45, 4.42911416292190551758e-01) (46, 1.88607245683670043945e-01) (47, 9.78432655334472656250e-01) (48, 1.54679208993911743164e-01) (49, -3.31267565488815307617e-01) (50, -3.13395380973815917969e+00) (51, 5.19820272922515869141e-01) (52, -2.88345903158187866211e-01) (2, 7.15762734413146972656e-01) (3, 4.00455683469772338867e-01) (4, 6.90294504165649414062e-02) (5, 2.00770303606986999512e-01) (6, 1.21296155452728271484e+00) (7, 1.19952589273452758789e-01) (8, 1.53071388602256774902e-01) (9, -1.60785783082246780396e-02) (10, 1.42768681049346923828e-01) (11, -2.55166031420230865479e-02) (12, 9.44988489151000976562e-01) (13, 6.56477868556976318359e-01) (14, 8.64739894866943359375e-01) (15, 7.05294132232666015625e-01) (16, 7.40985393524169921875e-01) (17, 5.80133557319641113281e-01) (18, 5.27810990810394287109e-01) (19, 7.00198113918304443359e-01) (20, 4.60813850164413452148e-01) (21, -1.35973207652568817139e-02) (22, -6.50737166404724121094e-01) (23, 2.74559468030929565430e-01) (24, 6.37059926986694335938e-01) (25, 6.19352340698242187500e-01) (26, -1.98269203305244445801e-01) (27, 1.22335821390151977539e-01) (28, 5.09046077728271484375e-01) (29, -4.19751703739166259766e-01) (30, -6.38963878154754638672e-01) (31, -6.79599285125732421875e-01) (32, 1.12913954257965087891e+00) (33, 1.19062513113021850586e-01) (34, 5.66515982151031494141e-01) (35, 3.99685144424438476562e-01) (36, 3.02374035120010375977e-01) (37, 4.88197684288024902344e-01) (38, -2.71530956029891967773e-01) (39, 7.34015777707099914551e-02) (40, 1.03820872306823730469e+00) (41, 6.46163880825042724609e-01) (42, -1.04100279510021209717e-01) (43, 5.81276059150695800781e-01) (44, 7.43538856506347656250e-01) (45, 2.58439689874649047852e-01) (46, 6.87719941139221191406e-01) (47, 5.35678923130035400391e-01) (48, 5.44874928891658782959e-02) (49, 3.76130819320678710938e-01) (50, -3.40859472751617431641e-01) (51, -2.00365539640188217163e-02) (52, 4.51899081468582153320e-01) (2, -2.89573997259140014648e-01) (3, 6.37792408466339111328e-01) (4, -1.78520417213439941406e+00) (5, 2.28229388594627380371e-01) (6, 1.06703482568264007568e-01) (7, 4.42071944475173950195e-01) (8, 4.78333592414855957031e-01) (9, 9.81542747467756271362e-03) (10, -7.30739813297986984253e-03) (11, 3.07145833969116210938e-01) (12, 2.98778116703033447266e-01) (13, -3.29305797815322875977e-01) (14, 1.00345480442047119141e+00) (15, -6.30050420761108398438e-01) (16, -1.78032950498163700104e-03) (17, 8.79809141159057617188e-01) (18, -2.27564573287963867188e-01) (19, -2.75188505649566650391e-01) (20, 1.66450724005699157715e-01) (21, 1.75934290885925292969e+00) (22, 2.24583774805068969727e-01) (23, 4.87234324216842651367e-01) (24, -1.43386870622634887695e-01) (25, -2.74696409702301025391e-01) (26, 1.38194990158081054688e+00) (27, 6.01027846336364746094e-01) (28, 4.01777923107147216797e-01) (29, -6.29463911056518554688e-01) (30, 7.63007178902626037598e-02) (31, 1.09654389321804046631e-01) (32, 9.38142165541648864746e-02) (33, 3.22183609008789062500e-01) (34, -1.77054062485694885254e-01) (35, 4.06602770090103149414e-01) (36, -2.42250531911849975586e-01) (37, 6.32212460041046142578e-01) (38, -1.02057084441184997559e-01) (39, 3.69118273258209228516e-01) (40, 2.12591350078582763672e-01) (41, 1.32780313491821289062e-01) (42, 2.21503362059593200684e-01) (43, 7.39155530929565429688e-01) (44, 7.02772140502929687500e-01) (45, 1.07780373096466064453e+00) (46, -4.99640852212905883789e-01) (47, 3.57436090707778930664e-01) (48, 4.72335308790206909180e-01) (49, 5.77035903930664062500e-01) (50, 4.09587696194648742676e-02) (51, 9.27687156945466995239e-03) (52, 1.42693808302283287048e-02) (2, 8.74322950839996337891e-02) (3, 2.11251050233840942383e-01) (4, 1.72788059711456298828e+00) (5, -2.11362093687057495117e-01) (6, -5.97802996635437011719e-01) (7, 2.30451777577400207520e-01) (8, 6.07912182807922363281e-01) (9, 6.32826507091522216797e-01) (10, 5.54680824279785156250e-01) (11, 1.22497320175170898438e+00) (12, -4.70912367105484008789e-01) (13, 5.11385686695575714111e-02) (14, 1.45456981658935546875e+00) (15, 8.29541683197021484375e-01) (16, 9.96517062187194824219e-01) (17, 1.53301870822906494141e+00) (18, -2.43721585720777511597e-02) (19, 3.64092085510492324829e-03) (20, 8.75244975090026855469e-01) (21, 1.79938995838165283203e+00) (22, 7.56620049476623535156e-01) (23, 2.39642396569252014160e-01) (24, -2.76815500110387802124e-02) (25, -1.03464827407151460648e-03) (26, 8.04837822914123535156e-01) (27, 1.99406355619430541992e-01) (28, 2.30916097760200500488e-01) (29, 1.67024210095405578613e-01) (30, 1.30837202072143554688e+00) (31, 1.33325326442718505859e+00) (32, -9.02156293392181396484e-01) (33, 1.52063891291618347168e-01) (34, 1.21397534385323524475e-02) (35, 4.48963612318038940430e-01) (36, -1.22224807739257812500e+00) (37, 2.47483700513839721680e-01) (38, 4.91036534309387207031e-01) (39, -3.22819016873836517334e-02) (40, -5.17189323902130126953e-01) (41, 9.67147052288055419922e-02) (42, 7.08696365356445312500e-01) (43, 8.62986564636230468750e-01) (44, 4.60601657629013061523e-01) (45, 1.48184883594512939453e+00) (46, -1.55617073178291320801e-01) (47, 1.80123582482337951660e-01) (48, 1.11310672760009765625e+00) (49, 5.75701892375946044922e-01) (50, 5.40161788463592529297e-01) (51, 6.12940371036529541016e-01) (52, -1.04919560253620147705e-01) (2, 2.77047216892242431641e-01) (3, 1.31967619061470031738e-01) (4, 9.73311126232147216797e-01) (5, 7.90129840373992919922e-01) (6, 3.89331430196762084961e-01) (7, 4.58181649446487426758e-01) (8, -1.26735222339630126953e+00) (9, 2.01685070991516113281e-01) (10, 5.58985710144042968750e-01) (11, 1.39599823951721191406e+00) (12, 2.51927554607391357422e-01) (13, 1.58295109868049621582e-01) (14, 1.11740958690643310547e+00) (15, 7.66676962375640869141e-01) (16, -3.09097361564636230469e+00) (17, 1.13462471961975097656e+00) (18, 1.72008469700813293457e-01) (19, 1.79566547274589538574e-01) (20, 1.15504181385040283203e+00) (21, 1.32490515708923339844e+00) (22, 8.24995100498199462891e-01) (23, 6.89850330352783203125e-01) (24, 2.10017040371894836426e-01) (25, 3.46881687641143798828e-01) (26, 3.96516382694244384766e-01) (27, 5.14741539955139160156e-01) (28, 5.03380477428436279297e-01) (29, 2.12181717157363891602e-01) (30, -4.92099463939666748047e-01) (31, -1.58549809455871582031e+00) (32, 1.41587927937507629395e-01) (33, 4.43092018365859985352e-01) (34, 1.87571719288825988770e-01) (35, 4.70537990331649780273e-02) (36, -6.93520784378051757812e-01) (37, 6.12907052040100097656e-01) (38, -4.49626654386520385742e-01) (39, 3.86053800582885742188e-01) (40, 8.10807049274444580078e-02) (41, 2.51492440700531005859e-01) (42, 3.21596920490264892578e-01) (43, 3.09222310781478881836e-01) (44, 3.30861806869506835938e-01) (45, 1.28083968162536621094e+00) (46, -3.22444051504135131836e-01) (47, 4.40162718296051025391e-01) (48, 6.53522670269012451172e-01) (49, 1.80842146277427673340e-01) (50, 2.22018305212259292603e-02) (51, 2.33129411935806274414e-01) (52, 1.00993849337100982666e-01) (2, 1.81809868663549423218e-02) (3, 3.51585954427719116211e-01) (4, 1.44181585311889648438e+00) (5, 3.16471993923187255859e-01) (6, -4.59886908531188964844e-01) (7, 1.94153249263763427734e-01) (8, 6.42610907554626464844e-01) (9, 6.57165646553039550781e-01) (10, 6.68334782123565673828e-01) (11, 6.22866213321685791016e-01) (12, 1.75619259476661682129e-01) (13, -1.36702228337526321411e-02) (14, 1.27937567234039306641e+00) (15, 1.28639131784439086914e-01) (16, -5.90465402603149414062e+00) (17, 1.16914570331573486328e+00) (18, -1.87870264053344726562e-01) (19, 1.74435172230005264282e-02) (20, 4.45594727993011474609e-01) (21, 1.39710366725921630859e+00) (22, 6.10388875007629394531e-01) (23, 4.19875562191009521484e-01) (24, -4.85801100730895996094e-02) (25, -8.72257873415946960449e-02) (26, 1.02481269836425781250e+00) (27, 1.80727377533912658691e-01) (28, 3.68745803833007812500e-01) (29, -7.91039913892745971680e-02) (30, 1.18059492111206054688e+00) (31, 1.19507479667663574219e+00) (32, -1.12045192718505859375e+00) (33, 1.44798412919044494629e-01) (34, 5.49863912165164947510e-02) (35, 3.52533310651779174805e-01) (36, 1.98609933257102966309e-01) (37, 1.84924870729446411133e-01) (38, 4.11499440670013427734e-01) (39, 1.83017402887344360352e-01) (40, 3.52568459510803222656e+00) (41, -9.85498502850532531738e-02) (42, 1.00116121768951416016e+00) (43, 3.27632337808609008789e-01) (44, 6.62477731704711914062e-01) (45, 1.26870489120483398438e+00) (46, -1.68218985199928283691e-01) (47, 1.83510169386863708496e-01) (48, 1.00268578529357910156e+00) (49, 3.18139702081680297852e-01) (50, 5.56333601474761962891e-01) (51, 5.63493967056274414062e-01) (52, -2.72156924009323120117e-01) (2, -2.31323987245559692383e-01) (3, 1.28302052617073059082e-01) (4, 3.41325372457504272461e-01) (5, 1.31188809871673583984e+00) (6, 3.58205169439315795898e-01) (7, 4.08559083938598632812e-01) (8, 3.58477979898452758789e-01) (9, 1.82145640254020690918e-01) (10, 1.01391839981079101562e+00) (11, 4.20063495635986328125e-01) (12, 5.99489510059356689453e-01) (13, 4.62358266115188598633e-01) (14, 5.20084917545318603516e-01) (15, 4.26409578323364257812e+00) (16, 3.55139613151550292969e-01) (17, 4.94275540113449096680e-01) (18, 1.43006697297096252441e-01) (19, -1.56865879893302917480e-01) (20, 5.56066259741783142090e-02) (21, 3.49816352128982543945e-01) (22, -3.49901229143142700195e-01) (23, 4.02418613433837890625e-01) (24, -2.42737010121345520020e-01) (25, -1.26093000173568725586e-01) (26, -1.38787710666656494141e+00) (27, 3.95722270011901855469e-01) (28, 4.12891328334808349609e-01) (29, 2.40366682410240173340e-01) (30, 2.28549435734748840332e-01) (31, 1.85314714908599853516e-01) (32, 5.27514874935150146484e-01) (33, 3.84243309497833251953e-01) (34, -1.31493911147117614746e-01) (35, 5.57812973856925964355e-02) (36, 1.21974599361419677734e+00) (37, 4.40930306911468505859e-01) (38, 1.01590740680694580078e+00) (39, 4.74222779273986816406e-01) (40, 1.91848680377006530762e-01) (41, -1.85349807143211364746e-01) (42, 3.06375503540039062500e-01) (43, -2.27929186075925827026e-02) (44, -1.21213153004646301270e-01) (45, 4.69031333923339843750e-01) (46, -2.57140547037124633789e-01) (47, 3.54290634393692016602e-01) (48, 3.73540639877319335938e-01) (49, 8.90805795788764953613e-02) (50, 3.02562803030014038086e-01) (51, 9.99886333942413330078e-01) (52, 5.57062804698944091797e-01) (2, 4.86240088939666748047e-01) (3, 2.38465055823326110840e-01) (4, 6.61282360553741455078e-01) (5, 9.75929126143455505371e-02) (6, 3.26232850551605224609e-01) (7, 5.60788333415985107422e-01) (8, 2.61538535356521606445e-01) (9, 3.29351931810379028320e-01) (10, 2.56107330322265625000e-01) (11, 1.40692949295043945312e+00) (12, 2.26984247565269470215e-01) (13, 1.84347227215766906738e-01) (14, 1.18707919120788574219e+00) (15, 6.67702019214630126953e-01) (16, 4.34278577566146850586e-01) (17, 6.52742862701416015625e-01) (18, 4.94432955980300903320e-01) (19, 3.93330186605453491211e-01) (20, 1.12095952033996582031e+00) (21, 1.26947045326232910156e+00) (22, -8.02312791347503662109e-01) (23, 5.36753892898559570312e-01) (24, 1.00206725299358367920e-01) (25, 1.52603596448898315430e-01) (26, -7.42373839020729064941e-02) (27, 4.10905927419662475586e-01) (28, 3.54384183883666992188e-01) (29, 1.01039454340934753418e-01) (30, 9.56314861774444580078e-01) (31, 7.95330405235290527344e-01) (32, 2.17609032988548278809e-01) (33, 1.62870779633522033691e-01) (34, 4.55859243869781494141e-01) (35, 2.70195096731185913086e-01) (36, -7.86823332309722900391e-02) (37, 6.05779945850372314453e-01) (38, 1.66533723473548889160e-01) (39, 4.52595740556716918945e-01) (40, 3.14380168914794921875e-01) (41, 2.91884332895278930664e-01) (42, 2.45831385254859924316e-01) (43, 8.70144128799438476562e-01) (44, 4.77759301662445068359e-01) (45, 1.22985100746154785156e+00) (46, 3.53601947426795959473e-03) (47, 5.00974833965301513672e-01) (48, 6.12320005893707275391e-01) (49, 2.04003050923347473145e-01) (50, 1.73623159527778625488e-01) (51, 1.37632206082344055176e-01) (52, 1.63403432816267013550e-02) (2, 5.52533328533172607422e-01) (3, 5.68539023399353027344e-01) (4, 2.04774051904678344727e-01) (5, 5.30122339725494384766e-01) (6, 5.02406001091003417969e-01) (7, 3.23690116405487060547e-01) (8, 4.84843999147415161133e-01) (9, 5.78863918781280517578e-01) (10, 5.85817456245422363281e-01) (11, 3.75216603279113769531e-01) (12, 5.67826867103576660156e-01) (13, 3.34939032793045043945e-01) (14, 2.94081389904022216797e-01) (15, 2.00084984302520751953e-01) (16, 3.80366712808609008789e-01) (17, 1.67747735977172851562e-01) (18, 4.22464907169342041016e-01) (19, 4.31920081377029418945e-01) (20, 3.96960288286209106445e-01) (21, 3.85278284549713134766e-01) (22, 4.47984725236892700195e-01) (23, 2.56738960742950439453e-01) (24, 5.45004248619079589844e-01) (25, 5.48126697540283203125e-01) (26, 5.55246412754058837891e-01) (27, 3.69417995214462280273e-01) (28, 2.77234137058258056641e-01) (29, 4.30988192558288574219e-01) (30, 1.63127645850181579590e-01) (31, 1.92561283707618713379e-01) (32, 6.03010177612304687500e-01) (33, 1.82828634977340698242e-01) (34, 4.45897668600082397461e-01) (35, 4.34054404497146606445e-01) (36, 8.24913918972015380859e-01) (37, 2.96639561653137207031e-01) (38, 6.37683928012847900391e-01) (39, 2.03498080372810363770e-01) (40, 4.40773844718933105469e-01) (41, 3.84268850088119506836e-01) (42, 4.72930014133453369141e-01) (43, 7.38554120063781738281e-01) (44, 7.42423653602600097656e-01) (45, 3.25196892023086547852e-01) (46, 3.40136617422103881836e-01) (47, 3.85539561510086059570e-01) (48, 3.48980486392974853516e-01) (49, 5.90566813945770263672e-01) (50, 3.37546378374099731445e-01) (51, 6.92638635635375976562e-01) (52, 7.18257069587707519531e-01) (2, 5.02448320388793945312e-01) (3, 5.14370679855346679688e-01) (4, 2.14539393782615661621e-01) (5, 6.16608679294586181641e-01) (6, 5.21273732185363769531e-01) (7, 2.78963476419448852539e-01) (8, 6.23198986053466796875e-01) (9, 5.39324402809143066406e-01) (10, 7.14222490787506103516e-01) (11, 4.76162403821945190430e-01) (12, 4.46995168924331665039e-01) (13, 2.76449590921401977539e-01) (14, 4.25320476293563842773e-01) (15, 1.91524073481559753418e-01) (16, 4.01383608579635620117e-01) (17, 2.41945400834083557129e-01) (18, 5.81966221332550048828e-01) (19, 4.01561647653579711914e-01) (20, 4.82258111238479614258e-01) (21, 2.32992962002754211426e-01) (22, 4.77951109409332275391e-01) (23, 2.59680718183517456055e-01) (24, 5.55215835571289062500e-01) (25, 5.22154033184051513672e-01) (26, 4.38844561576843261719e-01) (27, 3.66923034191131591797e-01) (28, 2.61672735214233398438e-01) (29, 4.06715750694274902344e-01) (30, 1.63983762264251708984e-01) (31, 1.71740770339965820312e-01) (32, 6.02125287055969238281e-01) (33, 2.72344350814819335938e-01) (34, 5.14802694320678710938e-01) (35, 4.61297184228897094727e-01) (36, 7.50327885150909423828e-01) (37, 3.68866950273513793945e-01) (38, 6.44753098487854003906e-01) (39, 2.55617111921310424805e-01) (40, 4.77011024951934814453e-01) (41, 5.15715718269348144531e-01) (42, 6.31141901016235351562e-01) (43, 6.60923182964324951172e-01) (44, 5.69654583930969238281e-01) (45, 4.11426305770874023438e-01) (46, 3.58464449644088745117e-01) (47, 2.29115754365921020508e-01) (48, 4.95409816503524780273e-01) (49, 5.18542051315307617188e-01) (50, 4.20476794242858886719e-01) (51, 5.38401067256927490234e-01) (52, 7.06323385238647460938e-01) (2, 1.52919620275497436523e-01) (3, 8.20284962654113769531e-01) (4, 1.18145906925201416016e+00) (5, -1.87347209453582763672e+00) (6, -2.26790428161621093750e+00) (7, -3.20888519287109375000e-01) (8, 1.02972447872161865234e+00) (9, 9.94887709617614746094e-01) (10, 4.79347556829452514648e-01) (11, 1.11241650581359863281e+00) (12, -2.11998939514160156250e+00) (13, -7.13782787322998046875e-01) (14, 1.20011973381042480469e+00) (15, 9.02128815650939941406e-01) (16, 2.18322038650512695312e+00) (17, 1.17997407913208007812e+00) (18, -1.17522232234477996826e-01) (19, 2.69237253814935684204e-02) (20, 8.59077751636505126953e-01) (21, 1.15655303001403808594e+00) (22, 1.15883946418762207031e+00) (23, -2.01036985963582992554e-02) (24, 8.13635289669036865234e-02) (25, 1.59382641315460205078e-01) (26, 1.06314802169799804688e+00) (27, -2.65305489301681518555e-01) (28, -3.06270003318786621094e-01) (29, 7.73707449436187744141e-01) (30, 6.59311473369598388672e-01) (31, 6.21308505535125732422e-01) (32, -2.81030178070068359375e+00) (33, -3.61442536115646362305e-01) (34, 7.36537482589483261108e-03) (35, 8.44126403331756591797e-01) (36, -4.06533062458038330078e-01) (37, -3.56081306934356689453e-01) (38, 2.96999931335449218750e-01) (39, -2.39788323640823364258e-01) (40, -2.22169542312622070312e+00) (41, 8.86042043566703796387e-02) (42, 8.81411492824554443359e-01) (43, 6.59663736820220947266e-01) (44, 3.68677020072937011719e-01) (45, 1.15262496471405029297e+00) (46, -7.05881297588348388672e-01) (47, -2.15195924043655395508e-01) (48, 8.69794309139251708984e-01) (49, 7.50387012958526611328e-01) (50, 4.49768930673599243164e-01) (51, 5.15882968902587890625e-01) (52, 1.06931269168853759766e+00) (2, 1.64925947785377502441e-01) (3, 5.72217047214508056641e-01) (4, 1.27969253063201904297e+00) (5, 5.87076663970947265625e-01) (6, -5.15160560607910156250e-01) (7, 6.89049959182739257812e-02) (8, 7.85183072090148925781e-01) (9, 1.00632047653198242188e+00) (10, 5.01576066017150878906e-01) (11, 1.30659604072570800781e+00) (12, 2.83763051033020019531e-01) (13, 1.34359151124954223633e-01) (14, 1.22450888156890869141e+00) (15, 6.11417174339294433594e-01) (16, 8.82530927658081054688e-01) (17, 1.23514533042907714844e+00) (18, 6.43591806292533874512e-02) (19, 1.39624491333961486816e-01) (20, 1.20854485034942626953e+00) (21, 1.47634232044219970703e+00) (22, 7.48932778835296630859e-01) (23, 2.52115339040756225586e-01) (24, 1.43159344792366027832e-01) (25, 1.26443937420845031738e-01) (26, 1.18186533451080322266e+00) (27, 9.90531444549560546875e-02) (28, 2.09475249052047729492e-01) (29, 4.63604450225830078125e-01) (30, 1.16355705261230468750e+00) (31, 1.08040082454681396484e+00) (32, -7.82471358776092529297e-01) (33, 1.59327164292335510254e-01) (34, 7.43764340877532958984e-02) (35, 2.87751346826553344727e-01) (36, -2.43891525268554687500e+00) (37, 1.65652275085449218750e-01) (38, 4.60432469844818115234e-01) (39, 1.18913173675537109375e-01) (40, 2.78003156185150146484e-01) (41, 1.62030920386314392090e-01) (42, 8.51782023906707763672e-01) (43, 2.00152352452278137207e-01) (44, 2.39640489220619201660e-01) (45, 1.29549777507781982422e+00) (46, 1.10175937414169311523e-01) (47, 1.59555673599243164062e-02) (48, 1.00098955631256103516e+00) (49, 5.66462576389312744141e-01) (50, 6.80975317955017089844e-01) (51, 6.94182753562927246094e-01) (52, -6.51766061782836914062e-01) (53, 3.05097222328186035156e-01) (54, 1.49224728345870971680e-01) (55, 7.47425794601440429688e-01) (56, -9.76454019546508789062e-02) (57, 4.53242063522338867188e-01) (58, 7.59284138679504394531e-01) (59, 4.89281475543975830078e-01) (60, -2.48263105750083923340e-01) (61, 1.86808729171752929688e+00) (62, 4.18939471244812011719e-01) (63, 1.00721895694732666016e+00) (64, 3.45473885536193847656e-01) (65, -1.36887887492775917053e-03) (66, -2.30530619621276855469e-01) (67, 1.05872607231140136719e+00) (68, 2.47412905097007751465e-01) (69, 8.40842664241790771484e-01) (70, -1.45996212959289550781e-01) (71, 8.76379489898681640625e-01) (72, 9.80055555701255798340e-02) (73, 4.03308659791946411133e-01) (74, 1.16213905811309814453e+00) (75, 8.23342084884643554688e-01) (76, 8.91755640506744384766e-01) (77, 8.06771039962768554688e-01) (78, 2.82639980316162109375e-01) (79, -1.16156983375549316406e+00) (80, 8.96244883537292480469e-01) (81, 7.38610506057739257812e-01) (82, 8.69023680686950683594e-01) (83, -2.30852738022804260254e-01) (84, 8.75917434692382812500e-01) (85, 4.50204163789749145508e-01) (86, 3.33958029747009277344e-01) (87, 7.58934020996093750000e-01) (88, 8.55459332466125488281e-01) (89, 1.02349734306335449219e+00) (90, 8.08253765106201171875e-01) (91, 1.22011649608612060547e+00) 