FANN_FLO_2.1
num_layers=3
learning_rate=0.700000
connection_rate=1.000000
network_type=0
learning_momentum=0.000000
training_algorithm=2
train_error_function=0
train_stop_function=0
cascade_output_change_fraction=0.010000
quickprop_decay=-0.000100
quickprop_mu=1.750000
rprop_increase_factor=1.200000
rprop_decrease_factor=0.500000
rprop_delta_min=0.000000
rprop_delta_max=50.000000
rprop_delta_zero=0.100000
cascade_output_stagnation_epochs=12
cascade_candidate_change_fraction=0.010000
cascade_candidate_stagnation_epochs=12
cascade_max_out_epochs=150
cascade_min_out_epochs=50
cascade_max_cand_epochs=150
cascade_min_cand_epochs=50
cascade_num_candidate_groups=2
bit_fail_limit=3.49999994039535522461e-01
cascade_candidate_limit=1.00000000000000000000e+03
cascade_weight_multiplier=4.00000005960464477539e-01
cascade_activation_functions_count=10
cascade_activation_functions=3 5 7 8 10 11 14 15 16 17 
cascade_activation_steepnesses_count=4
cascade_activation_steepnesses=2.50000000000000000000e-01 5.00000000000000000000e-01 7.50000000000000000000e-01 1.00000000000000000000e+00 
layer_sizes=2 51 2 
scale_included=1
scale_mean_in=5858.787109 
scale_deviation_in=12201.810547 
scale_new_min_in=-1.000000 
scale_factor_in=1.000000 
scale_mean_out=20.489740 
scale_deviation_out=2.525016 
scale_new_min_out=-1.000000 
scale_factor_out=1.000000 
neurons (num_inputs, activation_function, activation_steepness)=(0, 0, 0.00000000000000000000e+00) (0, 0, 0.00000000000000000000e+00) (2, 5, 5.00000000000000000000e-01) (2, 5, 5.00000000000000000000e-01) (2, 5, 5.00000000000000000000e-01) (2, 5, 5.00000000000000000000e-01) (2, 5, 5.00000000000000000000e-01) (2, 5, 5.00000000000000000000e-01) (2, 5, 5.00000000000000000000e-01) (2, 5, 5.00000000000000000000e-01) (2, 5, 5.00000000000000000000e-01) (2, 5, 5.00000000000000000000e-01) (2, 5, 5.00000000000000000000e-01) (2, 5, 5.00000000000000000000e-01) (2, 5, 5.00000000000000000000e-01) (2, 5, 5.00000000000000000000e-01) (2, 5, 5.00000000000000000000e-01) (2, 5, 5.00000000000000000000e-01) (2, 5, 5.00000000000000000000e-01) (2, 5, 5.00000000000000000000e-01) (2, 5, 5.00000000000000000000e-01) (2, 5, 5.00000000000000000000e-01) (2, 5, 5.00000000000000000000e-01) (2, 5, 5.00000000000000000000e-01) (2, 5, 5.00000000000000000000e-01) (2, 5, 5.00000000000000000000e-01) (2, 5, 5.00000000000000000000e-01) (2, 5, 5.00000000000000000000e-01) (2, 5, 5.00000000000000000000e-01) (2, 5, 5.00000000000000000000e-01) (2, 5, 5.00000000000000000000e-01) (2, 5, 5.00000000000000000000e-01) (2, 5, 5.00000000000000000000e-01) (2, 5, 5.00000000000000000000e-01) (2, 5, 5.00000000000000000000e-01) (2, 5, 5.00000000000000000000e-01) (2, 5, 5.00000000000000000000e-01) (2, 5, 5.00000000000000000000e-01) (2, 5, 5.00000000000000000000e-01) (2, 5, 5.00000000000000000000e-01) (2, 5, 5.00000000000000000000e-01) (2, 5, 5.00000000000000000000e-01) (2, 5, 5.00000000000000000000e-01) (2, 5, 5.00000000000000000000e-01) (2, 5, 5.00000000000000000000e-01) (2, 5, 5.00000000000000000000e-01) (2, 5, 5.00000000000000000000e-01) (2, 5, 5.00000000000000000000e-01) (2, 5, 5.00000000000000000000e-01) (2, 5, 5.00000000000000000000e-01) (2, 5, 5.00000000000000000000e-01) (2, 5, 5.00000000000000000000e-01) (0, 5, 0.00000000000000000000e+00) (51, 0, 5.00000000000000000000e-01) (0, 0, 0.00000000000000000000e+00) 
connections (connected_to_neuron, weight)=(0, 3.00955405691638588905e-04) (1, 7.43550682067871093750e+00) (0, 1.51310674846172332764e-02) (1, 5.79728794097900390625e+00) (0, 2.76758575439453125000e+00) (1, -3.51476554870605468750e+01) (0, -7.79964476823806762695e-02) (1, 4.33042794466018676758e-01) (0, 3.20741623640060424805e-01) (1, 1.00051994323730468750e+01) (0, -8.99021923542022705078e-02) (1, 7.00680780410766601562e+00) (0, -1.83905124664306640625e-01) (1, 2.95422973632812500000e+01) (0, -1.23665944556705653667e-04) (1, 7.40609550476074218750e+00) (0, 5.85845746099948883057e-02) (1, 7.67227649688720703125e+00) (0, 1.28548786044120788574e-01) (1, 7.72792625427246093750e+00) (0, 3.47430884838104248047e-01) (1, 1.81139373779296875000e+01) (0, 3.02482843399047851562e-01) (1, 9.85142326354980468750e+00) (0, -6.99673255439847707748e-04) (1, 7.44844245910644531250e+00) (0, -2.21653608605265617371e-04) (1, 1.05842542648315429688e+01) (0, 2.90479332208633422852e-01) (1, 9.89085197448730468750e+00) (0, -1.00053881760686635971e-03) (1, 7.44029378890991210938e+00) (0, -2.02065050601959228516e-01) (1, 1.04793491363525390625e+01) (0, -1.33608192205429077148e-01) (1, 5.75111579895019531250e+00) (0, 3.89427877962589263916e-03) (1, 1.05149497985839843750e+01) (0, -2.02703668037429451942e-04) (1, 1.05356311798095703125e+01) (0, -1.07536070048809051514e-01) (1, 2.54734659194946289062e+00) (0, 9.21171531081199645996e-02) (1, 7.77024841308593750000e+00) (0, 8.40476676821708679199e-02) (1, 7.63136482238769531250e+00) (0, -6.70048370957374572754e-02) (1, 1.63223304748535156250e+01) (0, 2.76926803588867187500e+00) (1, 1.45076541900634765625e+01) (0, 3.07262271642684936523e-01) (1, 1.81397094726562500000e+01) (0, -2.03030329430475831032e-04) (1, 1.05946998596191406250e+01) (0, 2.81768894195556640625e+00) (1, -5.36037712097167968750e+01) (0, 6.88145169988274574280e-04) (1, 7.50873374938964843750e+00) (0, -2.06341093871742486954e-04) (1, 1.06101226806640625000e+01) (0, -7.74240994360297918320e-04) (1, 1.44811892509460449219e+00) (0, 2.31554198265075683594e+00) (1, -1.20999824523925781250e+02) (0, 2.79692840576171875000e+00) (1, -5.32017278671264648438e+00) (0, 2.74461001157760620117e-01) (1, 9.92100429534912109375e+00) (0, 2.42192387580871582031e+00) (1, -7.31879272460937500000e+01) (0, 3.00500571727752685547e-01) (1, 1.81391429901123046875e+01) (0, 2.83430957794189453125e+00) (1, 3.69916605949401855469e+00) (0, -1.30250045913271605968e-04) (1, 7.51198148727416992188e+00) (0, -1.27545397845096886158e-04) (1, 7.52655553817749023438e+00) (0, -3.07295974344015121460e-02) (1, 1.33138570785522460938e+01) (0, -1.73594322404824197292e-04) (1, 7.48184871673583984375e+00) (0, 1.04010380804538726807e-01) (1, 7.81662178039550781250e+00) (0, 3.17793726921081542969e-01) (1, 9.92612171173095703125e+00) (0, -1.26947605167515575886e-04) (1, 7.51894807815551757812e+00) (0, -1.99668458662927150726e-04) (1, 1.05562057495117187500e+01) (0, -1.03547118604183197021e-01) (1, 2.00426120758056640625e+01) (0, -2.19804438529536128044e-04) (1, 1.05456962585449218750e+01) (0, 1.26513810828328132629e-02) (1, 7.49215126037597656250e+00) (0, 2.37518978118896484375e+00) (1, -4.95801429748535156250e+01) (0, 2.76788759231567382812e+00) (1, -1.66377754211425781250e+01) (2, 8.04826259613037109375e-01) (3, 9.60066735744476318359e-01) (4, -8.51773247122764587402e-02) (5, 1.60628759860992431641e+00) (6, 2.91311478614807128906e+00) (7, 1.52247917652130126953e+00) (8, 3.84431481361389160156e-01) (9, 7.77047812938690185547e-01) (10, 9.97340083122253417969e-01) (11, 9.94830012321472167969e-01) (12, 2.90396428108215332031e+00) (13, 2.94698548316955566406e+00) (14, 1.39808312058448791504e-01) (15, 8.00523459911346435547e-01) (16, 2.93814826011657714844e+00) (17, 1.77622437477111816406e-01) (18, 4.61314350366592407227e-01) (19, 1.91240882873535156250e+00) (20, 8.40495884418487548828e-01) (21, 4.72968161106109619141e-01) (22, 1.46423965692520141602e-01) (23, 9.80850398540496826172e-01) (24, 9.79550898075103759766e-01) (25, 3.07551681995391845703e-01) (26, 9.93404816836118698120e-03) (27, 2.96645522117614746094e+00) (28, 4.67651605606079101562e-01) (29, -2.29593932628631591797e-01) (30, 8.38114023208618164062e-01) (31, 9.35304284095764160156e-01) (32, 1.87974989414215087891e+00) (33, 1.37408185005187988281e+00) (34, -9.36716720461845397949e-02) (35, 2.99567437171936035156e+00) (36, 2.05492094159126281738e-01) (37, 3.00034737586975097656e+00) (38, -2.42677718400955200195e-01) (39, 7.11816310882568359375e-01) (40, 7.13577032089233398438e-01) (41, 4.18093442916870117188e-01) (42, 2.71029531955718994141e-01) (43, 9.95191395282745361328e-01) (44, 2.98602128028869628906e+00) (45, 8.24674725532531738281e-01) (46, 6.43807351589202880859e-01) (47, 2.56673008203506469727e-01) (48, 7.81475841999053955078e-01) (49, 7.82123267650604248047e-01) (50, 2.71407485008239746094e-01) (51, -2.14233726263046264648e-01) (52, 2.92414283752441406250e+00) 
