FANN_FLO_2.1
num_layers=5
learning_rate=0.700000
connection_rate=1.000000
network_type=0
learning_momentum=0.990000
training_algorithm=2
train_error_function=0
train_stop_function=0
cascade_output_change_fraction=0.010000
quickprop_decay=-0.000100
quickprop_mu=1.750000
rprop_increase_factor=1.200000
rprop_decrease_factor=0.500000
rprop_delta_min=0.000000
rprop_delta_max=50.000000
rprop_delta_zero=0.100000
cascade_output_stagnation_epochs=12
cascade_candidate_change_fraction=0.010000
cascade_candidate_stagnation_epochs=12
cascade_max_out_epochs=150
cascade_min_out_epochs=50
cascade_max_cand_epochs=150
cascade_min_cand_epochs=50
cascade_num_candidate_groups=2
bit_fail_limit=3.49999994039535522461e-01
cascade_candidate_limit=1.00000000000000000000e+03
cascade_weight_multiplier=4.00000005960464477539e-01
cascade_activation_functions_count=10
cascade_activation_functions=3 5 7 8 10 11 14 15 16 17 
cascade_activation_steepnesses_count=4
cascade_activation_steepnesses=2.50000000000000000000e-01 5.00000000000000000000e-01 7.50000000000000000000e-01 1.00000000000000000000e+00 
layer_sizes=2 101 101 101 127 
scale_included=0
neurons (num_inputs, activation_function, activation_steepness)=(0, 0, 0.00000000000000000000e+00) (0, 0, 0.00000000000000000000e+00) (2, 5, 5.00000000000000000000e-01) (2, 5, 5.00000000000000000000e-01) (2, 5, 5.00000000000000000000e-01) (2, 5, 5.00000000000000000000e-01) (2, 5, 5.00000000000000000000e-01) (2, 5, 5.00000000000000000000e-01) (2, 5, 5.00000000000000000000e-01) (2, 5, 5.00000000000000000000e-01) (2, 5, 5.00000000000000000000e-01) (2, 5, 5.00000000000000000000e-01) (2, 5, 5.00000000000000000000e-01) (2, 5, 5.00000000000000000000e-01) (2, 5, 5.00000000000000000000e-01) (2, 5, 5.00000000000000000000e-01) (2, 5, 5.00000000000000000000e-01) (2, 5, 5.00000000000000000000e-01) (2, 5, 5.00000000000000000000e-01) (2, 5, 5.00000000000000000000e-01) (2, 5, 5.00000000000000000000e-01) (2, 5, 5.00000000000000000000e-01) (2, 5, 5.00000000000000000000e-01) (2, 5, 5.00000000000000000000e-01) (2, 5, 5.00000000000000000000e-01) (2, 5, 5.00000000000000000000e-01) (2, 5, 5.00000000000000000000e-01) (2, 5, 5.00000000000000000000e-01) (2, 5, 5.00000000000000000000e-01) (2, 5, 5.00000000000000000000e-01) (2, 5, 5.00000000000000000000e-01) (2, 5, 5.00000000000000000000e-01) (2, 5, 5.00000000000000000000e-01) (2, 5, 5.00000000000000000000e-01) (2, 5, 5.00000000000000000000e-01) (2, 5, 5.00000000000000000000e-01) (2, 5, 5.00000000000000000000e-01) (2, 5, 5.00000000000000000000e-01) (2, 5, 5.00000000000000000000e-01) (2, 5, 5.00000000000000000000e-01) (2, 5, 5.00000000000000000000e-01) (2, 5, 5.00000000000000000000e-01) (2, 5, 5.00000000000000000000e-01) (2, 5, 5.00000000000000000000e-01) (2, 5, 5.00000000000000000000e-01) (2, 5, 5.00000000000000000000e-01) (2, 5, 5.00000000000000000000e-01) (2, 5, 5.00000000000000000000e-01) (2, 5, 5.00000000000000000000e-01) (2, 5, 5.00000000000000000000e-01) (2, 5, 5.00000000000000000000e-01) (2, 5, 5.00000000000000000000e-01) (2, 5, 5.00000000000000000000e-01) (2, 5, 5.00000000000000000000e-01) (2, 5, 5.00000000000000000000e-01) (2, 5, 5.00000000000000000000e-01) (2, 5, 5.00000000000000000000e-01) (2, 5, 5.00000000000000000000e-01) (2, 5, 5.00000000000000000000e-01) (2, 5, 5.00000000000000000000e-01) (2, 5, 5.00000000000000000000e-01) (2, 5, 5.00000000000000000000e-01) (2, 5, 5.00000000000000000000e-01) (2, 5, 5.00000000000000000000e-01) (2, 5, 5.00000000000000000000e-01) (2, 5, 5.00000000000000000000e-01) (2, 5, 5.00000000000000000000e-01) (2, 5, 5.00000000000000000000e-01) (2, 5, 5.00000000000000000000e-01) (2, 5, 5.00000000000000000000e-01) (2, 5, 5.00000000000000000000e-01) (2, 5, 5.00000000000000000000e-01) (2, 5, 5.00000000000000000000e-01) (2, 5, 5.00000000000000000000e-01) (2, 5, 5.00000000000000000000e-01) (2, 5, 5.00000000000000000000e-01) (2, 5, 5.00000000000000000000e-01) (2, 5, 5.00000000000000000000e-01) (2, 5, 5.00000000000000000000e-01) (2, 5, 5.00000000000000000000e-01) (2, 5, 5.00000000000000000000e-01) (2, 5, 5.00000000000000000000e-01) (2, 5, 5.00000000000000000000e-01) (2, 5, 5.00000000000000000000e-01) (2, 5, 5.00000000000000000000e-01) (2, 5, 5.00000000000000000000e-01) (2, 5, 5.00000000000000000000e-01) (2, 5, 5.00000000000000000000e-01) (2, 5, 5.00000000000000000000e-01) (2, 5, 5.00000000000000000000e-01) (2, 5, 5.00000000000000000000e-01) (2, 5, 5.00000000000000000000e-01) (2, 5, 5.00000000000000000000e-01) (2, 5, 5.00000000000000000000e-01) (2, 5, 5.00000000000000000000e-01) (2, 5, 5.00000000000000000000e-01) (2, 5, 5.00000000000000000000e-01) (2, 5, 5.00000000000000000000e-01) (2, 5, 5.00000000000000000000e-01) (2, 5, 5.00000000000000000000e-01) (2, 5, 5.00000000000000000000e-01) (2, 5, 5.00000000000000000000e-01) (0, 5, 0.00000000000000000000e+00) (101, 5, 5.00000000000000000000e-01) (101, 5, 5.00000000000000000000e-01) (101, 5, 5.00000000000000000000e-01) (101, 5, 5.00000000000000000000e-01) (101, 5, 5.00000000000000000000e-01) (101, 5, 5.00000000000000000000e-01) (101, 5, 5.00000000000000000000e-01) (101, 5, 5.00000000000000000000e-01) (101, 5, 5.00000000000000000000e-01) (101, 5, 5.00000000000000000000e-01) (101, 5, 5.00000000000000000000e-01) (101, 5, 5.00000000000000000000e-01) (101, 5, 5.00000000000000000000e-01) (101, 5, 5.00000000000000000000e-01) (101, 5, 5.00000000000000000000e-01) (101, 5, 5.00000000000000000000e-01) (101, 5, 5.00000000000000000000e-01) (101, 5, 5.00000000000000000000e-01) (101, 5, 5.00000000000000000000e-01) (101, 5, 5.00000000000000000000e-01) (101, 5, 5.00000000000000000000e-01) (101, 5, 5.00000000000000000000e-01) (101, 5, 5.00000000000000000000e-01) (101, 5, 5.00000000000000000000e-01) (101, 5, 5.00000000000000000000e-01) (101, 5, 5.00000000000000000000e-01) (101, 5, 5.00000000000000000000e-01) (101, 5, 5.00000000000000000000e-01) (101, 5, 5.00000000000000000000e-01) (101, 5, 5.00000000000000000000e-01) (101, 5, 5.00000000000000000000e-01) (101, 5, 5.00000000000000000000e-01) (101, 5, 5.00000000000000000000e-01) (101, 5, 5.00000000000000000000e-01) (101, 5, 5.00000000000000000000e-01) (101, 5, 5.00000000000000000000e-01) (101, 5, 5.00000000000000000000e-01) (101, 5, 5.00000000000000000000e-01) (101, 5, 5.00000000000000000000e-01) (101, 5, 5.00000000000000000000e-01) (101, 5, 5.00000000000000000000e-01) (101, 5, 5.00000000000000000000e-01) (101, 5, 5.00000000000000000000e-01) (101, 5, 5.00000000000000000000e-01) (101, 5, 5.00000000000000000000e-01) (101, 5, 5.00000000000000000000e-01) (101, 5, 5.00000000000000000000e-01) (101, 5, 5.00000000000000000000e-01) (101, 5, 5.00000000000000000000e-01) (101, 5, 5.00000000000000000000e-01) (101, 5, 5.00000000000000000000e-01) (101, 5, 5.00000000000000000000e-01) (101, 5, 5.00000000000000000000e-01) (101, 5, 5.00000000000000000000e-01) (101, 5, 5.00000000000000000000e-01) (101, 5, 5.00000000000000000000e-01) (101, 5, 5.00000000000000000000e-01) (101, 5, 5.00000000000000000000e-01) (101, 5, 5.00000000000000000000e-01) (101, 5, 5.00000000000000000000e-01) (101, 5, 5.00000000000000000000e-01) (101, 5, 5.00000000000000000000e-01) (101, 5, 5.00000000000000000000e-01) (101, 5, 5.00000000000000000000e-01) (101, 5, 5.00000000000000000000e-01) (101, 5, 5.00000000000000000000e-01) (101, 5, 5.00000000000000000000e-01) (101, 5, 5.00000000000000000000e-01) (101, 5, 5.00000000000000000000e-01) (101, 5, 5.00000000000000000000e-01) (101, 5, 5.00000000000000000000e-01) (101, 5, 5.00000000000000000000e-01) (101, 5, 5.00000000000000000000e-01) (101, 5, 5.00000000000000000000e-01) (101, 5, 5.00000000000000000000e-01) (101, 5, 5.00000000000000000000e-01) (101, 5, 5.00000000000000000000e-01) (101, 5, 5.00000000000000000000e-01) (101, 5, 5.00000000000000000000e-01) (101, 5, 5.00000000000000000000e-01) (101, 5, 5.00000000000000000000e-01) (101, 5, 5.00000000000000000000e-01) (101, 5, 5.00000000000000000000e-01) (101, 5, 5.00000000000000000000e-01) (101, 5, 5.00000000000000000000e-01) (101, 5, 5.00000000000000000000e-01) (101, 5, 5.00000000000000000000e-01) (101, 5, 5.00000000000000000000e-01) (101, 5, 5.00000000000000000000e-01) (101, 5, 5.00000000000000000000e-01) (101, 5, 5.00000000000000000000e-01) (101, 5, 5.00000000000000000000e-01) (101, 5, 5.00000000000000000000e-01) (101, 5, 5.00000000000000000000e-01) (101, 5, 5.00000000000000000000e-01) (101, 5, 5.00000000000000000000e-01) (101, 5, 5.00000000000000000000e-01) (101, 5, 5.00000000000000000000e-01) (101, 5, 5.00000000000000000000e-01) (101, 5, 5.00000000000000000000e-01) (0, 5, 0.00000000000000000000e+00) (101, 5, 5.00000000000000000000e-01) (101, 5, 5.00000000000000000000e-01) (101, 5, 5.00000000000000000000e-01) (101, 5, 5.00000000000000000000e-01) (101, 5, 5.00000000000000000000e-01) (101, 5, 5.00000000000000000000e-01) (101, 5, 5.00000000000000000000e-01) (101, 5, 5.00000000000000000000e-01) (101, 5, 5.00000000000000000000e-01) (101, 5, 5.00000000000000000000e-01) (101, 5, 5.00000000000000000000e-01) (101, 5, 5.00000000000000000000e-01) (101, 5, 5.00000000000000000000e-01) (101, 5, 5.00000000000000000000e-01) (101, 5, 5.00000000000000000000e-01) (101, 5, 5.00000000000000000000e-01) (101, 5, 5.00000000000000000000e-01) (101, 5, 5.00000000000000000000e-01) (101, 5, 5.00000000000000000000e-01) (101, 5, 5.00000000000000000000e-01) (101, 5, 5.00000000000000000000e-01) (101, 5, 5.00000000000000000000e-01) (101, 5, 5.00000000000000000000e-01) (101, 5, 5.00000000000000000000e-01) (101, 5, 5.00000000000000000000e-01) (101, 5, 5.00000000000000000000e-01) (101, 5, 5.00000000000000000000e-01) (101, 5, 5.00000000000000000000e-01) (101, 5, 5.00000000000000000000e-01) (101, 5, 5.00000000000000000000e-01) (101, 5, 5.00000000000000000000e-01) (101, 5, 5.00000000000000000000e-01) (101, 5, 5.00000000000000000000e-01) (101, 5, 5.00000000000000000000e-01) (101, 5, 5.00000000000000000000e-01) (101, 5, 5.00000000000000000000e-01) (101, 5, 5.00000000000000000000e-01) (101, 5, 5.00000000000000000000e-01) (101, 5, 5.00000000000000000000e-01) (101, 5, 5.00000000000000000000e-01) (101, 5, 5.00000000000000000000e-01) (101, 5, 5.00000000000000000000e-01) (101, 5, 5.00000000000000000000e-01) (101, 5, 5.00000000000000000000e-01) (101, 5, 5.00000000000000000000e-01) (101, 5, 5.00000000000000000000e-01) (101, 5, 5.00000000000000000000e-01) (101, 5, 5.00000000000000000000e-01) (101, 5, 5.00000000000000000000e-01) (101, 5, 5.00000000000000000000e-01) (101, 5, 5.00000000000000000000e-01) (101, 5, 5.00000000000000000000e-01) (101, 5, 5.00000000000000000000e-01) (101, 5, 5.00000000000000000000e-01) (101, 5, 5.00000000000000000000e-01) (101, 5, 5.00000000000000000000e-01) (101, 5, 5.00000000000000000000e-01) (101, 5, 5.00000000000000000000e-01) (101, 5, 5.00000000000000000000e-01) (101, 5, 5.00000000000000000000e-01) (101, 5, 5.00000000000000000000e-01) (101, 5, 5.00000000000000000000e-01) (101, 5, 5.00000000000000000000e-01) (101, 5, 5.00000000000000000000e-01) (101, 5, 5.00000000000000000000e-01) (101, 5, 5.00000000000000000000e-01) (101, 5, 5.00000000000000000000e-01) (101, 5, 5.00000000000000000000e-01) (101, 5, 5.00000000000000000000e-01) (101, 5, 5.00000000000000000000e-01) (101, 5, 5.00000000000000000000e-01) (101, 5, 5.00000000000000000000e-01) (101, 5, 5.00000000000000000000e-01) (101, 5, 5.00000000000000000000e-01) (101, 5, 5.00000000000000000000e-01) (101, 5, 5.00000000000000000000e-01) (101, 5, 5.00000000000000000000e-01) (101, 5, 5.00000000000000000000e-01) (101, 5, 5.00000000000000000000e-01) (101, 5, 5.00000000000000000000e-01) (101, 5, 5.00000000000000000000e-01) (101, 5, 5.00000000000000000000e-01) (101, 5, 5.00000000000000000000e-01) (101, 5, 5.00000000000000000000e-01) (101, 5, 5.00000000000000000000e-01) (101, 5, 5.00000000000000000000e-01) (101, 5, 5.00000000000000000000e-01) (101, 5, 5.00000000000000000000e-01) (101, 5, 5.00000000000000000000e-01) (101, 5, 5.00000000000000000000e-01) (101, 5, 5.00000000000000000000e-01) (101, 5, 5.00000000000000000000e-01) (101, 5, 5.00000000000000000000e-01) (101, 5, 5.00000000000000000000e-01) (101, 5, 5.00000000000000000000e-01) (101, 5, 5.00000000000000000000e-01) (101, 5, 5.00000000000000000000e-01) (101, 5, 5.00000000000000000000e-01) (101, 5, 5.00000000000000000000e-01) (101, 5, 5.00000000000000000000e-01) (0, 5, 0.00000000000000000000e+00) (101, 0, 5.00000000000000000000e-01) (101, 0, 5.00000000000000000000e-01) (101, 0, 5.00000000000000000000e-01) (101, 0, 5.00000000000000000000e-01) (101, 0, 5.00000000000000000000e-01) (101, 0, 5.00000000000000000000e-01) (101, 0, 5.00000000000000000000e-01) (101, 0, 5.00000000000000000000e-01) (101, 0, 5.00000000000000000000e-01) (101, 0, 5.00000000000000000000e-01) (101, 0, 5.00000000000000000000e-01) (101, 0, 5.00000000000000000000e-01) (101, 0, 5.00000000000000000000e-01) (101, 0, 5.00000000000000000000e-01) (101, 0, 5.00000000000000000000e-01) (101, 0, 5.00000000000000000000e-01) (101, 0, 5.00000000000000000000e-01) (101, 0, 5.00000000000000000000e-01) (101, 0, 5.00000000000000000000e-01) (101, 0, 5.00000000000000000000e-01) (101, 0, 5.00000000000000000000e-01) (101, 0, 5.00000000000000000000e-01) (101, 0, 5.00000000000000000000e-01) (101, 0, 5.00000000000000000000e-01) (101, 0, 5.00000000000000000000e-01) (101, 0, 5.00000000000000000000e-01) (101, 0, 5.00000000000000000000e-01) (101, 0, 5.00000000000000000000e-01) (101, 0, 5.00000000000000000000e-01) (101, 0, 5.00000000000000000000e-01) (101, 0, 5.00000000000000000000e-01) (101, 0, 5.00000000000000000000e-01) (101, 0, 5.00000000000000000000e-01) (101, 0, 5.00000000000000000000e-01) (101, 0, 5.00000000000000000000e-01) (101, 0, 5.00000000000000000000e-01) (101, 0, 5.00000000000000000000e-01) (101, 0, 5.00000000000000000000e-01) (101, 0, 5.00000000000000000000e-01) (101, 0, 5.00000000000000000000e-01) (101, 0, 5.00000000000000000000e-01) (101, 0, 5.00000000000000000000e-01) (101, 0, 5.00000000000000000000e-01) (101, 0, 5.00000000000000000000e-01) (101, 0, 5.00000000000000000000e-01) (101, 0, 5.00000000000000000000e-01) (101, 0, 5.00000000000000000000e-01) (101, 0, 5.00000000000000000000e-01) (101, 0, 5.00000000000000000000e-01) (101, 0, 5.00000000000000000000e-01) (101, 0, 5.00000000000000000000e-01) (101, 0, 5.00000000000000000000e-01) (101, 0, 5.00000000000000000000e-01) (101, 0, 5.00000000000000000000e-01) (101, 0, 5.00000000000000000000e-01) (101, 0, 5.00000000000000000000e-01) (101, 0, 5.00000000000000000000e-01) (101, 0, 5.00000000000000000000e-01) (101, 0, 5.00000000000000000000e-01) (101, 0, 5.00000000000000000000e-01) (101, 0, 5.00000000000000000000e-01) (101, 0, 5.00000000000000000000e-01) (101, 0, 5.00000000000000000000e-01) (101, 0, 5.00000000000000000000e-01) (101, 0, 5.00000000000000000000e-01) (101, 0, 5.00000000000000000000e-01) (101, 0, 5.00000000000000000000e-01) (101, 0, 5.00000000000000000000e-01) (101, 0, 5.00000000000000000000e-01) (101, 0, 5.00000000000000000000e-01) (101, 0, 5.00000000000000000000e-01) (101, 0, 5.00000000000000000000e-01) (101, 0, 5.00000000000000000000e-01) (101, 0, 5.00000000000000000000e-01) (101, 0, 5.00000000000000000000e-01) (101, 0, 5.00000000000000000000e-01) (101, 0, 5.00000000000000000000e-01) (101, 0, 5.00000000000000000000e-01) (101, 0, 5.00000000000000000000e-01) (101, 0, 5.00000000000000000000e-01) (101, 0, 5.00000000000000000000e-01) (101, 0, 5.00000000000000000000e-01) (101, 0, 5.00000000000000000000e-01) (101, 0, 5.00000000000000000000e-01) (101, 0, 5.00000000000000000000e-01) (101, 0, 5.00000000000000000000e-01) (101, 0, 5.00000000000000000000e-01) (101, 0, 5.00000000000000000000e-01) (101, 0, 5.00000000000000000000e-01) (101, 0, 5.00000000000000000000e-01) (101, 0, 5.00000000000000000000e-01) (101, 0, 5.00000000000000000000e-01) (101, 0, 5.00000000000000000000e-01) (101, 0, 5.00000000000000000000e-01) (101, 0, 5.00000000000000000000e-01) (101, 0, 5.00000000000000000000e-01) (101, 0, 5.00000000000000000000e-01) (101, 0, 5.00000000000000000000e-01) (101, 0, 5.00000000000000000000e-01) (101, 0, 5.00000000000000000000e-01) (101, 0, 5.00000000000000000000e-01) (101, 0, 5.00000000000000000000e-01) (101, 0, 5.00000000000000000000e-01) (101, 0, 5.00000000000000000000e-01) (101, 0, 5.00000000000000000000e-01) (101, 0, 5.00000000000000000000e-01) (101, 0, 5.00000000000000000000e-01) (101, 0, 5.00000000000000000000e-01) (101, 0, 5.00000000000000000000e-01) (101, 0, 5.00000000000000000000e-01) (101, 0, 5.00000000000000000000e-01) (101, 0, 5.00000000000000000000e-01) (101, 0, 5.00000000000000000000e-01) (101, 0, 5.00000000000000000000e-01) (101, 0, 5.00000000000000000000e-01) (101, 0, 5.00000000000000000000e-01) (101, 0, 5.00000000000000000000e-01) (101, 0, 5.00000000000000000000e-01) (101, 0, 5.00000000000000000000e-01) (101, 0, 5.00000000000000000000e-01) (101, 0, 5.00000000000000000000e-01) (101, 0, 5.00000000000000000000e-01) (101, 0, 5.00000000000000000000e-01) (101, 0, 5.00000000000000000000e-01) (101, 0, 5.00000000000000000000e-01) (101, 0, 5.00000000000000000000e-01) (0, 0, 0.00000000000000000000e+00) 
connections (connected_to_neuron, weight)=(0, 1.49986242675781250000e+03) (1, -7.72098064422607421875e+00) (0, -1.10462260246276855469e+00) (1, -1.87028133869171142578e+00) (0, -5.39700365066528320312e+00) (1, 2.02002477645874023438e+00) (0, -6.96030974388122558594e-01) (1, 8.25912058353424072266e-01) (0, 3.17797279357910156250e+00) (1, 3.26753783226013183594e+00) (0, 5.16105079650878906250e+01) (1, 8.61521005630493164062e-01) (0, 7.19662964344024658203e-01) (1, -6.76502943038940429688e+00) (0, 4.97020542621612548828e-01) (1, 3.83658242225646972656e+00) (0, 2.20776557922363281250e+00) (1, 2.22881507873535156250e+00) (0, 1.50809280395507812500e+02) (1, 3.52582049369812011719e+00) (0, -1.47650194168090820312e+00) (1, 1.43041992187500000000e+00) (0, 2.25434565544128417969e+00) (1, -4.48228645324707031250e+01) (0, -1.85351371765136718750e-01) (1, -9.45824980735778808594e-01) (0, -1.50891530513763427734e+00) (1, -7.49794319272041320801e-02) (0, -1.94252846995368599892e-04) (1, 7.60948467254638671875e+00) (0, -1.87816214561462402344e+00) (1, 3.37521880865097045898e-01) (0, 1.21201988220214843750e+02) (1, 1.62226304411888122559e-01) (0, -1.16302788257598876953e-01) (1, 1.22337281703948974609e+00) (0, 1.49965844726562500000e+03) (1, -1.82637429237365722656e+00) (0, -1.45477324724197387695e-01) (1, 7.89714515209197998047e-01) (0, -2.17630934715270996094e+00) (1, -5.16707338392734527588e-02) (0, 1.46396005153656005859e+00) (1, 1.53118896484375000000e+00) (0, 2.13453359901905059814e-02) (1, 3.46452593803405761719e+00) (0, -1.15888006985187530518e-01) (1, 2.35712165832519531250e+01) (0, 1.61608062744140625000e+02) (1, 2.68521976470947265625e+00) (0, 1.09608399868011474609e+00) (1, 1.34499180316925048828e+00) (0, 1.11887825012207031250e+02) (1, 7.59805011749267578125e+00) (0, 6.22365236282348632812e+00) (1, 5.10512237548828125000e+01) (0, -2.00431132316589355469e+00) (1, 5.93695068359375000000e+00) (0, 1.26912820339202880859e+00) (1, 2.75190091133117675781e+00) (0, 1.33294177246093750000e+03) (1, -8.13390374183654785156e-01) (0, 9.72603678703308105469e-01) (1, 2.33016562461853027344e+00) (0, 3.72750892639160156250e+01) (1, 1.29942398071289062500e+02) (0, 2.31772050028666853905e-04) (1, 4.58341884613037109375e+00) (0, -3.64547193050384521484e-01) (1, 2.59131222963333129883e-01) (0, -5.57627737522125244141e-01) (1, 9.19223845005035400391e-01) (0, 1.00154244899749755859e+00) (1, 4.54934120178222656250e+00) (0, -1.87174654006958007812e+00) (1, 1.47695168852806091309e-01) (0, 3.07347369194030761719e+00) (1, 2.20638418197631835938e+00) (0, 1.20230117797851562500e+02) (1, 6.73143342137336730957e-02) (0, 1.80680179595947265625e+00) (1, 1.28174722194671630859e+00) (0, 9.92157745361328125000e+00) (1, 9.60897743701934814453e-01) (0, -4.53103423118591308594e-01) (1, 3.22318482398986816406e+00) (0, 1.93753182888031005859e+00) (1, 1.52643907070159912109e+00) (0, -1.62023162841796875000e+00) (1, 1.45015878677368164062e+01) (0, 5.52952995300292968750e+01) (1, 2.42907118797302246094e+00) (0, 3.15199340820312500000e+02) (1, 1.82573521137237548828e+00) (0, 2.38704204559326171875e+00) (1, 1.84436213970184326172e+00) (0, 8.62820739746093750000e+02) (1, -2.28413629531860351562e+00) (0, -1.89410829544067382812e+00) (1, 1.58957564830780029297e+00) (0, 1.49624609375000000000e+03) (1, 1.92632758617401123047e+00) (0, 1.67480377197265625000e+02) (1, 3.84472429752349853516e-01) (0, 1.40381515026092529297e+00) (1, 9.50133705139160156250e+00) (0, -2.54268705844879150391e-01) (1, 2.12611126899719238281e+00) (0, -5.35094586666673421860e-04) (1, 2.35242342948913574219e+00) (0, -1.00959613919258117676e-01) (1, 7.83411712646484375000e+01) (0, 2.32267212867736816406e+00) (1, 3.73672866821289062500e+00) (0, 1.85302436351776123047e+00) (1, 2.55544257164001464844e+00) (0, 1.50000000000000000000e+03) (1, -2.76002860069274902344e+00) (0, -2.69590139389038085938e+00) (1, 1.22798115015029907227e-01) (0, 1.49980639648437500000e+03) (1, -1.69568911194801330566e-01) (0, 3.87385010719299316406e+00) (1, 1.46721947193145751953e+00) (0, 6.67472900390625000000e+02) (1, 2.39338302612304687500e+00) (0, -2.16163352131843566895e-01) (1, 4.56681203842163085938e+00) (0, -5.14044713973999023438e+00) (1, -3.67795117199420928955e-02) (0, 2.34427571296691894531e-01) (1, 1.82350456714630126953e+00) (0, 4.48431825637817382812e+00) (1, 1.05150008201599121094e+00) (0, 5.78792989253997802734e-01) (1, 1.53540575504302978516e+00) (0, 1.89592218399047851562e+00) (1, 3.98786330223083496094e+00) (0, 1.49988598632812500000e+03) (1, -1.74942100048065185547e+00) (0, -1.92154830932617187500e+02) (1, 6.53120040893554687500e-01) (0, -1.19863096624612808228e-02) (1, 1.28166222572326660156e+00) (0, -8.76727199554443359375e+00) (1, 1.68119621276855468750e+00) (0, -1.34093785285949707031e+00) (1, 2.37053942680358886719e+00) (0, 4.65664386749267578125e+00) (1, -1.63645820617675781250e+01) (0, -1.33364510536193847656e+00) (1, -4.01939421892166137695e-01) (0, -5.63540101051330566406e-01) (1, 6.35188341140747070312e+00) (0, 3.31033855676651000977e-01) (1, 1.40049302577972412109e+00) (0, 1.27500820159912109375e+00) (1, 2.49971652030944824219e+00) (0, 7.48528480529785156250e-01) (1, 1.11842989921569824219e+00) (0, 6.97212759405374526978e-03) (1, 7.19597488641738891602e-02) (0, 8.63733649253845214844e-01) (1, 9.58995938301086425781e-01) (0, -2.71674346923828125000e+00) (1, 6.90404176712036132812e+00) (0, 2.90230917930603027344e+00) (1, 4.57212877273559570312e+00) (0, -6.47278308868408203125e-01) (1, 1.22409973144531250000e+01) (0, -1.19204115867614746094e+00) (1, -4.01826173067092895508e-01) (0, 6.83957993984222412109e-01) (1, 1.97936189174652099609e+00) (0, 1.48419006347656250000e+03) (1, 4.44740533828735351562e+00) (0, -8.22328662872314453125e+00) (1, 2.73609995841979980469e-01) (0, 3.20342278480529785156e+00) (1, 3.90806269645690917969e+00) (0, 8.26834640502929687500e+01) (1, 2.70116829872131347656e+00) (0, 3.96111346781253814697e-02) (1, 4.40014421939849853516e-01) (0, 2.24760398864746093750e+01) (1, 3.65999794006347656250e+00) (0, 1.32463342285156250000e+03) (1, -2.71396756172180175781e-01) (0, -2.09318280220031738281e+00) (1, -2.51631557941436767578e-01) (0, 1.49918859863281250000e+03) (1, 9.30352449417114257812e-01) (0, 6.93189453125000000000e+02) (1, 2.01858091354370117188e+00) (0, -9.82836168259382247925e-03) (1, 2.00569515228271484375e+01) (0, 6.54757320880889892578e-02) (1, 9.32092785835266113281e-01) (0, -7.54022924229502677917e-03) (1, 2.93177890777587890625e+00) (2, -3.27922910451889038086e-01) (3, -3.06918583810329437256e-02) (4, 1.40914320945739746094e-01) (5, 5.65571367740631103516e-01) (6, 8.89671862125396728516e-01) (7, 6.60984814167022705078e-01) (8, 4.64474946260452270508e-01) (9, 9.93704795837402343750e-01) (10, 9.14909124374389648438e-01) (11, 9.51045677065849304199e-02) (12, 2.35283058136701583862e-02) (13, 1.41296342015266418457e-01) (14, 4.58390176296234130859e-01) (15, 1.22432941570878028870e-02) (16, 5.47825992107391357422e-01) (17, 3.58603894710540771484e-02) (18, 7.47118115425109863281e-01) (19, 7.28729724884033203125e-01) (20, -2.77081340551376342773e-01) (21, 5.69489061832427978516e-01) (22, -1.98589079082012176514e-02) (23, 9.48672354221343994141e-01) (24, 4.34335023164749145508e-01) (25, 4.40924584865570068359e-01) (26, 5.66184103488922119141e-01) (27, 6.29887953400611877441e-02) (28, 1.03934836387634277344e+00) (29, 1.01391708850860595703e+00) (30, 1.08258211612701416016e+00) (31, 8.97676229476928710938e-01) (32, -3.07816654443740844727e-01) (33, 5.40569245815277099609e-01) (34, 8.45621049404144287109e-01) (35, 6.88155472278594970703e-01) (36, 5.09475648403167724609e-01) (37, 4.71750169992446899414e-01) (38, 6.83432519435882568359e-01) (39, 1.42218172550201416016e-02) (40, 1.12573122978210449219e+00) (41, 8.62999677658081054688e-01) (42, 7.95926451683044433594e-02) (43, 4.75188121199607849121e-02) (44, 6.19526028633117675781e-01) (45, 4.59854155778884887695e-01) (46, 1.65858185291290283203e+00) (47, 5.07309317588806152344e-01) (48, 6.50898754596710205078e-01) (49, 9.70109403133392333984e-01) (50, -3.51823091506958007812e-01) (51, -2.06841956824064254761e-02) (52, 8.45689419656991958618e-03) (53, -6.04489803314208984375e-01) (54, 9.91622865200042724609e-01) (55, 5.22779881954193115234e-01) (56, 4.38486665487289428711e-01) (57, -5.01057147979736328125e-01) (58, 9.90244925022125244141e-01) (59, 9.10666227340698242188e-01) (60, -2.68113493919372558594e-01) (61, -2.09361165761947631836e-02) (62, -2.61507600545883178711e-01) (63, -1.46710216999053955078e-01) (64, 5.29935002326965332031e-01) (65, 4.35293585062026977539e-01) (66, 1.04131318628787994385e-01) (67, 8.80688607692718505859e-01) (68, 9.69063416123390197754e-02) (69, 8.93198251724243164062e-02) (70, 9.58833277225494384766e-01) (71, -2.41133779287338256836e-01) (72, 5.65534651279449462891e-01) (73, 9.23774391412734985352e-03) (74, 4.20653045177459716797e-01) (75, 3.47725674510002136230e-02) (76, -7.76117518544197082520e-02) (77, -1.79461553692817687988e-01) (78, 4.44597274065017700195e-01) (79, 6.45787967368960380554e-03) (80, 1.06204712390899658203e+00) (81, 5.76050132513046264648e-02) (82, 1.35598734021186828613e-01) (83, 4.28099744021892547607e-03) (84, 1.33066682610660791397e-03) (85, -7.99829423427581787109e-01) (86, 4.34731930494308471680e-01) (87, -3.85844968259334564209e-02) (88, 4.90281105041503906250e-01) (89, 7.84152805805206298828e-01) (90, -1.50815457105636596680e-01) (91, 8.34970057010650634766e-01) (92, 4.82561975717544555664e-01) (93, -7.97149017453193664551e-02) (94, 5.41622042655944824219e-01) (95, -3.41760754585266113281e-01) (96, -1.37677416205406188965e-01) (97, -3.71823877096176147461e-01) (98, 5.06696939468383789062e-01) (99, 8.58667433261871337891e-01) (100, 6.03485561441630125046e-04) (101, 1.03081202507019042969e+00) (102, 2.52718120813369750977e-01) (2, 2.95492857694625854492e-01) (3, 2.14550197124481201172e-01) (4, 1.74597591161727905273e-01) (5, 6.57893121242523193359e-01) (6, 3.62226843833923339844e-01) (7, 3.91496807336807250977e-01) (8, 6.18436336517333984375e-01) (9, 4.03155893087387084961e-01) (10, 4.80990558862686157227e-01) (11, 2.63708019256591796875e+00) (12, 2.43037611246109008789e-01) (13, 2.86808222532272338867e-01) (14, 7.11666882038116455078e-01) (15, 2.99470216035842895508e-01) (16, 4.70806002616882324219e-01) (17, 2.01451167464256286621e-01) (18, 4.86869186162948608398e-01) (19, 8.99914383888244628906e-01) (20, 2.48067885637283325195e-01) (21, 1.07747817039489746094e+00) (22, 1.50114357471466064453e-01) (23, 4.06485885381698608398e-01) (24, 6.92007184028625488281e-01) (25, 6.39277935028076171875e-01) (26, 2.99630105495452880859e-01) (27, 9.55739840865135192871e-02) (28, 3.98900836706161499023e-01) (29, 3.67490112781524658203e-01) (30, 4.29918944835662841797e-01) (31, 4.46539580821990966797e-01) (32, 3.62930715084075927734e-01) (33, 9.87446308135986328125e+00) (34, 4.40782368183135986328e-01) (35, 5.64601302146911621094e-01) (36, 6.43927156925201416016e-01) (37, 5.56776762008666992188e-01) (38, 1.22850704193115234375e+00) (39, 2.07614347338676452637e-01) (40, 1.09927928447723388672e+00) (41, 8.90064954757690429688e-01) (42, -7.02508492395281791687e-03) (43, 1.38453215360641479492e-01) (44, 6.83098316192626953125e-01) (45, 5.29548704624176025391e-01) (46, -2.40273311734199523926e-01) (47, 4.83486741781234741211e-01) (48, 5.70711791515350341797e-01) (49, 4.02666121721267700195e-01) (50, 2.15194821357727050781e-01) (51, 2.02169418334960937500e-01) (52, 3.65204006433486938477e-01) (53, -4.63554747402667999268e-02) (54, 7.37274765968322753906e-01) (55, 6.17775321006774902344e-01) (56, 5.76546728610992431641e-01) (57, -2.63733983039855957031e-01) (58, 3.76635044813156127930e-01) (59, 3.94808053970336914062e-01) (60, 2.86838948726654052734e-01) (61, 3.45676660537719726562e-01) (62, 1.74598574638366699219e-01) (63, 3.67389097809791564941e-02) (64, 4.37967807054519653320e-01) (65, -8.95780697464942932129e-02) (66, 2.57700860500335693359e-01) (67, 5.30365049839019775391e-01) (68, 1.27247318625450134277e-01) (69, 6.60020634531974792480e-02) (70, 3.07279944419860839844e-01) (71, 2.08845853805541992188e-01) (72, 4.57656383514404296875e-01) (73, -4.23543244600296020508e-01) (74, 3.38757544755935668945e-01) (75, 1.48850426077842712402e-01) (76, 2.92777121067047119141e-01) (77, 2.99574643373489379883e-01) (78, 5.96908807754516601562e-01) (79, 7.51387998461723327637e-02) (80, 6.69943332672119140625e-01) (81, 1.10374137759208679199e-01) (82, 1.31636202335357666016e-01) (83, 5.17602004110813140869e-02) (84, 3.14164370298385620117e-01) (85, 3.06078940629959106445e-01) (86, 5.50386190414428710938e-01) (87, 3.14762622117996215820e-01) (88, 5.47822952270507812500e-01) (89, 8.15121293067932128906e-01) (90, 1.86616942286491394043e-01) (91, 3.66748303174972534180e-01) (92, 4.90699559450149536133e-01) (93, -1.27436637878417968750e+00) (94, 5.95470845699310302734e-01) (95, 2.76080936193466186523e-01) (96, 3.23878735303878784180e-01) (97, 2.54449874162673950195e-01) (98, 6.81627333164215087891e-01) (99, -5.37198126316070556641e-01) (100, -3.25576734542846679688e+00) (101, 1.10566042363643646240e-01) (102, 2.96173900365829467773e-01) (2, 6.07332229614257812500e-01) (3, 4.48776423931121826172e-01) (4, 4.76888507604598999023e-01) (5, -1.60701155662536621094e-01) (6, 1.50979548692703247070e-01) (7, 2.90390133857727050781e-01) (8, -1.24614574015140533447e-01) (9, 3.41495752334594726562e-01) (10, 3.21773380041122436523e-01) (11, 3.47348481416702270508e-01) (12, 4.70555603504180908203e-01) (13, 5.93404650688171386719e-01) (14, 2.39196389913558959961e-01) (15, 5.13292908668518066406e-01) (16, -1.49465024471282958984e-01) (17, 7.00275480747222900391e-01) (18, 2.77267456054687500000e-01) (19, 4.07131046056747436523e-01) (20, 5.88734030723571777344e-01) (21, 1.26166537404060363770e-01) (22, 3.47657173871994018555e-01) (23, 2.40245088934898376465e-01) (24, -3.30937914550304412842e-02) (25, 5.20966388285160064697e-03) (26, 2.03479036688804626465e-01) (27, 3.23835283517837524414e-01) (28, 3.05379241704940795898e-01) (29, 2.68647730350494384766e-01) (30, 3.47534418106079101562e-01) (31, 2.73831665515899658203e-01) (32, 7.14797437191009521484e-01) (33, -3.53981703519821166992e-02) (34, 3.56664359569549560547e-01) (35, 3.35875928401947021484e-01) (36, 1.77685767412185668945e-02) (37, -1.92507907748222351074e-01) (38, -1.60494357347488403320e-01) (39, 4.21256929636001586914e-01) (40, 4.99107933044433593750e+00) (41, 5.16961395740509033203e-01) (42, 4.08018290996551513672e-01) (43, 3.21958273649215698242e-01) (44, 1.16457313299179077148e-01) (45, -2.05930367112159729004e-01) (46, 4.25892323255538940430e-01) (47, -2.20385059714317321777e-01) (48, -2.14565247297286987305e-01) (49, 3.56796085834503173828e-01) (50, 6.87391698360443115234e-01) (51, 5.57180166244506835938e-01) (52, 3.26040178537368774414e-01) (53, 3.20676296949386596680e-01) (54, 4.29168313741683959961e-01) (55, -1.51988686993718147278e-02) (56, -3.34094524383544921875e-01) (57, -1.21821939945220947266e-01) (58, 3.67988348007202148438e-01) (59, 1.45942032337188720703e-01) (60, 6.26252949237823486328e-01) (61, 3.51001948118209838867e-01) (62, 6.93461716175079345703e-01) (63, 3.43719750642776489258e-01) (64, -3.29800784587860107422e-01) (65, -4.09972183406352996826e-02) (66, 6.36879980564117431641e-01) (67, 1.94423645734786987305e-01) (68, 3.71499001979827880859e-01) (69, 4.37669694423675537109e-01) (70, 2.81722456216812133789e-01) (71, 6.32618129253387451172e-01) (72, 4.58308577537536621094e-01) (73, -1.92660585045814514160e-01) (74, 1.19557477533817291260e-01) (75, 6.37015998363494873047e-01) (76, 3.89390617609024047852e-01) (77, 5.21631300449371337891e-01) (78, 6.65413737297058105469e-02) (79, 2.91624486446380615234e-01) (80, 4.79061126708984375000e-01) (81, 2.94430047273635864258e-01) (82, 3.16091746091842651367e-01) (83, 3.17283809185028076172e-01) (84, 6.01054728031158447266e-01) (85, 3.53910595178604125977e-01) (86, -5.58960661292076110840e-02) (87, 3.87281805276870727539e-01) (88, -2.05563560128211975098e-01) (89, 2.45131239295005798340e-01) (90, 4.17317777872085571289e-01) (91, 1.66842505335807800293e-01) (92, -2.80734717845916748047e-01) (93, -7.20294773578643798828e-01) (94, -1.53088539838790893555e-01) (95, 5.95666587352752685547e-01) (96, 5.82603394985198974609e-01) (97, 7.75336086750030517578e-01) (98, -1.77371412515640258789e-01) (99, 3.30586582422256469727e-01) (100, -2.30066943168640136719e+00) (101, 2.78580951690673828125e+00) (102, 2.09631681442260742188e-01) (2, 6.40485346317291259766e-01) (3, 3.37805390357971191406e-01) (4, 7.05577015876770019531e-01) (5, -2.13741526007652282715e-01) (6, 7.73988664150238037109e-01) (7, 8.87235224246978759766e-01) (8, 7.16793656349182128906e-01) (9, 7.95601308345794677734e-01) (10, 6.69520199298858642578e-01) (11, 9.34494972229003906250e-01) (12, 1.93268895149230957031e-01) (13, 1.06262016296386718750e+00) (14, 4.04911115765571594238e-02) (15, 3.19764852523803710938e-01) (16, 3.80316346883773803711e-01) (17, 3.21979075670242309570e-01) (18, 8.59095692634582519531e-01) (19, 7.10641562938690185547e-01) (20, 7.21853077411651611328e-01) (21, 9.92230027914047241211e-02) (22, 3.20268094539642333984e-01) (23, 8.23664903640747070312e-01) (24, 3.21918696165084838867e-01) (25, 2.01839017868041992188e+00) (26, 7.53830134868621826172e-01) (27, 6.33340775966644287109e-01) (28, 3.09501695632934570312e+00) (29, 6.58816039562225341797e-01) (30, 2.79214322566986083984e-01) (31, 7.11520135402679443359e-01) (32, 6.04143679141998291016e-01) (33, 5.46977408230304718018e-02) (34, 6.80795013904571533203e-01) (35, 6.13802969455718994141e-01) (36, 4.06841412186622619629e-02) (37, -3.17031294107437133789e-02) (38, 4.18727755546569824219e-01) (39, 4.00919228792190551758e-01) (40, -8.04374122619628906250e+00) (41, 5.21571338176727294922e-01) (42, 7.60426700115203857422e-01) (43, 9.59850609302520751953e-01) (44, -2.33060851693153381348e-01) (45, 3.39954048395156860352e-01) (46, 2.53414623439311981201e-02) (47, 5.05902349948883056641e-01) (48, 4.36807483434677124023e-01) (49, 8.13919186592102050781e-01) (50, 7.03867316246032714844e-01) (51, 3.33019018173217773438e-01) (52, 8.69908392429351806641e-01) (53, 8.41453015804290771484e-01) (54, 6.05154335498809814453e-01) (55, -1.57554075121879577637e-01) (56, 3.22241842746734619141e-01) (57, 2.35671997070312500000e+00) (58, 6.58055841922760009766e-01) (59, 6.29077196121215820312e-01) (60, 5.57943165302276611328e-01) (61, 2.28910669684410095215e-01) (62, 6.10451936721801757812e-01) (63, 8.86856198310852050781e-01) (64, 4.46164488792419433594e-01) (65, 1.19224178791046142578e+00) (66, 3.50082814693450927734e-01) (67, 6.70921921730041503906e-01) (68, 9.00272846221923828125e-01) (69, 7.41910040378570556641e-01) (70, 6.39714360237121582031e-01) (71, 5.63298165798187255859e-01) (72, 3.03026854991912841797e-01) (73, 2.29406499862670898438e+00) (74, 3.08425843715667724609e-01) (75, 2.66169756650924682617e-01) (76, 9.42937910556793212891e-01) (77, 2.58895486593246459961e-01) (78, -4.63695585727691650391e-01) (79, 1.03301477432250976562e+00) (80, 5.33805787563323974609e-01) (81, 1.10279798507690429688e+00) (82, 9.79136347770690917969e-01) (83, 8.26223909854888916016e-01) (84, 2.47703596949577331543e-01) (85, 6.71357750892639160156e-01) (86, -2.21965059638023376465e-01) (87, 3.01447808742523193359e-01) (88, 4.88144904375076293945e-01) (89, 5.39624512195587158203e-01) (90, 3.09608012437820434570e-01) (91, 6.36478602886199951172e-01) (92, 4.10866498947143554688e-01) (93, 9.12924408912658691406e-01) (94, 4.08736646175384521484e-01) (95, 5.20324945449829101562e-01) (96, 3.28971177339553833008e-01) (97, 5.70860207080841064453e-01) (98, 3.10281813144683837891e-01) (99, 6.86121821403503417969e-01) (100, 5.31641340255737304688e+00) (101, 1.29243052005767822266e+00) (102, 1.03114581108093261719e+00) (2, 8.54341313242912292480e-03) (3, 8.25115293264389038086e-02) (4, -3.51516664028167724609e-01) (5, 4.96343404054641723633e-01) (6, 3.87908011674880981445e-01) (7, 5.36440968513488769531e-01) (8, 1.19593954086303710938e+00) (9, -3.81209939718246459961e-01) (10, 4.13710147142410278320e-01) (11, -4.10593450069427490234e-01) (12, -1.91713348031044006348e-01) (13, 1.30377686023712158203e+00) (14, 1.48132121562957763672e+00) (15, 4.83529344201087951660e-02) (16, 3.77092838287353515625e-01) (17, -1.03319779038429260254e-01) (18, 5.83905220031738281250e-01) (19, 6.71708583831787109375e-01) (20, 1.08687803149223327637e-01) (21, 1.16378653049468994141e+00) (22, -1.42218083143234252930e-01) (23, 4.32108521461486816406e-01) (24, 3.44012081623077392578e-01) (25, 8.46839785575866699219e-01) (26, 2.44232684373855590820e-01) (27, -2.90184289216995239258e-01) (28, 3.31244505941867828369e-02) (29, 2.47637882828712463379e-01) (30, -1.00077986717224121094e+00) (31, 4.38885003328323364258e-01) (32, 1.09867326915264129639e-01) (33, 2.97685176134109497070e-01) (34, 3.80869001150131225586e-01) (35, 5.52507340908050537109e-01) (36, 3.26789826154708862305e-01) (37, 4.32381093502044677734e-01) (38, 2.36598178744316101074e-01) (39, -2.50924319028854370117e-01) (40, 2.87574231624603271484e-01) (41, 1.03180480003356933594e+00) (42, -4.05133634805679321289e-01) (43, -2.56238490343093872070e-01) (44, 3.06635290384292602539e-01) (45, 3.76931071281433105469e-01) (46, -2.63506340980529785156e+00) (47, 3.67549031972885131836e-01) (48, 3.39774459600448608398e-01) (49, 4.48655337095260620117e-01) (50, 2.34217401593923568726e-02) (51, -5.48816680908203125000e-01) (52, -1.66650507599115371704e-02) (53, -4.35582906007766723633e-01) (54, 1.00516760349273681641e+00) (55, 7.99146443605422973633e-02) (56, 2.97606319189071655273e-01) (57, -6.42836153507232666016e-01) (58, 3.80359143018722534180e-01) (59, 3.20984065532684326172e-01) (60, -4.05167136341333389282e-03) (61, -1.28757163882255554199e-01) (62, 9.86283738166093826294e-03) (63, -3.64196985960006713867e-01) (64, 3.11890393495559692383e-01) (65, -1.30184993147850036621e-01) (66, -2.07885116338729858398e-01) (67, 9.34482455253601074219e-01) (68, -2.85427212715148925781e-01) (69, -2.71248281002044677734e-01) (70, 3.57608258724212646484e-01) (71, 2.01272457838058471680e-01) (72, 7.20405042171478271484e-01) (73, -6.74454867839813232422e-01) (74, 3.14560949802398681641e-01) (75, 6.20441250503063201904e-02) (76, 2.83457040786743164062e+00) (77, -7.11313113570213317871e-02) (78, -7.65236437320709228516e-01) (79, -3.41089606285095214844e-01) (80, 1.07158982753753662109e+00) (81, -2.44058176875114440918e-01) (82, -3.71877193450927734375e-01) (83, -4.19921815395355224609e-01) (84, -1.71668991446495056152e-01) (85, 8.21146517992019653320e-02) (86, 3.31107266247272491455e-02) (87, -4.50299717485904693604e-02) (88, 3.66505503654479980469e-01) (89, 1.30167782306671142578e+00) (90, -1.71070069074630737305e-01) (91, 3.84720295667648315430e-01) (92, 2.11265116930007934570e-01) (93, -1.22844970226287841797e+00) (94, 3.14647257328033447266e-01) (95, 1.22472643852233886719e-01) (96, -1.73676341772079467773e-01) (97, 1.37843191623687744141e-01) (98, 2.46905416250228881836e-01) (99, 4.56075131893157958984e-01) (100, -2.01775622367858886719e+00) (101, 1.09611988067626953125e-01) (102, -5.54709792137145996094e-01) (2, -1.61249160766601562500e-01) (3, 4.30848091840744018555e-01) (4, 8.00667330622673034668e-02) (5, 8.15863549709320068359e-01) (6, 5.46627163887023925781e-01) (7, 5.79832434654235839844e-01) (8, 8.54614794254302978516e-01) (9, 5.72840929031372070312e-01) (10, 5.23522377014160156250e-01) (11, 5.50981126725673675537e-02) (12, 4.41912829875946044922e-01) (13, 7.33662918210029602051e-02) (14, 8.34521055221557617188e-01) (15, 4.58480834960937500000e-01) (16, 9.12510573863983154297e-01) (17, 3.65304917097091674805e-01) (18, 4.61938560009002685547e-01) (19, 4.77902173995971679688e-01) (20, -1.40059813857078552246e-01) (21, 5.63713312149047851562e-01) (22, 3.41869682073593139648e-01) (23, 6.04190826416015625000e-01) (24, 5.50208747386932373047e-01) (25, 9.34666037559509277344e-01) (26, -1.39488622546195983887e-01) (27, 3.55157032608985900879e-02) (28, 4.72371816635131835938e-01) (29, 5.16301572322845458984e-01) (30, 6.99141621589660644531e-01) (31, 4.89943295717239379883e-01) (32, -1.54795512557029724121e-01) (33, 7.88726806640625000000e-01) (34, 4.58352118730545043945e-01) (35, 1.25414039939641952515e-02) (36, 7.86709427833557128906e-01) (37, 9.16453242301940917969e-01) (38, 9.24717009067535400391e-01) (39, 4.25681978464126586914e-01) (40, 8.29782962799072265625e-01) (41, 4.78196531534194946289e-01) (42, 2.24056079983711242676e-01) (43, 5.22046498954296112061e-02) (44, 8.50699365139007568359e-01) (45, 8.73981237411499023438e-01) (46, -1.06627190113067626953e+00) (47, 8.73349487781524658203e-01) (48, 7.61831164360046386719e-01) (49, 5.58209657669067382812e-01) (50, -8.58452618122100830078e-02) (51, 3.75993132591247558594e-01) (52, -1.31867110729217529297e-01) (53, -2.51411050558090209961e-01) (54, 6.28081560134887695312e-01) (55, 7.94089496135711669922e-01) (56, 8.13113093376159667969e-01) (57, 2.47663900256156921387e-01) (58, 4.87613379955291748047e-01) (59, 5.08349597454071044922e-01) (60, -8.75762626528739929199e-02) (61, 4.32660609483718872070e-01) (62, -1.43685653805732727051e-01) (63, -1.66183859109878540039e-01) (64, 9.53701615333557128906e-01) (65, 4.99681234359741210938e-01) (66, 4.36156839132308959961e-01) (67, 4.36354190111160278320e-01) (68, 7.74121135473251342773e-02) (69, 4.43707853555679321289e-02) (70, 6.33016765117645263672e-01) (71, -1.56383842229843139648e-01) (72, 6.48438453674316406250e-01) (73, 2.38503053784370422363e-01) (74, 9.51672673225402832031e-01) (75, 4.81546640396118164062e-01) (76, 5.80545663833618164062e-02) (77, 3.39498430490493774414e-01) (78, 9.93951022624969482422e-01) (79, 1.17035023868083953857e-01) (80, 7.56349265575408935547e-01) (81, 9.15264040231704711914e-02) (82, 9.48180817067623138428e-03) (83, 3.49128954112529754639e-02) (84, 3.68797570466995239258e-01) (85, 2.27206051349639892578e-01) (86, 8.10891151428222656250e-01) (87, 3.51490408182144165039e-01) (88, 9.17321920394897460938e-01) (89, 6.04435384273529052734e-01) (90, 4.10208731889724731445e-01) (91, 5.70486247539520263672e-01) (92, 7.98516154289245605469e-01) (93, -7.68516212701797485352e-02) (94, 9.14804160594940185547e-01) (95, -2.10869729518890380859e-01) (96, 4.41739648580551147461e-01) (97, -1.42236188054084777832e-01) (98, 6.25882029533386230469e-01) (99, 2.47113689780235290527e-01) (100, 2.78354249894618988037e-02) (101, 5.43092787265777587891e-01) (102, 1.51545673608779907227e-01) (2, 3.49822677671909332275e-02) (3, 1.04160018265247344971e-01) (4, 1.95178955793380737305e-01) (5, 7.60459005832672119141e-01) (6, 7.36961722373962402344e-01) (7, 7.17413485050201416016e-01) (8, 8.56727302074432373047e-01) (9, 8.30524682998657226562e-01) (10, 7.36264824867248535156e-01) (11, 2.70611673593521118164e-01) (12, 3.28072786331176757812e-01) (13, 2.01211795210838317871e-01) (14, 7.96877861022949218750e-01) (15, 2.88919001817703247070e-01) (16, 1.91764366626739501953e+00) (17, 2.38772436976432800293e-01) (18, 5.41928350925445556641e-01) (19, 3.04985344409942626953e-01) (20, -4.11265939474105834961e-02) (21, 5.76371073722839355469e-01) (22, 2.22236782312393188477e-01) (23, 7.06277251243591308594e-01) (24, 7.21662521362304687500e-01) (25, 5.94734430313110351562e-01) (26, -1.35103046894073486328e+00) (27, 3.44175279140472412109e-01) (28, 8.16394507884979248047e-01) (29, 7.17546463012695312500e-01) (30, 5.53897440433502197266e-01) (31, 3.77222537994384765625e-01) (32, 1.27550229430198669434e-01) (33, 9.45501267910003662109e-01) (34, 7.98781633377075195312e-01) (35, 6.18490755558013916016e-01) (36, 7.94038355350494384766e-01) (37, 7.52283394336700439453e-01) (38, 1.16705513000488281250e+00) (39, 2.90363848209381103516e-01) (40, 8.79062712192535400391e-01) (41, 6.94970726966857910156e-01) (42, 4.04918640851974487305e-01) (43, 2.90892928838729858398e-01) (44, 8.22970628738403320312e-01) (45, 1.09440577030181884766e+00) (46, 6.92517757415771484375e-01) (47, 9.98532474040985107422e-01) (48, 9.63141679763793945312e-01) (49, 8.03188741207122802734e-01) (50, 6.22253585606813430786e-03) (51, 1.74822777509689331055e-01) (52, -7.11106657981872558594e-02) (53, 7.49429240822792053223e-02) (54, 8.58294606208801269531e-01) (55, 7.19842135906219482422e-01) (56, -2.23609399795532226562e+00) (57, 9.61029529571533203125e-01) (58, 6.40418887138366699219e-01) (59, 7.72909045219421386719e-01) (60, -1.39321153983473777771e-02) (61, 2.80567348003387451172e-01) (62, 5.06631433963775634766e-02) (63, -6.55636548995971679688e-01) (64, 1.08114457130432128906e+00) (65, 7.21697807312011718750e+00) (66, 2.28948995471000671387e-01) (67, 6.02717816829681396484e-01) (68, 3.95847678184509277344e-01) (69, 3.23957085609436035156e-01) (70, 8.10470759868621826172e-01) (71, 2.43254867382347583771e-03) (72, 4.87698823213577270508e-01) (73, 2.39483445882797241211e-01) (74, 8.37890386581420898438e-01) (75, 2.15657070279121398926e-01) (76, 2.57980048656463623047e-01) (77, 2.27651029825210571289e-01) (78, 8.75087976455688476562e-01) (79, 3.22756767272949218750e-01) (80, 7.92976438999176025391e-01) (81, 3.23556631803512573242e-01) (82, 3.23000639677047729492e-01) (83, 3.02987664937973022461e-01) (84, 2.57038682699203491211e-01) (85, 3.15905898809432983398e-01) (86, 8.63228976726531982422e-01) (87, 2.41890326142311096191e-01) (88, 1.01032578945159912109e+00) (89, 8.97681355476379394531e-01) (90, 1.42964601516723632812e-01) (91, 7.57788300514221191406e-01) (92, 1.02869284152984619141e+00) (93, 2.46137320995330810547e-01) (94, 1.09134578704833984375e+00) (95, -3.19995135068893432617e-02) (96, 2.13310435414314270020e-01) (97, 1.26741841435432434082e-01) (98, 8.30460548400878906250e-01) (99, 4.17385578155517578125e+00) (100, 1.26283884048461914062e-01) (101, 6.52578651905059814453e-01) (102, 3.44006985425949096680e-01) (2, 2.29683429002761840820e-01) (3, 2.03172847628593444824e-01) (4, 1.90269708633422851562e-01) (5, 8.66329073905944824219e-01) (6, 4.53408211469650268555e-01) (7, 4.82154220342636108398e-01) (8, 7.37976193428039550781e-01) (9, 3.44471246004104614258e-01) (10, 4.79172050952911376953e-01) (11, 1.06743907928466796875e+01) (12, 2.51168757677078247070e-01) (13, 3.43306303024291992188e-01) (14, 9.39885199069976806641e-01) (15, 3.24525743722915649414e-01) (16, 6.88181161880493164062e-01) (17, 1.90445184707641601562e-01) (18, 4.98906046152114868164e-01) (19, 5.53338885307312011719e-01) (20, 4.03254210948944091797e-01) (21, 2.55194139480590820312e+00) (22, 2.86813348531723022461e-01) (23, 4.56686377525329589844e-01) (24, 9.15837168693542480469e-01) (25, 9.28905606269836425781e-01) (26, 2.58333027362823486328e-01) (27, 2.47577458620071411133e-01) (28, 9.86532792448997497559e-02) (29, 4.06461268663406372070e-01) (30, 2.48966529965400695801e-01) (31, 3.71299594640731811523e-01) (32, 5.28429806232452392578e-01) (33, 5.90588569641113281250e+00) (34, 4.27524209022521972656e-01) (35, 5.78681707382202148438e-01) (36, 7.22655892372131347656e-01) (37, 7.93837189674377441406e-01) (38, 7.54301071166992187500e+00) (39, 2.75947868824005126953e-01) (40, 1.27123034000396728516e+00) (41, 7.90620446205139160156e-01) (42, 2.86846220493316650391e-01) (43, 1.80866315960884094238e-01) (44, 7.25582540035247802734e-01) (45, 6.74346506595611572266e-01) (46, -9.34510752558708190918e-02) (47, 7.14312255382537841797e-01) (48, 7.14861452579498291016e-01) (49, 5.18014669418334960938e-01) (50, 5.23750007152557373047e-01) (51, 2.50898420810699462891e-01) (52, 4.10034567117691040039e-01) (53, 2.32017338275909423828e-01) (54, 7.84649014472961425781e-01) (55, 8.31025838851928710938e-01) (56, 7.17212438583374023438e-01) (57, -4.17684108018875122070e-01) (58, 3.53292346000671386719e-01) (59, 4.80817019939422607422e-01) (60, 3.46944689750671386719e-01) (61, 3.11900019645690917969e-01) (62, 4.04974579811096191406e-01) (63, 1.19156107306480407715e-01) (64, 6.49312555789947509766e-01) (65, -1.55994176864624023438e-01) (66, 1.99164181947708129883e-01) (67, 5.89606881141662597656e-01) (68, 2.13784277439117431641e-01) (69, 1.41963347792625427246e-01) (70, 3.49082529544830322266e-01) (71, 3.65031808614730834961e-01) (72, 5.49075424671173095703e-01) (73, 1.95058435201644897461e-01) (74, 5.99352478981018066406e-01) (75, 3.22074443101882934570e-01) (76, 4.30432021617889404297e-01) (77, 2.96882927417755126953e-01) (78, 8.02446603775024414062e-01) (79, 1.65944710373878479004e-01) (80, 6.66367292404174804688e-01) (81, 2.52058565616607666016e-01) (82, 1.80808693170547485352e-01) (83, 2.09917873144149780273e-01) (84, 1.82657077908515930176e-01) (85, 1.83359652757644653320e-01) (86, 7.27230668067932128906e-01) (87, 3.49345028400421142578e-01) (88, 7.72504568099975585938e-01) (89, 8.23499560356140136719e-01) (90, 3.00776481628417968750e-01) (91, 3.17893385887145996094e-01) (92, 7.02321946620941162109e-01) (93, -2.16899029910564422607e-02) (94, 6.14944458007812500000e-01) (95, 3.33367079496383666992e-01) (96, 1.93934261798858642578e-01) (97, 4.23248350620269775391e-01) (98, 9.10439252853393554688e-01) (99, 1.71582385897636413574e-01) (100, -5.66294479370117187500e+00) (101, 9.33959364891052246094e-01) (102, 2.66880601644515991211e-01) (2, -1.83447927236557006836e-01) (3, 6.39840722084045410156e-01) (4, 3.59682589769363403320e-01) (5, 1.07055127620697021484e+00) (6, 3.88332068920135498047e-01) (7, 3.65815758705139160156e-01) (8, 9.70938324928283691406e-01) (9, 4.55359488725662231445e-01) (10, 4.65881854295730590820e-01) (11, -2.54806666634976863861e-03) (12, 6.32959663867950439453e-01) (13, 1.69863805174827575684e-01) (14, 1.02085375785827636719e+00) (15, 5.13229310512542724609e-01) (16, 1.01304852962493896484e+00) (17, 5.38063943386077880859e-01) (18, 2.67059952020645141602e-01) (19, 4.20878946781158447266e-01) (20, 2.67115328460931777954e-02) (21, 8.92972886562347412109e-01) (22, 6.72562956809997558594e-01) (23, 5.24934709072113037109e-01) (24, 7.04049289226531982422e-01) (25, 1.09224367141723632812e+00) (26, 5.25197207927703857422e-01) (27, 4.87961649894714355469e-01) (28, 5.66999852657318115234e-01) (29, 4.92999523878097534180e-01) (30, 8.80469381809234619141e-01) (31, 4.66273188591003417969e-01) (32, -1.04600220918655395508e-01) (33, 9.98562335968017578125e-01) (34, 3.63009661436080932617e-01) (35, -1.16020236164331436157e-02) (36, 1.07217442989349365234e+00) (37, 1.22904670238494873047e+00) (38, 9.27630841732025146484e-01) (39, 5.17008423805236816406e-01) (40, 5.42733848094940185547e-01) (41, 4.56458032131195068359e-01) (42, 3.90985071659088134766e-01) (43, 3.19368392229080200195e-01) (44, 1.07916414737701416016e+00) (45, 1.00282466411590576172e+00) (46, 6.49672627449035644531e-01) (47, 9.33301091194152832031e-01) (48, 8.63652825355529785156e-01) (49, 5.49414038658142089844e-01) (50, -1.20573844760656356812e-02) (51, 5.18783807754516601562e-01) (52, 5.49393355846405029297e-01) (53, -1.13730199635028839111e-01) (54, 3.39251816272735595703e-01) (55, 1.10979092121124267578e+00) (56, 1.01143956184387207031e+00) (57, 1.46838200092315673828e+00) (58, 4.35309022665023803711e-01) (59, 4.00355845689773559570e-01) (60, 2.46168151497840881348e-02) (61, 6.72297656536102294922e-01) (62, -1.64923802018165588379e-01) (63, -6.25397190451622009277e-02) (64, 9.37871515750885009766e-01) (65, 4.06950950622558593750e-01) (66, 6.21986746788024902344e-01) (67, 4.94596719741821289062e-01) (68, 3.83800029754638671875e-01) (69, 4.93181675672531127930e-01) (70, 4.08304631710052490234e-01) (71, -3.68313342332839965820e-02) (72, 7.24802732467651367188e-01) (73, 3.03472340106964111328e-01) (74, 1.12538683414459228516e+00) (75, 6.74628674983978271484e-01) (76, 3.48847419023513793945e-01) (77, 6.43404901027679443359e-01) (78, 1.24053549766540527344e+00) (79, 4.23054486513137817383e-01) (80, 4.98403996229171752930e-01) (81, 3.40612143278121948242e-01) (82, 4.12314414978027343750e-01) (83, 3.82013291120529174805e-01) (84, 6.76699638366699218750e-01) (85, 5.07925271987915039062e-01) (86, 1.03078877925872802734e+00) (87, 5.97167730331420898438e-01) (88, 8.65713834762573242188e-01) (89, 2.08775207400321960449e-01) (90, 4.88598167896270751953e-01) (91, 3.40682893991470336914e-01) (92, 9.62303459644317626953e-01) (93, 2.64404624700546264648e-01) (94, 9.21312749385833740234e-01) (95, -1.50437235832214355469e-01) (96, 6.23828232288360595703e-01) (97, -1.34993821382522583008e-01) (98, 8.67663919925689697266e-01) (99, 1.21212279796600341797e+00) (100, 2.59817630052566528320e-01) (101, 7.34098792076110839844e-01) (102, 4.40960228443145751953e-01) (2, 4.00469690561294555664e-01) (3, 6.92777633666992187500e-01) (4, 2.81941443681716918945e-01) (5, -7.69890397787094116211e-02) (6, 6.57388985157012939453e-01) (7, 5.58716595172882080078e-01) (8, -3.17649573087692260742e-01) (9, 7.65351712703704833984e-01) (10, 5.82954525947570800781e-01) (11, -6.36389374732971191406e-01) (12, 6.23311042785644531250e-01) (13, 2.25150656700134277344e+00) (14, -2.62578308582305908203e-01) (15, 5.35752713680267333984e-01) (16, -1.58717527985572814941e-01) (17, 5.37528038024902343750e-01) (18, 6.27266943454742431641e-01) (19, 6.08055949211120605469e-01) (20, 3.85597348213195800781e-01) (21, -7.70033746957778930664e-02) (22, 6.12252354621887207031e-01) (23, 7.52782881259918212891e-01) (24, 9.36288014054298400879e-03) (25, -2.70840317010879516602e-01) (26, 4.14615184068679809570e-01) (27, 2.84897446632385253906e-01) (28, -4.94585454463958740234e-01) (29, 6.54223978519439697266e-01) (30, 6.27074718475341796875e-01) (31, 6.33717000484466552734e-01) (32, 4.20378744602203369141e-01) (33, -1.61910295486450195312e-01) (34, 5.90520799160003662109e-01) (35, 5.52601158618927001953e-01) (36, -7.80890882015228271484e-02) (37, -8.69175642728805541992e-02) (38, 1.91048488020896911621e-01) (39, 6.56446635723114013672e-01) (40, 6.97580814361572265625e-01) (41, 9.29312944412231445312e-01) (42, 2.51123040914535522461e-01) (43, 2.73502618074417114258e-01) (44, -8.85765552520751953125e-02) (45, -2.24661916494369506836e-01) (46, -8.32390010356903076172e-01) (47, -2.32012584805488586426e-01) (48, -8.46090689301490783691e-02) (49, 5.99512457847595214844e-01) (50, 2.55097508430480957031e-01) (51, 6.03760242462158203125e-01) (52, -1.14796829223632812500e+00) (53, 3.14031422138214111328e-01) (54, 1.09752130508422851562e+00) (55, 7.97301903367042541504e-02) (56, -1.33436709642410278320e-01) (57, -9.45164382457733154297e-01) (58, 5.78663289546966552734e-01) (59, 6.86717033386230468750e-01) (60, 2.89365768432617187500e-01) (61, 4.96897846460342407227e-01) (62, 3.95198583602905273438e-01) (63, 1.90520018339157104492e-01) (64, -1.62472665309906005859e-01) (65, -7.63443768024444580078e-01) (66, 5.47361075878143310547e-01) (67, 4.61438745260238647461e-01) (68, 3.98524910211563110352e-01) (69, 4.02305781841278076172e-01) (70, 6.11830174922943115234e-01) (71, 3.04521352052688598633e-01) (72, 6.27979755401611328125e-01) (73, -1.00563788414001464844e+00) (74, -4.52935993671417236328e-02) (75, 5.26064157485961914062e-01) (76, -1.15928472951054573059e-02) (77, 5.36605596542358398438e-01) (78, -1.95599526166915893555e-01) (79, 2.93979614973068237305e-01) (80, 1.00978851318359375000e+00) (81, 4.66234236955642700195e-01) (82, 3.84189009666442871094e-01) (83, 2.45925500988960266113e-01) (84, 6.47600710391998291016e-01) (85, -5.54927468299865722656e-01) (86, -1.32557296752929687500e+00) (87, 5.81702113151550292969e-01) (88, -2.24098160862922668457e-01) (89, -4.23745870590209960938e-01) (90, 6.34080290794372558594e-01) (91, 6.59549772739410400391e-01) (92, -2.32173070311546325684e-01) (93, 3.50340723991394042969e-01) (94, -1.06922850012779235840e-01) (95, 3.26851040124893188477e-01) (96, 4.48227971792221069336e-01) (97, 2.65385359525680541992e-01) (98, 1.16046488285064697266e-01) (99, 7.23157167434692382812e-01) (100, 4.17094826698303222656e-01) (101, -1.38400048017501831055e-01) (102, 2.09415286779403686523e-01) (2, 3.63384425640106201172e-01) (3, 2.65271097421646118164e-01) (4, 4.26664263010025024414e-01) (5, 1.12389302253723144531e+00) (6, 2.40061879158020019531e-01) (7, 3.30676138401031494141e-01) (8, 1.00697004795074462891e+00) (9, 2.62459665536880493164e-01) (10, 1.57289624214172363281e-01) (11, 4.43232893943786621094e-01) (12, 2.89790630340576171875e-01) (13, 6.67494416236877441406e-01) (14, 1.06539857387542724609e+00) (15, 3.21568876504898071289e-01) (16, 8.14670801162719726562e-01) (17, 3.92191737890243530273e-01) (18, 2.53045529127120971680e-01) (19, 4.19798552989959716797e-01) (20, 5.07955253124237060547e-01) (21, 9.11540448665618896484e-01) (22, 3.71291816234588623047e-01) (23, 2.61596351861953735352e-01) (24, 7.44191348552703857422e-01) (25, 8.72543692588806152344e-01) (26, 1.82856798171997070312e-01) (27, 4.43467646837234497070e-01) (28, 7.25801289081573486328e-02) (29, 1.83021426200866699219e-01) (30, 4.69995945692062377930e-01) (31, 3.41070234775543212891e-01) (32, 3.99310111999511718750e-01) (33, 6.51302099227905273438e-01) (34, 1.55040532350540161133e-01) (35, 3.78397524356842041016e-01) (36, 6.59586608409881591797e-01) (37, 8.74676704406738281250e-01) (38, 6.84966623783111572266e-01) (39, 2.86734163761138916016e-01) (40, 4.85198116302490234375e+00) (41, 6.59042596817016601562e-01) (42, 4.52822238206863403320e-01) (43, 3.60092341899871826172e-01) (44, 1.08478868007659912109e+00) (45, 7.70055949687957763672e-01) (46, 2.45630234479904174805e-01) (47, 8.54488432407379150391e-01) (48, 6.24476850032806396484e-01) (49, 2.18804270029067993164e-01) (50, 4.03540283441543579102e-01) (51, 3.98028373718261718750e-01) (52, 1.47666156291961669922e-01) (53, 1.93547919392585754395e-01) (54, 5.70923864841461181641e-01) (55, 9.82031583786010742188e-01) (56, 7.98129916191101074219e-01) (57, -1.89848914742469787598e-01) (58, 2.84261047840118408203e-01) (59, 1.98054417967796325684e-01) (60, 5.48874557018280029297e-01) (61, 3.23767185211181640625e-01) (62, 4.04063671827316284180e-01) (63, 2.30619043111801147461e-01) (64, 7.82239496707916259766e-01) (65, -6.43765974044799804688e+00) (66, 2.47615739703178405762e-01) (67, 3.46197098493576049805e-01) (68, 4.66357380151748657227e-01) (69, 4.33710098266601562500e-01) (70, 1.90869197249412536621e-01) (71, 3.63115072250366210938e-01) (72, 5.26832401752471923828e-01) (73, -3.58148157596588134766e-01) (74, -7.57741975784301757812e+00) (75, 2.79012024402618408203e-01) (76, 4.19807076454162597656e-01) (77, 3.01929801702499389648e-01) (78, 8.03265810012817382812e-01) (79, 3.42467516660690307617e-01) (80, 6.23411238193511962891e-01) (81, 3.22017490863800048828e-01) (82, 3.14657688140869140625e-01) (83, 4.58969891071319580078e-01) (84, 2.05399155616760253906e-01) (85, 2.23012939095497131348e-01) (86, 7.95772314071655273438e-01) (87, 3.50990533828735351562e-01) (88, 7.93993592262268066406e-01) (89, 4.46456313133239746094e-01) (90, 3.88194262981414794922e-01) (91, 2.14608952403068542480e-01) (92, 9.12289917469024658203e-01) (93, -6.94532871246337890625e-01) (94, 8.41853022575378417969e-01) (95, 3.99945288896560668945e-01) (96, 2.89935290813446044922e-01) (97, 4.93493318557739257812e-01) (98, 7.56724178791046142578e-01) (99, 1.78656324744224548340e-01) (100, -1.82528018951416015625e+00) (101, 4.54119414091110229492e-01) (102, 2.51933664083480834961e-01) (2, 1.81610119342803955078e+00) (3, 9.11147892475128173828e-02) (4, 1.04281401634216308594e+00) (5, 9.94488298892974853516e-01) (6, 1.63615059852600097656e+00) (7, 5.66185593605041503906e-01) (8, 4.27514553070068359375e+00) (9, 1.50018668174743652344e+00) (10, 1.61970555782318115234e+00) (11, 1.82658410072326660156e+00) (12, 4.36724245548248291016e-01) (13, 1.61484470367431640625e+01) (14, -4.36905920505523681641e-01) (15, 6.60454928874969482422e-01) (16, 1.44251716136932373047e+00) (17, 5.98513364791870117188e-01) (18, 1.06974387168884277344e+00) (19, -3.44770169258117675781e+00) (20, 1.81951260566711425781e+00) (21, -1.27126111984252929688e+01) (22, 5.47181785106658935547e-01) (23, 1.66319060325622558594e+00) (24, 4.39711523056030273438e+00) (25, 1.36886954307556152344e+00) (26, 5.02070367336273193359e-01) (27, 1.02519667148590087891e+00) (28, 1.75136947631835937500e+00) (29, 1.82331991195678710938e+00) (30, 2.69878238439559936523e-01) (31, 1.54398477077484130859e+00) (32, 1.76879000663757324219e+00) (33, 2.67709398269653320312e+00) (34, 1.87436246871948242188e+00) (35, 3.04653110504150390625e+01) (36, 9.70801830291748046875e-01) (37, 1.07646524906158447266e+00) (38, 2.86389160156250000000e+00) (39, 4.98913556337356567383e-01) (40, 1.61077082157135009766e+00) (41, 1.54727017879486083984e+00) (42, 1.06774580478668212891e+00) (43, 1.67779779434204101562e+00) (44, 2.00117770582437515259e-02) (45, 2.48975658416748046875e+00) (46, -1.19739913940429687500e+00) (47, 2.83332109451293945312e+00) (48, 2.78035402297973632812e+00) (49, 1.57596504688262939453e+00) (50, 1.77185857295989990234e+00) (51, 5.19525885581970214844e-01) (52, 1.54029512405395507812e+00) (53, 3.19913673400878906250e+00) (54, 1.95621085166931152344e+00) (55, -2.24742516875267028809e-01) (56, -3.13509464263916015625e+01) (57, 7.20384240150451660156e-01) (58, 1.57406353950500488281e+00) (59, 1.58993339538574218750e+00) (60, 1.66410613059997558594e+00) (61, 4.60123658180236816406e-01) (62, 1.82994353771209716797e+00) (63, 3.78675150871276855469e+00) (64, 2.73420882225036621094e+00) (65, -1.35352077484130859375e+01) (66, 4.97602075338363647461e-01) (67, 1.82122719287872314453e+00) (68, 9.90958750247955322266e-01) (69, 9.73170518875122070312e-01) (70, 1.49987149238586425781e+00) (71, 1.63455307483673095703e+00) (72, -2.07299500703811645508e-01) (73, 7.12787210941314697266e-01) (74, 9.06106114387512207031e-01) (75, 6.91789031028747558594e-01) (76, 4.66596126556396484375e-01) (77, 3.88062506914138793945e-01) (78, -2.12701424956321716309e-01) (79, 1.07386493682861328125e+00) (80, 1.76259732246398925781e+00) (81, 1.08418333530426025391e+00) (82, 4.32190179824829101562e-01) (83, 9.77371335029602050781e-01) (84, 6.69454097747802734375e-01) (85, 1.84456455707550048828e+00) (86, -1.05269050598144531250e+01) (87, 4.81436550617218017578e-01) (88, 2.54446411132812500000e+00) (89, 1.95799553394317626953e+00) (90, 4.11642819643020629883e-01) (91, 1.91484522819519042969e+00) (92, 2.69042372703552246094e+00) (93, 4.58059571683406829834e-02) (94, 2.80426287651062011719e+00) (95, 1.75859940052032470703e+00) (96, 4.21224802732467651367e-01) (97, 1.88961911201477050781e+00) (98, 2.69581341743469238281e+00) (99, 1.39352726936340332031e+00) (100, 3.50355982780456542969e-01) (101, 5.40783524513244628906e-01) (102, 1.86907148361206054688e+00) (2, -3.13248187303543090820e-02) (3, 4.80684161186218261719e-01) (4, 1.00148193538188934326e-01) (5, 1.74806535243988037109e-01) (6, 6.86998069286346435547e-01) (7, 2.56948947906494140625e-01) (8, -1.13016672432422637939e-01) (9, 6.67679071426391601562e-01) (10, 6.81183457374572753906e-01) (11, 2.66380250453948974609e-01) (12, 6.20985805988311767578e-01) (13, 2.61258065700531005859e-01) (14, -2.59570833295583724976e-02) (15, 6.15949571132659912109e-01) (16, 6.05999112129211425781e-01) (17, 4.82806056737899780273e-01) (18, 6.04317784309387207031e-01) (19, 7.33942449092864990234e-01) (20, -6.95805549621582031250e-02) (21, -3.32027405500411987305e-01) (22, 5.19459068775177001953e-01) (23, 7.18262612819671630859e-01) (24, -2.33392957597970962524e-02) (25, 1.97751772403717041016e+00) (26, 5.19855082035064697266e-01) (27, 1.28633886575698852539e-01) (28, 3.50505411624908447266e-01) (29, 8.07546198368072509766e-01) (30, 6.78026735782623291016e-01) (31, 6.73323094844818115234e-01) (32, -6.11872151494026184082e-02) (33, 1.51567727327346801758e-01) (34, 6.01521015167236328125e-01) (35, 4.73817646503448486328e-01) (36, -3.65288816392421722412e-02) (37, 1.31918147206306457520e-01) (38, 4.18303385376930236816e-02) (39, 5.05889654159545898438e-01) (40, 3.64185661077499389648e-01) (41, 5.03891944885253906250e-01) (42, 1.15459710359573364258e-01) (43, 1.97507932782173156738e-01) (44, 1.03923045098781585693e-01) (45, 2.73458398878574371338e-02) (46, 8.56898367404937744141e-01) (47, -2.63030976057052612305e-01) (48, -2.82192438840866088867e-01) (49, 7.41419911384582519531e-01) (50, -2.02654246240854263306e-02) (51, 6.19796991348266601562e-01) (52, 9.40509736537933349609e-01) (53, 2.51354783773422241211e-01) (54, 5.93045592308044433594e-01) (55, -1.34304657578468322754e-01) (56, -9.13422882556915283203e-01) (57, -2.32216231524944305420e-02) (58, 6.53672933578491210938e-01) (59, 7.46900498867034912109e-01) (60, -1.94895304739475250244e-02) (61, 6.73969328403472900391e-01) (62, 4.64847981929779052734e-02) (63, -5.11346459388732910156e-02) (64, -2.93790131807327270508e-01) (65, -2.27578699588775634766e-01) (66, 5.59863865375518798828e-01) (67, 6.76027476787567138672e-01) (68, 2.45665997266769409180e-01) (69, 2.03399106860160827637e-01) (70, 7.49517738819122314453e-01) (71, -2.69012451171875000000e-02) (72, 1.05974996089935302734e+00) (73, 1.44006848335266113281e-01) (74, 1.65143206715583801270e-01) (75, 5.10851263999938964844e-01) (76, 3.19156162440776824951e-02) (77, 4.96563732624053955078e-01) (78, 2.01191037893295288086e-01) (79, 1.98584452271461486816e-01) (80, 7.01435446739196777344e-01) (81, 1.34518951177597045898e-01) (82, 6.51861429214477539062e-02) (83, 2.23505988717079162598e-01) (84, 6.63004398345947265625e-01) (85, 7.43945837020874023438e-01) (86, 1.48625567555427551270e-01) (87, 5.68060517311096191406e-01) (88, -1.74760609865188598633e-01) (89, 8.02424073219299316406e-01) (90, 4.79750931262969970703e-01) (91, 7.26394832134246826172e-01) (92, -2.14620754122734069824e-01) (93, 2.10806995630264282227e-01) (94, -2.92968004941940307617e-01) (95, -1.08674146234989166260e-01) (96, 4.79124307632446289062e-01) (97, 3.04671134799718856812e-02) (98, -2.53128468990325927734e-01) (99, 7.18136489391326904297e-01) (100, -6.88110589981079101562e-02) (101, 6.50931894779205322266e-01) (102, 5.00000953674316406250e-01) (2, 1.51019483804702758789e-01) (3, 4.51362818479537963867e-01) (4, 1.99117124080657958984e-01) (5, -2.75130480527877807617e-01) (6, -1.92777998745441436768e-02) (7, 1.73298850655555725098e-01) (8, -2.57226049900054931641e-01) (9, 1.11516878008842468262e-01) (10, -1.92772343754768371582e-01) (11, 2.70157426595687866211e-01) (12, 3.80323976278305053711e-01) (13, 5.86235404014587402344e-01) (14, -1.73947647213935852051e-01) (15, 4.53264772891998291016e-01) (16, -5.02764046192169189453e-01) (17, 3.58846306800842285156e-01) (18, 2.44466587901115417480e-01) (19, 2.56363242864608764648e-01) (20, 2.49220415949821472168e-01) (21, -4.77920114994049072266e-01) (22, 4.74445372819900512695e-01) (23, 9.68043580651283264160e-02) (24, -4.81869995594024658203e-01) (25, -3.34234297275543212891e-01) (26, 6.81904628872871398926e-02) (27, 2.10396155714988708496e-01) (28, 7.58118331432342529297e-02) (29, -1.70720085501670837402e-01) (30, 4.21855419874191284180e-01) (31, -8.96766558289527893066e-02) (32, 2.43945032358169555664e-01) (33, -3.11558395624160766602e-01) (34, -1.33966371417045593262e-01) (35, 2.40169554948806762695e-01) (36, -4.57053810358047485352e-01) (37, -2.78763860464096069336e-01) (38, -3.47380191087722778320e-01) (39, 4.88768368959426879883e-01) (40, 2.93055087327957153320e-01) (41, 3.47333818674087524414e-01) (42, 3.17389488220214843750e-01) (43, 1.53588876128196716309e-01) (44, -2.12421864271163940430e-01) (45, -4.47807818651199340820e-01) (46, 5.20019531250000000000e-01) (47, -4.13035809993743896484e-01) (48, -5.81957340240478515625e-01) (49, 8.60321298241615295410e-02) (50, 1.86216518282890319824e-01) (51, 3.84546965360641479492e-01) (52, 1.51345625519752502441e-01) (53, 1.92142069339752197266e-01) (54, 2.11297810077667236328e-01) (55, -4.10529792308807373047e-01) (56, -4.65642631053924560547e-01) (57, -9.55927431583404541016e-01) (58, -5.12300804257392883301e-02) (59, -1.69678598642349243164e-01) (60, 1.89622506499290466309e-01) (61, 3.71458023786544799805e-01) (62, 2.92499005794525146484e-01) (63, 1.52107879519462585449e-01) (64, -5.82896292209625244141e-01) (65, -3.06959059089422225952e-02) (66, 3.23504924774169921875e-01) (67, -4.47025489807128906250e+00) (68, 2.10768163204193115234e-01) (69, 3.24588239192962646484e-01) (70, -1.75111413002014160156e-01) (71, 3.56586843729019165039e-01) (72, 5.53342223167419433594e-01) (73, -1.37432110309600830078e+00) (74, -6.21569275856018066406e-01) (75, 4.10380840301513671875e-01) (76, 3.04413169622421264648e-01) (77, 4.77686941623687744141e-01) (78, -2.40012258291244506836e-01) (79, 2.82481491565704345703e-01) (80, 1.76916122436523437500e-01) (81, 2.40166321396827697754e-01) (82, 2.02639654278755187988e-01) (83, 1.76362827420234680176e-01) (84, 3.19760948419570922852e-01) (85, 1.63513615727424621582e-01) (86, -2.91438549757003784180e-01) (87, 3.25052857398986816406e-01) (88, -5.95724821090698242188e-01) (89, 1.28951221704483032227e-01) (90, 3.53358000516891479492e-01) (91, -1.60985082387924194336e-01) (92, -4.87767249345779418945e-01) (93, 3.47743630409240722656e-02) (94, -4.80542153120040893555e-01) (95, 3.20903599262237548828e-01) (96, 4.73062813282012939453e-01) (97, 2.49357253313064575195e-01) (98, -4.32666450738906860352e-01) (99, 9.39685702323913574219e-02) (100, -2.36135587096214294434e-01) (101, 9.78729069232940673828e-01) (102, 1.95762425661087036133e-01) (2, -2.20485031604766845703e-01) (3, 6.29067897796630859375e-01) (4, -3.56877110898494720459e-02) (5, -2.46832624077796936035e-01) (6, 4.41397875547409057617e-01) (7, 4.26736414432525634766e-01) (8, -1.75097718834877014160e-01) (9, 3.21055799722671508789e-01) (10, 3.90533059835433959961e-01) (11, -3.11744026839733123779e-02) (12, 6.96075439453125000000e-01) (13, -6.88474178314208984375e-02) (14, -2.41995379328727722168e-01) (15, 6.11384809017181396484e-01) (16, -4.53331887722015380859e-01) (17, 6.13901853561401367188e-01) (18, 3.57416868209838867188e-01) (19, 3.71577739715576171875e-01) (20, -1.43329590559005737305e-01) (21, -2.76572763919830322266e-01) (22, 6.45045936107635498047e-01) (23, 3.56902271509170532227e-01) (24, -4.17916893959045410156e-01) (25, -3.24213594198226928711e-01) (26, 2.96109735965728759766e-01) (27, -2.84170694649219512939e-02) (28, 4.48015809059143066406e-01) (29, 4.45173978805541992188e-01) (30, 6.57817542552947998047e-01) (31, 2.99547612667083740234e-01) (32, -1.27761691808700561523e-01) (33, -4.17672634124755859375e-01) (34, 1.94649115204811096191e-01) (35, 3.74821245670318603516e-01) (36, -3.44752877950668334961e-01) (37, -8.05045142769813537598e-02) (38, -2.94324219226837158203e-01) (39, 7.30374097824096679688e-01) (40, 3.48123550415039062500e-01) (41, 4.89361047744750976562e-01) (42, -5.75943887233734130859e-02) (43, -5.25827258825302124023e-02) (44, -1.00279077887535095215e-01) (45, -3.93676549196243286133e-01) (46, 3.50409388542175292969e-01) (47, -3.58248919248580932617e-01) (48, -4.62279289960861206055e-01) (49, 3.24850648641586303711e-01) (50, -2.42617979645729064941e-01) (51, 5.07044196128845214844e-01) (52, 2.61245995759963989258e-01) (53, -2.00259730219841003418e-01) (54, 5.18483042716979980469e-01) (55, -1.67368978261947631836e-01) (56, -3.85456889867782592773e-01) (57, -5.53525030612945556641e-01) (58, 2.13538005948066711426e-01) (59, 3.64098370075225830078e-01) (60, -1.18503309786319732666e-01) (61, 6.53873622417449951172e-01) (62, -2.03472927212715148926e-01) (63, -1.56063837930560112000e-02) (64, -3.69442582130432128906e-01) (65, 2.72375166416168212891e-01) (66, 6.53095722198486328125e-01) (67, 1.76854565739631652832e-01) (68, 1.01642973721027374268e-01) (69, 9.29709449410438537598e-02) (70, 4.76469933986663818359e-01) (71, -2.80154913663864135742e-01) (72, 6.08188152313232421875e-01) (73, -4.69834804534912109375e-01) (74, -3.92532259225845336914e-01) (75, 5.84937870502471923828e-01) (76, 1.10149361193180084229e-01) (77, 6.60218834877014160156e-01) (78, -1.07059963047504425049e-01) (79, 2.81913131475448608398e-02) (80, 4.53972250223159790039e-01) (81, 3.51060107350349426270e-02) (82, 1.44716724753379821777e-01) (83, 8.91017913818359375000e-02) (84, 6.01392686367034912109e-01) (85, 4.48575198650360107422e-01) (86, -1.81271806359291076660e-01) (87, 7.22268819808959960938e-01) (88, -3.38528603315353393555e-01) (89, -3.14224767684936523438e+00) (90, 7.75500178337097167969e-01) (91, 4.79004204273223876953e-01) (92, -4.62101310491561889648e-01) (93, -1.08857797458767890930e-02) (94, -3.93569529056549072266e-01) (95, -2.62712210416793823242e-01) (96, 5.54931998252868652344e-01) (97, -2.32648983597755432129e-01) (98, -4.86730933189392089844e-01) (99, 1.98557659983634948730e-01) (100, -2.84520424902439117432e-02) (101, -5.67262697219848632812e+00) (102, -1.32704747375100851059e-03) (2, 1.56037598848342895508e-01) (3, 4.72455978393554687500e-01) (4, 2.24694103002548217773e-01) (5, -1.32679373025894165039e-01) (6, 3.88937070965766906738e-02) (7, 1.48843809962272644043e-01) (8, -3.68576139211654663086e-01) (9, 8.72281938791275024414e-02) (10, 6.39503821730613708496e-02) (11, 2.06264600157737731934e-01) (12, 3.32980453968048095703e-01) (13, 8.52766782045364379883e-02) (14, -1.80761143565177917480e-01) (15, 3.00131380558013916016e-01) (16, -3.53032171726226806641e-01) (17, 3.22926074266433715820e-01) (18, 2.81519919633865356445e-01) (19, 3.74567002058029174805e-01) (20, 1.59675419330596923828e-01) (21, -3.46908092498779296875e-01) (22, 4.90969032049179077148e-01) (23, 1.59281179308891296387e-01) (24, -4.95268940925598144531e-01) (25, -6.35375738143920898438e-01) (26, 1.54614999890327453613e-01) (27, 3.32914173603057861328e-01) (28, -5.07433041930198669434e-02) (29, 1.19249403476715087891e-01) (30, 2.46413037180900573730e-01) (31, 1.35896829888224601746e-02) (32, 1.84698209166526794434e-01) (33, -4.21364486217498779297e-01) (34, -1.74478515982627868652e-01) (35, 1.90929204225540161133e-01) (36, -4.08881038427352905273e-01) (37, -1.38115271925926208496e-01) (38, -4.00440037250518798828e-01) (39, 4.55244094133377075195e-01) (40, 2.24133580923080444336e-01) (41, 1.66982516646385192871e-01) (42, 1.88173860311508178711e-01) (43, 2.51593917608261108398e-01) (44, -1.66735187172889709473e-01) (45, -4.54163014888763427734e-01) (46, 4.54718291759490966797e-01) (47, -4.65766072273254394531e-01) (48, -4.32101815938949584961e-01) (49, 8.33646133542060852051e-02) (50, 2.34013557434082031250e-01) (51, 4.70603317022323608398e-01) (52, 8.05987566709518432617e-02) (53, 4.15089651942253112793e-02) (54, 1.27118140459060668945e-01) (55, -4.39830690622329711914e-01) (56, -3.87736380100250244141e-01) (57, -1.62776544690132141113e-01) (58, -6.57616034150123596191e-02) (59, 7.51242414116859436035e-02) (60, 1.88164427876472473145e-01) (61, 3.21308165788650512695e-01) (62, 1.50754153728485107422e-01) (63, -3.04175224155187606812e-02) (64, -5.59360861778259277344e-01) (65, -6.09196424484252929688e-02) (66, 4.97019350528717041016e-01) (67, -1.95838427543640136719e+00) (68, 2.09571555256843566895e-01) (69, 2.76087045669555664062e-01) (70, -8.90752766281366348267e-03) (71, 2.77449995279312133789e-01) (72, 4.18662309646606445312e-01) (73, 1.04045724868774414062e+00) (74, -1.16291844844818115234e+00) (75, 4.81116414070129394531e-01) (76, 2.93518602848052978516e-01) (77, 4.88880395889282226562e-01) (78, -1.94880485534667968750e-01) (79, 1.56848341226577758789e-01) (80, 2.06841349601745605469e-01) (81, 1.34967684745788574219e-01) (82, 1.87060177326202392578e-01) (83, 3.39525312185287475586e-01) (84, 2.99563646316528320312e-01) (85, 7.47740268707275390625e-02) (86, -3.88649940490722656250e-01) (87, 4.53884035348892211914e-01) (88, -4.18860226869583129883e-01) (89, -3.82258109748363494873e-02) (90, 3.94256919622421264648e-01) (91, -4.31088954210281372070e-02) (92, -5.86141586303710937500e-01) (93, 9.94837284088134765625e-02) (94, -5.15867829322814941406e-01) (95, 2.43884444236755371094e-01) (96, 4.60626304149627685547e-01) (97, 2.08835154771804809570e-01) (98, -4.17652517557144165039e-01) (99, 1.14209214225411415100e-02) (100, -3.22922021150588989258e-01) (101, -3.64912480115890502930e-01) (102, 3.93987923860549926758e-01) (2, 1.31554853916168212891e+00) (3, 9.13806036114692687988e-02) (4, 1.14109373092651367188e+00) (5, 5.64166665077209472656e-01) (6, 1.27494370937347412109e+00) (7, 1.12639880180358886719e+00) (8, 4.32553815841674804688e+00) (9, 1.31822013854980468750e+00) (10, 1.34629225730895996094e+00) (11, 7.59205937385559082031e-01) (12, 1.40605792403221130371e-01) (13, 3.61219358444213867188e+00) (14, 5.02317130565643310547e-01) (15, 1.49064898490905761719e-01) (16, 3.25553417205810546875e-01) (17, 1.25130683183670043945e-01) (18, 1.01705646514892578125e+00) (19, -1.44995629787445068359e+00) (20, 1.36278522014617919922e+00) (21, -1.11216060817241668701e-01) (22, 1.92718684673309326172e-01) (23, 1.43206775188446044922e+00) (24, 1.61568188667297363281e+00) (25, 9.92091596126556396484e-01) (26, -5.94851970672607421875e-01) (27, 1.19570612907409667969e+00) (28, 1.36758577823638916016e+00) (29, 1.44001376628875732422e+00) (30, 1.19148068130016326904e-01) (31, -5.12780523300170898438e+00) (32, 1.41563105583190917969e+00) (33, 2.11515259742736816406e+00) (34, 1.26071739196777343750e+00) (35, 1.28538990020751953125e+00) (36, 6.06020569801330566406e-01) (37, 5.77432036399841308594e-01) (38, 2.29886651039123535156e+00) (39, 1.90444529056549072266e-01) (40, 1.57827174663543701172e+00) (41, 1.22347724437713623047e+00) (42, 1.30531275272369384766e+00) (43, 1.22783255577087402344e+00) (44, -5.47347486019134521484e-01) (45, 2.06493282318115234375e+00) (46, -1.26642191410064697266e+00) (47, 2.05385017395019531250e+00) (48, 2.08901667594909667969e+00) (49, 1.38434100151062011719e+00) (50, 1.39209115505218505859e+00) (51, 1.87582895159721374512e-01) (52, 1.01119196414947509766e+00) (53, 1.14711248874664306641e+00) (54, 1.40375185012817382812e+00) (55, -4.19753581285476684570e-01) (56, 1.53441727161407470703e+00) (57, 8.09021413326263427734e-01) (58, 1.28267621994018554688e+00) (59, 1.36562490463256835938e+00) (60, 1.32642555236816406250e+00) (61, 1.13186635076999664307e-01) (62, 1.44901144504547119141e+00) (63, 1.27212285995483398438e+00) (64, 2.20972871780395507812e+00) (65, -2.04213953018188476562e+00) (66, 2.29155391454696655273e-01) (67, 1.34215795993804931641e+00) (68, 1.23191177845001220703e+00) (69, 1.23176515102386474609e+00) (70, 1.32044458389282226562e+00) (71, 1.46133053302764892578e+00) (72, 1.45380198955535888672e-02) (73, 2.68937706947326660156e-01) (74, 7.61882722377777099609e-01) (75, 2.00534746050834655762e-01) (76, 9.64168012142181396484e-01) (77, 9.23293381929397583008e-02) (78, -4.49781686067581176758e-01) (79, 1.27925717830657958984e+00) (80, 1.28709363937377929688e+00) (81, 1.20390152931213378906e+00) (82, 1.57622754573822021484e+00) (83, 1.17417407035827636719e+00) (84, 2.51197427511215209961e-01) (85, -2.24538251757621765137e-01) (86, -6.68911218643188476562e-01) (87, -2.34481971710920333862e-02) (88, 2.10069799423217773438e+00) (89, 1.33665692806243896484e+00) (90, 1.10234968364238739014e-01) (91, 1.39797747135162353516e+00) (92, 2.17260837554931640625e+00) (93, 1.44625139236450195312e+00) (94, 2.17213535308837890625e+00) (95, 1.39510023593902587891e+00) (96, 1.40971362590789794922e-01) (97, 1.38538932800292968750e+00) (98, 2.08057737350463867188e+00) (99, 8.52017462253570556641e-01) (100, 7.35883951187133789062e-01) (101, 2.08885386586189270020e-01) (102, 1.39260733127593994141e+00) (2, -2.38203570246696472168e-01) (3, 3.83647799491882324219e-01) (4, 7.87585824728012084961e-02) (5, 9.33971822261810302734e-01) (6, 6.19371533393859863281e-01) (7, 5.34599363803863525391e-01) (8, 7.79633820056915283203e-01) (9, 5.22554636001586914062e-01) (10, 6.27029538154602050781e-01) (11, 9.93958413600921630859e-02) (12, 4.21430677175521850586e-01) (13, 3.81033830344676971436e-02) (14, 7.26008355617523193359e-01) (15, 4.54573959112167358398e-01) (16, 8.40887129306793212891e-01) (17, 3.04121881723403930664e-01) (18, 2.71715134382247924805e-01) (19, 5.74919641017913818359e-01) (20, -1.19550079107284545898e-01) (21, 7.67093062400817871094e-01) (22, 3.77152293920516967773e-01) (23, 4.73757833242416381836e-01) (24, 6.45330011844635009766e-01) (25, 7.51647293567657470703e-01) (26, -7.06827044486999511719e-02) (27, 5.85801862180233001709e-02) (28, 4.97364044189453125000e-01) (29, 5.95646858215332031250e-01) (30, 6.56048476696014404297e-01) (31, 6.30350768566131591797e-01) (32, -1.10213950276374816895e-01) (33, 8.71607005596160888672e-01) (34, 5.43357014656066894531e-01) (35, 1.67888298630714416504e-01) (36, 7.70319581031799316406e-01) (37, 9.09788787364959716797e-01) (38, 9.13188219070434570312e-01) (39, 3.53476315736770629883e-01) (40, 4.41618800163269042969e-01) (41, 5.08516788482666015625e-01) (42, 1.87658980488777160645e-01) (43, 1.57354816794395446777e-01) (44, 9.67816770076751708984e-01) (45, 9.29474711418151855469e-01) (46, -7.38024175167083740234e-01) (47, 7.57286548614501953125e-01) (48, 7.47204959392547607422e-01) (49, 5.54676592350006103516e-01) (50, -9.56221818923950195312e-02) (51, 4.09836590290069580078e-01) (52, 4.79282319545745849609e-01) (53, -2.35006719827651977539e-01) (54, 7.26711928844451904297e-01) (55, 7.64265775680541992188e-01) (56, 8.46287727355957031250e-01) (57, 2.25286781787872314453e-01) (58, 4.84658181667327880859e-01) (59, 5.79479455947875976562e-01) (60, -1.66101276874542236328e-01) (61, 4.03367251157760620117e-01) (62, -1.20472602546215057373e-01) (63, -9.91016775369644165039e-02) (64, 7.86601543426513671875e-01) (65, 1.24288730323314666748e-01) (66, 4.97607380151748657227e-01) (67, 4.57586318254470825195e-01) (68, 1.77794292569160461426e-01) (69, 1.11322671175003051758e-01) (70, 5.76511025428771972656e-01) (71, -1.12158998847007751465e-01) (72, 6.61420166492462158203e-01) (73, 1.53257548809051513672e-01) (74, 8.77168297767639160156e-01) (75, 4.14425551891326904297e-01) (76, 4.05659638345241546631e-02) (77, 4.26926046609878540039e-01) (78, 1.01912903785705566406e+00) (79, 1.04832239449024200439e-01) (80, 6.32350146770477294922e-01) (81, 9.63638126850128173828e-02) (82, 3.21142636239528656006e-02) (83, 1.86357468366622924805e-01) (84, 4.26541328430175781250e-01) (85, 1.88843041658401489258e-01) (86, 9.66495513916015625000e-01) (87, 4.58910554647445678711e-01) (88, 8.85529994964599609375e-01) (89, 5.43039679527282714844e-01) (90, 4.07408565282821655273e-01) (91, 4.71510916948318481445e-01) (92, 8.90780687332153320312e-01) (93, 8.10810774564743041992e-02) (94, 8.04149031639099121094e-01) (95, -6.78033530712127685547e-02) (96, 4.11820292472839355469e-01) (97, -2.01352074742317199707e-01) (98, 6.03589355945587158203e-01) (99, 4.93420809507369995117e-01) (100, 5.94601593911647796631e-02) (101, 7.13159978389739990234e-01) (102, 6.15310072898864746094e-02) (2, 5.16926586627960205078e-01) (3, 3.46511811017990112305e-01) (4, 2.14692026376724243164e-01) (5, 1.10739827156066894531e+00) (6, 4.74058002233505249023e-01) (7, 4.65297818183898925781e-01) (8, 8.10850679874420166016e-01) (9, 3.72797697782516479492e-01) (10, 4.60793495178222656250e-01) (11, 1.86089351773262023926e-01) (12, 3.62998574972152709961e-01) (13, 6.06870532035827636719e-01) (14, 1.05384206771850585938e+00) (15, 3.54487955570220947266e-01) (16, 6.54837310314178466797e-01) (17, 4.29540574550628662109e-01) (18, 3.94154936075210571289e-01) (19, 6.18967473506927490234e-01) (20, 5.20868003368377685547e-01) (21, 7.21903085708618164062e-01) (22, 2.99356967210769653320e-01) (23, 2.72105723619461059570e-01) (24, 8.77563774585723876953e-01) (25, 7.10006654262542724609e-01) (26, 3.46045583486557006836e-01) (27, 2.87418574094772338867e-01) (28, 1.61231473088264465332e-01) (29, 3.12397927045822143555e-01) (30, 5.72512745857238769531e-01) (31, 3.88084769248962402344e-01) (32, 3.30782175064086914062e-01) (33, 6.94877386093139648438e-01) (34, 4.56211715936660766602e-01) (35, 6.56175673007965087891e-01) (36, 7.76524424552917480469e-01) (37, 9.08713459968566894531e-01) (38, 7.07603037357330322266e-01) (39, 3.55242908000946044922e-01) (40, 4.86568498611450195312e+00) (41, 6.09324812889099121094e-01) (42, 2.56572455167770385742e-01) (43, 2.24622473120689392090e-01) (44, 8.70403766632080078125e-01) (45, 6.92650735378265380859e-01) (46, 2.32440710067749023438e-01) (47, 8.74872922897338867188e-01) (48, 6.90044999122619628906e-01) (49, 3.79336655139923095703e-01) (50, 5.62637865543365478516e-01) (51, 3.43487173318862915039e-01) (52, 4.04390275478363037109e-01) (53, 2.77294553816318511963e-02) (54, 9.26670670509338378906e-01) (55, 7.47129797935485839844e-01) (56, 6.37677371501922607422e-01) (57, -3.30175518989562988281e-01) (58, 2.57525891065597534180e-01) (59, 4.92772817611694335938e-01) (60, 4.44265872240066528320e-01) (61, 3.38521599769592285156e-01) (62, 5.55639982223510742188e-01) (63, 1.14760503172874450684e-01) (64, 9.99611139297485351562e-01) (65, -1.09362757205963134766e+00) (66, 3.15972536802291870117e-01) (67, 3.85457485914230346680e-01) (68, 1.21418818831443786621e-01) (69, 2.19092160463333129883e-01) (70, 3.12027364969253540039e-01) (71, 4.59885865449905395508e-01) (72, 5.52468776702880859375e-01) (73, -3.80579590797424316406e-01) (74, -7.65464210510253906250e+00) (75, 3.31678986549377441406e-01) (76, 3.10680478811264038086e-01) (77, 3.28761994838714599609e-01) (78, 8.70227754116058349609e-01) (79, 1.96102410554885864258e-01) (80, 7.40500628948211669922e-01) (81, 4.00865048170089721680e-01) (82, 8.98371785879135131836e-02) (83, 2.62670308351516723633e-01) (84, 2.35339671373367309570e-01) (85, 3.66384983062744140625e-01) (86, 1.15040957927703857422e+00) (87, 3.17630618810653686523e-01) (88, 6.43423855304718017578e-01) (89, 5.10422706604003906250e-01) (90, 2.96809375286102294922e-01) (91, 4.58744078874588012695e-01) (92, 9.78833198547363281250e-01) (93, -9.50184822082519531250e-01) (94, 6.03433668613433837891e-01) (95, 5.24339914321899414062e-01) (96, 2.80308336019515991211e-01) (97, 5.52853047847747802734e-01) (98, 7.61602163314819335938e-01) (99, 2.55973637104034423828e-01) (100, -4.37761008739471435547e-01) (101, -6.26997852325439453125e+00) (102, 4.73787665367126464844e-01) (2, 1.65046989917755126953e-01) (3, 3.28077346086502075195e-01) (4, 3.26251626014709472656e-01) (5, -2.01436385512351989746e-01) (6, -1.97778910398483276367e-01) (7, 3.11736553907394409180e-01) (8, -4.46587234735488891602e-01) (9, 1.67123377323150634766e-01) (10, 8.87906476855278015137e-02) (11, 1.91493794322013854980e-01) (12, 3.87770175933837890625e-01) (13, 2.37137302756309509277e-01) (14, -2.53080517053604125977e-01) (15, 2.87158638238906860352e-01) (16, -4.25989180803298950195e-01) (17, 2.88981676101684570312e-01) (18, -2.70607858896255493164e-01) (19, 4.16402548551559448242e-01) (20, 2.67163306474685668945e-01) (21, -3.79509270191192626953e-01) (22, 3.66968929767608642578e-01) (23, 7.32125574722886085510e-03) (24, -3.80951225757598876953e-01) (25, -4.60739016532897949219e-01) (26, 3.31534072756767272949e-02) (27, 3.49447965621948242188e-01) (28, 7.49479532241821289062e-02) (29, -1.44285172224044799805e-01) (30, 3.43845486640930175781e-01) (31, -4.66299742460250854492e-01) (32, 3.55668455362319946289e-01) (33, -3.23449850082397460938e-01) (34, 8.34377668797969818115e-03) (35, 1.19001001119613647461e-01) (36, -4.03309941291809082031e-01) (37, -1.60755246877670288086e-01) (38, -4.75388675928115844727e-01) (39, 3.85040223598480224609e-01) (40, 3.13569307327270507812e-01) (41, 1.39116615056991577148e-01) (42, 3.22516798973083496094e-01) (43, 2.30497509241104125977e-01) (44, -1.41922995448112487793e-01) (45, -4.79733377695083618164e-01) (46, 6.22383415699005126953e-01) (47, -5.34735441207885742188e-01) (48, -4.58352863788604736328e-01) (49, 1.78071245551109313965e-01) (50, 3.69902342557907104492e-01) (51, 2.70254403352737426758e-01) (52, 1.01099155843257904053e-01) (53, 1.26136302947998046875e-01) (54, 8.18570256233215332031e-02) (55, -2.68950492143630981445e-01) (56, -4.23774272203445434570e-01) (57, -5.26710301637649536133e-02) (58, -5.85367977619171142578e-02) (59, 5.53820356726646423340e-02) (60, 2.79199510812759399414e-01) (61, 3.42744469642639160156e-01) (62, 2.36155390739440917969e-01) (63, 1.42851829528808593750e-01) (64, -4.45534229278564453125e-01) (65, 1.92450769245624542236e-02) (66, 4.50838565826416015625e-01) (67, -2.72432637214660644531e+00) (68, 2.04868823289871215820e-01) (69, 2.43993803858757019043e-01) (70, -5.79348532482981681824e-03) (71, 3.02506476640701293945e-01) (72, 4.34940159320831298828e-01) (73, 7.17441797256469726562e-01) (74, -1.07483315467834472656e+00) (75, 3.45280140638351440430e-01) (76, 3.22957307100296020508e-01) (77, 2.82380133867263793945e-01) (78, -2.01876565814018249512e-01) (79, 2.11938157677650451660e-01) (80, 2.53053128719329833984e-01) (81, 3.02389442920684814453e-01) (82, 2.39209726452827453613e-01) (83, 2.99247205257415771484e-01) (84, 4.12960112094879150391e-01) (85, 1.30957305431365966797e-01) (86, -2.08759158849716186523e-01) (87, 3.44468474388122558594e-01) (88, -4.88690286874771118164e-01) (89, 4.09752735868096351624e-03) (90, 4.90070134401321411133e-01) (91, -1.00964590907096862793e-01) (92, -5.17062604427337646484e-01) (93, 1.95198953151702880859e-01) (94, -5.23331284523010253906e-01) (95, 2.11661174893379211426e-01) (96, 3.33309650421142578125e-01) (97, 1.50356680154800415039e-01) (98, -3.97236943244934082031e-01) (99, 1.60416569560766220093e-02) (100, -1.41750440001487731934e-01) (101, -1.41672563552856445312e+00) (102, 4.50496345758438110352e-01) (2, 4.98415172100067138672e-01) (3, 3.86088252067565917969e-01) (4, 3.81314933300018310547e-01) (5, -2.47983723878860473633e-01) (6, 4.52646732330322265625e-01) (7, 4.17607843875885009766e-01) (8, -2.36304238438606262207e-01) (9, 4.71403211355209350586e-01) (10, 4.19188290834426879883e-01) (11, 3.33495646715164184570e-01) (12, 3.80252450704574584961e-01) (13, 4.75784540176391601562e-01) (14, -2.92954683303833007812e-01) (15, 3.90449523925781250000e-01) (16, -2.29951888322830200195e-01) (17, 4.24496233463287353516e-01) (18, 4.62487250566482543945e-01) (19, 3.69098246097564697266e-01) (20, 4.55752819776535034180e-01) (21, -1.60787269473075866699e-01) (22, 3.91924619674682617188e-01) (23, 4.22049999237060546875e-01) (24, -3.96749466657638549805e-01) (25, -2.67141044139862060547e-01) (26, 2.56074130535125732422e-01) (27, 2.93993681669235229492e-01) (28, 2.46639952063560485840e-01) (29, 3.76921415328979492188e-01) (30, 4.96637046337127685547e-01) (31, 4.46712851524353027344e-01) (32, 4.29296910762786865234e-01) (33, -1.80051311850547790527e-01) (34, 3.02752703428268432617e-01) (35, 3.22850376367568969727e-01) (36, -3.20814847946166992188e-01) (37, -8.47185179591178894043e-02) (38, -1.90291836857795715332e-01) (39, 3.35831582546234130859e-01) (40, 7.43052542209625244141e-01) (41, 4.08839672803878784180e-01) (42, 3.10993105173110961914e-01) (43, 2.59131640195846557617e-01) (44, -1.82118386030197143555e-01) (45, -3.26749056577682495117e-01) (46, 4.75110977888107299805e-01) (47, -3.25387299060821533203e-01) (48, -4.21700030565261840820e-01) (49, 3.36473703384399414062e-01) (50, 4.57394242286682128906e-01) (51, 4.74451184272766113281e-01) (52, 2.67249196767807006836e-01) (53, 3.41107428073883056641e-01) (54, 2.67169117927551269531e-01) (55, -3.31948667764663696289e-01) (56, -2.91739314794540405273e-01) (57, -1.27875208854675292969e-01) (58, 3.92196625471115112305e-01) (59, 4.54524785280227661133e-01) (60, 5.11598467826843261719e-01) (61, 3.39862763881683349609e-01) (62, 4.93595153093338012695e-01) (63, 1.56809374690055847168e-01) (64, -3.79655838012695312500e-01) (65, 6.82270765304565429688e-01) (66, 3.47256124019622802734e-01) (67, 2.96993106603622436523e-01) (68, 4.02088135480880737305e-01) (69, 4.40629541873931884766e-01) (70, 4.06786203384399414062e-01) (71, 4.93681222200393676758e-01) (72, 5.40389776229858398438e-01) (73, -1.98328290134668350220e-02) (74, -1.03692255914211273193e-01) (75, 3.30404788255691528320e-01) (76, -9.17331799864768981934e-02) (77, 3.87832432985305786133e-01) (78, -1.74235284328460693359e-01) (79, 3.39985221624374389648e-01) (80, 4.55853253602981567383e-01) (81, 2.82545030117034912109e-01) (82, 4.31803137063980102539e-01) (83, 3.69548022747039794922e-01) (84, 2.82302886247634887695e-01) (85, 4.83420908451080322266e-01) (86, -4.33180928230285644531e-02) (87, 4.50326412916183471680e-01) (88, -3.07345658540725708008e-01) (89, 2.23014578223228454590e-01) (90, 4.12821888923645019531e-01) (91, 3.70783060789108276367e-01) (92, -3.50627422332763671875e-01) (93, -9.41702008247375488281e-01) (94, -3.25541317462921142578e-01) (95, 4.94734734296798706055e-01) (96, 5.00518143177032470703e-01) (97, 5.16225218772888183594e-01) (98, -3.86857062578201293945e-01) (99, 3.30551564693450927734e-01) (100, -2.33797454833984375000e+00) (101, 1.11980164051055908203e+00) (102, 4.56935793161392211914e-01) (2, 5.37081301212310791016e-01) (3, 4.06484186649322509766e-01) (4, 6.13783597946166992188e-01) (5, -3.06672845035791397095e-02) (6, 7.15023875236511230469e-01) (7, 1.12808537483215332031e+00) (8, 1.02644824981689453125e+00) (9, 1.11427772045135498047e+00) (10, 8.73391151428222656250e-01) (11, -5.12340009212493896484e-01) (12, 4.07175153493881225586e-01) (13, 8.69362294673919677734e-01) (14, -8.49858894944190979004e-02) (15, 4.07254278659820556641e-01) (16, 3.61317920684814453125e+00) (17, 4.03215259313583374023e-01) (18, 1.13634979724884033203e+00) (19, 1.95485167205333709717e-03) (20, 5.15134930610656738281e-01) (21, 5.70158511400222778320e-02) (22, 3.15108984708786010742e-01) (23, 1.02830278873443603516e+00) (24, 3.59177738428115844727e-01) (25, 2.21615552902221679688e-01) (26, 8.13397824764251708984e-01) (27, 6.54721260070800781250e-01) (28, -3.37559193372726440430e-01) (29, 1.14634144306182861328e+00) (30, 8.85308551788330078125e+00) (31, 1.01507306098937988281e+00) (32, 5.20457446575164794922e-01) (33, 2.89045751094818115234e-01) (34, 1.12332093715667724609e+00) (35, 1.02792024612426757812e+00) (36, -2.13938876986503601074e-02) (37, 9.37309637665748596191e-02) (38, 5.64613997936248779297e-01) (39, 3.03749203681945800781e-01) (40, 9.45920825004577636719e-01) (41, 9.15860772132873535156e-01) (42, 6.42640948295593261719e-01) (43, 8.13795208930969238281e-01) (44, -2.04270109534263610840e-01) (45, 3.72130215167999267578e-01) (46, 1.83566138148307800293e-01) (47, 4.59262669086456298828e-01) (48, 5.12220740318298339844e-01) (49, 1.03303813934326171875e+00) (50, 5.75109899044036865234e-01) (51, 4.65448021888732910156e-01) (52, -6.00396037101745605469e-01) (53, 6.54357194900512695312e-01) (54, 8.91252517700195312500e-01) (55, -1.41977444291114807129e-01) (56, 2.90085643529891967773e-01) (57, -2.45464267730712890625e+01) (58, 1.11294865608215332031e+00) (59, 8.22297394275665283203e-01) (60, 6.52408421039581298828e-01) (61, 3.62157672643661499023e-01) (62, 6.35864138603210449219e-01) (63, 5.38747489452362060547e-01) (64, 4.65060800313949584961e-01) (65, 1.27073085308074951172e+00) (66, 2.83352285623550415039e-01) (67, 9.24869000911712646484e-01) (68, 6.71393394470214843750e-01) (69, 7.38803744316101074219e-01) (70, 1.01472783088684082031e+00) (71, 6.24010622501373291016e-01) (72, 3.72433096170425415039e-01) (73, 5.17654061317443847656e-01) (74, 2.20060229301452636719e-01) (75, 4.19246077537536621094e-01) (76, 4.89363700151443481445e-01) (77, 3.28897804021835327148e-01) (78, -2.10791260004043579102e-01) (79, 6.37157499790191650391e-01) (80, 9.71466183662414550781e-01) (81, 6.99450850486755371094e-01) (82, 4.33186709880828857422e-01) (83, 6.91490828990936279297e-01) (84, 5.20138680934906005859e-01) (85, 5.28127372264862060547e-01) (86, 2.00893566012382507324e-01) (87, 3.66427153348922729492e-01) (88, 3.61898750066757202148e-01) (89, 4.11194056272506713867e-01) (90, 2.60545700788497924805e-01) (91, 8.62420141696929931641e-01) (92, 5.04862904548645019531e-01) (93, 2.41189193725585937500e+00) (94, 4.82360631227493286133e-01) (95, 5.77940046787261962891e-01) (96, 2.94688850641250610352e-01) (97, 6.61200046539306640625e-01) (98, 4.05500233173370361328e-01) (99, 1.00089406967163085938e+00) (100, 4.66397106647491455078e-01) (101, 2.09199976921081542969e+00) (102, 1.04411363601684570312e+00) (2, 2.43769288063049316406e+00) (3, 4.43816423416137695312e-01) (4, 2.09208607673645019531e+00) (5, 9.19442594051361083984e-01) (6, 2.37629365921020507812e+00) (7, 1.36036717891693115234e+00) (8, 1.38941907882690429688e+00) (9, 2.40067934989929199219e+00) (10, 2.24936056137084960938e+00) (11, 2.15618562698364257812e+00) (12, 6.16047024726867675781e-01) (13, 8.64905655384063720703e-01) (14, 8.60578536987304687500e-01) (15, 1.33260583877563476562e+00) (16, 1.19427168369293212891e+00) (17, 6.49957358837127685547e-01) (18, 2.07052206993103027344e+00) (19, 2.08116516470909118652e-01) (20, 2.34866237640380859375e+00) (21, -9.09794941544532775879e-02) (22, 5.74166476726531982422e-01) (23, 2.21535253524780273438e+00) (24, 2.35580825805664062500e+00) (25, 1.25147569179534912109e+00) (26, -1.89738667011260986328e+00) (27, 2.08754897117614746094e+00) (28, 2.86963915824890136719e+00) (29, 2.75807023048400878906e+00) (30, 6.34164154529571533203e-01) (31, 2.12130069732666015625e+00) (32, 2.42623043060302734375e+00) (33, 2.98081946372985839844e+00) (34, 2.79374384880065917969e+00) (35, 2.01670694351196289062e+00) (36, 8.84494543075561523438e-01) (37, 1.03438019752502441406e+00) (38, 3.60051441192626953125e+00) (39, 5.65634250640869140625e-01) (40, 2.55769371986389160156e+00) (41, 2.16021180152893066406e+00) (42, 2.04298472404479980469e+00) (43, 2.14995193481445312500e+00) (44, 1.08949303627014160156e+00) (45, 2.81442832946777343750e+00) (46, 4.37216967344284057617e-01) (47, 2.88573265075683593750e+00) (48, 2.87596416473388671875e+00) (49, 2.33651399612426757812e+00) (50, 2.48896336555480957031e+00) (51, 5.36687970161437988281e-01) (52, 1.43055176734924316406e+00) (53, 8.70936632156372070312e-01) (54, 2.70316934585571289062e+00) (55, 8.72068285942077636719e-01) (56, -1.91708221435546875000e+01) (57, 1.61098361015319824219e+00) (58, 2.73252367973327636719e+00) (59, 2.32816433906555175781e+00) (60, 2.40677857398986816406e+00) (61, 5.26061415672302246094e-01) (62, 2.31294989585876464844e+00) (63, 2.26012086868286132812e+00) (64, 2.88189435005187988281e+00) (65, -1.70714592933654785156e+00) (66, 5.83452403545379638672e-01) (67, 2.22226023674011230469e+00) (68, 2.16351342201232910156e+00) (69, 1.23245501518249511719e+00) (70, 2.78699827194213867188e+00) (71, 2.39273238182067871094e+00) (72, 3.15765202045440673828e-01) (73, 1.93104457855224609375e+00) (74, 1.09787011146545410156e+00) (75, 6.88185811042785644531e-01) (76, 4.82667684555053710938e-01) (77, 5.54102182388305664062e-01) (78, 1.00889170169830322266e+00) (79, 2.07413291931152343750e+00) (80, 2.24564647674560546875e+00) (81, 2.11554813385009765625e+00) (82, 8.81939649581909179688e-01) (83, 2.09948801994323730469e+00) (84, 6.06093347072601318359e-01) (85, 2.53403711318969726562e+00) (86, 8.70975077152252197266e-01) (87, 4.87569123506546020508e-01) (88, 2.90292811393737792969e+00) (89, 