FANN_FLO_2.1
num_layers=3
learning_rate=0.700000
connection_rate=1.000000
network_type=0
learning_momentum=0.000000
training_algorithm=2
train_error_function=1
train_stop_function=0
cascade_output_change_fraction=0.010000
quickprop_decay=-0.000100
quickprop_mu=1.750000
rprop_increase_factor=1.200000
rprop_decrease_factor=0.500000
rprop_delta_min=0.000000
rprop_delta_max=50.000000
rprop_delta_zero=0.100000
cascade_output_stagnation_epochs=12
cascade_candidate_change_fraction=0.010000
cascade_candidate_stagnation_epochs=12
cascade_max_out_epochs=150
cascade_min_out_epochs=50
cascade_max_cand_epochs=150
cascade_min_cand_epochs=50
cascade_num_candidate_groups=2
bit_fail_limit=3.49999994039535522461e-01
cascade_candidate_limit=1.00000000000000000000e+03
cascade_weight_multiplier=4.00000005960464477539e-01
cascade_activation_functions_count=10
cascade_activation_functions=3 5 7 8 10 11 14 15 16 17 
cascade_activation_steepnesses_count=4
cascade_activation_steepnesses=2.50000000000000000000e-01 5.00000000000000000000e-01 7.50000000000000000000e-01 1.00000000000000000000e+00 
layer_sizes=2 101 127 
scale_included=0
neurons (num_inputs, activation_function, activation_steepness)=(0, 0, 0.00000000000000000000e+00) (0, 0, 0.00000000000000000000e+00) (2, 3, 5.00000000000000000000e-01) (2, 3, 5.00000000000000000000e-01) (2, 3, 5.00000000000000000000e-01) (2, 3, 5.00000000000000000000e-01) (2, 3, 5.00000000000000000000e-01) (2, 3, 5.00000000000000000000e-01) (2, 3, 5.00000000000000000000e-01) (2, 3, 5.00000000000000000000e-01) (2, 3, 5.00000000000000000000e-01) (2, 3, 5.00000000000000000000e-01) (2, 3, 5.00000000000000000000e-01) (2, 3, 5.00000000000000000000e-01) (2, 3, 5.00000000000000000000e-01) (2, 3, 5.00000000000000000000e-01) (2, 3, 5.00000000000000000000e-01) (2, 3, 5.00000000000000000000e-01) (2, 3, 5.00000000000000000000e-01) (2, 3, 5.00000000000000000000e-01) (2, 3, 5.00000000000000000000e-01) (2, 3, 5.00000000000000000000e-01) (2, 3, 5.00000000000000000000e-01) (2, 3, 5.00000000000000000000e-01) (2, 3, 5.00000000000000000000e-01) (2, 3, 5.00000000000000000000e-01) (2, 3, 5.00000000000000000000e-01) (2, 3, 5.00000000000000000000e-01) (2, 3, 5.00000000000000000000e-01) (2, 3, 5.00000000000000000000e-01) (2, 3, 5.00000000000000000000e-01) (2, 3, 5.00000000000000000000e-01) (2, 3, 5.00000000000000000000e-01) (2, 3, 5.00000000000000000000e-01) (2, 3, 5.00000000000000000000e-01) (2, 3, 5.00000000000000000000e-01) (2, 3, 5.00000000000000000000e-01) (2, 3, 5.00000000000000000000e-01) (2, 3, 5.00000000000000000000e-01) (2, 3, 5.00000000000000000000e-01) (2, 3, 5.00000000000000000000e-01) (2, 3, 5.00000000000000000000e-01) (2, 3, 5.00000000000000000000e-01) (2, 3, 5.00000000000000000000e-01) (2, 3, 5.00000000000000000000e-01) (2, 3, 5.00000000000000000000e-01) (2, 3, 5.00000000000000000000e-01) (2, 3, 5.00000000000000000000e-01) (2, 3, 5.00000000000000000000e-01) (2, 3, 5.00000000000000000000e-01) (2, 3, 5.00000000000000000000e-01) (2, 3, 5.00000000000000000000e-01) (2, 3, 5.00000000000000000000e-01) (2, 3, 5.00000000000000000000e-01) (2, 3, 5.00000000000000000000e-01) (2, 3, 5.00000000000000000000e-01) (2, 3, 5.00000000000000000000e-01) (2, 3, 5.00000000000000000000e-01) (2, 3, 5.00000000000000000000e-01) (2, 3, 5.00000000000000000000e-01) (2, 3, 5.00000000000000000000e-01) (2, 3, 5.00000000000000000000e-01) (2, 3, 5.00000000000000000000e-01) (2, 3, 5.00000000000000000000e-01) (2, 3, 5.00000000000000000000e-01) (2, 3, 5.00000000000000000000e-01) (2, 3, 5.00000000000000000000e-01) (2, 3, 5.00000000000000000000e-01) (2, 3, 5.00000000000000000000e-01) (2, 3, 5.00000000000000000000e-01) (2, 3, 5.00000000000000000000e-01) (2, 3, 5.00000000000000000000e-01) (2, 3, 5.00000000000000000000e-01) (2, 3, 5.00000000000000000000e-01) (2, 3, 5.00000000000000000000e-01) (2, 3, 5.00000000000000000000e-01) (2, 3, 5.00000000000000000000e-01) (2, 3, 5.00000000000000000000e-01) (2, 3, 5.00000000000000000000e-01) (2, 3, 5.00000000000000000000e-01) (2, 3, 5.00000000000000000000e-01) (2, 3, 5.00000000000000000000e-01) (2, 3, 5.00000000000000000000e-01) (2, 3, 5.00000000000000000000e-01) (2, 3, 5.00000000000000000000e-01) (2, 3, 5.00000000000000000000e-01) (2, 3, 5.00000000000000000000e-01) (2, 3, 5.00000000000000000000e-01) (2, 3, 5.00000000000000000000e-01) (2, 3, 5.00000000000000000000e-01) (2, 3, 5.00000000000000000000e-01) (2, 3, 5.00000000000000000000e-01) (2, 3, 5.00000000000000000000e-01) (2, 3, 5.00000000000000000000e-01) (2, 3, 5.00000000000000000000e-01) (2, 3, 5.00000000000000000000e-01) (2, 3, 5.00000000000000000000e-01) (2, 3, 5.00000000000000000000e-01) (2, 3, 5.00000000000000000000e-01) (2, 3, 5.00000000000000000000e-01) (2, 3, 5.00000000000000000000e-01) (2, 3, 5.00000000000000000000e-01) (0, 3, 0.00000000000000000000e+00) (101, 3, 5.00000000000000000000e-01) (101, 3, 5.00000000000000000000e-01) (101, 3, 5.00000000000000000000e-01) (101, 3, 5.00000000000000000000e-01) (101, 3, 5.00000000000000000000e-01) (101, 3, 5.00000000000000000000e-01) (101, 3, 5.00000000000000000000e-01) (101, 3, 5.00000000000000000000e-01) (101, 3, 5.00000000000000000000e-01) (101, 3, 5.00000000000000000000e-01) (101, 3, 5.00000000000000000000e-01) (101, 3, 5.00000000000000000000e-01) (101, 3, 5.00000000000000000000e-01) (101, 3, 5.00000000000000000000e-01) (101, 3, 5.00000000000000000000e-01) (101, 3, 5.00000000000000000000e-01) (101, 3, 5.00000000000000000000e-01) (101, 3, 5.00000000000000000000e-01) (101, 3, 5.00000000000000000000e-01) (101, 3, 5.00000000000000000000e-01) (101, 3, 5.00000000000000000000e-01) (101, 3, 5.00000000000000000000e-01) (101, 3, 5.00000000000000000000e-01) (101, 3, 5.00000000000000000000e-01) (101, 3, 5.00000000000000000000e-01) (101, 3, 5.00000000000000000000e-01) (101, 3, 5.00000000000000000000e-01) (101, 3, 5.00000000000000000000e-01) (101, 3, 5.00000000000000000000e-01) (101, 3, 5.00000000000000000000e-01) (101, 3, 5.00000000000000000000e-01) (101, 3, 5.00000000000000000000e-01) (101, 3, 5.00000000000000000000e-01) (101, 3, 5.00000000000000000000e-01) (101, 3, 5.00000000000000000000e-01) (101, 3, 5.00000000000000000000e-01) (101, 3, 5.00000000000000000000e-01) (101, 3, 5.00000000000000000000e-01) (101, 3, 5.00000000000000000000e-01) (101, 3, 5.00000000000000000000e-01) (101, 3, 5.00000000000000000000e-01) (101, 3, 5.00000000000000000000e-01) (101, 3, 5.00000000000000000000e-01) (101, 3, 5.00000000000000000000e-01) (101, 3, 5.00000000000000000000e-01) (101, 3, 5.00000000000000000000e-01) (101, 3, 5.00000000000000000000e-01) (101, 3, 5.00000000000000000000e-01) (101, 3, 5.00000000000000000000e-01) (101, 3, 5.00000000000000000000e-01) (101, 3, 5.00000000000000000000e-01) (101, 3, 5.00000000000000000000e-01) (101, 3, 5.00000000000000000000e-01) (101, 3, 5.00000000000000000000e-01) (101, 3, 5.00000000000000000000e-01) (101, 3, 5.00000000000000000000e-01) (101, 3, 5.00000000000000000000e-01) (101, 3, 5.00000000000000000000e-01) (101, 3, 5.00000000000000000000e-01) (101, 3, 5.00000000000000000000e-01) (101, 3, 5.00000000000000000000e-01) (101, 3, 5.00000000000000000000e-01) (101, 3, 5.00000000000000000000e-01) (101, 3, 5.00000000000000000000e-01) (101, 3, 5.00000000000000000000e-01) (101, 3, 5.00000000000000000000e-01) (101, 3, 5.00000000000000000000e-01) (101, 3, 5.00000000000000000000e-01) (101, 3, 5.00000000000000000000e-01) (101, 3, 5.00000000000000000000e-01) (101, 3, 5.00000000000000000000e-01) (101, 3, 5.00000000000000000000e-01) (101, 3, 5.00000000000000000000e-01) (101, 3, 5.00000000000000000000e-01) (101, 3, 5.00000000000000000000e-01) (101, 3, 5.00000000000000000000e-01) (101, 3, 5.00000000000000000000e-01) (101, 3, 5.00000000000000000000e-01) (101, 3, 5.00000000000000000000e-01) (101, 3, 5.00000000000000000000e-01) (101, 3, 5.00000000000000000000e-01) (101, 3, 5.00000000000000000000e-01) (101, 3, 5.00000000000000000000e-01) (101, 3, 5.00000000000000000000e-01) (101, 3, 5.00000000000000000000e-01) (101, 3, 5.00000000000000000000e-01) (101, 3, 5.00000000000000000000e-01) (101, 3, 5.00000000000000000000e-01) (101, 3, 5.00000000000000000000e-01) (101, 3, 5.00000000000000000000e-01) (101, 3, 5.00000000000000000000e-01) (101, 3, 5.00000000000000000000e-01) (101, 3, 5.00000000000000000000e-01) (101, 3, 5.00000000000000000000e-01) (101, 3, 5.00000000000000000000e-01) (101, 3, 5.00000000000000000000e-01) (101, 3, 5.00000000000000000000e-01) (101, 3, 5.00000000000000000000e-01) (101, 3, 5.00000000000000000000e-01) (101, 3, 5.00000000000000000000e-01) (101, 3, 5.00000000000000000000e-01) (101, 3, 5.00000000000000000000e-01) (101, 3, 5.00000000000000000000e-01) (101, 3, 5.00000000000000000000e-01) (101, 3, 5.00000000000000000000e-01) (101, 3, 5.00000000000000000000e-01) (101, 3, 5.00000000000000000000e-01) (101, 3, 5.00000000000000000000e-01) (101, 3, 5.00000000000000000000e-01) (101, 3, 5.00000000000000000000e-01) (101, 3, 5.00000000000000000000e-01) (101, 3, 5.00000000000000000000e-01) (101, 3, 5.00000000000000000000e-01) (101, 3, 5.00000000000000000000e-01) (101, 3, 5.00000000000000000000e-01) (101, 3, 5.00000000000000000000e-01) (101, 3, 5.00000000000000000000e-01) (101, 3, 5.00000000000000000000e-01) (101, 3, 5.00000000000000000000e-01) (101, 3, 5.00000000000000000000e-01) (101, 3, 5.00000000000000000000e-01) (101, 3, 5.00000000000000000000e-01) (101, 3, 5.00000000000000000000e-01) (101, 3, 5.00000000000000000000e-01) (101, 3, 5.00000000000000000000e-01) (101, 3, 5.00000000000000000000e-01) (0, 3, 0.00000000000000000000e+00) 
connections (connected_to_neuron, weight)=(0, 1.50000000000000000000e+03) (1, 1.50000000000000000000e+03) (0, 1.50000000000000000000e+03) (1, 1.50000000000000000000e+03) (0, 1.50000000000000000000e+03) (1, 1.50000000000000000000e+03) (0, 1.50000000000000000000e+03) (1, 1.50000000000000000000e+03) (0, 1.50000000000000000000e+03) (1, 1.50000000000000000000e+03) (0, 1.50000000000000000000e+03) (1, 1.50000000000000000000e+03) (0, 1.50000000000000000000e+03) (1, 1.50000000000000000000e+03) (0, 1.50000000000000000000e+03) (1, 1.50000000000000000000e+03) (0, 1.50000000000000000000e+03) (1, 1.50000000000000000000e+03) (0, 1.50000000000000000000e+03) (1, 1.50000000000000000000e+03) (0, 1.50000000000000000000e+03) (1, 1.50000000000000000000e+03) (0, 1.50000000000000000000e+03) (1, 1.50000000000000000000e+03) (0, 1.50000000000000000000e+03) (1, 1.50000000000000000000e+03) (0, 1.50000000000000000000e+03) (1, 1.50000000000000000000e+03) (0, 1.50000000000000000000e+03) (1, 1.50000000000000000000e+03) (0, 1.50000000000000000000e+03) (1, 1.50000000000000000000e+03) (0, 1.50000000000000000000e+03) (1, 1.50000000000000000000e+03) (0, 1.50000000000000000000e+03) (1, 1.50000000000000000000e+03) (0, 1.50000000000000000000e+03) (1, 1.50000000000000000000e+03) (0, 1.50000000000000000000e+03) (1, 1.50000000000000000000e+03) (0, 1.50000000000000000000e+03) (1, 1.50000000000000000000e+03) (0, 1.50000000000000000000e+03) (1, 1.50000000000000000000e+03) (0, 1.50000000000000000000e+03) (1, 1.50000000000000000000e+03) (0, 1.50000000000000000000e+03) (1, 1.50000000000000000000e+03) (0, 1.50000000000000000000e+03) (1, 1.50000000000000000000e+03) (0, 1.50000000000000000000e+03) (1, 1.50000000000000000000e+03) (0, 1.50000000000000000000e+03) (1, 1.50000000000000000000e+03) (0, 1.50000000000000000000e+03) (1, 1.50000000000000000000e+03) (0, 1.50000000000000000000e+03) (1, 1.50000000000000000000e+03) (0, 1.50000000000000000000e+03) (1, 1.50000000000000000000e+03) (0, 1.50000000000000000000e+03) (1, 1.50000000000000000000e+03) (0, 1.50000000000000000000e+03) (1, 1.50000000000000000000e+03) (0, 1.50000000000000000000e+03) (1, 1.50000000000000000000e+03) (0, 1.50000000000000000000e+03) (1, 1.50000000000000000000e+03) (0, 1.50000000000000000000e+03) (1, 1.50000000000000000000e+03) (0, 1.50000000000000000000e+03) (1, 1.50000000000000000000e+03) (0, 1.50000000000000000000e+03) (1, 1.50000000000000000000e+03) (0, 1.50000000000000000000e+03) (1, 1.50000000000000000000e+03) (0, 1.50000000000000000000e+03) (1, 1.50000000000000000000e+03) (0, 1.50000000000000000000e+03) (1, 1.50000000000000000000e+03) (0, 1.50000000000000000000e+03) (1, 1.50000000000000000000e+03) (0, 1.50000000000000000000e+03) (1, 1.50000000000000000000e+03) (0, 1.50000000000000000000e+03) (1, 1.50000000000000000000e+03) (0, 1.50000000000000000000e+03) (1, 1.50000000000000000000e+03) (0, 1.50000000000000000000e+03) (1, 1.50000000000000000000e+03) (0, 1.50000000000000000000e+03) (1, 1.50000000000000000000e+03) (0, 1.50000000000000000000e+03) (1, 1.50000000000000000000e+03) (0, 1.50000000000000000000e+03) (1, 1.50000000000000000000e+03) (0, 1.50000000000000000000e+03) (1, 1.50000000000000000000e+03) (0, 1.50000000000000000000e+03) (1, 1.50000000000000000000e+03) (0, 1.50000000000000000000e+03) (1, 1.50000000000000000000e+03) (0, 1.50000000000000000000e+03) (1, 1.50000000000000000000e+03) (0, 1.50000000000000000000e+03) (1, 1.50000000000000000000e+03) (0, 1.50000000000000000000e+03) (1, 1.50000000000000000000e+03) (0, 1.50000000000000000000e+03) (1, 1.50000000000000000000e+03) (0, 1.50000000000000000000e+03) (1, 1.50000000000000000000e+03) (0, 1.50000000000000000000e+03) (1, 1.50000000000000000000e+03) (0, 1.50000000000000000000e+03) (1, 1.50000000000000000000e+03) (0, 1.50000000000000000000e+03) (1, 1.50000000000000000000e+03) (0, 1.50000000000000000000e+03) (1, 1.50000000000000000000e+03) (0, 1.50000000000000000000e+03) (1, 1.50000000000000000000e+03) (0, 1.50000000000000000000e+03) (1, 1.50000000000000000000e+03) (0, 1.50000000000000000000e+03) (1, 1.50000000000000000000e+03) (0, 1.50000000000000000000e+03) (1, 1.50000000000000000000e+03) (0, 1.50000000000000000000e+03) (1, 1.50000000000000000000e+03) (0, 1.50000000000000000000e+03) (1, 1.50000000000000000000e+03) (0, 1.50000000000000000000e+03) (1, 1.50000000000000000000e+03) (0, 1.50000000000000000000e+03) (1, 1.50000000000000000000e+03) (0, 1.50000000000000000000e+03) (1, 1.50000000000000000000e+03) (0, 1.50000000000000000000e+03) (1, 1.50000000000000000000e+03) (0, 1.50000000000000000000e+03) (1, 1.50000000000000000000e+03) (0, 1.50000000000000000000e+03) (1, 1.50000000000000000000e+03) (0, 1.50000000000000000000e+03) (1, 1.50000000000000000000e+03) (0, 1.50000000000000000000e+03) (1, 1.50000000000000000000e+03) (0, 1.50000000000000000000e+03) (1, 1.50000000000000000000e+03) (0, 1.50000000000000000000e+03) (1, 1.50000000000000000000e+03) (0, 1.50000000000000000000e+03) (1, 1.50000000000000000000e+03) (0, 1.50000000000000000000e+03) (1, 1.50000000000000000000e+03) (0, 1.50000000000000000000e+03) (1, 1.50000000000000000000e+03) (0, 1.50000000000000000000e+03) (1, 1.50000000000000000000e+03) (0, 1.50000000000000000000e+03) (1, 1.50000000000000000000e+03) (0, 1.50000000000000000000e+03) (1, 1.50000000000000000000e+03) (0, 1.50000000000000000000e+03) (1, 1.50000000000000000000e+03) (0, 1.50000000000000000000e+03) (1, 1.50000000000000000000e+03) (0, 1.50000000000000000000e+03) (1, 1.50000000000000000000e+03) (0, 1.50000000000000000000e+03) (1, 1.50000000000000000000e+03) (0, 1.50000000000000000000e+03) (1, 1.50000000000000000000e+03) (0, 1.50000000000000000000e+03) (1, 1.50000000000000000000e+03) (0, 1.50000000000000000000e+03) (1, 1.50000000000000000000e+03) (0, 1.50000000000000000000e+03) (1, 1.50000000000000000000e+03) (0, 1.50000000000000000000e+03) (1, 1.50000000000000000000e+03) (0, 1.50000000000000000000e+03) (1, 1.50000000000000000000e+03) (0, 1.50000000000000000000e+03) (1, 1.50000000000000000000e+03) (0, 1.50000000000000000000e+03) (1, 1.50000000000000000000e+03) (0, 1.50000000000000000000e+03) (1, 1.50000000000000000000e+03) (0, 1.50000000000000000000e+03) (1, 1.50000000000000000000e+03) (0, 1.50000000000000000000e+03) (1, 1.50000000000000000000e+03) (0, 1.50000000000000000000e+03) (1, 1.50000000000000000000e+03) (0, 1.50000000000000000000e+03) (1, 1.50000000000000000000e+03) (0, 1.50000000000000000000e+03) (1, 1.50000000000000000000e+03) (2, 1.50000000000000000000e+03) (3, 1.50000000000000000000e+03) (4, 1.50000000000000000000e+03) (5, 1.50000000000000000000e+03) (6, 1.50000000000000000000e+03) (7, 1.50000000000000000000e+03) (8, 1.50000000000000000000e+03) (9, 1.50000000000000000000e+03) (10, 1.50000000000000000000e+03) (11, 1.50000000000000000000e+03) (12, 1.50000000000000000000e+03) (13, 1.50000000000000000000e+03) (14, 1.50000000000000000000e+03) (15, 1.50000000000000000000e+03) (16, 1.50000000000000000000e+03) (17, 1.50000000000000000000e+03) (18, 1.50000000000000000000e+03) (19, 1.50000000000000000000e+03) (20, 1.50000000000000000000e+03) (21, 1.50000000000000000000e+03) (22, 1.50000000000000000000e+03) (23, 1.50000000000000000000e+03) (24, 1.50000000000000000000e+03) (25, 1.50000000000000000000e+03) (26, 1.50000000000000000000e+03) (27, 1.50000000000000000000e+03) (28, 1.50000000000000000000e+03) (29, 1.50000000000000000000e+03) (30, 1.50000000000000000000e+03) (31, 1.50000000000000000000e+03) (32, 1.50000000000000000000e+03) (33, 1.50000000000000000000e+03) (34, 1.50000000000000000000e+03) (35, 1.50000000000000000000e+03) (36, 1.50000000000000000000e+03) (37, 1.50000000000000000000e+03) (38, 1.50000000000000000000e+03) (39, 1.50000000000000000000e+03) (40, 1.50000000000000000000e+03) (41, 1.50000000000000000000e+03) (42, 1.50000000000000000000e+03) (43, 1.50000000000000000000e+03) (44, 1.50000000000000000000e+03) (45, 1.50000000000000000000e+03) (46, 1.50000000000000000000e+03) (47, 1.50000000000000000000e+03) (48, 1.50000000000000000000e+03) (49, 1.50000000000000000000e+03) (50, 1.50000000000000000000e+03) (51, 1.50000000000000000000e+03) (52, 1.50000000000000000000e+03) (53, 1.50000000000000000000e+03) (54, 1.50000000000000000000e+03) (55, 1.50000000000000000000e+03) (56, 1.50000000000000000000e+03) (57, 1.50000000000000000000e+03) (58, 1.50000000000000000000e+03) (59, 1.50000000000000000000e+03) (60, 1.50000000000000000000e+03) (61, 1.50000000000000000000e+03) (62, 1.50000000000000000000e+03) (63, 1.50000000000000000000e+03) (64, 1.50000000000000000000e+03) (65, 1.50000000000000000000e+03) (66, 1.50000000000000000000e+03) (67, 1.50000000000000000000e+03) (68, 1.50000000000000000000e+03) (69, 1.50000000000000000000e+03) (70, 1.50000000000000000000e+03) (71, 1.50000000000000000000e+03) (72, 1.50000000000000000000e+03) (73, 1.50000000000000000000e+03) (74, 1.50000000000000000000e+03) (75, 1.50000000000000000000e+03) (76, 1.50000000000000000000e+03) (77, 1.50000000000000000000e+03) (78, 1.50000000000000000000e+03) (79, 1.50000000000000000000e+03) (80, 1.50000000000000000000e+03) (81, 1.50000000000000000000e+03) (82, 1.50000000000000000000e+03) (83, 1.50000000000000000000e+03) (84, 1.50000000000000000000e+03) (85, 1.50000000000000000000e+03) (86, 1.50000000000000000000e+03) (87, 1.50000000000000000000e+03) (88, 1.50000000000000000000e+03) (89, 1.50000000000000000000e+03) (90, 1.50000000000000000000e+03) (91, 1.50000000000000000000e+03) (92, 1.50000000000000000000e+03) (93, 1.50000000000000000000e+03) (94, 1.50000000000000000000e+03) (95, 1.50000000000000000000e+03) (96, 1.50000000000000000000e+03) (97, 1.50000000000000000000e+03) (98, 1.50000000000000000000e+03) (99, 1.50000000000000000000e+03) (100, 1.50000000000000000000e+03) (101, 1.50000000000000000000e+03) (102, 1.50000000000000000000e+03) (2, 1.50000000000000000000e+03) (3, 1.50000000000000000000e+03) (4, 1.50000000000000000000e+03) (5, 1.50000000000000000000e+03) (6, 1.50000000000000000000e+03) (7, 1.50000000000000000000e+03) (8, 1.50000000000000000000e+03) (9, 1.50000000000000000000e+03) (10, 1.50000000000000000000e+03) (11, 1.50000000000000000000e+03) (12, 1.50000000000000000000e+03) (13, 1.50000000000000000000e+03) (14, 1.50000000000000000000e+03) (15, 1.50000000000000000000e+03) (16, 1.50000000000000000000e+03) (17, 1.50000000000000000000e+03) (18, 1.50000000000000000000e+03) (19, 1.50000000000000000000e+03) (20, 1.50000000000000000000e+03) (21, 1.50000000000000000000e+03) (22, 1.50000000000000000000e+03) (23, 1.50000000000000000000e+03) (24, 1.50000000000000000000e+03) (25, 1.50000000000000000000e+03) (26, 1.50000000000000000000e+03) (27, 1.50000000000000000000e+03) (28, 1.50000000000000000000e+03) (29, 1.50000000000000000000e+03) (30, 1.50000000000000000000e+03) (31, 1.50000000000000000000e+03) (32, 1.50000000000000000000e+03) (33, 1.50000000000000000000e+03) (34, 1.50000000000000000000e+03) (35, 1.50000000000000000000e+03) (36, 1.50000000000000000000e+03) (37, 1.50000000000000000000e+03) (38, 1.50000000000000000000e+03) (39, 1.50000000000000000000e+03) (40, 1.50000000000000000000e+03) (41, 1.50000000000000000000e+03) (42, 1.50000000000000000000e+03) (43, 1.50000000000000000000e+03) (44, 1.50000000000000000000e+03) (45, 1.50000000000000000000e+03) (46, 1.50000000000000000000e+03) (47, 1.50000000000000000000e+03) (48, 1.50000000000000000000e+03) (49, 1.50000000000000000000e+03) (50, 1.50000000000000000000e+03) (51, 1.50000000000000000000e+03) (52, 1.50000000000000000000e+03) (53, 1.50000000000000000000e+03) (54, 1.50000000000000000000e+03) (55, 1.50000000000000000000e+03) (56, 1.50000000000000000000e+03) (57, 1.50000000000000000000e+03) (58, 1.50000000000000000000e+03) (59, 1.50000000000000000000e+03) (60, 1.50000000000000000000e+03) (61, 1.50000000000000000000e+03) (62, 1.50000000000000000000e+03) (63, 1.50000000000000000000e+03) (64, 1.50000000000000000000e+03) (65, 1.50000000000000000000e+03) (66, 1.50000000000000000000e+03) (67, 1.50000000000000000000e+03) (68, 1.50000000000000000000e+03) (69, 1.50000000000000000000e+03) (70, 1.50000000000000000000e+03) (71, 1.50000000000000000000e+03) (72, 1.50000000000000000000e+03) (73, 1.50000000000000000000e+03) (74, 1.50000000000000000000e+03) (75, 1.50000000000000000000e+03) (76, 1.50000000000000000000e+03) (77, 1.50000000000000000000e+03) (78, 1.50000000000000000000e+03) (79, 1.50000000000000000000e+03) (80, 1.50000000000000000000e+03) (81, 1.50000000000000000000e+03) (82, 1.50000000000000000000e+03) (83, 1.50000000000000000000e+03) (84, 1.50000000000000000000e+03) (85, 1.50000000000000000000e+03) (86, 1.50000000000000000000e+03) (87, 1.50000000000000000000e+03) (88, 1.50000000000000000000e+03) (89, 1.50000000000000000000e+03) (90, 1.50000000000000000000e+03) (91, 1.50000000000000000000e+03) (92, 1.50000000000000000000e+03) (93, 1.50000000000000000000e+03) (94, 1.50000000000000000000e+03) (95, 1.50000000000000000000e+03) (96, 1.50000000000000000000e+03) (97, 1.50000000000000000000e+03) (98, 1.50000000000000000000e+03) (99, 1.50000000000000000000e+03) (100, 1.50000000000000000000e+03) (101, 1.50000000000000000000e+03) (102, 1.50000000000000000000e+03) (2, 4.13916319608688354492e-01) (3, -4.07977223396301269531e-01) (4, 4.27675515413284301758e-01) (5, -3.97076427936553955078e-01) (6, -6.06008693575859069824e-02) (7, 1.67816668748855590820e-01) (8, -2.18141555786132812500e-01) (9, 5.94428963959217071533e-02) (10, 1.72291606664657592773e-01) (11, -5.41508235037326812744e-02) (12, 1.68754160404205322266e-01) (13, 1.25845044851303100586e-01) (14, 4.17780190706253051758e-01) (15, -5.02543188631534576416e-02) (16, -3.52140724658966064453e-01) (17, 3.59616130590438842773e-01) (18, -4.49635505676269531250e-01) (19, -3.77592206001281738281e-01) (20, 7.55657404661178588867e-02) (21, 1.85003966093063354492e-01) (22, 1.47894173860549926758e-01) (23, -1.04628551006317138672e+00) (24, -4.06818687915802001953e-01) (25, 4.36063736677169799805e-01) (26, 2.43061289191246032715e-01) (27, 1.36302828788757324219e-01) (28, -2.19484150409698486328e-01) (29, 4.27774161100387573242e-01) (30, 2.10012406110763549805e-01) (31, -2.21392929553985595703e-01) (32, -1.33895456790924072266e-01) (33, 1.83322459459304809570e-01) (34, -4.01980519294738769531e-01) (35, -1.00665044784545898438e+00) (36, 1.12130165100097656250e-01) (37, 1.03304564952850341797e-01) (38, -4.90115046501159667969e-01) (39, 3.49374800920486450195e-01) (40, 3.78135532140731811523e-01) (41, 2.08061367273330688477e-01) (42, -1.45380407571792602539e-01) (43, -4.32211697101593017578e-01) (44, 1.21295318007469177246e-01) (45, -4.66701626777648925781e-01) (46, 8.34199488162994384766e-02) (47, 9.50394421815872192383e-02) (48, 4.18799310922622680664e-01) (49, 1.59669935703277587891e-01) (50, 2.71328598260879516602e-01) (51, 5.37576228380203247070e-02) (52, 3.60059410333633422852e-01) (53, 4.06612426042556762695e-01) (54, 9.46871042251586914062e-02) (55, -4.87365514039993286133e-01) (56, 4.02069896459579467773e-01) (57, 9.71379727125167846680e-02) (58, 1.74822121858596801758e-01) (59, -5.80223761498928070068e-02) (60, -1.55693441629409790039e-01) (61, 1.72224164009094238281e-01) (62, -5.20256794989109039307e-02) (63, 1.77800774574279785156e-01) (64, 3.70932191610336303711e-01) (65, -1.28119543194770812988e-01) (66, 5.83623535931110382080e-02) (67, 2.70452648401260375977e-01) (68, -3.35919797420501708984e-01) (69, 9.41332578659057617188e-02) (70, 3.79221230745315551758e-01) (71, -9.98960733413696289062e-02) (72, 8.95842462778091430664e-02) (73, -2.06765443086624145508e-01) (74, 3.37758623063564300537e-02) (75, 1.98270618915557861328e-01) (76, -1.47582292556762695312e-01) (77, -4.33907151222229003906e-01) (78, 3.08696269989013671875e-01) (79, -1.69389247894287109375e-01) (80, 5.16457073390483856201e-02) (81, 3.39418619871139526367e-01) (82, 1.11759170889854431152e-01) (83, -3.67394447326660156250e-01) (84, 7.74281919002532958984e-02) (85, -3.44657838344573974609e-01) (86, -3.28875124454498291016e-01) (87, 2.66888409852981567383e-01) (88, -4.60129559040069580078e-01) (89, 3.99827688932418823242e-01) (90, 4.36257570981979370117e-01) (91, -3.88433337211608886719e-01) (92, 3.59441488981246948242e-01) (93, -5.63743673264980316162e-02) (94, -1.24748699367046356201e-01) (95, -1.78228497505187988281e-01) (96, -1.57102435827255249023e-01) (97, 1.61006063222885131836e-01) (98, 9.16172116994857788086e-02) (99, 3.00858467817306518555e-01) (100, 4.25277911126613616943e-02) (101, -2.09767132997512817383e-01) (102, -3.96450199186801910400e-02) (2, 1.05095900595188140869e-01) (3, -3.23757737874984741211e-01) (4, 7.11519969627261161804e-03) (5, -2.69450336694717407227e-01) (6, 1.16256080567836761475e-01) (7, 9.90935340523719787598e-02) (8, 1.58846870064735412598e-01) (9, 1.74257159233093261719e-01) (10, 1.38131454586982727051e-01) (11, 5.76573722064495086670e-02) (12, -2.86800533533096313477e-01) (13, -2.63585388660430908203e-01) (14, 1.22477047145366668701e-01) (15, 5.46317584812641143799e-02) (16, -2.66575723886489868164e-01) (17, 1.48759946227073669434e-01) (18, -2.39814206957817077637e-01) (19, -3.07354241609573364258e-01) (20, -2.15791776776313781738e-01) (21, 5.78384511172771453857e-02) (22, -1.88514903187751770020e-01) (23, -5.13118982315063476562e-01) (24, -1.99720874428749084473e-01) (25, 2.08479706197977066040e-02) (26, 1.85715600848197937012e-01) (27, 1.08877159655094146729e-01) (28, 9.98561456799507141113e-02) (29, 4.59659434854984283447e-02) (30, 1.38797163963317871094e-01) (31, 1.17478646337985992432e-01) (32, 3.37124168872833251953e-02) (33, -9.83097180724143981934e-02) (34, -2.04477027058601379395e-01) (35, -5.85919141769409179688e-01) (36, 1.38245120644569396973e-01) (37, -2.86427110433578491211e-01) (38, -4.85036045312881469727e-01) (39, 9.88885238766670227051e-02) (40, 4.98326160013675689697e-02) (41, 8.34475830197334289551e-02) (42, 1.58345714211463928223e-01) (43, -2.35164657235145568848e-01) (44, 1.81867361068725585938e-01) (45, -2.77586489915847778320e-01) (46, 1.81469231843948364258e-01) (47, 7.72953703999519348145e-02) (48, 3.31760346889495849609e-02) (49, 1.03654615581035614014e-01) (50, 1.31946265697479248047e-01) (51, -1.80816665291786193848e-01) (52, 1.63292884826660156250e-01) (53, 1.05430938303470611572e-01) (54, 9.66112986207008361816e-02) (55, -2.34630748629570007324e-01) (56, 1.28078222274780273438e-01) (57, 8.41241255402565002441e-02) (58, -3.23959797620773315430e-01) (59, 2.97309570014476776123e-02) (60, 1.31889879703521728516e-01) (61, 1.76841795444488525391e-01) (62, 1.49008885025978088379e-01) (63, 1.67401403188705444336e-01) (64, 2.43287179619073867798e-02) (65, 1.06531448662281036377e-01) (66, 1.18253929540514945984e-02) (67, 1.64372429251670837402e-01) (68, -1.78093597292900085449e-01) (69, 1.57143607735633850098e-01) (70, 6.50582015514373779297e-02) (71, 3.37393134832382202148e-02) (72, 4.23873104155063629150e-02) (73, 2.52005103975534439087e-02) (74, 1.60576775670051574707e-01) (75, 2.60524246841669082642e-02) (76, 1.09619088470935821533e-01) (77, -2.16359809041023254395e-01) (78, 1.05146385729312896729e-01) (79, 1.44594937562942504883e-01) (80, 4.92939688265323638916e-02) (81, 3.88887412846088409424e-02) (82, 1.25778585672378540039e-01) (83, -3.45821231603622436523e-01) (84, 1.46119490265846252441e-01) (85, -3.36019366979598999023e-01) (86, -2.18447580933570861816e-01) (87, 7.59942233562469482422e-02) (88, -2.50092715024948120117e-01) (89, 1.79800122976303100586e-01) (90, 1.07523776590824127197e-01) (91, -3.16410154104232788086e-01) (92, 1.58439159393310546875e-01) (93, 5.83287589251995086670e-02) (94, 1.29943145439028739929e-02) (95, 1.84566453099250793457e-01) (96, 1.66660025715827941895e-01) (97, 2.66183540225028991699e-02) (98, 1.50736123323440551758e-01) (99, 1.50566726922988891602e-01) (100, -1.74642488360404968262e-01) (101, 1.75909344106912612915e-02) (102, 1.86105132102966308594e-01) (2, 5.44150583446025848389e-02) (3, -6.59636974334716796875e-01) (4, 1.73149138689041137695e-01) (5, -6.46630406379699707031e-01) (6, 1.80678412318229675293e-01) (7, 1.18788897991180419922e-01) (8, 1.89212292432785034180e-01) (9, 1.27070605754852294922e-01) (10, 1.69882699847221374512e-01) (11, 2.98987440764904022217e-02) (12, 5.46445362269878387451e-02) (13, 1.86065882444381713867e-01) (14, 1.77816852927207946777e-01) (15, 8.06307643651962280273e-02) (16, 1.29618614912033081055e-01) (17, 5.56071512401103973389e-02) (18, -5.36359727382659912109e-01) (19, -6.17682456970214843750e-01) (20, 1.64930760860443115234e-01) (21, 3.81310321390628814697e-02) (22, 7.14516639709472656250e-02) (23, -1.14812254905700683594e+00) (24, -6.75972580909729003906e-01) (25, 5.78141920268535614014e-02) (26, 1.93515881896018981934e-01) (27, 8.13420712947845458984e-02) (28, 2.10349425673484802246e-01) (29, 1.45879849791526794434e-01) (30, 6.86998516321182250977e-02) (31, 2.97375731170177459717e-02) (32, 1.33782207965850830078e-01) (33, 1.00244060158729553223e-01) (34, -6.52770876884460449219e-01) (35, -1.08912253379821777344e+00) (36, 1.59639969468116760254e-01) (37, 3.39313335716724395752e-02) (38, -3.30531030893325805664e-01) (39, 1.25979512929916381836e-01) (40, 1.38131067156791687012e-01) (41, 1.26985430717468261719e-01) (42, 1.33006870746612548828e-01) (43, 1.69904723763465881348e-01) (44, 9.01778489351272583008e-02) (45, -6.40947341918945312500e-01) (46, 2.76620835065841674805e-02) (47, 1.96924433112144470215e-01) (48, 1.20686545968055725098e-01) (49, 1.97329342365264892578e-01) (50, 8.52669328451156616211e-02) (51, 6.27445653080940246582e-02) (52, 2.12589517235755920410e-01) (53, 1.33847281336784362793e-01) (54, 6.49304315447807312012e-02) (55, -6.86255693435668945312e-01) (56, 1.68790593743324279785e-01) (57, 3.55723984539508819580e-02) (58, 1.01111948490142822266e-01) (59, 1.56267270445823669434e-01) (60, 1.58581376075744628906e-01) (61, 1.46940484642982482910e-01) (62, 1.63133472204208374023e-01) (63, 6.94901198148727416992e-02) (64, 2.43111401796340942383e-02) (65, 2.16388285160064697266e-01) (66, 1.30676701664924621582e-01) (67, 1.61079719662666320801e-01) (68, -7.01449632644653320312e-01) (69, 8.77787321805953979492e-02) (70, 6.41857609152793884277e-02) (71, 1.42707064747810363770e-01) (72, 1.91892117261886596680e-01) (73, 1.74320608377456665039e-01) (74, 8.97383242845535278320e-02) (75, 5.91960437595844268799e-02) (76, 3.93969602882862091064e-02) (77, -6.34368658065795898438e-01) (78, 3.32477279007434844971e-02) (79, 1.37213364243507385254e-01) (80, 6.89856261014938354492e-02) (81, 9.56438034772872924805e-02) (82, 1.77085906267166137695e-01) (83, -6.70195221900939941406e-01) (84, 2.06619024276733398438e-01) (85, 2.19144299626350402832e-01) (86, -6.50425434112548828125e-01) (87, 1.52536869049072265625e-01) (88, -6.97052478790283203125e-01) (89, 1.56712904572486877441e-01) (90, 8.59306901693344116211e-02) (91, -5.61343848705291748047e-01) (92, 8.07799398899078369141e-02) (93, 2.61907726526260375977e-02) (94, 2.14172571897506713867e-01) (95, 8.22196900844573974609e-02) (96, 2.19707652926445007324e-01) (97, 1.21975794434547424316e-01) (98, 2.20427379012107849121e-01) (99, 2.42822915315628051758e-02) (100, 1.86883211135864257812e-01) (101, 6.17392212152481079102e-02) (102, 1.44117996096611022949e-01) (2, 2.51697450876235961914e-01) (3, -8.31663727760314941406e-01) (4, 3.06779146194458007812e-01) (5, -8.52624893188476562500e-01) (6, 1.25514060258865356445e-01) (7, 1.78440302610397338867e-01) (8, 2.98399507999420166016e-01) (9, 2.39854693412780761719e-01) (10, 2.24553883075714111328e-01) (11, 1.71175390481948852539e-01) (12, -9.93356760591268539429e-03) (13, 5.63823767006397247314e-02) (14, 1.54921680688858032227e-01) (15, 1.90339386463165283203e-01) (16, 1.11983776092529296875e-01) (17, 2.84581661224365234375e-01) (18, -9.41339254379272460938e-01) (19, -8.90827059745788574219e-01) (20, -5.63574284315109252930e-02) (21, 1.43994212150573730469e-01) (22, 1.03731825947761535645e-01) (23, -1.62755215167999267578e+00) (24, -1.00537407398223876953e+00) (25, 1.67080223560333251953e-01) (26, 1.47798776626586914062e-01) (27, 3.03964372724294662476e-02) (28, 1.64634853601455688477e-01) (29, 1.49209678173065185547e-01) (30, 1.98408275842666625977e-01) (31, 2.03503191471099853516e-01) (32, 2.70450800657272338867e-01) (33, -7.25626349449157714844e-02) (34, -9.46832299232482910156e-01) (35, -1.51994955539703369141e+00) (36, 9.67923849821090698242e-02) (37, -3.33970738574862480164e-03) (38, -1.46018087863922119141e+00) (39, 2.80520856380462646484e-01) (40, 1.21843904256820678711e-01) (41, 2.24217116832733154297e-01) (42, 1.33028656244277954102e-01) (43, -6.76070712506771087646e-03) (44, 1.65929585695266723633e-01) (45, -5.15528082847595214844e-01) (46, 2.68904238939285278320e-01) (47, 1.63242340087890625000e-01) (48, 1.35192617774009704590e-01) (49, 1.49549081921577453613e-01) (50, 2.94391095638275146484e-01) (51, -3.98366004228591918945e-02) (52, 1.74871534109115600586e-01) (53, 2.83451914787292480469e-01) (54, 1.96457386016845703125e-01) (55, -9.49157953262329101562e-01) (56, 1.31864503026008605957e-01) (57, 2.15830244123935699463e-02) (58, 1.03219106793403625488e-01) (59, 1.77827566862106323242e-01) (60, 2.56118237972259521484e-01) (61, 1.86956346035003662109e-01) (62, 2.62654870748519897461e-01) (63, 2.07905471324920654297e-01) (64, 1.99722707271575927734e-01) (65, 1.37806668877601623535e-01) (66, 1.47800147533416748047e-01) (67, 1.81844055652618408203e-01) (68, -9.20855045318603515625e-01) (69, 1.47463366389274597168e-01) (70, 1.43697306513786315918e-01) (71, 2.22969502210617065430e-01) (72, 2.53004580736160278320e-01) (73, 1.58054172992706298828e-01) (74, 3.01534354686737060547e-01) (75, 3.00262391567230224609e-01) (76, 2.08660989999771118164e-01) (77, -8.88876676559448242188e-01) (78, 1.44837111234664916992e-01) (79, 2.25181818008422851562e-01) (80, 2.82648265361785888672e-01) (81, 1.20559841394424438477e-01) (82, 6.66746273636817932129e-02) (83, -1.00181591510772705078e+00) (84, 2.85340726375579833984e-01) (85, -5.55408746004104614258e-02) (86, -9.28977489471435546875e-01) (87, 2.98533499240875244141e-01) (88, -4.29441273212432861328e-01) (89, 2.00222253799438476562e-01) (90, 1.57693415880203247070e-01) (91, -4.91990745067596435547e-01) (92, 2.68502682447433471680e-01) (93, 3.01676511764526367188e-01) (94, 2.82053768634796142578e-01) (95, 1.49557784199714660645e-01) (96, 1.20814830064773559570e-01) (97, 3.11182141304016113281e-01) (98, 8.72869137674570083618e-03) (99, 2.21940428018569946289e-01) (100, -6.40228539705276489258e-02) (101, 2.37755596637725830078e-01) (102, 1.26238167285919189453e-01) (2, 2.60343998670578002930e-01) (3, -7.24430739879608154297e-01) (4, 2.95134067535400390625e-01) (5, -7.45659172534942626953e-01) (6, 1.53160572052001953125e-01) (7, 2.42402050644159317017e-02) (8, 2.68104135990142822266e-01) (9, 5.56688308715820312500e-02) (10, -1.17792114615440368652e-02) (11, 2.69992947578430175781e-01) (12, 7.67288077622652053833e-03) (13, 8.40118899941444396973e-03) (14, 2.36670225858688354492e-01) (15, 2.41463482379913330078e-01) (16, -3.43399286270141601562e-01) (17, 2.16536074876785278320e-01) (18, -8.09436619281768798828e-01) (19, -8.00646603107452392578e-01) (20, 5.15559315681457519531e-02) (21, 4.83159795403480529785e-02) (22, -6.72101899981498718262e-02) (23, -1.44086682796478271484e+00) (24, -2.33096122741699218750e-01) (25, 1.67676478624343872070e-01) (26, 2.40710467100143432617e-01) (27, 4.21708123758435249329e-03) (28, 2.61730641126632690430e-01) (29, 1.43979102373123168945e-01) (30, 2.55232844501733779907e-02) (31, 1.80818647146224975586e-01) (32, 1.51545524597167968750e-01) (33, -2.63636559247970581055e-01) (34, -8.48317086696624755859e-01) (35, -1.53745496273040771484e+00) (36, -8.15951973199844360352e-02) (37, -1.62609182298183441162e-02) (38, -1.41391861438751220703e+00) (39, 2.85804510116577148438e-01) (40, 1.42705887556076049805e-01) (41, -5.09697571396827697754e-02) (42, 2.51096516847610473633e-01) (43, -1.99124962091445922852e-01) (44, 5.67276850342750549316e-02) (45, -2.65738397836685180664e-01) (46, -1.75678674131631851196e-02) (47, 5.74275031685829162598e-02) (48, 2.94892609119415283203e-01) (49, 2.59889572858810424805e-01) (50, 1.43679589033126831055e-01) (51, 4.17475774884223937988e-02) (52, 2.07506388425827026367e-01) (53, 1.75764977931976318359e-01) (54, -2.43903715163469314575e-02) (55, -8.69096696376800537109e-01) (56, 2.38736391067504882812e-01) (57, -8.83843898773193359375e-02) (58, 1.80173013359308242798e-02) (59, 1.95766091346740722656e-01) (60, 1.54890298843383789062e-01) (61, -5.71637675166130065918e-02) (62, 2.71875500679016113281e-01) (63, -2.27061030454933643341e-03) (64, 2.27300614118576049805e-01) (65, 1.06458768248558044434e-01) (66, 3.50024476647377014160e-02) (67, 2.45000973343849182129e-01) (68, -7.98107326030731201172e-01) (69, -4.18717274442315101624e-03) (70, 2.26104527711868286133e-01) (71, 2.27495491504669189453e-01) (72, 4.41393926739692687988e-02) (73, 1.72500073909759521484e-01) (74, -3.15363779664039611816e-02) (75, 1.64217053679749369621e-04) (76, 2.50856637954711914062e-01) (77, -7.33408272266387939453e-01) (78, 1.60889774560928344727e-01) (79, 2.41052418947219848633e-01) (80, 5.38098020479083061218e-03) (81, 1.99864298105239868164e-01) (82, -2.19045896083116531372e-02) (83, -3.36620569229125976562e-01) (84, 6.69235289096832275391e-02) (85, -1.91797465085983276367e-01) (86, -3.22820425033569335938e-01) (87, 2.04955458641052246094e-01) (88, -1.80886298418045043945e-01) (89, 2.43297263979911804199e-01) (90, 2.96012282371520996094e-01) (91, -3.30705285072326660156e-01) (92, 2.85426080226898193359e-01) (93, 2.63186782598495483398e-01) (94, 2.15124547481536865234e-01) (95, 2.08025723695755004883e-01) (96, 2.64941155910491943359e-01) (97, 1.49423688650131225586e-01) (98, -5.56802228093147277832e-02) (99, 1.49734914302825927734e-01) (100, 4.05310168862342834473e-02) (101, 2.69716858863830566406e-01) (102, 2.72521138191223144531e-01) (2, 1.90614357590675354004e-01) (3, -3.08642804622650146484e-01) (4, 1.42931088805198669434e-01) (5, -6.93823993206024169922e-01) (6, 2.86312878131866455078e-01) (7, 8.84190499782562255859e-02) (8, 1.46259501576423645020e-01) (9, 1.86630953103303909302e-02) (10, -6.90438738092780113220e-03) (11, 2.41418704390525817871e-01) (12, 9.60553288459777832031e-02) (13, -2.44224473834037780762e-01) (14, 2.07637771964073181152e-01) (15, 2.52349257469177246094e-01) (16, -2.22945794463157653809e-01) (17, 1.07887417078018188477e-01) (18, -7.68336713314056396484e-01) (19, -8.19452345371246337891e-01) (20, 9.51987802982330322266e-02) (21, 2.49545741826295852661e-02) (22, -3.03632736206054687500e-01) (23, -1.40910136699676513672e+00) (24, -3.09428930282592773438e-01) (25, 2.48492136597633361816e-01) (26, 2.17925593256950378418e-01) (27, -1.99073757976293563843e-02) (28, 2.92104423046112060547e-01) (29, 2.62951165437698364258e-01) (30, -8.00790488719940185547e-02) (31, 2.57120341062545776367e-01) (32, 2.30775609612464904785e-01) (33, -2.41614580154418945312e-01) (34, -6.93963348865509033203e-01) (35, -1.40043056011199951172e+00) (36, -1.40915922820568084717e-02) (37, -1.79897978901863098145e-01) (38, -1.41536152362823486328e+00) (39, 2.28818729519844055176e-01) (40, 1.84215888381004333496e-01) (41, -6.28288984298706054688e-02) (42, 1.62886872887611389160e-01) (43, -2.71882861852645874023e-01) (44, 3.43950241804122924805e-02) (45, -1.85625925660133361816e-01) (46, -8.20764303207397460938e-02) (47, -4.71012815833091735840e-02) (48, 2.63707488775253295898e-01) (49, 2.30135843157768249512e-01) (50, 2.13996425271034240723e-01) (51, 5.15587851405143737793e-02) (52, 1.51741191744804382324e-01) (53, 2.51813173294067382812e-01) (54, 1.89403141848742961884e-03) (55, -8.00132691860198974609e-01) (56, 1.92958965897560119629e-01) (57, -8.75302404165267944336e-02) (58, -1.88290610909461975098e-01) (59, 1.77717044949531555176e-01) (60, 2.72071123123168945312e-01) (61, 7.30798095464706420898e-02) (62, 1.27491042017936706543e-01) (63, -8.50097462534904479980e-03) (64, 1.76915451884269714355e-01) (65, 1.10075235366821289062e-01) (66, -4.94958087801933288574e-02) (67, 2.59470432996749877930e-01) (68, -7.12271392345428466797e-01) (69, 9.45801138877868652344e-02) (70, 1.80942818522453308105e-01) (71, 1.48492738604545593262e-01) (72, -7.15986043214797973633e-02) (73, 2.36479178071022033691e-01) (74, 1.40622388571500778198e-02) (75, 5.94466552138328552246e-02) (76, 1.92302688956260681152e-01) (77, -7.51261413097381591797e-01) (78, 1.12997770309448242188e-01) (79, 1.48663833737373352051e-01) (80, -4.85792085528373718262e-02) (81, 2.19644352793693542480e-01) (82, 9.28731858730316162109e-02) (83, -2.48986750841140747070e-01) (84, -3.98906469345092773438e-02) (85, -2.53385424613952636719e-01) (86, -1.72571256756782531738e-01) (87, 2.49719545245170593262e-01) (88, -2.44261309504508972168e-01) (89, 2.29387566447257995605e-01) (90, 1.20085410773754119873e-01) (91, -2.79540687799453735352e-01) (92, 1.99117526412010192871e-01) (93, 1.40226587653160095215e-01) (94, 2.57409185171127319336e-01) (95, 2.68678188323974609375e-01) (96, 1.42951980233192443848e-01) (97, 1.00568175315856933594e-01) (98, 1.68052110821008682251e-02) (99, 3.07224631309509277344e-01) (100, -1.53000846505165100098e-01) (101, 2.94394612312316894531e-01) (102, 1.48371025919914245605e-01) (2, 1.28187298774719238281e-01) (3, -2.17936068773269653320e-01) (4, 2.66416460275650024414e-01) (5, -6.89546346664428710938e-01) (6, 1.15815408527851104736e-01) (7, -1.22939683496952056885e-02) (8, 2.89929002523422241211e-01) (9, -4.68724519014358520508e-02) (10, 3.57776507735252380371e-02) (11, 2.02226936817169189453e-01) (12, -3.02151411771774291992e-01) (13, -3.16561967134475708008e-01) (14, 2.58983463048934936523e-01) (15, 2.34721034765243530273e-01) (16, -1.47679671645164489746e-01) (17, 2.01356649398803710938e-01) (18, -8.41922283172607421875e-01) (19, -7.50674128532409667969e-01) (20, -2.34707891941070556641e-01) (21, -1.01791359484195709229e-02) (22, -3.33879798650741577148e-01) (23, -1.38568651676177978516e+00) (24, -3.04919093847274780273e-01) (25, 2.76252120733261108398e-01) (26, 2.82565504312515258789e-01) (27, -6.28973022103309631348e-02) (28, 1.89712256193161010742e-01) (29, 2.82443791627883911133e-01) (30, -7.44486525654792785645e-02) (31, 1.76760554313659667969e-01) (32, 1.23467713594436645508e-01) (33, -3.05751889944076538086e-01) (34, -6.80894136428833007812e-01) (35, -1.35745275020599365234e+00) (36, 1.08649767935276031494e-01) (37, -1.54733508825302124023e-01) (38, -1.48043239116668701172e+00) (39, 2.87892371416091918945e-01) (40, 1.36508822441101074219e-01) (41, 7.33140334486961364746e-02) (42, 1.75436437129974365234e-01) (43, -2.80329674482345581055e-01) (44, 9.08691957592964172363e-02) (45, -3.29067260026931762695e-01) (46, 8.45078006386756896973e-02) (47, 7.73025080561637878418e-02) (48, 2.06406533718109130859e-01) (49, 1.01729996502399444580e-01) (50, 1.89773589372634887695e-01) (51, 1.01810969412326812744e-01) (52, 1.84865862131118774414e-01) (53, 1.90010905265808105469e-01) (54, 3.40910181403160095215e-02) (55, -7.59767651557922363281e-01) (56, 1.51580125093460083008e-01) (57, 1.97403714992105960846e-03) (58, -2.08319753408432006836e-01) (59, 2.26605355739593505859e-01) (60, 1.73736333847045898438e-01) (61, 5.13434037566184997559e-02) (62, 2.88674682378768920898e-01) (63, -2.14836038649082183838e-02) (64, 2.83706337213516235352e-01) (65, 2.66925096511840820312e-01) (66, -6.09692074358463287354e-02) (67, 2.81669706106185913086e-01) (68, -7.27522850036621093750e-01) (69, -2.34334506094455718994e-02) (70, 2.54879206418991088867e-01) (71, 2.68126308917999267578e-01) (72, -6.08063079416751861572e-02) (73, 1.15632034838199615479e-01) (74, -8.20827856659889221191e-02) (75, -8.06223526597023010254e-02) (76, 1.20681934058666229248e-01) (77, -6.78092122077941894531e-01) (78, 2.89990395307540893555e-01) (79, 2.12402135133743286133e-01) (80, 8.27823057770729064941e-02) (81, 1.65081053972244262695e-01) (82, -4.74622822366654872894e-04) (83, -2.91842371225357055664e-01) (84, 3.64030823111534118652e-02) (85, -3.21871668100357055664e-01) (86, -1.92461401224136352539e-01) (87, 2.77293831110000610352e-01) (88, -2.30579137802124023438e-01) (89, 1.82131856679916381836e-01) (90, 1.89216285943984985352e-01) (91, -1.71529799699783325195e-01) (92, 1.22789345681667327881e-01) (93, 1.63208097219467163086e-01) (94, 1.45100861787796020508e-01) (95, 2.91809350252151489258e-01) (96, 1.15449585020542144775e-01) (97, -3.05548943579196929932e-02) (98, 5.47984763979911804199e-02) (99, 2.47071877121925354004e-01) (100, -2.09472775459289550781e-01) (101, 1.98996603488922119141e-01) (102, 2.00515270233154296875e-01) (2, 2.73683130741119384766e-01) (3, -7.59700059890747070312e-01) (4, 2.13597670197486877441e-01) (5, -6.83115243911743164062e-01) (6, 2.11789384484291076660e-01) (7, -9.35135874897241592407e-03) (8, 2.57681936025619506836e-01) (9, 1.05503782629966735840e-01) (10, -3.72558869421482086182e-02) (11, 3.08075934648513793945e-01) (12, -2.50460058450698852539e-01) (13, -2.39779338240623474121e-01) (14, 2.33797982335090637207e-01) (15, 2.10589632391929626465e-01) (16, -2.98131912946701049805e-01) (17, 1.96408912539482116699e-01) (18, -6.51370286941528320312e-01) (19, -7.47376680374145507812e-01) (20, -1.77861884236335754395e-01) (21, 7.27059841156005859375e-02) (22, -2.22579941153526306152e-01) (23, -1.28480410575866699219e+00) (24, -1.41679555177688598633e-01) (25, 2.03346535563468933105e-01) (26, 3.20218235254287719727e-01) (27, -2.82924324274063110352e-01) (28, 1.47459790110588073730e-01) (29, 2.52603054046630859375e-01) (30, -1.58279970288276672363e-01) (31, 2.31769338250160217285e-01) (32, 1.38435438275337219238e-01) (33, -2.05131247639656066895e-01) (34, -6.48469209671020507812e-01) (35, -1.37276887893676757812e+00) (36, -2.43291243910789489746e-01) (37, -2.40524694323539733887e-01) (38, -1.29865741729736328125e+00) (39, 1.42656281590461730957e-01) (40, 1.97241261601448059082e-01) (41, -5.21884821355342864990e-02) (42, 1.30197808146476745605e-01) (43, -1.73753216862678527832e-01) (44, -2.08504542708396911621e-01) (45, -2.05342844128608703613e-01) (46, -3.89039851725101470947e-02) (47, -1.78370788693428039551e-01) (48, 3.19323390722274780273e-01) (49, -4.53190542757511138916e-02) (50, 1.68007776141166687012e-01) (51, -1.79072931408882141113e-01) (52, 3.14846724271774291992e-01) (53, 2.73685157299041748047e-01) (54, 6.46470114588737487793e-02) (55, -6.64061069488525390625e-01) (56, 1.56497254967689514160e-01) (57, -1.80468514561653137207e-01) (58, -3.02030175924301147461e-01) (59, 1.83418467640876770020e-01) (60, 2.00400128960609436035e-01) (61, -1.32044449448585510254e-01) (62, 2.94645100831985473633e-01) (63, 1.42956310883164405823e-02) (64, 2.39885762333869934082e-01) (65, 2.91131049394607543945e-01) (66, -7.47477412223815917969e-02) (67, 1.24855250120162963867e-01) (68, -7.86621809005737304688e-01) (69, 1.10319659113883972168e-01) (70, 1.46973684430122375488e-01) (71, 2.55570590496063232422e-01) (72, -5.84067367017269134521e-02) (73, 1.56632915139198303223e-01) (74, 6.08156109228730201721e-03) (75, -1.83448031544685363770e-01) (76, 2.79547363519668579102e-01) (77, -7.10851550102233886719e-01) (78, 2.15242668986320495605e-01) (79, 2.78336346149444580078e-01) (80, 8.87857824563980102539e-02) (81, 2.62707710266113281250e-01) (82, -2.21271082758903503418e-01) (83, -1.61701276898384094238e-01) (84, 1.18612283840775489807e-02) (85, -2.73166090250015258789e-01) (86, -1.80807128548622131348e-01) (87, 2.51817107200622558594e-01) (88, -3.25373142957687377930e-01) (89, 2.94224232435226440430e-01) (90, 3.14696997404098510742e-01) (91, -2.45507404208183288574e-01) (92, 2.90441185235977172852e-01) (93, 2.88807660341262817383e-01) (94, 3.01046878099441528320e-01) (95, 2.09792509675025939941e-01) (96, 2.59404301643371582031e-01) (97, 1.05764731764793395996e-01) (98, -2.34690189361572265625e-01) (99, 3.17737787961959838867e-01) (100, -1.45252838730812072754e-01) (101, 2.40544989705085754395e-01) (102, 2.52773940563201904297e-01) (2, 1.36113032698631286621e-01) (3, -6.71042442321777343750e-01) (4, 1.49831786751747131348e-01) (5, -6.74264669418334960938e-01) (6, 2.43161663413047790527e-01) (7, 7.99347907304763793945e-02) (8, 1.75630554556846618652e-01) (9, -3.03781195543706417084e-03) (10, 5.21815083920955657959e-02) (11, 3.17799746990203857422e-01) (12, -1.40846073627471923828e-01) (13, -2.26056560873985290527e-01) (14, 2.13127821683883666992e-01) (15, 1.63053467869758605957e-01) (16, -2.78606384992599487305e-01) (17, 1.44410476088523864746e-01) (18, -7.89245128631591796875e-01) (19, -8.11303496360778808594e-01) (20, -3.10231089591979980469e-01) (21, 4.46981750428676605225e-02) (22, -1.35005652904510498047e-01) (23, -1.26237773895263671875e+00) (24, -2.19587609171867370605e-01) (25, 2.03048303723335266113e-01) (26, 2.45716199278831481934e-01) (27, -2.30360731482505798340e-01) (28, 2.96615540981292724609e-01) (29, 2.42919549345970153809e-01) (30, -2.55346414633095264435e-03) (31, 2.16626048088073730469e-01) (32, 1.75158992409706115723e-01) (33, -2.39287063479423522949e-01) (34, -7.82464385032653808594e-01) (35, -1.37228107452392578125e+00) (36, -2.86412626504898071289e-01) (37, -1.60959616303443908691e-01) (38, -1.41639351844787597656e+00) (39, 2.09974125027656555176e-01) (40, 1.60756036639213562012e-01) (41, 7.69651383161544799805e-02) (42, 1.99730023741722106934e-01) (43, -3.08142066001892089844e-01) (44, -2.83399578183889389038e-02) (45, -1.63990154862403869629e-01) (46, -2.83337291330099105835e-02) (47, -2.30988845229148864746e-01) (48, 3.01168382167816162109e-01) (49, 9.56428982317447662354e-03) (50, 2.33650907874107360840e-01) (51, -1.37102425098419189453e-01) (52, 1.34217694401741027832e-01) (53, 2.19397336244583129883e-01) (54, 8.64952355623245239258e-02) (55, -7.19808936119079589844e-01) (56, 2.94393599033355712891e-01) (57, -2.40635916590690612793e-01) (58, -1.23027041554450988770e-01) (59, 2.62965321540832519531e-01) (60, 3.23031663894653320312e-01) (61, -2.49626502394676208496e-01) (62, 1.51547476649284362793e-01) (63, -3.38550284504890441895e-02) (64, 2.80634582042694091797e-01) (65, 1.96226313710212707520e-01) (66, 3.50399054586887359619e-02) (67, 3.14978182315826416016e-01) (68, -7.99172282218933105469e-01) (69, 5.98223768174648284912e-02) (70, 1.96908429265022277832e-01) (71, 1.88726916909217834473e-01) (72, 1.27407424151897430420e-02) (73, 2.68586486577987670898e-01) (74, -2.66033527441322803497e-03) (75, -1.84444501996040344238e-01) (76, 2.25352525711059570312e-01) (77, -7.06230521202087402344e-01) (78, 1.54118791222572326660e-01) (79, 1.98477044701576232910e-01) (80, -6.95222839713096618652e-02) (81, 2.59717673063278198242e-01) (82, -2.66677469015121459961e-01) (83, -3.08155953884124755859e-01) (84, -5.29307089745998382568e-02) (85, -3.04229438304901123047e-01) (86, -2.00817570090293884277e-01) (87, 3.17416846752166748047e-01) (88, -2.24109157919883728027e-01) (89, 2.45708182454109191895e-01) (90, 2.52338260412216186523e-01) (91, -2.29121372103691101074e-01) (92, 3.16829741001129150391e-01) (93, 2.75837838649749755859e-01) (94, 2.61773496866226196289e-01) (95, 2.69420444965362548828e-01) (96, 1.44020274281501770020e-01) (97, -3.12304683029651641846e-02) (98, -1.92441239953041076660e-01) (99, 1.71991154551506042480e-01) (100, -1.40252351760864257812e-01) (101, 3.25215280055999755859e-01) (102, 2.32670173048973083496e-01) (2, 1.97001799941062927246e-01) (3, -6.89669132232666015625e-01) (4, 3.05719137191772460938e-01) (5, -8.21881771087646484375e-01) (6, 1.62826523184776306152e-01) (7, 2.26346831768751144409e-02) (8, 1.59380242228507995605e-01) (9, 2.92543154209852218628e-02) (10, 2.90651302784681320190e-02) (11, 2.91049957275390625000e-01) (12, -1.61465629935264587402e-01) (13, -2.03133359551429748535e-01) (14, 3.14073145389556884766e-01) (15, 3.03857028484344482422e-01) (16, -2.83202975988388061523e-01) (17, 3.03446114063262939453e-01) (18, -7.54687070846557617188e-01) (19, -6.71929717063903808594e-01) (20, -2.21055403351783752441e-01) (21, 8.81341546773910522461e-02) (22, -1.76752731204032897949e-01) (23, -1.39384901523590087891e+00) (24, -2.22935631871223449707e-01) (25, 2.13423907756805419922e-01) (26, 1.91510960459709167480e-01) (27, -1.78212150931358337402e-01) (28, 1.41734763979911804199e-01) (29, 2.35454216599464416504e-01) (30, -1.97712436318397521973e-01) (31, 1.38906165957450866699e-01) (32, 1.40076413750648498535e-01) (33, -1.28518536686897277832e-01) (34, -6.78570985794067382812e-01) (35, -1.25139582157135009766e+00) (36, -1.23017773032188415527e-01) (37, -1.37161225080490112305e-01) (38, -1.35256779193878173828e+00) (39, 1.57355204224586486816e-01) (40, 2.17086464166641235352e-01) (41, 1.18077635765075683594e-01) (42, 3.20597231388092041016e-01) (43, -2.72191315889358520508e-01) (44, -2.08863005042076110840e-01) (45, -1.41929358243942260742e-01) (46, -5.13357482850551605225e-02) (47, -1.71069726347923278809e-01) (48, 2.82508850097656250000e-01) (49, 2.13609021157026290894e-02) (50, 2.33183875679969787598e-01) (51, -2.66354531049728393555e-01) (52, 1.89689114689826965332e-01) (53, 1.77423194050788879395e-01) (54, -2.18619719147682189941e-01) (55, -6.67445540428161621094e-01) (56, 2.63035058975219726562e-01) (57, -1.54916688799858093262e-01) (58, -2.18274489045143127441e-01) (59, 2.76961922645568847656e-01) (60, 2.01529607176780700684e-01) (61, -2.94998884201049804688e-01) (62, 2.88060128688812255859e-01) (63, 9.79674607515335083008e-03) (64, 1.46278783679008483887e-01) (65, 2.36876532435417175293e-01) (66, -1.94853637367486953735e-05) (67, 1.44253775477409362793e-01) (68, -7.34483838081359863281e-01) (69, 8.89930576086044311523e-02) (70, 1.73801049590110778809e-01) (71, 3.09981763362884521484e-01) (72, 8.32634419202804565430e-02) (73, 1.66594460606575012207e-01) (74, -4.52110134065151214600e-02) (75, -2.49406799674034118652e-01) (76, 1.45657166838645935059e-01) (77, -7.71542191505432128906e-01) (78, 1.49315610527992248535e-01) (79, 3.00358057022094726562e-01) (80, 7.72025436162948608398e-02) (81, 2.54687398672103881836e-01) (82, -2.93800294399261474609e-01) (83, -3.05719733238220214844e-01) (84, 1.00306123495101928711e-01) (85, -1.91423758864402770996e-01) (86, -6.52168989181518554688e-01) (87, 2.39538043737411499023e-01) (88, -2.25348368287086486816e-01) (89, 2.05739781260490417480e-01) (90, 1.88696071505546569824e-01) (91, -1.51626691222190856934e-01) (92, 2.31737151741981506348e-01) (93, 1.48952379822731018066e-01) (94, 1.83163508772850036621e-01) (95, 2.50203907489776611328e-01) (96, 2.58016824722290039062e-01) (97, 5.53356446325778961182e-02) (98, -1.82146236300468444824e-01) (99, 1.50920346379280090332e-01) (100, -2.24276795983314514160e-01) (101, 3.12642812728881835938e-01) (102, 1.33098259568214416504e-01) (2, -4.10628654062747955322e-02) (3, -7.36077055335044860840e-02) (4, -6.09611831605434417725e-02) (5, -2.14275747537612915039e-01) (6, -5.57596422731876373291e-02) (7, -5.11974282562732696533e-03) (8, 5.20301200449466705322e-02) (9, -8.32042619585990905762e-02) (10, -5.17248846590518951416e-02) (11, -2.10857950150966644287e-02) (12, -5.60094453394412994385e-02) (13, -3.64483930170536041260e-02) (14, -4.45874370634555816650e-02) (15, 7.35600218176841735840e-02) (16, -6.12342283129692077637e-02) (17, 6.71437755227088928223e-02) (18, -2.75599658489227294922e-01) (19, -2.28100568056106567383e-01) (20, -7.19680413603782653809e-02) (21, -6.14319667220115661621e-02) (22, -7.93720707297325134277e-02) (23, -1.51679933071136474609e+00) (24, -6.07592146843671798706e-03) (25, 4.30268310010433197021e-02) (26, 7.93894454836845397949e-02) (27, -7.45457038283348083496e-02) (28, -1.81267820298671722412e-02) (29, 1.02501861751079559326e-01) (30, 2.21690051257610321045e-02) (31, -3.32882739603519439697e-02) (32, -9.22078117728233337402e-02) (33, 7.83411487936973571777e-02) (34, -2.54465043544769287109e-01) (35, -1.52191054821014404297e+00) (36, 6.09725620597600936890e-03) (37, 3.18120084702968597412e-02) (38, -1.42979633808135986328e+00) (39, -4.46386970579624176025e-02) (40, 4.58410121500492095947e-02) (41, 8.16891118884086608887e-02) (42, 3.15093994140625000000e-02) (43, 8.70670899748802185059e-02) (44, -5.75260557234287261963e-02) (45, 8.41575190424919128418e-02) (46, 5.78592158854007720947e-02) (47, -2.15253792703151702881e-02) (48, 4.85334135591983795166e-02) (49, -7.57026895880699157715e-02) (50, 9.24072787165641784668e-02) (51, 7.37997218966484069824e-02) (52, -3.99014092981815338135e-02) (53, -8.97315964102745056152e-02) (54, -7.97906443476676940918e-02) (55, -1.93541556596755981445e-01) (56, 5.05285002291202545166e-02) (57, 9.68320593237876892090e-02) (58, 7.39453062415122985840e-02) (59, -7.03632459044456481934e-02) (60, 9.65671464800834655762e-02) (61, -6.65253680199384689331e-03) (62, -6.41787331551313400269e-03) (63, 1.01592563092708587646e-01) (64, -3.10781523585319519043e-02) (65, 8.11545178294181823730e-02) (66, -5.71099556982517242432e-02) (67, 7.22537562251091003418e-02) (68, -2.34598428010940551758e-01) (69, 7.63040706515312194824e-02) (70, -7.51505717635154724121e-02) (71, -4.67248596251010894775e-02) (72, 5.52252568304538726807e-02) (73, 5.35920895636081695557e-02) (74, -6.24235793948173522949e-02) (75, 9.49347540736198425293e-02) (76, 3.49828265607357025146e-02) (77, 9.26701948046684265137e-02) (78, -2.93573960661888122559e-02) (79, -1.92488990724086761475e-02) (80, -8.57992395758628845215e-02) (81, -3.97174097597599029541e-02) (82, -4.82164360582828521729e-02) (83, -2.84668765962123870850e-02) (84, -3.22157479822635650635e-02) (85, -3.07733044028282165527e-02) (86, -7.99752101302146911621e-02) (87, -8.44517275691032409668e-02) (88, -3.67085672914981842041e-02) (89, 9.12033542990684509277e-02) (90, -5.75828887522220611572e-02) (91, -4.29081656038761138916e-02) (92, -1.82158909738063812256e-02) (93, 3.32331918179988861084e-02) (94, -4.40823771059513092041e-02) (95, 4.79393936693668365479e-02) (96, 1.16214286535978317261e-02) (97, -3.95751139149069786072e-03) (98, 1.74268633127212524414e-02) (99, -8.09437856078147888184e-02) (100, -3.04201468825340270996e-02) (101, 3.95090244710445404053e-02) (102, -3.04348692297935485840e-02) (2, -7.21124634146690368652e-02) (3, -2.48615309596061706543e-01) (4, 1.02223521098494529724e-02) (5, -3.24747920036315917969e-01) (6, -7.15987309813499450684e-02) (7, 1.25775390188209712505e-04) (8, -1.20686599984765052795e-02) (9, 6.38556061312556266785e-03) (10, 1.15598207339644432068e-02) (11, 4.54478152096271514893e-02) (12, 5.54030761122703552246e-02) (13, 8.03275033831596374512e-02) (14, -8.95323976874351501465e-02) (15, -7.81352147459983825684e-02) (16, 9.75855514407157897949e-02) (17, -7.67508968710899353027e-02) (18, -2.62412786483764648438e-01) (19, -1.58777266740798950195e-01) (20, -3.71005423367023468018e-02) (21, 3.67157049477100372314e-02) (22, -3.49610932171344757080e-02) (23, -1.34481322765350341797e+00) (24, 8.98688659071922302246e-02) (25, -8.97861644625663757324e-02) (26, 2.22289771772921085358e-03) (27, -1.68553274124860763550e-02) (28, 2.48739514499902725220e-02) (29, 1.85124073177576065063e-02) (30, 4.99578900635242462158e-02) (31, -3.83831746876239776611e-02) (32, 8.53120610117912292480e-02) (33, 6.92324414849281311035e-02) (34, -1.95611447095870971680e-01) (35, -1.45126044750213623047e+00) (36, 8.06738063693046569824e-02) (37, 6.89750090241432189941e-02) (38, -1.35974824428558349609e+00) (39, -4.00095470249652862549e-02) (40, -3.32540124654769897461e-02) (41, -1.86211448162794113159e-02) (42, 9.68264564871788024902e-02) (43, -8.64628180861473083496e-02) (44, -4.69083078205585479736e-02) (45, 9.86799225211143493652e-02) (46, -7.32121691107749938965e-02) (47, -5.79369477927684783936e-02) (48, -8.66851434111595153809e-02) (49, 5.63627632800489664078e-04) (50, -8.05278047919273376465e-02) (51, -3.23998183012008666992e-02) (52, -7.13329836726188659668e-02) (53, -2.41025071591138839722e-02) (54, -4.76457364857196807861e-02) (55, -3.34881663322448730469e-01) (56, -2.25028377026319503784e-02) (57, 4.59636934101581573486e-02) (58, -1.55476946383714675903e-02) (59, 9.37582477927207946777e-02) (60, -4.41374070942401885986e-02) (61, -7.42022022604942321777e-02) (62, -5.32390661537647247314e-02) (63, -6.74383863806724548340e-02) (64, 8.64160880446434020996e-02) (65, 8.73358771204948425293e-02) (66, 1.08677214011549949646e-02) (67, 5.84745630621910095215e-02) (68, -7.24952042102813720703e-01) (69, -1.93132143467664718628e-02) (70, -9.01468023657798767090e-02) (71, 1.05829738080501556396e-01) (72, 5.34516163170337677002e-02) (73, 9.80654880404472351074e-02) (74, -8.92472490668296813965e-02) (75, 9.79314967989921569824e-02) (76, 8.81312415003776550293e-02) (77, -3.15876960754394531250e-01) (78, -6.86184391379356384277e-02) (79, 9.28319618105888366699e-02) (80, 2.08759997040033340454e-02) (81, -5.77615611255168914795e-02) (82, -4.81819994747638702393e-02) (83, 4.09283526241779327393e-02) (84, 9.52289160341024398804e-03) (85, -4.44025313481688499451e-03) (86, -2.02562242746353149414e-01) (87, 7.84072205424308776855e-02) (88, -6.70888647437095642090e-02) (89, -8.19241628050804138184e-02) (90, 6.35512843728065490723e-02) (91, -1.98398809880018234253e-02) (92, -6.47405013442039489746e-02) (93, 1.01699255406856536865e-01) (94, 4.10753022879362106323e-03) (95, -8.69385823607444763184e-02) (96, 8.04209634661674499512e-02) (97, 1.06362454593181610107e-01) (98, 6.29229620099067687988e-02) (99, 1.95029173046350479126e-02) (100, -2.15649586170911788940e-02) (101, 6.41619935631752014160e-02) (102, 1.67184863239526748657e-02) (2, -5.99646568298339843750e-02) (3, -1.74423754215240478516e-01) (4, 3.56187671422958374023e-02) (5, -8.19963097572326660156e-01) (6, 4.98914867639541625977e-02) (7, 5.59310764074325561523e-02) (8, -4.78798970580101013184e-02) (9, 3.41092795133590698242e-02) (10, -3.18064577877521514893e-02) (11, -1.42539553344249725342e-02) (12, 7.73154646158218383789e-02) (13, 1.00510075688362121582e-01) (14, 8.66561084985733032227e-02) (15, -3.57393771409988403320e-02) (16, 3.41318398714065551758e-02) (17, 5.64480274915695190430e-02) (18, -2.56244599819183349609e-01) (19, -7.05722332000732421875e-01) (20, 1.13856475800275802612e-02) (21, 6.01042471826076507568e-02) (22, 7.02400133013725280762e-02) (23, -1.35438334941864013672e+00) (24, -2.89203971624374389648e-01) (25, 7.46872648596763610840e-02) (26, -2.37224251031875610352e-02) (27, -4.66534420847892761230e-02) (28, 2.89954394102096557617e-02) (29, 8.71676355600357055664e-02) (30, 2.31686420738697052002e-02) (31, -1.54566355049610137939e-02) (32, -4.72810538485646247864e-03) (33, 3.78283113241195678711e-02) (34, -8.19773912429809570312e-01) (35, -1.25333845615386962891e+00) (36, 4.18058186769485473633e-02) (37, 5.40582686662673950195e-02) (38, -1.32278263568878173828e+00) (39, 6.85518905520439147949e-02) (40, -3.72076481580734252930e-02) (41, 7.88904577493667602539e-02) (42, -7.10777491331100463867e-02) (43, 1.14732638001441955566e-01) (44, 5.40230423212051391602e-02) (45, -1.54597312211990356445e-01) (46, -4.63830679655075073242e-02) (47, -3.72202843427658081055e-02) (48, 2.12742276489734649658e-02) (49, 1.67998522520065307617e-02) (50, 8.09991806745529174805e-02) (51, 1.07284858822822570801e-01) (52, -4.84716221690177917480e-02) (53, 2.58622355759143829346e-02) (54, -1.36207453906536102295e-02) (55, -7.67564296722412109375e-01) (56, -2.48268395662307739258e-02) (57, 3.72806936502456665039e-02) (58, 9.72339324653148651123e-03) (59, 7.87935405969619750977e-02) (60, -9.27592860534787178040e-04) (61, 1.07517018914222717285e-01) (62, -6.20400346815586090088e-02) (63, 6.89693912863731384277e-02) (64, 1.99695117771625518799e-02) (65, -5.78732490539550781250e-02) (66, 4.91081029176712036133e-02) (67, -6.35992884635925292969e-02) (68, -6.78506016731262207031e-01) (69, -4.01961654424667358398e-02) (70, 7.95763283967971801758e-02) (71, 1.08228161931037902832e-01) (72, 1.13319113850593566895e-01) (73, 8.31222385168075561523e-02) (74, 9.75844562053680419922e-02) (75, 4.19657975435256958008e-02) (76, 4.79468256235122680664e-02) (77, -3.18977296352386474609e-01) (78, 7.93714374303817749023e-02) (79, -5.61546608805656433105e-02) (80, 1.72497183084487915039e-02) (81, 3.49931567907333374023e-02) (82, -7.42450207471847534180e-02) (83, -2.01395750045776367188e-01) (84, -6.45191669464111328125e-02) (85, -1.32420770823955535889e-02) (86, -1.45019441843032836914e-01) (87, -1.47223882377147674561e-02) (88, 9.86640900373458862305e-02) (89, -1.58730335533618927002e-02) (90, -6.13056421279907226562e-02) (91, -2.76397615671157836914e-02) (92, -3.37328761816024780273e-02) (93, -4.87208589911460876465e-02) (94, 1.15953937172889709473e-01) (95, 6.08609579503536224365e-02) (96, -3.19692976772785186768e-02) (97, 3.96856516599655151367e-02) (98, 7.18865022063255310059e-02) (99, 1.13466545939445495605e-01) (100, 7.41154477000236511230e-02) (101, 2.60858722031116485596e-02) (102, 9.63183343410491943359e-02) (2, 6.48255720734596252441e-02) (3, -2.58203685283660888672e-01) (4, 7.12938085198402404785e-02) (5, -7.63627350330352783203e-01) (6, 1.09171427786350250244e-01) (7, 7.17436447739601135254e-02) (8, -6.45887106657028198242e-02) (9, 1.27642303705215454102e-01) (10, -3.63834574818611145020e-02) (11, 4.50281128287315368652e-02) (12, 1.28020972013473510742e-01) (13, 8.16449001431465148926e-02) (14, 5.51326125860214233398e-02) (15, -1.05981780216097831726e-02) (16, 5.60473389923572540283e-02) (17, 1.15035749971866607666e-01) (18, -7.82353341579437255859e-01) (19, -6.30243837833404541016e-01) (20, -7.16450959444046020508e-02) (21, 9.67408623546361923218e-03) (22, -4.43094447255134582520e-02) (23, -1.39007329940795898438e+00) (24, -2.44546964764595031738e-01) (25, 9.11774709820747375488e-02) (26, -3.08626866899430751801e-03) (27, 1.14562816917896270752e-01) (28, 3.76864895224571228027e-02) (29, -1.49961085990071296692e-02) (30, 6.33018985390663146973e-02) (31, -6.16033710539340972900e-02) (32, -4.40545752644538879395e-02) (33, -1.69193226611241698265e-05) (34, -7.48189628124237060547e-01) (35, -1.24523568153381347656e+00) (36, 5.32550960779190063477e-02) (37, -2.21190638840198516846e-02) (38, -1.30163574218750000000e+00) (39, 6.05226941406726837158e-02) (40, -2.26211734116077423096e-02) (41, 7.81706050038337707520e-02) (42, -2.25912220776081085205e-02) (43, -2.27446742355823516846e-02) (44, 3.16706784069538116455e-02) (45, -1.40399843454360961914e-01) (46, 3.85135933756828308105e-02) (47, -4.04245331883430480957e-02) (48, 9.12914946675300598145e-02) (49, 7.30612352490425109863e-02) (50, -5.37684634327888488770e-02) (51, 9.15027037262916564941e-02) (52, -4.54088523983955383301e-02) (53, -2.62199193239212036133e-02) (54, 1.17617882788181304932e-01) (55, -7.18342721462249755859e-01) (56, -6.31855502724647521973e-02) (57, -1.36120887473225593567e-02) (58, 1.31192943081259727478e-02) (59, 4.63572368025779724121e-02) (60, 4.32482883334159851074e-02) (61, -5.17230108380317687988e-02) (62, 5.66113479435443878174e-02) (63, 7.10523203015327453613e-02) (64, 2.01176255941390991211e-02) (65, 1.25323385000228881836e-01) (66, 4.20041605830192565918e-02) (67, -5.47703579068183898926e-02) (68, -7.69982993602752685547e-01) (69, -4.34429123997688293457e-02) (70, 7.76109173893928527832e-02) (71, 2.42956727743148803711e-02) (72, 1.06585182249546051025e-01) (73, 1.26877397298812866211e-01) (74, 7.34085515141487121582e-02) (75, 1.01125976070761680603e-02) (76, 1.03132463991641998291e-01) (77, -2.61023849248886108398e-01) (78, 4.15450260043144226074e-02) (79, 6.62802234292030334473e-02) (80, -7.13028758764266967773e-02) (81, 5.96339851617813110352e-02) (82, 2.96386368572711944580e-02) (83, -2.89657682180404663086e-01) (84, 1.05272151529788970947e-01) (85, 1.91128104925155639648e-02) (86, -1.91096365451812744141e-01) (87, 1.13942928612232208252e-01) (88, -1.67441010475158691406e-01) (89, -6.13219775259494781494e-02) (90, 3.21564264595508575439e-02) (91, -2.52339422702789306641e-01) (92, -4.11875322461128234863e-02) (93, -3.93747761845588684082e-02) (94, -6.46273642778396606445e-02) (95, 5.07870241999626159668e-02) (96, -4.21958044171333312988e-02) (97, 4.92330715060234069824e-02) (98, 6.78752735257148742676e-02) (99, 4.72148647531867027283e-03) (100, 7.76487663388252258301e-02) (101, 1.73418968915939331055e-02) (102, 1.00874818861484527588e-01) (2, 6.01287223398685455322e-02) (3, -2.24684253334999084473e-01) (4, 5.01781515777111053467e-02) (5, -7.97687768936157226562e-01) (6, -4.89691318944096565247e-03) (7, 1.05815179646015167236e-01) (8, 5.55007867515087127686e-02) (9, -6.67596608400344848633e-02) (10, 1.06368638575077056885e-01) (11, -1.30072711035609245300e-02) (12, 3.47347296774387359619e-02) (13, -6.66293948888778686523e-02) (14, -3.58793400228023529053e-02) (15, 1.25706270337104797363e-01) (16, 5.89286722242832183838e-02) (17, -5.00801689922809600830e-02) (18, -6.64867043495178222656e-01) (19, -6.70321941375732421875e-01) (20, 5.39337508380413055420e-02) (21, -6.07606656849384307861e-02) (22, 1.00135229527950286865e-01) (23, -1.24003541469573974609e+00) (24, -2.98333972692489624023e-01) (25, 2.27790288627147674561e-02) (26, 1.16079188883304595947e-01) (27, 6.75599649548530578613e-02) (28, -3.74898873269557952881e-02) (29, -7.34305614605545997620e-03) (30, 1.70643813908100128174e-02) (31, 5.17088882625102996826e-02) (32, -3.46124134957790374756e-02) (33, -5.49896247684955596924e-02) (34, -8.00145387649536132812e-01) (35, -1.24306833744049072266e+00) (36, -4.50734980404376983643e-02) (37, 2.56157177500426769257e-03) (38, -1.26943647861480712891e+00) (39, 7.82461836934089660645e-02) (40, 3.61854140646755695343e-03) (41, 3.12010738998651504517e-02) (42, -6.69438093900680541992e-02) (43, 1.06171794235706329346e-01) (44, 3.23878265917301177979e-02) (45, -2.79808759689331054688e-01) (46, 9.96940061450004577637e-02) (47, -4.08657081425189971924e-02) (48, -1.72683261334896087646e-02) (49, 4.24296967685222625732e-02) (50, 9.64173451066017150879e-02) (51, 1.04483835399150848389e-01) (52, 4.94868271052837371826e-02) (53, 6.43692165613174438477e-02) (54, 5.87168671190738677979e-02) (55, -6.76013112068176269531e-01) (56, -4.50355894863605499268e-02) (57, 4.26126830279827117920e-02) (58, -8.50054435431957244873e-04) (59, -1.47072263062000274658e-02) (60, 1.03088133037090301514e-01) (61, 8.40323045849800109863e-02) (62, 1.04820169508457183838e-01) (63, -6.37065023183822631836e-02) (64, 9.68605056405067443848e-02) (65, 1.12278588116168975830e-01) (66, 8.74947980046272277832e-02) (67, 1.19604781270027160645e-01) (68, -7.57129788398742675781e-01) (69, 1.23272715136408805847e-02) (70, 6.56676441431045532227e-02) (71, 5.40921799838542938232e-02) (72, 1.11346311867237091064e-01) (73, 6.65404871106147766113e-02) (74, 2.80810967087745666504e-02) (75, 1.15512786433100700378e-02) (76, 9.93518158793449401855e-02) (77, -7.44194865226745605469e-01) (78, 3.85028533637523651123e-02) (79, -5.01003749668598175049e-02) (80, 1.05839885771274566650e-01) (81, 2.73734633810818195343e-03) (82, 1.22201241552829742432e-01) (83, -2.21654847264289855957e-01) (84, -6.50761649012565612793e-02) (85, 4.87347654998302459717e-02) (86, -2.90068209171295166016e-01) (87, -4.22950871288776397705e-02) (88, -2.85637021064758300781e-01) (89, 2.17018537223339080811e-02) (90, 1.08154853805899620056e-02) (91, -1.14728890359401702881e-01) (92, -2.64491662383079528809e-02) (93, -1.65477059781551361084e-02) (94, -6.58187195658683776855e-02) (95, -6.17725141346454620361e-02) (96, -3.64530049264430999756e-02) (97, 8.94927456974983215332e-02) (98, 1.25650748610496520996e-01) (99, 1.40215996652841567993e-02) (100, -3.03633101284503936768e-02) (101, 5.91332055628299713135e-02) (102, -6.40678331255912780762e-02) (2, -4.44765463471412658691e-02) (3, -2.44583502411842346191e-01) (4, 3.85537333786487579346e-02) (5, -6.95191740989685058594e-01) (6, -3.26168686151504516602e-02) (7, 1.01963944733142852783e-01) (8, -5.87873496115207672119e-02) (9, -1.48989837616682052612e-02) (10, 7.56204500794410705566e-02) (11, 1.17677766829729080200e-02) (12, -2.69683927297592163086e-01) (13, -2.78221935033798217773e-01) (14, 1.45082771778106689453e-02) (15, 9.16721299290657043457e-02) (16, -2.55670130252838134766e-01) (17, 4.00305315852165222168e-02) (18, -6.11429691314697265625e-01) (19, -6.51432275772094726562e-01) (20, 1.18664510548114776611e-01) (21, 1.16542972624301910400e-01) (22, -1.24779418110847473145e-01) (23, -1.32368862628936767578e+00) (24, -1.26258417963981628418e-01) (25, 1.26066654920578002930e-01) (26, 1.29811686929315328598e-03) (27, 7.58502855896949768066e-02) (28, 1.19532652199268341064e-01) (29, 8.31376686692237854004e-02) (30, 1.13304264843463897705e-01) (31, 4.64824661612510681152e-02) (32, 8.68865326046943664551e-02) (33, -1.14878825843334197998e-01) (34, -6.22293114662170410156e-01) (35, -1.30708897113800048828e+00) (36, 2.59060375392436981201e-02) (37, -1.08531586825847625732e-01) (38, -1.34403264522552490234e+00) (39, 2.82121337950229644775e-02) (40, -1.75381861627101898193e-02) (41, 8.63027945160865783691e-02) (42, 1.01073540747165679932e-01) (43, -2.26124957203865051270e-01) (44, 1.13976754248142242432e-01) (45, -2.68128663301467895508e-01) (46, -2.85618305206298828125e-02) (47, -3.57987061142921447754e-02) (48, 7.77988508343696594238e-02) (49, -4.88148704171180725098e-02) (50, 1.03947319090366363525e-01) (51, 5.75545057654380798340e-02) (52, 1.28822296857833862305e-01) (53, 8.50602760910987854004e-02) (54, 8.85820165276527404785e-02) (55, -6.21630072593688964844e-01) (56, 7.22185149788856506348e-02) (57, -4.90280166268348693848e-02) (58, -1.99401929974555969238e-01) (59, 5.28423115611076354980e-02) (60, 9.52031388878822326660e-02) (61, 1.97933427989482879639e-02) (62, -3.95817533135414123535e-02) (63, 4.31808754801750183105e-02) (64, 1.08067709952592849731e-02) (65, 1.29304260015487670898e-01) (66, 9.08081009984016418457e-02) (67, 9.78064313530921936035e-02) (68, -6.03420615196228027344e-01) (69, 1.01490475237369537354e-01) (70, -1.28891151398420333862e-02) (71, -2.97816395759582519531e-02) (72, 4.88844439387321472168e-02) (73, -5.07237091660499572754e-02) (74, 4.99845370650291442871e-02) (75, 2.39540152251720428467e-02) (76, -1.29560511559247970581e-02) (77, -6.47567987442016601562e-01) (78, 4.92482706904411315918e-02) (79, 1.25936508178710937500e-01) (80, 9.47954431176185607910e-02) (81, 1.42883975058794021606e-02) (82, 4.45825979113578796387e-02) (83, -1.60089954733848571777e-01) (84, -3.95594909787178039551e-02) (85, -2.50545412302017211914e-01) (86, -1.90542861819267272949e-01) (87, 9.37525108456611633301e-02) (88, -2.38475754857063293457e-01) (89, -3.92550006508827209473e-02) (90, 7.68760126084089279175e-03) (91, -2.82184511423110961914e-01) (92, 4.16312739253044128418e-02) (93, 2.91994269937276840210e-02) (94, 6.68933689594268798828e-02) (95, 1.13532252609729766846e-01) (96, 1.95952765643596649170e-02) (97, 1.87931694090366363525e-02) (98, 7.24309757351875305176e-02) (99, 7.35180452466011047363e-03) (100, -2.63426929712295532227e-01) (101, 1.20634861290454864502e-01) (102, 3.86626906692981719971e-02) (2, 9.27196368575096130371e-02) (3, -1.12430311739444732666e-01) (4, -4.88941781222820281982e-02) (5, -7.50295937061309814453e-01) (6, -1.94939728826284408569e-02) (7, 9.47161242365837097168e-02) (8, 8.81083533167839050293e-02) (9, -3.24663594365119934082e-02) (10, 5.06027527153491973877e-02) (11, -3.65114323794841766357e-02) (12, -1.71588450670242309570e-01) (13, -2.48393818736076354980e-01) (14, -1.49769261479377746582e-02) (15, 1.28561928868293762207e-01) (16, -1.33045017719268798828e-01) (17, 1.39869272708892822266e-01) (18, -7.32085525989532470703e-01) (19, -5.94469845294952392578e-01) (20, 8.64850915968418121338e-03) (21, 1.96877960115671157837e-02) (22, -2.08481788635253906250e-01) (23, -1.18760871887207031250e+00) (24, -2.97129303216934204102e-01) (25, 1.09414104372262954712e-02) (26, -2.03708168119192123413e-02) (27, 2.75596398860216140747e-02) (28, -5.55357746779918670654e-02) (29, 4.80734594166278839111e-02) (30, 7.00291991233825683594e-02) (31, 1.26193240284919738770e-01) (32, -5.21703474223613739014e-02) (33, -2.22323298454284667969e-01) (34, -6.09773099422454833984e-01) (35, -1.32788538932800292969e+00) (36, 5.99686801433563232422e-02) (37, -2.86280184984207153320e-01) (38, -1.17344212532043457031e+00) (39, 7.80468527227640151978e-03) (40, -1.42154172062873840332e-02) (41, 2.34387237578630447388e-02) (42, 3.10215651988983154297e-02) (43, -1.26076027750968933105e-01) (44, 7.95720741152763366699e-02) (45, -1.69026106595993041992e-01) (46, 1.07011660933494567871e-01) (47, 5.10524399578571319580e-02) (48, 7.53689035773277282715e-02) (49, -3.72851900756359100342e-02) (50, 4.43723984062671661377e-02) (51, -5.62558881938457489014e-02) (52, 4.21304591000080108643e-02) (53, -5.95829077064990997314e-02) (54, 1.02413997054100036621e-01) (55, -6.78529679775238037109e-01) (56, 1.10868457704782485962e-02) (57, -5.82301802933216094971e-02) (58, -1.07979632914066314697e-01) (59, 1.52794085443019866943e-02) (60, 4.95716519653797149658e-02) (61, 6.65767192840576171875e-02) (62, 1.19907571934163570404e-03) (63, 5.71296103298664093018e-02) (64, -5.12212030589580535889e-02) (65, -2.07842346280813217163e-02) (66, 7.55228623747825622559e-02) (67, 6.84769153594970703125e-02) (68, -7.30595767498016357422e-01) (69, 4.83571775257587432861e-02) (70, 1.36010155081748962402e-01) (71, 4.29781861603260040283e-02) (72, 1.31525561213493347168e-01) (73, 2.67582852393388748169e-02) (74, 2.14291531592607498169e-02) (75, 7.08241164684295654297e-02) (76, -3.77419106662273406982e-02) (77, -7.39893972873687744141e-01) (78, -1.83957573026418685913e-02) (79, 9.73553285002708435059e-02) (80, 1.06111112982034683228e-02) (81, 8.57055708765983581543e-02) (82, 1.00827805697917938232e-01) (83, -1.32328808307647705078e-01) (84, 8.58510062098503112793e-02) (85, -1.81830316781997680664e-01) (86, -2.23068714141845703125e-01) (87, -4.33354489505290985107e-02) (88, -1.80332154035568237305e-01) (89, 1.82775501161813735962e-02) (90, 3.16717773675918579102e-02) (91, -2.71036267280578613281e-01) (92, -5.54190389811992645264e-02) (93, 9.25998911261558532715e-02) (94, 9.06250700354576110840e-02) (95, -4.69119660556316375732e-02) (96, 1.31544187664985656738e-01) (97, 2.58745271712541580200e-02) (98, 8.12932774424552917480e-02) (99, -1.12631097435951232910e-02) (100, -1.10839404165744781494e-01) (101, 7.70299062132835388184e-02) (102, 9.14440676569938659668e-02) (2, 1.32292702794075012207e-01) (3, -7.47780978679656982422e-01) (4, -2.03203279525041580200e-02) (5, -6.55533015727996826172e-01) (6, -7.41897476837038993835e-03) (7, 2.75754611939191818237e-02) (8, 1.04175306856632232666e-01) (9, -5.03369085490703582764e-02) (10, 9.79150608181953430176e-02) (11, 4.96069081127643585205e-02) (12, -1.34580016136169433594e-01) (13, -1.74686506390571594238e-01) (14, -4.81443060562014579773e-03) (15, 3.29142808914184570312e-02) (16, -2.93232947587966918945e-01) (17, 1.15784741938114166260e-02) (18, -7.61266529560089111328e-01) (19, -6.88800394535064697266e-01) (20, -1.41820028424263000488e-01) (21, -9.39654931426048278809e-03) (22, -2.10914060473442077637e-01) (23, -1.19821500778198242188e+00) (24, -1.03843651711940765381e-01) (25, 4.67004664242267608643e-02) (26, 4.65758331120014190674e-02) (27, 2.65580397099256515503e-02) (28, -1.22785810381174087524e-02) (29, 9.50417295098304748535e-02) (30, 2.02458780258893966675e-02) (31, 1.24479204416275024414e-01) (32, 4.62118275463581085205e-02) (33, -2.39612981677055358887e-01) (34, -7.70654022693634033203e-01) (35, -1.17498016357421875000e+00) (36, 1.20677500963211059570e-01) (37, -2.51851558685302734375e-01) (38, -1.29475617408752441406e+00) (39, 7.75006785988807678223e-02) (40, -4.73661674186587333679e-03) (41, 1.09328091144561767578e-01) (42, -2.02440340071916580200e-02) (43, -2.86672323942184448242e-01) (44, 3.20876240730285644531e-02) (45, -2.17208549380302429199e-01) (46, 4.36933226883411407471e-02) (47, 3.63060757517814636230e-02) (48, 9.18177738785743713379e-02) (49, 5.34509606659412384033e-02) (50, 1.18531063199043273926e-01) (51, -1.97354421019554138184e-01) (52, 9.67040732502937316895e-02) (53, 5.06343087181448936462e-03) (54, -4.46020774543285369873e-02) (55, -6.28068029880523681641e-01) (56, 1.04413636028766632080e-01) (57, 5.46227879822254180908e-02) (58, -2.75288641452789306641e-01) (59, 1.44784286618232727051e-01) (60, 2.31286138296127319336e-03) (61, 4.24080379307270050049e-02) (62, 1.21910631656646728516e-01) (63, 1.01174362003803253174e-01) (64, 1.00243426859378814697e-01) (65, 1.22280865907669067383e-01) (66, 3.23622524738311767578e-02) (67, 7.35687687993049621582e-02) (68, -7.50495612621307373047e-01) (69, 4.37752492725849151611e-02) (70, 3.71666136197745800018e-03) (71, 1.57919805496931076050e-02) (72, 5.75168570503592491150e-03) (73, 3.61206457018852233887e-02) (74, 2.65710633248090744019e-02) (75, 9.04889777302742004395e-02) (76, 1.16360440850257873535e-01) (77, -5.95462262630462646484e-01) (78, -2.05565709620714187622e-02) (79, 6.08249157667160034180e-02) (80, 2.90134306997060775757e-02) (81, -4.93781678378582000732e-02) (82, -3.90823595225811004639e-02) (83, -2.66437530517578125000e-01) (84, 8.33434239029884338379e-03) (85, -2.75837719440460205078e-01) (86, -1.23477861285209655762e-01) (87, -3.46046797931194305420e-02) (88, -1.68561711907386779785e-01) (89, 1.43485590815544128418e-01) (90, -3.71732227504253387451e-02) (91, -1.13601051270961761475e-01) (92, 3.85407991707324981689e-02) (93, 1.37387141585350036621e-01) (94, 8.50212052464485168457e-02) (95, -8.56741890311241149902e-03) (96, 1.12315118312835693359e-01) (97, -2.99681778997182846069e-02) (98, 1.17649897933006286621e-01) (99, 1.32844403386116027832e-01) (100, -1.78342536091804504395e-01) (101, -2.59855706244707107544e-02) (102, 1.28345296252518892288e-03) (2, 1.15723311901092529297e-01) (3, -6.77580296993255615234e-01) (4, 7.13700056076049804688e-02) (5, -6.72371208667755126953e-01) (6, 2.26586852222681045532e-02) (7, 4.69307862222194671631e-02) (8, 9.09520685672760009766e-02) (9, 1.36133879423141479492e-01) (10, 1.28594502806663513184e-01) (11, 9.42229330539703369141e-02) (12, -2.95103520154953002930e-01) (13, -2.85195708274841308594e-01) (14, -4.47953082621097564697e-02) (15, -2.86870617419481277466e-02) (16, -1.11222267150878906250e-01) (17, -2.67504472285509109497e-02) (18, -6.31032407283782958984e-01) (19, -6.01520836353302001953e-01) (20, -2.56077438592910766602e-01) (21, 8.40458273887634277344e-02) (22, -2.23899096250534057617e-01) (23, -1.31860196590423583984e+00) (24, -2.23084479570388793945e-01) (25, 6.49814233183860778809e-02) (26, -5.62778748571872711182e-02) (27, 4.43941317498683929443e-02) (28, 3.52780483663082122803e-02) (29, 1.29215463995933532715e-01) (30, -3.65012623369693756104e-02) (31, 6.19409792125225067139e-02) (32, -1.68538112193346023560e-02) (33, -3.03798645734786987305e-01) (34, -7.53856599330902099609e-01) (35, -1.18106400966644287109e+00) (36, 6.16453774273395538330e-02) (37, -1.82983696460723876953e-01) (38, -1.27235043048858642578e+00) (39, 1.43795320764183998108e-02) (40, 5.97293600440025329590e-02) (41, 1.53867900371551513672e-02) (42, -2.96159107238054275513e-02) (43, -1.73587322235107421875e-01) (44, 3.67755852639675140381e-02) (45, -2.57431268692016601562e-01) (46, 1.04307174682617187500e-01) (47, 3.21349166333675384521e-02) (48, 2.24033091217279434204e-02) (49, 6.62877485156059265137e-02) (50, 2.36275289207696914673e-02) (51, -1.71887874603271484375e-01) (52, 1.21145257726311683655e-02) (53, 1.06310084462165832520e-01) (54, 1.13453418016433715820e-01) (55, -6.35619699954986572266e-01) (56, 3.30719612538814544678e-02) (57, 1.18958294391632080078e-01) (58, -2.43010848760604858398e-01) (59, 1.30134537816047668457e-01) (60, 1.09954670071601867676e-01) (61, 2.70694177597761154175e-02) (62, 5.38564585149288177490e-02) (63, -4.51180674135684967041e-02) (64, 2.98557933419942855835e-02) (65, 9.30139124393463134766e-02) (66, 1.32963806390762329102e-01) (67, -4.67166043817996978760e-02) (68, -7.14620172977447509766e-01) (69, 1.97560880333185195923e-02) (70, 2.94457096606492996216e-02) (71, 1.38123929500579833984e-01) (72, 9.69257652759552001953e-02) (73, 6.16115219891071319580e-02) (74, 7.11168944835662841797e-02) (75, -4.51661646366119384766e-03) (76, 1.10766425728797912598e-01) (77, -6.94025695323944091797e-01) (78, 8.94017517566680908203e-02) (79, -5.04876673221588134766e-03) (80, -3.47261168062686920166e-02) (81, -2.51890998333692550659e-02) (82, 1.29645720124244689941e-01) (83, -2.05627590417861938477e-01) (84, -5.70979416370391845703e-02) (85, -1.39919370412826538086e-01) (86, -2.48234301805496215820e-01) (87, 3.77567633986473083496e-02) (88, -1.59179449081420898438e-01) (89, 6.01340755820274353027e-02) (90, 2.96727474778890609741e-02) (91, -1.87443196773529052734e-01) (92, -5.10142780840396881104e-02) (93, -5.46885468065738677979e-02) (94, 7.40208327770233154297e-02) (95, 4.06237803399562835693e-02) (96, 1.00108116865158081055e-01) (97, 6.87655806541442871094e-02) (98, 5.56899569928646087646e-02) (99, -2.14997250586748123169e-02) (100, -2.94499546289443969727e-01) (101, -5.30820824205875396729e-02) (102, -2.15948838740587234497e-02) (2, 1.14596985280513763428e-01) (3, -6.47531032562255859375e-01) (4, 1.16889990866184234619e-01) (5, -7.51567363739013671875e-01) (6, 4.84458841383457183838e-02) (7, 1.58765576779842376709e-02) (8, 1.23046047985553741455e-01) (9, 1.05180606245994567871e-01) (10, 4.29326333105564117432e-02) (11, -4.03620265424251556396e-02) (12, -1.48192092776298522949e-01) (13, -3.00916343927383422852e-01) (14, -3.56771908700466156006e-02) (15, 6.32688775658607482910e-02) (16, -2.42565467953681945801e-01) (17, 6.38634935021400451660e-02) (18, -7.12759613990783691406e-01) (19, -5.99279284477233886719e-01) (20, -2.89485067129135131836e-01) (21, 1.29808828234672546387e-01) (22, -1.09880819916725158691e-01) (23, -1.30839443206787109375e+00) (24, -1.79188773036003112793e-01) (25, 3.73245812952518463135e-02) (26, 1.24302461743354797363e-01) (27, -3.84296849370002746582e-03) (28, -4.52027581632137298584e-02) (29, -3.54162715375423431396e-02) (30, 8.24260432273149490356e-03) (31, -3.65021191537380218506e-02) (32, 4.77160234004259109497e-03) (33, -2.65767395496368408203e-01) (34, -6.27836108207702636719e-01) (35, -1.29294896125793457031e+00) (36, 7.09394877776503562927e-03) (37, -2.44562461972236633301e-01) (38, -1.22087597846984863281e+00) (39, -1.36640695855021476746e-02) (40, -3.83877716958522796631e-02) (41, -5.09402416646480560303e-02) (42, 2.17096740379929542542e-03) (43, -1.30382791161537170410e-01) (44, -5.08571527898311614990e-02) (45, -2.22107842564582824707e-01) (46, 3.38801518082618713379e-02) (47, 7.57308071479201316833e-03) (48, 1.42751589417457580566e-01) (49, 1.00747570395469665527e-01) (50, -1.20802568271756172180e-02) (51, -2.90538221597671508789e-01) (52, 8.67515951395034790039e-02) (53, -2.09651309996843338013e-02) (54, -2.71267611533403396606e-02) (55, -7.14872002601623535156e-01) (56, 7.25571364164352416992e-02) (57, -4.66289781033992767334e-02) (58, -1.83887645602226257324e-01) (59, 8.35514515638351440430e-02) (60, -2.58476454764604568481e-02) (61, 1.25351533293724060059e-01) (62, 1.03246405720710754395e-01) (63, 3.51200439035892486572e-02) (64, -3.94183062016963958740e-02) (65, 5.50350882112979888916e-02) (66, 6.91752582788467407227e-02) (67, 2.38727610558271408081e-02) (68, -6.11961007118225097656e-01) (69, -2.46982295066118240356e-02) (70, 6.64059072732925415039e-02) (71, 1.29279062151908874512e-01) (72, -1.94413978606462478638e-02) (73, 1.24773427844047546387e-01) (74, 9.98907834291458129883e-02) (75, -1.41015062108635902405e-02) (76, 3.66013031452894210815e-03) (77, -7.33462095260620117188e-01) (78, 4.96677197515964508057e-02) (79, 2.60691624134778976440e-03) (80, -5.30897043645381927490e-02) (81, 9.37851816415786743164e-02) (82, 1.30681348964571952820e-02) (83, -1.54940411448478698730e-01) (84, 1.29017278552055358887e-01) (85, -2.02660754323005676270e-01) (86, -2.90190666913986206055e-01) (87, 5.77684380114078521729e-02) (88, -1.93092688918113708496e-01) (89, 7.17204660177230834961e-02) (90, -2.48373812064528465271e-03) (91, -1.62743732333183288574e-01) (92, 5.32660223543643951416e-02) (93, -4.30419407784938812256e-02) (94, -2.66279894858598709106e-02) (95, 7.00459629297256469727e-02) (96, 6.81913942098617553711e-02) (97, 9.87438112497329711914e-02) (98, -4.98859249055385589600e-02) (99, 3.58551479876041412354e-02) (100, -1.14557936787605285645e-01) (101, 7.27170258760452270508e-02) (102, 2.13299673050642013550e-02) (2, -3.07430513203144073486e-02) (3, -6.64282083511352539062e-01) (4, -2.03230250626802444458e-02) (5, -7.08876132965087890625e-01) (6, 1.15803413093090057373e-01) (7, 2.58408915251493453979e-02) (8, 1.17217443883419036865e-01) (9, -2.53937114030122756958e-02) (10, 2.89482083171606063843e-02) (11, 6.71984925866127014160e-02) (12, -2.00927674770355224609e-01) (13, -2.69799828529357910156e-01) (14, 5.24098537862300872803e-02) (15, 1.42206817865371704102e-01) (16, -2.58991062641143798828e-01) (17, -3.36246527731418609619e-02) (18, -6.70120120048522949219e-01) (19, -6.06500029563903808594e-01) (20, -2.24709987640380859375e-01) (21, -1.16405654698610305786e-02) (22, -2.21607446670532226562e-01) (23, -1.22664618492126464844e+00) (24, -2.26870656013488769531e-01) (25, -5.05674816668033599854e-02) (26, -4.23693992197513580322e-02) (27, -2.71322932094335556030e-02) (28, -4.42563034594058990479e-02) (29, 4.96828220784664154053e-02) (30, -4.06948365271091461182e-02) (31, 8.46577435731887817383e-02) (32, 1.27211198210716247559e-01) (33, -2.62304067611694335938e-01) (34, -7.25688815116882324219e-01) (35, -1.29906702041625976562e+00) (36, -1.97011709213256835938e-01) (37, -2.80524581670761108398e-01) (38, -1.21929001808166503906e+00) (39, 1.89399216324090957642e-02) (40, -7.17932311818003654480e-03) (41, 1.23485036194324493408e-01) (42, 1.40075325965881347656e-01) (43, -1.54170721769332885742e-01) (44, -4.75769378244876861572e-02) (45, -1.98378205299377441406e-01) (46, 8.67701619863510131836e-02) (47, -7.82863795757293701172e-03) (48, 6.67331591248512268066e-02) (49, -9.18634794652462005615e-03) (50, -4.01646830141544342041e-02) (51, -1.04041978716850280762e-01) (52, 3.31088081002235412598e-02) (53, 3.69627140462398529053e-02) (54, 2.79374290257692337036e-02) (55, -6.15254640579223632812e-01) (56, 4.03319261968135833740e-02) (57, -2.05294013023376464844e-01) (58, -1.13022014498710632324e-01) (59, 5.00123165547847747803e-02) (60, 1.43125563859939575195e-01) (61, 1.45020604133605957031e-01) (62, -1.13939214497804641724e-02) (63, 1.24270841479301452637e-01) (64, -1.85457933694124221802e-02) (65, 3.70810888707637786865e-02) (66, 1.39030665159225463867e-01) (67, 8.31779688596725463867e-02) (68, -6.64932131767272949219e-01) (69, 3.35649624466896057129e-02) (70, -4.39470745623111724854e-02) (71, 1.02053627371788024902e-01) (72, 1.09860114753246307373e-02) (73, -4.99369539320468902588e-02) (74, 4.66165505349636077881e-02) (75, 1.73457358032464981079e-02) (76, 5.04197143018245697021e-02) (77, -7.32905387878417968750e-01) (78, 6.34540691971778869629e-02) (79, -2.89110448211431503296e-02) (80, 3.20721045136451721191e-02) (81, 7.72260874509811401367e-02) (82, -3.42179872095584869385e-02) (83, -1.25680565834045410156e-01) (84, -3.18757072091102600098e-02) (85, -1.97142601013183593750e-01) (86, -6.42200350761413574219e-01) (87, 6.23929128050804138184e-02) (88, -1.03702411055564880371e-01) (89, 6.37419894337654113770e-02) (90, -3.36580909788608551025e-02) (91, -1.06642052531242370605e-01) (92, 6.26973807811737060547e-02) (93, 8.88464972376823425293e-03) (94, 1.16364292800426483154e-01) (95, 9.80877727270126342773e-02) (96, 9.99031215906143188477e-02) (97, 1.09329737722873687744e-01) (98, 3.52000892162322998047e-02) (99, 9.13469120860099792480e-03) (100, -2.47967898845672607422e-01) (101, 4.51897047460079193115e-02) (102, -3.48766185343265533447e-02) (2, 5.91210685670375823975e-02) (3, -6.77353501319885253906e-01) (4, 6.30463659763336181641e-02) (5, -5.93508601188659667969e-01) (6, -4.90855313837528228760e-02) (7, 1.04305304586887359619e-01) (8, 4.77925799787044525146e-02) (9, -2.40599084645509719849e-02) (10, -9.68655012547969818115e-03) (11, -2.10453141480684280396e-02) (12, -2.49139860272407531738e-01) (13, -2.81435102224349975586e-01) (14, 1.01564801298081874847e-03) (15, 9.72516611218452453613e-02) (16, -1.49466872215270996094e-01) (17, 1.17345958948135375977e-01) (18, -6.31627917289733886719e-01) (19, -7.10902810096740722656e-01) (20, -1.07175461947917938232e-01) (21, 8.43782201409339904785e-02) (22, -1.15157179534435272217e-01) (23, -1.27197051048278808594e+00) (24, -1.90121173858642578125e-01) (25, 8.16660895943641662598e-02) (26, -4.57170940935611724854e-02) (27, -2.26855963468551635742e-01) (28, -2.91977394372224807739e-02) (29, 1.73543188720941543579e-02) (30, 6.87102451920509338379e-02) (31, 6.99292793869972229004e-02) (32, 3.64138446748256683350e-02) (33, -2.60404109954833984375e-01) (34, -7.50857234001159667969e-01) (35, -1.31638765335083007812e+00) (36, -2.73433089256286621094e-01) (37, -2.64265596866607666016e-01) (38, -1.15551543235778808594e+00) (39, 7.57310166954994201660e-02) (40, 1.30448732525110244751e-02) (41, -3.62196601927280426025e-02) (42, 1.11253246665000915527e-01) (43, -1.79527461528778076172e-01) (44, -1.62838567048311233521e-02) (45, -2.75967001914978027344e-01) (46, 1.90897677093744277954e-02) (47, 1.35616809129714965820e-01) (48, 1.42750084400177001953e-01) (49, -3.20591069757938385010e-02) (50, 5.19215874373912811279e-03) (51, -1.07859246432781219482e-01) (52, 1.08887195587158203125e-01) (53, -8.59810970723628997803e-03) (54, -6.04766886681318283081e-03) (55, -7.03780531883239746094e-01) (56, 1.29636347293853759766e-01) (57, -2.39995270967483520508e-01) (58, -1.50156855583190917969e-01) (59, -4.29957844316959381104e-02) (60, 7.87258222699165344238e-02) (61, 1.99189018458127975464e-02) (62, 8.35015252232551574707e-02) (63, -2.82929111272096633911e-02) (64, 6.08846507966518402100e-02) (65, 1.13123819231986999512e-01) (66, -1.56974736601114273071e-02) (67, 8.88230577111244201660e-02) (68, -7.73684024810791015625e-01) (69, -4.22308780252933502197e-02) (70, 2.11203526705503463745e-02) (71, 1.98404025286436080933e-02) (72, -2.18819249421358108521e-02) (73, -1.10595431178808212280e-02) (74, 1.41680508852005004883e-01) (75, 1.84017512947320938110e-02) (76, 1.43438372761011123657e-02) (77, -7.06575632095336914062e-01) (78, 1.05846635997295379639e-02) (79, 1.36600527912378311157e-02) (80, 4.18448410928249359131e-02) (81, 7.23450556397438049316e-02) (82, -2.37630933523178100586e-01) (83, -2.37499207258224487305e-01) (84, 1.20314538478851318359e-01) (85, -1.87110960483551025391e-01) (86, -6.39913558959960937500e-01) (87, 1.06516987085342407227e-01) (88, -1.25740066170692443848e-01) (89, 3.52072380483150482178e-02) (90, 1.20089292526245117188e-01) (91, -1.90447330474853515625e-01) (92, 1.11694827675819396973e-01) (93, 6.01565502583980560303e-02) (94, 8.26265290379524230957e-02) (95, 2.91469041258096694946e-02) (96, 2.98478249460458755493e-02) (97, 1.23496353626251220703e-01) (98, -2.70265996456146240234e-01) (99, 3.66428159177303314209e-02) (100, -1.06966488063335418701e-01) (101, 5.22242449223995208740e-02) (102, 1.13051876425743103027e-01) (2, -2.89060287177562713623e-02) (3, -6.29634857177734375000e-01) (4, 1.09874069690704345703e-01) (5, -6.79879903793334960938e-01) (6, -3.27808558940887451172e-02) (7, -1.62226390093564987183e-02) (8, 1.13216131925582885742e-01) (9, 3.74467633664608001709e-02) (10, 8.21908935904502868652e-02) (11, 4.21269200742244720459e-02) (12, -1.43616080284118652344e-01) (13, -2.98745632171630859375e-01) (14, 1.90088935196399688721e-02) (15, 1.54377119615674018860e-02) (16, -1.58175364136695861816e-01) (17, -1.79071836173534393311e-02) (18, -7.34879374504089355469e-01) (19, -7.47544646263122558594e-01) (20, -2.86053895950317382812e-01) (21, 1.01983271539211273193e-01) (22, -2.98142552375793457031e-01) (23, -1.20387995243072509766e+00) (24, -2.03622624278068542480e-01) (25, 3.23741994798183441162e-02) (26, -3.81116010248661041260e-02) (27, -2.23559364676475524902e-01) (28, 6.34797737002372741699e-02) (29, 5.50992451608180999756e-02) (30, 1.56395081430673599243e-02) (31, -2.77285985648632049561e-02) (32, 2.47185789048671722412e-02) (33, -2.00072988867759704590e-01) (34, -5.99371552467346191406e-01) (35, -1.28676950931549072266e+00) (36, -2.96021878719329833984e-01) (37, -2.93019473552703857422e-01) (38, -1.24500024318695068359e+00) (39, 1.19989149272441864014e-01) (40, 4.72221933305263519287e-02) (41, -2.54643373191356658936e-02) (42, 2.01079733669757843018e-02) (43, -2.38401398062705993652e-01) (44, -2.14150957763195037842e-02) (45, -1.47689774632453918457e-01) (46, 7.98276886343955993652e-02) (47, -1.21599175035953521729e-01) (48, 1.37195065617561340332e-01) (49, 1.28884270787239074707e-01) (50, -4.04097773134708404541e-02) (51, -2.90868163108825683594e-01) (52, 8.88581797480583190918e-02) (53, -3.57574559748172760010e-02) (54, 8.74009057879447937012e-02) (55, -7.37917542457580566406e-01) (56, 5.46093247830867767334e-02) (57, -1.37517422437667846680e-01) (58, -1.77541688084602355957e-01) (59, -2.39190272986888885498e-02) (60, 2.03730054199695587158e-02) (61, 1.40890017151832580566e-01) (62, 6.34431978687644004822e-03) (63, 1.03084228932857513428e-01) (64, 4.36058603227138519287e-02) (65, -9.09192766994237899780e-03) (66, -4.63409163057804107666e-02) (67, 5.03788553178310394287e-02) (68, -7.25259661674499511719e-01) (69, 4.60045002400875091553e-02) (70, 2.83599160611629486084e-02) (71, 1.05898901820182800293e-01) (72, 7.85333439707756042480e-02) (73, 1.06460496783256530762e-01) (74, -2.97124199569225311279e-02) (75, 1.15110293030738830566e-01) (76, 6.15602433681488037109e-02) (77, -6.17836594581604003906e-01) (78, 9.63024422526359558105e-02) (79, 5.67459426820278167725e-02) (80, 9.49821993708610534668e-02) (81, 1.13885253667831420898e-01) (82, -1.76125481724739074707e-01) (83, -2.02967509627342224121e-01) (84, 1.36121109127998352051e-01) (85, -2.30733200907707214355e-01) (86, -6.38094425201416015625e-01) (87, 4.87210415303707122803e-02) (88, -2.65464156866073608398e-01) (89, 1.30977192893624305725e-02) (90, 8.27951952815055847168e-02) (91, -1.87094941735267639160e-01) (92, 1.19783738628029823303e-02) (93, -5.28695620596408843994e-02) (94, 1.87792964279651641846e-02) (95, 1.13577455282211303711e-01) (96, -3.96898295730352401733e-03) (97, 3.04309334605932235718e-02) (98, 