FANN_FLO_2.1
num_layers=3
learning_rate=0.700000
connection_rate=1.000000
network_type=0
learning_momentum=0.000000
training_algorithm=2
train_error_function=1
train_stop_function=0
cascade_output_change_fraction=0.010000
quickprop_decay=-0.000100
quickprop_mu=1.750000
rprop_increase_factor=1.200000
rprop_decrease_factor=0.500000
rprop_delta_min=0.000000
rprop_delta_max=50.000000
rprop_delta_zero=0.100000
cascade_output_stagnation_epochs=12
cascade_candidate_change_fraction=0.010000
cascade_candidate_stagnation_epochs=12
cascade_max_out_epochs=150
cascade_min_out_epochs=50
cascade_max_cand_epochs=150
cascade_min_cand_epochs=50
cascade_num_candidate_groups=2
bit_fail_limit=3.49999994039535522461e-01
cascade_candidate_limit=1.00000000000000000000e+03
cascade_weight_multiplier=4.00000005960464477539e-01
cascade_activation_functions_count=10
cascade_activation_functions=3 5 7 8 10 11 14 15 16 17 
cascade_activation_steepnesses_count=4
cascade_activation_steepnesses=2.50000000000000000000e-01 5.00000000000000000000e-01 7.50000000000000000000e-01 1.00000000000000000000e+00 
layer_sizes=2 101 471 
scale_included=0
neurons (num_inputs, activation_function, activation_steepness)=(0, 0, 0.00000000000000000000e+00) (0, 0, 0.00000000000000000000e+00) (2, 3, 5.00000000000000000000e-01) (2, 3, 5.00000000000000000000e-01) (2, 3, 5.00000000000000000000e-01) (2, 3, 5.00000000000000000000e-01) (2, 3, 5.00000000000000000000e-01) (2, 3, 5.00000000000000000000e-01) (2, 3, 5.00000000000000000000e-01) (2, 3, 5.00000000000000000000e-01) (2, 3, 5.00000000000000000000e-01) (2, 3, 5.00000000000000000000e-01) (2, 3, 5.00000000000000000000e-01) (2, 3, 5.00000000000000000000e-01) (2, 3, 5.00000000000000000000e-01) (2, 3, 5.00000000000000000000e-01) (2, 3, 5.00000000000000000000e-01) (2, 3, 5.00000000000000000000e-01) (2, 3, 5.00000000000000000000e-01) (2, 3, 5.00000000000000000000e-01) (2, 3, 5.00000000000000000000e-01) (2, 3, 5.00000000000000000000e-01) (2, 3, 5.00000000000000000000e-01) (2, 3, 5.00000000000000000000e-01) (2, 3, 5.00000000000000000000e-01) (2, 3, 5.00000000000000000000e-01) (2, 3, 5.00000000000000000000e-01) (2, 3, 5.00000000000000000000e-01) (2, 3, 5.00000000000000000000e-01) (2, 3, 5.00000000000000000000e-01) (2, 3, 5.00000000000000000000e-01) (2, 3, 5.00000000000000000000e-01) (2, 3, 5.00000000000000000000e-01) (2, 3, 5.00000000000000000000e-01) (2, 3, 5.00000000000000000000e-01) (2, 3, 5.00000000000000000000e-01) (2, 3, 5.00000000000000000000e-01) (2, 3, 5.00000000000000000000e-01) (2, 3, 5.00000000000000000000e-01) (2, 3, 5.00000000000000000000e-01) (2, 3, 5.00000000000000000000e-01) (2, 3, 5.00000000000000000000e-01) (2, 3, 5.00000000000000000000e-01) (2, 3, 5.00000000000000000000e-01) (2, 3, 5.00000000000000000000e-01) (2, 3, 5.00000000000000000000e-01) (2, 3, 5.00000000000000000000e-01) (2, 3, 5.00000000000000000000e-01) (2, 3, 5.00000000000000000000e-01) (2, 3, 5.00000000000000000000e-01) (2, 3, 5.00000000000000000000e-01) (2, 3, 5.00000000000000000000e-01) (2, 3, 5.00000000000000000000e-01) (2, 3, 5.00000000000000000000e-01) (2, 3, 5.00000000000000000000e-01) (2, 3, 5.00000000000000000000e-01) (2, 3, 5.00000000000000000000e-01) (2, 3, 5.00000000000000000000e-01) (2, 3, 5.00000000000000000000e-01) (2, 3, 5.00000000000000000000e-01) (2, 3, 5.00000000000000000000e-01) (2, 3, 5.00000000000000000000e-01) (2, 3, 5.00000000000000000000e-01) (2, 3, 5.00000000000000000000e-01) (2, 3, 5.00000000000000000000e-01) (2, 3, 5.00000000000000000000e-01) (2, 3, 5.00000000000000000000e-01) (2, 3, 5.00000000000000000000e-01) (2, 3, 5.00000000000000000000e-01) (2, 3, 5.00000000000000000000e-01) (2, 3, 5.00000000000000000000e-01) (2, 3, 5.00000000000000000000e-01) (2, 3, 5.00000000000000000000e-01) (2, 3, 5.00000000000000000000e-01) (2, 3, 5.00000000000000000000e-01) (2, 3, 5.00000000000000000000e-01) (2, 3, 5.00000000000000000000e-01) (2, 3, 5.00000000000000000000e-01) (2, 3, 5.00000000000000000000e-01) (2, 3, 5.00000000000000000000e-01) (2, 3, 5.00000000000000000000e-01) (2, 3, 5.00000000000000000000e-01) (2, 3, 5.00000000000000000000e-01) (2, 3, 5.00000000000000000000e-01) (2, 3, 5.00000000000000000000e-01) (2, 3, 5.00000000000000000000e-01) (2, 3, 5.00000000000000000000e-01) (2, 3, 5.00000000000000000000e-01) (2, 3, 5.00000000000000000000e-01) (2, 3, 5.00000000000000000000e-01) (2, 3, 5.00000000000000000000e-01) (2, 3, 5.00000000000000000000e-01) (2, 3, 5.00000000000000000000e-01) (2, 3, 5.00000000000000000000e-01) (2, 3, 5.00000000000000000000e-01) (2, 3, 5.00000000000000000000e-01) (2, 3, 5.00000000000000000000e-01) (2, 3, 5.00000000000000000000e-01) (2, 3, 5.00000000000000000000e-01) (2, 3, 5.00000000000000000000e-01) (2, 3, 5.00000000000000000000e-01) (2, 3, 5.00000000000000000000e-01) (0, 3, 0.00000000000000000000e+00) (101, 3, 5.00000000000000000000e-01) (101, 3, 5.00000000000000000000e-01) (101, 3, 5.00000000000000000000e-01) (101, 3, 5.00000000000000000000e-01) (101, 3, 5.00000000000000000000e-01) (101, 3, 5.00000000000000000000e-01) (101, 3, 5.00000000000000000000e-01) (101, 3, 5.00000000000000000000e-01) (101, 3, 5.00000000000000000000e-01) (101, 3, 5.00000000000000000000e-01) (101, 3, 5.00000000000000000000e-01) (101, 3, 5.00000000000000000000e-01) (101, 3, 5.00000000000000000000e-01) (101, 3, 5.00000000000000000000e-01) (101, 3, 5.00000000000000000000e-01) (101, 3, 5.00000000000000000000e-01) (101, 3, 5.00000000000000000000e-01) (101, 3, 5.00000000000000000000e-01) (101, 3, 5.00000000000000000000e-01) (101, 3, 5.00000000000000000000e-01) (101, 3, 5.00000000000000000000e-01) (101, 3, 5.00000000000000000000e-01) (101, 3, 5.00000000000000000000e-01) (101, 3, 5.00000000000000000000e-01) (101, 3, 5.00000000000000000000e-01) (101, 3, 5.00000000000000000000e-01) (101, 3, 5.00000000000000000000e-01) (101, 3, 5.00000000000000000000e-01) (101, 3, 5.00000000000000000000e-01) (101, 3, 5.00000000000000000000e-01) (101, 3, 5.00000000000000000000e-01) (101, 3, 5.00000000000000000000e-01) (101, 3, 5.00000000000000000000e-01) (101, 3, 5.00000000000000000000e-01) (101, 3, 5.00000000000000000000e-01) (101, 3, 5.00000000000000000000e-01) (101, 3, 5.00000000000000000000e-01) (101, 3, 5.00000000000000000000e-01) (101, 3, 5.00000000000000000000e-01) (101, 3, 5.00000000000000000000e-01) (101, 3, 5.00000000000000000000e-01) (101, 3, 5.00000000000000000000e-01) (101, 3, 5.00000000000000000000e-01) (101, 3, 5.00000000000000000000e-01) (101, 3, 5.00000000000000000000e-01) (101, 3, 5.00000000000000000000e-01) (101, 3, 5.00000000000000000000e-01) (101, 3, 5.00000000000000000000e-01) (101, 3, 5.00000000000000000000e-01) (101, 3, 5.00000000000000000000e-01) (101, 3, 5.00000000000000000000e-01) (101, 3, 5.00000000000000000000e-01) (101, 3, 5.00000000000000000000e-01) (101, 3, 5.00000000000000000000e-01) (101, 3, 5.00000000000000000000e-01) (101, 3, 5.00000000000000000000e-01) (101, 3, 5.00000000000000000000e-01) (101, 3, 5.00000000000000000000e-01) (101, 3, 5.00000000000000000000e-01) (101, 3, 5.00000000000000000000e-01) (101, 3, 5.00000000000000000000e-01) (101, 3, 5.00000000000000000000e-01) (101, 3, 5.00000000000000000000e-01) (101, 3, 5.00000000000000000000e-01) (101, 3, 5.00000000000000000000e-01) (101, 3, 5.00000000000000000000e-01) (101, 3, 5.00000000000000000000e-01) (101, 3, 5.00000000000000000000e-01) (101, 3, 5.00000000000000000000e-01) (101, 3, 5.00000000000000000000e-01) (101, 3, 5.00000000000000000000e-01) (101, 3, 5.00000000000000000000e-01) (101, 3, 5.00000000000000000000e-01) (101, 3, 5.00000000000000000000e-01) (101, 3, 5.00000000000000000000e-01) (101, 3, 5.00000000000000000000e-01) (101, 3, 5.00000000000000000000e-01) (101, 3, 5.00000000000000000000e-01) (101, 3, 5.00000000000000000000e-01) (101, 3, 5.00000000000000000000e-01) (101, 3, 5.00000000000000000000e-01) (101, 3, 5.00000000000000000000e-01) (101, 3, 5.00000000000000000000e-01) (101, 3, 5.00000000000000000000e-01) (101, 3, 5.00000000000000000000e-01) (101, 3, 5.00000000000000000000e-01) (101, 3, 5.00000000000000000000e-01) (101, 3, 5.00000000000000000000e-01) (101, 3, 5.00000000000000000000e-01) (101, 3, 5.00000000000000000000e-01) (101, 3, 5.00000000000000000000e-01) (101, 3, 5.00000000000000000000e-01) (101, 3, 5.00000000000000000000e-01) (101, 3, 5.00000000000000000000e-01) (101, 3, 5.00000000000000000000e-01) (101, 3, 5.00000000000000000000e-01) (101, 3, 5.00000000000000000000e-01) (101, 3, 5.00000000000000000000e-01) (101, 3, 5.00000000000000000000e-01) (101, 3, 5.00000000000000000000e-01) (101, 3, 5.00000000000000000000e-01) (101, 3, 5.00000000000000000000e-01) (101, 3, 5.00000000000000000000e-01) (101, 3, 5.00000000000000000000e-01) (101, 3, 5.00000000000000000000e-01) (101, 3, 5.00000000000000000000e-01) (101, 3, 5.00000000000000000000e-01) (101, 3, 5.00000000000000000000e-01) (101, 3, 5.00000000000000000000e-01) (101, 3, 5.00000000000000000000e-01) (101, 3, 5.00000000000000000000e-01) (101, 3, 5.00000000000000000000e-01) (101, 3, 5.00000000000000000000e-01) (101, 3, 5.00000000000000000000e-01) (101, 3, 5.00000000000000000000e-01) (101, 3, 5.00000000000000000000e-01) (101, 3, 5.00000000000000000000e-01) (101, 3, 5.00000000000000000000e-01) (101, 3, 5.00000000000000000000e-01) (101, 3, 5.00000000000000000000e-01) (101, 3, 5.00000000000000000000e-01) (101, 3, 5.00000000000000000000e-01) (101, 3, 5.00000000000000000000e-01) (101, 3, 5.00000000000000000000e-01) (101, 3, 5.00000000000000000000e-01) (101, 3, 5.00000000000000000000e-01) (101, 3, 5.00000000000000000000e-01) (101, 3, 5.00000000000000000000e-01) (101, 3, 5.00000000000000000000e-01) (101, 3, 5.00000000000000000000e-01) (101, 3, 5.00000000000000000000e-01) (101, 3, 5.00000000000000000000e-01) (101, 3, 5.00000000000000000000e-01) (101, 3, 5.00000000000000000000e-01) (101, 3, 5.00000000000000000000e-01) (101, 3, 5.00000000000000000000e-01) (101, 3, 5.00000000000000000000e-01) (101, 3, 5.00000000000000000000e-01) (101, 3, 5.00000000000000000000e-01) (101, 3, 5.00000000000000000000e-01) (101, 3, 5.00000000000000000000e-01) (101, 3, 5.00000000000000000000e-01) (101, 3, 5.00000000000000000000e-01) (101, 3, 5.00000000000000000000e-01) (101, 3, 5.00000000000000000000e-01) (101, 3, 5.00000000000000000000e-01) (101, 3, 5.00000000000000000000e-01) (101, 3, 5.00000000000000000000e-01) (101, 3, 5.00000000000000000000e-01) (101, 3, 5.00000000000000000000e-01) (101, 3, 5.00000000000000000000e-01) (101, 3, 5.00000000000000000000e-01) (101, 3, 5.00000000000000000000e-01) (101, 3, 5.00000000000000000000e-01) (101, 3, 5.00000000000000000000e-01) (101, 3, 5.00000000000000000000e-01) (101, 3, 5.00000000000000000000e-01) (101, 3, 5.00000000000000000000e-01) (101, 3, 5.00000000000000000000e-01) (101, 3, 5.00000000000000000000e-01) (101, 3, 5.00000000000000000000e-01) (101, 3, 5.00000000000000000000e-01) (101, 3, 5.00000000000000000000e-01) (101, 3, 5.00000000000000000000e-01) (101, 3, 5.00000000000000000000e-01) (101, 3, 5.00000000000000000000e-01) (101, 3, 5.00000000000000000000e-01) (101, 3, 5.00000000000000000000e-01) (101, 3, 5.00000000000000000000e-01) (101, 3, 5.00000000000000000000e-01) (101, 3, 5.00000000000000000000e-01) (101, 3, 5.00000000000000000000e-01) (101, 3, 5.00000000000000000000e-01) (101, 3, 5.00000000000000000000e-01) (101, 3, 5.00000000000000000000e-01) (101, 3, 5.00000000000000000000e-01) (101, 3, 5.00000000000000000000e-01) (101, 3, 5.00000000000000000000e-01) (101, 3, 5.00000000000000000000e-01) (101, 3, 5.00000000000000000000e-01) (101, 3, 5.00000000000000000000e-01) (101, 3, 5.00000000000000000000e-01) (101, 3, 5.00000000000000000000e-01) (101, 3, 5.00000000000000000000e-01) (101, 3, 5.00000000000000000000e-01) (101, 3, 5.00000000000000000000e-01) (101, 3, 5.00000000000000000000e-01) (101, 3, 5.00000000000000000000e-01) (101, 3, 5.00000000000000000000e-01) (101, 3, 5.00000000000000000000e-01) (101, 3, 5.00000000000000000000e-01) (101, 3, 5.00000000000000000000e-01) (101, 3, 5.00000000000000000000e-01) (101, 3, 5.00000000000000000000e-01) (101, 3, 5.00000000000000000000e-01) (101, 3, 5.00000000000000000000e-01) (101, 3, 5.00000000000000000000e-01) (101, 3, 5.00000000000000000000e-01) (101, 3, 5.00000000000000000000e-01) (101, 3, 5.00000000000000000000e-01) (101, 3, 5.00000000000000000000e-01) (101, 3, 5.00000000000000000000e-01) (101, 3, 5.00000000000000000000e-01) (101, 3, 5.00000000000000000000e-01) (101, 3, 5.00000000000000000000e-01) (101, 3, 5.00000000000000000000e-01) (101, 3, 5.00000000000000000000e-01) (101, 3, 5.00000000000000000000e-01) (101, 3, 5.00000000000000000000e-01) (101, 3, 5.00000000000000000000e-01) (101, 3, 5.00000000000000000000e-01) (101, 3, 5.00000000000000000000e-01) (101, 3, 5.00000000000000000000e-01) (101, 3, 5.00000000000000000000e-01) (101, 3, 5.00000000000000000000e-01) (101, 3, 5.00000000000000000000e-01) (101, 3, 5.00000000000000000000e-01) (101, 3, 5.00000000000000000000e-01) (101, 3, 5.00000000000000000000e-01) (101, 3, 5.00000000000000000000e-01) (101, 3, 5.00000000000000000000e-01) (101, 3, 5.00000000000000000000e-01) (101, 3, 5.00000000000000000000e-01) (101, 3, 5.00000000000000000000e-01) (101, 3, 5.00000000000000000000e-01) (101, 3, 5.00000000000000000000e-01) (101, 3, 5.00000000000000000000e-01) (101, 3, 5.00000000000000000000e-01) (101, 3, 5.00000000000000000000e-01) (101, 3, 5.00000000000000000000e-01) (101, 3, 5.00000000000000000000e-01) (101, 3, 5.00000000000000000000e-01) (101, 3, 5.00000000000000000000e-01) (101, 3, 5.00000000000000000000e-01) (101, 3, 5.00000000000000000000e-01) (101, 3, 5.00000000000000000000e-01) (101, 3, 5.00000000000000000000e-01) (101, 3, 5.00000000000000000000e-01) (101, 3, 5.00000000000000000000e-01) (101, 3, 5.00000000000000000000e-01) (101, 3, 5.00000000000000000000e-01) (101, 3, 5.00000000000000000000e-01) (101, 3, 5.00000000000000000000e-01) (101, 3, 5.00000000000000000000e-01) (101, 3, 5.00000000000000000000e-01) (101, 3, 5.00000000000000000000e-01) (101, 3, 5.00000000000000000000e-01) (101, 3, 5.00000000000000000000e-01) (101, 3, 5.00000000000000000000e-01) (101, 3, 5.00000000000000000000e-01) (101, 3, 5.00000000000000000000e-01) (101, 3, 5.00000000000000000000e-01) (101, 3, 5.00000000000000000000e-01) (101, 3, 5.00000000000000000000e-01) (101, 3, 5.00000000000000000000e-01) (101, 3, 5.00000000000000000000e-01) (101, 3, 5.00000000000000000000e-01) (101, 3, 5.00000000000000000000e-01) (101, 3, 5.00000000000000000000e-01) (101, 3, 5.00000000000000000000e-01) (101, 3, 5.00000000000000000000e-01) (101, 3, 5.00000000000000000000e-01) (101, 3, 5.00000000000000000000e-01) (101, 3, 5.00000000000000000000e-01) (101, 3, 5.00000000000000000000e-01) (101, 3, 5.00000000000000000000e-01) (101, 3, 5.00000000000000000000e-01) (101, 3, 5.00000000000000000000e-01) (101, 3, 5.00000000000000000000e-01) (101, 3, 5.00000000000000000000e-01) (101, 3, 5.00000000000000000000e-01) (101, 3, 5.00000000000000000000e-01) (101, 3, 5.00000000000000000000e-01) (101, 3, 5.00000000000000000000e-01) (101, 3, 5.00000000000000000000e-01) (101, 3, 5.00000000000000000000e-01) (101, 3, 5.00000000000000000000e-01) (101, 3, 5.00000000000000000000e-01) (101, 3, 5.00000000000000000000e-01) (101, 3, 5.00000000000000000000e-01) (101, 3, 5.00000000000000000000e-01) (101, 3, 5.00000000000000000000e-01) (101, 3, 5.00000000000000000000e-01) (101, 3, 5.00000000000000000000e-01) (101, 3, 5.00000000000000000000e-01) (101, 3, 5.00000000000000000000e-01) (101, 3, 5.00000000000000000000e-01) (101, 3, 5.00000000000000000000e-01) (101, 3, 5.00000000000000000000e-01) (101, 3, 5.00000000000000000000e-01) (101, 3, 5.00000000000000000000e-01) (101, 3, 5.00000000000000000000e-01) (101, 3, 5.00000000000000000000e-01) (101, 3, 5.00000000000000000000e-01) (101, 3, 5.00000000000000000000e-01) (101, 3, 5.00000000000000000000e-01) (101, 3, 5.00000000000000000000e-01) (101, 3, 5.00000000000000000000e-01) (101, 3, 5.00000000000000000000e-01) (101, 3, 5.00000000000000000000e-01) (101, 3, 5.00000000000000000000e-01) (101, 3, 5.00000000000000000000e-01) (101, 3, 5.00000000000000000000e-01) (101, 3, 5.00000000000000000000e-01) (101, 3, 5.00000000000000000000e-01) (101, 3, 5.00000000000000000000e-01) (101, 3, 5.00000000000000000000e-01) (101, 3, 5.00000000000000000000e-01) (101, 3, 5.00000000000000000000e-01) (101, 3, 5.00000000000000000000e-01) (101, 3, 5.00000000000000000000e-01) (101, 3, 5.00000000000000000000e-01) (101, 3, 5.00000000000000000000e-01) (101, 3, 5.00000000000000000000e-01) (101, 3, 5.00000000000000000000e-01) (101, 3, 5.00000000000000000000e-01) (101, 3, 5.00000000000000000000e-01) (101, 3, 5.00000000000000000000e-01) (101, 3, 5.00000000000000000000e-01) (101, 3, 5.00000000000000000000e-01) (101, 3, 5.00000000000000000000e-01) (101, 3, 5.00000000000000000000e-01) (101, 3, 5.00000000000000000000e-01) (101, 3, 5.00000000000000000000e-01) (101, 3, 5.00000000000000000000e-01) (101, 3, 5.00000000000000000000e-01) (101, 3, 5.00000000000000000000e-01) (101, 3, 5.00000000000000000000e-01) (101, 3, 5.00000000000000000000e-01) (101, 3, 5.00000000000000000000e-01) (101, 3, 5.00000000000000000000e-01) (101, 3, 5.00000000000000000000e-01) (101, 3, 5.00000000000000000000e-01) (101, 3, 5.00000000000000000000e-01) (101, 3, 5.00000000000000000000e-01) (101, 3, 5.00000000000000000000e-01) (101, 3, 5.00000000000000000000e-01) (101, 3, 5.00000000000000000000e-01) (101, 3, 5.00000000000000000000e-01) (101, 3, 5.00000000000000000000e-01) (101, 3, 5.00000000000000000000e-01) (101, 3, 5.00000000000000000000e-01) (101, 3, 5.00000000000000000000e-01) (101, 3, 5.00000000000000000000e-01) (101, 3, 5.00000000000000000000e-01) (101, 3, 5.00000000000000000000e-01) (101, 3, 5.00000000000000000000e-01) (101, 3, 5.00000000000000000000e-01) (101, 3, 5.00000000000000000000e-01) (101, 3, 5.00000000000000000000e-01) (101, 3, 5.00000000000000000000e-01) (101, 3, 5.00000000000000000000e-01) (101, 3, 5.00000000000000000000e-01) (101, 3, 5.00000000000000000000e-01) (101, 3, 5.00000000000000000000e-01) (101, 3, 5.00000000000000000000e-01) (101, 3, 5.00000000000000000000e-01) (101, 3, 5.00000000000000000000e-01) (101, 3, 5.00000000000000000000e-01) (101, 3, 5.00000000000000000000e-01) (101, 3, 5.00000000000000000000e-01) (101, 3, 5.00000000000000000000e-01) (101, 3, 5.00000000000000000000e-01) (101, 3, 5.00000000000000000000e-01) (101, 3, 5.00000000000000000000e-01) (101, 3, 5.00000000000000000000e-01) (101, 3, 5.00000000000000000000e-01) (101, 3, 5.00000000000000000000e-01) (101, 3, 5.00000000000000000000e-01) (101, 3, 5.00000000000000000000e-01) (101, 3, 5.00000000000000000000e-01) (101, 3, 5.00000000000000000000e-01) (101, 3, 5.00000000000000000000e-01) (101, 3, 5.00000000000000000000e-01) (101, 3, 5.00000000000000000000e-01) (101, 3, 5.00000000000000000000e-01) (101, 3, 5.00000000000000000000e-01) (101, 3, 5.00000000000000000000e-01) (101, 3, 5.00000000000000000000e-01) (101, 3, 5.00000000000000000000e-01) (101, 3, 5.00000000000000000000e-01) (101, 3, 5.00000000000000000000e-01) (101, 3, 5.00000000000000000000e-01) (101, 3, 5.00000000000000000000e-01) (101, 3, 5.00000000000000000000e-01) (101, 3, 5.00000000000000000000e-01) (101, 3, 5.00000000000000000000e-01) (101, 3, 5.00000000000000000000e-01) (101, 3, 5.00000000000000000000e-01) (101, 3, 5.00000000000000000000e-01) (101, 3, 5.00000000000000000000e-01) (101, 3, 5.00000000000000000000e-01) (101, 3, 5.00000000000000000000e-01) (101, 3, 5.00000000000000000000e-01) (101, 3, 5.00000000000000000000e-01) (101, 3, 5.00000000000000000000e-01) (101, 3, 5.00000000000000000000e-01) (101, 3, 5.00000000000000000000e-01) (101, 3, 5.00000000000000000000e-01) (101, 3, 5.00000000000000000000e-01) (101, 3, 5.00000000000000000000e-01) (101, 3, 5.00000000000000000000e-01) (101, 3, 5.00000000000000000000e-01) (101, 3, 5.00000000000000000000e-01) (101, 3, 5.00000000000000000000e-01) (101, 3, 5.00000000000000000000e-01) (101, 3, 5.00000000000000000000e-01) (101, 3, 5.00000000000000000000e-01) (101, 3, 5.00000000000000000000e-01) (101, 3, 5.00000000000000000000e-01) (101, 3, 5.00000000000000000000e-01) (101, 3, 5.00000000000000000000e-01) (101, 3, 5.00000000000000000000e-01) (101, 3, 5.00000000000000000000e-01) (101, 3, 5.00000000000000000000e-01) (101, 3, 5.00000000000000000000e-01) (101, 3, 5.00000000000000000000e-01) (101, 3, 5.00000000000000000000e-01) (101, 3, 5.00000000000000000000e-01) (101, 3, 5.00000000000000000000e-01) (101, 3, 5.00000000000000000000e-01) (101, 3, 5.00000000000000000000e-01) (101, 3, 5.00000000000000000000e-01) (101, 3, 5.00000000000000000000e-01) (101, 3, 5.00000000000000000000e-01) (101, 3, 5.00000000000000000000e-01) (101, 3, 5.00000000000000000000e-01) (101, 3, 5.00000000000000000000e-01) (101, 3, 5.00000000000000000000e-01) (101, 3, 5.00000000000000000000e-01) (101, 3, 5.00000000000000000000e-01) (101, 3, 5.00000000000000000000e-01) (101, 3, 5.00000000000000000000e-01) (101, 3, 5.00000000000000000000e-01) (101, 3, 5.00000000000000000000e-01) (101, 3, 5.00000000000000000000e-01) (101, 3, 5.00000000000000000000e-01) (101, 3, 5.00000000000000000000e-01) (101, 3, 5.00000000000000000000e-01) (101, 3, 5.00000000000000000000e-01) (101, 3, 5.00000000000000000000e-01) (101, 3, 5.00000000000000000000e-01) (101, 3, 5.00000000000000000000e-01) (101, 3, 5.00000000000000000000e-01) (101, 3, 5.00000000000000000000e-01) (101, 3, 5.00000000000000000000e-01) (101, 3, 5.00000000000000000000e-01) (101, 3, 5.00000000000000000000e-01) (101, 3, 5.00000000000000000000e-01) (101, 3, 5.00000000000000000000e-01) (101, 3, 5.00000000000000000000e-01) (101, 3, 5.00000000000000000000e-01) (101, 3, 5.00000000000000000000e-01) (101, 3, 5.00000000000000000000e-01) (101, 3, 5.00000000000000000000e-01) (101, 3, 5.00000000000000000000e-01) (101, 3, 5.00000000000000000000e-01) (101, 3, 5.00000000000000000000e-01) (101, 3, 5.00000000000000000000e-01) (101, 3, 5.00000000000000000000e-01) (101, 3, 5.00000000000000000000e-01) (101, 3, 5.00000000000000000000e-01) (101, 3, 5.00000000000000000000e-01) (101, 3, 5.00000000000000000000e-01) (101, 3, 5.00000000000000000000e-01) (101, 3, 5.00000000000000000000e-01) (101, 3, 5.00000000000000000000e-01) (101, 3, 5.00000000000000000000e-01) (101, 3, 5.00000000000000000000e-01) (101, 3, 5.00000000000000000000e-01) (0, 3, 0.00000000000000000000e+00) 
connections (connected_to_neuron, weight)=(0, 1.50000000000000000000e+03) (1, 1.50000000000000000000e+03) (0, 1.50000000000000000000e+03) (1, 1.50000000000000000000e+03) (0, 1.50000000000000000000e+03) (1, 1.50000000000000000000e+03) (0, 1.50000000000000000000e+03) (1, 1.50000000000000000000e+03) (0, 1.50000000000000000000e+03) (1, 1.50000000000000000000e+03) (0, 1.50000000000000000000e+03) (1, 1.50000000000000000000e+03) (0, 1.50000000000000000000e+03) (1, 1.50000000000000000000e+03) (0, 1.50000000000000000000e+03) (1, 1.50000000000000000000e+03) (0, 1.50000000000000000000e+03) (1, 1.50000000000000000000e+03) (0, 1.50000000000000000000e+03) (1, 1.50000000000000000000e+03) (0, 1.50000000000000000000e+03) (1, 1.50000000000000000000e+03) (0, 1.50000000000000000000e+03) (1, 1.50000000000000000000e+03) (0, 1.50000000000000000000e+03) (1, 1.50000000000000000000e+03) (0, -1.50000000000000000000e+03) (1, -1.50000000000000000000e+03) (0, 1.50000000000000000000e+03) (1, 1.50000000000000000000e+03) (0, 1.50000000000000000000e+03) (1, 1.50000000000000000000e+03) (0, 1.50000000000000000000e+03) (1, 1.50000000000000000000e+03) (0, 1.50000000000000000000e+03) (1, 1.50000000000000000000e+03) (0, 1.50000000000000000000e+03) (1, 1.50000000000000000000e+03) (0, 1.50000000000000000000e+03) (1, 1.50000000000000000000e+03) (0, 1.50000000000000000000e+03) (1, 1.50000000000000000000e+03) (0, -1.50000000000000000000e+03) (1, -1.50000000000000000000e+03) (0, 1.50000000000000000000e+03) (1, 1.50000000000000000000e+03) (0, 1.50000000000000000000e+03) (1, 1.50000000000000000000e+03) (0, -1.50000000000000000000e+03) (1, -1.50000000000000000000e+03) (0, -1.50000000000000000000e+03) (1, -1.50000000000000000000e+03) (0, 1.50000000000000000000e+03) (1, 1.50000000000000000000e+03) (0, 1.50000000000000000000e+03) (1, 1.50000000000000000000e+03) (0, 1.50000000000000000000e+03) (1, 1.50000000000000000000e+03) (0, 1.50000000000000000000e+03) (1, 1.50000000000000000000e+03) (0, 1.50000000000000000000e+03) (1, 1.50000000000000000000e+03) (0, 1.50000000000000000000e+03) (1, 1.50000000000000000000e+03) (0, 1.50000000000000000000e+03) (1, 1.50000000000000000000e+03) (0, 1.50000000000000000000e+03) (1, 1.50000000000000000000e+03) (0, -1.50000000000000000000e+03) (1, -1.50000000000000000000e+03) (0, 1.50000000000000000000e+03) (1, 1.50000000000000000000e+03) (0, 1.50000000000000000000e+03) (1, 1.50000000000000000000e+03) (0, 1.50000000000000000000e+03) (1, 1.50000000000000000000e+03) (0, 1.53213331941515207291e-05) (1, -3.34560349583625793457e-02) (0, 1.50000000000000000000e+03) (1, 1.50000000000000000000e+03) (0, 1.50000000000000000000e+03) (1, 1.50000000000000000000e+03) (0, 1.50000000000000000000e+03) (1, 1.50000000000000000000e+03) (0, 1.50000000000000000000e+03) (1, 1.50000000000000000000e+03) (0, 1.50000000000000000000e+03) (1, 1.50000000000000000000e+03) (0, -1.50000000000000000000e+03) (1, -1.50000000000000000000e+03) (0, 1.50000000000000000000e+03) (1, 1.50000000000000000000e+03) (0, 1.50000000000000000000e+03) (1, 1.50000000000000000000e+03) (0, 1.50000000000000000000e+03) (1, 1.50000000000000000000e+03) (0, 1.50000000000000000000e+03) (1, 1.50000000000000000000e+03) (0, 1.50000000000000000000e+03) (1, 1.50000000000000000000e+03) (0, -1.50000000000000000000e+03) (1, -1.50000000000000000000e+03) (0, 1.50000000000000000000e+03) (1, 1.50000000000000000000e+03) (0, -1.50000000000000000000e+03) (1, -1.50000000000000000000e+03) (0, 1.50000000000000000000e+03) (1, 1.50000000000000000000e+03) (0, 1.50000000000000000000e+03) (1, 1.50000000000000000000e+03) (0, 1.50000000000000000000e+03) (1, 1.50000000000000000000e+03) (0, 1.50000000000000000000e+03) (1, 1.50000000000000000000e+03) (0, 1.50000000000000000000e+03) (1, 1.50000000000000000000e+03) (0, 1.50000000000000000000e+03) (1, 1.50000000000000000000e+03) (0, -1.50000000000000000000e+03) (1, -1.50000000000000000000e+03) (0, 1.50000000000000000000e+03) (1, 1.50000000000000000000e+03) (0, 1.50000000000000000000e+03) (1, 1.50000000000000000000e+03) (0, 1.50000000000000000000e+03) (1, 1.50000000000000000000e+03) (0, 1.50000000000000000000e+03) (1, 1.50000000000000000000e+03) (0, 1.50000000000000000000e+03) (1, 1.50000000000000000000e+03) (0, 1.50000000000000000000e+03) (1, 1.50000000000000000000e+03) (0, 1.50000000000000000000e+03) (1, 1.50000000000000000000e+03) (0, -1.50000000000000000000e+03) (1, -1.50000000000000000000e+03) (0, 1.50000000000000000000e+03) (1, 1.50000000000000000000e+03) (0, 1.50000000000000000000e+03) (1, 1.50000000000000000000e+03) (0, 1.50000000000000000000e+03) (1, 1.50000000000000000000e+03) (0, 1.50000000000000000000e+03) (1, 1.50000000000000000000e+03) (0, 1.50000000000000000000e+03) (1, 1.50000000000000000000e+03) (0, 1.50000000000000000000e+03) (1, 1.50000000000000000000e+03) (0, 1.50000000000000000000e+03) (1, 1.50000000000000000000e+03) (0, -1.50000000000000000000e+03) (1, -1.50000000000000000000e+03) (0, 1.50000000000000000000e+03) (1, 1.50000000000000000000e+03) (0, 1.50000000000000000000e+03) (1, 1.50000000000000000000e+03) (0, 1.50000000000000000000e+03) (1, 1.50000000000000000000e+03) (0, 1.50000000000000000000e+03) (1, 1.50000000000000000000e+03) (0, 1.50000000000000000000e+03) (1, 1.50000000000000000000e+03) (0, 1.50000000000000000000e+03) (1, 1.50000000000000000000e+03) (0, -1.50000000000000000000e+03) (1, -1.50000000000000000000e+03) (0, 1.50000000000000000000e+03) (1, 1.50000000000000000000e+03) (0, 1.50000000000000000000e+03) (1, 1.50000000000000000000e+03) (0, 1.50000000000000000000e+03) (1, 1.50000000000000000000e+03) (0, 1.50000000000000000000e+03) (1, 1.50000000000000000000e+03) (0, 1.50000000000000000000e+03) (1, 1.50000000000000000000e+03) (0, 1.50000000000000000000e+03) (1, 1.50000000000000000000e+03) (0, 1.50000000000000000000e+03) (1, 1.50000000000000000000e+03) (0, 1.50000000000000000000e+03) (1, 1.50000000000000000000e+03) (0, -9.52574249822646379471e-04) (1, 7.95186497271060943604e-03) (0, 1.50000000000000000000e+03) (1, 1.50000000000000000000e+03) (0, 1.50000000000000000000e+03) (1, 1.50000000000000000000e+03) (0, -1.50000000000000000000e+03) (1, -1.50000000000000000000e+03) (0, 1.50000000000000000000e+03) (1, 1.50000000000000000000e+03) (0, 1.50000000000000000000e+03) (1, 1.50000000000000000000e+03) (0, 1.50000000000000000000e+03) (1, 1.50000000000000000000e+03) (0, 1.50000000000000000000e+03) (1, 1.50000000000000000000e+03) (0, 1.50000000000000000000e+03) (1, 1.50000000000000000000e+03) (2, -5.61341047286987304688e-01) (3, -2.59934723377227783203e-01) (4, 1.09916053712368011475e-01) (5, -2.72999610751867294312e-02) (6, -2.53027111291885375977e-01) (7, -3.62207263708114624023e-01) (8, -4.95605260133743286133e-01) (9, -3.57839435338973999023e-01) (10, -2.88632839918136596680e-01) (11, -2.18068331480026245117e-01) (12, -2.47959524393081665039e-01) (13, 2.27178093045949935913e-02) (14, -4.33447986841201782227e-01) (15, 1.50000000000000000000e+03) (16, -2.44936615228652954102e-01) (17, -2.88310736417770385742e-01) (18, -1.35380746796727180481e-02) (19, -6.49623811244964599609e-01) (20, -6.34593546390533447266e-01) (21, 2.08134260028600692749e-02) (22, -3.82529228925704956055e-01) (23, 1.50000000000000000000e+03) (24, -3.68491202592849731445e-01) (25, -6.50907695293426513672e-01) (26, 1.50000000000000000000e+03) (27, 1.50000000000000000000e+03) (28, -3.48933547735214233398e-01) (29, -6.23133242130279541016e-01) (30, 5.90072758495807647705e-02) (31, -2.95342773199081420898e-01) (32, -6.70363366603851318359e-01) (33, -6.55122101306915283203e-01) (34, -2.66463965177536010742e-01) (35, -5.13236582279205322266e-01) (36, 1.50000000000000000000e+03) (37, -3.26678782701492309570e-01) (38, -1.03274418506771326065e-03) (39, -1.64051912724971771240e-02) (40, 1.30043197631835937500e+02) (41, -2.42450147867202758789e-01) (42, -3.87265473604202270508e-01) (43, -5.38846254348754882812e-01) (44, -2.69216056913137435913e-02) (45, -3.42966839671134948730e-02) (46, 1.50000000000000000000e+03) (47, 1.20953120291233062744e-01) (48, -2.27391839027404785156e-01) (49, -3.55132550001144409180e-01) (50, -1.93462401628494262695e-01) (51, -3.81181091070175170898e-01) (52, 1.50000000000000000000e+03) (53, -4.31181043386459350586e-01) (54, 1.50000000000000000000e+03) (55, 1.30819380283355712891e-01) (56, -6.41274392604827880859e-01) (57, -2.48472779989242553711e-01) (58, -3.43310028314590454102e-01) (59, -2.61399298906326293945e-01) (60, -3.90801817178726196289e-01) (61, 1.50000000000000000000e+03) (62, -3.63928467035293579102e-01) (63, -4.28357392549514770508e-01) (64, -1.78026501089334487915e-02) (65, -3.89578133821487426758e-01) (66, -2.12781757116317749023e-01) (67, -3.17807763814926147461e-01) (68, -3.23442608118057250977e-01) (69, 1.50000000000000000000e+03) (70, -5.74994802474975585938e-01) (71, -6.14325821399688720703e-01) (72, -2.64245748519897460938e-01) (73, -6.99959106445312500000e+01) (74, -4.32370692491531372070e-01) (75, 1.49647861719131469727e-01) (76, 7.70656913518905639648e-02) (77, 1.50000000000000000000e+03) (78, 1.17811523377895355225e-01) (79, 4.24838550388813018799e-02) (80, -3.42680841684341430664e-01) (81, -5.16437172889709472656e-01) (82, -2.91485279798507690430e-01) (83, -2.36970275640487670898e-01) (84, 1.50000000000000000000e+03) (85, 1.34711325168609619141e-01) (86, -2.58942931890487670898e-01) (87, -3.36742438375949859619e-02) (88, -5.54548025131225585938e-01) (89, -1.58371459692716598511e-02) (90, -2.95862525701522827148e-01) (91, -5.52535533905029296875e-01) (92, -6.45710051059722900391e-01) (93, -1.31123449707031250000e+03) (94, -2.52082794904708862305e-01) (95, -6.16301000118255615234e-01) (96, 1.50000000000000000000e+03) (97, -3.20056110620498657227e-01) (98, -3.01300883293151855469e-01) (99, -2.98368752002716064453e-01) (100, -2.45844632387161254883e-01) (101, -3.95487755537033081055e-01) (102, -6.71880185604095458984e-01) (2, -5.45620262622833251953e-01) (3, -2.72472798824310302734e-01) (4, -1.81872826069593429565e-02) (5, 8.48346129059791564941e-02) (6, -3.48195672035217285156e-01) (7, -3.99338126182556152344e-01) (8, -5.83739280700683593750e-01) (9, -2.10496142506599426270e-01) (10, -3.01204591989517211914e-01) (11, -3.31374943256378173828e-01) (12, -3.57170701026916503906e-01) (13, 2.38246168009936809540e-04) (14, -4.05370831489562988281e-01) (15, 1.50000000000000000000e+03) (16, -2.11490318179130554199e-01) (17, -3.91833245754241943359e-01) (18, 1.44614741206169128418e-01) (19, -6.68112993240356445312e-01) (20, -4.86881375312805175781e-01) (21, 7.28862360119819641113e-02) (22, -3.45021486282348632812e-01) (23, 1.50000000000000000000e+03) (24, -3.79987418651580810547e-01) (25, -5.68508088588714599609e-01) (26, 1.50000000000000000000e+03) (27, 1.50000000000000000000e+03) (28, -3.89001131057739257812e-01) (29, -4.97524261474609375000e-01) (30, 8.13397243618965148926e-02) (31, -3.43674600124359130859e-01) (32, -4.88596558570861816406e-01) (33, -6.28722310066223144531e-01) (34, -3.38986158370971679688e-01) (35, -4.71225142478942871094e-01) (36, 1.50000000000000000000e+03) (37, -3.06020617485046386719e-01) (38, -7.79952527955174446106e-03) (39, 1.06822336092591285706e-02) (40, 1.29987869262695312500e+02) (41, -2.73445546627044677734e-01) (42, -2.85134077072143554688e-01) (43, -5.03365397453308105469e-01) (44, 1.07954330742359161377e-01) (45, 8.42591896653175354004e-02) (46, 1.50000000000000000000e+03) (47, 7.76215568184852600098e-02) (48, -2.24012091755867004395e-01) (49, -1.81280270218849182129e-01) (50, -2.66939491033554077148e-01) (51, -2.41732254624366760254e-01) (52, 1.50000000000000000000e+03) (53, -2.78799831867218017578e-01) (54, 1.50000000000000000000e+03) (55, 1.21937803924083709717e-01) (56, -6.18146777153015136719e-01) (57, -2.08423271775245666504e-01) (58, -3.01733583211898803711e-01) (59, -2.89993137121200561523e-01) (60, -2.36786320805549621582e-01) (61, 1.50000000000000000000e+03) (62, -2.52504378557205200195e-01) (63, -3.04225176572799682617e-01) (64, 4.91992123425006866455e-02) (65, -3.62331390380859375000e-01) (66, -2.58287966251373291016e-01) (67, -3.35577666759490966797e-01) (68, -2.87190884351730346680e-01) (69, 1.50000000000000000000e+03) (70, -5.77330291271209716797e-01) (71, -6.33382320404052734375e-01) (72, -3.70814323425292968750e-01) (73, -6.99194335937500000000e+01) (74, -4.27596211433410644531e-01) (75, -3.36993038654327392578e-02) (76, 7.21107795834541320801e-02) (77, 1.50000000000000000000e+03) (78, 7.94810429215431213379e-02) (79, 2.92557217180728912354e-02) (80, -3.60013902187347412109e-01) (81, -6.39893651008605957031e-01) (82, -3.76921296119689941406e-01) (83, -2.51689434051513671875e-01) (84, 1.50000000000000000000e+03) (85, 1.12224534153938293457e-01) (86, -2.94196397066116333008e-01) (87, -4.92809899151325225830e-03) (88, -5.48637688159942626953e-01) (89, -2.11662892252206802368e-02) (90, -3.07362496852874755859e-01) (91, -6.04266524314880371094e-01) (92, -6.10436797142028808594e-01) (93, -1.34086022949218750000e+03) (94, -1.91333308815956115723e-01) (95, -5.25678575038909912109e-01) (96, 1.50000000000000000000e+03) (97, -3.16464900970458984375e-01) (98, -2.40097895264625549316e-01) (99, -3.69907617568969726562e-01) (100, -3.17833781242370605469e-01) (101, -3.48277091979980468750e-01) (102, -5.74128687381744384766e-01) (2, -5.50515949726104736328e-01) (3, -3.63461047410964965820e-01) (4, 5.79968094825744628906e-02) (5, 8.49399641156196594238e-02) (6, -2.55790352821350097656e-01) (7, -3.14335793256759643555e-01) (8, -6.33617162704467773438e-01) (9, -3.42977374792098999023e-01) (10, -2.45184868574142456055e-01) (11, -3.16362529993057250977e-01) (12, -3.86737495660781860352e-01) (13, 2.98829171806573867798e-02) (14, -3.84740024805068969727e-01) (15, 1.50000000000000000000e+03) (16, -2.28751033544540405273e-01) (17, -3.54109436273574829102e-01) (18, 7.51652494072914123535e-02) (19, -5.02360880374908447266e-01) (20, -4.72310811281204223633e-01) (21, 1.40054315328598022461e-01) (22, -3.55644315481185913086e-01) (23, 1.50000000000000000000e+03) (24, -2.63724833726882934570e-01) (25, -5.00167667865753173828e-01) (26, 1.50000000000000000000e+03) (27, 1.50000000000000000000e+03) (28, -2.71108597517013549805e-01) (29, -5.97314119338989257812e-01) (30, 1.05901546776294708252e-01) (31, -3.90224367380142211914e-01) (32, -5.02292931079864501953e-01) (33, -6.06020689010620117188e-01) (34, -2.73488730192184448242e-01) (35, -6.05697154998779296875e-01) (36, 1.50000000000000000000e+03) (37, -3.45083862543106079102e-01) (38, 1.45761132240295410156e-01) (39, -1.03176143020391464233e-02) (40, 1.30021545410156250000e+02) (41, -2.60833531618118286133e-01) (42, -2.88086026906967163086e-01) (43, -4.98405247926712036133e-01) (44, 1.53246670961380004883e-01) (45, 1.04973770678043365479e-01) (46, 1.50000000000000000000e+03) (47, 1.08687959611415863037e-01) (48, -3.62541824579238891602e-01) (49, -3.03404092788696289062e-01) (50, -2.67080634832382202148e-01) (51, -3.62655788660049438477e-01) (52, 1.50000000000000000000e+03) (53, -2.86528199911117553711e-01) (54, 1.50000000000000000000e+03) (55, -1.06825726106762886047e-02) (56, -5.54493010044097900391e-01) (57, -2.48690038919448852539e-01) (58, -3.23117226362228393555e-01) (59, -3.05411219596862792969e-01) (60, -3.73817473649978637695e-01) (61, 1.50000000000000000000e+03) (62, -3.11438828706741333008e-01) (63, -2.51912474632263183594e-01) (64, 8.11507180333137512207e-02) (65, -3.52730721235275268555e-01) (66, -3.37422043085098266602e-01) (67, -2.74748891592025756836e-01) (68, -3.13617855310440063477e-01) (69, 1.50000000000000000000e+03) (70, -5.34465730190277099609e-01) (71, -6.25279068946838378906e-01) (72, -2.77705579996109008789e-01) (73, -7.00743179321289062500e+01) (74, -4.11493927240371704102e-01) (75, 1.07737176120281219482e-01) (76, 1.38809859752655029297e-01) (77, 1.50000000000000000000e+03) (78, 5.50185181200504302979e-02) (79, 1.60464763641357421875e-01) (80, -3.15667718648910522461e-01) (81, -6.61461353302001953125e-01) (82, -3.63598018884658813477e-01) (83, -2.56226092576980590820e-01) (84, 1.50000000000000000000e+03) (85, 1.01885385811328887939e-01) (86, -2.28312402963638305664e-01) (87, 3.55003960430622100830e-02) (88, -5.96208095550537109375e-01) (89, 2.63659134507179260254e-02) (90, -2.79316395521163940430e-01) (91, -5.85828781127929687500e-01) (92, -5.53655207157135009766e-01) (93, -1.22089392089843750000e+03) (94, -3.17553728818893432617e-01) (95, -6.33910775184631347656e-01) (96, 1.50000000000000000000e+03) (97, -3.18779021501541137695e-01) (98, -2.84469276666641235352e-01) (99, -4.08513456583023071289e-01) (100, -2.39646404981613159180e-01) (101, -3.46744745969772338867e-01) (102, -6.01595759391784667969e-01) (2, -5.63891232013702392578e-01) (3, -3.03648650646209716797e-01) (4, 6.19644671678543090820e-02) (5, 1.60355903208255767822e-02) (6, -3.26245784759521484375e-01) (7, -3.43902170658111572266e-01) (8, -5.23947358131408691406e-01) (9, -2.79188036918640136719e-01) (10, -2.27369219064712524414e-01) (11, -2.25221544504165649414e-01) (12, -3.06589245796203613281e-01) (13, 4.61985096335411071777e-02) (14, -3.16827714443206787109e-01) (15, 1.50000000000000000000e+03) (16, -3.43523323535919189453e-01) (17, -2.42729038000106811523e-01) (18, 1.03475309908390045166e-01) (19, -5.66556155681610107422e-01) (20, -5.29845476150512695312e-01) (21, -1.01635651662945747375e-02) (22, -3.60027968883514404297e-01) (23, 1.50000000000000000000e+03) (24, -3.37123215198516845703e-01) (25, -6.09741568565368652344e-01) (26, 1.50000000000000000000e+03) (27, 1.50000000000000000000e+03) (28, -4.22020852565765380859e-01) (29, -5.27419328689575195312e-01) (30, 1.14444680511951446533e-01) (31, -3.36568772792816162109e-01) (32, -6.56824827194213867188e-01) (33, -6.20113968849182128906e-01) (34, -3.69281411170959472656e-01) (35, -5.65527379512786865234e-01) (36, 1.50000000000000000000e+03) (37, -3.20591151714324951172e-01) (38, 1.47103548049926757812e-01) (39, -2.16753850691020488739e-03) (40, 1.30088119506835937500e+02) (41, -2.50933825969696044922e-01) (42, -1.98055744171142578125e-01) (43, -5.48489391803741455078e-01) (44, 1.70198529958724975586e-01) (45, 5.36513999104499816895e-02) (46, 1.50000000000000000000e+03) (47, 1.61007849965244531631e-03) (48, -3.11748147010803222656e-01) (49, -2.70862162113189697266e-01) (50, -2.47615844011306762695e-01) (51, -1.78660660982131958008e-01) (52, 1.50000000000000000000e+03) (53, -2.80711680650711059570e-01) (54, 1.50000000000000000000e+03) (55, -2.02767923474311828613e-02) (56, -4.67523992061614990234e-01) (57, -2.60114610195159912109e-01) (58, -4.14648950099945068359e-01) (59, -1.78604930639266967773e-01) (60, -3.24606359004974365234e-01) (61, 1.50000000000000000000e+03) (62, -3.40241551399230957031e-01) (63, -3.66502046585083007812e-01) (64, 1.65547400712966918945e-01) (65, -2.86586850881576538086e-01) (66, -2.21096426248550415039e-01) (67, -2.91872352361679077148e-01) (68, -2.32238143682479858398e-01) (69, 1.50000000000000000000e+03) (70, -5.52699744701385498047e-01) (71, -4.74149048328399658203e-01) (72, -3.68665933609008789062e-01) (73, -7.00242843627929687500e+01) (74, -3.19709360599517822266e-01) (75, 2.44672615081071853638e-02) (76, 1.40758424997329711914e-01) (77, 1.50000000000000000000e+03) (78, 5.54108694195747375488e-02) (79, 3.94516810774803161621e-03) (80, -1.96365833282470703125e-01) (81, -6.50868773460388183594e-01) (82, -3.45386028289794921875e-01) (83, -2.73126065731048583984e-01) (84, 1.50000000000000000000e+03) (85, 3.21020814590156078339e-03) (86, -2.64068663120269775391e-01) (87, 1.20364531874656677246e-01) (88, -5.15567123889923095703e-01) (89, 8.98207500576972961426e-02) (90, -2.76912033557891845703e-01) (91, -4.65243041515350341797e-01) (92, -5.91711163520812988281e-01) (93, -7.30227111816406250000e+02) (94, -3.20808947086334228516e-01) (95, -5.96831679344177246094e-01) (96, 1.50000000000000000000e+03) (97, -4.14973199367523193359e-01) (98, -2.73774921894073486328e-01) (99, -3.15174221992492675781e-01) (100, -2.36697882413864135742e-01) (101, -3.63545417785644531250e-01) (102, -5.66380441188812255859e-01) (2, -4.76159244775772094727e-01) (3, -2.82167285680770874023e-01) (4, 1.64715752005577087402e-01) (5, 1.12442774698138237000e-02) (6, -3.12076598405838012695e-01) (7, -3.54395836591720581055e-01) (8, -5.37607729434967041016e-01) (9, -2.30794236063957214355e-01) (10, -3.27829450368881225586e-01) (11, -2.37550005316734313965e-01) (12, -2.49244198203086853027e-01) (13, 1.19584403932094573975e-01) (14, -3.31269115209579467773e-01) (15, 1.50000000000000000000e+03) (16, -3.15152853727340698242e-01) (17, -3.81572276353836059570e-01) (18, 1.24262697994709014893e-01) (19, -4.83999282121658325195e-01) (20, -4.75548177957534790039e-01) (21, 1.21955744922161102295e-01) (22, -3.24781209230422973633e-01) (23, 1.50000000000000000000e+03) (24, -4.17521029710769653320e-01) (25, -5.46677052974700927734e-01) (26, 1.50000000000000000000e+03) (27, 1.50000000000000000000e+03) (28, -3.57522457838058471680e-01) (29, -6.21993422508239746094e-01) (30, 1.22279979288578033447e-01) (31, -2.98131763935089111328e-01) (32, -5.25444626808166503906e-01) (33, -5.18814444541931152344e-01) (34, -3.03635299205780029297e-01) (35, -5.25669217109680175781e-01) (36, 1.50000000000000000000e+03) (37, -2.35044404864311218262e-01) (38, -1.78052373230457305908e-02) (39, 9.21381264925003051758e-02) (40, 1.30028961181640625000e+02) (41, -3.10573846101760864258e-01) (42, -3.10355395078659057617e-01) (43, -5.45760691165924072266e-01) (44, -1.03268437087535858154e-02) (45, 1.32643118500709533691e-01) (46, 1.50000000000000000000e+03) (47, 5.51840588450431823730e-02) (48, -3.65869432687759399414e-01) (49, -2.86485791206359863281e-01) (50, -3.05754393339157104492e-01) (51, -3.72754007577896118164e-01) (52, 1.50000000000000000000e+03) (53, -2.97871947288513183594e-01) (54, 1.50000000000000000000e+03) (55, 2.72749103605747222900e-02) (56, -6.15885376930236816406e-01) (57, -2.12014123797416687012e-01) (58, -3.47222179174423217773e-01) (59, -2.56748080253601074219e-01) (60, -3.65354448556900024414e-01) (61, 1.50000000000000000000e+03) (62, -3.74218910932540893555e-01) (63, -2.70141482353210449219e-01) (64, 1.53565749526023864746e-01) (65, -2.49186679720878601074e-01) (66, -2.79154390096664428711e-01) (67, -1.95885017514228820801e-01) (68, -3.03575217723846435547e-01) (69, 1.50000000000000000000e+03) (70, -5.56683838367462158203e-01) (71, -6.00087761878967285156e-01) (72, -2.39805027842521667480e-01) (73, -6.99337005615234375000e+01) (74, -2.37194105982780456543e-01) (75, -2.14720908552408218384e-02) (76, 1.14924401044845581055e-01) (77, 1.50000000000000000000e+03) (78, 6.87731057405471801758e-02) (79, 1.29718825221061706543e-01) (80, -3.60164672136306762695e-01) (81, -4.89920884370803833008e-01) (82, -2.07971557974815368652e-01) (83, -3.08971256017684936523e-01) (84, 1.50000000000000000000e+03) (85, -3.26289199292659759521e-02) (86, -2.46631309390068054199e-01) (87, 1.27246484160423278809e-01) (88, -4.97586160898208618164e-01) (89, -1.95908993482589721680e-02) (90, -3.42444568872451782227e-01) (91, -4.82276946306228637695e-01) (92, -6.14405870437622070312e-01) (93, -3.67173187255859375000e+02) (94, -2.35751494765281677246e-01) (95, -6.25780463218688964844e-01) (96, 1.50000000000000000000e+03) (97, -3.82246047258377075195e-01) (98, -4.01012331247329711914e-01) (99, -2.31434389948844909668e-01) (100, -2.15477153658866882324e-01) (101, -2.89039075374603271484e-01) (102, -6.02862477302551269531e-01) (2, -4.98649805784225463867e-01) (3, -2.90780991315841674805e-01) (4, 3.81756573915481567383e-02) (5, 1.48542866110801696777e-01) (6, -3.40796649456024169922e-01) (7, -2.29101821780204772949e-01) (8, -5.81220984458923339844e-01) (9, -3.28018128871917724609e-01) (10, -3.60606729984283447266e-01) (11, -3.14484715461730957031e-01) (12, -4.03329968452453613281e-01) (13, 5.66886290907859802246e-02) (14, -2.52947032451629638672e-01) (15, 1.50000000000000000000e+03) (16, -3.54885876178741455078e-01) (17, -2.90644079446792602539e-01) (18, 1.63783356547355651855e-01) (19, -6.27409458160400390625e-01) (20, -6.44418478012084960938e-01) (21, 1.50170072913169860840e-01) (22, -2.85164743661880493164e-01) (23, 1.50000000000000000000e+03) (24, -2.98525571823120117188e-01) (25, -5.30281662940979003906e-01) (26, 1.50000000000000000000e+03) (27, 1.50000000000000000000e+03) (28, -2.62634813785552978516e-01) (29, -6.34392380714416503906e-01) (30, 1.06678023934364318848e-01) (31, -3.23012173175811767578e-01) (32, -5.68597614765167236328e-01) (33, -5.72881519794464111328e-01) (34, -3.53106081485748291016e-01) (35, -5.11341154575347900391e-01) (36, 1.50000000000000000000e+03) (37, -3.29215645790100097656e-01) (38, 1.05840839445590972900e-01) (39, 9.98007282614707946777e-02) (40, 1.30005187988281250000e+02) (41, -2.35678359866142272949e-01) (42, -1.95596262812614440918e-01) (43, -5.23183405399322509766e-01) (44, -1.43066896125674247742e-02) (45, 1.09740264713764190674e-01) (46, 1.50000000000000000000e+03) (47, -4.50549880042672157288e-03) (48, -3.13820302486419677734e-01) (49, -2.40530177950859069824e-01) (50, -3.24837207794189453125e-01) (51, -3.05558204650878906250e-01) (52, 1.50000000000000000000e+03) (53, -2.93314903974533081055e-01) (54, 1.50000000000000000000e+03) (55, -1.15165049210190773010e-02) (56, -6.10909461975097656250e-01) (57, -3.35569441318511962891e-01) (58, -2.44536325335502624512e-01) (59, -1.72861784696578979492e-01) (60, -3.17281246185302734375e-01) (61, 1.50000000000000000000e+03) (62, -3.31190764904022216797e-01) (63, -2.81198471784591674805e-01) (64, 1.54624268412590026855e-01) (65, -2.71609336137771606445e-01) (66, -2.91855305433273315430e-01) (67, -3.43554615974426269531e-01) (68, -2.36134573817253112793e-01) (69, 1.50000000000000000000e+03) (70, -5.12666761875152587891e-01) (71, -5.55991470813751220703e-01) (72, -2.85925954580307006836e-01) (73, -7.00073547363281250000e+01) (74, -3.86500597000122070312e-01) (75, 1.12455308437347412109e-01) (76, 1.88433509320020675659e-02) (77, 1.50000000000000000000e+03) (78, 1.27034291625022888184e-01) (79, 6.97106420993804931641e-02) (80, -2.73060917854309082031e-01) (81, -4.66719746589660644531e-01) (82, -2.16759875416755676270e-01) (83, -1.79650932550430297852e-01) (84, 1.50000000000000000000e+03) (85, 1.36894866824150085449e-01) (86, -1.72083139419555664062e-01) (87, 1.28027424216270446777e-01) (88, -4.67591404914855957031e-01) (89, 1.41663715243339538574e-01) (90, -2.73755013942718505859e-01) (91, -6.20179057121276855469e-01) (92, -5.98025083541870117188e-01) (93, -2.53810379028320312500e+02) (94, -2.00693115592002868652e-01) (95, -6.24317646026611328125e-01) (96, 1.50000000000000000000e+03) (97, -3.75865221023559570312e-01) (98, -3.63191723823547363281e-01) (99, -3.22632849216461181641e-01) (100, -3.30108940601348876953e-01) (101, -2.23170801997184753418e-01) (102, -4.65943872928619384766e-01) (2, -4.73401278257369995117e-01) (3, -2.96124100685119628906e-01) (4, 1.17919845506548881531e-02) (5, 9.17406752705574035645e-02) (6, -2.58193671703338623047e-01) (7, -2.14333981275558471680e-01) (8, -5.95738291740417480469e-01) (9, -3.21401923894882202148e-01) (10, -2.74711877107620239258e-01) (11, -3.21777731180191040039e-01) (12, -2.21474707126617431641e-01) (13, 5.59233687818050384521e-02) (14, -2.64436483383178710938e-01) (15, 1.50000000000000000000e+03) (16, -2.97079533338546752930e-01) (17, -3.17327648401260375977e-01) (18, 1.13198816776275634766e-01) (19, -6.24325871467590332031e-01) (20, -6.18388831615447998047e-01) (21, 1.45700484514236450195e-01) (22, -2.81677186489105224609e-01) (23, 1.50000000000000000000e+03) (24, -2.83913344144821166992e-01) (25, -5.41307687759399414062e-01) (26, 1.50000000000000000000e+03) (27, 1.50000000000000000000e+03) (28, -2.51815527677536010742e-01) (29, -5.94400823116302490234e-01) (30, 1.81090503931045532227e-01) (31, -2.62304484844207763672e-01) (32, -6.07657611370086669922e-01) (33, -4.91174131631851196289e-01) (34, -3.15690189599990844727e-01) (35, -5.94727933406829833984e-01) (36, 1.50000000000000000000e+03) (37, -2.27142214775085449219e-01) (38, 1.92706491798162460327e-02) (39, 7.43024423718452453613e-02) (40, 1.30077362060546875000e+02) (41, -2.54300266504287719727e-01) (42, -2.46334165334701538086e-01) (43, -4.68545585870742797852e-01) (44, 1.48361414670944213867e-01) (45, 2.95667126774787902832e-02) (46, 1.50000000000000000000e+03) (47, 1.98022335767745971680e-01) (48, -2.38619029521942138672e-01) (49, -3.36970001459121704102e-01) (50, -3.37173789739608764648e-01) (51, -2.22274154424667358398e-01) (52, 1.50000000000000000000e+03) (53, -3.20110470056533813477e-01) (54, 1.50000000000000000000e+03) (55, 6.62974044680595397949e-02) (56, -4.66684311628341674805e-01) (57, -2.35222250223159790039e-01) (58, -3.79656881093978881836e-01) (59, -2.35758900642395019531e-01) (60, -1.94889336824417114258e-01) (61, 1.50000000000000000000e+03) (62, -3.51328819990158081055e-01) (63, -2.15813249349594116211e-01) (64, 1.39740526676177978516e-01) (65, -2.72278100252151489258e-01) (66, -3.27811330556869506836e-01) (67, -1.69415235519409179688e-01) (68, -3.52684110403060913086e-01) (69, 1.50000000000000000000e+03) (70, -5.81972599029541015625e-01) (71, -5.99744319915771484375e-01) (72, -2.62963712215423583984e-01) (73, -6.99639434814453125000e+01) (74, -3.93556147813796997070e-01) (75, 8.01354423165321350098e-02) (76, 1.82731717824935913086e-01) (77, 1.50000000000000000000e+03) (78, 7.92943313717842102051e-02) (79, 9.08486321568489074707e-02) (80, -2.40346878767013549805e-01) (81, -5.44735491275787353516e-01) (82, -3.30292135477066040039e-01) (83, -2.83743202686309814453e-01) (84, 1.50000000000000000000e+03) (85, 1.76547437906265258789e-01) (86, -2.16304659843444824219e-01) (87, 1.31547987461090087891e-01) (88, -5.45535504817962646484e-01) (89, 1.44378989934921264648e-01) (90, -3.51078242063522338867e-01) (91, -5.93688130378723144531e-01) (92, -4.91914123296737670898e-01) (93, -1.16612930297851562500e+02) (94, -3.26771467924118041992e-01) (95, -5.51030337810516357422e-01) (96, 1.50000000000000000000e+03) (97, -3.55842322111129760742e-01) (98, -3.33715647459030151367e-01) (99, -3.91148239374160766602e-01) (100, -2.68503606319427490234e-01) (101, -2.80954539775848388672e-01) (102, -5.96152007579803466797e-01) (2, -6.14616692066192626953e-01) (3, -3.17684203386306762695e-01) (4, 4.87351380288600921631e-02) (5, 1.00252829492092132568e-01) (6, -3.33815932273864746094e-01) (7, -2.48244524002075195312e-01) (8, -4.52918827533721923828e-01) (9, -1.93826079368591308594e-01) (10, -2.93858706951141357422e-01) (11, -2.74920403957366943359e-01) (12, -2.25377738475799560547e-01) (13, 1.14742383360862731934e-01) (14, -3.58292043209075927734e-01) (15, 1.50000000000000000000e+03) (16, -3.00429463386535644531e-01) (17, -2.25603580474853515625e-01) (18, 3.51031869649887084961e-02) (19, -4.42913889884948730469e-01) (20, -6.21938765048980712891e-01) (21, 7.61495977640151977539e-02) (22, -2.12083578109741210938e-01) (23, 1.50000000000000000000e+03) (24, -2.97484666109085083008e-01) (25, -6.16377651691436767578e-01) (26, 1.50000000000000000000e+03) (27, 1.50000000000000000000e+03) (28, -3.15359205007553100586e-01) (29, -5.69736599922180175781e-01) (30, 1.32521893829107284546e-02) (31, -2.01569348573684692383e-01) (32, -5.31154930591583251953e-01) (33, -6.10333502292633056641e-01) (34, -2.86623716354370117188e-01) (35, -4.91395354270935058594e-01) (36, 1.50000000000000000000e+03) (37, -2.83805876970291137695e-01) (38, 7.85931944847106933594e-02) (39, 8.62614512443542480469e-02) (40, 1.29928039550781250000e+02) (41, -2.24231123924255371094e-01) (42, -1.97624564170837402344e-01) (43, -6.21743738651275634766e-01) (44, 2.71398071199655532837e-02) (45, 1.74317121505737304688e-01) (46, 1.50000000000000000000e+03) (47, 6.33447319269180297852e-02) (48, -2.12256669998168945312e-01) (49, -1.70675739645957946777e-01) (50, -3.00538659095764160156e-01) (51, -2.09568202495574951172e-01) (52, 1.50000000000000000000e+03) (53, -2.23988533020019531250e-01) (54, 1.50000000000000000000e+03) (55, 1.29253447055816650391e-01) (56, -4.55742835998535156250e-01) (57, -2.68510222434997558594e-01) (58, -3.38303267955780029297e-01) (59, -2.98468291759490966797e-01) (60, -2.13616818189620971680e-01) (61, 1.50000000000000000000e+03) (62, -3.63407850265502929688e-01) (63, -3.68148446083068847656e-01) (64, 7.38767981529235839844e-02) (65, -2.65396237373352050781e-01) (66, -1.86906099319458007812e-01) (67, -1.66145548224449157715e-01) (68, -2.12566137313842773438e-01) (69, 1.50000000000000000000e+03) (70, -5.76851069927215576172e-01) (71, -6.08932077884674072266e-01) (72, -2.52884298563003540039e-01) (73, -6.99303436279296875000e+01) (74, -3.66055011749267578125e-01) (75, 1.58887207508087158203e-01) (76, 1.61098480224609375000e-01) (77, 1.50000000000000000000e+03) (78, 1.32612492889165878296e-02) (79, 8.54708850383758544922e-02) (80, -2.12277382612228393555e-01) (81, -5.84240019321441650391e-01) (82, -3.33070755004882812500e-01) (83, -1.79143294692039489746e-01) (84, 1.50000000000000000000e+03) (85, 2.93557699769735336304e-02) (86, -2.58861422538757324219e-01) (87, 1.78889617323875427246e-01) (88, -5.36117970943450927734e-01) (89, 1.33070409297943115234e-01) (90, -3.76548945903778076172e-01) (91, -6.13104999065399169922e-01) (92, -4.49920058250427246094e-01) (93, -3.30256652832031250000e+01) (94, -3.08626085519790649414e-01) (95, -5.85006296634674072266e-01) (96, 1.50000000000000000000e+03) (97, -2.06898510456085205078e-01) (98, -3.74528527259826660156e-01) (99, -3.12023550271987915039e-01) (100, -1.39551550149917602539e-01) (101, -3.26752364635467529297e-01) (102, -5.36321997642517089844e-01) (2, -5.05861699581146240234e-01) (3, -3.50024640560150146484e-01) (4, 1.05800233781337738037e-01) (5, 7.76574611663818359375e-02) (6, -1.97892546653747558594e-01) (7, -3.29405009746551513672e-01) (8, -5.51647067070007324219e-01) (9, -2.73394078016281127930e-01) (10, -1.57048776745796203613e-01) (11, -2.23262578248977661133e-01) (12, -3.17832052707672119141e-01) (13, 1.46037727594375610352e-01) (14, -2.70236402750015258789e-01) (15, 1.50000000000000000000e+03) (16, -3.21796417236328125000e-01) (17, -3.00318539142608642578e-01) (18, 1.84668034315109252930e-01) (19, -4.85696256160736083984e-01) (20, -5.32227337360382080078e-01) (21, 1.96190327405929565430e-01) (22, -2.22978770732879638672e-01) (23, 1.50000000000000000000e+03) (24, -3.69405865669250488281e-01) (25, -4.71361637115478515625e-01) (26, 1.50000000000000000000e+03) (27, 1.50000000000000000000e+03) (28, -2.21252650022506713867e-01) (29, -5.29759943485260009766e-01) (30, -9.93163441307842731476e-04) (31, -3.63375067710876464844e-01) (32, -4.41461086273193359375e-01) (33, -5.05770385265350341797e-01) (34, -2.70710915327072143555e-01) (35, -5.34570574760437011719e-01) (36, 1.50000000000000000000e+03) (37, -3.21921288967132568359e-01) (38, 1.64309114217758178711e-01) (39, 8.96072089672088623047e-02) (40, 1.30026550292968750000e+02) (41, -1.91656142473220825195e-01) (42, -3.32575023174285888672e-01) (43, -6.11766993999481201172e-01) (44, 1.01064696907997131348e-01) (45, 1.37478232383728027344e-01) (46, 1.50000000000000000000e+03) (47, 1.25956177711486816406e-01) (48, -3.13756763935089111328e-01) (49, -2.40775883197784423828e-01) (50, -2.70655184984207153320e-01) (51, -2.11299389600753784180e-01) (52, 1.50000000000000000000e+03) (53, -1.94948017597198486328e-01) (54, 1.50000000000000000000e+03) (55, 1.27379536628723144531e-01) (56, -4.71626102924346923828e-01) (57, -2.47224301099777221680e-01) (58, -2.63208955526351928711e-01) (59, -2.10191369056701660156e-01) (60, -3.42307150363922119141e-01) (61, 1.50000000000000000000e+03) (62, -2.26879090070724487305e-01) (63, -1.97077095508575439453e-01) (64, 5.93989267945289611816e-02) (65, -3.02907824516296386719e-01) (66, -2.48966783285140991211e-01) (67, -2.78546512126922607422e-01) (68, -2.78141558170318603516e-01) (69, 1.50000000000000000000e+03) (70, -4.75855231285095214844e-01) (71, -5.72076737880706787109e-01) (72, -3.76550495624542236328e-01) (73, -6.99479751586914062500e+01) (74, -3.09169590473175048828e-01) (75, 1.19201943278312683105e-01) (76, 1.10422581434249877930e-01) (77, 1.50000000000000000000e+03) (78, 4.62406724691390991211e-02) (79, 1.43353283405303955078e-01) (80, -2.35102057456970214844e-01) (81, -5.11329710483551025391e-01) (82, -2.66864240169525146484e-01) (83, -3.31924259662628173828e-01) (84, 1.50000000000000000000e+03) (85, 1.45885914564132690430e-01) (86, -2.03457415103912353516e-01) (87, 8.50686728954315185547e-02) (88, -5.88252007961273193359e-01) (89, 7.36177861690521240234e-02) (90, -3.72042357921600341797e-01) (91, -5.83871841430664062500e-01) (92, -6.28411710262298583984e-01) (93, 2.30110519409179687500e+02) (94, -2.98271954059600830078e-01) (95, -5.67928493022918701172e-01) (96, 1.50000000000000000000e+03) (97, -2.48551428318023681641e-01) (98, -2.59791344404220581055e-01) (99, -2.43909001350402832031e-01) (100, -3.37445795536041259766e-01) (101, -3.00962209701538085938e-01) (102, -6.21302187442779541016e-01) (2, -5.97523868083953857422e-01) (3, -3.18239122629165649414e-01) (4, 1.07591204345226287842e-01) (5, 1.56359046697616577148e-01) (6, -2.06729143857955932617e-01) (7, -2.80338555574417114258e-01) (8, -4.29919540882110595703e-01) (9, -2.14292317628860473633e-01) (10, -3.20757001638412475586e-01) (11, -2.18559771776199340820e-01) (12, -3.82475078105926513672e-01) (13, 3.96086275577545166016e-02) (14, -3.43472063541412353516e-01) (15, 1.50000000000000000000e+03) (16, -1.62764027714729309082e-01) (17, -2.57316142320632934570e-01) (18, 2.04526856541633605957e-01) (19, -5.76059401035308837891e-01) (20, -4.74674224853515625000e-01) (21, 5.53349964320659637451e-02) (22, -2.81796723604202270508e-01) (23, 1.50000000000000000000e+03) (24, -2.89852589368820190430e-01) (25, -5.03043770790100097656e-01) (26, 1.50000000000000000000e+03) (27, 1.50000000000000000000e+03) (28, -3.28151464462280273438e-01) (29, -4.99221205711364746094e-01) (30, 5.91241791844367980957e-02) (31, -2.34422534704208374023e-01) (32, -4.85842645168304443359e-01) (33, -5.47094047069549560547e-01) (34, -3.19756716489791870117e-01) (35, -5.86939871311187744141e-01) (36, 1.50000000000000000000e+03) (37, -1.89577132463455200195e-01) (38, 1.51227712631225585938e-01) (39, 2.91551612317562103271e-02) (40, 1.29998413085937500000e+02) (41, -1.78220644593238830566e-01) (42, -1.98098331689834594727e-01) (43, -5.04533827304840087891e-01) (44, 1.98294177651405334473e-01) (45, 1.88938394188880920410e-01) (46, 1.50000000000000000000e+03) (47, 1.72435134649276733398e-01) (48, -2.29072123765945434570e-01) (49, -2.71298319101333618164e-01) (50, -3.24325799942016601562e-01) (51, -2.78841406106948852539e-01) (52, 1.50000000000000000000e+03) (53, -3.17213803529739379883e-01) (54, 1.50000000000000000000e+03) (55, 1.59998126327991485596e-02) (56, -4.35349583625793457031e-01) (57, -1.63240686058998107910e-01) (58, -3.36414515972137451172e-01) (59, -2.90592283010482788086e-01) (60, -2.37553149461746215820e-01) (61, 1.50000000000000000000e+03) (62, -1.88106089830398559570e-01) (63, -3.46490859985351562500e-01) (64, 1.85427442193031311035e-01) (65, -3.22957843542098999023e-01) (66, -2.60525435209274291992e-01) (67, -3.34704101085662841797e-01) (68, -3.75630080699920654297e-01) (69, 1.50000000000000000000e+03) (70, -6.02236211299896240234e-01) (71, -4.97689604759216308594e-01) (72, -2.07307696342468261719e-01) (73, -6.99594497680664062500e+01) (74, -3.37315499782562255859e-01) (75, 1.75891429185867309570e-01) (76, 1.50411128997802734375e-01) (77, 1.50000000000000000000e+03) (78, 1.39631509780883789062e-01) (79, 5.82431703805923461914e-02) (80, -1.53925418853759765625e-01) (81, -4.81389403343200683594e-01) (82, -2.29288786649703979492e-01) (83, -2.41675585508346557617e-01) (84, 1.50000000000000000000e+03) (85, 1.15062572062015533447e-01) (86, -2.34369665384292602539e-01) (87, 9.46734659373760223389e-03) (88, -5.44870615005493164062e-01) (89, 1.59724563360214233398e-01) (90, -3.37818920612335205078e-01) (91, -4.45525228977203369141e-01) (92, -5.74948728084564208984e-01) (93, 2.51731750488281250000e+02) (94, -3.19107264280319213867e-01) (95, -5.98216354846954345703e-01) (96, 1.50000000000000000000e+03) (97, -2.90726959705352783203e-01) (98, -3.56018185615539550781e-01) (99, -3.17790478467941284180e-01) (100, -2.23810255527496337891e-01) (101, -3.33352088928222656250e-01) (102, -4.30571317672729492188e-01) (2, -5.24212062358856201172e-01) (3, -3.61881345510482788086e-01) (4, 6.06227144598960876465e-02) (5, 7.65806287527084350586e-02) (6, -2.20161542296409606934e-01) (7, -2.15605780482292175293e-01) (8, -4.26086038351058959961e-01) (9, -3.22616487741470336914e-01) (10, -1.84626206755638122559e-01) (11, -1.94562956690788269043e-01) (12, -2.62999743223190307617e-01) (13, 5.62019869685173034668e-02) (14, -2.31348738074302673340e-01) (15, 1.50000000000000000000e+03) (16, -1.86861589550971984863e-01) (17, -2.30575367808341979980e-01) (18, 1.17002218961715698242e-01) (19, -5.23829102516174316406e-01) (20, -4.23489302396774291992e-01) (21, 9.63855087757110595703e-02) (22, -1.85878500342369079590e-01) (23, 1.50000000000000000000e+03) (24, -2.79416143894195556641e-01) (25, -4.47196334600448608398e-01) (26, 1.50000000000000000000e+03) (27, 1.50000000000000000000e+03) (28, -1.78302004933357238770e-01) (29, -4.54642802476882934570e-01) (30, 1.21463790535926818848e-01) (31, -3.26749116182327270508e-01) (32, -4.60305362939834594727e-01) (33, -4.21447783708572387695e-01) (34, -2.65719652175903320312e-01) (35, -4.18374627828598022461e-01) (36, 1.50000000000000000000e+03) (37, -3.58974307775497436523e-01) (38, 1.74530372023582458496e-01) (39, 5.88679388165473937988e-02) (40, 6.51310806274414062500e+01) (41, -2.28788897395133972168e-01) (42, -1.54386952519416809082e-01) (43, -4.82769578695297241211e-01) (44, 1.54321268200874328613e-01) (45, 1.34771332144737243652e-01) (46, 1.50000000000000000000e+03) (47, 9.43659245967864990234e-02) (48, -2.66500830650329589844e-01) (49, -2.78181999921798706055e-01) (50, -1.60158470273017883301e-01) (51, -2.75079369544982910156e-01) (52, 1.50000000000000000000e+03) (53, -2.67133742570877075195e-01) (54, 1.50000000000000000000e+03) (55, 4.06081341207027435303e-02) (56, -5.39412558078765869141e-01) (57, -1.46615788340568542480e-01) (58, -3.63317877054214477539e-01) (59, -2.54812568426132202148e-01) (60, -1.86347827315330505371e-01) (61, 1.50000000000000000000e+03) (62, -2.54650920629501342773e-01) (63, -2.79746204614639282227e-01) (64, 1.26519992947578430176e-01) (65, -1.45457923412322998047e-01) (66, -2.35206320881843566895e-01) (67, -1.67728766798973083496e-01) (68, -1.77521482110023498535e-01) (69, 1.50000000000000000000e+03) (70, -4.15556579828262329102e-01) (71, -5.97287595272064208984e-01) (72, -2.29250952601432800293e-01) (73, -3.47166213989257812500e+01) (74, -2.25149556994438171387e-01) (75, 9.99765694141387939453e-02) (76, 1.06644771993160247803e-01) (77, 1.50000000000000000000e+03) (78, 1.75650879740715026855e-01) (79, 1.67055353522300720215e-01) (80, -1.78001686930656433105e-01) (81, -4.91204410791397094727e-01) (82, -3.26717108488082885742e-01) (83, -2.51580685377120971680e-01) (84, 1.50000000000000000000e+03) (85, 1.06027416884899139404e-01) (86, -2.29663267731666564941e-01) (87, 1.25667750835418701172e-01) (88, -5.47277569770812988281e-01) (89, 1.27529636025428771973e-01) (90, -1.95836022496223449707e-01) (91, -6.06718540191650390625e-01) (92, -5.91703355312347412109e-01) (93, -4.88459106445312500000e+02) (94, -2.23557040095329284668e-01) (95, -4.83883351087570190430e-01) (96, 1.50000000000000000000e+03) (97, -1.79856404662132263184e-01) (98, -2.84705132246017456055e-01) (99, -2.96747297048568725586e-01) (100, -2.84322232007980346680e-01) (101, -2.85350948572158813477e-01) (102, -5.19124269485473632812e-01) (2, -4.11418974399566650391e-01) (3, -2.98229515552520751953e-01) (4, 7.94767141342163085938e-02) (5, 1.03468351066112518311e-01) (6, -2.10273250937461853027e-01) (7, -2.13946029543876647949e-01) (8, -5.73170006275177001953e-01) (9, -2.13910952210426330566e-01) (10, -2.17040732502937316895e-01) (11, -1.61466762423515319824e-01) (12, -2.61720269918441772461e-01) (13, 2.03886479139328002930e-01) (14, -1.77983507513999938965e-01) (15, 1.50000000000000000000e+03) (16, -2.44469836354255676270e-01) (17, -2.71012693643569946289e-01) (18, 8.68433266878128051758e-02) (19, -4.23637092113494873047e-01) (20, -5.31934857368469238281e-01) (21, 9.50287282466888427734e-02) (22, -1.12433567643165588379e-01) (23, 1.50000000000000000000e+03) (24, -1.95220604538917541504e-01) (25, -4.69409227371215820312e-01) (26, 1.50000000000000000000e+03) (27, 1.50000000000000000000e+03) (28, -3.39203655719757080078e-01) (29, -4.73671376705169677734e-01) (30, 3.60170491039752960205e-02) (31, -2.49640017747879028320e-01) (32, -5.77884793281555175781e-01) (33, -4.09340798854827880859e-01) (34, -1.40206098556518554688e-01) (35, -5.32347679138183593750e-01) (36, 1.50000000000000000000e+03) (37, -2.38819584250450134277e-01) (38, 4.69615235924720764160e-02) (39, 1.20278090238571166992e-01) (40, 6.51285476684570312500e+01) (41, -2.04018101096153259277e-01) (42, -2.75132477283477783203e-01) (43, -4.83132243156433105469e-01) (44, 1.11527405679225921631e-01) (45, 5.21462298929691314697e-02) (46, 1.50000000000000000000e+03) (47, 1.78717926144599914551e-01) (48, -2.04801693558692932129e-01) (49, -1.56947240233421325684e-01) (50, -1.90855726599693298340e-01) (51, -1.37080103158950805664e-01) (52, 1.50000000000000000000e+03) (53, -2.39628836512565612793e-01) (54, 1.50000000000000000000e+03) (55, 2.14180976152420043945e-01) (56, -5.49371480941772460938e-01) (57, -1.22201338410377502441e-01) (58, -2.19929382205009460449e-01) (59, -2.40914657711982727051e-01) (60, -1.96208462119102478027e-01) (61, 1.50000000000000000000e+03) (62, -1.78895011544227600098e-01) (63, -2.22436651587486267090e-01) (64, 1.66071608662605285645e-01) (65, -1.59441336989402770996e-01) (66, -3.07131469249725341797e-01) (67, -1.19677737355232238770e-01) (68, -2.86605030298233032227e-01) (69, 1.50000000000000000000e+03) (70, -5.21335899829864501953e-01) (71, -5.08011877536773681641e-01) (72, -2.34463438391685485840e-01) (73, -3.47745246887207031250e+01) (74, -3.51484954357147216797e-01) (75, 3.67228426039218902588e-02) (76, 1.66999414563179016113e-01) (77, 1.50000000000000000000e+03) (78, 1.81501850485801696777e-01) (79, 7.38566070795059204102e-02) (80, -2.46959999203681945801e-01) (81, -5.31291127204895019531e-01) (82, -2.97166675329208374023e-01) (83, -2.31158390641212463379e-01) (84, 1.50000000000000000000e+03) (85, 1.90067574381828308105e-01) (86, -2.50918358564376831055e-01) (87, 7.26210623979568481445e-02) (88, -4.54077184200286865234e-01) (89, 3.44111658632755279541e-02) (90, -2.50233620405197143555e-01) (91, -5.38619101047515869141e-01) (92, -4.57382738590240478516e-01) (93, -4.18497131347656250000e+02) (94, -1.13399848341941833496e-01) (95, -5.25244712829589843750e-01) (96, 1.50000000000000000000e+03) (97, -3.56870889663696289062e-01) (98, -2.93268769979476928711e-01) (99, -2.44191721081733703613e-01) (100, -2.91316181421279907227e-01) (101, -2.14944139122962951660e-01) (102, -5.92541456222534179688e-01) (2, -4.52719837427139282227e-01) (3, -2.98696011304855346680e-01) (4, 5.06330020725727081299e-02) (5, 1.83668047189712524414e-01) (6, -1.65633052587509155273e-01) (7, -2.32978463172912597656e-01) (8, -5.02373278141021728516e-01) (9, -2.77719914913177490234e-01) (10, -1.20279602706432342529e-01) (11, -1.46004974842071533203e-01) (12, -3.11223179101943969727e-01) (13, 1.05821758508682250977e-01) (14, -2.05608576536178588867e-01) (15, 1.50000000000000000000e+03) (16, -1.79035514593124389648e-01) (17, -1.66927099227905273438e-01) (18, 1.84094399213790893555e-01) (19, -4.66567188501358032227e-01) (20, -4.97504562139511108398e-01) (21, 4.51304428279399871826e-02) (22, -2.36282438039779663086e-01) (23, 1.50000000000000000000e+03) (24, -3.50211411714553833008e-01) (25, -4.49874371290206909180e-01) (26, 1.50000000000000000000e+03) (27, 1.50000000000000000000e+03) (28, -3.43479663133621215820e-01) (29, -4.49435919523239135742e-01) (30, 6.65316954255104064941e-02) (31, -1.98760181665420532227e-01) (32, -4.42320615053176879883e-01) (33, -4.21527892351150512695e-01) (34, -2.91196703910827636719e-01) (35, -4.27026838064193725586e-01) (36, 1.50000000000000000000e+03) (37, -3.46570283174514770508e-01) (38, 1.31858170032501220703e-01) (39, 5.62914460897445678711e-02) (40, 6.54776840209960937500e+01) (41, -2.23761200904846191406e-01) (42, -1.25053688883781433105e-01) (43, -5.06982982158660888672e-01) (44, 1.92320793867111206055e-01) (45, 1.73198044300079345703e-01) (46, 1.50000000000000000000e+03) (47, 1.23544685542583465576e-01) (48, -1.81069612503051757812e-01) (49, -2.67064779996871948242e-01) (50, -2.90362954139709472656e-01) (51, -2.80314624309539794922e-01) (52, 1.50000000000000000000e+03) (53, -2.64385193586349487305e-01) (54, 1.50000000000000000000e+03) (55, 9.63812693953514099121e-02) (56, -5.55990040302276611328e-01) (57, -2.56002992391586303711e-01) (58, -2.86377191543579101562e-01) (59, -2.53210127353668212891e-01) (60, -3.07177573442459106445e-01) (61, 1.50000000000000000000e+03) (62, -3.41713935136795043945e-01) (63, -1.99230849742889404297e-01) (64, 1.15153722465038299561e-01) (65, -2.74647235870361328125e-01) (66, -1.79994285106658935547e-01) (67, -3.05386751890182495117e-01) (68, -3.10954123735427856445e-01) (69, 1.50000000000000000000e+03) (70, -5.72427809238433837891e-01) (71, -5.06714046001434326172e-01) (72, -2.44978457689285278320e-01) (73, -3.45548667907714843750e+01) (74, -1.75436794757843017578e-01) (75, 1.05600997805595397949e-01) (76, 1.84233337640762329102e-01) (77, 1.50000000000000000000e+03) (78, 1.93806022405624389648e-01) (79, 1.13422699272632598877e-01) (80, -1.89794301986694335938e-01) (81, -4.19897466897964477539e-01) (82, -2.02228099107742309570e-01) (83, -1.36805087327957153320e-01) (84, 1.50000000000000000000e+03) (85, 1.64270758628845214844e-01) (86, -2.75767177343368530273e-01) (87, 1.49850428104400634766e-01) (88, -4.15074914693832397461e-01) (89, 1.41722977161407470703e-01) (90, -1.86699450016021728516e-01) (91, -4.11989063024520874023e-01) (92, -5.88796019554138183594e-01) (93, -3.88408996582031250000e+02) (94, -1.64956480264663696289e-01) (95, -5.08985102176666259766e-01) (96, 1.50000000000000000000e+03) (97, -2.82695233821868896484e-01) (98, -2.64111846685409545898e-01) (99, -2.87228405475616455078e-01) (100, -2.07908540964126586914e-01) (101, -2.38279968500137329102e-01) (102, -4.35682564973831176758e-01) (2, -5.78316628932952880859e-01) (3, -2.22936391830444335938e-01) (4, 1.85052365064620971680e-01) (5, 1.25542059540748596191e-01) (6, -2.74047672748565673828e-01) (7, -3.31284791231155395508e-01) (8, -5.49589812755584716797e-01) (9, -1.47960931062698364258e-01) (10, -1.62815481424331665039e-01) (11, -2.83230662345886230469e-01) (12, -2.87933647632598876953e-01) (13, 1.56239271163940429688e-01) (14, -2.58985280990600585938e-01) (15, 1.50000000000000000000e+03) (16, -1.54864579439163208008e-01) (17, -3.44477504491806030273e-01) (18, 2.17789128422737121582e-01) (19, -5.36479473114013671875e-01) (20, -4.12917464971542358398e-01) (21, 2.04063504934310913086e-01) (22, -2.39021658897399902344e-01) (23, 1.50000000000000000000e+03) (24, -2.44233578443527221680e-01) (25, -4.37751621007919311523e-01) (26, 1.50000000000000000000e+03) (27, 1.50000000000000000000e+03) (28, -3.03600817918777465820e-01) (29, -5.30040442943572998047e-01) (30, 1.27285555005073547363e-01) (31, -1.83617234230041503906e-01) (32, -5.67459583282470703125e-01) (33, -4.90686684846878051758e-01) (34, -2.04602420330047607422e-01) (35, -4.22062903642654418945e-01) (36, 1.50000000000000000000e+03) (37, -1.72694832086563110352e-01) (38, 2.34210744500160217285e-01) (39, 7.31685310602188110352e-02) (40, 6.52437744140625000000e+01) (41, -1.68252557516098022461e-01) (42, -2.49706089496612548828e-01) (43, -5.88680326938629150391e-01) (44, 9.39370244741439819336e-02) (45, 1.90861970186233520508e-01) (46, 1.50000000000000000000e+03) (47, 4.50230054557323455811e-02) (48, -1.45260274410247802734e-01) (49, -1.27591654658317565918e-01) (50, -2.43106544017791748047e-01) (51, -1.64222389459609985352e-01) (52, 1.50000000000000000000e+03) (53, -2.24177032709121704102e-01) (54, 1.50000000000000000000e+03) (55, 9.21405702829360961914e-02) (56, -5.07974863052368164062e-01) (57, -2.02201932668685913086e-01) (58, -3.16176980733871459961e-01) (59, -1.69618874788284301758e-01) (60, -1.38294190168380737305e-01) (61, 1.50000000000000000000e+03) (62, -2.47284919023513793945e-01) (63, -1.59804999828338623047e-01) (64, 6.83316886425018310547e-02) (65, -2.97940224409103393555e-01) (66, -1.39912888407707214355e-01) (67, -2.88109779357910156250e-01) (68, -1.64679765701293945312e-01) (69, 1.50000000000000000000e+03) (70, -5.42582452297210693359e-01) (71, -4.65437263250350952148e-01) (72, -2.55652189254760742188e-01) (73, -3.47871856689453125000e+01) (74, -2.20164924860000610352e-01) (75, 1.92237943410873413086e-01) (76, 9.84723269939422607422e-02) (77, 1.50000000000000000000e+03) (78, 1.97613626718521118164e-01) (79, 5.91630861163139343262e-02) (80, -1.93584620952606201172e-01) (81, -5.73139071464538574219e-01) (82, -1.44707143306732177734e-01) (83, -2.50810056924819946289e-01) (84, 1.50000000000000000000e+03) (85, 1.11768528819084167480e-01) (86, -1.98317110538482666016e-01) (87, 7.62094110250473022461e-02) (88, -4.18085783720016479492e-01) (89, 1.85061246156692504883e-01) (90, -1.81057453155517578125e-01) (91, -4.50428515672683715820e-01) (92, -5.23120999336242675781e-01) (93, -1.14811035156250000000e+02) (94, -1.68278187513351440430e-01) (95, -4.94444131851196289062e-01) (96, 1.50000000000000000000e+03) (97, -2.50239878892898559570e-01) (98, -2.36594527959823608398e-01) (99, -2.77108788490295410156e-01) (100, -2.41638153791427612305e-01) (101, -1.85228466987609863281e-01) (102, -5.88584005832672119141e-01) (2, -4.47733730077743530273e-01) (3, -2.94012904167175292969e-01) (4, 1.62407532334327697754e-01) (5, 1.38459041714668273926e-01) (6, -2.35185042023658752441e-01) (7, -2.97189831733703613281e-01) (8, -5.37174046039581298828e-01) (9, -1.67669788002967834473e-01) (10, -1.36820241808891296387e-01) (11, -2.28366807103157043457e-01) (12, -2.54426240921020507812e-01) (13, 6.39211982488632202148e-02) (14, -3.25786858797073364258e-01) (15, 1.50000000000000000000e+03) (16, -1.74044087529182434082e-01) (17, -2.89225399494171142578e-01) (18, 1.87164053320884704590e-01) (19, -5.16633570194244384766e-01) (20, -5.56326031684875488281e-01) (21, 1.30690887570381164551e-01) (22, -1.57804235816001892090e-01) (23, 1.50000000000000000000e+03) (24, -3.25239747762680053711e-01) (25, -5.46290934085845947266e-01) (26, 1.50000000000000000000e+03) (27, 1.50000000000000000000e+03) (28, -1.88936367630958557129e-01) (29, -5.12348651885986328125e-01) (30, 3.63872498273849487305e-02) (31, -2.20213636755943298340e-01) (32, -5.06984591484069824219e-01) (33, -4.34602051973342895508e-01) (34, -2.95883297920227050781e-01) (35, -5.67829191684722900391e-01) (36, 1.50000000000000000000e+03) (37, -2.08721473813056945801e-01) (38, 1.38925805687904357910e-01) (39, 1.87370941042900085449e-01) (40, 6.52098846435546875000e+01) (41, -2.21150651574134826660e-01) (42, -2.64253735542297363281e-01) (43, -5.78128278255462646484e-01) (44, 1.65114536881446838379e-01) (45, 1.25907436013221740723e-01) (46, 1.50000000000000000000e+03) (47, 1.13413572311401367188e-01) (48, -1.38571783900260925293e-01) (49, -1.38185828924179077148e-01) (50, -1.38475328683853149414e-01) (51, -2.84559667110443115234e-01) (52, 1.50000000000000000000e+03) (53, -2.21935674548149108887e-01) (54, 1.50000000000000000000e+03) (55, 1.59956052899360656738e-01) (56, -5.97883403301239013672e-01) (57, -1.29831194877624511719e-01) (58, -2.84828960895538330078e-01) (59, -1.28479033708572387695e-01) (60, -2.31833919882774353027e-01) (61, 1.50000000000000000000e+03) (62, -2.26348862051963806152e-01) (63, -1.76472708582878112793e-01) (64, 9.76507738232612609863e-02) (65, -1.51885509490966796875e-01) (66, -2.85964280366897583008e-01) (67, -1.57001689076423645020e-01) (68, -2.38263443112373352051e-01) (69, 1.50000000000000000000e+03) (70, -4.80891078710556030273e-01) (71, -5.61966001987457275391e-01) (72, -3.17102640867233276367e-01) (73, -3.47182617187500000000e+01) (74, -2.89758801460266113281e-01) (75, 2.18358680605888366699e-01) (76, 1.13453745841979980469e-01) (77, 1.50000000000000000000e+03) (78, 1.08515627682209014893e-01) (79, 9.72255021333694458008e-02) (80, -2.37346485257148742676e-01) (81, -5.41213691234588623047e-01) (82, -2.10586830973625183105e-01) (83, -1.45754799246788024902e-01) (84, 1.50000000000000000000e+03) (85, 1.06375522911548614502e-01) (86, -2.09055051207542419434e-01) (87, 5.32489083707332611084e-02) (88, -5.34709632396697998047e-01) (89, 2.22062021493911743164e-01) (90, -3.46489101648330688477e-01) (91, -4.44206029176712036133e-01) (92, -5.12889623641967773438e-01) (93, 2.36441314697265625000e+02) (94, -1.62331849336624145508e-01) (95, -4.38496619462966918945e-01) (96, 1.50000000000000000000e+03) (97, -1.73949256539344787598e-01) (98, -2.33151420950889587402e-01) (99, -2.99956798553466796875e-01) (100, -1.73897638916969299316e-01) (101, -3.03699195384979248047e-01) (102, -4.91581648588180541992e-01) (2, -6.06351912021636962891e-01) (3, -3.13852995634078979492e-01) (4, 2.24907621741294860840e-01) (5, 2.22346633672714233398e-01) (6, -2.23652392625808715820e-01) (7, -2.67852634191513061523e-01) (8, -5.25993824005126953125e-01) (9, -3.01686674356460571289e-01) (10, -1.34855285286903381348e-01) (11, -1.68865203857421875000e-01) (12, -2.37926751375198364258e-01) (13, 1.87334269285202026367e-01) (14, -1.99330091476440429688e-01) (15, 1.50000000000000000000e+03) (16, -2.44977563619613647461e-01) (17, -1.69337093830108642578e-01) (18, 1.14423468708992004395e-01) (19, -5.34170389175415039062e-01) (20, -5.85477471351623535156e-01) (21, 8.05637463927268981934e-02) (22, -1.48716151714324951172e-01) (23, 1.50000000000000000000e+03) (24, -3.53027582168579101562e-01) (25, -4.64868843555450439453e-01) (26, 1.50000000000000000000e+03) (27, 1.50000000000000000000e+03) (28, -2.87676900625228881836e-01) (29, -4.08930361270904541016e-01) (30, 1.85415595769882202148e-01) (31, -2.21025794744491577148e-01) (32, -4.90165054798126220703e-01) (33, -4.46497976779937744141e-01) (34, -3.18835169076919555664e-01) (35, -4.90811765193939208984e-01) (36, 1.50000000000000000000e+03) (37, -2.22440451383590698242e-01) (38, 4.29828427731990814209e-02) (39, 6.59476146101951599121e-02) (40, 6.52526855468750000000e+01) (41, -3.17430764436721801758e-01) (42, -1.28473863005638122559e-01) (43, -5.13965308666229248047e-01) (44, 1.89950555562973022461e-01) (45, 1.85840278863906860352e-01) (46, 1.50000000000000000000e+03) (47, 6.50159046053886413574e-02) (48, -1.61053255200386047363e-01) (49, -1.23861052095890045166e-01) (50, -2.06711113452911376953e-01) (51, -1.38489529490470886230e-01) (52, 1.50000000000000000000e+03) (53, -2.83385843038558959961e-01) (54, 1.50000000000000000000e+03) (55, 9.17668417096138000488e-02) (56, -5.80202996730804443359e-01) (57, -2.19345718622207641602e-01) (58, -2.90422499179840087891e-01) (59, -2.11834698915481567383e-01) (60, -2.20228970050811767578e-01) (61, 1.50000000000000000000e+03) (62, -3.12820345163345336914e-01) (63, -3.50350499153137207031e-01) (64, 2.24587231874465942383e-01) (65, -2.63605892658233642578e-01) (66, -1.85111626982688903809e-01) (67, -1.62669673562049865723e-01) (68, -3.66005301475524902344e-01) (69, 1.50000000000000000000e+03) (70, -4.10281240940093994141e-01) (71, -4.42041754722595214844e-01) (72, -2.13067948818206787109e-01) (73, -3.47213897705078125000e+01) (74, -3.07961374521255493164e-01) (75, 1.44926249980926513672e-01) (76, 1.75176531076431274414e-01) (77, 1.50000000000000000000e+03) (78, 1.84386461973190307617e-01) (79, 1.34167015552520751953e-01) (80, -1.56458780169486999512e-01) (81, -5.35879552364349365234e-01) (82, -2.29878365993499755859e-01) (83, -3.05270493030548095703e-01) (84, 1.50000000000000000000e+03) (85, 8.76921042799949645996e-02) (86, -2.39056050777435302734e-01) (87, 2.10218131542205810547e-01) (88, -4.45212841033935546875e-01) (89, 1.84168487787246704102e-01) (90, -2.75174349546432495117e-01) (91, -5.45392811298370361328e-01) (92, -4.11951303482055664062e-01) (93, 2.90275665283203125000e+02) (94, -2.39698052406311035156e-01) (95, -4.12918388843536376953e-01) (96, 1.50000000000000000000e+03) (97, -3.52769613265991210938e-01) (98, -2.15540945529937744141e-01) (99, -3.61469209194183349609e-01) (100, -1.52407228946685791016e-01) (101, -2.17775046825408935547e-01) (102, -4.35463905334472656250e-01) (2, -4.51043546199798583984e-01) (3, -1.94047600030899047852e-01) (4, 9.26160886883735656738e-02) (5, 1.01929634809494018555e-01) (6, -2.44427442550659179688e-01) (7, -3.33585202693939208984e-01) (8, -5.72837948799133300781e-01) (9, -8.78176838159561157227e-02) (10, -1.21997028589248657227e-01) (11, -2.12677508592605590820e-01) (12, -2.45651632547378540039e-01) (13, 2.38377645611763000488e-01) (14, -3.03858041763305664062e-01) (15, 1.50000000000000000000e+03) (16, -2.26232290267944335938e-01) (17, -3.19196283817291259766e-01) (18, 1.72919124364852905273e-01) (19, -5.55618047714233398438e-01) (20, -4.66325581073760986328e-01) (21, 2.35565558075904846191e-01) (22, -2.71525979042053222656e-01) (23, 1.50000000000000000000e+03) (24, -2.77689129114151000977e-01) (25, -5.64393520355224609375e-01) (26, 1.50000000000000000000e+03) (27, 1.50000000000000000000e+03) (28, -1.71892940998077392578e-01) (29, -5.07113099098205566406e-01) (30, 9.88275706768035888672e-02) (31, -2.21624404191970825195e-01) (32, -5.34525454044342041016e-01) (33, -4.12163197994232177734e-01) (34, -2.34019577503204345703e-01) (35, -5.01861214637756347656e-01) (36, 1.50000000000000000000e+03) (37, -1.92794561386108398438e-01) (38, 1.31812423467636108398e-01) (39, 6.42345845699310302734e-02) (40, 6.54667129516601562500e+01) (41, -2.50131756067276000977e-01) (42, -2.08389967679977416992e-01) (43, -5.46956181526184082031e-01) (44, 7.39004313945770263672e-02) (45, 1.67008012533187866211e-01) (46, 1.50000000000000000000e+03) (47, 1.33321136236190795898e-01) (48, -1.64132267236709594727e-01) (49, -1.95849448442459106445e-01) (50, -1.94246619939804077148e-01) (51, -2.56802558898925781250e-01) (52, 1.50000000000000000000e+03) (53, -2.28118538856506347656e-01) (54, 1.50000000000000000000e+03) (55, 1.81336998939514160156e-01) (56, -4.58865284919738769531e-01) (57, -1.41410678625106811523e-01) (58, -1.41020029783248901367e-01) (59, -2.09102243185043334961e-01) (60, -2.74870634078979492188e-01) (61, 1.50000000000000000000e+03) (62, -1.45074605941772460938e-01) (63, -2.83746808767318725586e-01) (64, 2.52950072288513183594e-01) (65, -2.45441377162933349609e-01) (66, -1.63949400186538696289e-01) (67, -8.91719833016395568848e-02) (68, -1.52583658695220947266e-01) (69, 1.50000000000000000000e+03) (70, -5.72881579399108886719e-01) (71, -4.53893721103668212891e-01) (72, -3.04567337036132812500e-01) (73, -3.45934143066406250000e+01) (74, -1.87195926904678344727e-01) (75, 1.02989383041858673096e-01) (76, 2.45036199688911437988e-01) (77, 1.50000000000000000000e+03) (78, 1.76363199949264526367e-01) (79, 1.66559368371963500977e-01) (80, -2.72563397884368896484e-01) (81, -5.65828919410705566406e-01) (82, -1.50190368294715881348e-01) (83, -2.07138210535049438477e-01) (84, 1.50000000000000000000e+03) (85, 7.96876251697540283203e-02) (86, -8.57496708631515502930e-02) (87, 8.80930200219154357910e-02) (88, -4.09673213958740234375e-01) (89, 2.52480506896972656250e-01) (90, -2.28956282138824462891e-01) (91, -3.98889243602752685547e-01) (92, -5.49600660800933837891e-01) (93, 2.23305953979492187500e+02) (94, -2.60977476835250854492e-01) (95, -5.56594550609588623047e-01) (96, 1.50000000000000000000e+03) (97, -1.87273561954498291016e-01) (98, -3.20119082927703857422e-01) (99, -2.19098091125488281250e-01) (100, -1.45706087350845336914e-01) (101, -3.19350302219390869141e-01) (102, -5.39333701133728027344e-01) (2, -4.14389014244079589844e-01) (3, -2.51084208488464355469e-01) (4, 2.30950161814689636230e-01) (5, 6.22560828924179077148e-02) (6, -2.65993297100067138672e-01) (7, -2.39359706640243530273e-01) (8, -4.54931378364562988281e-01) (9, -1.11380979418754577637e-01) (10, -1.78268820047378540039e-01) (11, -1.59106448292732238770e-01) (12, -2.23918199539184570312e-01) (13, 2.45842352509498596191e-01) (14, -2.93754786252975463867e-01) (15, 1.50000000000000000000e+03) (16, -9.98515635728836059570e-02) (17, -2.65606343746185302734e-01) (18, 1.53405278921127319336e-01) (19, -3.95318090915679931641e-01) (20, -4.00912702083587646484e-01) (21, 1.28172099590301513672e-01) (22, -2.83268302679061889648e-01) (23, 1.50000000000000000000e+03) (24, -2.40752130746841430664e-01) (25, -5.54206848144531250000e-01) (26, 1.50000000000000000000e+03) (27, 1.50000000000000000000e+03) (28, -3.00675719976425170898e-01) (29, -4.59598541259765625000e-01) (30, 2.39170745015144348145e-01) (31, -2.86370038986206054688e-01) (32, -4.25281882286071777344e-01) (33, -4.25394833087921142578e-01) (34, -1.46029904484748840332e-01) (35, -4.44508731365203857422e-01) (36, 1.50000000000000000000e+03) (37, -3.16604614257812500000e-01) (38, 9.31554064154624938965e-02) (39, 1.48779064416885375977e-01) (40, 6.55101928710937500000e+01) (41, -1.35292634367942810059e-01) (42, -2.60507583618164062500e-01) (43, -4.53061699867248535156e-01) (44, 2.05973953008651733398e-01) (45, 1.34762883186340332031e-01) (46, 1.50000000000000000000e+03) (47, 2.01543718576431274414e-01) (48, -1.33022114634513854980e-01) (49, -1.22589513659477233887e-01) (50, -1.55950084328651428223e-01) (51, -1.50510221719741821289e-01) (52, 1.50000000000000000000e+03) (53, -1.91794186830520629883e-01) (54, 1.50000000000000000000e+03) (55, 2.03672423958778381348e-01) (56, -4.02586162090301513672e-01) (57, -2.65453696250915527344e-01) (58, -3.40883612632751464844e-01) (59, -2.71835774183273315430e-01) (60, -1.41627237200736999512e-01) (61, 1.50000000000000000000e+03) (62, -2.62780755758285522461e-01) (63, -2.31484383344650268555e-01) (64, 1.99743598699569702148e-01) (65, -2.65389680862426757812e-01) (66, -2.44568794965744018555e-01) (67, -1.75749540328979492188e-01) (68, -2.86572426557540893555e-01) (69, 1.50000000000000000000e+03) (70, -5.65147519111633300781e-01) (71, -5.15710771083831787109e-01) (72, -2.89467066526412963867e-01) (73, -3.44469985961914062500e+01) (74, -1.45346581935882568359e-01) (75, 5.99306449294090270996e-02) (76, 1.87947928905487060547e-01) (77, 1.50000000000000000000e+03) (78, 2.11295664310455322266e-01) (79, 1.50346994400024414062e-01) (80, -2.54909187555313110352e-01) (81, -4.82837200164794921875e-01) (82, -2.50342637300491333008e-01) (83, -2.04084038734436035156e-01) (84, 1.50000000000000000000e+03) (85, 1.15954250097274780273e-01) (86, -2.50591099262237548828e-01) (87, 8.32305550575256347656e-02) (88, -4.87681031227111816406e-01) (89, 9.75494533777236938477e-02) (90, -2.86785751581192016602e-01) (91, -5.33881664276123046875e-01) (92, -5.44512987136840820312e-01) (93, 2.23417144775390625000e+02) (94, -1.33947655558586120605e-01) (95, -3.94954502582550048828e-01) (96, 1.50000000000000000000e+03) (97, -3.31098794937133789062e-01) (98, -2.35279768705368041992e-01) (99, -3.19260656833648681641e-01) (100, -1.89266592264175415039e-01) (101, -2.17008769512176513672e-01) (102, -4.91548717021942138672e-01) (2, -4.33745592832565307617e-01) (3, -1.74256339669227600098e-01) (4, 4.58013206720352172852e-01) (5, 5.37931621074676513672e-01) (6, -2.36490979790687561035e-01) (7, -1.96222975850105285645e-01) (8, -4.62877273559570312500e-01) (9, -2.88323611021041870117e-01) (10, -1.07710838317871093750e-01) (11, -2.74290233850479125977e-01) (12, -2.91245251893997192383e-01) (13, 4.57542389631271362305e-01) (14, -2.70076602697372436523e-01) (15, 1.50000000000000000000e+03) (16, -1.71544179320335388184e-01) (17, -2.37024396657943725586e-01) (18, 3.92193228006362915039e-01) (19, -4.12177115678787231445e-01) (20, -4.20386105775833129883e-01) (21, 4.41730290651321411133e-01) (22, -2.85271674394607543945e-01) (23, 1.50000000000000000000e+03) (24, -3.18716257810592651367e-01) (25, -5.84796547889709472656e-01) (26, 1.50000000000000000000e+03) (27, 1.50000000000000000000e+03) (28, -2.36660450696945190430e-01) (29, -4.91626322269439697266e-01) (30, 5.21685242652893066406e-01) (31, -3.10248762369155883789e-01) (32, -3.99755626916885375977e-01) (33, -4.80121225118637084961e-01) (34, -2.82651752233505249023e-01) (35, -5.09800255298614501953e-01) (36, 1.50000000000000000000e+03) (37, -2.13282480835914611816e-01) (38, 4.09745067358016967773e-01) (39, 3.82637888193130493164e-01) (40, 1.89372329711914062500e+01) (41, -2.66032546758651733398e-01) (42, -2.59715467691421508789e-01) (43, -5.73135733604431152344e-01) (44, 4.97366815805435180664e-01) (45, 4.97985005378723144531e-01) (46, 1.50000000000000000000e+03) (47, 4.31676000356674194336e-01) (48, -2.59102851152420043945e-01) (49, -1.32620498538017272949e-01) (50, -2.60564237833023071289e-01) (51, -2.85631984472274780273e-01) (52, 1.50000000000000000000e+03) (53, -2.87978976964950561523e-01) (54, 1.50000000000000000000e+03) (55, 4.50103849172592163086e-01) (56, -5.18918573856353759766e-01) (57, -2.96819418668746948242e-01) (58, -2.24348485469818115234e-01) (59, -1.13724015653133392334e-01) (60, -1.94590047001838684082e-01) (61, 1.50000000000000000000e+03) (62, -3.18119436502456665039e-01) (63, -2.48491913080215454102e-01) (64, 5.64927399158477783203e-01) (65, -2.46913895010948181152e-01) (66, -1.16437226533889770508e-01) (67, -2.25401505827903747559e-01) (68, -1.54339775443077087402e-01) (69, 1.50000000000000000000e+03) (70, -4.98823553323745727539e-01) (71, -4.36239093542098999023e-01) (72, -2.82934516668319702148e-01) (73, -9.49229335784912109375e+00) (74, -1.75519540905952453613e-01) (75, 3.68289321660995483398e-01) (76, 4.39155310392379760742e-01) (77, 1.50000000000000000000e+03) (78, 4.31902199983596801758e-01) (79, 4.85909432172775268555e-01) (80, -2.05183878540992736816e-01) (81, -4.84720408916473388672e-01) (82, -1.67782053351402282715e-01) (83, -1.58283814787864685059e-01) (84, 1.50000000000000000000e+03) (85, 4.37109798192977905273e-01) (86, -2.76246696710586547852e-01) (87, 4.18006151914596557617e-01) (88, -5.15767455101013183594e-01) (89, 5.27183473110198974609e-01) (90, -3.11784535646438598633e-01) (91, -4.04509395360946655273e-01) (92, -5.51607131958007812500e-01) (93, -1.00284729003906250000e+03) (94, -2.11141064763069152832e-01) (95, -5.54748058319091796875e-01) (96, 1.50000000000000000000e+03) (97, -2.69728571176528930664e-01) (98, -2.34298855066299438477e-01) (99, -2.17587128281593322754e-01) (100, -1.90626874566078186035e-01) (101, -3.39270442724227905273e-01) (102, -4.99968171119689941406e-01) (2, -4.48336243629455566406e-01) (3, -2.38724663853645324707e-01) (4, 3.99652838706970214844e-01) (5, 5.13816297054290771484e-01) (6, -3.67636144161224365234e-01) (7, -1.94826856255531311035e-01) (8, -5.84264636039733886719e-01) (9, -2.01786085963249206543e-01) (10, -2.46157303452491760254e-01) (11, -1.87135413289070129395e-01) (12, -3.11718523502349853516e-01) (13, 3.75328600406646728516e-01) (14, -2.60126441717147827148e-01) (15, 1.50000000000000000000e+03) (16, -2.68979638814926147461e-01) (17, -2.10182532668113708496e-01) (18, 3.57332587242126464844e-01) (19, -5.97857475280761718750e-01) (20, -6.08107447624206542969e-01) (21, 3.46680164337158203125e-01) (22, -2.67617493867874145508e-01) (23, 1.50000000000000000000e+03) (24, -2.80527681112289428711e-01) (25, -5.16512572765350341797e-01) (26, 1.50000000000000000000e+03) (27, 1.50000000000000000000e+03) (28, -3.56957852840423583984e-01) (29, -4.57284986972808837891e-01) (30, 4.40747320652008056641e-01) (31, -3.42371404170989990234e-01) (32, -5.63394546508789062500e-01) (33, -5.35017430782318115234e-01) (34, -3.38614583015441894531e-01) (35, -4.91182863712310791016e-01) (36, 1.50000000000000000000e+03) (37, -3.59765529632568359375e-01) (38, 4.70391690731048583984e-01) (39, 4.63485598564147949219e-01) (40, 1.61630493164062500000e+02) (41, -3.03204119205474853516e-01) (42, -2.51084893941879272461e-01) (43, -5.72297215461730957031e-01) (44, 4.18609678745269775391e-01) (45, 3.57187628746032714844e-01) (46, 1.50000000000000000000e+03) (47, 4.96119171380996704102e-01) (48, -3.32433581352233886719e-01) (49, -3.02592575550079345703e-01) (50, -3.41185092926025390625e-01) (51, -3.06062281131744384766e-01) (52, 1.50000000000000000000e+03) (53, -3.10319185256958007812e-01) (54, 1.50000000000000000000e+03) (55, 5.04536628723144531250e-01) (56, -6.32343232631683349609e-01) (57, -1.60943344235420227051e-01) (58, -2.19300046563148498535e-01) (59, -3.06822240352630615234e-01) (60, -1.83743104338645935059e-01) (61, 1.50000000000000000000e+03) (62, -3.02708446979522705078e-01) (63, -3.60662519931793212891e-01) (64, 5.15396416187286376953e-01) (65, -2.46834054589271545410e-01) (66, -1.69356450438499450684e-01) (67, -2.72692501544952392578e-01) (68, -2.60115295648574829102e-01) (69, 1.50000000000000000000e+03) (70, -6.24636292457580566406e-01) (71, -5.20699143409729003906e-01) (72, -2.31118395924568176270e-01) (73, -8.85882644653320312500e+01) (74, -2.18517795205116271973e-01) (75, 3.81972730159759521484e-01) (76, 4.62426781654357910156e-01) (77, 1.50000000000000000000e+03) (78, 3.50651621818542480469e-01) (79, 4.76479828357696533203e-01) (80, -3.12633872032165527344e-01) (81, -6.05962038040161132812e-01) (82, -1.57014951109886169434e-01) (83, -2.49492183327674865723e-01) (84, 1.50000000000000000000e+03) (85, 4.61505591869354248047e-01) (86, -2.72399574518203735352e-01) (87, 4.42253410816192626953e-01) (88, -5.14873802661895751953e-01) (89, 3.76700937747955322266e-01) (90, -2.40000024437904357910e-01) (91, -5.52131593227386474609e-01) (92, -4.96725261211395263672e-01) (93, 3.41035980224609375000e+02) (94, -2.30311587452888488770e-01) (95, -5.08768677711486816406e-01) (96, 1.50000000000000000000e+03) (97, -3.01190316677093505859e-01) (98, -1.94974526762962341309e-01) (99, -3.14212560653686523438e-01) (100, -3.33108365535736083984e-01) (101, -3.85135710239410400391e-01) (102, -4.40430521965026855469e-01) (2, -4.63040053844451904297e-01) (3, -2.85191148519515991211e-01) (4, 4.92163777351379394531e-01) (5, 3.53417932987213134766e-01) (6, -3.50199162960052490234e-01) (7, -2.39799022674560546875e-01) (8, -5.85279107093811035156e-01) (9, -1.53151780366897583008e-01) (10, -1.57947689294815063477e-01) (11, -2.68766880035400390625e-01) (12, -2.11685210466384887695e-01) (13, 4.12957787513732910156e-01) (14, -2.04082071781158447266e-01) (15, 1.50000000000000000000e+03) (16, -1.86873704195022583008e-01) (17, -2.89267450571060180664e-01) (18, 3.63910615444183349609e-01) (19, -6.25605046749114990234e-01) (20, -5.74779570102691650391e-01) (21, 4.46257770061492919922e-01) (22, -1.99847757816314697266e-01) (23, 1.50000000000000000000e+03) (24, -3.59492421150207519531e-01) (25, -5.62129974365234375000e-01) (26, 1.50000000000000000000e+03) (27, 1.50000000000000000000e+03) (28, -3.22629570960998535156e-01) (29, -5.02348840236663818359e-01) (30, 4.69099342823028564453e-01) (31, -3.13280105590820312500e-01) (32, -5.08293628692626953125e-01) (33, -5.16078054904937744141e-01) (34, -3.50691258907318115234e-01) (35, -5.38270056247711181641e-01) (36, 1.50000000000000000000e+03) (37, -3.49110484123229980469e-01) (38, 3.83620560169219970703e-01) (39, 3.31611394882202148438e-01) (40, 2.18600830078125000000e+02) (41, -2.96471148729324340820e-01) (42, -2.59294450283050537109e-01) (43, -6.02388918399810791016e-01) (44, 4.68266487121582031250e-01) (45, 4.10316526889801025391e-01) (46, 1.50000000000000000000e+03) (47, 4.33168947696685791016e-01) (48, -1.53087198734283447266e-01) (49, -3.50463271141052246094e-01) (50, -2.26578831672668457031e-01) (51, -2.88097113370895385742e-01) (52, 1.50000000000000000000e+03) (53, -3.22654485702514648438e-01) (54, 1.50000000000000000000e+03) (55, 4.87866640090942382812e-01) (56, -4.85010981559753417969e-01) (57, -3.19687247276306152344e-01) (58, -3.00475805997848510742e-01) (59, -3.19860637187957763672e-01) (60, -1.82252943515777587891e-01) (61, 1.50000000000000000000e+03) (62, -2.81360715627670288086e-01) (63, -2.98771768808364868164e-01) (64, 4.92107897996902465820e-01) (65, -2.32268214225769042969e-01) (66, -3.49268376827239990234e-01) (67, -2.26836740970611572266e-01) (68, -2.29598820209503173828e-01) (69, 1.50000000000000000000e+03) (70, -5.05368411540985107422e-01) (71, -6.20302498340606689453e-01) (72, -2.80479162931442260742e-01) (73, -1.18945541381835937500e+02) (74, -3.42924416065216064453e-01) (75, 3.87567341327667236328e-01) (76, 4.37209486961364746094e-01) (77, 1.50000000000000000000e+03) (78, 4.98601973056793212891e-01) (79, 4.35898363590240478516e-01) (80, -3.34061682224273681641e-01) (81, -5.38120210170745849609e-01) (82, -1.74335002899169921875e-01) (83, -2.08623528480529785156e-01) (84, 1.50000000000000000000e+03) (85, 4.74517375230789184570e-01) (86, -2.42901802062988281250e-01) (87, 4.55687820911407470703e-01) (88, -4.55311179161071777344e-01) (89, 3.30318629741668701172e-01) (90, -2.34309077262878417969e-01) (91, -4.85788047313690185547e-01) (92, -5.85331678390502929688e-01) (93, 2.82665191650390625000e+02) (94, -2.96779841184616088867e-01) (95, -6.15369141101837158203e-01) (96, 1.50000000000000000000e+03) (97, -3.42268347740173339844e-01) (98, -2.50432550907135009766e-01) (99, -2.26204812526702880859e-01) (100, -2.30272471904754638672e-01) (101, -3.16025793552398681641e-01) (102, 